{"type":"LSTMTimeStep","options":{"inputSize":4,"hiddenLayers":[8,8],"outputSize":4,"decayRate":0.999,"smoothEps":1e-8,"regc":0.000001,"clipval":5},"hiddenLayers":[{"inputMatrix":{"rows":8,"columns":4,"weights":{"0":0.0477924570441246,"1":0.6333030462265015,"2":0.3301604092121124,"3":0.7231160402297974,"4":0.18994702398777008,"5":0.8376468420028687,"6":0.5838586688041687,"7":0.9032148122787476,"8":-0.06676442921161652,"9":-0.13615265488624573,"10":-0.04476556554436684,"11":-0.218144029378891,"12":0.16090598702430725,"13":0.9502865672111511,"14":0.5166622400283813,"15":0.7958694100379944,"16":-0.2444317489862442,"17":0.04188479483127594,"18":-0.7513840198516846,"19":-0.21077606081962585,"20":0.2899612784385681,"21":1.0032700300216675,"22":0.6836156249046326,"23":0.8981367945671082,"24":0.7463005185127258,"25":0.6096540093421936,"26":0.619234025478363,"27":0.5122551321983337,"28":0.7427178621292114,"29":-0.002058926736935973,"30":0.21211685240268707,"31":0.11498739570379257}},"inputHidden":{"rows":8,"columns":8,"weights":{"0":-0.9152786731719971,"1":-0.6609426736831665,"2":1.3062338829040527,"3":0.3878215253353119,"4":-1.247356653213501,"5":-0.4672553837299347,"6":0.4401182532310486,"7":-0.15662255883216858,"8":-0.544964075088501,"9":-0.2527834177017212,"10":0.7535363435745239,"11":-0.12377829104661942,"12":-0.39414897561073303,"13":0.05217890813946724,"14":0.4058115482330322,"15":-0.122433140873909,"16":0.5610848665237427,"17":0.5117487907409668,"18":0.48529309034347534,"19":-0.7597609758377075,"20":-0.5782260298728943,"21":0.639500081539154,"22":1.226758599281311,"23":-0.5510349273681641,"24":-0.08965390920639038,"25":0.21831676363945007,"26":0.1871081292629242,"27":-0.47826334834098816,"28":0.06492777168750763,"29":0.5288420915603638,"30":0.49820321798324585,"31":-0.24434667825698853,"32":0.17022866010665894,"33":-0.08221486210823059,"34":0.1976310759782791,"35":-0.04380079358816147,"36":-0.5764449834823608,"37":-0.02737409994006157,"38":1.235419750213623,"39":-1.0767451524734497,"40":-0.06565932184457779,"41":0.11754739284515381,"42":-0.014065677300095558,"43":-0.35923755168914795,"44":0.20642372965812683,"45":0.43315038084983826,"46":0.0425034798681736,"47":0.18462945520877838,"48":0.044322896748781204,"49":-0.14457517862319946,"50":-0.17964109778404236,"51":-0.07943626493215561,"52":0.23703880608081818,"53":0.2493835836648941,"54":-0.5192352533340454,"55":0.3061940670013428,"56":-0.06488975137472153,"57":-0.5642083287239075,"58":-0.597393274307251,"59":0.4037465751171112,"60":0.6911450028419495,"61":-0.4367154538631439,"62":-0.5292565822601318,"63":0.25479069352149963}},"inputBias":{"rows":8,"columns":1,"weights":{"0":0.8246521353721619,"1":0.8268365263938904,"2":-0.5669369101524353,"3":0.5795705318450928,"4":-0.3755868077278137,"5":0.48213860392570496,"6":1.0655229091644287,"7":0.9960393309593201}},"forgetMatrix":{"rows":8,"columns":4,"weights":{"0":0.13797757029533386,"1":0.36841708421707153,"2":0.08236490935087204,"3":0.5563451051712036,"4":0.22296294569969177,"5":0.4717605710029602,"6":0.27330416440963745,"7":0.6991249322891235,"8":-0.5343373417854309,"9":-0.8048999309539795,"10":-0.8588205575942993,"11":-0.8769396543502808,"12":0.14860256016254425,"13":0.46623000502586365,"14":0.41949087381362915,"15":0.8524155020713806,"16":0.03834155201911926,"17":-0.27082014083862305,"18":-0.2697574496269226,"19":-0.4413904547691345,"20":0.20531292259693146,"21":0.44957831501960754,"22":0.6150467395782471,"23":0.8593675494194031,"24":0.15474630892276764,"25":-0.1429346650838852,"26":0.3438330292701721,"27":-0.15471310913562775,"28":-0.16731120645999908,"29":-0.5772642493247986,"30":-0.26955345273017883,"31":-0.4994354546070099}},"forgetHidden":{"rows":8,"columns":8,"weights":{"0":-0.1651642918586731,"1":-0.2397223860025406,"2":-0.14380571246147156,"3":0.35729196667671204,"4":0.05036372318863869,"5":-0.18006812036037445,"6":0.023033304139971733,"7":-0.06564631313085556,"8":-0.23843584954738617,"9":-0.4468083083629608,"10":0.12800002098083496,"11":0.374511182308197,"12":-0.07462149858474731,"13":-0.3653041422367096,"14":0.10566142201423645,"15":0.032519854605197906,"16":-0.1630811095237732,"17":-0.20788277685642242,"18":0.0029016442131251097,"19":0.2094177007675171,"20":-0.007591465022414923,"21":-0.08522764593362808,"22":-0.44161665439605713,"23":0.170831099152565,"24":-0.31684401631355286,"25":-0.436880499124527,"26":-0.20175586640834808,"27":0.547477662563324,"28":0.146650493144989,"29":-0.6161462664604187,"30":-0.208509162068367,"31":0.0954008623957634,"32":0.08329471945762634,"33":0.1028980016708374,"34":-0.1780029684305191,"35":-0.0002159956784453243,"36":0.15437427163124084,"37":0.06026694178581238,"38":-0.635516881942749,"39":0.33390143513679504,"40":-0.3109268248081207,"41":-0.30768662691116333,"42":-0.3070005476474762,"43":0.4172976315021515,"44":0.20924460887908936,"45":-0.3406117856502533,"46":-0.20445533096790314,"47":0.022871321067214012,"48":0.6121454238891602,"49":0.7233529686927795,"50":-0.46836602687835693,"51":-0.7255199551582336,"52":0.5938256978988647,"53":0.6537680625915527,"54":-0.9306316375732422,"55":1.1215206384658813,"56":-0.2980216443538666,"57":-0.3164583444595337,"58":-0.0906587615609169,"59":0.24568040668964386,"60":0.18040484189987183,"61":-0.07923935353755951,"62":-0.7276796698570251,"63":0.43441006541252136}},"forgetBias":{"rows":8,"columns":1,"weights":{"0":0,"1":0,"2":0,"3":0,"4":0,"5":0,"6":0,"7":0}},"outputMatrix":{"rows":8,"columns":4,"weights":{"0":0.09403212368488312,"1":0.7547935247421265,"2":0.537526547908783,"3":0.7112569212913513,"4":0.2063625156879425,"5":0.9429166316986084,"6":0.6135872006416321,"7":0.9073929786682129,"8":-0.23838908970355988,"9":-0.3252617120742798,"10":-0.27483391761779785,"11":-0.3001546859741211,"12":0.1710795760154724,"13":1.0043340921401978,"14":0.5931870937347412,"15":0.9094372987747192,"16":-0.27998992800712585,"17":-0.08980276435613632,"18":-0.8659184575080872,"19":-0.37203964591026306,"20":0.40755707025527954,"21":1.0063791275024414,"22":0.7542105913162231,"23":0.8940755724906921,"24":0.45263710618019104,"25":0.4029879570007324,"26":0.5622630715370178,"27":0.38174933195114136,"28":0.509637176990509,"29":-0.27622881531715393,"30":-0.05464252829551697,"31":-0.21611535549163818}},"outputHidden":{"rows":8,"columns":8,"weights":{"0":-0.4554876685142517,"1":-0.441565603017807,"2":0.8057934641838074,"3":0.15997737646102905,"4":-0.8638862371444702,"5":-0.09823308885097504,"6":0.2332456260919571,"7":-0.06530196219682693,"8":-0.6088018417358398,"9":-0.40756529569625854,"10":0.772632360458374,"11":0.16532257199287415,"12":-0.43182313442230225,"13":-0.05550242215394974,"14":0.10483169555664062,"15":-0.19768476486206055,"16":0.4203445315361023,"17":0.3569321036338806,"18":0.5507112741470337,"19":-0.7485284209251404,"20":-0.6229392290115356,"21":0.5412129759788513,"22":1.066301703453064,"23":-0.4139604866504669,"24":-0.3019999563694,"25":-0.04242648556828499,"26":0.257687509059906,"27":-0.052445750683546066,"28":-0.017132079228758812,"29":0.020074542611837387,"30":-0.008791712112724781,"31":-0.2458406537771225,"32":0.19894105195999146,"33":-0.1872563660144806,"34":0.01243483368307352,"35":0.0606963187456131,"36":-0.4135983884334564,"37":-0.20253325998783112,"38":0.9652552008628845,"39":-0.9593888521194458,"40":-0.3897204101085663,"41":-0.1562029868364334,"42":0.05843183770775795,"43":0.026115890592336655,"44":0.06792789697647095,"45":-0.010445119813084602,"46":-0.154511958360672,"47":0.06507693231105804,"48":-0.2512698471546173,"49":-0.039817530661821365,"50":-0.048441462218761444,"51":-0.17342376708984375,"52":0.20207637548446655,"53":0.398363322019577,"54":-0.7174362540245056,"55":0.6209803223609924,"56":-0.44805508852005005,"57":-0.8465108275413513,"58":-0.6587837338447571,"59":0.6532333493232727,"60":0.7948698997497559,"61":-0.7235437631607056,"62":-0.9309563636779785,"63":0.5721768736839294}},"outputBias":{"rows":8,"columns":1,"weights":{"0":0.8188778162002563,"1":0.8474094867706299,"2":-0.5910929441452026,"3":0.6230013370513916,"4":-0.40415823459625244,"5":0.5604125261306763,"6":1.0639384984970093,"7":1.001355528831482}},"cellActivationMatrix":{"rows":8,"columns":4,"weights":{"0":-0.37511754035949707,"1":0.5328542590141296,"2":0.592839241027832,"3":0.8659126162528992,"4":-0.6934487223625183,"5":0.5537632703781128,"6":0.4574523866176605,"7":0.8979876637458801,"8":-0.4865463376045227,"9":-0.09127365797758102,"10":0.2339640110731125,"11":0.17668376863002777,"12":0.60075843334198,"13":-0.5485924482345581,"14":-0.5860115885734558,"15":-0.8754402995109558,"16":0.04983849078416824,"17":0.3783310353755951,"18":0.12377786636352539,"19":0.16657844185829163,"20":-0.5691891312599182,"21":0.5715281367301941,"22":0.6311461329460144,"23":0.7519984245300293,"24":0.04202282056212425,"25":-0.07972769439220428,"26":0.5048760175704956,"27":0.2591686248779297,"28":-0.35505473613739014,"29":0.6438177227973938,"30":-0.39428573846817017,"31":0.424156129360199}},"cellActivationHidden":{"rows":8,"columns":8,"weights":{"0":-0.5693565607070923,"1":-0.4552728831768036,"2":0.3776583671569824,"3":0.6027694940567017,"4":-0.6813248991966248,"5":-0.6459826231002808,"6":0.4683470129966736,"7":-0.4549097418785095,"8":-0.4962141215801239,"9":-0.5245456099510193,"10":0.6372766494750977,"11":0.4156131148338318,"12":-0.6239416003227234,"13":-0.5330519080162048,"14":0.4946840703487396,"15":-0.1039859801530838,"16":-0.3691609501838684,"17":-0.11851111799478531,"18":-0.9666414856910706,"19":0.35756611824035645,"20":1.6411452293395996,"21":-0.2466714084148407,"22":-1.6424007415771484,"23":1.0746543407440186,"24":0.4595988690853119,"25":0.40214067697525024,"26":-0.4054033160209656,"27":-0.3459166884422302,"28":0.23416467010974884,"29":0.46582168340682983,"30":-0.0889427661895752,"31":-0.10164204239845276,"32":1.5096969604492188,"33":1.2052165269851685,"34":-0.1338033676147461,"35":-1.2082014083862305,"36":-0.40818196535110474,"37":1.1016279458999634,"38":1.6768369674682617,"39":-1.6489313840866089,"40":-0.45010170340538025,"41":-0.26575639843940735,"42":0.40132346749305725,"43":0.21278418600559235,"44":-0.28261134028434753,"45":-0.30029627680778503,"46":0.11856001615524292,"47":0.12707984447479248,"48":-0.9021211266517639,"49":-0.9233992099761963,"50":0.6913384199142456,"51":0.8530482649803162,"52":0.36356493830680847,"53":-0.8718728423118591,"54":-0.7482210993766785,"55":1.5165300369262695,"56":2.2070581912994385,"57":1.7951693534851074,"58":-1.866336464881897,"59":-1.2903711795806885,"60":0.9672057628631592,"61":0.9248934984207153,"62":0.9465414881706238,"63":-1.2503894567489624}},"cellActivationBias":{"rows":8,"columns":1,"weights":{"0":-0.16413332521915436,"1":-0.4324102997779846,"2":0.02425847016274929,"3":0.4921749532222748,"4":-0.4142683744430542,"5":-0.5695685148239136,"6":0.2761833965778351,"7":-0.6329362392425537}}},{"inputMatrix":{"rows":8,"columns":8,"weights":{"0":0.31568941473960876,"1":0.8308094143867493,"2":0.15740202367305756,"3":-0.7656223773956299,"4":-0.22997474670410156,"5":0.7221953868865967,"6":-0.2385849505662918,"7":0.19469361007213593,"8":-1.0709435939788818,"9":-1.3754258155822754,"10":-0.7795824408531189,"11":2.1407899856567383,"12":0.6813230514526367,"13":-2.0257568359375,"14":-1.172576665878296,"15":0.9863131046295166,"16":0.35001540184020996,"17":0.6112169623374939,"18":0.23885177075862885,"19":-0.7098508477210999,"20":-0.3067418932914734,"21":0.6154087781906128,"22":0.28605133295059204,"23":0.1856968104839325,"24":0.1506555825471878,"25":-0.4911395013332367,"26":-0.46644118428230286,"27":0.4324219822883606,"28":0.4290067255496979,"29":0.06721249222755432,"30":-1.427071452140808,"31":0.11429640650749207,"32":-1.1171563863754272,"33":-2.257215738296509,"34":-0.022566813975572586,"35":2.267496109008789,"36":0.5961735844612122,"37":-2.091676950454712,"38":-0.4931774437427521,"39":-0.44527992606163025,"40":-0.682125985622406,"41":-1.3480604887008667,"42":-0.05271930992603302,"43":1.4317377805709839,"44":-0.029571805149316788,"45":-1.5755398273468018,"46":0.7887262105941772,"47":-1.0651230812072754,"48":0.2987406849861145,"49":0.8612318634986877,"50":0.25349557399749756,"51":-0.850180447101593,"52":-0.17306756973266602,"53":0.8245924115180969,"54":0.08239579200744629,"55":0.3409358561038971,"56":0.39374616742134094,"57":0.5728461742401123,"58":0.2776851952075958,"59":-0.6907152533531189,"60":-0.3723527491092682,"61":0.6627756357192993,"62":0.3757777810096741,"63":-0.01645774021744728}},"inputHidden":{"rows":8,"columns":8,"weights":{"0":0.49971169233322144,"1":-0.28288647532463074,"2":-0.606573224067688,"3":-1.687852144241333,"4":0.29638999700546265,"5":-0.17735566198825836,"6":0.6282134652137756,"7":0.6579642295837402,"8":-0.25947120785713196,"9":-0.012892143800854683,"10":0.17561767995357513,"11":0.8419873714447021,"12":-0.47090765833854675,"13":0.5982418656349182,"14":0.09686191380023956,"15":-0.31752917170524597,"16":0.5788624882698059,"17":0.12728413939476013,"18":-0.518192708492279,"19":-0.3635900616645813,"20":0.6021724939346313,"21":0.25574791431427,"22":0.5621911287307739,"23":0.4722374677658081,"24":-0.4337707757949829,"25":-0.07852306216955185,"26":0.29597076773643494,"27":0.7395241260528564,"28":-0.48959633708000183,"29":-0.3403034806251526,"30":-0.2642028331756592,"31":-0.27652716636657715,"32":0.39426109194755554,"33":-0.48862114548683167,"34":-0.24312227964401245,"35":0.4035663604736328,"36":-0.3177289068698883,"37":0.9460775256156921,"38":0.30774927139282227,"39":0.2022947072982788,"40":0.36246922612190247,"41":0.5975649356842041,"42":-0.5285691022872925,"43":0.5477089881896973,"44":-0.44264090061187744,"45":-0.30039140582084656,"46":0.49066516757011414,"47":0.5191177725791931,"48":0.5895326733589172,"49":-0.6850090622901917,"50":-0.5393442511558533,"51":-0.3787280321121216,"52":0.2535265386104584,"53":-0.006952481344342232,"54":0.6741912364959717,"55":0.6292192935943604,"56":0.5631459951400757,"57":-0.47578099370002747,"58":-0.4030839502811432,"59":-0.7968485951423645,"60":0.9742437601089478,"61":0.703289806842804,"62":0.4349851906299591,"63":0.3506146967411041}},"inputBias":{"rows":8,"columns":1,"weights":{"0":0.26870477199554443,"1":-0.5640841126441956,"2":0.19897451996803284,"3":0.572733998298645,"4":-0.046994827687740326,"5":1.210659146308899,"6":0.26530393958091736,"7":0.43000346422195435}},"forgetMatrix":{"rows":8,"columns":8,"weights":{"0":-0.48731762170791626,"1":-0.248738095164299,"2":0.6605063676834106,"3":0.05079825595021248,"4":-0.9529995918273926,"5":-0.10598642379045486,"6":0.6250593066215515,"7":-0.4368787407875061,"8":-0.027065126225352287,"9":0.7074325680732727,"10":-0.1544875055551529,"11":-0.2332855612039566,"12":-0.06773091852664948,"13":0.28709205985069275,"14":-0.026862287893891335,"15":-0.8619675040245056,"16":-0.3117118775844574,"17":-0.44616827368736267,"18":0.42780157923698425,"19":0.18448126316070557,"20":-0.41115885972976685,"21":-0.22018416225910187,"22":0.6184883117675781,"23":0.3050519526004791,"24":-0.3690125048160553,"25":-0.27663475275039673,"26":-0.038696255534887314,"27":0.5490725040435791,"28":0.10118158161640167,"29":0.12406304478645325,"30":-1.8033788204193115,"31":-0.4407227039337158,"32":0.13964267075061798,"33":0.3816520571708679,"34":-0.048791155219078064,"35":-0.1372692584991455,"36":-0.07126834988594055,"37":0.08175933361053467,"38":0.5362903475761414,"39":-0.3633730411529541,"40":-0.2694622874259949,"41":-0.5414073467254639,"42":0.016572169959545135,"43":0.24313944578170776,"44":-0.2766572833061218,"45":0.003030354157090187,"46":0.05396315082907677,"47":-0.4520952105522156,"48":-0.5664224624633789,"49":-0.5318257212638855,"50":0.5333890914916992,"51":0.5226232409477234,"52":-0.5270062685012817,"53":-0.35944223403930664,"54":-0.1343434453010559,"55":-0.061778586357831955,"56":-0.12355934083461761,"57":-0.32855212688446045,"58":0.5095937848091125,"59":-0.000004294913651392562,"60":-0.4723491668701172,"61":0.043364256620407104,"62":0.34716662764549255,"63":0.056614700704813004}},"forgetHidden":{"rows":8,"columns":8,"weights":{"0":0.6347423195838928,"1":0.22942638397216797,"2":-0.607373058795929,"3":0.18748480081558228,"4":0.31826964020729065,"5":0.7136240601539612,"6":0.38688182830810547,"7":0.6025078892707825,"8":0.540238618850708,"9":0.4159693419933319,"10":-0.7474257946014404,"11":-0.22900952398777008,"12":-0.01853080838918686,"13":0.13702690601348877,"14":0.5981679558753967,"15":0.8330148458480835,"16":0.5744529366493225,"17":0.33865442872047424,"18":-0.42308083176612854,"19":0.38537880778312683,"20":0.3450016379356384,"21":0.3537600636482239,"22":0.3910678029060364,"23":0.3594275712966919,"24":0.05067921429872513,"25":0.9908422827720642,"26":-0.32320353388786316,"27":-0.33119234442710876,"28":0.07749443501234055,"29":-0.3323626220226288,"30":0.41564640402793884,"31":0.4125855565071106,"32":0.09800559282302856,"33":0.24830949306488037,"34":-0.1299103945493698,"35":-0.2767510414123535,"36":-0.16078254580497742,"37":0.14375941455364227,"38":-0.02689666673541069,"39":0.11690007895231247,"40":0.23403869569301605,"41":0.48176464438438416,"42":-0.3330197036266327,"43":0.14983297884464264,"44":-0.05576372146606445,"45":0.06314518302679062,"46":0.26089173555374146,"47":0.5511519908905029,"48":0.4935658276081085,"49":0.29739922285079956,"50":-0.4049869179725647,"51":0.4121955335140228,"52":0.19391629099845886,"53":0.01110546849668026,"54":0.3820740580558777,"55":0.4931436777114868,"56":0.4015261232852936,"57":0.10575582087039948,"58":-0.3001234531402588,"59":0.4225955009460449,"60":0.38980719447135925,"61":0.6423351168632507,"62":0.29299870133399963,"63":0.275860995054245}},"forgetBias":{"rows":8,"columns":1,"weights":{"0":0,"1":0,"2":0,"3":0,"4":0,"5":0,"6":0,"7":0}},"outputMatrix":{"rows":8,"columns":8,"weights":{"0":0.3684619963169098,"1":0.6944931745529175,"2":0.24329595267772675,"3":-0.752292275428772,"4":-0.3708069324493408,"5":0.7346066832542419,"6":-0.3901253342628479,"7":0.3068804144859314,"8":-0.9253549575805664,"9":-1.1131809949874878,"10":-0.8256787657737732,"11":2.1844215393066406,"12":0.7040025591850281,"13":-2.003814220428467,"14":-1.1104390621185303,"15":0.6449244618415833,"16":0.27145954966545105,"17":0.50071781873703,"18":0.3385425806045532,"19":-0.6590028405189514,"20":-0.2957935929298401,"21":0.7017847299575806,"22":0.3019009828567505,"23":0.1930166631937027,"24":-0.024561794474720955,"25":-0.5430670976638794,"26":-0.506677508354187,"27":0.5221155881881714,"28":0.5020410418510437,"29":-0.09827101230621338,"30":-1.8362890481948853,"31":0.2659667730331421,"32":-0.9835708141326904,"33":-2.0337040424346924,"34":0.07588234543800354,"35":2.1144046783447266,"36":0.49898508191108704,"37":-1.9442726373672485,"38":-0.2867746353149414,"39":-0.560210645198822,"40":-0.8117068409919739,"41":-1.3736207485198975,"42":-0.15251745283603668,"43":1.634689211845398,"44":-0.24173393845558167,"45":-1.6806104183197021,"46":0.6838486790657043,"47":-0.9817862510681152,"48":0.36646655201911926,"49":0.6130928993225098,"50":0.27202919125556946,"51":-0.6535382270812988,"52":-0.2429942786693573,"53":0.8106831908226013,"54":0.022716835141181946,"55":0.33991384506225586,"56":0.3849317729473114,"57":0.4191422462463379,"58":0.30136629939079285,"59":-0.667044997215271,"60":-0.28390154242515564,"61":0.6175752282142639,"62":0.14361819624900818,"63":0.17049363255500793}},"outputHidden":{"rows":8,"columns":8,"weights":{"0":0.45127832889556885,"1":-0.21429842710494995,"2":-0.36334317922592163,"3":-1.0708279609680176,"4":0.29489293694496155,"5":0.08869743347167969,"6":0.49205949902534485,"7":0.4151385426521301,"8":-0.14304856956005096,"9":0.08072726428508759,"10":0.13855396211147308,"11":0.8589969873428345,"12":-0.41488295793533325,"13":0.6535111665725708,"14":0.2868533432483673,"15":-0.18456436693668365,"16":0.3524528741836548,"17":0.2585458755493164,"18":-0.3330118656158447,"19":-0.07577724754810333,"20":0.6500303149223328,"21":0.42761942744255066,"22":0.4538257420063019,"23":0.2777021825313568,"24":-0.5112549066543579,"25":0.32228460907936096,"26":0.17497776448726654,"27":0.7084855437278748,"28":-0.46215781569480896,"29":-0.73712158203125,"30":-0.2459520697593689,"31":-0.12985043227672577,"32":0.49000102281570435,"33":-0.29838672280311584,"34":-0.2536030411720276,"35":0.16627855598926544,"36":0.038821909576654434,"37":1.2417808771133423,"38":0.441829115152359,"39":0.26730021834373474,"40":0.534235954284668,"41":0.7220048904418945,"42":-0.8419938087463379,"43":0.64603590965271,"44":-0.4408198595046997,"45":-0.207815021276474,"46":0.6603822708129883,"47":0.8000996112823486,"48":0.488707572221756,"49":-0.301344096660614,"50":-0.38926681876182556,"51":0.005086224526166916,"52":0.24630264937877655,"53":0.0037430585362017155,"54":0.6084796786308289,"55":0.5151582956314087,"56":0.4161926805973053,"57":-0.33187171816825867,"58":-0.306244432926178,"59":-0.39365702867507935,"60":0.8228304982185364,"61":0.7737101316452026,"62":0.3097987771034241,"63":0.26225703954696655}},"outputBias":{"rows":8,"columns":1,"weights":{"0":0.2019369751214981,"1":-0.4725475311279297,"2":0.22412045300006866,"3":0.5514098405838013,"4":-0.07074964046478271,"5":1.0809539556503296,"6":0.3808032274246216,"7":0.33765166997909546}},"cellActivationMatrix":{"rows":8,"columns":8,"weights":{"0":-0.48828330636024475,"1":-0.6303189396858215,"2":-0.13958144187927246,"3":0.563162624835968,"4":-0.431883841753006,"5":-0.5077150464057922,"6":0.1649939864873886,"7":-0.444207102060318,"8":-0.2885812520980835,"9":-0.6319599747657776,"10":-0.16931051015853882,"11":0.8739885687828064,"12":0.4451597034931183,"13":-1.2975770235061646,"14":0.5203560590744019,"15":1.0122517347335815,"16":0.7424929738044739,"17":0.5096079111099243,"18":-0.1855325698852539,"19":-0.3928825557231903,"20":0.8263251781463623,"21":0.5255224108695984,"22":-0.06854231655597687,"23":0.41557207703590393,"24":-0.26209038496017456,"25":-0.40800240635871887,"26":1.0684298276901245,"27":0.20965643227100372,"28":-0.8369141221046448,"29":-0.03037061169743538,"30":-0.8971340656280518,"31":-0.23524852097034454,"32":-0.8304945230484009,"33":-0.9906226396560669,"34":-0.36634451150894165,"35":1.180417537689209,"36":-0.4737810790538788,"37":-1.1851630210876465,"38":0.31856945157051086,"39":-0.20593823492527008,"40":-0.8542574048042297,"41":-1.2511308193206787,"42":-0.08842325955629349,"43":1.3913260698318481,"44":-0.4799971580505371,"45":-1.489153504371643,"46":0.25728416442871094,"47":-0.20629823207855225,"48":-0.5913217067718506,"49":-0.6384913921356201,"50":0.2254570722579956,"51":0.579195499420166,"52":-1.1055481433868408,"53":-0.6124769449234009,"54":0.5706841349601746,"55":-0.9133263230323792,"56":-1.100805640220642,"57":-0.652786135673523,"58":0.41127607226371765,"59":0.6738244891166687,"60":-1.0099841356277466,"61":-0.48606497049331665,"62":-0.020588817074894905,"63":-0.1733304113149643}},"cellActivationHidden":{"rows":8,"columns":8,"weights":{"0":-0.43032458424568176,"1":0.8934121131896973,"2":0.39375609159469604,"3":0.2976219356060028,"4":-0.13176649808883667,"5":0.7017455697059631,"6":-0.3106285631656647,"7":-0.3444302976131439,"8":-0.09309655427932739,"9":-1.2834943532943726,"10":0.44633564352989197,"11":0.5687541961669922,"12":0.4414494037628174,"13":0.2946496903896332,"14":-0.3939516544342041,"15":-0.5630429983139038,"16":-0.2529847025871277,"17":0.16420333087444305,"18":0.2889941930770874,"19":0.40472811460494995,"20":0.3068685233592987,"21":-0.11001863330602646,"22":-0.1632847934961319,"23":-0.4626716375350952,"24":-0.7623411417007446,"25":-0.21991044282913208,"26":0.15910060703754425,"27":-1.2316855192184448,"28":-1.0816004276275635,"29":-0.4365604519844055,"30":-0.3294712007045746,"31":-0.22374111413955688,"32":0.31337782740592957,"33":-0.09670902788639069,"34":0.22163033485412598,"35":0.434709757566452,"36":0.9689163565635681,"37":1.7094147205352783,"38":-0.19618822634220123,"39":-0.2744480073451996,"40":-0.09289728850126266,"41":0.4444238543510437,"42":0.05637490376830101,"43":0.2932649850845337,"44":0.30371636152267456,"45":0.18805374205112457,"46":-0.2706829607486725,"47":-0.060010556131601334,"48":0.19458433985710144,"49":0.6349538564682007,"50":-0.11687525361776352,"51":0.020842526108026505,"52":-0.23730549216270447,"53":0.2908160984516144,"54":-0.13669389486312866,"55":0.27616387605667114,"56":0.378018319606781,"57":0.40423133969306946,"58":-0.4538102447986603,"59":-0.385818213224411,"60":-0.11914946883916855,"61":0.4399394690990448,"62":0.2554454803466797,"63":0.7248856425285339}},"cellActivationBias":{"rows":8,"columns":1,"weights":{"0":-0.14639194309711456,"1":-1.33400297164917,"2":0.0681723952293396,"3":0.14049415290355682,"4":-0.44321608543395996,"5":0.4785498082637787,"6":0.13432329893112183,"7":-0.34172913432121277}}}],"outputConnector":{"rows":4,"columns":8,"weights":{"0":-0.14945338666439056,"1":0.2824602723121643,"2":0.48296448588371277,"3":0.5396841764450073,"4":0.0318673811852932,"5":0.020528875291347504,"6":-0.3894142508506775,"7":-0.31168070435523987,"8":-0.5824804902076721,"9":-0.09803196042776108,"10":0.4003975987434387,"11":0.19952991604804993,"12":-0.6140193343162537,"13":0.5202611684799194,"14":-0.4582535922527313,"15":-0.5784205794334412,"16":-0.6102358102798462,"17":0.8372026085853577,"18":0.5018455386161804,"19":0.09010302275419235,"20":0.0479501411318779,"21":0.4643104672431946,"22":-0.3829760253429413,"23":-0.7019204497337341,"24":-0.3800448179244995,"25":0.29623517394065857,"26":0.4551708698272705,"27":-0.4512161314487457,"28":-0.7015915513038635,"29":0.5334636569023132,"30":-0.5309469699859619,"31":-0.3317524492740631}},"output":{"rows":4,"columns":1,"weights":{"0":0.29883265495300293,"1":0.2713291645050049,"2":-0.015370061621069908,"3":0.3070014417171478}},"inputLookup":{"open":0,"high":1,"low":2,"close":3},"inputLookupLength":4,"outputLookup":{"open":0,"high":1,"low":2,"close":3},"outputLookupLength":4}