{"type":"LSTMTimeStep","options":{"inputSize":4,"hiddenLayers":[8,8],"outputSize":4,"decayRate":0.999,"smoothEps":1e-8,"regc":0.000001,"clipval":5},"hiddenLayers":[{"inputMatrix":{"rows":8,"columns":4,"weights":{"0":0.646375834941864,"1":1.112313151359558,"2":0.9479234218597412,"3":1.2259401082992554,"4":0.08562374114990234,"5":-0.023048758506774902,"6":0.4551663100719452,"7":0.17017725110054016,"8":0.41623011231422424,"9":-0.12724526226520538,"10":-0.14515899121761322,"11":-0.021979231387376785,"12":0.8522637486457825,"13":0.5233296155929565,"14":0.38949015736579895,"15":0.48939257860183716,"16":0.431002676486969,"17":0.5011040568351746,"18":0.4523233473300934,"19":0.4352412521839142,"20":0.5133026242256165,"21":0.29647552967071533,"22":0.052805814892053604,"23":0.4525867700576782,"24":-0.3508426249027252,"25":-0.22563794255256653,"26":-0.7081036567687988,"27":-0.550834596157074,"28":0.03539959713816643,"29":0.7258911728858948,"30":0.056672949343919754,"31":0.5715494155883789}},"inputHidden":{"rows":8,"columns":8,"weights":{"0":-0.21488231420516968,"1":0.3324432075023651,"2":-0.12953384220600128,"3":0.04316766932606697,"4":0.6017262935638428,"5":-0.052959442138671875,"6":-0.4449491500854492,"7":0.20138224959373474,"8":-1.6526089906692505,"9":0.3595176041126251,"10":-0.28920239210128784,"11":0.45624014735221863,"12":0.6478787064552307,"13":0.7380480766296387,"14":-0.7887083888053894,"15":0.4733516573905945,"16":2.2320735454559326,"17":0.17808160185813904,"18":-0.12414556741714478,"19":0.3282422721385956,"20":-0.9377392530441284,"21":0.258292019367218,"22":-0.12619061768054962,"23":-1.042365550994873,"24":1.0040363073349,"25":0.9499632120132446,"26":0.13266533613204956,"27":-0.28739306330680847,"28":-0.3935752809047699,"29":-0.23517340421676636,"30":0.1421981155872345,"31":-0.23327554762363434,"32":-0.753219485282898,"33":0.20682574808597565,"34":0.32817181944847107,"35":-0.31470736861228943,"36":0.2243935614824295,"37":-0.43880733847618103,"38":-0.07811089605093002,"39":0.5843092203140259,"40":1.5175262689590454,"41":-0.2933034896850586,"42":-0.08390938490629196,"43":0.15697190165519714,"44":-1.6743640899658203,"45":-0.006976773962378502,"46":0.17396904528141022,"47":-1.5266145467758179,"48":-0.5056309700012207,"49":0.19720052182674408,"50":-0.481554239988327,"51":0.5214042067527771,"52":0.37636110186576843,"53":0.6033287048339844,"54":-0.3836957514286041,"55":0.057048387825489044,"56":0.7518382668495178,"57":0.2595903277397156,"58":-0.3078666031360626,"59":0.327732115983963,"60":-0.2540477216243744,"61":0.20527896285057068,"62":-0.38167768716812134,"63":-0.5780408382415771}},"inputBias":{"rows":8,"columns":1,"weights":{"0":1.1789894104003906,"1":-0.6274226903915405,"2":0.3189142346382141,"3":0.6123887896537781,"4":0.7202036380767822,"5":0.72889244556427,"6":0.44576504826545715,"7":0.4809161424636841}},"forgetMatrix":{"rows":8,"columns":4,"weights":{"0":-0.6264199018478394,"1":-0.20770971477031708,"2":-0.4144728481769562,"3":0.10905614495277405,"4":0.0786096528172493,"5":0.16820548474788666,"6":0.27226728200912476,"7":0.2111983597278595,"8":0.1939767450094223,"9":-0.184204563498497,"10":-0.2519646883010864,"11":-0.296976774930954,"12":0.2294631153345108,"13":-0.1943780481815338,"14":0.16638800501823425,"15":-0.16002504527568817,"16":0.4296451210975647,"17":0.8095095753669739,"18":0.34091830253601074,"19":0.9164748191833496,"20":0.3087351322174072,"21":-0.32186195254325867,"22":-0.026773961260914803,"23":-0.46987003087997437,"24":0.014701487496495247,"25":0.016982294619083405,"26":-0.014410152100026608,"27":-0.03798070549964905,"28":0.20319613814353943,"29":0.40343573689460754,"30":-0.05088718608021736,"31":0.5554618239402771}},"forgetHidden":{"rows":8,"columns":8,"weights":{"0":1.0387057065963745,"1":-0.7074910402297974,"2":0.4594714939594269,"3":-0.18330225348472595,"4":-1.044490933418274,"5":-0.45960772037506104,"6":0.3093809485435486,"7":-1.0134083032608032,"8":-0.5548903346061707,"9":-0.1703222095966339,"10":-0.01161176711320877,"11":0.20007461309432983,"12":-0.3607114255428314,"13":-0.14766745269298553,"14":0.06118306890130043,"15":-0.11112837493419647,"16":0.3371467888355255,"17":0.18257670104503632,"18":-0.11054699122905731,"19":0.175672709941864,"20":0.26336947083473206,"21":0.21328803896903992,"22":-0.27975791692733765,"23":-0.23597808182239532,"24":-0.31855568289756775,"25":0.12858803570270538,"26":-0.16053932905197144,"27":0.49288448691368103,"28":0.12276801466941833,"29":0.4055428206920624,"30":-0.2278691977262497,"31":-0.12790842354297638,"32":-0.3898295760154724,"33":-0.3774750828742981,"34":0.15763573348522186,"35":-0.13350927829742432,"36":-1.0918489694595337,"37":-0.21579499542713165,"38":0.19887608289718628,"39":-0.17386779189109802,"40":0.02194836176931858,"41":0.16866374015808105,"42":-0.12566626071929932,"43":0.20705322921276093,"44":0.030869293957948685,"45":0.08563350141048431,"46":-0.09832196682691574,"47":-0.07828786969184875,"48":0.09035694599151611,"49":0.029854193329811096,"50":0.04574150964617729,"51":-0.042123232036828995,"52":0.0854322761297226,"53":-0.18506108224391937,"54":-0.0048179482109844685,"55":0.13295549154281616,"56":0.5687566995620728,"57":-0.24132435023784637,"58":-0.06891703605651855,"59":0.17246830463409424,"60":-0.8806732892990112,"61":0.036298349499702454,"62":0.0791197419166565,"63":-0.6006717085838318}},"forgetBias":{"rows":8,"columns":1,"weights":{"0":0,"1":0,"2":0,"3":0,"4":0,"5":0,"6":0,"7":0}},"outputMatrix":{"rows":8,"columns":4,"weights":{"0":0.3578266501426697,"1":1.08980393409729,"2":0.9085879325866699,"3":1.1414741277694702,"4":0.12168455123901367,"5":0.0836368203163147,"6":0.36533206701278687,"7":0.28979071974754333,"8":0.5295472145080566,"9":-0.27534961700439453,"10":-0.22735123336315155,"11":-0.24575552344322205,"12":0.9121062159538269,"13":0.4743921160697937,"14":0.35747063159942627,"15":0.44507116079330444,"16":0.5382675528526306,"17":0.5506855249404907,"18":0.49235281348228455,"19":0.4233083128929138,"20":0.556533694267273,"21":0.173170268535614,"22":-0.0038847848773002625,"23":0.35864052176475525,"24":-0.1428225040435791,"25":-0.30513396859169006,"26":-0.6362966299057007,"27":-0.37197476625442505,"28":0.2038804590702057,"29":0.7848178148269653,"30":0.16975758969783783,"31":0.7174167633056641}},"outputHidden":{"rows":8,"columns":8,"weights":{"0":0.2675934433937073,"1":0.5751046538352966,"2":-0.17865842580795288,"3":0.30878445506095886,"4":0.10505209863185883,"5":0.1794871687889099,"6":-0.5593706965446472,"7":-0.22480981051921844,"8":-1.7678468227386475,"9":0.0737709254026413,"10":-0.32267412543296814,"11":0.46992072463035583,"12":0.23135527968406677,"13":0.6323586106300354,"14":-0.6670907735824585,"15":0.17746295034885406,"16":2.494680881500244,"17":0.36804208159446716,"18":-0.1905570924282074,"19":0.32259103655815125,"20":-0.9615862965583801,"21":0.3505557179450989,"22":-0.21270239353179932,"23":-1.1078026294708252,"24":1.027803659439087,"25":0.988663911819458,"26":-0.14592812955379486,"27":-0.07340788096189499,"28":-0.3804934620857239,"29":-0.0816761776804924,"30":-0.029659759253263474,"31":-0.11155206710100174,"32":-1.1830490827560425,"33":-0.32025784254074097,"34":0.1891772300004959,"35":-0.11800568550825119,"36":-0.7488185167312622,"37":-0.18528865277767181,"38":0.08740169554948807,"39":0.11741986125707626,"40":1.8245446681976318,"41":-0.21391242742538452,"42":-0.04984544590115547,"43":0.23824776709079742,"44":-1.5157934427261353,"45":0.017890028655529022,"46":-0.03765635937452316,"47":-1.4174022674560547,"48":-0.39101383090019226,"49":0.3989063501358032,"50":-0.2963666319847107,"51":0.4771155118942261,"52":0.6107165813446045,"53":0.4062032997608185,"54":-0.5313416719436646,"55":0.19518256187438965,"56":0.6585634350776672,"57":0.08812054246664047,"58":-0.23591792583465576,"59":0.4397967755794525,"60":-0.3706021308898926,"61":0.11885705590248108,"62":-0.43727177381515503,"63":-0.5051775574684143}},"outputBias":{"rows":8,"columns":1,"weights":{"0":1.0246065855026245,"1":-0.641427755355835,"2":0.27151697874069214,"3":0.5783637166023254,"4":0.6695337295532227,"5":0.6970950365066528,"6":0.50479656457901,"7":0.5506568551063538}},"cellActivationMatrix":{"rows":8,"columns":4,"weights":{"0":0.5686163306236267,"1":-0.5117942094802856,"2":-0.6296104192733765,"3":-1.0743108987808228,"4":0.4041759967803955,"5":0.026671117171645164,"6":0.5423624515533447,"7":0.029269589111208916,"8":-0.7039853930473328,"9":0.4300251603126526,"10":0.0383436381816864,"11":0.3689636290073395,"12":0.7881592512130737,"13":-0.593562662601471,"14":-0.03740145266056061,"15":-0.6557475328445435,"16":-0.08927249908447266,"17":0.2532441020011902,"18":0.4371846616268158,"19":0.39256760478019714,"20":0.686530590057373,"21":-0.903837263584137,"22":0.1165766641497612,"23":-0.7281220555305481,"24":0.11902622878551483,"25":-0.19778648018836975,"26":-0.8451628684997559,"27":-0.4374769628047943,"28":-0.5520434379577637,"29":0.607119083404541,"30":0.31832778453826904,"31":0.8438178896903992}},"cellActivationHidden":{"rows":8,"columns":8,"weights":{"0":-0.89791339635849,"1":0.5960384607315063,"2":0.0678071454167366,"3":-0.17481563985347748,"4":0.9456868171691895,"5":-0.19412142038345337,"6":-0.3137866258621216,"7":0.5449795126914978,"8":-1.0315015316009521,"9":0.029926512390375137,"10":0.5863998532295227,"11":-0.461290568113327,"12":0.23737704753875732,"13":-0.5654875040054321,"14":-0.3217935264110565,"15":0.9265325665473938,"16":-1.3352460861206055,"17":-0.3296690285205841,"18":-0.3846752643585205,"19":0.1578822284936905,"20":0.5582472681999207,"21":0.36618688702583313,"22":0.0723145455121994,"23":0.26402029395103455,"24":0.6425907015800476,"25":0.020975647494196892,"26":0.1689634621143341,"27":-0.21231836080551147,"28":-0.7067394256591797,"29":-0.350254625082016,"30":0.06496676057577133,"31":0.2108817845582962,"32":0.47494739294052124,"33":0.441538006067276,"34":1.2581149339675903,"35":-1.2817046642303467,"36":1.1760735511779785,"37":-1.2107281684875488,"38":-0.7079253196716309,"39":0.24782270193099976,"40":1.6195292472839355,"41":-0.6047149300575256,"42":0.8346756100654602,"43":-0.6100295186042786,"44":-1.4805123805999756,"45":-0.8135654926300049,"46":0.29105448722839355,"47":-0.6886377930641174,"48":-0.45215851068496704,"49":-0.713911771774292,"50":-1.256477952003479,"51":1.0778440237045288,"52":0.17742086946964264,"53":1.329451560974121,"54":0.02673279121518135,"55":-0.39195969700813293,"56":0.28052401542663574,"57":0.9413350820541382,"58":-0.14563770592212677,"59":-0.06972301751375198,"60":0.034810543060302734,"61":0.08363090455532074,"62":-0.32595911622047424,"63":-0.07353385537862778}},"cellActivationBias":{"rows":8,"columns":1,"weights":{"0":0.33827295899391174,"1":-0.34105008840560913,"2":-0.5526863932609558,"3":0.5532602071762085,"4":-0.31232142448425293,"5":0.7740616798400879,"6":0.25054600834846497,"7":-0.5950366854667664}}},{"inputMatrix":{"rows":8,"columns":8,"weights":{"0":-0.44109347462654114,"1":-0.27811408042907715,"2":-0.0615263506770134,"3":0.050152864307165146,"4":-0.1717056930065155,"5":-0.007041208911687136,"6":0.14419163763523102,"7":-0.11652245372533798,"8":-0.5322232246398926,"9":0.37709152698516846,"10":-0.1773761659860611,"11":0.22789128124713898,"12":0.015375706367194653,"13":-0.16714386641979218,"14":-0.09470409899950027,"15":0.17601294815540314,"16":-2.0194790363311768,"17":0.8725908994674683,"18":0.06950981169939041,"19":-1.1696436405181885,"20":0.6236192584037781,"21":-0.9823492765426636,"22":1.1195271015167236,"23":1.2725359201431274,"24":2.0759570598602295,"25":-0.6311083436012268,"26":-1.6730568408966064,"27":1.5270040035247803,"28":-0.28051117062568665,"29":0.5367056727409363,"30":1.756361484527588,"31":-0.09530240297317505,"32":-1.0320361852645874,"33":-0.7236568331718445,"34":-0.2507267892360687,"35":-0.05946015939116478,"36":0.40873992443084717,"37":-0.34066998958587646,"38":0.050828877836465836,"39":0.47031620144844055,"40":-0.7481328845024109,"41":-0.568885326385498,"42":-0.04797738417983055,"43":-0.1687350571155548,"44":0.41180551052093506,"45":0.1922808438539505,"46":0.20317339897155762,"47":0.07357846200466156,"48":-0.4576796889305115,"49":0.4255076050758362,"50":0.09012331068515778,"51":-0.5923020839691162,"52":0.16825903952121735,"53":-0.13599109649658203,"54":0.30086296796798706,"55":0.09014999121427536,"56":-0.7397229075431824,"57":0.46615487337112427,"58":-0.031144961714744568,"59":-0.299187034368515,"60":1.408851981163025,"61":0.17956294119358063,"62":-0.13943718373775482,"63":0.5703033208847046}},"inputHidden":{"rows":8,"columns":8,"weights":{"0":-0.351889967918396,"1":-0.4224552810192108,"2":0.46793875098228455,"3":0.3453899323940277,"4":0.2715751826763153,"5":0.21399670839309692,"6":-0.4819267690181732,"7":0.11274683475494385,"8":-0.11582798510789871,"9":-0.016022618860006332,"10":1.0284723043441772,"11":0.45153602957725525,"12":0.15099595487117767,"13":0.10536405444145203,"14":-0.24471323192119598,"15":0.0590408518910408,"16":0.10612965375185013,"17":0.1375703662633896,"18":0.022958066314458847,"19":0.633752167224884,"20":0.04168320447206497,"21":-0.0958084687590599,"22":0.3066113293170929,"23":0.10742444545030594,"24":0.28274327516555786,"25":0.4798949062824249,"26":2.0214366912841797,"27":1.3012466430664062,"28":-0.11682631820440292,"29":-0.37593692541122437,"30":-0.5398858189582825,"31":-0.7733086347579956,"32":-0.6433893442153931,"33":-0.7354098558425903,"34":0.4650548994541168,"35":0.2090582698583603,"36":0.1929284632205963,"37":0.46227946877479553,"38":-0.8342245817184448,"39":0.5403025150299072,"40":-0.39840853214263916,"41":-0.5200885534286499,"42":0.22720308601856232,"43":0.08108638972043991,"44":0.13829122483730316,"45":0.3407759666442871,"46":-0.4038454592227936,"47":0.5815961360931396,"48":-0.008496270515024662,"49":0.04320409148931503,"50":-0.38344505429267883,"51":0.12833400070667267,"52":-0.07218067348003387,"53":-0.08841560781002045,"54":0.2892465889453888,"55":-0.32020303606987,"56":0.22358277440071106,"57":0.09470990300178528,"58":0.2425888478755951,"59":-0.4609026312828064,"60":-0.19891078770160675,"61":-0.1894908994436264,"62":0.025266261771321297,"63":-0.20894409716129303}},"inputBias":{"rows":8,"columns":1,"weights":{"0":0.24211932718753815,"1":0.22535470128059387,"2":-0.46111270785331726,"3":-1.0994234085083008,"4":-0.022091412916779518,"5":-0.11090674251317978,"6":0.06124131754040718,"7":0.07154028862714767}},"forgetMatrix":{"rows":8,"columns":8,"weights":{"0":-0.038985475897789,"1":-0.0456460565328598,"2":-0.5687041282653809,"3":0.7783809900283813,"4":-0.06358779221773148,"5":0.8789136409759521,"6":-0.13653354346752167,"7":-0.5734322667121887,"8":-0.08120289444923401,"9":0.5326193571090698,"10":-0.6447408199310303,"11":1.1058728694915771,"12":-0.09275971353054047,"13":0.3729080259799957,"14":-0.11340873688459396,"15":-0.1944938600063324,"16":0.11222730576992035,"17":1.0796128511428833,"18":-0.44336292147636414,"19":0.19872896373271942,"20":-0.2061024010181427,"21":1.103817343711853,"22":-0.5432820320129395,"23":-0.963021457195282,"24":0.5695265531539917,"25":0.07078491896390915,"26":-0.5422114729881287,"27":0.6661012768745422,"28":-0.6496676206588745,"29":1.2188390493392944,"30":-0.22847481071949005,"31":-1.2730790376663208,"32":-0.1225154921412468,"33":0.14721837639808655,"34":-0.32872626185417175,"35":0.48347949981689453,"36":0.37711450457572937,"37":0.7235842347145081,"38":-0.11047731339931488,"39":-0.41700035333633423,"40":0.011989566497504711,"41":0.2785305678844452,"42":-0.27264204621315,"43":0.10414610058069229,"44":0.7146286964416504,"45":0.5771533846855164,"46":-0.15758013725280762,"47":-0.1372925490140915,"48":-0.3442649841308594,"49":-0.05563514679670334,"50":-0.5260645151138306,"51":0.6847144961357117,"52":-0.3273060619831085,"53":1.1398097276687622,"54":-0.1994207799434662,"55":-0.8900547623634338,"56":-0.21548931300640106,"57":0.45678895711898804,"58":0.39478448033332825,"59":-0.4496060907840729,"60":0.6797136664390564,"61":0.25015848875045776,"62":0.3918164074420929,"63":-0.2930261790752411}},"forgetHidden":{"rows":8,"columns":8,"weights":{"0":-0.5364757776260376,"1":-0.5678863525390625,"2":0.5843846797943115,"3":0.48381826281547546,"4":0.4903576970100403,"5":0.5169177055358887,"6":-0.6473463177680969,"7":0.5527405738830566,"8":-0.1963462382555008,"9":-0.19381651282310486,"10":1.1543127298355103,"11":0.5344480276107788,"12":0.3577623665332794,"13":0.28444668650627136,"14":-0.4376690685749054,"15":0.3961518704891205,"16":-0.4201260209083557,"17":-0.40420907735824585,"18":0.3266667425632477,"19":0.07383129745721817,"20":0.5366455316543579,"21":0.47091150283813477,"22":-0.2794437110424042,"23":0.771101713180542,"24":-0.22431828081607819,"25":-0.39254245162010193,"26":0.2745223045349121,"27":0.0768851563334465,"28":0.1877591460943222,"29":0.2143329232931137,"30":-0.24618931114673615,"31":0.268373966217041,"32":-0.296108603477478,"33":-0.31192195415496826,"34":0.14842769503593445,"35":-0.06754279136657715,"36":0.16830980777740479,"37":0.19694086909294128,"38":-0.27178046107292175,"39":0.43500909209251404,"40":-0.1092449277639389,"41":-0.3236159682273865,"42":-0.09446708858013153,"43":-0.22295475006103516,"44":0.10239195823669434,"45":0.14508959650993347,"46":-0.06652691960334778,"47":0.2923901081085205,"48":-0.8219095468521118,"49":-0.9049082398414612,"50":0.31879594922065735,"51":0.37100327014923096,"52":0.5508024096488953,"53":0.7796749472618103,"54":-0.7322354316711426,"55":1.046149730682373,"56":-0.165069118142128,"57":-0.30836063623428345,"58":-0.5884872674942017,"59":-0.7913413047790527,"60":0.06323611736297607,"61":0.13419312238693237,"62":0.27070242166519165,"63":0.44754818081855774}},"forgetBias":{"rows":8,"columns":1,"weights":{"0":0,"1":0,"2":0,"3":0,"4":0,"5":0,"6":0,"7":0}},"outputMatrix":{"rows":8,"columns":8,"weights":{"0":-0.40808165073394775,"1":-0.23412956297397614,"2":-0.18147659301757812,"3":0.07420211285352707,"4":-0.16458672285079956,"5":0.07721485942602158,"6":0.09663531184196472,"7":-0.11541561782360077,"8":-0.5265324115753174,"9":0.4974994659423828,"10":-0.2812833786010742,"11":0.4217664897441864,"12":0.029688794165849686,"13":-0.25067153573036194,"14":-0.04238392412662506,"15":0.20319463312625885,"16":-1.8703842163085938,"17":1.041259765625,"18":-0.11173243820667267,"19":-0.8896268606185913,"20":0.4977245032787323,"21":-0.4798816740512848,"22":0.7827867865562439,"23":0.9397384524345398,"24":1.6579443216323853,"25":-0.4759463369846344,"26":-1.8231043815612793,"27":1.5962884426116943,"28":-0.17368245124816895,"29":1.0969096422195435,"30":1.2578492164611816,"31":-0.3536946475505829,"32":-0.8864930868148804,"33":-0.47041869163513184,"34":-0.270619660615921,"35":0.0020033607725054026,"36":0.46209394931793213,"37":-0.08539369702339172,"38":-0.048806916922330856,"39":0.33958297967910767,"40":-0.8015987277030945,"41":-0.24476446211338043,"42":-0.031008506193757057,"43":-0.09994299709796906,"44":0.4602097272872925,"45":0.23241831362247467,"46":0.06973231583833694,"47":0.15201745927333832,"48":-0.5653967261314392,"49":0.4338860809803009,"50":-0.03542556241154671,"51":-0.40829309821128845,"52":0.28099167346954346,"53":0.031109413132071495,"54":0.23909322917461395,"55":0.03578338772058487,"56":-0.8455618023872375,"57":0.22708186507225037,"58":0.15323910117149353,"59":-0.23625843226909637,"60":1.052695870399475,"61":0.2472393959760666,"62":0.28513556718826294,"63":0.30448490381240845}},"outputHidden":{"rows":8,"columns":8,"weights":{"0":-0.3565356731414795,"1":-0.4557201564311981,"2":0.38359665870666504,"3":0.4123540222644806,"4":0.20862272381782532,"5":0.24785973131656647,"6":-0.579563319683075,"7":0.23430342972278595,"8":-0.14385494589805603,"9":-0.08215588331222534,"10":0.9224966764450073,"11":0.5388025045394897,"12":0.16564351320266724,"13":0.17893780767917633,"14":-0.24363236129283905,"15":0.10322240740060806,"16":-0.03794393315911293,"17":-0.07690702378749847,"18":-0.00889979675412178,"19":0.5493284463882446,"20":0.06550566852092743,"21":0.05145804211497307,"22":0.21802274882793427,"23":0.2583094537258148,"24":0.17004196345806122,"25":0.2804304361343384,"26":1.696916103363037,"27":1.2989472150802612,"28":-0.0837937742471695,"29":-0.2355429232120514,"30":-0.6264886260032654,"31":-0.6113032698631287,"32":-0.46550843119621277,"33":-0.6057252883911133,"34":0.28523921966552734,"35":0.07857051491737366,"36":0.1630946695804596,"37":0.2655775249004364,"38":-0.6766121983528137,"39":0.4820912480354309,"40":-0.2895538806915283,"41":-0.4450152814388275,"42":0.0836593359708786,"43":-0.03569177910685539,"44":0.15871566534042358,"45":0.12490078806877136,"46":-0.26776450872421265,"47":0.4229051470756531,"48":-0.05684375390410423,"49":-0.04946849122643471,"50":-0.24461843073368073,"51":0.31852245330810547,"52":0.106094591319561,"53":0.08540302515029907,"54":0.1355973482131958,"55":-0.14066511392593384,"56":0.1110534518957138,"57":-0.1202094629406929,"58":0.19330060482025146,"59":-0.6924805045127869,"60":-0.16792705655097961,"61":-0.18433831632137299,"62":0.13534073531627655,"63":0.19916099309921265}},"outputBias":{"rows":8,"columns":1,"weights":{"0":0.20386533439159393,"1":0.20367005467414856,"2":-0.412131667137146,"3":-1.011266827583313,"4":0.055392373353242874,"5":-0.03149406984448433,"6":0.08156973868608475,"7":0.14722351729869843}},"cellActivationMatrix":{"rows":8,"columns":8,"weights":{"0":-1.0802947282791138,"1":-0.23132333159446716,"2":0.12379273027181625,"3":-0.052480779588222504,"4":0.3588218688964844,"5":-0.3821544349193573,"6":-0.6641799807548523,"7":0.5677955746650696,"8":-1.1250391006469727,"9":0.043586935847997665,"10":0.1201540008187294,"11":0.21953748166561127,"12":0.3518301248550415,"13":-0.3287336826324463,"14":-0.22202368080615997,"15":0.6774644255638123,"16":1.1683073043823242,"17":0.05691712722182274,"18":-0.7188057899475098,"19":0.9458869099617004,"20":-0.20184378325939178,"21":1.3495515584945679,"22":0.21247100830078125,"23":-0.8450717926025391,"24":0.9369450211524963,"25":0.2862938940525055,"26":-0.9079607725143433,"27":0.8311806917190552,"28":0.21647723019123077,"29":1.1192984580993652,"30":0.6328108310699463,"31":-0.2586190402507782,"32":0.7365256547927856,"33":0.3432391881942749,"34":-0.743614137172699,"35":0.8627573847770691,"36":0.09898172318935394,"37":1.2997678518295288,"38":-0.0371844582259655,"39":-0.5726537108421326,"40":0.8162687420845032,"41":0.30079102516174316,"42":-0.5296707153320312,"43":0.6446111798286438,"44":0.12947437167167664,"45":0.49695050716400146,"46":-0.14369800686836243,"47":-0.2790246307849884,"48":-1.140743613243103,"49":-0.047375768423080444,"50":0.05153133347630501,"51":0.20519034564495087,"52":0.5221982002258301,"53":-0.23623766005039215,"54":-0.46481338143348694,"55":0.4554060101509094,"56":1.0001497268676758,"57":-0.37326276302337646,"58":-0.4078276753425598,"59":0.9623154401779175,"60":0.11248087882995605,"61":0.2786063253879547,"62":-0.34409207105636597,"63":-0.5747328400611877}},"cellActivationHidden":{"rows":8,"columns":8,"weights":{"0":0.055228594690561295,"1":0.07617604732513428,"2":0.7729144096374512,"3":0.3642226755619049,"4":0.11354526877403259,"5":0.1189357340335846,"6":-0.37414413690567017,"7":-0.15667808055877686,"8":0.2817341983318329,"9":0.36314406991004944,"10":0.8916769623756409,"11":0.5639366507530212,"12":0.02177576906979084,"13":-0.10945284366607666,"14":-0.044465359300374985,"15":-0.10236264020204544,"16":0.289115846157074,"17":0.19573228061199188,"18":-0.5152171850204468,"19":-0.8284460306167603,"20":-0.2778525650501251,"21":-0.27517974376678467,"22":0.6044986248016357,"23":0.009422725066542625,"24":0.5922822952270508,"25":0.6745325326919556,"26":-0.026416117325425148,"27":-0.22110417485237122,"28":-0.4290183186531067,"29":-0.5154151320457458,"30":0.40745002031326294,"31":-0.7311328649520874,"32":0.06726938486099243,"33":0.20206357538700104,"34":-0.14519597589969635,"35":0.3443816006183624,"36":0.0717122033238411,"37":-0.03994833305478096,"38":0.03029290772974491,"39":-0.1985476016998291,"40":-0.17457690834999084,"41":0.11465355008840561,"42":0.1609998643398285,"43":0.5426149964332581,"44":0.011066597886383533,"45":0.06441432237625122,"46":-0.18960551917552948,"47":-0.12876726686954498,"48":-0.2146742343902588,"49":-0.1768699288368225,"50":0.7229005098342896,"51":0.570915937423706,"52":0.0767451599240303,"53":0.17594558000564575,"54":-0.4619447588920593,"55":0.2280731350183487,"56":-0.39918529987335205,"57":-0.18753306567668915,"58":0.7160623669624329,"59":1.0012131929397583,"60":0.33061930537223816,"61":0.27868273854255676,"62":-0.851127564907074,"63":-0.23289434611797333}},"cellActivationBias":{"rows":8,"columns":1,"weights":{"0":0.37366700172424316,"1":0.31325265765190125,"2":0.6738691329956055,"3":0.07760118693113327,"4":0.1443592756986618,"5":-0.11275866627693176,"6":0.20399907231330872,"7":-0.12039120495319366}}}],"outputConnector":{"rows":4,"columns":8,"weights":{"0":-0.002653613220900297,"1":0.3380683660507202,"2":0.17946060001850128,"3":0.18391740322113037,"4":-0.499534010887146,"5":-0.3670313060283661,"6":0.06400538980960846,"7":-0.6684171557426453,"8":0.28194093704223633,"9":0.031746625900268555,"10":-0.38220658898353577,"11":-0.5667515993118286,"12":-0.5109348297119141,"13":-0.39308786392211914,"14":0.015063620172441006,"15":-0.23523515462875366,"16":0.6638314127922058,"17":0.751663863658905,"18":-0.48003116250038147,"19":0.606576681137085,"20":-0.04786792770028114,"21":-0.30212193727493286,"22":0.7951179146766663,"23":-0.21506981551647186,"24":0.4039139747619629,"25":0.4419071078300476,"26":-0.8934566378593445,"27":-1.1113951206207275,"28":-0.36915552616119385,"29":0.05436434969305992,"30":0.29116660356521606,"31":0.4932757616043091}},"output":{"rows":4,"columns":1,"weights":{"0":0.322242796421051,"1":0.657829999923706,"2":-0.03304783254861832,"3":0.6002030372619629}},"inputLookup":{"open":0,"high":1,"low":2,"close":3},"inputLookupLength":4,"outputLookup":{"open":0,"high":1,"low":2,"close":3},"outputLookupLength":4}