{"type":"LSTMTimeStep","options":{"inputSize":4,"hiddenLayers":[8,8],"outputSize":4,"decayRate":0.999,"smoothEps":1e-8,"regc":0.000001,"clipval":5},"hiddenLayers":[{"inputMatrix":{"rows":8,"columns":4,"weights":{"0":-0.12577220797538757,"1":-0.022732390090823174,"2":-0.8148673176765442,"3":-0.35029029846191406,"4":1.1230440139770508,"5":0.3237156271934509,"6":1.061355710029602,"7":0.32477840781211853,"8":-0.014907891862094402,"9":0.5205904841423035,"10":0.166000634431839,"11":0.41293996572494507,"12":0.19461338222026825,"13":0.6091892719268799,"14":0.5175361633300781,"15":0.7794551849365234,"16":0.275637149810791,"17":0.5481837391853333,"18":0.15360940992832184,"19":0.5454524159431458,"20":0.3735661804676056,"21":0.19358262419700623,"22":0.293381929397583,"23":0.25710776448249817,"24":0.10477370023727417,"25":0.46807584166526794,"26":0.34987762570381165,"27":0.6437186002731323,"28":0.22774283587932587,"29":0.6713418960571289,"30":0.1120992973446846,"31":0.6072165966033936}},"inputHidden":{"rows":8,"columns":8,"weights":{"0":-0.6396279335021973,"1":1.3272029161453247,"2":0.2903343439102173,"3":-0.16092178225517273,"4":0.4780143201351166,"5":0.5286672711372375,"6":0.1699272245168686,"7":1.0338035821914673,"8":0.656696081161499,"9":-0.7354211807250977,"10":-0.7059054374694824,"11":1.1672228574752808,"12":-1.069153070449829,"13":0.04688813164830208,"14":-0.9037159085273743,"15":-0.9212012887001038,"16":0.07574915885925293,"17":-0.172597736120224,"18":0.499837726354599,"19":-0.7772095799446106,"20":0.26959243416786194,"21":0.23122842609882355,"22":0.4857948124408722,"23":0.21117770671844482,"24":-0.058903783559799194,"25":0.07903629541397095,"26":0.474399596452713,"27":-0.6657114624977112,"28":0.47845110297203064,"29":0.07557769119739532,"30":0.5622386932373047,"31":0.22314535081386566,"32":-0.2629052996635437,"33":0.7951679229736328,"34":0.5188717842102051,"35":-0.6570794582366943,"36":0.6284679770469666,"37":0.3349095582962036,"38":0.5650366544723511,"39":0.4683970808982849,"40":0.2506614625453949,"41":0.672603189945221,"42":-0.2411656677722931,"43":0.22718021273612976,"44":0.12131588160991669,"45":-0.42506706714630127,"46":-0.25065717101097107,"47":-0.18298161029815674,"48":0.14555723965168,"49":-0.05626385286450386,"50":0.5976909399032593,"51":-0.7223483920097351,"52":0.23425565659999847,"53":0.17358629405498505,"54":0.4938634932041168,"55":0.08620261400938034,"56":-0.30832529067993164,"57":0.7909533381462097,"58":0.6907927989959717,"59":-0.8021467328071594,"60":0.6480482220649719,"61":0.10147736221551895,"62":0.6142496466636658,"63":0.7425194382667542}},"inputBias":{"rows":8,"columns":1,"weights":{"0":0.17307354509830475,"1":0.011908220127224922,"2":0.8981823325157166,"3":0.8824383020401001,"4":0.46250954270362854,"5":1.0568172931671143,"6":0.9114403128623962,"7":0.6459053158760071}},"forgetMatrix":{"rows":8,"columns":4,"weights":{"0":-0.5100671648979187,"1":-0.583376407623291,"2":-0.7035781741142273,"3":-0.5452176332473755,"4":-0.014804171398282051,"5":-0.7765381336212158,"6":-0.3222799301147461,"7":-0.8200815916061401,"8":-0.2850925922393799,"9":-0.2151922583580017,"10":-0.6536868214607239,"11":-0.12101994454860687,"12":-0.21191489696502686,"13":-0.07899899035692215,"14":-0.7707757949829102,"15":-0.14989110827445984,"16":-0.02113792486488819,"17":-0.3055139482021332,"18":-0.3549654483795166,"19":-0.5031291246414185,"20":-0.5392647385597229,"21":-0.5725247263908386,"22":-0.48241835832595825,"23":-0.5832213759422302,"24":-0.2283630073070526,"25":-0.10876570641994476,"26":-0.5715916752815247,"27":0.05499310418963432,"28":0.3164399266242981,"29":0.39282479882240295,"30":-0.07060886919498444,"31":0.38713306188583374}},"forgetHidden":{"rows":8,"columns":8,"weights":{"0":-0.5140287280082703,"1":0.17816376686096191,"2":0.5308417677879333,"3":-0.4119471609592438,"4":0.5805791020393372,"5":0.2528782784938812,"6":0.5790034532546997,"7":1.0539668798446655,"8":0.05411786958575249,"9":0.2093639075756073,"10":0.07165078818798065,"11":-0.12460988014936447,"12":0.0729246512055397,"13":-0.3279736638069153,"14":0.15432590246200562,"15":0.2535276710987091,"16":-0.30384361743927,"17":0.05705079063773155,"18":0.48977524042129517,"19":-0.294152170419693,"20":0.2762579321861267,"21":0.5425117015838623,"22":0.4230867624282837,"23":0.5834988355636597,"24":-0.35024797916412354,"25":0.2556627690792084,"26":0.31970030069351196,"27":-0.20051762461662292,"28":0.23427045345306396,"29":0.3980374336242676,"30":0.26774507761001587,"31":0.4681386351585388,"32":-0.39522942900657654,"33":0.3411026895046234,"34":0.296112060546875,"35":-0.02701064944267273,"36":0.13571974635124207,"37":0.22490310668945312,"38":0.3480483889579773,"39":0.7541764974594116,"40":-0.32226693630218506,"41":-0.1970188170671463,"42":0.11900919675827026,"43":0.16916678845882416,"44":-0.055993467569351196,"45":0.3767145872116089,"46":0.04401630163192749,"47":0.46985721588134766,"48":-0.24543190002441406,"49":0.3047381341457367,"50":0.37120920419692993,"51":-0.24466374516487122,"52":0.3986882269382477,"53":0.29532691836357117,"54":0.32983359694480896,"55":0.5155489444732666,"56":-1.0025286674499512,"57":1.0169488191604614,"58":0.40142419934272766,"59":-0.18106268346309662,"60":0.7186979651451111,"61":0.39274150133132935,"62":0.47352612018585205,"63":1.329620361328125}},"forgetBias":{"rows":8,"columns":1,"weights":{"0":0,"1":0,"2":0,"3":0,"4":0,"5":0,"6":0,"7":0}},"outputMatrix":{"rows":8,"columns":4,"weights":{"0":-0.14479419589042664,"1":-0.06304837763309479,"2":-0.7886075377464294,"3":-0.36588722467422485,"4":1.1829715967178345,"5":0.23634454607963562,"6":1.0771540403366089,"7":0.16981811821460724,"8":0.08268421143293381,"9":0.38653916120529175,"10":0.14365525543689728,"11":0.37408339977264404,"12":0.12010878324508667,"13":0.6294315457344055,"14":0.32780301570892334,"15":0.6526482105255127,"16":0.36418238282203674,"17":0.38534876704216003,"18":0.11316290497779846,"19":0.3786120116710663,"20":0.04995723441243172,"21":-0.21889597177505493,"22":-0.2103835642337799,"23":-0.2500145435333252,"24":0.057775989174842834,"25":0.517455518245697,"26":0.30608952045440674,"27":0.5012238621711731,"28":0.3889616131782532,"29":0.5696912407875061,"30":0.22985275089740753,"31":0.5587241649627686}},"outputHidden":{"rows":8,"columns":8,"weights":{"0":-0.5401018261909485,"1":1.2625716924667358,"2":0.20224441587924957,"3":-0.13875016570091248,"4":0.5206824541091919,"5":0.5547271966934204,"6":0.30505555868148804,"7":0.9223803877830505,"8":0.6899928450584412,"9":-0.6621200442314148,"10":-0.7493219375610352,"11":1.1780335903167725,"12":-1.168350338935852,"13":0.008624497801065445,"14":-0.9626544713973999,"15":-0.845993161201477,"16":-0.09206544607877731,"17":-0.11755899339914322,"18":0.46884745359420776,"19":-0.49933427572250366,"20":0.3087519705295563,"21":0.2784833312034607,"22":0.46235015988349915,"23":0.23421843349933624,"24":-0.09907218813896179,"25":-0.05558064207434654,"26":0.4546318054199219,"27":-0.551470160484314,"28":0.388487309217453,"29":0.24630272388458252,"30":0.5328924655914307,"31":0.12075605243444443,"32":-0.27080145478248596,"33":0.7364875078201294,"34":0.417276531457901,"35":-0.4741538465023041,"36":0.5181472301483154,"37":0.366052508354187,"38":0.41623350977897644,"39":0.5973001718521118,"40":0.21028359234333038,"41":1.0257359743118286,"42":-0.10734822601079941,"43":0.1293897181749344,"44":0.0727514997124672,"45":-0.39255085587501526,"46":-0.10802561789751053,"47":0.1628422886133194,"48":-0.08272850513458252,"49":0.04047343507409096,"50":0.44416138529777527,"51":-0.5277519822120667,"52":0.30317291617393494,"53":0.2482796162366867,"54":0.5048230290412903,"55":0.25565680861473083,"56":-0.3805045485496521,"57":1.0550141334533691,"58":0.5945970416069031,"59":-0.580542802810669,"60":0.6042519211769104,"61":0.16431112587451935,"62":0.6503883004188538,"63":0.8379179835319519}},"outputBias":{"rows":8,"columns":1,"weights":{"0":0.1835714429616928,"1":0.10247445106506348,"2":0.9648411870002747,"3":0.9569058418273926,"4":0.4936175048351288,"5":0.7464476823806763,"6":0.9621530175209045,"7":0.7212874889373779}},"cellActivationMatrix":{"rows":8,"columns":4,"weights":{"0":-0.5415936708450317,"1":0.35143256187438965,"2":0.19524286687374115,"3":0.6229085922241211,"4":0.07107888162136078,"5":-0.5572605729103088,"6":0.7441538572311401,"7":-0.21928633749485016,"8":0.666551947593689,"9":-0.3885999619960785,"10":-0.22092832624912262,"11":-0.7290525436401367,"12":-0.8440890312194824,"13":0.5457361936569214,"14":0.010219097137451172,"15":0.8363556861877441,"16":0.6659021973609924,"17":-0.5537615418434143,"18":0.0874449759721756,"19":-0.7442196011543274,"20":-0.4007408320903778,"21":-0.04293217882514,"22":-1.2630414962768555,"23":-0.32428279519081116,"24":0.7611860632896423,"25":-0.4778604507446289,"26":-0.19341211020946503,"27":-0.7247515320777893,"28":0.7033237814903259,"29":-0.5799657106399536,"30":-0.08543150871992111,"31":-0.73105788230896}},"cellActivationHidden":{"rows":8,"columns":8,"weights":{"0":0.16830262541770935,"1":-0.5810129642486572,"2":-0.03815624117851257,"3":0.10181634873151779,"4":-0.1793716996908188,"5":0.5914037227630615,"6":-0.16539359092712402,"7":-0.5768725872039795,"8":-1.250190258026123,"9":-0.8310386538505554,"10":0.6907662749290466,"11":-0.871785581111908,"12":0.9442526698112488,"13":0.7249213457107544,"14":0.7080545425415039,"15":0.6327762007713318,"16":-0.015938393771648407,"17":-0.09665293991565704,"18":-0.17221133410930634,"19":0.13978451490402222,"20":-0.05773967131972313,"21":-0.23851267993450165,"22":-0.17146481573581696,"23":-0.08170828223228455,"24":-0.2919306457042694,"25":0.3566499948501587,"26":-0.017930395901203156,"27":-0.14649157226085663,"28":0.15854600071907043,"29":0.1713275909423828,"30":0.05261329934000969,"31":0.35323891043663025,"32":0.05670654773712158,"33":-0.10677992552518845,"34":-0.008278069086372852,"35":0.07133494317531586,"36":-0.047113656997680664,"37":-0.06465470045804977,"38":-0.03301389887928963,"39":-0.03101123310625553,"40":0.7907716035842896,"41":1.3241610527038574,"42":0.04519971087574959,"43":-0.9937267899513245,"44":0.14452464878559113,"45":-1.2736455202102661,"46":0.385906457901001,"47":-0.4161030352115631,"48":-0.03860677778720856,"49":-0.2378012239933014,"50":-0.14292094111442566,"51":0.21042615175247192,"52":-0.0707564502954483,"53":0.06954494118690491,"54":-0.09661562740802765,"55":-0.2177649885416031,"56":-0.5274237394332886,"57":-0.0650290995836258,"58":0.0635451152920723,"59":-0.008031992241740227,"60":0.16694675385951996,"61":0.1638880968093872,"62":0.09356306493282318,"63":0.35979047417640686}},"cellActivationBias":{"rows":8,"columns":1,"weights":{"0":-0.3555354177951813,"1":0.6315803527832031,"2":0.35578399896621704,"3":-0.4371643662452698,"4":0.49256736040115356,"5":0.3714819550514221,"6":0.3960852026939392,"7":0.4641949534416199}}},{"inputMatrix":{"rows":8,"columns":8,"weights":{"0":-0.02959928661584854,"1":-0.08670540899038315,"2":-0.2276778519153595,"3":0.3819325864315033,"4":-0.23863425850868225,"5":-0.058050308376550674,"6":-0.23892426490783691,"7":-0.06692357361316681,"8":0.08476604521274567,"9":-0.43219444155693054,"10":-0.37581583857536316,"11":0.4513753056526184,"12":-0.47414353489875793,"13":0.3314134180545807,"14":-0.31683316826820374,"15":-0.3250758945941925,"16":-0.6978654861450195,"17":-1.036179780960083,"18":-0.11979033797979355,"19":0.23996323347091675,"20":-0.44506004452705383,"21":1.902108907699585,"22":-0.20227885246276855,"23":-1.0262300968170166,"24":0.16845974326133728,"25":0.5322843790054321,"26":-0.11642859876155853,"27":-0.23619626462459564,"28":0.12087924778461456,"29":-1.1065346002578735,"30":-0.06706764549016953,"31":-0.2957339882850647,"32":-0.7956687211990356,"33":-1.2808560132980347,"34":-0.7064693570137024,"35":0.7642424702644348,"36":-0.6234595775604248,"37":1.2827175855636597,"38":-0.9656116366386414,"39":-1.1556298732757568,"40":-0.053612686693668365,"41":0.04428272694349289,"42":0.21942013502120972,"43":-0.07580974698066711,"44":0.19528238475322723,"45":0.17165499925613403,"46":0.17217977344989777,"47":0.271701455116272,"48":0.08943773061037064,"49":-0.11434716731309891,"50":-0.035983894020318985,"51":0.3280632495880127,"52":-0.1961168646812439,"53":0.16419807076454163,"54":-0.17952653765678406,"55":-0.04449814185500145,"56":-0.037366557866334915,"57":-0.18331347405910492,"58":-0.1546243131160736,"59":0.2198537439107895,"60":-0.22316069900989532,"61":0.6159730553627014,"62":-0.0911397784948349,"63":-0.23371592164039612}},"inputHidden":{"rows":8,"columns":8,"weights":{"0":-0.011686534620821476,"1":-0.0064914654940366745,"2":-0.18527312576770782,"3":0.11427358537912369,"4":-1.2804653644561768,"5":-0.024640798568725586,"6":-0.24509474635124207,"7":-0.16493596136569977,"8":-0.1614082306623459,"9":0.4125368893146515,"10":-0.302791953086853,"11":0.6464442610740662,"12":0.6733078956604004,"13":-0.8649423122406006,"14":-0.6627178192138672,"15":-0.12751924991607666,"16":0.7524333596229553,"17":-0.18515653908252716,"18":0.45003294944763184,"19":-0.2952168583869934,"20":-1.4182064533233643,"21":0.09557562321424484,"22":0.2454506754875183,"23":0.6871957778930664,"24":-0.5345475673675537,"25":0.31401577591896057,"26":0.10644987970590591,"27":0.6093827486038208,"28":-1.7270630598068237,"29":-0.4695970416069031,"30":0.011148406192660332,"31":-0.27180570363998413,"32":-0.453310489654541,"33":0.8670213222503662,"34":0.35680511593818665,"35":0.7461687326431274,"36":-0.8043459057807922,"37":-0.886560320854187,"38":-0.9561448097229004,"39":-0.8497512936592102,"40":-0.4805580973625183,"41":0.3034631609916687,"42":-0.09038453549146652,"43":0.4944913685321808,"44":1.0153441429138184,"45":-0.667255163192749,"46":-0.34124675393104553,"47":-0.022281937301158905,"48":-0.4267643690109253,"49":0.35031062364578247,"50":-0.36509668827056885,"51":0.4532620310783386,"52":1.059199571609497,"53":-0.6979671120643616,"54":-0.5225407481193542,"55":-0.21560761332511902,"56":0.8913092613220215,"57":0.49073487520217896,"58":2.742225170135498,"59":0.3516991138458252,"60":1.2479660511016846,"61":-0.382270485162735,"62":-0.3998429775238037,"63":0.29558345675468445}},"inputBias":{"rows":8,"columns":1,"weights":{"0":0.43879783153533936,"1":0.5677177309989929,"2":0.37801361083984375,"3":1.191313624382019,"4":1.4490340948104858,"5":1.1352756023406982,"6":0.6030328869819641,"7":-0.27840325236320496}},"forgetMatrix":{"rows":8,"columns":8,"weights":{"0":-0.2449660450220108,"1":0.08929720520973206,"2":0.20917029678821564,"3":-0.2960081994533539,"4":0.3009648621082306,"5":-0.038884539157152176,"6":0.34511929750442505,"7":0.405890554189682,"8":-0.10307623445987701,"9":-0.555497944355011,"10":0.5892658233642578,"11":-0.5418732762336731,"12":0.25518330931663513,"13":0.10255256295204163,"14":0.5114800333976746,"15":0.3868955671787262,"16":0.6085408926010132,"17":-0.30887189507484436,"18":-0.7366181015968323,"19":0.33871573209762573,"20":-0.3490300476551056,"21":-1.4252350330352783,"22":-0.5384469032287598,"23":-1.0176178216934204,"24":-0.2768031060695648,"25":-0.30273696780204773,"26":0.366292804479599,"27":-0.15044277906417847,"28":0.28508681058883667,"29":-0.03531487658619881,"30":0.14668098092079163,"31":0.2647255063056946,"32":-0.24889813363552094,"33":-0.0439273864030838,"34":-0.747880220413208,"35":0.8437707424163818,"36":-0.5215483903884888,"37":0.27471432089805603,"38":-0.8613084554672241,"39":-0.133265420794487,"40":-0.1517975926399231,"41":-0.955764651298523,"42":0.7525463700294495,"43":-0.6543254256248474,"44":0.41325169801712036,"45":0.026384714990854263,"46":0.6429767608642578,"47":0.4352262020111084,"48":-0.19524484872817993,"49":-0.5324008464813232,"50":0.6340644359588623,"51":-0.5257793664932251,"52":0.34993255138397217,"53":-0.01899992674589157,"54":0.5423935055732727,"55":0.559509813785553,"56":0.045446183532476425,"57":-0.7789857983589172,"58":0.1809924989938736,"59":-0.2102295309305191,"60":-0.016991188749670982,"61":0.26124951243400574,"62":0.20274628698825836,"63":0.004995487630367279}},"forgetHidden":{"rows":8,"columns":8,"weights":{"0":0.26693785190582275,"1":0.042270317673683167,"2":0.17993496358394623,"3":0.12996084988117218,"4":-1.3500959873199463,"5":0.014004501514136791,"6":-0.23846915364265442,"7":-0.10233339667320251,"8":-0.44157126545906067,"9":0.28567203879356384,"10":0.011792447417974472,"11":0.23421084880828857,"12":0.6170215010643005,"13":-0.4172513484954834,"14":-0.2941186726093292,"15":-0.2841918468475342,"16":-0.10913906991481781,"17":-0.735572338104248,"18":-0.9419193863868713,"19":-0.6666538119316101,"20":-0.8411673307418823,"21":0.3139476776123047,"22":0.45931780338287354,"23":0.6243511438369751,"24":-0.34719324111938477,"25":0.07259044796228409,"26":-0.061951737850904465,"27":-0.3620045483112335,"28":0.7959542274475098,"29":0.2959538698196411,"30":0.37087807059288025,"31":-0.06406104564666748,"32":-0.9887916445732117,"33":-0.021763257682323456,"34":-0.3008010685443878,"35":-0.5837395191192627,"36":1.0099817514419556,"37":0.010189877822995186,"38":0.04546504467725754,"39":-0.6834478974342346,"40":-0.21994765102863312,"41":0.15527655184268951,"42":0.2399223893880844,"43":0.3340742588043213,"44":0.24312759935855865,"45":-0.25733819603919983,"46":-0.0347309410572052,"47":-0.09464949369430542,"48":-0.3080349862575531,"49":0.23454804718494415,"50":-0.020622897893190384,"51":0.2294401079416275,"52":0.475705087184906,"53":-0.24075382947921753,"54":-0.21942341327667236,"55":-0.06294098496437073,"56":-0.4684808552265167,"57":0.19173407554626465,"58":-0.6969171762466431,"59":0.447103351354599,"60":-1.458204984664917,"61":-0.7307878732681274,"62":-0.49287840723991394,"63":-0.2263670265674591}},"forgetBias":{"rows":8,"columns":1,"weights":{"0":0,"1":0,"2":0,"3":0,"4":0,"5":0,"6":0,"7":0}},"outputMatrix":{"rows":8,"columns":8,"weights":{"0":-0.08389237523078918,"1":0.057446349412202835,"2":-0.22569593787193298,"3":0.18898072838783264,"4":-0.07745441049337387,"5":0.032039158046245575,"6":-0.13970836997032166,"7":-0.036953382194042206,"8":0.005839694291353226,"9":-0.3242948055267334,"10":-0.1345859318971634,"11":0.29543089866638184,"12":-0.13496065139770508,"13":0.045295581221580505,"14":-0.22447243332862854,"15":-0.2083497941493988,"16":-0.5491169095039368,"17":-1.057673454284668,"18":-0.26887843012809753,"19":0.3007393479347229,"20":-0.47925591468811035,"21":1.3287872076034546,"22":-0.4162329435348511,"23":-1.0261634588241577,"24":0.019170597195625305,"25":0.35260453820228577,"26":-0.0064196502789855,"27":-0.19968511164188385,"28":0.16764028370380402,"29":-0.7344483733177185,"30":-0.07716167718172073,"31":-0.0464765764772892,"32":-0.8624132871627808,"33":-0.6140929460525513,"34":-0.7969110608100891,"35":0.8583667874336243,"36":-0.6333590745925903,"37":1.4665170907974243,"38":-0.9426307678222656,"39":-0.8483035564422607,"40":0.11466974020004272,"41":-0.27029573917388916,"42":0.2872801125049591,"43":-0.12698368728160858,"44":0.12468468397855759,"45":0.08891653269529343,"46":0.20417800545692444,"47":0.0037686096038669348,"48":0.14009778201580048,"49":-0.2748129963874817,"50":-0.03477136045694351,"51":0.04765075072646141,"52":-0.07240329682826996,"53":0.03587348014116287,"54":0.00135028304066509,"55":0.033055104315280914,"56":-0.03774937242269516,"57":-0.046925682574510574,"58":-0.05231384187936783,"59":0.10837911814451218,"60":-0.15598942339420319,"61":0.49201205372810364,"62":-0.13216137886047363,"63":-0.22270117700099945}},"outputHidden":{"rows":8,"columns":8,"weights":{"0":0.014341659843921661,"1":0.07976311445236206,"2":-0.015431655570864677,"3":0.0638735219836235,"4":-1.3947844505310059,"5":0.01378452219069004,"6":-0.23355892300605774,"7":-0.09999408572912216,"8":-0.14232510328292847,"9":0.3300851583480835,"10":-0.14309999346733093,"11":0.4088488817214966,"12":0.6091986298561096,"13":-0.4639783501625061,"14":-0.37718215584754944,"15":-0.12058226764202118,"16":0.9261067509651184,"17":-0.4825659990310669,"18":0.1031772568821907,"19":-0.6562632918357849,"20":-1.36931574344635,"21":0.39623987674713135,"22":0.40756505727767944,"23":0.9669758081436157,"24":-0.4023676812648773,"25":0.09784872829914093,"26":0.17764776945114136,"27":0.18809229135513306,"28":-1.3414735794067383,"29":-0.25216448307037354,"30":-0.02028668485581875,"31":-0.21186867356300354,"32":-0.5259011387825012,"33":0.6026244163513184,"34":-0.04783737659454346,"35":0.33028316497802734,"36":0.09663932770490646,"37":-0.5062118172645569,"38":-0.6331074237823486,"39":-0.696601927280426,"40":-0.36422106623649597,"41":0.17761528491973877,"42":-0.07316665351390839,"43":0.39103665947914124,"44":0.2793635427951813,"45":-0.4367715120315552,"46":-0.1335599422454834,"47":-0.018367847427725792,"48":-0.22408315539360046,"49":0.2651195228099823,"50":-0.1250225007534027,"51":0.24290168285369873,"52":0.5617274045944214,"53":-0.4174307584762573,"54":-0.2092580795288086,"55":-0.10028688609600067,"56":0.5080121755599976,"57":0.27188044786453247,"58":1.8702160120010376,"59":0.258029580116272,"60":0.6458997130393982,"61":-0.47424256801605225,"62":-0.31987112760543823,"63":0.11063022166490555}},"outputBias":{"rows":8,"columns":1,"weights":{"0":0.47474223375320435,"1":0.6623558402061462,"2":0.3856266736984253,"3":1.0952364206314087,"4":1.380983591079712,"5":1.1122715473175049,"6":0.7447527050971985,"7":-0.2014576643705368}},"cellActivationMatrix":{"rows":8,"columns":8,"weights":{"0":-0.4754405617713928,"1":0.3195793926715851,"2":-0.2187812626361847,"3":0.3958096504211426,"4":-0.26420819759368896,"5":0.009160647168755531,"6":-0.2363114058971405,"7":0.24422477185726166,"8":-0.6121370792388916,"9":0.3803316354751587,"10":0.473280668258667,"11":-0.7266786098480225,"12":0.6939554214477539,"13":-0.26879528164863586,"14":0.6010655760765076,"15":0.6701300740242004,"16":-0.7285860776901245,"17":0.9568448066711426,"18":0.4276820123195648,"19":-0.5923722386360168,"20":0.8199755549430847,"21":-0.2020181268453598,"22":0.3844273090362549,"23":0.3833119571208954,"24":-0.06840021163225174,"25":0.02391425520181656,"26":1.0730783939361572,"27":-1.069763422012329,"28":0.6865630149841309,"29":0.5952111482620239,"30":1.1096668243408203,"31":0.881925106048584,"32":-0.6515421867370605,"33":1.1307122707366943,"34":0.6341384649276733,"35":-0.8254139423370361,"36":1.074810266494751,"37":0.22752566635608673,"38":0.711388349533081,"39":1.1564629077911377,"40":0.1994156688451767,"41":1.009972095489502,"42":-0.9043351411819458,"43":0.7972484827041626,"44":-0.08497339487075806,"45":-0.9223089814186096,"46":-0.8952327370643616,"47":-0.5221261382102966,"48":0.33236807584762573,"49":0.036756742745637894,"50":-0.5232248306274414,"51":0.8265100717544556,"52":-0.4997948110103607,"53":-0.19368822872638702,"54":-0.6164444088935852,"55":-0.5484275221824646,"56":0.5849270224571228,"57":-0.19224993884563446,"58":-0.6701695919036865,"59":0.5791943669319153,"60":-0.5571014881134033,"61":-0.04509696364402771,"62":-0.7095963954925537,"63":-0.9487143158912659}},"cellActivationHidden":{"rows":8,"columns":8,"weights":{"0":0.49458158016204834,"1":0.037779971957206726,"2":0.03370577096939087,"3":-0.06327205151319504,"4":-0.7260854840278625,"5":-0.2793863117694855,"6":-0.5984904170036316,"7":0.08115825057029724,"8":0.29822516441345215,"9":-0.36062273383140564,"10":0.3212147057056427,"11":-0.4114339351654053,"12":-1.0729572772979736,"13":0.34407010674476624,"14":0.20826174318790436,"15":0.25568899512290955,"16":0.40900811553001404,"17":-0.506095826625824,"18":-0.3748099207878113,"19":-0.3559901714324951,"20":-1.194023609161377,"21":0.25505223870277405,"22":0.3667435646057129,"23":0.6870918273925781,"24":0.3497813940048218,"25":-0.3914986848831177,"26":0.024517450481653214,"27":-0.060939691960811615,"28":-1.3407639265060425,"29":0.9777930974960327,"30":0.4961770474910736,"31":-0.6104034185409546,"32":0.5460065007209778,"33":-0.41057059168815613,"34":1.05617356300354,"35":-0.4659040570259094,"36":-0.33072420954704285,"37":0.8329780697822571,"38":0.6055693626403809,"39":0.5775561332702637,"40":0.8957732915878296,"41":-0.025034477934241295,"42":1.028501272201538,"43":-0.23888151347637177,"44":1.146004319190979,"45":0.1426049917936325,"46":0.19240672886371613,"47":0.6670249700546265,"48":0.352363258600235,"49":-0.1445053219795227,"50":0.20703795552253723,"51":-0.40611717104911804,"52":0.8600854873657227,"53":0.24288310110569,"54":0.16950996220111847,"55":0.32924237847328186,"56":-0.09992869943380356,"57":0.178662970662117,"58":-1.5871684551239014,"59":-0.5407455563545227,"60":-0.9491998553276062,"61":-0.19310732185840607,"62":-0.8197497725486755,"63":-0.8213595747947693}},"cellActivationBias":{"rows":8,"columns":1,"weights":{"0":0.3869059085845947,"1":-0.1955379992723465,"2":0.2308734804391861,"3":-0.22843824326992035,"4":-0.19228249788284302,"5":0.3562374711036682,"6":0.17390047013759613,"7":0.7296965718269348}}}],"outputConnector":{"rows":4,"columns":8,"weights":{"0":0.11122118681669235,"1":-0.34502092003822327,"2":0.6548814177513123,"3":-0.37112393975257874,"4":-0.09483853727579117,"5":0.16700097918510437,"6":0.2637024223804474,"7":0.14386431872844696,"8":0.41481614112854004,"9":-0.43011245131492615,"10":-0.025613835081458092,"11":0.10139796882867813,"12":-0.4067206084728241,"13":0.2819555699825287,"14":0.31165555119514465,"15":0.45235779881477356,"16":-0.08168095350265503,"17":-0.03838343918323517,"18":-0.30868566036224365,"19":-0.43306365609169006,"20":-0.43961119651794434,"21":0.3025205135345459,"22":0.2769550681114197,"23":-0.3116508722305298,"24":-0.3388504683971405,"25":-0.3553684949874878,"26":-0.7869919538497925,"27":0.23113612830638885,"28":-0.5734092593193054,"29":0.39437517523765564,"30":0.22898408770561218,"31":0.46487706899642944}},"output":{"rows":4,"columns":1,"weights":{"0":0.3299672305583954,"1":0.5723317861557007,"2":0.39349496364593506,"3":0.7024821043014526}},"inputLookup":{"open":0,"high":1,"low":2,"close":3,"date":4},"inputLookupLength":5,"outputLookup":{"open":0,"high":1,"low":2,"close":3,"date":4},"outputLookupLength":5}