{"type":"LSTMTimeStep","options":{"inputSize":4,"hiddenLayers":[8,8],"outputSize":4,"decayRate":0.999,"smoothEps":1e-8,"regc":0.000001,"clipval":5},"hiddenLayers":[{"inputMatrix":{"rows":8,"columns":4,"weights":{"0":0.5365898013114929,"1":0.8746747970581055,"2":0.9112528562545776,"3":0.810408353805542,"4":0.5489659309387207,"5":-0.02551196701824665,"6":0.5149269700050354,"7":0.07186728715896606,"8":0.27959316968917847,"9":0.37989526987075806,"10":0.37741658091545105,"11":0.4092203378677368,"12":0.18709513545036316,"13":0.5883724093437195,"14":0.6390693187713623,"15":0.4546341896057129,"16":0.9238234758377075,"17":0.2649615705013275,"18":0.042892687022686005,"19":0.15074044466018677,"20":0.7689578533172607,"21":0.6354882121086121,"22":0.8738922476768494,"23":0.6224031448364258,"24":0.5430980324745178,"25":0.7750123739242554,"26":1.0969427824020386,"27":0.7781891226768494,"28":0.43882784247398376,"29":0.6654146313667297,"30":-0.22864916920661926,"31":0.32340559363365173}},"inputHidden":{"rows":8,"columns":8,"weights":{"0":0.3906400799751282,"1":-0.5180286169052124,"2":-0.18551671504974365,"3":0.2848570942878723,"4":0.38830384612083435,"5":0.4445194602012634,"6":1.0374667644500732,"7":0.47313669323921204,"8":0.9531262516975403,"9":0.34788841009140015,"10":-0.9665403962135315,"11":0.015844449400901794,"12":-0.8443115949630737,"13":-0.13712561130523682,"14":0.8505544662475586,"15":0.4138273000717163,"16":0.6159132122993469,"17":1.0497710704803467,"18":-0.1023280918598175,"19":0.19645991921424866,"20":-0.4451981484889984,"21":-1.1666237115859985,"22":0.45196807384490967,"23":-0.1815676987171173,"24":0.6270804405212402,"25":-0.5844565629959106,"26":-0.6910343170166016,"27":0.07471311092376709,"28":-0.6165090203285217,"29":0.47784093022346497,"30":0.5474948287010193,"31":0.8023235201835632,"32":-1.5119946002960205,"33":0.3329213857650757,"34":-0.32768452167510986,"35":1.400864601135254,"36":-0.6890154480934143,"37":-0.9016281366348267,"38":-2.1741890907287598,"39":0.848244309425354,"40":0.4376354515552521,"41":0.04900236055254936,"42":-0.6936867833137512,"43":0.08666196465492249,"44":-0.30711716413497925,"45":0.2180381715297699,"46":0.6228470206260681,"47":0.349370539188385,"48":0.1266862452030182,"49":-1.6473488807678223,"50":-0.5618655681610107,"51":0.6866189241409302,"52":0.4558631479740143,"53":1.213553786277771,"54":0.1835005134344101,"55":1.0367071628570557,"56":0.451296329498291,"57":0.8553706407546997,"58":0.13181699812412262,"59":0.2768073081970215,"60":-0.4973844289779663,"61":-0.688266396522522,"62":0.18780429661273956,"63":-0.08030588924884796}},"inputBias":{"rows":8,"columns":1,"weights":{"0":1.326109528541565,"1":-0.0878584086894989,"2":-0.016613706946372986,"3":0.7813725471496582,"4":0.6479567289352417,"5":0.6996129155158997,"6":1.6153312921524048,"7":0.17721566557884216}},"forgetMatrix":{"rows":8,"columns":4,"weights":{"0":-0.29593825340270996,"1":0.026259249076247215,"2":-0.19538307189941406,"3":0.4779154062271118,"4":-0.3516072928905487,"5":-0.444763720035553,"6":-0.2902787923812866,"7":-0.45600414276123047,"8":0.20928716659545898,"9":-0.11644480377435684,"10":0.04638715833425522,"11":-0.3468720316886902,"12":0.21962611377239227,"13":0.12194184213876724,"14":-0.18894150853157043,"15":0.1356251984834671,"16":-0.03904133290052414,"17":-0.5481192469596863,"18":-0.553409993648529,"19":-0.5823965668678284,"20":-0.397721529006958,"21":-0.4272594451904297,"22":-0.3339746296405792,"23":-0.3099049925804138,"24":-0.12281658500432968,"25":0.3441825807094574,"26":0.15157829225063324,"27":0.7411250472068787,"28":0.5053594708442688,"29":0.07574284821748734,"30":-0.45036178827285767,"31":-0.08452053368091583}},"forgetHidden":{"rows":8,"columns":8,"weights":{"0":-0.4895164668560028,"1":-0.272138386964798,"2":-0.36573103070259094,"3":-0.06156850606203079,"4":0.21107855439186096,"5":0.9346336722373962,"6":-0.539331316947937,"7":-0.01526179164648056,"8":-0.0041266195476055145,"9":-0.18079710006713867,"10":-0.6980528235435486,"11":0.4312911331653595,"12":-0.41774019598960876,"13":0.05195799097418785,"14":-0.11626835912466049,"15":0.7151070237159729,"16":0.5090076923370361,"17":0.19443722069263458,"18":0.3817942440509796,"19":-0.09355562925338745,"20":0.25953492522239685,"21":-0.2892776131629944,"22":0.5629159808158875,"23":-0.370934396982193,"24":0.21885183453559875,"25":-0.0952601432800293,"26":-0.8311573266983032,"27":0.09649548679590225,"28":-0.36296990513801575,"29":0.40345367789268494,"30":-0.03698506951332092,"31":0.19220837950706482,"32":-0.7548681497573853,"33":-0.3889334201812744,"34":-0.38920530676841736,"35":1.1194950342178345,"36":0.2484402060508728,"37":-0.024396630004048347,"38":-0.9961048364639282,"39":0.5755754113197327,"40":-0.21610845625400543,"41":-0.2693718671798706,"42":-0.5855754613876343,"43":0.12458490580320358,"44":-0.15824617445468903,"45":0.17731516063213348,"46":-0.1580200493335724,"47":0.756942093372345,"48":-0.4767701029777527,"49":-0.3504607379436493,"50":-0.609786331653595,"51":0.05504676327109337,"52":0.063587486743927,"53":0.4814845025539398,"54":-0.7435045838356018,"55":-0.06686648726463318,"56":0.14212729036808014,"57":0.7814953327178955,"58":0.17586646974086761,"59":-0.3689705431461334,"60":0.2847706973552704,"61":-0.2217463105916977,"62":0.7922014594078064,"63":-0.3070552349090576}},"forgetBias":{"rows":8,"columns":1,"weights":{"0":0,"1":0,"2":0,"3":0,"4":0,"5":0,"6":0,"7":0}},"outputMatrix":{"rows":8,"columns":4,"weights":{"0":0.29727455973625183,"1":0.8156236410140991,"2":0.7348818182945251,"3":0.7544341087341309,"4":0.4905325174331665,"5":-0.1293029934167862,"6":0.49758070707321167,"7":0.08182322233915329,"8":0.4063262641429901,"9":0.41026389598846436,"10":0.3321690857410431,"11":0.34691184759140015,"12":0.14386476576328278,"13":0.44320011138916016,"14":0.4769934415817261,"15":0.4654262959957123,"16":0.9286490678787231,"17":0.18695025146007538,"18":-0.0670800507068634,"19":0.02353798970580101,"20":0.6724116802215576,"21":0.4651886522769928,"22":0.7938952445983887,"23":0.551628828048706,"24":0.4264906346797943,"25":0.8213266730308533,"26":0.89415442943573,"27":0.861903965473175,"28":0.31586870551109314,"29":0.533815860748291,"30":-0.16836057603359222,"31":0.23467804491519928}},"outputHidden":{"rows":8,"columns":8,"weights":{"0":-0.16809336841106415,"1":-0.517163097858429,"2":-0.0407366044819355,"3":0.2772098481655121,"4":0.5090168714523315,"5":0.34491342306137085,"6":0.33247435092926025,"7":0.2297327220439911,"8":0.9692835807800293,"9":0.3545972406864166,"10":-0.9221805930137634,"11":-0.026634003967046738,"12":-0.9492883086204529,"13":-0.12478087842464447,"14":0.8950007557868958,"15":0.3378318250179291,"16":0.5112417340278625,"17":0.8152526021003723,"18":0.06732558459043503,"19":0.11936777085065842,"20":-0.27909865975379944,"21":-0.714002788066864,"22":0.4312267005443573,"23":-0.20773287117481232,"24":0.6577680110931396,"25":-0.4194903075695038,"26":-0.5501058101654053,"27":0.04496220499277115,"28":-0.5024799704551697,"29":0.2362823337316513,"30":0.4336974620819092,"31":0.47036638855934143,"32":-1.4626456499099731,"33":0.20462894439697266,"34":-0.400235116481781,"35":1.4075566530227661,"36":-0.7081435918807983,"37":-0.6505592465400696,"38":-2.1504406929016113,"39":1.066249132156372,"40":0.3778913915157318,"41":-0.045793794095516205,"42":-0.594552755355835,"43":0.19816458225250244,"44":-0.2929178774356842,"45":0.21945056319236755,"46":0.5020062923431396,"47":0.39567831158638,"48":-0.35523292422294617,"49":-1.386626124382019,"50":-0.49473872780799866,"51":0.49892085790634155,"52":0.9008600115776062,"53":0.7143017053604126,"54":-0.31767576932907104,"55":0.6762270927429199,"56":0.3837722837924957,"57":1.0032292604446411,"58":0.10209517925977707,"59":-0.04271853342652321,"60":-0.3759938180446625,"61":-0.5372880101203918,"62":0.5337161421775818,"63":-0.009589772671461105}},"outputBias":{"rows":8,"columns":1,"weights":{"0":1.2523510456085205,"1":-0.09858810156583786,"2":-0.054662350565195084,"3":0.8463816046714783,"4":0.6703224778175354,"5":0.7530914545059204,"6":1.5282750129699707,"7":0.22665424644947052}},"cellActivationMatrix":{"rows":8,"columns":4,"weights":{"0":-0.24177959561347961,"1":0.5531371831893921,"2":0.5523276329040527,"3":1.0519343614578247,"4":0.601280152797699,"5":-0.30389103293418884,"6":0.22020700573921204,"7":-0.218588188290596,"8":-0.15670621395111084,"9":0.15003758668899536,"10":0.00468871183693409,"11":0.20861683785915375,"12":0.5288386940956116,"13":-0.5736566185951233,"14":-0.046274423599243164,"15":-0.8452695608139038,"16":-0.8575665354728699,"17":0.6345328092575073,"18":-0.016258152201771736,"19":0.6956189274787903,"20":-0.8997710347175598,"21":0.6000842452049255,"22":-0.18084897100925446,"23":0.6231326460838318,"24":-0.47932523488998413,"25":0.5221631526947021,"26":0.6969925761222839,"27":0.9219309091567993,"28":0.42056575417518616,"29":-0.6369063854217529,"30":-0.044045597314834595,"31":-0.6304970979690552}},"cellActivationHidden":{"rows":8,"columns":8,"weights":{"0":-0.7157190442085266,"1":-0.2886945903301239,"2":0.002001960529014468,"3":0.2653551995754242,"4":0.5547797679901123,"5":0.16446453332901,"6":-0.985818088054657,"7":-0.22825101017951965,"8":0.2651683986186981,"9":-0.29141390323638916,"10":-1.287916660308838,"11":0.12467799335718155,"12":-0.8548958897590637,"13":0.700831949710846,"14":0.1742260456085205,"15":0.7677297592163086,"16":1.496551752090454,"17":0.12417102605104446,"18":-0.38554951548576355,"19":-0.42970889806747437,"20":-1.488219141960144,"21":-0.03477832302451134,"22":1.188773512840271,"23":0.5628890991210938,"24":0.2784474194049835,"25":-0.18580588698387146,"26":0.7267317771911621,"27":-0.3003239333629608,"28":0.778331458568573,"29":-0.10027225315570831,"30":0.3704541325569153,"31":-0.6542873382568359,"32":1.3696378469467163,"33":0.44266536831855774,"34":-0.3183588981628418,"35":-1.3558896780014038,"36":-0.7792408466339111,"37":0.05977976694703102,"38":1.9599285125732422,"39":-0.4370304048061371,"40":-0.5457983016967773,"41":-0.35837143659591675,"42":0.25204598903656006,"43":0.5980926156044006,"44":0.3079240024089813,"45":-0.09007292985916138,"46":-0.810567319393158,"47":-0.11658672243356705,"48":-0.5945590734481812,"49":-0.8370878100395203,"50":-0.6054322719573975,"51":0.39963874220848083,"52":0.17738528549671173,"53":0.6675446629524231,"54":-0.7909144163131714,"55":0.5175037384033203,"56":-0.9540941715240479,"57":-1.4495049715042114,"58":-0.06599290668964386,"59":0.8270530700683594,"60":1.0801055431365967,"61":0.581773579120636,"62":-1.2503689527511597,"63":-0.030596893280744553}},"cellActivationBias":{"rows":8,"columns":1,"weights":{"0":-0.24179336428642273,"1":0.31038379669189453,"2":-0.6636725664138794,"3":0.6341716647148132,"4":-0.6373319625854492,"5":-0.3344080448150635,"6":-0.34185951948165894,"7":0.7363165616989136}}},{"inputMatrix":{"rows":8,"columns":8,"weights":{"0":0.5333380103111267,"1":0.019781118258833885,"2":0.04733515903353691,"3":-0.4861515760421753,"4":0.015706786885857582,"5":0.4158283472061157,"6":0.9509779810905457,"7":0.03791693225502968,"8":0.7537775635719299,"9":0.1583111733198166,"10":0.045936111360788345,"11":-0.17396269738674164,"12":0.13637302815914154,"13":-0.1453174501657486,"14":0.7452085614204407,"15":-0.36762499809265137,"16":0.36316341161727905,"17":-0.07161585986614227,"18":-0.03671099990606308,"19":-0.3222091794013977,"20":0.1479644626379013,"21":0.468055784702301,"22":0.6257942914962769,"23":-0.07127729803323746,"24":0.675831139087677,"25":0.11228792369365692,"26":0.34715259075164795,"27":-0.29543694853782654,"28":-0.2720791697502136,"29":-0.10103185474872589,"30":0.8069882988929749,"31":-0.02239290624856949,"32":-0.23142750561237335,"33":0.890639066696167,"34":0.07192260026931763,"35":0.2255558967590332,"36":-0.04628098011016846,"37":-0.4893917143344879,"38":-0.8692281246185303,"39":-0.22472107410430908,"40":0.4016295373439789,"41":-0.017045767977833748,"42":0.11620069295167923,"43":-0.6466985940933228,"44":0.08308357000350952,"45":0.6224477887153625,"46":0.7756500244140625,"47":0.08729628473520279,"48":0.5375270247459412,"49":0.08330287784337997,"50":0.10529710352420807,"51":-0.5123416781425476,"52":0.21550846099853516,"53":0.30758580565452576,"54":0.7058902978897095,"55":-0.11572279036045074,"56":-0.223741814494133,"57":0.05188459903001785,"58":0.4519270062446594,"59":1.0825108289718628,"60":0.03973846510052681,"61":-0.6954652667045593,"62":-1.1374949216842651,"63":-0.21803893148899078}},"inputHidden":{"rows":8,"columns":8,"weights":{"0":-0.21451477706432343,"1":-0.5824317336082458,"2":0.3193727433681488,"3":0.5644262433052063,"4":0.4422183632850647,"5":-0.2621263265609741,"6":-0.39424923062324524,"7":0.010338103398680687,"8":-0.16574248671531677,"9":-0.01683119684457779,"10":0.13520248234272003,"11":0.19804373383522034,"12":0.05292481556534767,"13":-0.15865130722522736,"14":-0.06000592187047005,"15":-0.46566444635391235,"16":-0.16483350098133087,"17":-0.532363772392273,"18":0.34006088972091675,"19":0.5732504725456238,"20":0.2283497005701065,"21":-0.29716137051582336,"22":-0.2867177426815033,"23":-0.010434499941766262,"24":-0.39234432578086853,"25":-0.25897252559661865,"26":0.25245240330696106,"27":0.3528079092502594,"28":0.023672576993703842,"29":-0.14122313261032104,"30":-0.1696946769952774,"31":-0.9643018841743469,"32":-0.3449260890483856,"33":-0.262106716632843,"34":0.40848612785339355,"35":0.2785629332065582,"36":0.8089823722839355,"37":-0.6273074150085449,"38":-0.8834027647972107,"39":2.0619354248046875,"40":-0.2942027449607849,"41":-0.7059441804885864,"42":0.47382086515426636,"43":0.7368499636650085,"44":0.5269417762756348,"45":-0.4508439302444458,"46":-0.4748925268650055,"47":-0.33912861347198486,"48":-0.23859694600105286,"49":-0.25433820486068726,"50":0.2682703137397766,"51":0.29785531759262085,"52":0.47978925704956055,"53":-0.20186950266361237,"54":-0.38386544585227966,"55":-0.6452227830886841,"56":0.5592179298400879,"57":0.10488417744636536,"58":-0.33355820178985596,"59":-0.3302043378353119,"60":-0.4116027355194092,"61":0.5980674624443054,"62":0.5431516170501709,"63":0.5066166520118713}},"inputBias":{"rows":8,"columns":1,"weights":{"0":0.6733540296554565,"1":0.5599240660667419,"2":0.4843151271343231,"3":0.5911910533905029,"4":-0.28487229347229004,"5":0.39271068572998047,"6":0.16482044756412506,"7":0.9158851504325867}},"forgetMatrix":{"rows":8,"columns":8,"weights":{"0":0.04721565544605255,"1":0.19132697582244873,"2":-0.15005184710025787,"3":0.11852691322565079,"4":0.22969157993793488,"5":-0.21243304014205933,"6":0.07083982974290848,"7":0.0010998192010447383,"8":-0.38808780908584595,"9":0.2869293987751007,"10":-0.6709668636322021,"11":0.1702556014060974,"12":-0.02526186779141426,"13":-0.20556671917438507,"14":-0.18652330338954926,"15":0.3370245099067688,"16":-0.19539767503738403,"17":0.0952870324254036,"18":-0.24837370216846466,"19":0.02092231996357441,"20":-0.060746580362319946,"21":-0.21314507722854614,"22":0.05251828953623772,"23":0.259453684091568,"24":-0.12933768332004547,"25":-0.07676967978477478,"26":-0.5038436651229858,"27":0.0131837772205472,"28":-0.16728778183460236,"29":0.0008599241264164448,"30":-0.32325485348701477,"31":0.41336485743522644,"32":-0.6393493413925171,"33":0.098481684923172,"34":-0.395555317401886,"35":0.1638280153274536,"36":-1.3794121742248535,"37":-0.12695910036563873,"38":-0.11267642676830292,"39":0.6519746780395508,"40":0.1648254245519638,"41":0.006622683722525835,"42":-0.456009179353714,"43":0.13617251813411713,"44":-0.2831967771053314,"45":-0.10540969669818878,"46":-0.09158176183700562,"47":0.32009926438331604,"48":0.8854484558105469,"49":0.19218677282333374,"50":-0.17289356887340546,"51":-0.0034035651478916407,"52":-0.4163740277290344,"53":-0.46693935990333557,"54":0.2541966736316681,"55":0.03167833015322685,"56":-0.23898904025554657,"57":0.15678837895393372,"58":0.4923260807991028,"59":0.36930590867996216,"60":-0.5975770950317383,"61":-0.21030329167842865,"62":-0.24168023467063904,"63":-0.1063690111041069}},"forgetHidden":{"rows":8,"columns":8,"weights":{"0":-0.08760339021682739,"1":-0.14486117660999298,"2":0.1327742040157318,"3":0.1371806114912033,"4":0.09545190632343292,"5":-0.15255893766880035,"6":-0.13952547311782837,"7":0.4133831262588501,"8":-0.5681353211402893,"9":-0.3781636655330658,"10":0.4255450367927551,"11":0.47359272837638855,"12":0.23130178451538086,"13":-0.5321773290634155,"14":-0.47415152192115784,"15":0.3622221350669861,"16":-0.1630624383687973,"17":-0.3845433294773102,"18":0.2540174424648285,"19":0.24100300669670105,"20":0.16892001032829285,"21":-0.3301810026168823,"22":-0.3397296667098999,"23":0.5641093850135803,"24":-0.24834565818309784,"25":-0.3947126567363739,"26":0.32532933354377747,"27":0.4344576597213745,"28":0.18289439380168915,"29":-0.2668892741203308,"30":-0.221920445561409,"31":0.38149186968803406,"32":-0.357368528842926,"33":-0.5797716379165649,"34":0.4769114851951599,"35":0.5643893480300903,"36":0.6649594902992249,"37":-0.5956761240959167,"38":-0.48911145329475403,"39":-0.1344001144170761,"40":-0.1494581699371338,"41":-0.3974710702896118,"42":0.2723088562488556,"43":0.37492993474006653,"44":0.3849777281284332,"45":-0.33879971504211426,"46":-0.33839887380599976,"47":0.5937137603759766,"48":-0.008494323119521141,"49":-0.05654088780283928,"50":0.04461364448070526,"51":0.15060165524482727,"52":0.35244566202163696,"53":-0.0954708456993103,"54":-0.07193145900964737,"55":0.35306063294410706,"56":0.11091531068086624,"57":-0.0015587282832711935,"58":0.005914563778787851,"59":-0.14796561002731323,"60":0.21753951907157898,"61":-0.07814344018697739,"62":-0.21461352705955505,"63":0.6012976169586182}},"forgetBias":{"rows":8,"columns":1,"weights":{"0":0,"1":0,"2":0,"3":0,"4":0,"5":0,"6":0,"7":0}},"outputMatrix":{"rows":8,"columns":8,"weights":{"0":0.4091300368309021,"1":-0.022956084460020065,"2":-0.005123499780893326,"3":-0.4490484595298767,"4":-0.004887589253485203,"5":0.23173432052135468,"6":0.816597580909729,"7":-0.07899890840053558,"8":0.41011160612106323,"9":0.1859857141971588,"10":-0.014719072729349136,"11":-0.08967302739620209,"12":0.19642211496829987,"13":0.020638417452573776,"14":0.5702401995658875,"15":-0.24588443338871002,"16":0.3275423049926758,"17":-0.10749892890453339,"18":-0.06765549629926682,"19":-0.3511638641357422,"20":0.18862466514110565,"21":0.37341320514678955,"22":0.5753447413444519,"23":0.03352390229701996,"24":0.5425699949264526,"25":-0.0032550946343690157,"26":0.2017359882593155,"27":-0.20882900059223175,"28":-0.12989793717861176,"29":-0.06016033515334129,"30":0.7145088315010071,"31":-0.027917249128222466,"32":-0.4067429304122925,"33":0.7457987070083618,"34":-0.00960983894765377,"35":0.17999839782714844,"36":-0.1255008727312088,"37":-0.42400088906288147,"38":-0.8669869303703308,"39":-0.17123351991176605,"40":0.470407634973526,"41":0.048610590398311615,"42":-0.036938801407814026,"43":-0.35606682300567627,"44":0.05700043961405754,"45":0.30653640627861023,"46":0.7450209856033325,"47":0.09957496076822281,"48":0.611828625202179,"49":0.14204683899879456,"50":0.051075052469968796,"51":-0.35766199231147766,"52":0.030380677431821823,"53":0.13670745491981506,"54":0.6800357699394226,"55":-0.08773244172334671,"56":-0.8036445379257202,"57":-0.18610356748104095,"58":0.45845115184783936,"59":1.498605489730835,"60":0.3782443404197693,"61":-0.5039014220237732,"62":-1.6660786867141724,"63":-0.08123582601547241}},"outputHidden":{"rows":8,"columns":8,"weights":{"0":-0.15143932402133942,"1":-0.34312644600868225,"2":0.1879560351371765,"3":0.3373638093471527,"4":0.2832208275794983,"5":-0.2404375672340393,"6":-0.2764192223548889,"7":-0.004165085032582283,"8":-0.19993887841701508,"9":-0.06954377889633179,"10":0.19930489361286163,"11":0.22061659395694733,"12":0.07704371213912964,"13":-0.138290673494339,"14":-0.044424351304769516,"15":-0.17885158956050873,"16":-0.13002197444438934,"17":-0.3686741590499878,"18":0.18756632506847382,"19":0.38430821895599365,"20":0.17404522001743317,"21":-0.27988627552986145,"22":-0.29595160484313965,"23":0.13107848167419434,"24":-0.20732957124710083,"25":-0.19403477013111115,"26":0.13926750421524048,"27":0.17272180318832397,"28":0.035434573888778687,"29":-0.15145939588546753,"30":-0.037635769695043564,"31":-0.4880002737045288,"32":-0.3024158775806427,"33":-0.21409130096435547,"34":0.38102954626083374,"35":0.2400309145450592,"36":0.8679690361022949,"37":-0.6412883400917053,"38":-0.709270179271698,"39":1.5079129934310913,"40":-0.196304589509964,"41":-0.4741915762424469,"42":0.30961140990257263,"43":0.5025386810302734,"44":0.4295997619628906,"45":-0.3268223702907562,"46":-0.26816821098327637,"47":-0.06796489655971527,"48":-0.08380000293254852,"49":-0.12325920164585114,"50":0.17517763376235962,"51":0.20700210332870483,"52":0.31869426369667053,"53":-0.1705322563648224,"54":-0.17764542996883392,"55":-0.3541606664657593,"56":0.6372993588447571,"57":-0.11754787713289261,"58":-0.39874908328056335,"59":-0.21104931831359863,"60":-0.3529965877532959,"61":0.5680815577507019,"62":0.5083571076393127,"63":0.8051326274871826}},"outputBias":{"rows":8,"columns":1,"weights":{"0":0.707709789276123,"1":0.6139821410179138,"2":0.5805427432060242,"3":0.6330394744873047,"4":-0.33910757303237915,"5":0.5463982820510864,"6":0.2785896360874176,"7":0.5948172211647034}},"cellActivationMatrix":{"rows":8,"columns":8,"weights":{"0":0.18812383711338043,"1":-0.4346434473991394,"2":0.6723089218139648,"3":-0.6853925585746765,"4":1.0711617469787598,"5":1.3244482278823853,"6":0.4467991590499878,"7":-1.0593907833099365,"8":0.5804603695869446,"9":0.3916774094104767,"10":-0.47137320041656494,"11":-0.5229024291038513,"12":0.2436734139919281,"13":-0.13096655905246735,"14":0.6677544713020325,"15":-0.6467422246932983,"16":-0.3634440004825592,"17":0.24892905354499817,"18":-0.09328486770391464,"19":0.3402062654495239,"20":-0.46058037877082825,"21":-0.5416519045829773,"22":-0.3633539378643036,"23":0.6374489068984985,"24":-0.7152716517448425,"25":0.02733577787876129,"26":0.3130563497543335,"27":0.37331679463386536,"28":0.4838576316833496,"29":-0.02639153227210045,"30":-0.5864651799201965,"31":0.5579605102539062,"32":-1.067279577255249,"33":0.4933023452758789,"34":-1.0305606126785278,"35":-0.23187761008739471,"36":-0.6167421936988831,"37":-0.3431471586227417,"38":-1.3119850158691406,"39":-0.1831609159708023,"40":0.30106237530708313,"41":-0.37237346172332764,"42":0.29275795817375183,"43":-0.38303232192993164,"44":0.8203404545783997,"45":0.8292821645736694,"46":0.44265681505203247,"47":-0.4616197347640991,"48":0.22703759372234344,"49":-0.30891484022140503,"50":0.4192626476287842,"51":-0.5257200598716736,"52":0.7443563938140869,"53":0.5625882148742676,"54":0.44577470421791077,"55":-0.36432573199272156,"56":-0.7960299849510193,"57":-0.11757021397352219,"58":0.7118500471115112,"59":0.39714863896369934,"60":-0.7046636343002319,"61":-0.2703675627708435,"62":-0.9950544834136963,"63":0.2853829860687256}},"cellActivationHidden":{"rows":8,"columns":8,"weights":{"0":0.37144935131073,"1":0.009691517800092697,"2":-0.16002458333969116,"3":-0.05955733358860016,"4":-0.36157846450805664,"5":0.3065609037876129,"6":0.4573945999145508,"7":0.029562098905444145,"8":-0.24842531979084015,"9":-0.007779967039823532,"10":0.14915266633033752,"11":0.011074368841946125,"12":0.14418452978134155,"13":-0.28454098105430603,"14":-0.2345154583454132,"15":0.20075282454490662,"16":0.07661332935094833,"17":0.1622101217508316,"18":-0.019248686730861664,"19":-0.1603681594133377,"20":-0.1973520666360855,"21":0.13685767352581024,"22":0.25859320163726807,"23":-0.5267932415008545,"24":0.17539016902446747,"25":-0.1623421013355255,"26":-0.0803448036313057,"27":-0.034188490360975266,"28":-0.1804559826850891,"29":0.14023806154727936,"30":-0.06304297596216202,"31":-0.08526118099689484,"32":-0.13525402545928955,"33":0.3866903483867645,"34":-0.017343668267130852,"35":-0.260524183511734,"36":0.05007713660597801,"37":0.14239542186260223,"38":0.14167729020118713,"39":0.7586053013801575,"40":0.023097967728972435,"41":-0.11176899075508118,"42":0.09347246587276459,"43":0.1788310557603836,"44":0.13067346811294556,"45":-0.19298508763313293,"46":-0.19916974008083344,"47":-0.21151961386203766,"48":-0.2059406340122223,"49":-0.2206360548734665,"50":0.21048475801944733,"51":0.18219022452831268,"52":0.2803088426589966,"53":-0.1489890217781067,"54":-0.028151484206318855,"55":-0.878514289855957,"56":0.5211690068244934,"57":0.8742986917495728,"58":-0.6737092733383179,"59":-0.7832857966423035,"60":-0.903869092464447,"61":0.8376330733299255,"62":0.8762608170509338,"63":-1.566985011100769}},"cellActivationBias":{"rows":8,"columns":1,"weights":{"0":0.10774873197078705,"1":0.29057812690734863,"2":-0.18246561288833618,"3":-0.12704582512378693,"4":-0.37362608313560486,"5":0.04539411514997482,"6":0.008635071106255054,"7":-0.13312283158302307}}}],"outputConnector":{"rows":4,"columns":8,"weights":{"0":0.23923076689243317,"1":0.5085503458976746,"2":-0.4043012857437134,"3":-0.38454940915107727,"4":-0.07565873116254807,"5":0.2415127456188202,"6":-0.13912925124168396,"7":0.4698716402053833,"8":0.35114848613739014,"9":0.07450080662965775,"10":-0.17299634218215942,"11":-0.28824353218078613,"12":-0.5503143072128296,"13":0.24896904826164246,"14":0.3489398658275604,"15":0.0054002064280211926,"16":0.22454999387264252,"17":0.5624244213104248,"18":-0.3229835331439972,"19":-0.5255131125450134,"20":0.6480826735496521,"21":0.24560031294822693,"22":0.24870868027210236,"23":-0.10974422842264175,"24":0.4090639352798462,"25":0.127274751663208,"26":-0.18415194749832153,"27":0.09502477943897247,"28":-0.472722589969635,"29":0.37647581100463867,"30":0.15558312833309174,"31":-0.5782104730606079}},"output":{"rows":4,"columns":1,"weights":{"0":0.24444131553173065,"1":0.5972368717193604,"2":0.13467159867286682,"3":0.6104792356491089}},"inputLookup":{"open":0,"high":1,"low":2,"close":3,"date":4},"inputLookupLength":5,"outputLookup":{"open":0,"high":1,"low":2,"close":3,"date":4},"outputLookupLength":5}