{"type":"LSTMTimeStep","options":{"inputSize":4,"hiddenLayers":[8,8],"outputSize":4,"decayRate":0.999,"smoothEps":1e-8,"regc":0.000001,"clipval":5},"hiddenLayers":[{"inputMatrix":{"rows":8,"columns":4,"weights":{"0":-0.03344583883881569,"1":0.13155940175056458,"2":-0.8572899103164673,"3":-0.054531924426555634,"4":-0.07017041742801666,"5":-0.09699113667011261,"6":-0.252865195274353,"7":-0.3095613420009613,"8":0.4433017373085022,"9":1.1340049505233765,"10":0.946850061416626,"11":1.094665765762329,"12":0.10920318961143494,"13":0.06120136007666588,"14":0.10734796524047852,"15":-0.2018018513917923,"16":0.41875147819519043,"17":1.0031076669692993,"18":0.7081426978111267,"19":0.9968477487564087,"20":0.6119368672370911,"21":0.7990161776542664,"22":0.24898241460323334,"23":0.6814975738525391,"24":0.4207873046398163,"25":0.400569349527359,"26":0.45930159091949463,"27":0.48993492126464844,"28":0.20005203783512115,"29":0.9131897687911987,"30":0.40849339962005615,"31":0.7816134095191956}},"inputHidden":{"rows":8,"columns":8,"weights":{"0":-0.1589314192533493,"1":-0.6252710223197937,"2":-0.829816997051239,"3":-0.29406246542930603,"4":-0.9051672220230103,"5":1.1142703294754028,"6":-0.42334431409835815,"7":0.871400773525238,"8":0.20695456862449646,"9":-0.0664656013250351,"10":0.015368879772722721,"11":-0.11437550187110901,"12":-0.20159435272216797,"13":-0.18768899142742157,"14":0.04966070130467415,"15":-0.02583230286836624,"16":0.001724270056001842,"17":0.02161865122616291,"18":1.0025928020477295,"19":-0.08449484407901764,"20":0.8858518600463867,"21":-0.3502914011478424,"22":-0.6038100719451904,"23":-0.6377817392349243,"24":0.5155979990959167,"25":-0.12640851736068726,"26":0.5601255893707275,"27":-0.1537957787513733,"28":0.8021500706672668,"29":-0.7730307579040527,"30":0.6147518157958984,"31":-0.8219372630119324,"32":-0.16771765053272247,"33":0.02143676206469536,"34":0.34348878264427185,"35":-0.27713966369628906,"36":0.21674782037734985,"37":-0.1932218074798584,"38":-0.6601995229721069,"39":-0.15992550551891327,"40":-0.2477172315120697,"41":-0.39438021183013916,"42":-0.745593249797821,"43":-0.1746915578842163,"44":-0.8400795459747314,"45":0.8371174335479736,"46":-0.1321488618850708,"47":0.8081631064414978,"48":-0.3168463706970215,"49":-0.3116202652454376,"50":1.2140963077545166,"51":-0.5226613283157349,"52":1.0021198987960815,"53":0.04946604371070862,"54":-1.6789286136627197,"55":-0.6064023971557617,"56":0.3981114625930786,"57":0.06593233346939087,"58":-0.5744983553886414,"59":0.21409545838832855,"60":-0.33247482776641846,"61":-0.563537061214447,"62":0.047585539519786835,"63":-0.08212742209434509}},"inputBias":{"rows":8,"columns":1,"weights":{"0":0.5092180967330933,"1":-0.21274706721305847,"2":0.7327192425727844,"3":-0.7463952302932739,"4":0.6933428645133972,"5":1.1387993097305298,"6":0.06582169234752655,"7":0.804966151714325}},"forgetMatrix":{"rows":8,"columns":4,"weights":{"0":0.600794792175293,"1":0.6659799814224243,"2":0.1788957118988037,"3":0.6474911570549011,"4":0.03261823579668999,"5":0.01586827076971531,"6":-0.01015046238899231,"7":-0.04028907045722008,"8":-0.8298404216766357,"9":-0.3661825358867645,"10":-1.0607444047927856,"11":-0.4241942763328552,"12":0.24572372436523438,"13":0.22160953283309937,"14":0.08859732747077942,"15":0.04045838862657547,"16":-0.7312263250350952,"17":-0.5021572113037109,"18":-1.153112769126892,"19":-0.5772636532783508,"20":0.4464603066444397,"21":0.7201018929481506,"22":0.04148371145129204,"23":0.810892641544342,"24":0.46725815534591675,"25":0.6977885365486145,"26":0.10071095079183578,"27":0.6139613389968872,"28":0.0842098742723465,"29":0.28707751631736755,"30":-0.10801969468593597,"31":0.39466577768325806}},"forgetHidden":{"rows":8,"columns":8,"weights":{"0":0.05152596905827522,"1":-0.38652536273002625,"2":-0.42111051082611084,"3":-0.10801778733730316,"4":-0.424922376871109,"5":0.7170804738998413,"6":-0.42245030403137207,"7":0.44297948479652405,"8":-0.006402997300028801,"9":-0.06854701787233353,"10":-0.08645140379667282,"11":-0.07929778844118118,"12":-0.008334270678460598,"13":0.10698698461055756,"14":-0.06717582792043686,"15":0.08950967341661453,"16":-1.3251636028289795,"17":-0.5207035541534424,"18":-1.4819669723510742,"19":0.03385234251618385,"20":-1.3741848468780518,"21":1.5005557537078857,"22":-0.36339178681373596,"23":1.1656299829483032,"24":0.07374627888202667,"25":0.01730869896709919,"26":0.027978720143437386,"27":0.02543172612786293,"28":0.06250356882810593,"29":-0.13148058950901031,"30":0.08309957385063171,"31":-0.2350742667913437,"32":-0.8126647472381592,"33":-0.46331775188446045,"34":-1.4759445190429688,"35":-0.05604640766978264,"36":-1.3251341581344604,"37":1.1902073621749878,"38":-0.22426769137382507,"39":1.0437579154968262,"40":-0.6235801577568054,"41":-0.4700777232646942,"42":-0.6423131823539734,"43":-0.08447171747684479,"44":-0.5036981105804443,"45":1.2439616918563843,"46":-0.5494204759597778,"47":0.6435272097587585,"48":-0.8773510456085205,"49":-0.03440333902835846,"50":0.7583757638931274,"51":-0.3725687563419342,"52":0.6144133806228638,"53":1.375123381614685,"54":-1.284756064414978,"55":-0.18061937391757965,"56":-0.36612817645072937,"57":-0.1830238401889801,"58":-0.21052664518356323,"59":0.0884304791688919,"60":0.05221826955676079,"61":1.3131834268569946,"62":-1.276842713356018,"63":0.4915561079978943}},"forgetBias":{"rows":8,"columns":1,"weights":{"0":0,"1":0,"2":0,"3":0,"4":0,"5":0,"6":0,"7":0}},"outputMatrix":{"rows":8,"columns":4,"weights":{"0":0.25486329197883606,"1":0.41028812527656555,"2":-0.3839104473590851,"3":0.1804676502943039,"4":-0.16393053531646729,"5":-0.08307002484798431,"6":-0.31214484572410583,"7":-0.2768670320510864,"8":0.2989274859428406,"9":1.0546048879623413,"10":0.4076497554779053,"11":1.0162901878356934,"12":0.07502464205026627,"13":-0.019531812518835068,"14":0.046495221555233,"15":-0.20389112830162048,"16":0.3712259531021118,"17":1.0028965473175049,"18":0.4476751685142517,"19":0.8576101064682007,"20":0.4781687557697296,"21":0.7065897583961487,"22":0.283596396446228,"23":0.7003120183944702,"24":0.6780713796615601,"25":0.8766459822654724,"26":0.6672334671020508,"27":0.9311733245849609,"28":0.4826843738555908,"29":0.8448306918144226,"30":0.3441724479198456,"31":0.772652268409729}},"outputHidden":{"rows":8,"columns":8,"weights":{"0":-0.07469549775123596,"1":-0.4803446829319,"2":-0.6953191757202148,"3":-0.2531191408634186,"4":-0.7876232862472534,"5":0.7679879069328308,"6":-0.5161239504814148,"7":0.5591647624969482,"8":0.20901867747306824,"9":-0.09770517796278,"10":-0.07333393394947052,"11":-0.20130275189876556,"12":-0.1054081916809082,"13":-0.08196093887090683,"14":0.06632199138402939,"15":0.043688658624887466,"16":-0.4430769979953766,"17":-0.08717740327119827,"18":0.11094169318675995,"19":-0.22547830641269684,"20":-0.03350747004151344,"21":0.04386240243911743,"22":-0.8519315123558044,"23":-0.0067247310653328896,"24":0.742465615272522,"25":-0.04176880791783333,"26":0.4943911135196686,"27":-0.17429909110069275,"28":0.8254727721214294,"29":-0.7925729155540466,"30":0.5537718534469604,"31":-0.9137130379676819,"32":-0.11676245927810669,"33":-0.005479572340846062,"34":-0.11583258956670761,"35":-0.23078462481498718,"36":-0.25407886505126953,"37":-0.06499036401510239,"38":-0.6622275114059448,"39":0.024152595549821854,"40":-0.2898343801498413,"41":-0.490313321352005,"42":-0.4178873300552368,"43":-0.3462216854095459,"44":-0.4984237551689148,"45":0.8899492621421814,"46":-0.5636698603630066,"47":0.7753538489341736,"48":-0.15945236384868622,"49":-0.13287420570850372,"50":1.3120037317276,"51":-0.4719589352607727,"52":1.0497381687164307,"53":-0.38256096839904785,"54":-1.4262354373931885,"55":-0.705076277256012,"56":0.2031400054693222,"57":-0.13971440494060516,"58":-0.44433438777923584,"59":0.12067826837301254,"60":-0.10013286769390106,"61":-0.06487898528575897,"62":-0.23555292189121246,"63":0.05953095480799675}},"outputBias":{"rows":8,"columns":1,"weights":{"0":0.6659490466117859,"1":-0.22458571195602417,"2":0.561119556427002,"3":-0.7522144317626953,"4":0.7972231507301331,"5":1.1688570976257324,"6":0.13056764006614685,"7":0.9194998741149902}},"cellActivationMatrix":{"rows":8,"columns":4,"weights":{"0":-0.08254284411668777,"1":0.5409556031227112,"2":0.8789539933204651,"3":0.8377506732940674,"4":-0.024768369272351265,"5":-0.13651229441165924,"6":0.38705334067344666,"7":0.1591232568025589,"8":-0.4410288631916046,"9":0.8196234703063965,"10":0.5600374341011047,"11":1.2652641534805298,"12":0.012530912645161152,"13":-0.18196965754032135,"14":0.05624350532889366,"15":-0.09520874172449112,"16":-0.833482027053833,"17":0.8392513394355774,"18":0.24726875126361847,"19":1.1936609745025635,"20":0.3797214925289154,"21":-0.4563435912132263,"22":-0.5653759837150574,"23":-0.5048376321792603,"24":0.34680289030075073,"25":0.15974852442741394,"26":0.2029937505722046,"27":-0.050963085144758224,"28":0.9003463387489319,"29":-0.731521487236023,"30":-0.13805264234542847,"31":-0.9027965664863586}},"cellActivationHidden":{"rows":8,"columns":8,"weights":{"0":0.8065007328987122,"1":0.047498464584350586,"2":0.2635629177093506,"3":0.16859781742095947,"4":0.36166465282440186,"5":-0.9036350846290588,"6":0.3645568788051605,"7":-0.7117010951042175,"8":-0.333087295293808,"9":0.15437138080596924,"10":-0.9213972687721252,"11":0.3550596237182617,"12":-0.49155861139297485,"13":0.03807147219777107,"14":0.900017499923706,"15":0.24711115658283234,"16":-0.7844290733337402,"17":-0.3064153492450714,"18":-0.6584072113037109,"19":-0.13929465413093567,"20":-0.6267147660255432,"21":1.1268709897994995,"22":-0.9765431880950928,"23":0.6760830879211426,"24":-0.2815319895744324,"25":0.3392343819141388,"26":0.16210384666919708,"27":0.06963272392749786,"28":0.173574760556221,"29":-0.8815389275550842,"30":0.8485573530197144,"31":-0.5422959923744202,"32":-0.5855465531349182,"33":-0.0488925576210022,"34":-0.3462814688682556,"35":-0.22478331625461578,"36":-0.28607356548309326,"37":0.753982663154602,"38":-0.786742091178894,"39":0.43301111459732056,"40":-0.5951836705207825,"41":-0.14186523854732513,"42":0.6657219529151917,"43":-0.7762454748153687,"44":0.2187778651714325,"45":0.8030111193656921,"46":-1.2808576822280884,"47":0.21950863301753998,"48":0.6039936542510986,"49":0.7794032096862793,"50":0.7106050848960876,"51":-0.505225658416748,"52":0.9106080532073975,"53":-1.2195985317230225,"54":0.8728032112121582,"55":-0.7832663059234619,"56":-0.5306624174118042,"57":-0.1644822359085083,"58":0.34390753507614136,"59":0.07762051373720169,"60":0.16144520044326782,"61":-0.05067795515060425,"62":0.2964121699333191,"63":-0.06558958441019058}},"cellActivationBias":{"rows":8,"columns":1,"weights":{"0":-0.3519476354122162,"1":-0.17323565483093262,"2":-0.41420528292655945,"3":-0.2443048059940338,"4":-0.9882029294967651,"5":0.45182403922080994,"6":-0.5824757814407349,"7":0.5682711601257324}}},{"inputMatrix":{"rows":8,"columns":8,"weights":{"0":-0.11455795913934708,"1":0.08813761174678802,"2":0.5205308794975281,"3":0.055527716875076294,"4":0.745931088924408,"5":-0.29502034187316895,"6":0.0936974585056305,"7":-0.7050403356552124,"8":-0.7303260564804077,"9":-0.6222536563873291,"10":-1.119570016860962,"11":-1.306746244430542,"12":-1.728104591369629,"13":1.945564866065979,"14":-0.8671116828918457,"15":0.9230107069015503,"16":-0.28901588916778564,"17":-0.2777480483055115,"18":-1.054539680480957,"19":-0.270600825548172,"20":-0.6729031205177307,"21":-0.2526077628135681,"22":1.3760905265808105,"23":0.08275844156742096,"24":-0.26377615332603455,"25":-0.3260795772075653,"26":0.003924774471670389,"27":0.1953824758529663,"28":0.8315464854240417,"29":-0.3589414656162262,"30":1.217847228050232,"31":-1.1831059455871582,"32":0.14750558137893677,"33":0.05529387667775154,"34":0.756601870059967,"35":0.21150273084640503,"36":1.1074122190475464,"37":-0.7796379923820496,"38":0.14096848666667938,"39":-0.7187522649765015,"40":0.0782812088727951,"41":0.03687429055571556,"42":0.45097625255584717,"43":-0.0870475247502327,"44":0.5914228558540344,"45":-0.09247911721467972,"46":-0.15103067457675934,"47":-0.6437152624130249,"48":0.35672467947006226,"49":-0.4901638627052307,"50":-0.09020549803972244,"51":-1.3549853563308716,"52":-0.2697316110134125,"53":0.6154510974884033,"54":-0.2153889536857605,"55":0.4483255445957184,"56":0.07839815318584442,"57":0.030072802677750587,"58":0.24377386271953583,"59":-0.01635011099278927,"60":0.5260862112045288,"61":-0.4868985116481781,"62":0.29881152510643005,"63":-0.6689135432243347}},"inputHidden":{"rows":8,"columns":8,"weights":{"0":-0.3848101794719696,"1":0.362509548664093,"2":0.9932398200035095,"3":-0.5476480722427368,"4":0.43307948112487793,"5":-0.27669239044189453,"6":0.8045563101768494,"7":-0.39430713653564453,"8":0.09890095889568329,"9":0.12227123975753784,"10":1.1653259992599487,"11":-0.8465989232063293,"12":-0.5221612453460693,"13":-0.06934131681919098,"14":1.642025351524353,"15":-0.48429355025291443,"16":0.010860573500394821,"17":-0.16243596374988556,"18":0.11623784899711609,"19":0.5015478134155273,"20":0.07366815954446793,"21":0.06729520112276077,"22":0.1367800086736679,"23":0.042375195771455765,"24":0.1940145641565323,"25":0.6002092361450195,"26":0.1378624141216278,"27":0.4584570825099945,"28":-0.6556007862091064,"29":0.23396365344524384,"30":0.8563936352729797,"31":0.1994265913963318,"32":-0.3508460521697998,"33":-0.02802678383886814,"34":0.5168174505233765,"35":-0.6086933612823486,"36":0.6602299809455872,"37":-0.23211438953876495,"38":-0.33000651001930237,"39":-0.054425403475761414,"40":-0.3686247169971466,"41":0.4726460874080658,"42":1.1270949840545654,"43":-0.5890763401985168,"44":0.19907933473587036,"45":-0.17143318057060242,"46":1.0948368310928345,"47":-0.23705840110778809,"48":0.0382036417722702,"49":-0.24082912504673004,"50":0.12555234134197235,"51":0.23952728509902954,"52":0.15945859253406525,"53":0.16316606104373932,"54":0.4532043933868408,"55":0.11104433983564377,"56":-0.24616120755672455,"57":0.4309796690940857,"58":0.46970900893211365,"59":-0.1837777942419052,"60":0.07924581319093704,"61":-0.13740719854831696,"62":0.5016897916793823,"63":-0.16049297153949738}},"inputBias":{"rows":8,"columns":1,"weights":{"0":-0.18132299184799194,"1":-0.6678324937820435,"2":0.7345470786094666,"3":-0.510543704032898,"4":-0.0019617245998233557,"5":-0.07771780341863632,"6":0.1992708444595337,"7":0.08311470597982407}},"forgetMatrix":{"rows":8,"columns":8,"weights":{"0":-0.08730984479188919,"1":-0.06632021814584732,"2":-0.33018627762794495,"3":0.13058961927890778,"4":-0.34783318638801575,"5":-0.05506810545921326,"6":0.887363612651825,"7":0.10616924613714218,"8":0.058674849569797516,"9":-0.03939257189631462,"10":-0.8256167769432068,"11":0.007772862445563078,"12":-0.4845399558544159,"13":-0.13892152905464172,"14":0.630164623260498,"15":-0.015545602887868881,"16":-0.741506040096283,"17":0.054263826459646225,"18":-0.5298420190811157,"19":0.2629316449165344,"20":-0.5110090374946594,"21":0.3125353157520294,"22":0.3310472071170807,"23":0.0779094249010086,"24":-1.0424582958221436,"25":-0.21481506526470184,"26":-0.07329627871513367,"27":-0.18612778186798096,"28":-0.0052503375336527824,"29":1.6556612253189087,"30":-0.8174147009849548,"31":0.5396113991737366,"32":-0.23531225323677063,"33":0.0350264273583889,"34":-0.5472539067268372,"35":0.19343425333499908,"36":-0.3433603048324585,"37":-0.3551871180534363,"38":1.2140589952468872,"39":0.178258016705513,"40":-0.22747033834457397,"41":-0.07064498215913773,"42":-0.2131689041852951,"43":-0.00938644539564848,"44":-0.4003693461418152,"45":0.17315515875816345,"46":0.4326696991920471,"47":0.2873019874095917,"48":-0.20852620899677277,"49":-0.0892098993062973,"50":-0.8769993782043457,"51":-0.27219945192337036,"52":-0.45307886600494385,"53":0.1029285192489624,"54":1.0580106973648071,"55":0.3042869567871094,"56":-0.6529691219329834,"57":-0.03724321722984314,"58":-0.09476540982723236,"59":-0.07980886846780777,"60":-0.3280142545700073,"61":0.5499716401100159,"62":0.08214429020881653,"63":0.535003662109375}},"forgetHidden":{"rows":8,"columns":8,"weights":{"0":-0.328716516494751,"1":0.22438865900039673,"2":0.2587435841560364,"3":-0.29613834619522095,"4":0.200008362531662,"5":-0.36104291677474976,"6":0.28804853558540344,"7":-0.2981099486351013,"8":-0.22471964359283447,"9":-0.09880267828702927,"10":-0.19163969159126282,"11":-0.39226603507995605,"12":-0.07931004464626312,"13":-0.3587939441204071,"14":-0.008114665746688843,"15":-0.5678814649581909,"16":-0.5022035837173462,"17":-0.14713497459888458,"18":-0.006176674272865057,"19":0.032230816781520844,"20":0.48812898993492126,"21":-0.5499079823493958,"22":-0.07306335866451263,"23":-0.6495220065116882,"24":-0.8831572532653809,"25":0.22498182952404022,"26":-0.004861827008426189,"27":-0.4414866864681244,"28":0.6296003460884094,"29":-0.8924320340156555,"30":0.3380637764930725,"31":-0.9327200651168823,"32":-0.22894127666950226,"33":0.04767759516835213,"34":0.2965572476387024,"35":0.030733199790120125,"36":0.2192143052816391,"37":-0.1480640023946762,"38":-0.03254140168428421,"39":-0.2666928768157959,"40":-0.41292068362236023,"41":0.25420835614204407,"42":0.34888359904289246,"43":-0.45711758732795715,"44":0.3343210220336914,"45":-0.46771126985549927,"46":0.4094136357307434,"47":-0.5186291933059692,"48":-0.3117679953575134,"49":-0.06544426828622818,"50":-0.4631948173046112,"51":0.055501338094472885,"52":0.12307921797037125,"53":-0.37128904461860657,"54":-0.2631163001060486,"55":-0.46614500880241394,"56":-0.6536872982978821,"57":0.4190937578678131,"58":0.42896121740341187,"59":-0.6830055713653564,"60":0.5741496086120605,"61":-0.7199094295501709,"62":0.39565882086753845,"63":-0.658230185508728}},"forgetBias":{"rows":8,"columns":1,"weights":{"0":0,"1":0,"2":0,"3":0,"4":0,"5":0,"6":0,"7":0}},"outputMatrix":{"rows":8,"columns":8,"weights":{"0":0.021779946982860565,"1":0.14329040050506592,"2":0.46722379326820374,"3":0.041260894387960434,"4":0.6039476990699768,"5":-0.43921634554862976,"6":0.3845539689064026,"7":-0.6367530822753906,"8":-0.10763892531394958,"9":-0.36013418436050415,"10":-1.2110856771469116,"11":-1.0523977279663086,"12":-1.743880271911621,"13":1.2591094970703125,"14":-0.13450917601585388,"15":0.5174511671066284,"16":-0.44710418581962585,"17":-0.2373744398355484,"18":-1.045172095298767,"19":-0.11702286452054977,"20":-0.5211639404296875,"21":0.005638762377202511,"22":1.3155558109283447,"23":0.19669005274772644,"24":-0.26554951071739197,"25":-0.3810292184352875,"26":0.20929306745529175,"27":0.04014039784669876,"28":0.7769622802734375,"29":-0.12647254765033722,"30":0.9507417678833008,"31":-0.9569284319877625,"32":0.1765536069869995,"33":0.16789193451404572,"34":0.4991399943828583,"35":0.010085821151733398,"36":0.8337104320526123,"37":-0.8370673656463623,"38":0.6029796600341797,"39":-0.47482749819755554,"40":0.040794968605041504,"41":-0.013907608576118946,"42":0.43143370747566223,"43":-0.050343237817287445,"44":0.575940728187561,"45":-0.19644524157047272,"46":0.12926021218299866,"47":-0.6229973435401917,"48":0.10612904280424118,"49":-0.5280269980430603,"50":-0.01696038991212845,"51":-1.5381510257720947,"52":-0.20904195308685303,"53":0.632971465587616,"54":-0.2979358732700348,"55":0.38028207421302795,"56":-0.043217696249485016,"57":0.11410749703645706,"58":0.174496591091156,"59":-0.04116473346948624,"60":0.2964133620262146,"61":-0.5365544557571411,"62":0.5793622732162476,"63":-0.4857284128665924}},"outputHidden":{"rows":8,"columns":8,"weights":{"0":-0.3152417838573456,"1":0.22256438434123993,"2":0.5936697125434875,"3":-0.48818010091781616,"4":0.3247639834880829,"5":-0.34907063841819763,"6":0.5175350308418274,"7":-0.32653188705444336,"8":0.00425734743475914,"9":0.021364619955420494,"10":0.7332899570465088,"11":-0.7128942012786865,"12":-0.5219013094902039,"13":-0.15571379661560059,"14":1.0561710596084595,"15":-0.5451478958129883,"16":0.02078322134912014,"17":-0.1620866358280182,"18":0.08408273756504059,"19":0.5235533714294434,"20":0.04413188248872757,"21":0.02632852829992771,"22":0.2250765562057495,"23":-0.021019931882619858,"24":0.11873912811279297,"25":0.423612117767334,"26":0.08070226013660431,"27":0.4326725900173187,"28":-0.42113661766052246,"29":0.012461167760193348,"30":0.6924734115600586,"31":0.06812623888254166,"32":-0.291867733001709,"33":0.01755443960428238,"34":0.2600398361682892,"35":-0.4217490553855896,"36":0.4935549199581146,"37":-0.1856926679611206,"38":-0.3899625837802887,"39":-0.25576263666152954,"40":-0.3643259108066559,"41":0.365936815738678,"42":0.7839861512184143,"43":-0.514093816280365,"44":0.20275390148162842,"45":-0.3394082486629486,"46":0.8879991173744202,"47":-0.36621779203414917,"48":-0.10961659997701645,"49":-0.054123587906360626,"50":-0.13873009383678436,"51":0.1829756200313568,"52":0.30517980456352234,"53":0.13232125341892242,"54":0.12354040145874023,"55":-0.09646550565958023,"56":-0.4759279191493988,"57":0.5029093623161316,"58":0.371669739484787,"59":-0.19052881002426147,"60":0.27727818489074707,"61":-0.4507756233215332,"62":0.539595901966095,"63":-0.4352646768093109}},"outputBias":{"rows":8,"columns":1,"weights":{"0":-0.02916313149034977,"1":-0.5321568250656128,"2":0.8405801057815552,"3":-0.44151589274406433,"4":0.3076859712600708,"5":-0.047554343938827515,"6":0.2732052803039551,"7":0.18131455779075623}},"cellActivationMatrix":{"rows":8,"columns":8,"weights":{"0":0.46308135986328125,"1":-0.3558090627193451,"2":0.727054238319397,"3":-0.1871887594461441,"4":0.5030677318572998,"5":-0.453937828540802,"6":-0.391307532787323,"7":-0.5273483991622925,"8":-1.1776373386383057,"9":-0.3444235622882843,"10":-0.7116521000862122,"11":0.08020716905593872,"12":-0.20142200589179993,"13":0.6902357339859009,"14":0.7912703156471252,"15":0.9488623738288879,"16":-0.6302790641784668,"17":0.3547006845474243,"18":-0.41609007120132446,"19":1.0265142917633057,"20":-0.41793981194496155,"21":0.5459566712379456,"22":0.29701176285743713,"23":0.6339508295059204,"24":0.3136783540248871,"25":0.5931771397590637,"26":0.9871572852134705,"27":0.04945371672511101,"28":0.9983751773834229,"29":-0.5076666474342346,"30":-0.5480137467384338,"31":-0.9571955800056458,"32":-0.06731096655130386,"33":0.6116117238998413,"34":-0.6924665570259094,"35":-0.1662350445985794,"36":-0.9973939061164856,"37":0.2733209431171417,"38":-0.2270134836435318,"39":0.8294079303741455,"40":0.6528213024139404,"41":-0.35479283332824707,"42":1.006637692451477,"43":-0.41568711400032043,"44":0.5707821846008301,"45":-0.5525822043418884,"46":-0.4071597754955292,"47":-0.48325711488723755,"48":-0.1466553509235382,"49":-0.25225672125816345,"50":-0.13818508386611938,"51":-0.21984799206256866,"52":-0.06316586583852768,"53":0.3818824589252472,"54":0.7890145778656006,"55":0.49232664704322815,"56":0.6796497106552124,"57":-0.0832568034529686,"58":0.9090030789375305,"59":-0.2775307595729828,"60":0.4143363833427429,"61":-0.5176509022712708,"62":-0.14954546093940735,"63":-0.48852747678756714}},"cellActivationHidden":{"rows":8,"columns":8,"weights":{"0":0.5284245014190674,"1":0.2162264883518219,"2":0.020553797483444214,"3":0.5279918909072876,"4":-0.3823017477989197,"5":0.7421925067901611,"6":-0.15279796719551086,"7":1.046838641166687,"8":0.6285640597343445,"9":-0.47744572162628174,"10":0.8009098768234253,"11":-0.6127576231956482,"12":-0.7256232500076294,"13":0.4826456308364868,"14":0.31229403614997864,"15":-0.17199453711509705,"16":-0.3210197985172272,"17":-1.1139109134674072,"18":-1.0260670185089111,"19":0.9896352291107178,"20":0.5520303249359131,"21":-0.34225326776504517,"22":-0.9577129483222961,"23":-0.06798344105482101,"24":-0.33098241686820984,"25":1.028196096420288,"26":-0.37719976902008057,"27":-0.923744797706604,"28":0.14427268505096436,"29":-0.4111884832382202,"30":-0.5284010171890259,"31":-0.48180264234542847,"32":-0.48026835918426514,"33":0.5239729285240173,"34":-0.02294432558119297,"35":-1.5856871604919434,"36":0.45163145661354065,"37":-0.7134128212928772,"38":0.3541361093521118,"39":-0.8810268044471741,"40":0.30772966146469116,"41":0.19382844865322113,"42":-0.22723408043384552,"43":0.3564598858356476,"44":-0.09456530958414078,"45":0.5898818969726562,"46":-0.08731180429458618,"47":0.694796085357666,"48":0.5640151500701904,"49":-0.8788876533508301,"50":-0.9914583563804626,"51":0.7477173805236816,"52":-0.6363214254379272,"53":0.5559585690498352,"54":-1.2365667819976807,"55":0.30052468180656433,"56":-0.1176736131310463,"57":0.6701176166534424,"58":0.7356666922569275,"59":-1.0314277410507202,"60":0.0357581302523613,"61":-0.04606669768691063,"62":0.4715006947517395,"63":-0.15298476815223694}},"cellActivationBias":{"rows":8,"columns":1,"weights":{"0":0.11419250816106796,"1":-0.4416237473487854,"2":0.8696964383125305,"3":0.2935943305492401,"4":0.32600390911102295,"5":0.6159477233886719,"6":0.5706031918525696,"7":0.5014123916625977}}}],"outputConnector":{"rows":4,"columns":8,"weights":{"0":0.8136707544326782,"1":0.0415639653801918,"2":0.5694974660873413,"3":-0.25705280900001526,"4":-0.49662837386131287,"5":0.9443078637123108,"6":0.3588007986545563,"7":0.7093157768249512,"8":0.4626438319683075,"9":-0.8997881412506104,"10":0.16437947750091553,"11":0.11715087294578552,"12":-0.7839460372924805,"13":0.3193495273590088,"14":-0.3286193907260895,"15":0.2207825630903244,"16":0.33798331022262573,"17":0.06624666601419449,"18":-0.7161826491355896,"19":0.28708818554878235,"20":-0.3196012079715729,"21":0.21386659145355225,"22":-0.07905799895524979,"23":0.48932740092277527,"24":0.24989910423755646,"25":-0.9789421558380127,"26":-0.23678262531757355,"27":0.5920271873474121,"28":-0.17333492636680603,"29":0.3517528772354126,"30":-0.2915579378604889,"31":0.235225111246109}},"output":{"rows":4,"columns":1,"weights":{"0":-0.08461025357246399,"1":0.4574771523475647,"2":0.32497361302375793,"3":0.4663212299346924}},"inputLookup":{"open":0,"high":1,"low":2,"close":3,"date":4},"inputLookupLength":5,"outputLookup":{"open":0,"high":1,"low":2,"close":3,"date":4},"outputLookupLength":5}