{"type":"LSTMTimeStep","options":{"inputSize":4,"hiddenLayers":[8,8],"outputSize":4,"decayRate":0.999,"smoothEps":1e-8,"regc":0.000001,"clipval":5},"hiddenLayers":[{"inputMatrix":{"rows":8,"columns":4,"weights":{"0":-0.08796864002943039,"1":0.531232476234436,"2":0.5160331130027771,"3":0.4983670115470886,"4":-0.2829277813434601,"5":0.8960776925086975,"6":-0.7670301198959351,"7":0.3074803948402405,"8":0.017558088526129723,"9":0.631585955619812,"10":-0.004301419015973806,"11":0.4747646152973175,"12":-0.3627666234970093,"13":0.23441387712955475,"14":0.04931729659438133,"15":0.1672339290380478,"16":0.004576093517243862,"17":-0.04794427752494812,"18":-0.8636447787284851,"19":-0.5382368564605713,"20":0.397098183631897,"21":0.8527632355690002,"22":-0.33589956164360046,"23":0.5640884041786194,"24":0.7099910974502563,"25":0.6130334734916687,"26":0.8105056881904602,"27":0.831571102142334,"28":-0.26214084029197693,"29":0.8702253699302673,"30":0.06920518726110458,"31":0.5411167740821838}},"inputHidden":{"rows":8,"columns":8,"weights":{"0":-0.2726747393608093,"1":-0.3199252486228943,"2":0.32448357343673706,"3":0.0891411080956459,"4":-0.13022075593471527,"5":0.4459524154663086,"6":0.026706915348768234,"7":0.46791213750839233,"8":-0.09335269778966904,"9":-0.21941563487052917,"10":-0.4140879511833191,"11":0.15418298542499542,"12":-0.3651660084724426,"13":-0.04694468155503273,"14":-1.6993845701217651,"15":-0.28332772850990295,"16":0.03802832216024399,"17":-0.2174890637397766,"18":-0.33148714900016785,"19":0.14666534960269928,"20":-0.04491749405860901,"21":0.66340571641922,"22":-0.3623482882976532,"23":0.07850229740142822,"24":0.08785518258810043,"25":-0.3474394381046295,"26":-0.08712948858737946,"27":0.2868964374065399,"28":-0.08708728849887848,"29":0.3758874535560608,"30":-0.2915772795677185,"31":0.6086742877960205,"32":-0.26385506987571716,"33":-0.28973498940467834,"34":-0.4445550739765167,"35":-0.131352037191391,"36":0.17094235122203827,"37":0.11660005897283554,"38":-0.18352116644382477,"39":-0.5986815690994263,"40":-0.44019922614097595,"41":-0.2931355834007263,"42":-0.20650030672550201,"43":-0.14423802495002747,"44":-0.47013527154922485,"45":0.14786303043365479,"46":-1.1438816785812378,"47":-0.13429631292819977,"48":-0.22087152302265167,"49":0.5653322339057922,"50":0.3189866840839386,"51":-0.5500771403312683,"52":0.698691725730896,"53":-0.4049697518348694,"54":0.9376399517059326,"55":-0.161222904920578,"56":-0.13938474655151367,"57":-0.6560294032096863,"58":-0.21325528621673584,"59":0.25821638107299805,"60":-0.46922144293785095,"61":0.6916379332542419,"62":-0.3762141168117523,"63":0.46714362502098083}},"inputBias":{"rows":8,"columns":1,"weights":{"0":0.7070112228393555,"1":0.4128071665763855,"2":0.440402626991272,"3":0.8885713219642639,"4":1.270387053489685,"5":0.4472578167915344,"6":-0.03326042369008064,"7":0.701248049736023}},"forgetMatrix":{"rows":8,"columns":4,"weights":{"0":0.12451313436031342,"1":0.36401480436325073,"2":-0.3281744420528412,"3":0.5469908118247986,"4":0.06143312156200409,"5":0.2033863663673401,"6":0.07662329077720642,"7":0.2837620675563812,"8":0.48119863867759705,"9":0.7432069182395935,"10":-0.07168402522802353,"11":0.7591848373413086,"12":-0.03512798249721527,"13":0.23481012880802155,"14":-0.07538268715143204,"15":0.6064559817314148,"16":-0.8546535968780518,"17":-1.0076195001602173,"18":-0.7361074686050415,"19":-1.1011779308319092,"20":0.4487699270248413,"21":0.5626736283302307,"22":0.011789847165346146,"23":0.7575833797454834,"24":-0.3348207473754883,"25":-0.8911418318748474,"26":-0.14330728352069855,"27":-0.9270331859588623,"28":0.07244931161403656,"29":0.33000513911247253,"30":-0.11090288311243057,"31":0.6042459011077881}},"forgetHidden":{"rows":8,"columns":8,"weights":{"0":-0.3184652626514435,"1":0.7989137172698975,"2":0.6576938033103943,"3":-0.22855761647224426,"4":-0.04303603619337082,"5":-1.067662000656128,"6":-0.5895818471908569,"7":-0.31025421619415283,"8":-0.348911851644516,"9":0.07033751904964447,"10":0.579796314239502,"11":-0.10347367823123932,"12":-0.34458479285240173,"13":-0.30555662512779236,"14":-0.5342676639556885,"15":-0.15622881054878235,"16":-0.06070980802178383,"17":0.03727029263973236,"18":0.06831835210323334,"19":-0.07682207971811295,"20":0.4131476879119873,"21":0.193511962890625,"22":-0.22351595759391785,"23":0.1320468783378601,"24":-0.471598356962204,"25":0.3401322364807129,"26":0.4890819489955902,"27":-0.29586532711982727,"28":-0.16453097760677338,"29":-0.8933010697364807,"30":-0.26889684796333313,"31":-0.27013126015663147,"32":-0.6832445859909058,"33":-0.1185813695192337,"34":0.1966620534658432,"35":-0.3583901822566986,"36":-0.2637380361557007,"37":0.1141376942396164,"38":0.2585294544696808,"39":-0.2012234777212143,"40":-0.3882256746292114,"41":0.3423387110233307,"42":0.6457380652427673,"43":-0.09322050213813782,"44":0.0787833034992218,"45":-0.4212912917137146,"46":-1.2670462131500244,"47":0.03481721878051758,"48":0.258462518453598,"49":-0.17035089433193207,"50":-0.13452455401420593,"51":0.059681594371795654,"52":0.6531093716621399,"53":0.6928631067276001,"54":0.968602180480957,"55":0.7176818251609802,"56":-0.31530171632766724,"57":0.6351264715194702,"58":0.42767563462257385,"59":-0.12457095086574554,"60":-0.42568960785865784,"61":-1.3165112733840942,"62":-1.1604810953140259,"63":-0.283643513917923}},"forgetBias":{"rows":8,"columns":1,"weights":{"0":0,"1":0,"2":0,"3":0,"4":0,"5":0,"6":0,"7":0}},"outputMatrix":{"rows":8,"columns":4,"weights":{"0":-0.14482153952121735,"1":0.5925582051277161,"2":0.368531197309494,"3":0.4518691897392273,"4":-0.189065083861351,"5":0.750941276550293,"6":-0.5561063289642334,"7":0.3793115019798279,"8":0.09382496774196625,"9":0.8122275471687317,"10":-0.044075001031160355,"11":0.5849432349205017,"12":-0.314302533864975,"13":0.36317896842956543,"14":-0.013135889545083046,"15":0.27775609493255615,"16":-0.2715095281600952,"17":-0.30957069993019104,"18":-0.889210045337677,"19":-0.7242109179496765,"20":0.34821397066116333,"21":0.8913065791130066,"22":-0.4068898856639862,"23":0.6074159145355225,"24":0.7531629800796509,"25":0.5533037781715393,"26":0.7780318260192871,"27":0.7505000233650208,"28":-0.09692631661891937,"29":0.8521972298622131,"30":0.16409198939800262,"31":0.49829861521720886}},"outputHidden":{"rows":8,"columns":8,"weights":{"0":-0.1756419837474823,"1":-0.12021513283252716,"2":0.04607606679201126,"3":0.037751778960227966,"4":0.09186563640832901,"5":0.22270402312278748,"6":0.14376607537269592,"7":0.341799795627594,"8":-0.15438435971736908,"9":0.03633223846554756,"10":-0.05595450475811958,"11":0.047976162284612656,"12":-0.3036366403102875,"13":-0.26548758149147034,"14":-1.5914981365203857,"15":-0.2995980381965637,"16":-0.05728171020746231,"17":-0.08006176352500916,"18":-0.021977121010422707,"19":-0.03748789429664612,"20":0.027738181874155998,"21":0.4670156240463257,"22":-0.31744083762168884,"23":0.011398970149457455,"24":-0.16662688553333282,"25":-0.18954741954803467,"26":-0.09316542744636536,"27":-0.04979713633656502,"28":-0.1130278930068016,"29":0.23684269189834595,"30":-0.04611442983150482,"31":0.35117706656455994,"32":-0.36860916018486023,"33":-0.3099885880947113,"34":-0.3691268265247345,"35":-0.2216222882270813,"36":0.02269335463643074,"37":0.37173137068748474,"38":-0.0067934454418718815,"39":-0.5518673658370972,"40":-0.4327648878097534,"41":-0.18371938169002533,"42":-0.0197765976190567,"43":-0.1308315098285675,"44":-0.3289563059806824,"45":-0.056299321353435516,"46":-1.129654884338379,"47":-0.1062096357345581,"48":-0.12134464830160141,"49":0.39684802293777466,"50":0.2294231653213501,"51":-0.3602863848209381,"52":0.7274959683418274,"53":-0.16590501368045807,"54":0.8638296127319336,"55":0.07972509413957596,"56":-0.16438165307044983,"57":-0.5210089683532715,"58":-0.07679446786642075,"59":-0.024431778118014336,"60":-0.2997318208217621,"61":0.4957521855831146,"62":-0.1462382823228836,"63":0.3746928572654724}},"outputBias":{"rows":8,"columns":1,"weights":{"0":0.5548578500747681,"1":0.5572770237922668,"2":0.4547628164291382,"3":0.7227970957756042,"4":1.278450608253479,"5":0.4165855944156647,"6":0.11998730897903442,"7":0.8353589177131653}},"cellActivationMatrix":{"rows":8,"columns":4,"weights":{"0":-0.22870707511901855,"1":0.5585134625434875,"2":0.29312318563461304,"3":0.7842711806297302,"4":0.6408213376998901,"5":-0.64979487657547,"6":-0.16818329691886902,"7":-0.6763532161712646,"8":0.5334382057189941,"9":-0.6052157282829285,"10":-0.2977050542831421,"11":-0.55413419008255,"12":-0.29793938994407654,"13":0.3812035620212555,"14":0.6131201982498169,"15":0.8689891695976257,"16":0.3861638605594635,"17":-0.4351826012134552,"18":-0.5940045714378357,"19":-0.5768008232116699,"20":-0.8625984191894531,"21":0.5754742622375488,"22":0.09156891703605652,"23":0.6600509285926819,"24":-0.37200653553009033,"25":0.23243896663188934,"26":-0.8328206539154053,"27":-0.11298668384552002,"28":-0.8628761172294617,"29":0.6748536825180054,"30":-0.003183539491146803,"31":0.802063524723053}},"cellActivationHidden":{"rows":8,"columns":8,"weights":{"0":-0.8041855692863464,"1":0.7410706281661987,"2":0.8448294401168823,"3":-0.5285815596580505,"4":-0.19742146134376526,"5":-0.8143250346183777,"6":-0.35040244460105896,"7":-0.5008910298347473,"8":-0.053523045033216476,"9":0.016566386446356773,"10":-0.012402435764670372,"11":-0.06425316631793976,"12":-0.5299931764602661,"13":-0.1534404307603836,"14":-0.3423203229904175,"15":-0.32924067974090576,"16":0.06383385509252548,"17":0.19146591424942017,"18":0.06676802784204483,"19":0.26936599612236023,"20":-0.3044761121273041,"21":-0.6570850610733032,"22":-0.5887266993522644,"23":-0.49803978204727173,"24":-0.7512644529342651,"25":0.5457121729850769,"26":0.6446727514266968,"27":-0.5251865983009338,"28":0.026112383231520653,"29":-0.7284531593322754,"30":-0.08153035491704941,"31":-0.48379379510879517,"32":-0.06788604706525803,"33":-0.8444225192070007,"34":-0.6985357999801636,"35":0.13752993941307068,"36":-1.5750433206558228,"37":0.23991355299949646,"38":-0.9517160654067993,"39":-0.21833229064941406,"40":-0.1919287145137787,"41":-0.6659144163131714,"42":-0.1371433585882187,"43":0.0011684607015922666,"44":-1.0455596446990967,"45":0.3901008665561676,"46":-0.26270973682403564,"47":0.06737770885229111,"48":1.1512908935546875,"49":-0.4098244607448578,"50":-0.7470402717590332,"51":1.1152527332305908,"52":-0.347488671541214,"53":0.4774141311645508,"54":-1.5138109922409058,"55":1.029039740562439,"56":-0.21881107985973358,"57":0.1920454204082489,"58":0.3054512143135071,"59":-0.024930041283369064,"60":-0.3794107437133789,"61":-0.6356138586997986,"62":-0.6128601431846619,"63":-0.26209887862205505}},"cellActivationBias":{"rows":8,"columns":1,"weights":{"0":0.020310956984758377,"1":0.5099642276763916,"2":0.29249852895736694,"3":-0.213285431265831,"4":0.6333911418914795,"5":-0.45660513639450073,"6":0.05203617736697197,"7":-0.4732878506183624}}},{"inputMatrix":{"rows":8,"columns":8,"weights":{"0":0.40845656394958496,"1":-0.039139918982982635,"2":-0.21027202904224396,"3":0.24608618021011353,"4":0.4415142834186554,"5":0.793220579624176,"6":0.5766710042953491,"7":0.7695115804672241,"8":0.1571923792362213,"9":-0.2976829409599304,"10":-0.11102651059627533,"11":0.006405105348676443,"12":-0.008786370046436787,"13":0.1397722363471985,"14":0.13779376447200775,"15":0.4826165735721588,"16":0.042188093066215515,"17":0.29356616735458374,"18":-1.0095386505126953,"19":-0.060767434537410736,"20":0.6428312659263611,"21":-0.7470071315765381,"22":-1.2087630033493042,"23":0.021022101864218712,"24":-0.3224965035915375,"25":1.090462327003479,"26":0.399189829826355,"27":-0.719711184501648,"28":2.894071340560913,"29":0.19107089936733246,"30":1.2031649351119995,"31":0.030616721138358116,"32":0.6178433299064636,"33":-0.6753261089324951,"34":-0.5824972987174988,"35":0.7107042670249939,"36":-0.9384162425994873,"37":0.07300897687673569,"38":-0.15377174317836761,"39":0.5445318818092346,"40":0.1425369828939438,"41":-0.14005538821220398,"42":-0.46877074241638184,"43":-0.2759910821914673,"44":0.07711516320705414,"45":0.07118750363588333,"46":0.8731845617294312,"47":-0.2507873773574829,"48":0.37476083636283875,"49":-0.16319316625595093,"50":-0.16112855076789856,"51":0.27027755975723267,"52":0.3764776885509491,"53":0.8488133549690247,"54":0.7971476316452026,"55":0.7726331949234009,"56":0.2871438264846802,"57":-0.5831524133682251,"58":-0.413975328207016,"59":0.25647327303886414,"60":-0.26346516609191895,"61":0.7153037786483765,"62":0.2634141147136688,"63":0.5900010466575623}},"inputHidden":{"rows":8,"columns":8,"weights":{"0":-0.48665547370910645,"1":0.3239927291870117,"2":-0.8304522037506104,"3":2.2519991397857666,"4":-0.3385668992996216,"5":-0.19352473318576813,"6":0.35679396986961365,"7":0.2699941098690033,"8":-0.21760617196559906,"9":0.26670506596565247,"10":-0.414073646068573,"11":0.1651756763458252,"12":-0.4492642283439636,"13":-0.5576675534248352,"14":0.5218731164932251,"15":0.46603137254714966,"16":-0.7407348155975342,"17":1.3529807329177856,"18":-1.7494908571243286,"19":-0.7940586805343628,"20":-0.9095009565353394,"21":-1.8080557584762573,"22":0.7549908757209778,"23":1.395088791847229,"24":0.8723096251487732,"25":-0.5366297364234924,"26":-0.3063053488731384,"27":-0.6362266540527344,"28":0.49898335337638855,"29":0.76643306016922,"30":-1.1840087175369263,"31":-0.5898456573486328,"32":-0.39423465728759766,"33":0.41936102509498596,"34":0.15453539788722992,"35":0.8565858006477356,"36":-0.44250068068504333,"37":-0.29575315117836,"38":0.5367732048034668,"39":0.3975711464881897,"40":0.06138641759753227,"41":-0.08325347304344177,"42":-0.8644370436668396,"43":-0.5610777735710144,"44":0.18148134648799896,"45":-0.5870978832244873,"46":0.47300049662590027,"47":-0.03082471527159214,"48":-0.33265775442123413,"49":0.2575916051864624,"50":-0.05598320811986923,"51":2.641366720199585,"52":-0.1186799705028534,"53":-0.32666537165641785,"54":0.5068414211273193,"55":0.2030767947435379,"56":0.2928551733493805,"57":0.2956756055355072,"58":-0.018803754821419716,"59":0.13955001533031464,"60":-0.37086257338523865,"61":-0.41138675808906555,"62":-0.35490745306015015,"63":0.6339170932769775}},"inputBias":{"rows":8,"columns":1,"weights":{"0":0.4869328737258911,"1":0.27146419882774353,"2":0.3719916045665741,"3":0.17305396497249603,"4":0.18632353842258453,"5":0.6090445518493652,"6":0.7229674458503723,"7":0.11565407365560532}},"forgetMatrix":{"rows":8,"columns":8,"weights":{"0":-0.16956837475299835,"1":-0.11734645813703537,"2":-0.17065636813640594,"3":-0.006935328245162964,"4":0.19422438740730286,"5":0.31869757175445557,"6":-0.025049418210983276,"7":-0.008040960878133774,"8":-0.3902578353881836,"9":0.4897483289241791,"10":0.5342922806739807,"11":-0.5662129521369934,"12":-0.01804433949291706,"13":-0.8406535387039185,"14":0.19722531735897064,"15":-0.43770918250083923,"16":-0.8701661825180054,"17":0.2138720601797104,"18":0.42118844389915466,"19":-0.8646492958068848,"20":0.0010110096773132682,"21":-0.42616304755210876,"22":0.01156587339937687,"23":-0.7555481791496277,"24":-0.8084384202957153,"25":-0.7451701164245605,"26":-0.0392928421497345,"27":-0.7725870609283447,"28":-0.877285361289978,"29":-0.03987864404916763,"30":0.6121730804443359,"31":-0.3575129806995392,"32":0.0792635902762413,"33":0.2389005869626999,"34":0.3969087600708008,"35":0.13596348464488983,"36":-0.3549102544784546,"37":-1.1467660665512085,"38":-0.0068807657808065414,"39":-0.29743528366088867,"40":-0.4175378084182739,"41":0.5035707950592041,"42":1.2253140211105347,"43":-0.4782975912094116,"44":-0.41834428906440735,"45":-0.8284127712249756,"46":-0.20376138389110565,"47":-0.1478593498468399,"48":-0.6253265142440796,"49":0.13462331891059875,"50":0.5544928908348083,"51":-0.4872101843357086,"52":-0.36637574434280396,"53":-0.12177006155252457,"54":-0.47709885239601135,"55":-0.5109090805053711,"56":-0.6355125904083252,"57":0.2520502507686615,"58":0.42756387591362,"59":-0.5418844819068909,"60":-0.18628443777561188,"61":-0.164241760969162,"62":-0.05083363503217697,"63":-0.24738414585590363}},"forgetHidden":{"rows":8,"columns":8,"weights":{"0":-0.5602498054504395,"1":0.3759195804595947,"2":-0.07847896963357925,"3":-0.2056509405374527,"4":-0.4735635817050934,"5":-0.3390013575553894,"6":0.33082523941993713,"7":0.40823543071746826,"8":-0.06191614642739296,"9":0.20857088267803192,"10":0.23987236618995667,"11":-0.6676236391067505,"12":-0.3935183882713318,"13":-0.6021153926849365,"14":0.5292670726776123,"15":0.4857850670814514,"16":-0.1194494292140007,"17":0.2591945230960846,"18":0.11882198601961136,"19":-0.08876100927591324,"20":0.2830594480037689,"21":-0.20391406118869781,"22":0.11975305527448654,"23":0.17973479628562927,"24":1.3171336650848389,"25":-0.466375470161438,"26":1.3631542921066284,"27":0.4249444305896759,"28":0.5877877473831177,"29":0.05115290731191635,"30":-0.9310078024864197,"31":-0.33182835578918457,"32":-0.3366760313510895,"33":0.20993316173553467,"34":0.8324127793312073,"35":-0.370118647813797,"36":-0.3372817039489746,"37":-0.2320588231086731,"38":0.7209026217460632,"39":0.3534183204174042,"40":-0.5404430031776428,"41":0.7528173327445984,"42":-0.370830237865448,"43":-0.025928208604454994,"44":-0.8609146475791931,"45":-0.7628718018531799,"46":1.1911940574645996,"47":0.8217025399208069,"48":-1.0495662689208984,"49":0.9210900068283081,"50":0.3424947261810303,"51":-0.42726653814315796,"52":-0.9416301846504211,"53":-0.9732571244239807,"54":1.194405198097229,"55":0.9618706107139587,"56":-0.21652208268642426,"57":0.7415287494659424,"58":1.0177278518676758,"59":-0.6187251210212708,"60":-0.6161760687828064,"61":-1.0008798837661743,"62":0.21160435676574707,"63":0.9475663304328918}},"forgetBias":{"rows":8,"columns":1,"weights":{"0":0,"1":0,"2":0,"3":0,"4":0,"5":0,"6":0,"7":0}},"outputMatrix":{"rows":8,"columns":8,"weights":{"0":0.27413609623908997,"1":-0.1528802216053009,"2":-0.320422500371933,"3":0.2914236783981323,"4":0.3621461093425751,"5":0.8968178629875183,"6":0.33429422974586487,"7":0.543369710445404,"8":0.11984379589557648,"9":-0.09115317463874817,"10":-0.16149690747261047,"11":0.010249026119709015,"12":-0.0396694652736187,"13":0.08502087742090225,"14":0.17586718499660492,"15":0.2752804458141327,"16":-0.3357422649860382,"17":0.537826657295227,"18":-0.4830145239830017,"19":-0.3866944909095764,"20":0.12548935413360596,"21":-1.2568117380142212,"22":-1.454622507095337,"23":-0.5704676508903503,"24":-0.42449265718460083,"25":0.7337518334388733,"26":0.27144187688827515,"27":-0.8864532113075256,"28":2.745525360107422,"29":0.4218221604824066,"30":1.6516094207763672,"31":-0.09502636641263962,"32":0.47693490982055664,"33":-0.29970023036003113,"34":-0.37426304817199707,"35":0.5022155046463013,"36":-0.6636677980422974,"37":-0.3154032230377197,"38":-0.24961000680923462,"39":0.4072182774543762,"40":-0.08759668469429016,"41":0.01221280824393034,"42":-0.05480995774269104,"43":-0.3868410289287567,"44":-0.0650847777724266,"45":0.08589775860309601,"46":0.8733453750610352,"47":-0.16394872963428497,"48":0.23956657946109772,"49":-0.3838256597518921,"50":-0.2144346684217453,"51":0.179480642080307,"52":0.14223264157772064,"53":0.8181043267250061,"54":0.6106017827987671,"55":0.8576642870903015,"56":0.349237322807312,"57":-0.41718167066574097,"58":-0.3639649450778961,"59":0.24431075155735016,"60":-0.19713325798511505,"61":0.5316828489303589,"62":0.12172374129295349,"63":0.4378019869327545}},"outputHidden":{"rows":8,"columns":8,"weights":{"0":-0.4771939218044281,"1":0.3449956774711609,"2":-0.7414678335189819,"3":1.596213936805725,"4":-0.1877063363790512,"5":-0.12156990170478821,"6":0.26046597957611084,"7":0.12016736716032028,"8":-0.06272546947002411,"9":0.2651882469654083,"10":-0.3959095776081085,"11":0.10857389122247696,"12":-0.4730491042137146,"13":-0.5184731483459473,"14":0.4104505479335785,"15":0.48951369524002075,"16":-0.7190378904342651,"17":1.7701687812805176,"18":-0.7666584253311157,"19":-0.5356353521347046,"20":-1.0272667407989502,"21":-2.476869821548462,"22":0.6920843124389648,"23":1.778357744216919,"24":1.1750608682632446,"25":-0.7539223432540894,"26":0.3509445786476135,"27":-0.8887850046157837,"28":0.7685427069664001,"29":0.6480613350868225,"30":-1.3699061870574951,"31":-0.6967222690582275,"32":-0.42285600304603577,"33":0.3734329044818878,"34":0.428351491689682,"35":0.6266809701919556,"36":-0.4481368362903595,"37":-0.2566429376602173,"38":0.5672147274017334,"39":0.476620614528656,"40":-0.0436558835208416,"41":0.24162082374095917,"42":-1.1097339391708374,"43":-0.1644444763660431,"44":-0.00811111368238926,"45":-0.651798665523529,"46":0.5926176309585571,"47":0.2596982419490814,"48":-0.36876505613327026,"49":0.2698920965194702,"50":-0.17359484732151031,"51":2.41190505027771,"52":-0.20347751677036285,"53":-0.17378796637058258,"54":0.4367845952510834,"55":0.17237965762615204,"56":0.17106127738952637,"57":0.26075512170791626,"58":0.1501542180776596,"59":0.18019241094589233,"60":-0.2618536055088043,"61":-0.5433765649795532,"62":-0.34879982471466064,"63":0.4543607532978058}},"outputBias":{"rows":8,"columns":1,"weights":{"0":0.5161574482917786,"1":0.3411608338356018,"2":0.5652374029159546,"3":0.07302328944206238,"4":0.3343315124511719,"5":0.5148172378540039,"6":0.6202651262283325,"7":0.3089359700679779}},"cellActivationMatrix":{"rows":8,"columns":8,"weights":{"0":0.5423197150230408,"1":-0.4494797885417938,"2":-0.08293794840574265,"3":0.6965797543525696,"4":-0.8135998249053955,"5":0.8055459856987,"6":0.13360963761806488,"7":0.9513681530952454,"8":-0.5799744129180908,"9":0.3251051604747772,"10":0.566188395023346,"11":-0.21147890388965607,"12":0.28515979647636414,"13":-0.16381806135177612,"14":-0.009498427622020245,"15":-0.3518461287021637,"16":0.24330668151378632,"17":-1.3775240182876587,"18":-0.6504250764846802,"19":0.047843027859926224,"20":-0.21484893560409546,"21":1.5424449443817139,"22":0.6629551649093628,"23":1.595556378364563,"24":0.5720474123954773,"25":-0.46948695182800293,"26":-0.6398540735244751,"27":0.941534698009491,"28":-0.12530702352523804,"29":0.7062222361564636,"30":-0.5024105310440063,"31":0.5250228643417358,"32":0.7214103937149048,"33":-1.2032394409179688,"34":-0.7674840688705444,"35":0.611894428730011,"36":-0.5949713587760925,"37":0.2960714101791382,"38":0.06122077628970146,"39":0.6194344162940979,"40":1.223917007446289,"41":-0.3953615128993988,"42":-0.7078652381896973,"43":0.9723458886146545,"44":0.35084643959999084,"45":-0.44078725576400757,"46":-0.5592005252838135,"47":0.791088879108429,"48":-0.37354376912117004,"49":0.87568199634552,"50":0.6137990355491638,"51":-0.49293091893196106,"52":0.7372304797172546,"53":-1.2988944053649902,"54":-0.2897588908672333,"55":-0.31848734617233276,"56":-0.4075912535190582,"57":0.4623521864414215,"58":0.6289047598838806,"59":-0.256616473197937,"60":0.1967671662569046,"61":-0.48192059993743896,"62":0.05924508720636368,"63":-0.46267879009246826}},"cellActivationHidden":{"rows":8,"columns":8,"weights":{"0":-0.38626888394355774,"1":0.7184838652610779,"2":-0.3769342303276062,"3":1.2756201028823853,"4":-0.6918907165527344,"5":-0.46592870354652405,"6":0.5206627249717712,"7":0.7099193334579468,"8":-0.18229734897613525,"9":0.7756274938583374,"10":0.45801037549972534,"11":1.5818997621536255,"12":-0.23961064219474792,"13":-0.2879142165184021,"14":-0.5284645557403564,"15":0.4856918752193451,"16":1.600436806678772,"17":-1.0218802690505981,"18":-1.4010785818099976,"19":2.123319149017334,"20":1.0950897932052612,"21":1.4769760370254517,"22":-3.0754599571228027,"23":-1.463543176651001,"24":-1.18809175491333,"25":0.52937912940979,"26":1.669570803642273,"27":-0.5683447122573853,"28":-0.4168700873851776,"29":-0.6665533781051636,"30":1.337942361831665,"31":0.3284749984741211,"32":0.4159094989299774,"33":0.04707114025950432,"34":0.31707900762557983,"35":-0.28476768732070923,"36":0.003132385667413473,"37":-0.09202361851930618,"38":-0.22284793853759766,"39":0.16817353665828705,"40":-0.689378023147583,"41":-0.39070332050323486,"42":0.17279335856437683,"43":-0.7649052143096924,"44":-0.337637335062027,"45":-0.29150041937828064,"46":1.7785261869430542,"47":0.11826469749212265,"48":0.9120984077453613,"49":-0.9747732877731323,"50":0.09311375766992569,"51":-2.0188703536987305,"52":0.4891718626022339,"53":0.989790141582489,"54":-1.0444761514663696,"55":-0.5959296226501465,"56":-0.1520254760980606,"57":0.33212989568710327,"58":-0.10490131378173828,"59":1.5373317003250122,"60":0.16341693699359894,"61":0.03740238398313522,"62":-0.22363919019699097,"63":-0.28993186354637146}},"cellActivationBias":{"rows":8,"columns":1,"weights":{"0":0.5899320244789124,"1":-0.2597777545452118,"2":-0.5366644859313965,"3":-0.07223474979400635,"4":0.0028952923603355885,"5":0.2362944334745407,"6":-0.7982231974601746,"7":-0.0707424059510231}}}],"outputConnector":{"rows":4,"columns":8,"weights":{"0":0.11467261612415314,"1":-0.253982812166214,"2":0.18747690320014954,"3":-0.32284268736839294,"4":0.818234920501709,"5":-0.04334027320146561,"6":-0.0595531091094017,"7":-0.2849927544593811,"8":0.3426554501056671,"9":-0.14988769590854645,"10":0.6079608201980591,"11":0.1579723209142685,"12":0.049100037664175034,"13":-0.08219781517982483,"14":-0.21082665026187897,"15":-0.4477502107620239,"16":0.3069992661476135,"17":-0.52781081199646,"18":0.2502990663051605,"19":-0.03815309330821037,"20":0.41118893027305603,"21":0.5584379434585571,"22":-0.23799215257167816,"23":-0.5100932717323303,"24":0.08250883966684341,"25":-0.25849834084510803,"26":0.7108944654464722,"27":0.29784470796585083,"28":-0.04570867493748665,"29":0.460114985704422,"30":-0.48849689960479736,"31":0.0034175545442849398}},"output":{"rows":4,"columns":1,"weights":{"0":0.31386786699295044,"1":0.6820679903030396,"2":0.047515638172626495,"3":0.5740140676498413}},"inputLookup":{"open":0,"high":1,"low":2,"close":3},"inputLookupLength":4,"outputLookup":{"open":0,"high":1,"low":2,"close":3},"outputLookupLength":4}