{"type":"LSTMTimeStep","options":{"inputSize":4,"hiddenLayers":[8,8],"outputSize":4,"decayRate":0.999,"smoothEps":1e-8,"regc":0.000001,"clipval":5},"hiddenLayers":[{"inputMatrix":{"rows":8,"columns":4,"weights":{"0":0.9563004374504089,"1":0.5942797064781189,"2":0.46171462535858154,"3":0.7186643481254578,"4":0.5025911927223206,"5":0.8728898167610168,"6":0.961966335773468,"7":0.9934859871864319,"8":0.2770293354988098,"9":0.875451385974884,"10":-0.10917491465806961,"11":0.4232161343097687,"12":-0.2474554479122162,"13":0.10984381288290024,"14":0.019257012754678726,"15":0.03382294997572899,"16":0.5743558406829834,"17":0.5828455686569214,"18":0.590583086013794,"19":0.49616482853889465,"20":1.01114022731781,"21":0.5527116656303406,"22":0.6332877278327942,"23":0.6366114616394043,"24":0.20042431354522705,"25":0.6130427718162537,"26":0.3870045840740204,"27":0.5815991759300232,"28":0.3498713970184326,"29":-0.3905477225780487,"30":0.23932817578315735,"31":-0.4009298086166382}},"inputHidden":{"rows":8,"columns":8,"weights":{"0":-0.06520179659128189,"1":1.1163196563720703,"2":1.7176300287246704,"3":0.14504146575927734,"4":-0.8451958894729614,"5":0.019630756229162216,"6":-1.1272552013397217,"7":-0.5892058610916138,"8":0.13288241624832153,"9":0.6661033630371094,"10":0.5306390523910522,"11":-1.031707763671875,"12":-0.23327775299549103,"13":-0.35148751735687256,"14":-0.3548959791660309,"15":0.6034279465675354,"16":0.21809342503547668,"17":0.23830384016036987,"18":-0.4587195813655853,"19":-1.5388954877853394,"20":0.5065820217132568,"21":0.19679684937000275,"22":0.2392905205488205,"23":-0.07535500824451447,"24":-1.3840962648391724,"25":-0.9803665280342102,"26":-0.44610950350761414,"27":-0.2602194845676422,"28":-1.3155131340026855,"29":-1.3293277025222778,"30":-0.4406735301017761,"31":-0.565933883190155,"32":0.2707183361053467,"33":0.055922165513038635,"34":0.039077796041965485,"35":-1.1895135641098022,"36":0.03382071107625961,"37":0.3672815263271332,"38":-0.12169162184000015,"39":-0.25799593329429626,"40":-0.21539856493473053,"41":-0.1866084337234497,"42":0.34716761112213135,"43":-0.3622899651527405,"44":-0.09005886316299438,"45":-0.06084480509161949,"46":-0.32538434863090515,"47":-0.6554914712905884,"48":0.13917604088783264,"49":0.13795194029808044,"50":-0.1348164677619934,"51":-1.012208104133606,"52":0.17483538389205933,"53":0.04938957095146179,"54":-0.1043529137969017,"55":-0.19595375657081604,"56":-0.40420690178871155,"57":-0.8852344751358032,"58":-1.1920831203460693,"59":-0.44955506920814514,"60":0.341017484664917,"61":-0.32287195324897766,"62":0.6654558181762695,"63":-0.19449198246002197}},"inputBias":{"rows":8,"columns":1,"weights":{"0":0.3315385580062866,"1":1.202210783958435,"2":1.9000575542449951,"3":-0.46750807762145996,"4":-0.09462284296751022,"5":0.2203751504421234,"6":0.3385283946990967,"7":0.038443464785814285}},"forgetMatrix":{"rows":8,"columns":4,"weights":{"0":0.03807545825839043,"1":-0.43171629309654236,"2":-0.34410765767097473,"3":-0.5527040958404541,"4":-0.4045756161212921,"5":-0.028259150683879852,"6":-0.23392045497894287,"7":0.3483119010925293,"8":-0.6866261959075928,"9":-0.5273565053939819,"10":-0.9828869700431824,"11":-0.37098681926727295,"12":-0.6750339269638062,"13":-0.7735989093780518,"14":-0.7720319032669067,"15":-0.8118079304695129,"16":0.48443347215652466,"17":0.4154515266418457,"18":0.3075515329837799,"19":0.37104493379592896,"20":0.29346397519111633,"21":-0.1336367279291153,"22":0.1548825204372406,"23":-0.12120036035776138,"24":0.16848933696746826,"25":0.3125208020210266,"26":0.18293456733226776,"27":0.3934144973754883,"28":-0.24980679154396057,"29":-0.26390406489372253,"30":0.04157036542892456,"31":-0.3006412386894226}},"forgetHidden":{"rows":8,"columns":8,"weights":{"0":-0.13724729418754578,"1":0.8260141611099243,"2":0.37662968039512634,"3":-0.79251629114151,"4":0.031580086797475815,"5":-0.3703055679798126,"6":0.0922209769487381,"7":-0.22891667485237122,"8":-0.020859763026237488,"9":0.824138879776001,"10":0.5446895956993103,"11":0.24155427515506744,"12":-0.1589481234550476,"13":-0.1965590864419937,"14":-0.2935500741004944,"15":0.3867154121398926,"16":0.3239559829235077,"17":1.024348497390747,"18":0.9850549101829529,"19":0.1826729029417038,"20":-0.3948274254798889,"21":-0.145204097032547,"22":-0.595720648765564,"23":0.5050529837608337,"24":-0.16254234313964844,"25":0.38797181844711304,"26":0.3583034574985504,"27":-0.084697425365448,"28":-0.3962216079235077,"29":-0.15268279612064362,"30":-0.21847876906394958,"31":0.18948692083358765,"32":0.21685421466827393,"33":-0.5136988759040833,"34":-0.7633026242256165,"35":-0.3016236126422882,"36":-0.6228388547897339,"37":-0.05175177380442619,"38":-0.08341842144727707,"39":0.07640349119901657,"40":0.15256737172603607,"41":-0.0640922486782074,"42":-0.3389407694339752,"43":0.46756547689437866,"44":0.14906390011310577,"45":0.1260787844657898,"46":0.490103155374527,"47":-0.1691526621580124,"48":-0.12315145879983902,"49":-0.06116203963756561,"50":-0.3952319025993347,"51":-0.2229422926902771,"52":-0.3515791594982147,"53":-0.34060877561569214,"54":-0.029475810006260872,"55":0.04208263009786606,"56":-0.38575562834739685,"57":-0.01868206076323986,"58":-0.5716885924339294,"59":-0.5442906618118286,"60":0.10177800804376602,"61":-0.35135361552238464,"62":-0.01904067024588585,"63":0.3391040861606598}},"forgetBias":{"rows":8,"columns":1,"weights":{"0":0,"1":0,"2":0,"3":0,"4":0,"5":0,"6":0,"7":0}},"outputMatrix":{"rows":8,"columns":4,"weights":{"0":0.9510884881019592,"1":0.527233362197876,"2":0.5182775259017944,"3":0.6390550136566162,"4":0.26184800267219543,"5":0.8997302055358887,"6":0.9016854763031006,"7":0.8683525323867798,"8":0.27294841408729553,"9":0.8960085511207581,"10":0.10146623104810715,"11":0.603083610534668,"12":-0.4401366710662842,"13":-0.15192362666130066,"14":-0.20466460287570953,"15":-0.1573670655488968,"16":0.5307554602622986,"17":0.49817368388175964,"18":0.6000291705131531,"19":0.4607575535774231,"20":0.8801133036613464,"21":0.6889331936836243,"22":0.5443608164787292,"23":0.7324884533882141,"24":0.2603296935558319,"25":0.6471816301345825,"26":0.3026107847690582,"27":0.5019032955169678,"28":0.42657533288002014,"29":-0.4214927554130554,"30":0.17343685030937195,"31":-0.4291996359825134}},"outputHidden":{"rows":8,"columns":8,"weights":{"0":0.05076009780168533,"1":1.669332504272461,"2":1.4842513799667358,"3":0.08598130941390991,"4":-0.6392606496810913,"5":0.02918943017721176,"6":-0.8907420039176941,"7":-0.6673219799995422,"8":0.24236156046390533,"9":0.5427544116973877,"10":0.591272234916687,"11":-0.5191888213157654,"12":-0.13529886305332184,"13":0.10316585749387741,"14":-0.3093082010746002,"15":0.27015751600265503,"16":0.077760249376297,"17":0.43330639600753784,"18":-0.046025652438402176,"19":-1.433517575263977,"20":0.24802640080451965,"21":-0.03625015914440155,"22":-0.07904783636331558,"23":-0.13911108672618866,"24":-1.4850926399230957,"25":-0.7930206060409546,"26":-0.21547910571098328,"27":-0.3632051646709442,"28":-1.5111116170883179,"29":-1.470180630683899,"30":-0.5554783940315247,"31":-0.3972838521003723,"32":0.45695000886917114,"33":-0.25432929396629333,"34":-0.3978351354598999,"35":-1.560939908027649,"36":-0.3991059362888336,"37":0.3409520089626312,"38":-0.17961987853050232,"39":-0.17213276028633118,"40":-0.2548503875732422,"41":-0.1553627997636795,"42":0.1238161250948906,"43":-0.242330864071846,"44":-0.02015196532011032,"45":-0.14567135274410248,"46":-0.003987542353570461,"47":-0.6679128408432007,"48":0.22030577063560486,"49":0.03790074959397316,"50":-0.24569007754325867,"51":-0.8731390237808228,"52":0.11610494554042816,"53":0.1195833832025528,"54":0.0297715961933136,"55":-0.19008274376392365,"56":-0.5910187363624573,"57":-0.8423123359680176,"58":-1.3146394491195679,"59":-0.7121087908744812,"60":0.4084666967391968,"61":-0.4746175706386566,"62":0.6659117937088013,"63":0.0060272361151874065}},"outputBias":{"rows":8,"columns":1,"weights":{"0":0.30077531933784485,"1":1.0685064792633057,"2":2.0645172595977783,"3":-0.5056131482124329,"4":-0.08316639065742493,"5":0.1999669373035431,"6":0.3848131597042084,"7":0.015016863122582436}},"cellActivationMatrix":{"rows":8,"columns":4,"weights":{"0":-0.6135858297348022,"1":0.9387878179550171,"2":-0.16783612966537476,"3":0.614919126033783,"4":0.35525262355804443,"5":-0.43102484941482544,"6":-0.8846998810768127,"7":-0.9713627099990845,"8":0.5741633772850037,"9":-0.482570618391037,"10":-0.5677230358123779,"11":-0.8950590491294861,"12":0.24488948285579681,"13":-0.019694577902555466,"14":-0.32107847929000854,"15":-0.2750209867954254,"16":-0.4437575042247772,"17":0.406100869178772,"18":0.21005965769290924,"19":0.4904159605503082,"20":-0.5786663889884949,"21":0.8686031103134155,"22":-0.18128369748592377,"23":0.47582849860191345,"24":-0.502214252948761,"25":0.501990795135498,"26":0.25486692786216736,"27":0.6188240647315979,"28":-0.6156787276268005,"29":0.11092718690633774,"30":-0.2689588963985443,"31":0.11383174359798431}},"cellActivationHidden":{"rows":8,"columns":8,"weights":{"0":-0.9802578091621399,"1":-2.1990768909454346,"2":-1.761796474456787,"3":-0.04294179752469063,"4":0.039632800966501236,"5":-0.3989635407924652,"6":0.7323182225227356,"7":-1.0147610902786255,"8":0.0873650386929512,"9":-1.0340429544448853,"10":-0.7456434965133667,"11":-0.09203078597784042,"12":0.4958116412162781,"13":0.3747636079788208,"14":0.5299398303031921,"15":-0.5653224587440491,"16":0.02012595534324646,"17":-0.5945408940315247,"18":-0.29080191254615784,"19":0.5858620405197144,"20":0.4537294805049896,"21":0.10845182836055756,"22":0.382864773273468,"23":-0.4326366186141968,"24":-1.4003074169158936,"25":-1.4536925554275513,"26":-0.9185986518859863,"27":-0.51008141040802,"28":-0.8487746119499207,"29":-1.1056913137435913,"30":0.09993822872638702,"31":-0.06404861062765121,"32":-0.048275139182806015,"33":0.3548077940940857,"34":-0.8246757984161377,"35":-0.960354208946228,"36":1.0575915575027466,"37":0.12059199064970016,"38":0.6070493459701538,"39":0.6697640419006348,"40":-1.1613761186599731,"41":-1.6073932647705078,"42":-1.3902080059051514,"43":-0.2583213448524475,"44":0.5047125220298767,"45":-0.37128356099128723,"46":1.0205575227737427,"47":-0.9912852048873901,"48":-0.06278060376644135,"49":0.3305610418319702,"50":-0.43736422061920166,"51":-1.0026910305023193,"52":-0.07030750811100006,"53":-0.009947172366082668,"54":-0.10461807250976562,"55":0.6018734574317932,"56":0.5947887301445007,"57":0.305797815322876,"58":0.8928133249282837,"59":1.0960309505462646,"60":-0.0396394245326519,"61":0.6480814814567566,"62":-0.18998983502388,"63":-0.7149609327316284}},"cellActivationBias":{"rows":8,"columns":1,"weights":{"0":-0.9362234473228455,"1":0.09865702688694,"2":0.5564733743667603,"3":-0.06196896731853485,"4":-0.5013907551765442,"5":-0.7400896549224854,"6":-0.5089523196220398,"7":-0.38149213790893555}}},{"inputMatrix":{"rows":8,"columns":8,"weights":{"0":0.2225831151008606,"1":-0.5420049428939819,"2":0.16924771666526794,"3":0.03830861672759056,"4":0.3662205636501312,"5":0.223318949341774,"6":-0.1137399673461914,"7":-0.47848179936408997,"8":0.7763854265213013,"9":0.08939316868782043,"10":0.16995146870613098,"11":1.3013991117477417,"12":0.7548831105232239,"13":0.990350067615509,"14":0.5022015571594238,"15":-0.3610472083091736,"16":0.26565030217170715,"17":-0.6308447122573853,"18":-0.4084285795688629,"19":0.2662126421928406,"20":0.002805666998028755,"21":0.05252242460846901,"22":0.2974380552768707,"23":-0.4208030700683594,"24":-0.535373330116272,"25":-0.22945325076580048,"26":-0.681145966053009,"27":-0.151777446269989,"28":0.34501078724861145,"29":-0.27464887499809265,"30":0.5647880434989929,"31":0.16721870005130768,"32":-0.18034958839416504,"33":0.11539284884929657,"34":1.4918349981307983,"35":1.0148998498916626,"36":-0.0939188227057457,"37":0.7313116192817688,"38":-1.0772536993026733,"39":-0.7041323781013489,"40":-0.43189290165901184,"41":-0.7207546234130859,"42":-0.7059245109558105,"43":-0.4913794696331024,"44":0.3083287477493286,"45":-0.49090641736984253,"46":0.2288142442703247,"47":0.3475147783756256,"48":0.00011357993935234845,"49":-0.5942137241363525,"50":-0.8257366418838501,"51":-0.9182180166244507,"52":1.1258819103240967,"53":-0.112029068171978,"54":0.22504441440105438,"55":0.20033028721809387,"56":-0.15922752022743225,"57":-0.6184447407722473,"58":-0.6221053004264832,"59":-0.6555848717689514,"60":0.9421747326850891,"61":-0.042714785784482956,"62":0.14221914112567902,"63":-0.13736432790756226}},"inputHidden":{"rows":8,"columns":8,"weights":{"0":-0.4516921043395996,"1":0.03623796999454498,"2":0.45932403206825256,"3":-0.2999531328678131,"4":-0.10653658211231232,"5":-0.3346524238586426,"6":0.009299982339143753,"7":-0.0341908261179924,"8":-0.4025687873363495,"9":0.47077807784080505,"10":0.4916827976703644,"11":-0.7590301036834717,"12":-1.0303101539611816,"13":-0.26599395275115967,"14":0.24705927073955536,"15":0.273298054933548,"16":-0.31491512060165405,"17":-0.07256653159856796,"18":0.3475552499294281,"19":-0.34428462386131287,"20":0.03180697187781334,"21":-0.22331354022026062,"22":0.2614307105541229,"23":-0.044011544436216354,"24":-0.9900254011154175,"25":0.76167893409729,"26":0.9694965481758118,"27":-0.799769401550293,"28":0.88318932056427,"29":-0.8544025421142578,"30":0.5697165131568909,"31":0.37541547417640686,"32":-0.10395406186580658,"33":0.9030032753944397,"34":-0.025249343365430832,"35":-0.3913806080818176,"36":0.7400496006011963,"37":0.4409209191799164,"38":-0.9077363610267639,"39":-0.9590194225311279,"40":-0.4818672239780426,"41":0.17991971969604492,"42":0.7057024240493774,"43":-0.2107028216123581,"44":-0.11655592918395996,"45":-0.6115735769271851,"46":0.6283600330352783,"47":0.6503821611404419,"48":0.10351201146841049,"49":-0.3929241895675659,"50":0.022453980520367622,"51":0.16545291244983673,"52":0.821718692779541,"53":-0.2620091140270233,"54":0.7125706672668457,"55":1.0571902990341187,"56":0.0026620756834745407,"57":-0.33869045972824097,"58":0.15350888669490814,"59":0.11398769915103912,"60":1.7410426139831543,"61":-0.037039030343294144,"62":0.3619263172149658,"63":0.4307882487773895}},"inputBias":{"rows":8,"columns":1,"weights":{"0":0.6575315594673157,"1":-0.2299576699733734,"2":0.661338210105896,"3":0.5852458477020264,"4":-1.0777770280838013,"5":0.48265311121940613,"6":0.5743638873100281,"7":0.7175507545471191}},"forgetMatrix":{"rows":8,"columns":8,"weights":{"0":-0.7093180418014526,"1":0.740719199180603,"2":0.6555682420730591,"3":-0.5565456748008728,"4":-0.39576366543769836,"5":-0.9146783351898193,"6":-0.3869926333427429,"7":0.810265064239502,"8":-1.8059098720550537,"9":0.6557301878929138,"10":0.518253743648529,"11":-1.5027905702590942,"12":-0.3646601438522339,"13":-1.3863731622695923,"14":-0.37296831607818604,"15":0.9290554523468018,"16":-0.3412577211856842,"17":0.3662811815738678,"18":0.1675218641757965,"19":-0.09945885837078094,"20":-0.6114304065704346,"21":-0.4976116716861725,"22":-0.01204097829759121,"23":0.16321876645088196,"24":-1.2938884496688843,"25":0.23910444974899292,"26":0.7399692535400391,"27":-0.9220148921012878,"28":-0.2790965735912323,"29":-0.5051407814025879,"30":-0.2739552855491638,"31":0.19352450966835022,"32":0.083222396671772,"33":0.5733729004859924,"34":-0.1922578066587448,"35":0.3012278079986572,"36":0.7109932899475098,"37":-0.3459978997707367,"38":0.6421300768852234,"39":0.4042602479457855,"40":-0.1777765303850174,"41":0.5331918597221375,"42":0.7126226425170898,"43":-0.5557097792625427,"44":-0.12522853910923004,"45":-0.16726146638393402,"46":-0.29952698945999146,"47":-0.026809586212038994,"48":-0.19340021908283234,"49":0.9406827688217163,"50":1.3419675827026367,"51":-0.4563332796096802,"52":1.2169220447540283,"53":0.10557299107313156,"54":-0.2599066495895386,"55":-0.3568298816680908,"56":0.2539837062358856,"57":0.9736744165420532,"58":1.1977931261062622,"59":-0.18301527202129364,"60":0.8750627636909485,"61":0.08856917172670364,"62":-0.2835301160812378,"63":-0.26800835132598877}},"forgetHidden":{"rows":8,"columns":8,"weights":{"0":-0.9296101331710815,"1":0.7825703620910645,"2":0.9449585676193237,"3":-0.8783939480781555,"4":0.1659998744726181,"5":-0.7682644128799438,"6":0.7115158438682556,"7":0.6325176358222961,"8":-1.0885764360427856,"9":0.7883010506629944,"10":1.102062702178955,"11":-0.24885018169879913,"12":-0.046468354761600494,"13":-0.9584304690361023,"14":0.7226388454437256,"15":0.584208071231842,"16":-0.726990818977356,"17":0.7091635465621948,"18":0.6916117072105408,"19":-0.6378514766693115,"20":0.02014486864209175,"21":-0.40713098645210266,"22":0.4337216019630432,"23":0.1272827833890915,"24":-0.7030354738235474,"25":0.4095618724822998,"26":0.6466832160949707,"27":-0.08721207827329636,"28":-0.31934791803359985,"29":-0.6049150824546814,"30":0.2358754426240921,"31":0.01876327581703663,"32":0.017394939437508583,"33":0.0808454230427742,"34":0.28803151845932007,"35":-0.7816768884658813,"36":-0.3998716175556183,"37":-0.44470906257629395,"38":0.9701060056686401,"39":1.1238840818405151,"40":-0.22294160723686218,"41":-0.061374228447675705,"42":0.32895490527153015,"43":0.20781463384628296,"44":0.3666033148765564,"45":-0.18966852128505707,"46":-0.023286808282136917,"47":0.03314775973558426,"48":0.026270095258951187,"49":-0.3371046185493469,"50":0.08288522809743881,"51":0.3008725941181183,"52":1.059186339378357,"53":0.04429241642355919,"54":-0.168507918715477,"55":0.018687164410948753,"56":0.12680906057357788,"57":-0.06939509510993958,"58":0.21320270001888275,"59":-0.3952663838863373,"60":0.5388302803039551,"61":0.020050901919603348,"62":0.2204803228378296,"63":0.44281330704689026}},"forgetBias":{"rows":8,"columns":1,"weights":{"0":0,"1":0,"2":0,"3":0,"4":0,"5":0,"6":0,"7":0}},"outputMatrix":{"rows":8,"columns":8,"weights":{"0":0.3127842843532562,"1":-0.22348985075950623,"2":0.32805773615837097,"3":0.17562763392925262,"4":0.4259284436702728,"5":0.43840888142585754,"6":0.01799701899290085,"7":-0.34735411405563354,"8":0.2920648455619812,"9":-0.08026353269815445,"10":0.15311449766159058,"11":0.9635509252548218,"12":0.45681703090667725,"13":0.5974624156951904,"14":0.26803484559059143,"15":-0.41926783323287964,"16":0.5407735109329224,"17":-0.479310005903244,"18":-0.3194344937801361,"19":0.2668505609035492,"20":-0.05968999117612839,"21":0.1308254599571228,"22":0.30667102336883545,"23":-0.3734614849090576,"24":-0.5524676442146301,"25":-0.23175150156021118,"26":-0.5069212913513184,"27":-0.15873035788536072,"28":0.26970553398132324,"29":-0.19652964174747467,"30":0.28639763593673706,"31":0.1540985256433487,"32":-0.38051432371139526,"33":0.4736056327819824,"34":1.724498987197876,"35":0.8925328254699707,"36":-0.2651834487915039,"37":0.36340898275375366,"38":-1.1740806102752686,"39":-0.736771821975708,"40":-0.15214721858501434,"41":-0.5023115277290344,"42":-0.5020526647567749,"43":-0.5039356350898743,"44":0.17793628573417664,"45":-0.31708258390426636,"46":0.10668330639600754,"47":0.2053033411502838,"48":0.11910936236381531,"49":-0.4663059115409851,"50":-0.42819973826408386,"51":-0.6048005819320679,"52":0.9270192384719849,"53":0.05333375558257103,"54":0.18028326332569122,"55":-0.21665406227111816,"56":0.1283673346042633,"57":-0.4024118483066559,"58":-0.4370342791080475,"59":-0.5364911556243896,"60":0.8589892387390137,"61":0.20359134674072266,"62":0.2272816002368927,"63":-0.22335802018642426}},"outputHidden":{"rows":8,"columns":8,"weights":{"0":-0.3553944528102875,"1":0.20631296932697296,"2":0.4992407262325287,"3":-0.27501776814460754,"4":0.061129312962293625,"5":-0.26987046003341675,"6":0.1318075805902481,"7":-0.08373308181762695,"8":-0.2890014350414276,"9":0.5808560252189636,"10":0.43947699666023254,"11":-0.5747215151786804,"12":-1.044850468635559,"13":-0.32761332392692566,"14":0.16761182248592377,"15":0.29850295186042786,"16":-0.2445836365222931,"17":0.04974227026104927,"18":0.309192955493927,"19":-0.4211328625679016,"20":0.10564399510622025,"21":-0.17409054934978485,"22":0.10604575276374817,"23":-0.16642645001411438,"24":-0.8275636434555054,"25":0.6994308829307556,"26":0.8126581907272339,"27":-0.517920970916748,"28":0.41015514731407166,"29":-0.6878166198730469,"30":0.5301955938339233,"31":0.30956578254699707,"32":-0.14600582420825958,"33":0.9265373349189758,"34":0.15362577140331268,"35":-0.6814596652984619,"36":0.5701240301132202,"37":0.3004888594150543,"38":-0.5764176249504089,"39":-0.5936803221702576,"40":-0.439721941947937,"41":0.091272734105587,"42":0.48674702644348145,"43":-0.09270618855953217,"44":0.08847626298666,"45":-0.4736533463001251,"46":0.38527214527130127,"47":0.37201616168022156,"48":0.1636658012866974,"49":-0.42392319440841675,"50":0.017842121422290802,"51":0.20658676326274872,"52":1.5780458450317383,"53":-0.09801547229290009,"54":0.17380312085151672,"55":0.38548263907432556,"56":0.12507356703281403,"57":-0.40593385696411133,"58":0.020073197782039642,"59":-0.001358974608592689,"60":1.7504172325134277,"61":0.016694391146302223,"62":0.18583810329437256,"63":0.3088137209415436}},"outputBias":{"rows":8,"columns":1,"weights":{"0":0.4099220931529999,"1":-0.051645174622535706,"2":0.4701306223869324,"3":0.5522923469543457,"4":-1.0335314273834229,"5":0.4818408191204071,"6":0.6997523307800293,"7":0.8217945098876953}},"cellActivationMatrix":{"rows":8,"columns":8,"weights":{"0":0.06928513944149017,"1":-1.1661450862884521,"2":-1.659908413887024,"3":-0.28144964575767517,"4":0.24540308117866516,"5":-0.2349965125322342,"6":0.6363486051559448,"7":0.1350095570087433,"8":-0.7638167142868042,"9":0.4941680431365967,"10":0.6977392435073853,"11":0.2511451542377472,"12":-0.38375845551490784,"13":-0.3326413333415985,"14":-0.3672923743724823,"15":-0.6146994233131409,"16":-0.08566638082265854,"17":0.9808366894721985,"18":1.007584571838379,"19":-0.1253260374069214,"20":-0.0003249772416893393,"21":0.14634668827056885,"22":-0.43556132912635803,"23":0.20025840401649475,"24":1.5776174068450928,"25":-0.448318749666214,"26":-0.6040855050086975,"27":0.44181233644485474,"28":0.525783896446228,"29":1.7698951959609985,"30":0.5963748693466187,"31":0.23809432983398438,"32":0.965534508228302,"33":-0.33717018365859985,"34":-0.4732604920864105,"35":0.02267468348145485,"36":1.4137760400772095,"37":0.7637656331062317,"38":0.8147433400154114,"39":-0.06799308210611343,"40":-0.01551523245871067,"41":-0.8671650886535645,"42":-0.5685840845108032,"43":-0.03201480954885483,"44":-0.031326062977313995,"45":-0.19663694500923157,"46":0.05365796759724617,"47":0.04441053792834282,"48":-0.4601373076438904,"49":0.6070447564125061,"50":0.6044595837593079,"51":-0.17105406522750854,"52":-0.4668785035610199,"53":-0.3358269929885864,"54":-0.11624696850776672,"55":-0.23923929035663605,"56":-0.8754451870918274,"57":0.5957545042037964,"58":0.7453150749206543,"59":0.5982208251953125,"60":-0.4220949411392212,"61":-1.095766305923462,"62":-0.48548635840415955,"63":-0.3462246060371399}},"cellActivationHidden":{"rows":8,"columns":8,"weights":{"0":-0.518493115901947,"1":0.5306508541107178,"2":0.5828996300697327,"3":-0.33132269978523254,"4":0.46512266993522644,"5":-0.39199888706207275,"6":0.3164450526237488,"7":0.12390808016061783,"8":0.6826303005218506,"9":-0.5510014295578003,"10":-0.6177335381507874,"11":0.23140816390514374,"12":-0.5516396760940552,"13":0.3582010269165039,"14":-0.10814829915761948,"15":0.060873162001371384,"16":0.4570615589618683,"17":-0.6256482601165771,"18":-0.3018568456172943,"19":0.2324977070093155,"20":-0.5254186987876892,"21":0.15237843990325928,"22":-0.14134375751018524,"23":0.019389498978853226,"24":0.29193663597106934,"25":0.003746193600818515,"26":-0.4691046476364136,"27":0.02638375759124756,"28":-0.03564179688692093,"29":0.4340772330760956,"30":-0.509779155254364,"31":-0.4772545397281647,"32":0.2319125086069107,"33":-1.1316717863082886,"34":0.022525599226355553,"35":-0.06977768987417221,"36":-0.0717906653881073,"37":-0.4420831501483917,"38":0.5376958847045898,"39":0.5252007246017456,"40":0.03003205731511116,"41":0.3520788848400116,"42":0.02523728832602501,"43":0.22844795882701874,"44":-0.5864080786705017,"45":-0.18130958080291748,"46":0.10917619615793228,"47":0.14326973259449005,"48":-0.913791835308075,"49":0.15928106009960175,"50":0.6160234808921814,"51":-0.14080239832401276,"52":0.03836735710501671,"53":-0.18036013841629028,"54":-0.009420349262654781,"55":-0.3297477960586548,"56":-0.7282833456993103,"57":0.48582538962364197,"58":0.7886587381362915,"59":-0.7685604691505432,"60":-0.01429163757711649,"61":-0.1495203971862793,"62":0.2787829041481018,"63":0.2655577063560486}},"cellActivationBias":{"rows":8,"columns":1,"weights":{"0":0.5019723773002625,"1":0.10535276681184769,"2":-0.3078378736972809,"3":-0.08603324741125107,"4":0.03466484323143959,"5":0.04243861883878708,"6":0.04699819162487984,"7":-0.009664583951234818}}}],"outputConnector":{"rows":4,"columns":8,"weights":{"0":-0.05444696545600891,"1":0.19494479894638062,"2":-0.09879044443368912,"3":0.09488476067781448,"4":-0.1412457972764969,"5":0.4334769546985626,"6":-0.2813423275947571,"7":-0.5841759443283081,"8":0.37620189785957336,"9":-0.5405632257461548,"10":0.04961128160357475,"11":0.41695743799209595,"12":0.08861932903528214,"13":0.16528551280498505,"14":-0.2153664082288742,"15":-0.1915152370929718,"16":0.2841496169567108,"17":-0.03543127328157425,"18":-0.5284420251846313,"19":0.10616200417280197,"20":-0.8745023608207703,"21":0.32426995038986206,"22":-0.5549617409706116,"23":-0.36273282766342163,"24":0.5129600167274475,"25":-0.6757793426513672,"26":-0.3459891974925995,"27":0.6821184754371643,"28":-0.1499377191066742,"29":0.13596396148204803,"30":0.2785835862159729,"31":-0.02635752409696579}},"output":{"rows":4,"columns":1,"weights":{"0":0.37619316577911377,"1":0.666504979133606,"2":0.09130119532346725,"3":0.5513927340507507}},"inputLookup":{"open":0,"high":1,"low":2,"close":3,"date":4},"inputLookupLength":5,"outputLookup":{"open":0,"high":1,"low":2,"close":3,"date":4},"outputLookupLength":5}