{"type":"LSTMTimeStep","options":{"inputSize":4,"hiddenLayers":[8,8],"outputSize":4,"decayRate":0.999,"smoothEps":1e-8,"regc":0.000001,"clipval":5},"hiddenLayers":[{"inputMatrix":{"rows":8,"columns":4,"weights":{"0":-0.302082359790802,"1":0.5779752731323242,"2":0.41390228271484375,"3":0.6901742815971375,"4":-0.36403000354766846,"5":0.6128526926040649,"6":0.4893554747104645,"7":0.616938054561615,"8":-0.013714208267629147,"9":0.8173574805259705,"10":-0.05149206146597862,"11":0.3156379461288452,"12":0.7930958867073059,"13":0.4550473392009735,"14":0.5461018681526184,"15":0.4362564980983734,"16":-0.2109956294298172,"17":0.5812925100326538,"18":0.5015528202056885,"19":0.5970122814178467,"20":0.603305459022522,"21":0.03617943450808525,"22":0.06901107728481293,"23":0.1085183173418045,"24":0.6605876684188843,"25":0.24513287842273712,"26":-0.22682370245456696,"27":0.3466041386127472,"28":0.11635816842317581,"29":0.3623961806297302,"30":0.1763792634010315,"31":0.30321061611175537}},"inputHidden":{"rows":8,"columns":8,"weights":{"0":0.4367085099220276,"1":-0.3067891001701355,"2":0.46567654609680176,"3":-1.3161574602127075,"4":0.5346912741661072,"5":0.5548098087310791,"6":-0.9482131004333496,"7":-0.8833298087120056,"8":0.06865512579679489,"9":-0.13047707080841064,"10":1.2319239377975464,"11":-1.0775930881500244,"12":0.1476389616727829,"13":0.37034425139427185,"14":-0.9136988520622253,"15":-1.053722858428955,"16":-0.20942111313343048,"17":0.1497061848640442,"18":1.661487340927124,"19":-0.40134477615356445,"20":-0.36439526081085205,"21":1.1032565832138062,"22":-0.9162735342979431,"23":-1.1785448789596558,"24":-0.26784151792526245,"25":0.0077105797827243805,"26":0.6595460772514343,"27":-0.9345166087150574,"28":-0.23895934224128723,"29":0.04326772317290306,"30":0.35088515281677246,"31":-0.8748177289962769,"32":0.18861457705497742,"33":-0.24201525747776031,"34":0.7180939316749573,"35":-1.0323830842971802,"36":0.19771651923656464,"37":0.29758384823799133,"38":-0.574900209903717,"39":-0.8934975862503052,"40":0.9587247967720032,"41":-0.9987611174583435,"42":-0.7633518576622009,"43":0.3414470851421356,"44":1.0518255233764648,"45":-0.35585319995880127,"46":0.273460328578949,"47":0.2500288486480713,"48":1.1975712776184082,"49":-1.18888258934021,"50":-0.9517203569412231,"51":0.36354300379753113,"52":1.1511316299438477,"53":0.08152495324611664,"54":-0.5190510153770447,"55":0.1697966456413269,"56":-0.46940645575523376,"57":0.5891697406768799,"58":0.7598885297775269,"59":1.208867073059082,"60":-0.6019632816314697,"61":0.31536296010017395,"62":-0.049844589084386826,"63":0.7034883499145508}},"inputBias":{"rows":8,"columns":1,"weights":{"0":0.37803736329078674,"1":0.16800612211227417,"2":1.2948087453842163,"3":0.23448681831359863,"4":0.3399287462234497,"5":0.5654465556144714,"6":0.8494236469268799,"7":0.16747088730335236}},"forgetMatrix":{"rows":8,"columns":4,"weights":{"0":-0.10667972266674042,"1":0.1600552797317505,"2":0.0627208724617958,"3":0.5607436895370483,"4":0.2764585018157959,"5":0.4805859327316284,"6":0.27650049328804016,"7":0.7253161668777466,"8":-0.21357402205467224,"9":0.03816387057304382,"10":-0.07332301139831543,"11":0.35669922828674316,"12":-0.7453289031982422,"13":-0.6566444635391235,"14":-0.7654985785484314,"15":-0.7185816764831543,"16":0.11785678565502167,"17":0.346584677696228,"18":0.239357128739357,"19":0.5726021528244019,"20":-0.3069809377193451,"21":-0.530227780342102,"22":-0.5037069320678711,"23":-0.6359925270080566,"24":0.20085729658603668,"25":-0.32873088121414185,"26":-0.22713974118232727,"27":-0.3251314163208008,"28":-0.011381279677152634,"29":0.10836490243673325,"30":0.9352471828460693,"31":0.13229593634605408}},"forgetHidden":{"rows":8,"columns":8,"weights":{"0":0.461629182100296,"1":-0.21317262947559357,"2":-0.02891208976507187,"3":-0.30331289768218994,"4":0.38505399227142334,"5":0.18466384708881378,"6":-0.2127864807844162,"7":-0.14081408083438873,"8":0.10780628770589828,"9":-0.0368119552731514,"10":0.1426684856414795,"11":-0.5900883078575134,"12":0.07284688204526901,"13":0.25587719678878784,"14":0.002365825464949012,"15":-0.4884096682071686,"16":0.5703208446502686,"17":-0.5115772485733032,"18":-0.016649000346660614,"19":0.12692420184612274,"20":0.44209718704223633,"21":-0.41555914282798767,"22":0.6423054337501526,"23":-0.25126975774765015,"24":0.6589694023132324,"25":-0.6991536617279053,"26":-0.0685194879770279,"27":-0.571964681148529,"28":0.7330887913703918,"29":0.11154307425022125,"30":-0.3072700500488281,"31":-0.28834307193756104,"32":0.3374744653701782,"33":-0.20944443345069885,"34":0.07000745087862015,"35":-0.6768799424171448,"36":0.2510417401790619,"37":0.10176093876361847,"38":0.0178996529430151,"39":-0.3860209286212921,"40":0.4564898610115051,"41":-0.22688739001750946,"42":0.3512953817844391,"43":-0.1404813826084137,"44":0.352725088596344,"45":0.01287931390106678,"46":0.13298135995864868,"47":-0.5309067368507385,"48":0.4943372905254364,"49":-0.34615999460220337,"50":0.15961983799934387,"51":0.1464310884475708,"52":0.2667110562324524,"53":-0.050462573766708374,"54":0.4078705310821533,"55":-0.30128026008605957,"56":-0.6461093425750732,"57":0.7459601163864136,"58":1.242830514907837,"59":0.05507153272628784,"60":-0.7575531601905823,"61":-0.4741767346858978,"62":0.37109923362731934,"63":-0.19722893834114075}},"forgetBias":{"rows":8,"columns":1,"weights":{"0":0,"1":0,"2":0,"3":0,"4":0,"5":0,"6":0,"7":0}},"outputMatrix":{"rows":8,"columns":4,"weights":{"0":-0.37968045473098755,"1":0.5783498883247375,"2":0.4173296093940735,"3":0.8337221145629883,"4":-0.27319079637527466,"5":0.6354503631591797,"6":0.6548115611076355,"7":0.8509833812713623,"8":-0.09606815874576569,"9":0.6825826168060303,"10":0.07286931574344635,"11":0.46263524889945984,"12":0.6595200300216675,"13":0.3295111656188965,"14":0.5185368061065674,"15":0.27103254199028015,"16":-0.29235345125198364,"17":0.46658119559288025,"18":0.48787200450897217,"19":0.8031370043754578,"20":0.5305262207984924,"21":-0.12725543975830078,"22":0.011691099964082241,"23":-0.027961760759353638,"24":0.5348443388938904,"25":0.06388026475906372,"26":-0.5480130910873413,"27":-0.013781463727355003,"28":0.12032316625118256,"29":0.27012643218040466,"30":0.277250200510025,"31":0.29472216963768005}},"outputHidden":{"rows":8,"columns":8,"weights":{"0":0.42800095677375793,"1":-0.22409981489181519,"2":0.22991842031478882,"3":-0.6189757585525513,"4":0.39800477027893066,"5":0.26852676272392273,"6":-0.5215170383453369,"7":-0.3819219172000885,"8":0.11990370601415634,"9":-0.2497694194316864,"10":0.6117553114891052,"11":-1.3183424472808838,"12":0.23034557700157166,"13":0.16610406339168549,"14":-0.4786883592605591,"15":-0.7694257497787476,"16":-0.07940437644720078,"17":0.01861601136624813,"18":1.8206439018249512,"19":-0.4179683029651642,"20":-0.1264641433954239,"21":0.983116090297699,"22":-0.7190882563591003,"23":-1.2624340057373047,"24":-0.21995003521442413,"25":0.005665854550898075,"26":0.7426557540893555,"27":-0.9109939336776733,"28":-0.007714778184890747,"29":0.08702097833156586,"30":0.2661396861076355,"31":-1.2284170389175415,"32":0.13361819088459015,"33":-0.15768249332904816,"34":0.4804465174674988,"35":-1.258957028388977,"36":0.17629316449165344,"37":0.1878300905227661,"38":-0.24536891281604767,"39":-0.5126008987426758,"40":1.2890043258666992,"41":-1.1224840879440308,"42":-0.5952436923980713,"43":0.22835028171539307,"44":1.2464466094970703,"45":-0.45163142681121826,"46":0.3680252432823181,"47":0.1162286251783371,"48":1.610129475593567,"49":-1.3812175989151,"50":-0.7079982161521912,"51":0.2422560751438141,"52":1.6733083724975586,"53":-0.009993993677198887,"54":-0.385835736989975,"55":0.08094831556081772,"56":-0.5648715496063232,"57":0.7927892208099365,"58":1.313167691230774,"59":0.8209490180015564,"60":-0.8875092267990112,"61":-0.00237665674649179,"62":0.37818607687950134,"63":0.6179962754249573}},"outputBias":{"rows":8,"columns":1,"weights":{"0":0.2944287061691284,"1":0.20262672007083893,"2":1.4268858432769775,"3":0.24807201325893402,"4":0.24009959399700165,"5":0.5820060968399048,"6":0.8874309659004211,"7":0.17444954812526703}},"cellActivationMatrix":{"rows":8,"columns":4,"weights":{"0":0.4414108395576477,"1":-0.4604462683200836,"2":-0.5666717290878296,"3":-0.8673744201660156,"4":-0.4981921911239624,"5":0.5294539928436279,"6":0.39735546708106995,"7":0.7741370797157288,"8":-0.6250866651535034,"9":0.4672071039676666,"10":0.5123788714408875,"11":0.6782181859016418,"12":0.9148561358451843,"13":-0.4830825924873352,"14":-0.09963863343000412,"15":-0.48131436109542847,"16":0.31952887773513794,"17":-0.40372052788734436,"18":-0.5581957697868347,"19":-0.8780307769775391,"20":0.48523277044296265,"21":-0.7934530377388,"22":0.32269757986068726,"23":-0.49057233333587646,"24":-0.581028938293457,"25":1.0015674829483032,"26":-0.039449676871299744,"27":0.6524268388748169,"28":0.22766967117786407,"29":0.059153102338314056,"30":-0.43055346608161926,"31":-0.32511234283447266}},"cellActivationHidden":{"rows":8,"columns":8,"weights":{"0":-0.6101692318916321,"1":0.5962676405906677,"2":0.39041540026664734,"3":0.16951976716518402,"4":-0.7167328596115112,"5":-0.17337843775749207,"6":0.16755899786949158,"7":0.12163467705249786,"8":0.5420488715171814,"9":-0.4294970631599426,"10":0.04252304136753082,"11":-0.24858218431472778,"12":0.5595210790634155,"13":0.24000316858291626,"14":-0.30314818024635315,"15":-0.45877087116241455,"16":0.23524297773838043,"17":-0.3291855752468109,"18":-0.020104801282286644,"19":-0.5568071603775024,"20":0.3613284230232239,"21":-0.3103446066379547,"22":0.589971661567688,"23":-0.04005515202879906,"24":-0.7960380911827087,"25":0.6024565100669861,"26":-0.1576107293367386,"27":-0.28864699602127075,"28":-0.6389138698577881,"29":0.2969139516353607,"30":0.050426919013261795,"31":-1.3345184326171875,"32":-0.6118499040603638,"33":0.7117276191711426,"34":0.17526765167713165,"35":0.6420632004737854,"36":-0.6769058108329773,"37":-0.19034919142723083,"38":0.00838141143321991,"39":0.33239278197288513,"40":1.3078339099884033,"41":-1.5012859106063843,"42":-0.6867488622665405,"43":-0.482045978307724,"44":1.3377605676651,"45":-1.180766224861145,"46":1.014238953590393,"47":0.9120952486991882,"48":-1.6092545986175537,"49":2.0549821853637695,"50":0.45516735315322876,"51":0.5852852463722229,"52":-1.8431930541992188,"53":1.009314775466919,"54":-0.836948812007904,"55":-0.39247602224349976,"56":-0.8402336239814758,"57":0.9864925146102905,"58":1.2933937311172485,"59":0.611791729927063,"60":-0.9612315893173218,"61":1.2381330728530884,"62":-1.3122446537017822,"63":-0.48140889406204224}},"cellActivationBias":{"rows":8,"columns":1,"weights":{"0":0.31005972623825073,"1":-0.4685579538345337,"2":-0.6481298208236694,"3":0.2825295329093933,"4":0.31305503845214844,"5":0.7859993577003479,"6":-0.9488707780838013,"7":0.03231295198202133}}},{"inputMatrix":{"rows":8,"columns":8,"weights":{"0":-0.3222862482070923,"1":0.366594523191452,"2":0.7943760752677917,"3":-0.644201934337616,"4":-0.3472871482372284,"5":-0.2534233629703522,"6":0.0008664167835377157,"7":0.6862802505493164,"8":-0.47687628865242004,"9":0.4212598502635956,"10":0.07022017985582352,"11":0.15379652380943298,"12":-0.3741333782672882,"13":-0.0018093121470883489,"14":0.19202400743961334,"15":0.3934321105480194,"16":-0.16488827764987946,"17":0.45235195755958557,"18":0.532075822353363,"19":-0.4994438588619232,"20":-0.1231483519077301,"21":-0.2907462418079376,"22":0.0845949798822403,"23":0.3652665615081787,"24":2.0908730030059814,"25":-1.7134344577789307,"26":-1.7952574491500854,"27":1.2334312200546265,"28":1.5706316232681274,"29":-0.800791323184967,"30":-0.7012624144554138,"31":1.3047540187835693,"32":-0.3032391369342804,"33":0.43963462114334106,"34":1.0100533962249756,"35":-0.6002604961395264,"36":-0.1642550230026245,"37":-0.2892798185348511,"38":0.4661099314689636,"39":-0.09306493401527405,"40":-0.34340983629226685,"41":0.6347877383232117,"42":0.7816552519798279,"43":-0.7504443526268005,"44":-0.24873408675193787,"45":-0.2828616797924042,"46":0.5745672583580017,"47":0.6725673079490662,"48":-0.14477300643920898,"49":0.665804922580719,"50":0.9106758832931519,"51":-1.0961450338363647,"52":-0.134646475315094,"53":-0.5731109380722046,"54":1.2534425258636475,"55":0.033995386213064194,"56":0.147565096616745,"57":0.37319719791412354,"58":0.361619234085083,"59":-0.5307146906852722,"60":0.09540779143571854,"61":-0.7379379272460938,"62":1.0453376770019531,"63":0.4955016076564789}},"inputHidden":{"rows":8,"columns":8,"weights":{"0":0.3381185233592987,"1":-0.5283259749412537,"2":0.45725443959236145,"3":-0.4783251881599426,"4":-0.37124258279800415,"5":0.42939308285713196,"6":-0.4611769914627075,"7":0.7550289630889893,"8":0.06254040449857712,"9":-0.3684791624546051,"10":0.35509657859802246,"11":-0.2866245210170746,"12":-0.17238590121269226,"13":0.16644351184368134,"14":0.23729711771011353,"15":-0.14455430209636688,"16":0.04791359603404999,"17":-0.5012233257293701,"18":0.3750353157520294,"19":-0.3262661397457123,"20":-0.41020217537879944,"21":0.3132559061050415,"22":-0.06980025768280029,"23":0.043826572597026825,"24":0.3966442942619324,"25":0.7248067259788513,"26":-0.8626897931098938,"27":0.3230106234550476,"28":1.2642238140106201,"29":-1.0661455392837524,"30":0.39005568623542786,"31":0.4395892024040222,"32":0.3457765281200409,"33":-0.4511524438858032,"34":0.33046841621398926,"35":-0.6990904211997986,"36":-0.2299146056175232,"37":0.38919922709465027,"38":-0.27270811796188354,"39":0.17617680132389069,"40":0.21574442088603973,"41":-0.3100065290927887,"42":0.33029165863990784,"43":-1.526688575744629,"44":-0.43113821744918823,"45":0.32452037930488586,"46":-0.37721365690231323,"47":0.21989312767982483,"48":0.7281700372695923,"49":-0.6183179020881653,"50":0.6696069836616516,"51":-1.3666534423828125,"52":-0.5468257069587708,"53":0.493341326713562,"54":-0.7325188517570496,"55":0.5862835645675659,"56":1.387108564376831,"57":-0.3984120190143585,"58":0.5854952335357666,"59":-1.7059471607208252,"60":-0.2822699248790741,"61":0.5060345530509949,"62":-0.9592868685722351,"63":0.855241060256958}},"inputBias":{"rows":8,"columns":1,"weights":{"0":0.5080143809318542,"1":0.5754948258399963,"2":0.17833183705806732,"3":-0.022090131416916847,"4":0.23620107769966125,"5":0.04622306674718857,"6":0.17985405027866364,"7":0.29618123173713684}},"forgetMatrix":{"rows":8,"columns":8,"weights":{"0":0.4009813368320465,"1":0.26944881677627563,"2":-0.3599397838115692,"3":1.0813242197036743,"4":-0.04774172976613045,"5":-0.4671173393726349,"6":0.028464239090681076,"7":0.6030464172363281,"8":0.29047906398773193,"9":-0.11224512755870819,"10":-0.6749980449676514,"11":0.4057198464870453,"12":0.246097132563591,"13":-0.13821719586849213,"14":0.7023053169250488,"15":-0.37301111221313477,"16":-0.0062517630867660046,"17":0.08587899059057236,"18":-0.2199922800064087,"19":0.27136895060539246,"20":0.0014864524127915502,"21":-0.2136654555797577,"22":0.1874522715806961,"23":0.5465734601020813,"24":-0.3296893835067749,"25":0.7312228083610535,"26":0.36461779475212097,"27":1.5424180030822754,"28":-1.109259843826294,"29":-0.6554679870605469,"30":0.20357294380664825,"31":1.0146863460540771,"32":0.0019838872831314802,"33":-0.04229480400681496,"34":-0.2736455500125885,"35":0.343912810087204,"36":-0.054277028888463974,"37":-0.011393189430236816,"38":0.09589541703462601,"39":0.06777027994394302,"40":-0.07546404749155045,"41":0.0009652954176999629,"42":-0.31133437156677246,"43":0.4196714758872986,"44":0.01597331278026104,"45":0.07809524983167648,"46":-0.6486987471580505,"47":1.1884198188781738,"48":0.2721555531024933,"49":-0.20852360129356384,"50":-0.07076382637023926,"51":0.4337828755378723,"52":0.1797192096710205,"53":0.3860052824020386,"54":-1.1804243326187134,"55":0.8313701152801514,"56":0.7038834095001221,"57":-0.5212769508361816,"58":-0.7035132050514221,"59":0.45968133211135864,"60":0.6054962277412415,"61":0.10724156349897385,"62":-0.7281041145324707,"63":0.5756061673164368}},"forgetHidden":{"rows":8,"columns":8,"weights":{"0":0.27588188648223877,"1":-0.2867470383644104,"2":0.5471001267433167,"3":-0.28429922461509705,"4":-0.5176966786384583,"5":0.5957666635513306,"6":-0.5018498301506042,"7":0.6142402291297913,"8":0.039546530693769455,"9":-0.2987787127494812,"10":0.3550375699996948,"11":-0.46301043033599854,"12":-0.4198847711086273,"13":0.3471454381942749,"14":0.020950496196746826,"15":-0.10789453238248825,"16":-0.14704032242298126,"17":-0.3441605567932129,"18":0.21441780030727386,"19":-0.10031649470329285,"20":-0.29653510451316833,"21":0.27630358934402466,"22":-0.009465381503105164,"23":-0.08715573698282242,"24":0.25280648469924927,"25":-0.2715943455696106,"26":0.005112068727612495,"27":1.4828870296478271,"28":0.13257527351379395,"29":-0.23140226304531097,"30":-0.08239343017339706,"31":0.029697392135858536,"32":0.029802924022078514,"33":-0.2975294888019562,"34":0.19971661269664764,"35":-0.058583375066518784,"36":-0.2508275508880615,"37":0.28548482060432434,"38":-0.014757263474166393,"39":-0.045047178864479065,"40":-0.43245622515678406,"41":-0.15786543488502502,"42":0.031196674332022667,"43":0.4315001666545868,"44":-0.09774980694055557,"45":0.17596028745174408,"46":0.019492443650960922,"47":-0.22442209720611572,"48":0.049676429480314255,"49":-0.1737981140613556,"50":0.042127758264541626,"51":0.6832626461982727,"52":-0.1201920285820961,"53":0.14240723848342896,"54":-0.2350068837404251,"55":0.06974732875823975,"56":0.5024104714393616,"57":-0.49936386942863464,"58":0.5705458521842957,"59":-0.2720467448234558,"60":-0.6220232248306274,"61":0.586708128452301,"62":-0.6089537143707275,"63":0.6750686764717102}},"forgetBias":{"rows":8,"columns":1,"weights":{"0":0,"1":0,"2":0,"3":0,"4":0,"5":0,"6":0,"7":0}},"outputMatrix":{"rows":8,"columns":8,"weights":{"0":-0.2710275948047638,"1":0.412386953830719,"2":0.8748029470443726,"3":-0.26007533073425293,"4":-0.2612432539463043,"5":-0.09001766890287399,"6":-0.13137002289295197,"7":0.5251091122627258,"8":-0.29964208602905273,"9":0.3109264671802521,"10":0.0008075994555838406,"11":0.27443116903305054,"12":-0.25594577193260193,"13":-0.07151840627193451,"14":0.42743155360221863,"15":0.3599177598953247,"16":-0.17783214151859283,"17":0.3148355782032013,"18":0.4298100769519806,"19":-0.10960066318511963,"20":-0.159730464220047,"21":-0.1085386797785759,"22":0.030729161575436592,"23":0.4560316503047943,"24":1.9931068420410156,"25":-1.5180341005325317,"26":-1.8610087633132935,"27":1.9701136350631714,"28":1.4892150163650513,"29":-1.0270887613296509,"30":-0.5682054758071899,"31":1.6761870384216309,"32":-0.3074420392513275,"33":0.3196503818035126,"34":0.8380671739578247,"35":-0.22009579837322235,"36":-0.2214825600385666,"37":0.10606225579977036,"38":0.19999249279499054,"39":0.013771377503871918,"40":-0.37401747703552246,"41":0.4418405592441559,"42":0.7068173289299011,"43":-0.28078895807266235,"44":-0.2836376130580902,"45":-0.02342239022254944,"46":0.21518456935882568,"47":0.7233465909957886,"48":-0.26860591769218445,"49":0.5439666509628296,"50":0.7462520599365234,"51":-0.44038036465644836,"52":-0.11745945364236832,"53":-0.18917500972747803,"54":0.800518810749054,"55":0.3103765845298767,"56":0.029996410012245178,"57":0.32032033801078796,"58":0.20025265216827393,"59":-0.15687459707260132,"60":0.051944248378276825,"61":-0.3971624970436096,"62":0.46363580226898193,"63":0.44114768505096436}},"outputHidden":{"rows":8,"columns":8,"weights":{"0":0.3403760492801666,"1":-0.5172833204269409,"2":0.4250403344631195,"3":-0.6273214817047119,"4":-0.4292304515838623,"5":0.3809932768344879,"6":-0.5413796901702881,"7":0.8652900457382202,"8":0.003439360298216343,"9":-0.3438836932182312,"10":0.3621281087398529,"11":-0.15690051019191742,"12":-0.3356737494468689,"13":0.23633021116256714,"14":0.11701788753271103,"15":-0.16726621985435486,"16":0.09619227796792984,"17":-0.500639796257019,"18":0.35614481568336487,"19":-0.2516781687736511,"20":-0.2672213017940521,"21":0.37639129161834717,"22":-0.04489222541451454,"23":0.0004633001808542758,"24":0.49747735261917114,"25":0.6404752731323242,"26":-0.6786225438117981,"27":0.7425416707992554,"28":1.0702104568481445,"29":-0.9911142587661743,"30":0.29808783531188965,"31":0.37461957335472107,"32":0.2516619563102722,"33":-0.440385639667511,"34":0.3696403503417969,"35":-0.3891465663909912,"36":-0.20274624228477478,"37":0.2999672293663025,"38":-0.18831658363342285,"39":0.13947652280330658,"40":0.009147489443421364,"41":-0.1958225816488266,"42":0.29090240597724915,"43":-0.9617041349411011,"44":-0.17740963399410248,"45":0.3213244080543518,"46":-0.1618945151567459,"47":0.013722813688218594,"48":0.5233803391456604,"49":-0.4634273648262024,"50":0.4913208782672882,"51":-0.902503252029419,"52":-0.3090049922466278,"53":0.3600783050060272,"54":-0.6192883253097534,"55":0.5144530534744263,"56":1.4310225248336792,"57":-0.6251000165939331,"58":0.6737281084060669,"59":-1.7011364698410034,"60":-0.40321120619773865,"61":0.7149741649627686,"62":-1.022149682044983,"63":1.1583746671676636}},"outputBias":{"rows":8,"columns":1,"weights":{"0":0.5896661281585693,"1":0.5940528512001038,"2":0.33506545424461365,"3":0.12536831200122833,"4":0.4254322946071625,"5":0.2989790141582489,"6":0.41026753187179565,"7":0.4619695842266083}},"cellActivationMatrix":{"rows":8,"columns":8,"weights":{"0":0.23847909271717072,"1":-0.6272184252738953,"2":-0.30796706676483154,"3":-0.20500347018241882,"4":0.32253149151802063,"5":0.5023678541183472,"6":-0.4283492863178253,"7":0.21725338697433472,"8":-0.8638554215431213,"9":0.6615762710571289,"10":0.023043198511004448,"11":0.012119878083467484,"12":-0.6298181414604187,"13":0.25860047340393066,"14":0.2671733498573303,"15":-0.9279041290283203,"16":0.5553864240646362,"17":-0.46655023097991943,"18":0.025649143382906914,"19":0.5898982882499695,"20":0.34061405062675476,"21":0.3561563491821289,"22":-0.49787965416908264,"23":-0.09539709240198135,"24":-0.4305885136127472,"25":0.2859063148498535,"26":1.7031513452529907,"27":-0.046840887516736984,"28":-0.5811793804168701,"29":-0.1081695556640625,"30":0.5021940469741821,"31":-1.4536118507385254,"32":-0.43089616298675537,"33":0.2983987033367157,"34":0.24249179661273956,"35":-0.7585065364837646,"36":-0.3449786901473999,"37":-0.5398048758506775,"38":0.9562023282051086,"39":-0.2947443127632141,"40":0.4499099850654602,"41":-0.4384947717189789,"42":-0.29352375864982605,"43":0.96953284740448,"44":0.4065878093242645,"45":0.7120391726493835,"46":-0.5659518241882324,"47":-0.271038681268692,"48":-0.4296082556247711,"49":0.489103227853775,"50":0.38387924432754517,"51":-0.9792889952659607,"52":-0.2888198792934418,"53":-0.7669288516044617,"54":0.6125664710998535,"55":0.6302411556243896,"56":0.32659977674484253,"57":-0.24537090957164764,"58":-0.4417155683040619,"59":0.09175049513578415,"60":0.3767749071121216,"61":0.8346332907676697,"62":-0.7537438869476318,"63":0.0002294068835908547}},"cellActivationHidden":{"rows":8,"columns":8,"weights":{"0":-0.26512572169303894,"1":0.6782259941101074,"2":-0.6615601181983948,"3":1.0575101375579834,"4":0.690645694732666,"5":-0.5226824283599854,"6":0.34522631764411926,"7":-1.0193954706192017,"8":-0.2959466874599457,"9":0.2767998278141022,"10":-0.21434345841407776,"11":-1.55677330493927,"12":0.1542009860277176,"13":-0.08955489844083786,"14":0.4849095642566681,"15":-0.3610488474369049,"16":0.3566787838935852,"17":0.07604387402534485,"18":-0.09623219817876816,"19":0.36320239305496216,"20":0.3181169629096985,"21":-0.17809632420539856,"22":-0.21219272911548615,"23":0.14829584956169128,"24":0.6857554316520691,"25":-0.55162513256073,"26":0.2409382462501526,"27":-0.9248205423355103,"28":-0.2766270041465759,"29":0.5532779097557068,"30":-0.625761866569519,"31":1.0467448234558105,"32":-0.2728579044342041,"33":0.13824206590652466,"34":-0.12780219316482544,"35":-0.02130037359893322,"36":0.14785116910934448,"37":0.025847263634204865,"38":0.20069533586502075,"39":-0.38773566484451294,"40":0.26747530698776245,"41":-0.08630220592021942,"42":0.13414041697978973,"43":-0.7767680883407593,"44":-0.01113880891352892,"45":0.08716997504234314,"46":-0.12051793187856674,"47":0.38603711128234863,"48":0.04424275830388069,"49":-0.2551064193248749,"50":0.2915988862514496,"51":1.3797807693481445,"52":-0.23559801280498505,"53":0.3575291037559509,"54":-0.6357293128967285,"55":0.4329363703727722,"56":-0.888958752155304,"57":0.18270528316497803,"58":-0.42030683159828186,"59":-0.6169666051864624,"60":-0.14587651193141937,"61":-0.16131697595119476,"62":0.6324394941329956,"63":-0.5158444046974182}},"cellActivationBias":{"rows":8,"columns":1,"weights":{"0":-0.13370639085769653,"1":0.18489868938922882,"2":-0.12221621721982956,"3":0.5338691473007202,"4":0.017262203618884087,"5":-0.08688995242118835,"6":0.1075485497713089,"7":-0.2512500286102295}}}],"outputConnector":{"rows":4,"columns":8,"weights":{"0":-0.10789275914430618,"1":0.7918257117271423,"2":-0.3200538456439972,"3":-0.33390355110168457,"4":0.33330389857292175,"5":-0.3015731871128082,"6":-0.02066241018474102,"7":-0.45754602551460266,"8":0.03401662036776543,"9":0.18538466095924377,"10":-0.3531889021396637,"11":0.2898826003074646,"12":0.22488102316856384,"13":-0.6611904501914978,"14":0.7249424457550049,"15":-0.16156217455863953,"16":-0.6840423345565796,"17":0.5813977122306824,"18":-0.45011594891548157,"19":0.41177767515182495,"20":0.47212710976600647,"21":-0.33680906891822815,"22":0.0855187401175499,"23":0.05683114007115364,"24":-0.14290396869182587,"25":-0.0494893379509449,"26":-0.0461614616215229,"27":0.7678403258323669,"28":0.3848757743835449,"29":-0.25287356972694397,"30":0.4905627965927124,"31":-0.5714561343193054}},"output":{"rows":4,"columns":1,"weights":{"0":0.2712635397911072,"1":0.6239730715751648,"2":0.22310319542884827,"3":0.6285727620124817}},"inputLookup":{"open":0,"high":1,"low":2,"close":3},"inputLookupLength":4,"outputLookup":{"open":0,"high":1,"low":2,"close":3},"outputLookupLength":4}