{"sizes":[49,20,10,10],"layers":[{"0":{},"1":{},"2":{},"3":{},"4":{},"5":{},"6":{},"7":{},"8":{},"9":{},"10":{},"11":{},"12":{},"13":{},"14":{},"15":{},"16":{},"17":{},"18":{},"19":{},"20":{},"21":{},"22":{},"23":{},"24":{},"25":{},"26":{},"27":{},"28":{},"29":{},"30":{},"31":{},"32":{},"33":{},"34":{},"35":{},"36":{},"37":{},"38":{},"39":{},"40":{},"41":{},"42":{},"43":{},"44":{},"45":{},"46":{},"47":{},"48":{}},{"0":{"bias":0.2750949263572693,"weights":{"0":-0.06713657081127167,"1":-0.09256206452846527,"2":-0.10440674424171448,"3":0.22386150062084198,"4":-0.450510710477829,"5":-0.1215023398399353,"6":0.0038370077963918447,"7":0.130197674036026,"8":-0.07467400282621384,"9":-0.14976100623607635,"10":0.3832685351371765,"11":0.0727524384856224,"12":-0.04145652428269386,"13":-0.25015008449554443,"14":-0.05251213163137436,"15":0.3502473533153534,"16":0.18363679945468903,"17":0.6728023290634155,"18":0.2066871076822281,"19":0.19025102257728577,"20":-0.04946202412247658,"21":-0.027306433767080307,"22":0.07741539925336838,"23":-0.06766390800476074,"24":0.3579525649547577,"25":-0.2689260244369507,"26":-0.1902899146080017,"27":-0.1896819919347763,"28":-0.26236411929130554,"29":-0.05596906319260597,"30":0.12232837080955505,"31":0.47945791482925415,"32":-0.15233191847801208,"33":-0.03385816514492035,"34":-0.16116903722286224,"35":-0.0721246674656868,"36":0.15173853933811188,"37":-0.004239486064761877,"38":0.44373106956481934,"39":0.1967409998178482,"40":0.18591099977493286,"41":-0.010265356861054897,"42":-0.34032005071640015,"43":-0.4068479537963867,"44":-0.31593793630599976,"45":0.07786612957715988,"46":-0.23575946688652039,"47":-0.1645001322031021,"48":-0.09880039095878601}},"1":{"bias":0.18631696701049805,"weights":{"0":-0.05501466616988182,"1":-0.014333046041429043,"2":-0.17068591713905334,"3":0.0329313687980175,"4":-0.10383092612028122,"5":-0.07985368371009827,"6":0.2748929262161255,"7":-0.08618250489234924,"8":0.14286723732948303,"9":0.003749395487830043,"10":-0.005909099709242582,"11":-0.006698382552713156,"12":0.14286638796329498,"13":1.005735158920288,"14":-0.3151807188987732,"15":0.03425802290439606,"16":0.3957914710044861,"17":0.42040255665779114,"18":0.08423137664794922,"19":0.15958568453788757,"20":0.6704886555671692,"21":-0.2239813655614853,"22":-0.3189559578895569,"23":-0.42958924174308777,"24":-0.3794098496437073,"25":-0.3389231860637665,"26":-0.3608096241950989,"27":0.25166594982147217,"28":0.5204951763153076,"29":-0.01994733139872551,"30":0.06435015052556992,"31":-0.05788910761475563,"32":0.11882539838552475,"33":-0.0866374671459198,"34":-0.515579879283905,"35":0.4873162806034088,"36":0.1083265095949173,"37":-0.12875857949256897,"38":0.14174547791481018,"39":0.19521161913871765,"40":0.1964300274848938,"41":-0.3657710552215576,"42":0.05217994749546051,"43":0.022990474477410316,"44":0.20413517951965332,"45":0.11828722804784775,"46":-0.07498054951429367,"47":0.19750021398067474,"48":-0.016719920560717583}},"2":{"bias":0.05423939228057861,"weights":{"0":0.21661394834518433,"1":0.26578399538993835,"2":0.15317457914352417,"3":0.2724074125289917,"4":0.02124309167265892,"5":0.2897520363330841,"6":0.07517865300178528,"7":0.12542933225631714,"8":-0.06190904974937439,"9":0.13759967684745789,"10":-0.027062727138400078,"11":0.051849305629730225,"12":0.1796778440475464,"13":0.2418413907289505,"14":0.02510787546634674,"15":0.10102913528680801,"16":-0.11829523742198944,"17":0.2055858075618744,"18":-0.19893167912960052,"19":0.13839295506477356,"20":0.00859506893903017,"21":-0.029792796820402145,"22":0.07746187597513199,"23":0.21544386446475983,"24":0.20661184191703796,"25":0.016007252037525177,"26":0.3574391305446625,"27":0.10566815733909607,"28":-0.9750352501869202,"29":0.10154800862073898,"30":-0.11163011193275452,"31":0.25768226385116577,"32":-0.19920799136161804,"33":0.08979818224906921,"34":0.3826243281364441,"35":-0.9531070590019226,"36":0.18197046220302582,"37":0.12085413932800293,"38":0.00012354875798337162,"39":0.07816698402166367,"40":0.16931059956550598,"41":0.3124920427799225,"42":-0.3606274127960205,"43":-0.7252877950668335,"44":-0.6413863897323608,"45":-0.6133949160575867,"46":-0.4517432749271393,"47":-0.6072651743888855,"48":0.19326384365558624}},"3":{"bias":-0.29225653409957886,"weights":{"0":0.11058644205331802,"1":0.2879908084869385,"2":0.5016555190086365,"3":0.017645297572016716,"4":0.49865618348121643,"5":0.3396618068218231,"6":0.0630372017621994,"7":0.2908775508403778,"8":-0.08007095009088516,"9":0.1649995893239975,"10":-0.22142405807971954,"11":0.18384923040866852,"12":-0.051128339022397995,"13":-0.487797349691391,"14":0.3243451714515686,"15":-0.5161901712417603,"16":-0.5376197099685669,"17":-0.7915566563606262,"18":-0.2642565071582794,"19":-0.3246728777885437,"20":-0.7321129441261292,"21":-0.10999983549118042,"22":0.6152985095977783,"23":0.4142167568206787,"24":0.28249573707580566,"25":0.5648171305656433,"26":0.37259185314178467,"27":0.09209895879030228,"28":-0.9003095626831055,"29":0.0676388218998909,"30":0.0907992571592331,"31":-0.2992900609970093,"32":0.02787563018500805,"33":0.13278290629386902,"34":0.7679511308670044,"35":-1.0213981866836548,"36":0.10811629146337509,"37":-0.008385628461837769,"38":-0.29841282963752747,"39":0.07647518068552017,"40":-0.11922314763069153,"41":0.8602856397628784,"42":-0.4622574746608734,"43":-0.22970382869243622,"44":-0.26502737402915955,"45":-0.6507164239883423,"46":-0.21116326749324799,"47":-0.4466859996318817,"48":0.047785162925720215}},"4":{"bias":-0.38174542784690857,"weights":{"0":-0.11116825044155121,"1":-0.19821760058403015,"2":0.03303692489862442,"3":-0.07245080918073654,"4":-0.10259028524160385,"5":0.13387465476989746,"6":0.010676974430680275,"7":-0.10982239246368408,"8":-0.037196844816207886,"9":-0.17007194459438324,"10":0.012428791262209415,"11":0.19173045456409454,"12":-0.11276638507843018,"13":-0.12508223950862885,"14":-0.09354133903980255,"15":-0.029790693894028664,"16":-0.04156673327088356,"17":-0.369403600692749,"18":-0.032147351652383804,"19":-0.19063635170459747,"20":-0.35557854175567627,"21":0.08257297426462173,"22":-0.22998349368572235,"23":-0.07490473985671997,"24":-0.2955663502216339,"25":-0.07571408897638321,"26":0.11056245118379593,"27":0.04799076169729233,"28":0.3212064206600189,"29":0.034978121519088745,"30":-0.07584725320339203,"31":-0.27196162939071655,"32":-0.0680646225810051,"33":0.13813012838363647,"34":-0.10066728293895721,"35":0.4536490738391876,"36":0.19166181981563568,"37":0.14216360449790955,"38":-0.31082087755203247,"39":0.03948907181620598,"40":-0.13811667263507843,"41":-0.3773820698261261,"42":0.7451497316360474,"43":0.6354378461837769,"44":0.9025995135307312,"45":0.5480123162269592,"46":0.8461323976516724,"47":0.7601745128631592,"48":-0.052800826728343964}},"5":{"bias":-0.10408640652894974,"weights":{"0":-0.13690954446792603,"1":-0.22018717229366302,"2":0.14407040178775787,"3":0.2958897352218628,"4":-0.17106710374355316,"5":-0.10290779173374176,"6":-0.0517839752137661,"7":0.04190507531166077,"8":-0.1413281112909317,"9":0.1751013994216919,"10":0.36307424306869507,"11":0.05703951418399811,"12":0.0635652095079422,"13":-1.0095984935760498,"14":0.26692935824394226,"15":-0.16738350689411163,"16":-0.26712092757225037,"17":-0.07515823096036911,"18":-0.11697059124708176,"19":-0.17419271171092987,"20":-1.0093106031417847,"21":0.3670845031738281,"22":0.4939152002334595,"23":0.5303000807762146,"24":0.9025996923446655,"25":0.4532758593559265,"26":0.7092854380607605,"27":0.021244272589683533,"28":-0.5823698043823242,"29":0.05819033458828926,"30":0.16040769219398499,"31":0.20491887629032135,"32":0.03001990169286728,"33":0.1794620007276535,"34":-0.09538564085960388,"35":-0.5388752222061157,"36":0.0817471593618393,"37":0.017848001793026924,"38":0.2862095832824707,"39":-0.18570633232593536,"40":-0.018794160336256027,"41":0.22449970245361328,"42":-0.23348650336265564,"43":-0.08147299289703369,"44":-0.3248896896839142,"45":-0.08489635586738586,"46":-0.12169398367404938,"47":-0.3298647105693817,"48":0.03176221251487732}},"6":{"bias":-0.4246862530708313,"weights":{"0":-0.052656494081020355,"1":0.32873839139938354,"2":0.1469641476869583,"3":-0.07403586059808731,"4":0.3977351188659668,"5":0.3236895799636841,"6":0.07096546143293381,"7":-0.1960468292236328,"8":-0.061139147728681564,"9":-0.1482630968093872,"10":-0.25936251878738403,"11":0.17517903447151184,"12":0.014583810232579708,"13":-0.18184144794940948,"14":-0.12365474551916122,"15":-0.2812071442604065,"16":-0.08979738503694534,"17":-0.6236713528633118,"18":-0.18892094492912292,"19":-0.27594953775405884,"20":-0.31656381487846375,"21":0.24665628373622894,"22":0.3316371440887451,"23":0.31821975111961365,"24":-0.16995851695537567,"25":0.35553398728370667,"26":0.3907035291194916,"27":-0.1920873522758484,"28":0.23218151926994324,"29":-0.02711961790919304,"30":0.10771169513463974,"31":-0.38367941975593567,"32":0.1617431938648224,"33":-0.035980407148599625,"34":-0.002736965660005808,"35":-0.004957899451255798,"36":0.15329842269420624,"37":-0.03874458745121956,"38":-0.3360338807106018,"39":0.0577968992292881,"40":-0.17433467507362366,"41":0.07954391837120056,"42":0.3652239739894867,"43":0.2776898443698883,"44":0.057500846683979034,"45":-0.003446366870775819,"46":0.010187153704464436,"47":0.00256509892642498,"48":0.01638418808579445}},"7":{"bias":0.09736304730176926,"weights":{"0":0.4021851420402527,"1":-0.09149941056966782,"2":-0.06860984116792679,"3":-0.07183058559894562,"4":-0.21691979467868805,"5":0.10189030319452286,"6":0.22991728782653809,"7":-0.03635212779045105,"8":0.19160614907741547,"9":0.14736388623714447,"10":0.16874484717845917,"11":0.03462005406618118,"12":-0.09254886209964752,"13":0.7248924970626831,"14":-0.06664824485778809,"15":0.19012489914894104,"16":0.2873363792896271,"17":0.14587560296058655,"18":0.21954287588596344,"19":0.23546835780143738,"20":0.6466830968856812,"21":-0.33893632888793945,"22":-0.674742579460144,"23":-0.5955678224563599,"24":-0.6275680661201477,"25":-0.4718538522720337,"26":-0.7631435394287109,"27":0.16425298154354095,"28":1.129414439201355,"29":-0.039039235562086105,"30":-0.17972680926322937,"31":-0.1777288168668747,"32":-0.11697831004858017,"33":-0.1354997158050537,"34":-0.42666375637054443,"35":1.00377357006073,"36":-0.08703255653381348,"37":0.12177710235118866,"38":-0.042796410620212555,"39":-0.1336831897497177,"40":0.12540468573570251,"41":-0.410450279712677,"42":0.0849887803196907,"43":0.29434168338775635,"44":0.27554500102996826,"45":0.0560065433382988,"46":0.1369042545557022,"47":-0.05941085144877434,"48":0.33068567514419556}},"8":{"bias":0.1051277220249176,"weights":{"0":0.2226651906967163,"1":-0.07216889411211014,"2":-0.22448305785655975,"3":-0.03149283304810524,"4":0.07628034800291061,"5":0.018811015412211418,"6":0.22575893998146057,"7":0.3466736674308777,"8":0.11071871966123581,"9":0.021242655813694,"10":-0.10149694979190826,"11":0.0897727981209755,"12":-0.17624032497406006,"13":0.14823292195796967,"14":0.43782445788383484,"15":0.4390389919281006,"16":0.45273029804229736,"17":0.43799200654029846,"18":0.09098903089761734,"19":0.1972046047449112,"20":0.35044828057289124,"21":-0.4197421073913574,"22":-0.7318854928016663,"23":-0.6617385745048523,"24":-0.8743779063224792,"25":-0.755044162273407,"26":-0.9060378670692444,"27":0.18569901585578918,"28":0.9637763500213623,"29":-0.16459780931472778,"30":0.11771919578313828,"31":0.059719692915678024,"32":0.04043210670351982,"33":0.12055706232786179,"34":0.27964648604393005,"35":0.9904886484146118,"36":-0.03190648555755615,"37":0.12384618818759918,"38":0.11776307225227356,"39":0.10559264570474625,"40":0.17724847793579102,"41":0.3555060625076294,"42":-0.10007527470588684,"43":0.0423886775970459,"44":0.12144339829683304,"45":0.034766945987939835,"46":-0.04429938644170761,"47":0.15786108374595642,"48":0.11624957621097565}},"9":{"bias":0.2608255445957184,"weights":{"0":0.1448613703250885,"1":-0.2818790376186371,"2":-0.3371143639087677,"3":0.059004392474889755,"4":-0.36564287543296814,"5":-0.1310359537601471,"6":0.1950194239616394,"7":0.510601818561554,"8":0.06268096715211868,"9":-0.12361005693674088,"10":0.07448597252368927,"11":0.09806540608406067,"12":-0.16697512567043304,"13":0.29739895462989807,"14":0.17499443888664246,"15":0.3146757483482361,"16":0.11710095405578613,"17":0.4586273431777954,"18":0.24799953401088715,"19":0.2182619273662567,"20":0.1554921269416809,"21":-0.12420877814292908,"22":-0.1459328830242157,"23":-0.38872581720352173,"24":-0.3567073345184326,"25":-0.34634941816329956,"26":-0.1540936529636383,"27":-0.12765957415103912,"28":0.7997999787330627,"29":-0.1540917009115219,"30":0.053748540580272675,"31":0.10051652789115906,"32":-0.080083929002285,"33":-0.0825648307800293,"34":-0.0673094168305397,"35":0.769870936870575,"36":0.03097386844456196,"37":0.11467485874891281,"38":0.2617492973804474,"39":0.16179189085960388,"40":-0.1405745893716812,"41":-0.25380489230155945,"42":-0.11892963945865631,"43":-0.006366720423102379,"44":0.13910193741321564,"45":0.25370973348617554,"46":-0.11202658712863922,"47":-0.15015508234500885,"48":0.2460496425628662}},"10":{"bias":-0.2230021208524704,"weights":{"0":0.35956883430480957,"1":0.03307227045297623,"2":0.061364900320768356,"3":-0.35720646381378174,"4":-0.2487594485282898,"5":-0.29154589772224426,"6":0.16544096171855927,"7":1.2746288776397705,"8":0.014223670586943626,"9":-0.1571727991104126,"10":-0.3287070393562317,"11":0.054444726556539536,"12":0.04999944940209389,"13":-0.45508673787117004,"14":1.0893232822418213,"15":0.2070671170949936,"16":0.3318866491317749,"17":-0.24989472329616547,"18":0.22175253927707672,"19":0.16885250806808472,"20":-0.5989391803741455,"21":-0.2597675919532776,"22":-0.8746270537376404,"23":-0.8192352056503296,"24":-1.12654709815979,"25":-0.6850839853286743,"26":-0.7852596640586853,"27":0.17879198491573334,"28":1.1708035469055176,"29":-0.19721679389476776,"30":0.06207315996289253,"31":-0.414325475692749,"32":0.11236519366502762,"33":0.04881414398550987,"34":0.6059053540229797,"35":1.1304304599761963,"36":0.08576849848031998,"37":-0.004706073086708784,"38":-0.5380954742431641,"39":0.04592837765812874,"40":0.16660968959331512,"41":0.5513777732849121,"42":0.17450657486915588,"43":0.4431419372558594,"44":0.07744329422712326,"45":-0.08198852092027664,"46":0.4589354693889618,"47":0.2744435966014862,"48":0.2868681848049164}},"11":{"bias":-0.199748694896698,"weights":{"0":-0.21164795756340027,"1":0.2635587751865387,"2":0.3367481827735901,"3":0.07690875977277756,"4":0.24548952281475067,"5":0.28094273805618286,"6":0.0647265687584877,"7":-0.9311991930007935,"8":-0.024151945486664772,"9":0.07372067123651505,"10":0.04605642706155777,"11":0.19598045945167542,"12":-0.0021497372072190046,"13":0.941645622253418,"14":-0.8596071004867554,"15":-0.363972544670105,"16":-0.14853261411190033,"17":-0.4140573740005493,"18":-0.13909843564033508,"19":-0.20129737257957458,"20":1.0147587060928345,"21":-0.12248017638921738,"22":0.4655005931854248,"23":0.4479263424873352,"24":0.18313847482204437,"25":0.36884182691574097,"26":0.34558814764022827,"27":-0.07251692563295364,"28":-0.1784096658229828,"29":-0.06350702792406082,"30":-0.06046155467629433,"31":0.09493689239025116,"32":-0.00021743695833720267,"33":-0.07614749670028687,"34":-0.2431849241256714,"35":-0.237318754196167,"36":-0.1492234170436859,"37":0.18570907413959503,"38":-0.08126532286405563,"39":-0.11706680059432983,"40":-0.0787026658654213,"41":-0.1116294339299202,"42":-0.23959358036518097,"43":-0.08715832978487015,"44":-0.1028859093785286,"45":-0.2329864799976349,"46":-0.19649721682071686,"47":-0.0992620661854744,"48":-0.25029075145721436}},"12":{"bias":0.2350608855485916,"weights":{"0":-0.18174178898334503,"1":0.39673787355422974,"2":0.3100578486919403,"3":0.408351868391037,"4":0.15666228532791138,"5":0.330471932888031,"6":-0.10796307772397995,"7":-1.2597895860671997,"8":0.07763158529996872,"9":-0.031113460659980774,"10":0.41593366861343384,"11":0.009094959124922752,"12":0.04179699346423149,"13":1.240803599357605,"14":-1.1974682807922363,"15":-0.42154788970947266,"16":-0.382663756608963,"17":0.14895157516002655,"18":-0.29719313979148865,"19":-0.3542439937591553,"20":1.2099289894104004,"21":0.16599470376968384,"22":0.6167291402816772,"23":0.7434555888175964,"24":0.737188994884491,"25":0.5933729410171509,"26":0.47608715295791626,"27":-0.22382338345050812,"28":-0.7858960628509521,"29":-0.15735436975955963,"30":-0.12950269877910614,"31":0.33638784289360046,"32":0.011187114752829075,"33":0.13987497985363007,"34":-0.5232599973678589,"35":-0.7647935748100281,"36":0.0736742839217186,"37":0.17391079664230347,"38":0.1668950468301773,"39":-0.07138333469629288,"40":0.0728033259510994,"41":-0.39023321866989136,"42":-0.19676661491394043,"43":-0.32406842708587646,"44":-0.40971648693084717,"45":-0.2874296009540558,"46":-0.35048437118530273,"47":-0.40102720260620117,"48":0.006115166936069727}},"13":{"bias":-0.33272844552993774,"weights":{"0":0.13916528224945068,"1":0.2286093831062317,"2":0.25944429636001587,"3":-0.061773668974637985,"4":0.2616375684738159,"5":0.24233826994895935,"6":0.04296134039759636,"7":0.3731124699115753,"8":-0.015983261168003082,"9":0.12943504750728607,"10":-0.2997593581676483,"11":-0.09001386910676956,"12":0.08009355515241623,"13":-0.2464037984609604,"14":0.39382871985435486,"15":-0.024607013911008835,"16":-0.18807533383369446,"17":-0.18549706041812897,"18":0.008255872875452042,"19":-0.12085916846990585,"20":-0.02227473072707653,"21":0.24045149981975555,"22":-0.02339646779000759,"23":0.22522424161434174,"24":-0.08553718030452728,"25":-0.08647341281175613,"26":-0.11338753253221512,"27":-0.03460743650794029,"28":0.04485807940363884,"29":-0.13373880088329315,"30":-0.019890332594513893,"31":-0.11422411352396011,"32":-0.03216739371418953,"33":0.08280416578054428,"34":0.1361345797777176,"35":-0.03288519009947777,"36":-0.10246462374925613,"37":-0.02317589335143566,"38":-0.4856470823287964,"39":-0.01795930229127407,"40":-0.14370612800121307,"41":-0.046252887696027756,"42":0.09586239606142044,"43":0.1708575040102005,"44":0.2961720824241638,"45":-0.20280015468597412,"46":-0.05417085438966751,"47":0.08936676383018494,"48":0.14411360025405884}},"14":{"bias":0.5309365391731262,"weights":{"0":0.2874700427055359,"1":0.16992934048175812,"2":0.01664539985358715,"3":0.18039904534816742,"4":0.0420808419585228,"5":0.07231076806783676,"6":0.37026262283325195,"7":0.7979254126548767,"8":0.06245981156826019,"9":0.008893479593098164,"10":0.10658670216798782,"11":-0.05481414124369621,"12":0.13856565952301025,"13":-1.026820182800293,"14":0.6789799332618713,"15":0.22776997089385986,"16":0.17029140889644623,"17":0.41673043370246887,"18":0.09507719427347183,"19":0.0004553794569801539,"20":-1.2459113597869873,"21":-0.008469289168715477,"22":0.3565213084220886,"23":0.050891704857349396,"24":0.5947145819664001,"25":0.41371285915374756,"26":0.22405773401260376,"27":0.19527274370193481,"28":-0.9940550327301025,"29":-0.1905970424413681,"30":-0.1399490386247635,"31":0.08045797795057297,"32":0.0228117685765028,"33":0.06726180762052536,"34":0.7536069750785828,"35":-0.7724799513816833,"36":0.01903899386525154,"37":0.12531141936779022,"38":0.3016422688961029,"39":-0.00015339956735260785,"40":0.18828295171260834,"41":0.8358278870582581,"42":-0.5446362495422363,"43":-0.7369471788406372,"44":-0.8059167861938477,"45":-0.27990689873695374,"46":-0.7445784211158752,"47":-0.5926687717437744,"48":0.09197112917900085}},"15":{"bias":0.2677817642688751,"weights":{"0":-0.09867556393146515,"1":-0.0842113196849823,"2":-0.04306960478425026,"3":0.17508022487163544,"4":-0.1932828575372696,"5":-0.004349296912550926,"6":0.21608971059322357,"7":0.5154771208763123,"8":0.10774437338113785,"9":0.06377890706062317,"10":0.15636704862117767,"11":-0.15811841189861298,"12":-0.09848049283027649,"13":-0.41836509108543396,"14":0.4182979464530945,"15":0.09387540817260742,"16":0.34031862020492554,"17":0.3287259042263031,"18":0.35705795884132385,"19":0.22578641772270203,"20":-0.2702831029891968,"21":-0.06768906116485596,"22":-0.09564919024705887,"23":-0.01992223598062992,"24":0.30202630162239075,"25":-0.13107196986675262,"26":0.02734665386378765,"27":0.04940006136894226,"28":0.013811488635838032,"29":-0.09671583771705627,"30":-0.02923584170639515,"31":0.2763417959213257,"32":-0.022221935912966728,"33":-0.11910149455070496,"34":0.20973356068134308,"35":-0.25744253396987915,"36":-0.052978403866291046,"37":0.1330125629901886,"38":0.323331743478775,"39":0.053987253457307816,"40":-0.13134512305259705,"41":-0.040858421474695206,"42":-0.47523975372314453,"43":-0.3946878910064697,"44":-0.3726566731929779,"45":-0.08490198105573654,"46":-0.3712080419063568,"47":-0.24215924739837646,"48":-0.09576545655727386}},"16":{"bias":-0.16821841895580292,"weights":{"0":-0.34842637181282043,"1":0.07263515889644623,"2":0.058890704065561295,"3":0.16018332540988922,"4":-0.11416885256767273,"5":0.020523102954030037,"6":-0.2263781875371933,"7":-0.31383922696113586,"8":0.18879655003547668,"9":0.10050537437200546,"10":0.18274174630641937,"11":0.13556315004825592,"12":0.03606458753347397,"13":-0.07691983133554459,"14":-0.27770859003067017,"15":-0.11709465086460114,"16":-0.11132965981960297,"17":-0.21578994393348694,"18":-0.2386130839586258,"19":-0.22512570023536682,"20":0.18711815774440765,"21":0.4405234158039093,"22":0.8159007430076599,"23":0.5859318375587463,"24":0.6569865345954895,"25":0.7952890992164612,"26":0.5745259523391724,"27":-0.19901524484157562,"28":-0.4643084406852722,"29":0.059212472289800644,"30":0.15231141448020935,"31":0.12291153520345688,"32":0.09242851287126541,"33":0.07107504457235336,"34":-0.25240081548690796,"35":-0.5528401732444763,"36":0.016442380845546722,"37":-0.19363512098789215,"38":0.13815243542194366,"39":0.14487434923648834,"40":0.04036137834191322,"41":-0.21375957131385803,"42":0.14033585786819458,"43":-0.21797966957092285,"44":-0.020306702703237534,"45":0.06748674809932709,"46":-0.1432257443666458,"47":0.16455750167369843,"48":-0.2176211029291153}},"17":{"bias":0.05796002224087715,"weights":{"0":0.27365365624427795,"1":0.07757346332073212,"2":-0.12396475672721863,"3":-0.1413615196943283,"4":-0.09890337288379669,"5":0.08238357305526733,"6":0.2943509817123413,"7":0.4834275543689728,"8":0.11896029114723206,"9":-0.08570937812328339,"10":-0.00020709676027763635,"11":0.1282672882080078,"12":0.08781855553388596,"13":0.45577576756477356,"14":0.5447571873664856,"15":0.07151400297880173,"16":0.07355824112892151,"17":0.14841341972351074,"18":0.11946024745702744,"19":0.14429834485054016,"20":0.4020472466945648,"21":-0.3203534483909607,"22":-0.7628514170646667,"23":-0.5587382316589355,"24":-0.9549020528793335,"25":-0.5825033783912659,"26":-0.7046529054641724,"27":0.21308177709579468,"28":0.6465686559677124,"29":-0.09982257336378098,"30":-0.11372360587120056,"31":-0.01188814640045166,"32":-0.18452328443527222,"33":-0.18950146436691284,"34":0.4032372236251831,"35":0.3700522482395172,"36":-0.13815228641033173,"37":0.11086101084947586,"38":0.005964199546724558,"39":-0.0401533804833889,"40":0.17378605902194977,"41":0.40879520773887634,"42":-0.047536566853523254,"43":0.015627918764948845,"44":-0.13070185482501984,"45":-0.028118684887886047,"46":-0.23345570266246796,"47":-0.2119404524564743,"48":0.26173800230026245}},"18":{"bias":-0.2823079228401184,"weights":{"0":-0.005382533650845289,"1":0.08705664426088333,"2":-0.16794182360172272,"3":-0.49063050746917725,"4":-0.13410840928554535,"5":-0.2652936577796936,"6":-0.12785181403160095,"7":0.22340472042560577,"8":-0.11390643566846848,"9":0.06416123360395432,"10":-0.3458205759525299,"11":-0.15488658845424652,"12":0.08533100038766861,"13":0.11256285011768341,"14":0.06453779339790344,"15":0.020479071885347366,"16":0.17350360751152039,"17":-0.5012837648391724,"18":-0.12095671892166138,"19":0.13980905711650848,"20":-0.09466580301523209,"21":0.21253067255020142,"22":-0.03096625581383705,"23":-0.26248443126678467,"24":-0.5287830233573914,"25":-0.08175082504749298,"26":-0.2547776699066162,"27":-0.2042730301618576,"28":0.8956111073493958,"29":-0.026677919551730156,"30":-0.06253562867641449,"31":-0.45602115988731384,"32":0.15463604032993317,"33":-0.040211573243141174,"34":-0.41263729333877563,"35":1.1230412721633911,"36":-0.059428196400403976,"37":-0.13044998049736023,"38":-0.5097944140434265,"39":-0.1445712149143219,"40":0.14705488085746765,"41":-0.29829174280166626,"42":0.4818239212036133,"43":0.40187200903892517,"44":0.585544228553772,"45":0.2463396191596985,"46":0.5918955206871033,"47":0.627516508102417,"48":-0.003081748029217124}},"19":{"bias":0.3515479564666748,"weights":{"0":-0.13511547446250916,"1":-0.3347582519054413,"2":-0.242883563041687,"3":0.12909246981143951,"4":-0.3934004008769989,"5":-0.3391670882701874,"6":-0.07727145403623581,"7":0.11161219328641891,"8":-0.06737492233514786,"9":0.03919912874698639,"10":0.4239990711212158,"11":0.021919794380664825,"12":-0.1781754195690155,"13":-0.06532968580722809,"14":0.4246927499771118,"15":0.2849956750869751,"16":0.40187376737594604,"17":0.8133971691131592,"18":0.19552651047706604,"19":0.13724318146705627,"20":0.1633509248495102,"21":0.01547564473003149,"22":0.07407936453819275,"23":-0.06140369176864624,"24":0.2066289186477661,"25":0.13486725091934204,"26":-0.15899930894374847,"27":0.07957268506288528,"28":-0.34788668155670166,"29":0.19394753873348236,"30":0.08679156005382538,"31":0.4870842695236206,"32":-0.1399853229522705,"33":0.05294377729296684,"34":-0.06869310885667801,"35":-0.2144494354724884,"36":-0.08350325375795364,"37":0.17399466037750244,"38":0.49446460604667664,"39":-0.01837780885398388,"40":0.13830417394638062,"41":0.007785213645547628,"42":-0.5190967321395874,"43":-0.3736613690853119,"44":-0.3126566708087921,"45":-0.023377710953354836,"46":-0.31699249148368835,"47":-0.4194043278694153,"48":-0.13497421145439148}}},{"0":{"bias":-0.008459432981908321,"weights":{"0":0.3848945200443268,"1":0.29263296723365784,"2":-0.1983550637960434,"3":-0.37513360381126404,"4":0.04143700376152992,"5":-0.6221129298210144,"6":-0.25206026434898376,"7":0.6180030703544617,"8":1.4102047681808472,"9":0.7375930547714233,"10":1.4013428688049316,"11":-0.441398024559021,"12":-1.2911635637283325,"13":0.06456993520259857,"14":-0.269368976354599,"15":0.33649754524230957,"16":-0.8293970823287964,"17":1.194261908531189,"18":0.24791106581687927,"19":0.2723572850227356}},"1":{"bias":0.2798745334148407,"weights":{"0":-0.5368399024009705,"1":-0.24667410552501678,"2":-1.7600668668746948,"3":-0.11129479855298996,"4":2.5021631717681885,"5":0.04144164174795151,"6":1.2002811431884766,"7":0.007355314213782549,"8":-0.7093172073364258,"9":-0.5772632956504822,"10":0.637407124042511,"11":0.195561483502388,"12":-0.5864808559417725,"13":0.6725127696990967,"14":-1.544839859008789,"15":-0.8661481738090515,"16":0.5972540974617004,"17":-0.9432005882263184,"18":1.914618730545044,"19":-1.1110926866531372}},"2":{"bias":-0.06527093052864075,"weights":{"0":0.6426932215690613,"1":-1.1066839694976807,"2":0.6172176599502563,"3":0.8733243942260742,"4":-0.7105271816253662,"5":1.7968230247497559,"6":-0.31427985429763794,"7":-1.2326064109802246,"8":-0.3587297797203064,"9":-0.014176035299897194,"10":0.6613685488700867,"11":-1.550668478012085,"12":-1.7302310466766357,"13":0.10568397492170334,"14":2.625910997390747,"15":1.1602751016616821,"16":0.03596378117799759,"17":-0.3397446572780609,"18":-0.740262508392334,"19":0.7178009748458862}},"3":{"bias":0.2340804785490036,"weights":{"0":0.32722559571266174,"1":1.0643404722213745,"2":-0.10063210129737854,"3":-1.58637535572052,"4":-0.1531805545091629,"5":-0.9710311889648438,"6":-0.4158451557159424,"7":1.271213173866272,"8":0.9697362780570984,"9":0.7647321224212646,"10":-0.13181576132774353,"11":0.42213210463523865,"12":0.884868860244751,"13":-0.17147061228752136,"14":-1.4031987190246582,"15":0.1812649667263031,"16":-0.30666059255599976,"17":0.9423433542251587,"18":-0.015607100911438465,"19":0.49325430393218994}},"4":{"bias":-0.5823519825935364,"weights":{"0":-0.03497700020670891,"1":0.467418372631073,"2":-0.5773783922195435,"3":-1.3212215900421143,"4":0.09527083486318588,"5":-1.0677220821380615,"6":-1.046769380569458,"7":0.6142475605010986,"8":1.3129221200942993,"9":0.7784510850906372,"10":1.2147074937820435,"11":-1.5262835025787354,"12":-2.26562762260437,"13":-0.4329177737236023,"14":-0.6341261863708496,"15":0.29494595527648926,"16":-1.2315244674682617,"17":0.889521598815918,"18":0.09773906320333481,"19":0.40556761622428894}},"5":{"bias":0.15914838016033173,"weights":{"0":0.517496645450592,"1":-0.7410228252410889,"2":1.8923249244689941,"3":1.636130452156067,"4":-1.0401103496551514,"5":0.5863866806030273,"6":-0.1764264702796936,"7":-1.4682155847549438,"8":-1.037859320640564,"9":-0.9441842436790466,"10":-1.9772850275039673,"11":0.5395520925521851,"12":1.9625245332717896,"13":-0.36924922466278076,"14":2.052839517593384,"15":0.23548468947410583,"16":0.4435102939605713,"17":-0.22406435012817383,"18":-2.1223042011260986,"19":0.4679614007472992}},"6":{"bias":0.030003728345036507,"weights":{"0":1.450197696685791,"1":0.1181391105055809,"2":-0.37534815073013306,"3":-1.3786380290985107,"4":-0.40509071946144104,"5":0.6965911984443665,"6":-1.1142624616622925,"7":0.09572569280862808,"8":0.013622567057609558,"9":0.7295483350753784,"10":-0.7441607117652893,"11":-0.8826231360435486,"12":-0.29066815972328186,"13":-0.7889736890792847,"14":0.42141517996788025,"15":0.7000575065612793,"16":-0.04440810903906822,"17":-0.31958702206611633,"18":-0.789482593536377,"19":1.6618146896362305}},"7":{"bias":0.21398915350437164,"weights":{"0":0.6038655042648315,"1":0.41017135977745056,"2":0.017088454216718674,"3":-1.1779643297195435,"4":-0.33248692750930786,"5":0.39432209730148315,"6":-0.28037628531455994,"7":-0.30714282393455505,"8":-1.2268739938735962,"9":-0.1332562267780304,"10":-2.893554449081421,"11":1.1800650358200073,"12":2.7290053367614746,"13":-0.516915500164032,"14":-1.410043478012085,"15":0.15000499784946442,"16":1.0670971870422363,"17":-1.3365694284439087,"18":-0.21907156705856323,"19":0.41537874937057495}},"8":{"bias":0.01097424142062664,"weights":{"0":-1.1751289367675781,"1":-0.9870348572731018,"2":-0.10473792254924774,"3":1.0985828638076782,"4":0.24766606092453003,"5":0.6654599905014038,"6":1.3676719665527344,"7":-1.2924729585647583,"8":-1.485626459121704,"9":-0.539693295955658,"10":0.4948767423629761,"11":0.47651544213294983,"12":0.13973961770534515,"13":0.9921177625656128,"14":-0.125200092792511,"15":-0.6486182808876038,"16":1.2660986185073853,"17":-0.9024906754493713,"18":0.8091470003128052,"19":-1.1672061681747437}},"9":{"bias":-0.21376116573810577,"weights":{"0":-0.2999025583267212,"1":0.47128981351852417,"2":-0.438249409198761,"3":-0.3030022382736206,"4":-0.03740233555436134,"5":-1.0211087465286255,"6":0.008632532320916653,"7":1.3249982595443726,"8":1.551256775856018,"9":0.605530321598053,"10":2.223942518234253,"11":-0.32392317056655884,"12":-1.4534051418304443,"13":0.25221091508865356,"14":-0.5563434958457947,"15":-0.18661463260650635,"16":-1.0618466138839722,"17":0.9969615936279297,"18":0.955454409122467,"19":-0.4158277213573456}}},{"zero":{"bias":-2.0195207595825195,"weights":{"0":0.8708657622337341,"1":0.14200304448604584,"2":-3.1039836406707764,"3":0.609233021736145,"4":2.4920551776885986,"5":-3.8347551822662354,"6":-1.5035459995269775,"7":-2.3072080612182617,"8":-1.637556791305542,"9":0.5050691962242126}},"one":{"bias":-0.8098938465118408,"weights":{"0":-1.0289173126220703,"1":-1.5462713241577148,"2":0.27545690536499023,"3":-0.3037250339984894,"4":-1.3094449043273926,"5":1.1555691957473755,"6":2.8474812507629395,"7":0.41880160570144653,"8":-4.047924518585205,"9":-2.6659889221191406}},"two":{"bias":-1.1305257081985474,"weights":{"0":-1.6965916156768799,"1":0.4533671736717224,"2":-3.201596975326538,"3":1.044033408164978,"4":-1.889298439025879,"5":-3.5381710529327393,"6":-0.5386950969696045,"7":2.8016602993011475,"8":-0.4445609748363495,"9":-0.057368017733097076}},"three":{"bias":-1.5693720579147339,"weights":{"0":-2.2010748386383057,"1":1.8658815622329712,"2":-2.943591594696045,"3":-1.418340802192688,"4":-1.5404022932052612,"5":1.6330490112304688,"6":-1.358991265296936,"7":1.548953652381897,"8":-0.3046749532222748,"9":-2.5753774642944336}},"four":{"bias":-1.5318816900253296,"weights":{"0":0.5467105507850647,"1":-3.4136269092559814,"2":0.7551724314689636,"3":-0.10660603642463684,"4":2.350792646408081,"5":-1.3681683540344238,"6":0.597900390625,"7":-2.1604325771331787,"8":-2.8902783393859863,"9":0.24495650827884674}},"five":{"bias":-1.7514084577560425,"weights":{"0":-2.1251838207244873,"1":1.8433647155761719,"2":1.216348648071289,"3":-2.658219814300537,"4":-1.1777443885803223,"5":1.5192017555236816,"6":-0.9980651140213013,"7":-3.2256627082824707,"8":0.12143386155366898,"9":-1.4451086521148682}},"six":{"bias":-1.2320587635040283,"weights":{"0":-0.13359934091567993,"1":0.5423041582107544,"2":1.7221856117248535,"3":-3.1140859127044678,"4":-1.2705087661743164,"5":-3.43094539642334,"6":-0.905220627784729,"7":-2.129605770111084,"8":0.35285112261772156,"9":1.321931004524231}},"seven":{"bias":-0.2608243227005005,"weights":{"0":0.48744532465934753,"1":-2.549809455871582,"2":-0.7146720886230469,"3":0.3711128532886505,"4":-1.8958820104599,"5":1.985350251197815,"6":-2.746375322341919,"7":-2.2418835163116455,"8":-2.0771172046661377,"9":1.1293689012527466}},"eight":{"bias":-1.283289909362793,"weights":{"0":0.38139259815216064,"1":0.046846650540828705,"2":-3.136045455932617,"3":-0.0048672412522137165,"4":-2.7359659671783447,"5":-2.313140392303467,"6":-1.1516125202178955,"7":-2.6526451110839844,"8":1.3784751892089844,"9":1.4162601232528687}},"nine":{"bias":-1.2694814205169678,"weights":{"0":-2.4186911582946777,"1":-3.886979341506958,"2":1.4558043479919434,"3":-1.9593873023986816,"4":-1.981248140335083,"5":2.1145522594451904,"6":-1.7989317178726196,"7":0.046464309096336365,"8":0.7623376250267029,"9":-2.793241500854492}}}],"outputLookup":true,"inputLookup":false,"activation":"sigmoid","trainOpts":{"iterations":20000,"errorThresh":0.005,"log":false,"logPeriod":10,"learningRate":0.3,"momentum":0.1,"callbackPeriod":10,"beta1":0.9,"beta2":0.999,"epsilon":1e-8}}