{"sizes":[49,20,10],"layers":[{"0":{},"1":{},"2":{},"3":{},"4":{},"5":{},"6":{},"7":{},"8":{},"9":{},"10":{},"11":{},"12":{},"13":{},"14":{},"15":{},"16":{},"17":{},"18":{},"19":{},"20":{},"21":{},"22":{},"23":{},"24":{},"25":{},"26":{},"27":{},"28":{},"29":{},"30":{},"31":{},"32":{},"33":{},"34":{},"35":{},"36":{},"37":{},"38":{},"39":{},"40":{},"41":{},"42":{},"43":{},"44":{},"45":{},"46":{},"47":{},"48":{}},{"0":{"bias":-0.12071657925844193,"weights":{"0":0.04011790081858635,"1":0.16830897331237793,"2":-0.053157735615968704,"3":-0.08914821594953537,"4":-0.11220792680978775,"5":-0.15094071626663208,"6":-0.0180574469268322,"7":0.08557510375976562,"8":0.07963039726018906,"9":-0.10755036771297455,"10":0.09345337003469467,"11":0.17881830036640167,"12":-0.02373245172202587,"13":-0.19179987907409668,"14":-0.006846909411251545,"15":0.008888429962098598,"16":0.007794930133968592,"17":0.053756166249513626,"18":0.11587554216384888,"19":-0.035544417798519135,"20":0.1008019968867302,"21":0.049768660217523575,"22":-0.13629676401615143,"23":-0.1348973512649536,"24":0.06351470202207565,"25":-0.2196277230978012,"26":0.006343064829707146,"27":-0.03407975286245346,"28":-0.0398293137550354,"29":-0.03904764726758003,"30":-0.03219519928097725,"31":-0.08559879660606384,"32":0.0548081174492836,"33":0.105561763048172,"34":-0.2246452122926712,"35":0.05164877325296402,"36":0.17650678753852844,"37":0.15871569514274597,"38":-0.1025094985961914,"39":0.08681735396385193,"40":-0.14963965117931366,"41":-0.170884907245636,"42":0.15036244690418243,"43":-0.03436804562807083,"44":-0.12113278359174728,"45":-0.16058972477912903,"46":0.080101378262043,"47":-0.009057787247002125,"48":0.12306661158800125}},"1":{"bias":0.04740028455853462,"weights":{"0":-0.14863143861293793,"1":-0.10840507596731186,"2":-0.1254008710384369,"3":0.19639822840690613,"4":-0.1771933138370514,"5":-0.18472646176815033,"6":-0.19005653262138367,"7":0.04770596697926521,"8":-0.005548866931349039,"9":0.07472177594900131,"10":0.1754094809293747,"11":0.1445142775774002,"12":0.11712183058261871,"13":-0.14695510268211365,"14":0.10213601589202881,"15":0.009513542987406254,"16":0.17823663353919983,"17":0.01581067033112049,"18":0.06894326210021973,"19":0.16590580344200134,"20":-0.14640039205551147,"21":0.05779561772942543,"22":0.10970961302518845,"23":-0.05174870789051056,"24":-0.16263052821159363,"25":0.15744365751743317,"26":0.03254961594939232,"27":0.17531870305538177,"28":-0.11024082452058792,"29":-0.19880476593971252,"30":-0.0813247486948967,"31":-0.03837858885526657,"32":0.14336161315441132,"33":-0.18723031878471375,"34":-0.1467071920633316,"35":0.030401764437556267,"36":0.016607625409960747,"37":-0.1368512213230133,"38":-0.12100616097450256,"39":-0.0007402594201266766,"40":0.16972415149211884,"41":0.04558350145816803,"42":0.05383872613310814,"43":0.16969729959964752,"44":-0.02723664417862892,"45":-0.17148973047733307,"46":0.012963139452040195,"47":0.08990871161222458,"48":-0.11002247035503387}},"2":{"bias":0.3300786316394806,"weights":{"0":-0.019426047801971436,"1":-2.465604066848755,"2":-2.09832501411438,"3":-2.0285260677337646,"4":-2.2069990634918213,"5":-2.205136299133301,"6":0.17685779929161072,"7":4.026316165924072,"8":-0.16956356167793274,"9":0.1705990880727768,"10":0.3815036118030548,"11":0.03524740785360336,"12":0.17666105926036835,"13":7.870236396789551,"14":4.23529577255249,"15":2.5759925842285156,"16":2.587242841720581,"17":2.570831775665283,"18":2.458834648132324,"19":2.1950602531433105,"20":7.69828987121582,"21":-1.9467295408248901,"22":0.31586894392967224,"23":0.10574960708618164,"24":0.5871279239654541,"25":0.14805296063423157,"26":0.2943648397922516,"27":0.02714449167251587,"28":2.4635603427886963,"29":-0.037683866918087006,"30":0.017559150233864784,"31":0.32626664638519287,"32":-0.013632803224027157,"33":0.008230648934841156,"34":2.831235885620117,"35":2.207474946975708,"36":0.17197494208812714,"37":0.1255618780851364,"38":0.3269171118736267,"39":0.046823274344205856,"40":0.050805360078811646,"41":3.170762538909912,"42":-0.7574954628944397,"43":-0.7529814839363098,"44":-0.6700355410575867,"45":-0.15878815948963165,"46":-0.5967729687690735,"47":-0.37855926156044006,"48":0.12120459228754044}},"3":{"bias":-0.21861368417739868,"weights":{"0":-0.21667809784412384,"1":-0.20210528373718262,"2":-0.21614626049995422,"3":-0.050905194133520126,"4":0.04896346852183342,"5":0.0793086588382721,"6":-0.034960854798555374,"7":-0.11701489984989166,"8":-0.12371155619621277,"9":-0.18151645362377167,"10":0.15913325548171997,"11":-0.0025833386462181807,"12":-0.013065671548247337,"13":-0.14377419650554657,"14":-0.1251501888036728,"15":0.12259411811828613,"16":0.1928139477968216,"17":0.09940990060567856,"18":0.14433710277080536,"19":-0.10592854768037796,"20":0.021302858367562294,"21":0.12322206050157547,"22":0.15713441371917725,"23":0.19696173071861267,"24":-0.12203910201787949,"25":-0.04070378094911575,"26":0.12868092954158783,"27":0.14015544950962067,"28":0.20340454578399658,"29":-0.04688932001590729,"30":0.02605910785496235,"31":-0.034027162939310074,"32":0.0907992497086525,"33":-0.14723752439022064,"34":-0.17717306315898895,"35":-0.05008908361196518,"36":-0.164852574467659,"37":-0.1429341435432434,"38":-0.037470463663339615,"39":-0.035488467663526535,"40":0.10965582728385925,"41":-0.03023502230644226,"42":-0.02744363620877266,"43":-0.028393512591719627,"44":-0.017697645351290703,"45":0.10175097733736038,"46":-0.11319206655025482,"47":-0.19140976667404175,"48":-0.02093777060508728}},"4":{"bias":0.8316470384597778,"weights":{"0":0.8200181126594543,"1":0.39781102538108826,"2":0.7426937222480774,"3":0.7930006980895996,"4":0.5129151940345764,"5":0.6150484085083008,"6":0.7534276843070984,"7":1.366163730621338,"8":0.12496473640203476,"9":0.08994701504707336,"10":0.12717817723751068,"11":0.07024669647216797,"12":0.11202924698591232,"13":-2.5024423599243164,"14":1.491328477859497,"15":0.0815320611000061,"16":0.053702861070632935,"17":0.31689825654029846,"18":0.11487945914268494,"19":-0.03494615480303764,"20":-2.3941659927368164,"21":0.5342643857002258,"22":-0.6858993768692017,"23":-0.36730191111564636,"24":-0.24989426136016846,"25":-0.5258985757827759,"26":-0.4405418336391449,"27":0.7445513010025024,"28":-1.102534532546997,"29":-0.13669273257255554,"30":0.14577071368694305,"31":0.007570472080260515,"32":0.11176376789808273,"33":0.007540587335824966,"34":0.8238967657089233,"35":-0.8700836300849915,"36":0.043555669486522675,"37":0.06478328257799149,"38":0.09572270512580872,"39":0.1855076402425766,"40":0.08234553784132004,"41":0.9275467991828918,"42":-0.5369449257850647,"43":-0.4449053406715393,"44":-0.49689868092536926,"45":-0.5785701870918274,"46":-0.6209420561790466,"47":-0.44494205713272095,"48":0.6051294207572937}},"5":{"bias":0.0647725760936737,"weights":{"0":0.10051888227462769,"1":0.12428213655948639,"2":-0.012054198421537876,"3":-0.07810951769351959,"4":-0.11644744873046875,"5":-0.13832350075244904,"6":-0.17590606212615967,"7":-0.1762748807668686,"8":-0.01490157563239336,"9":-0.007430849596858025,"10":-0.07991211116313934,"11":-0.10287059098482132,"12":0.14590153098106384,"13":0.161452516913414,"14":-0.13161061704158783,"15":-0.011517614126205444,"16":-0.18748077750205994,"17":-0.11621762812137604,"18":-0.15423737466335297,"19":0.17601817846298218,"20":0.1128675565123558,"21":0.14620088040828705,"22":-0.06261982768774033,"23":-0.2280484288930893,"24":-0.19267603754997253,"25":0.07259470224380493,"26":-0.08227159082889557,"27":0.02988373301923275,"28":-0.1044149249792099,"29":-0.038339193910360336,"30":-0.08730487525463104,"31":-0.10897363722324371,"32":0.06083906069397926,"33":0.00021953230316285044,"34":-0.13706223666667938,"35":0.04438042268157005,"36":0.1985422968864441,"37":-0.17150147259235382,"38":-0.03263367339968681,"39":0.12145775556564331,"40":-0.19971539080142975,"41":-0.1262139081954956,"42":0.04430427402257919,"43":-0.15140263736248016,"44":-0.11051640659570694,"45":-0.1633283495903015,"46":0.02440677024424076,"47":-0.10556977987289429,"48":-0.09879927337169647}},"6":{"bias":-0.19031918048858643,"weights":{"0":-0.005714339204132557,"1":-0.1863340139389038,"2":0.048135705292224884,"3":-0.04339532554149628,"4":-0.024198375642299652,"5":-0.17242223024368286,"6":-0.13929438591003418,"7":0.10284394770860672,"8":0.13713786005973816,"9":-0.13297338783740997,"10":0.1384362280368805,"11":0.07224445790052414,"12":0.16066427528858185,"13":-0.10576854646205902,"14":0.002456318587064743,"15":0.16147908568382263,"16":0.13022832572460175,"17":0.029060864821076393,"18":-0.07992371171712875,"19":-0.033534739166498184,"20":0.05368054285645485,"21":0.0075419507920742035,"22":0.021597106009721756,"23":0.07545174658298492,"24":-0.09873034805059433,"25":-0.1444103866815567,"26":-0.0013839977327734232,"27":-0.019536206498742104,"28":0.05937321484088898,"29":-0.17958970367908478,"30":0.06774136424064636,"31":0.10416167974472046,"32":0.06352570652961731,"33":-0.011407352983951569,"34":-0.1842278093099594,"35":-0.24104292690753937,"36":0.06184045597910881,"37":-0.1376068890094757,"38":0.07835463434457779,"39":-0.01320524699985981,"40":0.15133246779441833,"41":0.20082595944404602,"42":0.0537213459610939,"43":0.09560378640890121,"44":0.05576266348361969,"45":-0.06539485603570938,"46":-0.06880078464746475,"47":-0.1551237255334854,"48":0.016424788162112236}},"7":{"bias":34.536014556884766,"weights":{"0":38.883689880371094,"1":69.33238220214844,"2":69.43540954589844,"3":68.92694854736328,"4":69.3758544921875,"5":69.48075103759766,"6":38.92060852050781,"7":-78.84134674072266,"8":0.0785040631890297,"9":0.04390187934041023,"10":-0.47962087392807007,"11":0.04536350071430206,"12":-0.1594022661447525,"13":148.48878479003906,"14":-78.9017105102539,"15":-30.46773338317871,"16":-30.368059158325195,"17":-30.99449920654297,"18":-30.548757553100586,"19":-30.379539489746094,"20":148.67942810058594,"21":5.52178955078125,"22":-81.04424285888672,"23":-81.35104370117188,"24":-81.92208862304688,"25":-81.2580795288086,"26":-81.21369171142578,"27":38.619632720947266,"28":24.119001388549805,"29":-0.018206214532256126,"30":-0.0809333473443985,"31":-0.36315837502479553,"32":0.18906602263450623,"33":-0.12309981137514114,"34":36.62681198120117,"35":24.23819923400879,"36":0.02778141014277935,"37":-0.027538664638996124,"38":-0.5132344365119934,"39":-0.06982966512441635,"40":0.023262441158294678,"41":36.7341194152832,"42":-10.990371704101562,"43":-10.709936141967773,"44":-10.821829795837402,"45":-11.594050407409668,"46":-11.077831268310547,"47":-10.891756057739258,"48":38.71441650390625}},"8":{"bias":67.02061462402344,"weights":{"0":13.700498580932617,"1":19.659570693969727,"2":19.878917694091797,"3":80.7406997680664,"4":19.887042999267578,"5":19.952869415283203,"6":13.61011028289795,"7":-123.04285430908203,"8":0.18862544000148773,"9":-0.06398990005254745,"10":60.688045501708984,"11":0.042982105165719986,"12":0.19950589537620544,"13":14.458125114440918,"14":-122.92941284179688,"15":-6.088079452514648,"16":-6.1658759117126465,"17":54.50690460205078,"18":-6.134913921356201,"19":-5.923519611358643,"20":14.547308921813965,"21":-0.07718171179294586,"22":1.3643133640289307,"23":1.3268558979034424,"24":62.17109680175781,"25":1.5795567035675049,"26":1.51688551902771,"27":13.856922149658203,"28":-84.59896850585938,"29":-0.03265170380473137,"30":0.14989851415157318,"31":60.7238883972168,"32":-0.172452911734581,"33":0.08800181746482849,"34":-55.2255744934082,"35":-84.52685546875,"36":-0.012115337885916233,"37":-0.17401458323001862,"38":60.94981002807617,"39":-0.032431721687316895,"40":-0.02029118873178959,"41":-54.93285369873047,"42":7.011720657348633,"43":7.108097076416016,"44":6.963886260986328,"45":68.00212860107422,"46":7.333404541015625,"47":7.215859413146973,"48":13.868310928344727}},"9":{"bias":-0.18174076080322266,"weights":{"0":0.09993068128824234,"1":0.005985401105135679,"2":0.09826436638832092,"3":0.12526226043701172,"4":-0.10506799817085266,"5":-0.04289688542485237,"6":-0.20744313299655914,"7":0.08254374563694,"8":-0.11743414402008057,"9":0.006392282899469137,"10":0.13576222956180573,"11":-0.06950245052576065,"12":0.054209548979997635,"13":-0.033570099622011185,"14":-0.023846739903092384,"15":-0.1959422081708908,"16":0.03407139703631401,"17":-0.2040276825428009,"18":-0.19864608347415924,"19":0.10570991784334183,"20":-0.012290791608393192,"21":0.08442453294992447,"22":0.21210503578186035,"23":0.09582062065601349,"24":-0.1365143209695816,"25":0.07132317125797272,"26":-0.08929417282342911,"27":-0.1584763079881668,"28":0.02209354005753994,"29":0.13949906826019287,"30":-0.01793161779642105,"31":0.05475969612598419,"32":-0.12772412598133087,"33":-0.05922311544418335,"34":-0.08820855617523193,"35":0.06508829444646835,"36":-0.08868315070867538,"37":-0.008370582945644855,"38":-0.03421253338456154,"39":0.03317655995488167,"40":0.14877520501613617,"41":0.10001109540462494,"42":-0.08235787600278854,"43":0.2261112481355667,"44":-0.12032870203256607,"45":0.11993321031332016,"46":-0.0469999797642231,"47":-0.03012581542134285,"48":-0.20058634877204895}},"10":{"bias":-0.04268079251050949,"weights":{"0":0.035902995616197586,"1":-0.16649630665779114,"2":0.17556795477867126,"3":-0.2029571384191513,"4":-0.05940784513950348,"5":0.02761298604309559,"6":-0.016979726031422615,"7":0.042711880058050156,"8":-0.12386805564165115,"9":-0.19755996763706207,"10":-0.09857781231403351,"11":0.06169592961668968,"12":0.11668936908245087,"13":0.08941470831632614,"14":-0.06444189697504044,"15":-0.058038778603076935,"16":-0.04055184870958328,"17":-0.06217069551348686,"18":0.025618473067879677,"19":0.016557060182094574,"20":-0.008903766982257366,"21":-0.07891374826431274,"22":0.12317530810832977,"23":0.011839245446026325,"24":-0.20250917971134186,"25":0.1788196712732315,"26":-0.09350436925888062,"27":-0.09054882824420929,"28":-0.087151437997818,"29":0.12044696509838104,"30":-0.01238221861422062,"31":-0.2128351628780365,"32":-0.007049990352243185,"33":-0.18364031612873077,"34":-0.2015547752380371,"35":0.008365641348063946,"36":0.05991111695766449,"37":-0.1567344069480896,"38":0.1628376990556717,"39":-0.13305021822452545,"40":-0.068789042532444,"41":0.16041260957717896,"42":-0.2068827599287033,"43":-0.09235044568777084,"44":0.0788273885846138,"45":-0.07220295816659927,"46":-0.13815639913082123,"47":-0.2437770813703537,"48":-0.03272436186671257}},"11":{"bias":-0.1575389802455902,"weights":{"0":-0.14243702590465546,"1":0.062112364917993546,"2":0.11605909466743469,"3":0.11340019106864929,"4":0.1390048861503601,"5":0.03924423083662987,"6":0.09890878200531006,"7":-0.004768471699208021,"8":0.04304509982466698,"9":0.0083913030102849,"10":-0.10169561207294464,"11":-0.023656286299228668,"12":0.07832500338554382,"13":-0.2835099697113037,"14":0.023643366992473602,"15":0.16054894030094147,"16":-0.15224546194076538,"17":-0.1420067548751831,"18":0.18466538190841675,"19":-0.15830926597118378,"20":-0.10320790112018585,"21":0.08589594066143036,"22":-0.1967860460281372,"23":0.15056507289409637,"24":-0.007592571899294853,"25":-0.2044367492198944,"26":-0.11905839294195175,"27":0.15129023790359497,"28":-0.03334673121571541,"29":-0.04403296113014221,"30":-0.013888762332499027,"31":-0.1665174663066864,"32":-0.17424842715263367,"33":-0.039998073130846024,"34":-0.0027173920534551144,"35":-0.1807461827993393,"36":0.012796496041119099,"37":0.1395227313041687,"38":-0.07717039436101913,"39":-0.10644824057817459,"40":-0.06555552035570145,"41":-0.15438248217105865,"42":0.07045888155698776,"43":0.08799256384372711,"44":-0.1949268877506256,"45":0.09200949966907501,"46":-0.19285954535007477,"47":0.04581078886985779,"48":-0.0937943160533905}},"12":{"bias":-12.357512474060059,"weights":{"0":-14.474122047424316,"1":-10.898907661437988,"2":-10.8768949508667,"3":-10.242258071899414,"4":-10.880585670471191,"5":-10.955580711364746,"6":-14.476611137390137,"7":20.62640380859375,"8":-0.12268118560314178,"9":0.0431678481400013,"10":0.9267240166664124,"11":0.05624764785170555,"12":0.17778702080249786,"13":23.59942626953125,"14":20.759065628051758,"15":-3.5038373470306396,"16":-3.6806228160858154,"17":-2.6871089935302734,"18":-3.3860692977905273,"19":-3.6505839824676514,"20":23.858091354370117,"21":7.1079864501953125,"22":23.510635375976562,"23":23.621826171875,"24":24.304990768432617,"25":23.636184692382812,"26":23.518844604492188,"27":-14.785533905029297,"28":173.1016387939453,"29":-0.06809967011213303,"30":-0.13392457365989685,"31":0.7033134698867798,"32":0.05420024320483208,"33":0.1328875720500946,"34":-46.40864944458008,"35":173.00265502929688,"36":0.08730970323085785,"37":0.1727074235677719,"38":0.8484126925468445,"39":0.05858258530497551,"40":-0.046615295112133026,"41":-46.52275848388672,"42":49.39863204956055,"43":49.4305305480957,"44":49.3769645690918,"45":50.36606979370117,"46":49.61222457885742,"47":49.52631759643555,"48":-14.700162887573242}},"13":{"bias":-0.23983457684516907,"weights":{"0":-0.06968894600868225,"1":0.04939742013812065,"2":0.14780661463737488,"3":0.019789420068264008,"4":0.0018508998909965158,"5":-0.16566620767116547,"6":0.10601028800010681,"7":0.20854006707668304,"8":-0.11518564820289612,"9":-0.038961730897426605,"10":-0.1626674383878708,"11":0.13101744651794434,"12":-0.13243164122104645,"13":0.08559338003396988,"14":0.11555717140436172,"15":-0.003050402505323291,"16":-0.11117474734783173,"17":0.011777413077652454,"18":-0.11375943571329117,"19":0.1249207928776741,"20":-0.05878591910004616,"21":0.026164785027503967,"22":0.010046594776213169,"23":-0.25507932901382446,"24":0.004084133077412844,"25":-0.21074987947940826,"26":-0.08662179857492447,"27":0.02385920286178589,"28":-0.22306957840919495,"29":0.054217249155044556,"30":-0.10138954222202301,"31":-0.2161061018705368,"32":0.07215999811887741,"33":-0.050615016371011734,"34":0.09982617199420929,"35":-0.08840853720903397,"36":0.12141066789627075,"37":0.17034116387367249,"38":-0.1384066939353943,"39":0.176168754696846,"40":-0.17373092472553253,"41":-0.09977782517671585,"42":-0.07415830343961716,"43":0.048372235149145126,"44":-0.1426801234483719,"45":0.0845063179731369,"46":0.055382389575242996,"47":0.05117792263627052,"48":-0.14065831899642944}},"14":{"bias":-0.20873332023620605,"weights":{"0":-0.0036778361536562443,"1":0.026624495163559914,"2":0.006666540168225765,"3":-0.13481105864048004,"4":-0.033313024789094925,"5":0.07604436576366425,"6":0.044264309108257294,"7":0.06492497026920319,"8":-0.08657275140285492,"9":0.1425442397594452,"10":0.02670406550168991,"11":0.07330532371997833,"12":0.07582125067710876,"13":-0.046780627220869064,"14":0.1066652461886406,"15":-0.16776804625988007,"16":-0.20326469838619232,"17":0.04868102818727493,"18":0.09354768693447113,"19":0.10963631421327591,"20":-0.11821909993886948,"21":0.057807717472314835,"22":-0.1477227658033371,"23":0.0920291617512703,"24":-0.02486415207386017,"25":0.1315794289112091,"26":-0.18126842379570007,"27":-0.05283869430422783,"28":-0.11167594790458679,"29":0.0604361928999424,"30":0.10882451385259628,"31":0.1613238900899887,"32":0.061142753809690475,"33":-0.03728076070547104,"34":0.03643874078989029,"35":-0.2070084512233734,"36":-0.05901842564344406,"37":-0.15400344133377075,"38":-0.05052801966667175,"39":0.11838886886835098,"40":-0.184518963098526,"41":0.05915330350399017,"42":-0.005046291742473841,"43":-0.08063003420829773,"44":-0.20607371628284454,"45":-0.2101944386959076,"46":0.030705373734235764,"47":0.059069737792015076,"48":-0.1510613113641739}},"15":{"bias":45.98601531982422,"weights":{"0":38.11416244506836,"1":0.6162405610084534,"2":0.47265538573265076,"3":13.246572494506836,"4":0.5827452540397644,"5":0.7266806364059448,"6":38.38191604614258,"7":137.31124877929688,"8":0.10515760630369186,"9":0.18982425332069397,"10":12.609382629394531,"11":0.13520501554012299,"12":0.16620051860809326,"13":-64.88919067382812,"14":137.42103576660156,"15":37.818729400634766,"16":37.796024322509766,"17":50.25990295410156,"18":37.70249557495117,"19":37.65355682373047,"20":-64.99864196777344,"21":-4.120520114898682,"22":-19.699684143066406,"23":-19.492834091186523,"24":-7.000645160675049,"25":-19.516313552856445,"26":-19.74087142944336,"27":38.41425704956055,"28":0.7202539443969727,"29":0.10858265310525894,"30":0.16715934872627258,"31":12.583256721496582,"32":0.18195059895515442,"33":0.13073594868183136,"34":75.68702697753906,"35":0.8863019943237305,"36":-0.17195895314216614,"37":-0.030202103778719902,"38":12.469091415405273,"39":0.19093643128871918,"40":-0.06287720799446106,"41":75.66960144042969,"42":-31.111356735229492,"43":-31.110353469848633,"44":-31.38295555114746,"45":-18.5711612701416,"46":-31.080907821655273,"47":-31.184995651245117,"48":38.345497131347656}},"16":{"bias":11.862249374389648,"weights":{"0":11.676579475402832,"1":-1.1395659446716309,"2":-1.1377707719802856,"3":0.5654746294021606,"4":-1.3572640419006348,"5":-1.2907025814056396,"6":11.580134391784668,"7":31.774415969848633,"8":-0.0006592424469999969,"9":0.03624122217297554,"10":1.8697174787521362,"11":-0.18159699440002441,"12":-0.15488961338996887,"13":14.601361274719238,"14":31.892730712890625,"15":12.93596363067627,"16":12.777958869934082,"17":14.597433090209961,"18":12.690123558044434,"19":12.888556480407715,"20":14.617305755615234,"21":-5.080625534057617,"22":-3.3800148963928223,"23":-3.2248668670654297,"24":-1.4586808681488037,"25":-3.3172566890716553,"26":-3.1953248977661133,"27":11.74152946472168,"28":-8.91563892364502,"29":0.008200705982744694,"30":0.17037427425384521,"31":1.826589584350586,"32":0.15934805572032928,"33":-0.1201358363032341,"34":31.56751251220703,"35":-8.603300094604492,"36":0.11496193706989288,"37":0.13857674598693848,"38":1.6967805624008179,"39":0.039548564702272415,"40":-0.11126413941383362,"41":31.802555084228516,"42":-7.688153266906738,"43":-7.566276550292969,"44":-7.615912437438965,"45":-5.807138919830322,"46":-7.580843925476074,"47":-7.748120307922363,"48":11.556334495544434}},"17":{"bias":-5.064945220947266,"weights":{"0":7.904515743255615,"1":19.349531173706055,"2":19.49930763244629,"3":5.791721343994141,"4":19.351545333862305,"5":19.267427444458008,"6":8.052950859069824,"7":-43.251792907714844,"8":-0.05875195935368538,"9":0.013784049078822136,"10":-13.748407363891602,"11":-0.04378218203783035,"12":0.02576245181262493,"13":23.357309341430664,"14":-43.31418991088867,"15":-11.41219425201416,"16":-11.601656913757324,"17":-25.21854019165039,"18":-11.353769302368164,"19":-11.529682159423828,"20":23.442079544067383,"21":40.87547302246094,"22":77.72301483154297,"23":77.82080078125,"24":64.15451049804688,"25":77.4376220703125,"26":77.58135986328125,"27":8.035877227783203,"28":-185.56614685058594,"29":-0.1702231466770172,"30":-0.19116030633449554,"31":-13.721741676330566,"32":0.09120294451713562,"33":-0.13333222270011902,"34":33.97832489013672,"35":-185.85836791992188,"36":0.028586285188794136,"37":0.18049228191375732,"38":-13.614777565002441,"39":-0.12856628000736237,"40":0.1439197063446045,"41":33.84950256347656,"42":12.768177032470703,"43":12.89212417602539,"44":12.850616455078125,"45":-0.631317675113678,"46":12.894535064697266,"47":12.827722549438477,"48":7.695913791656494}},"18":{"bias":-9.76458740234375,"weights":{"0":-8.831147193908691,"1":8.031227111816406,"2":8.158571243286133,"3":6.4312872886657715,"4":8.163599014282227,"5":8.273746490478516,"6":-8.784405708312988,"7":31.309337615966797,"8":-0.18977904319763184,"9":-0.14433501660823822,"10":-1.7494369745254517,"11":-0.04787861555814743,"12":0.16765344142913818,"13":115.44185638427734,"14":31.330066680908203,"15":-17.149160385131836,"16":-17.129638671875,"17":-18.993860244750977,"18":-17.180891036987305,"19":-17.103137969970703,"20":115.29534149169922,"21":0.19702473282814026,"22":46.49024963378906,"23":46.789634704589844,"24":44.814842224121094,"25":46.4885368347168,"26":46.7381591796875,"27":-9.048627853393555,"28":-17.885284423828125,"29":0.17180845141410828,"30":-0.10168159753084183,"31":-1.7645494937896729,"32":0.13046453893184662,"33":0.03727195784449577,"34":46.97919845581055,"35":-17.976253509521484,"36":-0.0480336919426918,"37":0.18324559926986694,"38":-1.9048612117767334,"39":0.014845791272819042,"40":-0.1691543608903885,"41":47.2008171081543,"42":-50.007938385009766,"43":-49.80988693237305,"44":-49.817630767822266,"45":-51.94227981567383,"46":-49.885704040527344,"47":-50.066707611083984,"48":-8.992162704467773}},"19":{"bias":0.6733811497688293,"weights":{"0":0.8523682951927185,"1":1.2964317798614502,"2":1.3989129066467285,"3":1.2192749977111816,"4":1.2064069509506226,"5":1.327256441116333,"6":1.020369529724121,"7":1.488458514213562,"8":-0.14167098701000214,"9":0.11909816414117813,"10":0.04531567543745041,"11":0.09250057488679886,"12":-0.1942925751209259,"13":-7.807835578918457,"14":1.3643230199813843,"15":-0.4357314109802246,"16":-0.4355843663215637,"17":-0.6145831346511841,"18":-0.25164470076560974,"19":-0.2599555253982544,"20":-8.020964622497559,"21":0.9170801043510437,"22":-2.0894055366516113,"23":-1.9564721584320068,"24":-2.1796987056732178,"25":-2.3238914012908936,"26":-2.0180602073669434,"27":0.9047976136207581,"28":-1.4140386581420898,"29":0.03251928836107254,"30":-0.05346464738249779,"31":-0.023720156401395798,"32":-0.0943574383854866,"33":0.0967286229133606,"34":1.8968725204467773,"35":-1.277539849281311,"36":-0.15408766269683838,"37":-0.17020492255687714,"38":-0.11928550899028778,"39":0.17599132657051086,"40":-0.09890034794807434,"41":2.118518829345703,"42":0.9005014300346375,"43":0.7582400441169739,"44":0.9071546196937561,"45":0.8371292948722839,"46":0.9845454692840576,"47":0.8309707045555115,"48":0.7195950746536255}}},{"zero":{"bias":-0.7414537072181702,"weights":{"0":0.05795278400182724,"1":-0.041093066334724426,"2":0.1287287026643753,"3":-0.18978217244148254,"4":-0.06532752513885498,"5":0.15579578280448914,"6":0.09166669100522995,"7":9.84266185760498,"8":-9.146957397460938,"9":0.14694993197917938,"10":-0.11519559472799301,"11":-0.17040139436721802,"12":6.308735370635986,"13":0.05592922866344452,"14":-0.11305483430624008,"15":-0.8639313578605652,"16":-0.6273385286331177,"17":-20.025535583496094,"18":-7.598589897155762,"19":-0.040399741381406784}},"one":{"bias":14.44216251373291,"weights":{"0":-0.101551353931427,"1":0.12961311638355255,"2":-0.15659871697425842,"3":-0.059283547103405,"4":0.15010446310043335,"5":-0.1579115241765976,"6":0.1549917459487915,"7":-6.336963176727295,"8":17.80849838256836,"9":0.0796571671962738,"10":-0.14136680960655212,"11":0.07910224050283432,"12":-6.384305477142334,"13":-0.12611879408359528,"14":-0.07365133613348007,"15":-1.8718068599700928,"16":-1.1934492588043213,"17":-4.787679672241211,"18":-3.6561872959136963,"19":-0.1701897829771042}},"two":{"bias":0.5857307314872742,"weights":{"0":0.19524532556533813,"1":0.03346044197678566,"2":-0.40886935591697693,"3":-0.10374029725790024,"4":-0.22394810616970062,"5":0.15779045224189758,"6":-0.08721607178449631,"7":-0.762658417224884,"8":3.441040515899658,"9":-0.15792158246040344,"10":0.0878661721944809,"11":-0.09333352744579315,"12":15.644317626953125,"13":-0.13196858763694763,"14":-0.015349521301686764,"15":-19.721988677978516,"16":-6.726587295532227,"17":-3.6767444610595703,"18":-7.534021377563477,"19":-0.40530216693878174}},"three":{"bias":-1.6098350286483765,"weights":{"0":-0.0565275214612484,"1":-0.11547055840492249,"2":-0.3681652545928955,"3":-0.16392438113689423,"4":-0.24221792817115784,"5":-0.009055553004145622,"6":-0.09393336623907089,"7":0.8482270836830139,"8":5.256605625152588,"9":0.11961076408624649,"10":-0.19770225882530212,"11":-0.19654764235019684,"12":-9.202168464660645,"13":0.014217332005500793,"14":-0.061392661184072495,"15":-16.667753219604492,"16":-2.9361484050750732,"17":14.816672325134277,"18":-1.6832892894744873,"19":-0.1161108985543251}},"four":{"bias":3.768575668334961,"weights":{"0":0.16969023644924164,"1":0.11511804163455963,"2":0.7721791863441467,"3":-0.03280021995306015,"4":0.15919636189937592,"5":0.14907701313495636,"6":0.1316264271736145,"7":-4.2020487785339355,"8":-3.645934581756592,"9":-0.19115054607391357,"10":0.19965162873268127,"11":0.03600985184311867,"12":-5.710472106933594,"13":-0.03126860409975052,"14":-0.15690821409225464,"15":12.950879096984863,"16":4.785492897033691,"17":-11.82752799987793,"18":1.0208752155303955,"19":-0.2700527608394623}},"five":{"bias":1.9058424234390259,"weights":{"0":-0.08082319051027298,"1":0.09786561131477356,"2":-0.5048162341117859,"3":-0.11166073381900787,"4":0.1419178992509842,"5":-0.15545430779457092,"6":0.1913120001554489,"7":-22.794544219970703,"8":-0.27171269059181213,"9":0.16570164263248444,"10":-0.0783236101269722,"11":-0.00497423205524683,"12":-6.765091419219971,"13":0.045349691063165665,"14":0.18628700077533722,"15":2.6566479206085205,"16":-0.15021954476833344,"17":18.32737159729004,"18":-5.855930328369141,"19":0.3802988529205322}},"six":{"bias":2.294469118118286,"weights":{"0":0.12662340700626373,"1":-0.06473962962627411,"2":-0.40019485354423523,"3":-0.15925590693950653,"4":0.1017756462097168,"5":-0.059198103845119476,"6":0.030400343239307404,"7":-22.320131301879883,"8":-9.858945846557617,"9":0.19371762871742249,"10":0.04651828110218048,"11":0.16298791766166687,"12":17.639938354492188,"13":0.0520847924053669,"14":-0.06310399621725082,"15":5.846644878387451,"16":-1.4662686586380005,"17":-8.629228591918945,"18":-9.624923706054688,"19":0.3283108174800873}},"seven":{"bias":4.41102409362793,"weights":{"0":0.16201288998126984,"1":0.0514439158141613,"2":-0.29559534788131714,"3":-0.13628628849983215,"4":-0.09993942826986313,"5":0.09052208811044693,"6":0.17401470243930817,"7":13.181317329406738,"8":0.22865022718906403,"9":-0.09859224408864975,"10":0.14042285084724426,"11":0.12015091627836227,"12":-14.869647026062012,"13":0.03869979456067085,"14":0.19387774169445038,"15":-6.603967666625977,"16":-0.9578493237495422,"17":-4.599153518676758,"18":0.8387778997421265,"19":0.0033111313823610544}},"eight":{"bias":-3.2539591789245605,"weights":{"0":-0.12464229762554169,"1":-0.054894622415304184,"2":0.8393778800964355,"3":0.13639771938323975,"4":-0.3638865649700165,"5":0.022774267941713333,"6":0.10242209583520889,"7":-3.5046699047088623,"8":-15.5389404296875,"9":0.058013468980789185,"10":0.1864992082118988,"11":-0.06295906007289886,"12":11.131292343139648,"13":-0.1344793736934662,"14":0.17365743219852448,"15":-6.401238441467285,"16":0.9759361743927002,"17":-1.5307241678237915,"18":9.668303489685059,"19":-0.9698918461799622}},"nine":{"bias":0.6458396315574646,"weights":{"0":-0.09344818443059921,"1":-0.0485772006213665,"2":-0.19425585865974426,"3":0.13533616065979004,"4":0.17371492087841034,"5":-0.021603427827358246,"6":0.013438206166028976,"7":-6.467502593994141,"8":-5.847217559814453,"9":0.08845197409391403,"10":0.17796805500984192,"11":-0.16771472990512848,"12":-17.637304306030273,"13":0.0033688261173665524,"14":-0.05132089927792549,"15":-2.2459170818328857,"16":-0.7576296329498291,"17":8.605886459350586,"18":13.974352836608887,"19":-0.19330564141273499}}}],"outputLookup":true,"inputLookup":false,"activation":"leaky-relu","trainOpts":{"iterations":20000,"errorThresh":0.005,"log":false,"logPeriod":10,"learningRate":0.3,"momentum":0.1,"callbackPeriod":1,"beta1":0.9,"beta2":0.999,"epsilon":1e-8}}