{"sizes":[49,20,10],"layers":[{"0":{},"1":{},"2":{},"3":{},"4":{},"5":{},"6":{},"7":{},"8":{},"9":{},"10":{},"11":{},"12":{},"13":{},"14":{},"15":{},"16":{},"17":{},"18":{},"19":{},"20":{},"21":{},"22":{},"23":{},"24":{},"25":{},"26":{},"27":{},"28":{},"29":{},"30":{},"31":{},"32":{},"33":{},"34":{},"35":{},"36":{},"37":{},"38":{},"39":{},"40":{},"41":{},"42":{},"43":{},"44":{},"45":{},"46":{},"47":{},"48":{}},{"0":{"bias":0.3027391731739044,"weights":{"0":0.06158962473273277,"1":-0.2964295446872711,"2":0.03255913406610489,"3":0.28698810935020447,"4":-0.2843761146068573,"5":0.025980964303016663,"6":-0.04789738357067108,"7":0.20428387820720673,"8":-0.1033845990896225,"9":-0.0025241118855774403,"10":0.46011754870414734,"11":-0.038501158356666565,"12":-0.1923256516456604,"13":-0.2178230881690979,"14":0.29294848442077637,"15":0.1602809876203537,"16":0.3035835027694702,"17":0.5742233991622925,"18":0.28356727957725525,"19":0.15963320434093475,"20":0.06547742336988449,"21":-0.15016984939575195,"22":-0.7077885270118713,"23":-0.5600523948669434,"24":-0.1888311356306076,"25":-0.640865683555603,"26":-0.7220467925071716,"27":0.11276920139789581,"28":0.20077434182167053,"29":0.047662992030382156,"30":0.097559854388237,"31":0.37222975492477417,"32":0.1952042132616043,"33":0.03209618479013443,"34":-0.19666720926761627,"35":0.5320963859558105,"36":-0.1873254030942917,"37":0.10154087841510773,"38":0.307254433631897,"39":0.08920135349035263,"40":0.11806228011846542,"41":0.0064984280616045,"42":0.046601664274930954,"43":0.10327042639255524,"44":-0.07185259461402893,"45":0.17630550265312195,"46":0.04109535738825798,"47":0.018866131082177162,"48":0.05117811635136604}},"1":{"bias":0.13299380242824554,"weights":{"0":-0.27359798550605774,"1":-0.00026615115348249674,"2":-0.11780843883752823,"3":0.07818244397640228,"4":-0.13623429834842682,"5":-0.10530590265989304,"6":-0.10544148087501526,"7":-0.7915162444114685,"8":0.019560454413294792,"9":0.018704574555158615,"10":-0.0030865592416375875,"11":-0.04561642184853554,"12":0.17491939663887024,"13":0.6116505265235901,"14":-1.0236425399780273,"15":-0.08120829612016678,"16":-0.07894529402256012,"17":0.010567286051809788,"18":-0.04322240874171257,"19":-0.19490079581737518,"20":0.9700127840042114,"21":-0.022219378501176834,"22":0.06533569097518921,"23":-0.32527875900268555,"24":-0.17325733602046967,"25":0.055075425654649734,"26":0.004486671648919582,"27":-0.295430451631546,"28":0.6154871582984924,"29":-0.0034406587947160006,"30":0.10263340175151825,"31":0.2252465784549713,"32":-0.056058160960674286,"33":-0.13654525578022003,"34":-0.646293580532074,"35":0.6144598722457886,"36":-0.10561399161815643,"37":0.0698765441775322,"38":0.12216276675462723,"39":0.11819682270288467,"40":-0.04767298325896263,"41":-0.5661250948905945,"42":0.2994576394557953,"43":0.2260681390762329,"44":0.3616374433040619,"45":0.7040078043937683,"46":0.5595195889472961,"47":0.5888420939445496,"48":-0.14716653525829315}},"2":{"bias":-0.10070695728063583,"weights":{"0":0.17887593805789948,"1":0.10569725185632706,"2":0.14087113738059998,"3":-0.11694135516881943,"4":0.2833842933177948,"5":0.23851528763771057,"6":0.26977473497390747,"7":0.4716609716415405,"8":-0.18701429665088654,"9":-0.15308450162410736,"10":-0.060374319553375244,"11":-0.07262542098760605,"12":0.039253223687410355,"13":1.2373008728027344,"14":0.5783098340034485,"15":0.07747171074151993,"16":0.36894163489341736,"17":-0.06541874259710312,"18":0.3296533524990082,"19":0.05568532645702362,"20":1.4163618087768555,"21":-0.22903722524642944,"22":-0.29718127846717834,"23":-0.08922736346721649,"24":-0.3265611529350281,"25":0.05779055505990982,"26":-0.0685776025056839,"27":0.4361482262611389,"28":-1.0544987916946411,"29":0.05508842691779137,"30":0.12101543694734573,"31":-0.15730029344558716,"32":0.09532511979341507,"33":-0.12492357194423676,"34":0.9128713011741638,"35":-1.2161128520965576,"36":-0.03868551179766655,"37":0.008229262195527554,"38":-0.39407438039779663,"39":0.1994193196296692,"40":-0.04471815004944801,"41":0.8256776332855225,"42":-0.25819656252861023,"43":-0.5194158554077148,"44":-0.1430971622467041,"45":-0.5548218488693237,"46":-0.44197678565979004,"47":-0.44730716943740845,"48":0.13575567305088043}},"3":{"bias":-0.09105844795703888,"weights":{"0":0.02319478429853916,"1":0.2152792066335678,"2":0.2929273247718811,"3":0.1804753541946411,"4":0.1653892546892166,"5":0.17141874134540558,"6":0.03674498200416565,"7":0.8038592338562012,"8":-0.17576876282691956,"9":0.09005241096019745,"10":-0.07589446008205414,"11":0.04985559359192848,"12":0.0005312678986229002,"13":-0.7029937505722046,"14":1.0275628566741943,"15":-0.0945822075009346,"16":-0.19729086756706238,"17":-0.5110448598861694,"18":-0.13493697345256805,"19":-0.34631791710853577,"20":-0.8628944754600525,"21":0.10179218649864197,"22":-0.49546271562576294,"23":-0.2994493842124939,"24":-0.524948239326477,"25":-0.43724676966667175,"26":-0.34136763215065,"27":0.23052148520946503,"28":0.29939377307891846,"29":-0.031854841858148575,"30":0.006274988409131765,"31":-0.0385613851249218,"32":-0.19164158403873444,"33":0.14433881640434265,"34":0.5965554714202881,"35":-0.03602339327335358,"36":0.08196723461151123,"37":-0.04177773371338844,"38":-0.037076931446790695,"39":-0.10802562534809113,"40":-0.11451941728591919,"41":0.41320693492889404,"42":-0.2120271921157837,"43":-0.18395870923995972,"44":0.008527502417564392,"45":-0.22697356343269348,"46":-0.06449932605028152,"47":-0.23262302577495575,"48":-0.014076024293899536}},"4":{"bias":-0.27746206521987915,"weights":{"0":-0.20448149740695953,"1":-0.14150303602218628,"2":-0.4033406376838684,"3":-0.49217504262924194,"4":-0.2842734456062317,"5":-0.29414433240890503,"6":-0.17627066373825073,"7":0.78956538438797,"8":-0.008319932036101818,"9":0.006314203143119812,"10":-0.07798392325639725,"11":-0.03717995062470436,"12":0.16916650533676147,"13":0.9211113452911377,"14":0.8059638142585754,"15":0.4073162078857422,"16":0.1777758151292801,"17":0.14612030982971191,"18":0.18696542084217072,"19":0.16470877826213837,"20":0.8501202464103699,"21":-0.011837411671876907,"22":0.57004314661026,"23":0.5925512313842773,"24":0.19021712243556976,"25":0.7585663795471191,"26":0.7858752608299255,"27":-0.10874256491661072,"28":0.6499215960502625,"29":-0.002016461454331875,"30":-0.16693700850009918,"31":-0.37048178911209106,"32":-0.15281157195568085,"33":-0.06499932706356049,"34":-0.07858768105506897,"35":0.943368136882782,"36":0.15547282993793488,"37":0.0291452594101429,"38":-0.3768758177757263,"39":0.14428092539310455,"40":0.1646566092967987,"41":-0.09200919419527054,"42":-0.6779576539993286,"43":-0.5462744235992432,"44":-0.4467567801475525,"45":-0.896246075630188,"46":-0.6124364733695984,"47":-0.5425848960876465,"48":-0.0487515963613987}},"5":{"bias":0.4437301456928253,"weights":{"0":0.057653505355119705,"1":-0.2902210056781769,"2":-0.4250037670135498,"3":0.09828797727823257,"4":-0.3901554346084595,"5":-0.42485639452934265,"6":0.07924621552228928,"7":0.46800661087036133,"8":-0.0024183769710361958,"9":-0.17209795117378235,"10":0.17562751471996307,"11":-0.11738389730453491,"12":-0.029466042295098305,"13":-0.4381563067436218,"14":0.45811522006988525,"15":0.3565122187137604,"16":0.3001508414745331,"17":0.5801050662994385,"18":0.2566068470478058,"19":0.24870379269123077,"20":-0.4287203252315521,"21":-0.013160635717213154,"22":-0.3558503985404968,"23":-0.3246766924858093,"24":0.011393795721232891,"25":-0.09805852919816971,"26":-0.30911684036254883,"27":-0.007127266842871904,"28":0.22617045044898987,"29":-0.10994581878185272,"30":0.06621355563402176,"31":0.24191349744796753,"32":-0.13046367466449738,"33":-0.16010405123233795,"34":0.03934716433286667,"35":0.3457990288734436,"36":-0.17678596079349518,"37":-0.036697015166282654,"38":0.36052408814430237,"39":0.005919088143855333,"40":-0.17427869141101837,"41":-0.10467971861362457,"42":0.04875241219997406,"43":-0.042926110327243805,"44":-0.1612679660320282,"45":0.5333814024925232,"46":0.05155544728040695,"47":-0.06487245857715607,"48":-0.0834144651889801}},"6":{"bias":0.419770747423172,"weights":{"0":0.29764652252197266,"1":-0.11591535061597824,"2":-0.06186753138899803,"3":0.3845983147621155,"4":0.1655983030796051,"5":0.013815327547490597,"6":0.3169134557247162,"7":-0.2291266769170761,"8":0.14534322917461395,"9":-0.1286316066980362,"10":0.48390528559684753,"11":0.04797407239675522,"12":0.15804316103458405,"13":-0.10003574937582016,"14":-0.32788845896720886,"15":0.08718062937259674,"16":0.1281375288963318,"17":0.5139848589897156,"18":0.024835173040628433,"19":0.18966415524482727,"20":-0.17762766778469086,"21":-0.10709533840417862,"22":0.24323758482933044,"23":0.27572980523109436,"24":0.29741427302360535,"25":0.08231060951948166,"26":0.13072994351387024,"27":-0.051247574388980865,"28":-1.553511142730713,"29":-0.16662350296974182,"30":0.10048197954893112,"31":0.3952098488807678,"32":-0.1536635458469391,"33":-0.17316563427448273,"34":0.38641947507858276,"35":-1.5259208679199219,"36":0.07474188506603241,"37":0.16733591258525848,"38":0.3313848078250885,"39":-0.11914747208356857,"40":-0.19076573848724365,"41":0.16201475262641907,"42":-0.09545020014047623,"43":-0.22476798295974731,"44":-0.3419131636619568,"45":0.04306546971201897,"46":-0.17872899770736694,"47":-0.09400450438261032,"48":-0.02774958312511444}},"7":{"bias":0.03645520284771919,"weights":{"0":-0.021996337920427322,"1":-0.06862129271030426,"2":-0.153883159160614,"3":0.0011233059922233224,"4":-0.38248157501220703,"5":-0.08625809103250504,"6":-0.34875765442848206,"7":0.24870364367961884,"8":-0.04625660926103592,"9":-0.012583401054143906,"10":0.17121988534927368,"11":-0.07277578860521317,"12":-0.025967800989747047,"13":-0.8107633590698242,"14":-0.11425139009952545,"15":0.048099640756845474,"16":-0.10602815449237823,"17":0.02150331810116768,"18":0.22056305408477783,"19":0.06782764196395874,"20":-1.0584468841552734,"21":-0.06182476133108139,"22":-0.26981717348098755,"23":-0.2305956333875656,"24":-0.42567044496536255,"25":-0.3068014085292816,"26":-0.5322113633155823,"27":-0.05743918940424919,"28":-0.639219343662262,"29":0.027675379067659378,"30":-0.02843417041003704,"31":0.07488369941711426,"32":0.07961487025022507,"33":0.05008813366293907,"34":0.5157080888748169,"35":-0.46937045454978943,"36":-0.05745904520153999,"37":-0.053672920912504196,"38":0.2358071357011795,"39":0.07997747510671616,"40":0.13133203983306885,"41":0.6684525012969971,"42":0.7296066880226135,"43":0.7544918656349182,"44":0.662733256816864,"45":0.5907809138298035,"46":0.5592259764671326,"47":0.7129443287849426,"48":-0.09955353289842606}},"8":{"bias":0.22316977381706238,"weights":{"0":0.11990237236022949,"1":0.3496052622795105,"2":0.2575589418411255,"3":0.5141844749450684,"4":0.46130385994911194,"5":0.28921017050743103,"6":0.14384888112545013,"7":-0.8874417543411255,"8":-0.13586147129535675,"9":0.09810549020767212,"10":0.05119042098522186,"11":-0.0026063392870128155,"12":0.13580739498138428,"13":-0.899722158908844,"14":-0.8201128244400024,"15":-0.17809918522834778,"16":-0.09894624352455139,"17":-0.2067776471376419,"18":-0.04245420917868614,"19":-0.303188294172287,"20":-1.0332624912261963,"21":0.1579161435365677,"22":0.20072545111179352,"23":0.4701279103755951,"24":0.6508706212043762,"25":0.1758795529603958,"26":0.47893521189689636,"27":0.1728300005197525,"28":-1.0442827939987183,"29":0.013559600338339806,"30":0.1258213073015213,"31":0.37005481123924255,"32":-0.046861112117767334,"33":0.040113020688295364,"34":0.14899073541164398,"35":-1.2952487468719482,"36":-0.172127366065979,"37":-0.07645772397518158,"38":0.2817630171775818,"39":-0.048787880688905716,"40":-0.023295272141695023,"41":0.14983537793159485,"42":-0.2590633034706116,"43":-0.21539896726608276,"44":-0.28520771861076355,"45":-0.05328504368662834,"46":0.034804608672857285,"47":0.010527129285037518,"48":0.051767800003290176}},"9":{"bias":0.36537623405456543,"weights":{"0":0.25374382734298706,"1":-0.1452484130859375,"2":-0.2333288937807083,"3":0.3388628363609314,"4":-0.01365914847701788,"5":0.11222391575574875,"6":0.25029268860816956,"7":-0.6926926374435425,"8":0.004709659144282341,"9":-0.038002584129571915,"10":0.4754866063594818,"11":0.060398705303668976,"12":0.017391350120306015,"13":0.12892203032970428,"14":-0.4376632273197174,"15":0.20012888312339783,"16":0.4044025242328644,"17":0.45810970664024353,"18":0.1479761302471161,"19":0.22621427476406097,"20":0.3669053316116333,"21":-0.47846072912216187,"22":-0.26453840732574463,"23":-0.380936861038208,"24":0.2858790457248688,"25":-0.3149869441986084,"26":-0.06113823130726814,"27":0.14385674893856049,"28":-0.06250134855508804,"29":-0.18237008154392242,"30":0.06239043176174164,"31":0.3480861783027649,"32":0.11137089878320694,"33":-0.19111929833889008,"34":-0.17070253193378448,"35":0.0094666862860322,"36":-0.11667592823505402,"37":0.05292467772960663,"38":0.24503260850906372,"39":0.18071916699409485,"40":-0.1633124202489853,"41":-0.32660403847694397,"42":0.056858088821172714,"43":0.0038275171536952257,"44":0.04627283290028572,"45":0.12513741850852966,"46":-0.31901460886001587,"47":-0.2700183093547821,"48":0.2857637405395508}},"10":{"bias":-0.2497505098581314,"weights":{"0":0.08668944984674454,"1":-0.3762569725513458,"2":-0.1007564514875412,"3":-0.5670332908630371,"4":-0.04673014208674431,"5":-0.05058690533041954,"6":-0.07882381230592728,"7":-1.05318284034729,"8":-0.1640150547027588,"9":0.12875281274318695,"10":-0.18860474228858948,"11":0.18625548481941223,"12":-0.06459159404039383,"13":0.5998971462249756,"14":-0.868495762348175,"15":0.39423641562461853,"16":0.3719668984413147,"17":-0.1291600614786148,"18":0.042834993451833725,"19":0.30757489800453186,"20":0.4780499339103699,"21":0.0976705476641655,"22":0.18742583692073822,"23":0.37524518370628357,"24":0.09785459190607071,"25":0.20638732612133026,"26":0.09280149638652802,"27":0.06769532710313797,"28":-0.5075420141220093,"29":-0.10718761384487152,"30":0.1898580640554428,"31":-0.33478066325187683,"32":0.15688297152519226,"33":0.17335359752178192,"34":-0.19328680634498596,"35":-0.2389010488986969,"36":-0.10350373387336731,"37":-0.1848694235086441,"38":-0.07897263765335083,"39":-0.0733625590801239,"40":0.12574145197868347,"41":-0.2670312821865082,"42":0.4122961759567261,"43":0.07764840871095657,"44":0.2308633029460907,"45":0.18256081640720367,"46":0.41773003339767456,"47":0.09738689661026001,"48":0.18445216119289398}},"11":{"bias":0.07745108008384705,"weights":{"0":-0.2128303200006485,"1":-0.031393926590681076,"2":-0.4218650162220001,"3":-0.3548266291618347,"4":-0.04262911528348923,"5":-0.08186647295951843,"6":-0.21510837972164154,"7":1.5184226036071777,"8":0.12969064712524414,"9":-0.19562111794948578,"10":-0.05122118443250656,"11":-0.1600007265806198,"12":-0.02582157403230667,"13":-0.9157781004905701,"14":1.558195948600769,"15":0.15553712844848633,"16":0.1957903504371643,"17":0.024580497294664383,"18":0.05962561443448067,"19":0.17353901267051697,"20":-0.9048003554344177,"21":-0.019518598914146423,"22":-0.11150503903627396,"23":-0.3354222774505615,"24":-0.28627708554267883,"25":-0.04686393961310387,"26":-0.26838916540145874,"27":-0.03955088183283806,"28":0.828959584236145,"29":0.013367792591452599,"30":-0.1298225075006485,"31":-0.07675540447235107,"32":-0.18977434933185577,"33":0.0874893069267273,"34":0.18282189965248108,"35":0.6409528851509094,"36":-0.18652066588401794,"37":-0.04344605281949043,"38":-0.12945225834846497,"39":-0.1749839186668396,"40":0.14372044801712036,"41":0.116645447909832,"42":0.34389668703079224,"43":0.3465021848678589,"44":0.2094857394695282,"45":0.10243495553731918,"46":0.1889623999595642,"47":0.12847401201725006,"48":0.009428123012185097}},"12":{"bias":-0.08298315107822418,"weights":{"0":-0.12779822945594788,"1":0.2080024629831314,"2":0.13694612681865692,"3":0.2557954788208008,"4":0.03060072474181652,"5":0.22423289716243744,"6":-0.3611237108707428,"7":0.028696155175566673,"8":0.0277593731880188,"9":0.19829007983207703,"10":-0.08256563544273376,"11":0.19019775092601776,"12":0.1825832724571228,"13":-0.21006150543689728,"14":-0.12687286734580994,"15":-0.24099968373775482,"16":-0.08903325349092484,"17":-0.12664219737052917,"18":-0.3937837481498718,"19":-0.4159109890460968,"20":-0.23384033143520355,"21":0.21162252128124237,"22":0.2306101769208908,"23":0.13514409959316254,"24":0.2556968927383423,"25":0.12014473229646683,"26":0.08770976960659027,"27":-0.2578521966934204,"28":0.17176862061023712,"29":-0.05282639339566231,"30":-0.17767433822155,"31":0.04713761806488037,"32":-0.1885952353477478,"33":0.170920729637146,"34":-0.22771206498146057,"35":0.3601109981536865,"36":0.10863043367862701,"37":0.17271694540977478,"38":-0.11281008273363113,"39":-0.14628759026527405,"40":0.1892046332359314,"41":-0.033926915377378464,"42":0.47933337092399597,"43":0.41567283868789673,"44":0.26376089453697205,"45":0.6189293265342712,"46":0.4220399856567383,"47":0.2301454097032547,"48":-0.24379731714725494}},"13":{"bias":0.012876483611762524,"weights":{"0":0.04973774030804634,"1":0.09708394855260849,"2":0.23898360133171082,"3":-0.27275919914245605,"4":0.12804929912090302,"5":-0.035168103873729706,"6":0.06692008674144745,"7":0.26050183176994324,"8":-0.017261572182178497,"9":0.1987874060869217,"10":-0.5356141328811646,"11":-0.05179011449217796,"12":-0.1698218137025833,"13":0.07716982811689377,"14":0.42700323462486267,"15":0.06418309360742569,"16":-0.010217027738690376,"17":-0.25723981857299805,"18":-0.044721346348524094,"19":-0.032725151628255844,"20":0.25921645760536194,"21":0.07534060627222061,"22":0.11354369670152664,"23":0.0009189926204271615,"24":-0.38437530398368835,"25":0.26860764622688293,"26":-0.007161541376262903,"27":0.26372817158699036,"28":0.11450889706611633,"29":-0.09426101297140121,"30":-0.15332265198230743,"31":-0.48127463459968567,"32":0.0772625207901001,"33":-0.12416121363639832,"34":0.3946581780910492,"35":0.11369553953409195,"36":0.1535998433828354,"37":0.03969013690948486,"38":-0.5191153883934021,"39":-0.16221673786640167,"40":0.08998607099056244,"41":0.4523220956325531,"42":0.006508134305477142,"43":-0.19481128454208374,"44":-0.04724043607711792,"45":-0.40340426564216614,"46":0.12161920964717865,"47":0.13111752271652222,"48":0.19187432527542114}},"14":{"bias":0.2083767056465149,"weights":{"0":0.013574903830885887,"1":0.458429217338562,"2":0.2263701856136322,"3":0.5061252117156982,"4":0.45956936478614807,"5":0.31570249795913696,"6":0.1760835498571396,"7":-0.5168185830116272,"8":0.07030115276575089,"9":-0.05833892896771431,"10":0.05025782436132431,"11":-0.10980476438999176,"12":0.18164749443531036,"13":0.16279013454914093,"14":-0.48394501209259033,"15":-0.42199915647506714,"16":-0.3845629096031189,"17":-0.12420526146888733,"18":-0.47897547483444214,"19":-0.23843471705913544,"20":0.226996511220932,"21":-0.3199825584888458,"22":-1.0432626008987427,"23":-1.0037691593170166,"24":-0.7739143967628479,"25":-0.959038257598877,"26":-1.0261095762252808,"27":-0.05475715920329094,"28":0.06755215674638748,"29":0.13563157618045807,"30":-0.003938025329262018,"31":0.06593794375658035,"32":0.07074964791536331,"33":-0.1590617150068283,"34":0.35600656270980835,"35":0.017120204865932465,"36":0.06964988261461258,"37":0.1430359035730362,"38":0.04427322372794151,"39":-0.1911506950855255,"40":-0.09385049343109131,"41":0.10584627091884613,"42":0.16010098159313202,"43":0.08783717453479767,"44":-0.12298817187547684,"45":0.030729323625564575,"46":0.15135014057159424,"47":-0.0017759986221790314,"48":-0.08959349989891052}},"15":{"bias":0.10540886223316193,"weights":{"0":0.09094732999801636,"1":0.07615778595209122,"2":0.08089744299650192,"3":0.07683315128087997,"4":-0.0068735284730792046,"5":0.3447016179561615,"6":0.3123071491718292,"7":-0.10140471160411835,"8":-0.09975039213895798,"9":-0.12413422763347626,"10":0.019505713135004044,"11":0.018306203186511993,"12":0.1612931787967682,"13":0.7596064805984497,"14":-0.0697464793920517,"15":-0.0020771899726241827,"16":0.01932813785970211,"17":0.15187378227710724,"18":-0.13076364994049072,"19":0.18302437663078308,"20":0.5622451901435852,"21":-0.18459080159664154,"22":-0.635547399520874,"23":-0.8363893032073975,"24":-0.7822305560112,"25":-0.604837954044342,"26":-0.7415613532066345,"27":0.1898958832025528,"28":1.238199234008789,"29":0.12041012197732925,"30":0.1386851668357849,"31":0.046400293707847595,"32":0.06436316668987274,"33":0.11677616834640503,"34":-0.26831355690956116,"35":1.178077220916748,"36":-0.0586688332259655,"37":-0.157270610332489,"38":-0.08528516441583633,"39":0.06888196617364883,"40":-0.1169632151722908,"41":-0.29873284697532654,"42":-0.05079289898276329,"43":-0.02658245712518692,"44":0.24869102239608765,"45":-0.014505545608699322,"46":0.14485758543014526,"47":0.01650858297944069,"48":0.34531524777412415}},"16":{"bias":0.11151434481143951,"weights":{"0":0.0531519278883934,"1":0.534112811088562,"2":0.43613800406455994,"3":0.6103662252426147,"4":0.4392715394496918,"5":0.5768948197364807,"6":-0.11095152050256729,"7":-0.7472817301750183,"8":0.06301966309547424,"9":0.0604548417031765,"10":0.3431648313999176,"11":0.07499730587005615,"12":0.0986415296792984,"13":0.2578210234642029,"14":-0.9018470048904419,"15":-0.4162736237049103,"16":-0.4783778190612793,"17":0.06453970074653625,"18":-0.2012859582901001,"19":-0.4290715157985687,"20":0.6309208273887634,"21":-0.06754006445407867,"22":-0.16600951552391052,"23":0.06547645479440689,"24":0.2839280664920807,"25":0.07926809042692184,"26":0.12890513241291046,"27":0.22113879024982452,"28":-0.46814680099487305,"29":-0.1442863941192627,"30":0.15558888018131256,"31":0.2964197099208832,"32":-0.1452612727880478,"33":0.09747368842363358,"34":-0.5202885270118713,"35":-0.3415636718273163,"36":-0.04057387262582779,"37":-0.10003769397735596,"38":0.35054582357406616,"39":0.07920188456773758,"40":-0.01842758059501648,"41":-0.4155237376689911,"42":-0.2084483802318573,"43":-0.2712954878807068,"44":-0.6011403203010559,"45":-0.35799282789230347,"46":-0.5876322388648987,"47":-0.5702250599861145,"48":0.28332361578941345}},"17":{"bias":0.15998800098896027,"weights":{"0":0.21156680583953857,"1":-0.14969517290592194,"2":-0.2277776002883911,"3":-0.23480704426765442,"4":-0.08211832493543625,"5":-0.15301430225372314,"6":0.2214737832546234,"7":0.06420307606458664,"8":0.1368710696697235,"9":-0.00688146660104394,"10":-0.09024643898010254,"11":-0.15543682873249054,"12":-0.16490228474140167,"13":-0.6640722751617432,"14":0.32294338941574097,"15":0.36718443036079407,"16":0.1360083371400833,"17":0.38344651460647583,"18":0.26576101779937744,"19":0.40046238899230957,"20":-0.8063431978225708,"21":0.08528418838977814,"22":0.41854432225227356,"23":0.16779100894927979,"24":0.2142314612865448,"25":0.3686739206314087,"26":0.26404106616973877,"27":0.2209579050540924,"28":-0.8374240398406982,"29":0.053348932415246964,"30":-0.10675398260354996,"31":0.12454872578382492,"32":-0.12846434116363525,"33":0.05717743933200836,"34":-0.08259525895118713,"35":-0.8806483149528503,"36":0.0737767219543457,"37":0.11820068955421448,"38":-0.09568759799003601,"39":0.12405463308095932,"40":-0.025135798379778862,"41":-0.2561534345149994,"42":0.07575798779726028,"43":0.1109841987490654,"44":-0.16716532409191132,"45":-0.0890192911028862,"46":-0.08180107921361923,"47":0.03437411040067673,"48":0.2307690978050232}},"18":{"bias":0.323968768119812,"weights":{"0":0.11174748837947845,"1":-0.39639270305633545,"2":-0.4224907457828522,"3":0.07007703185081482,"4":-0.41123491525650024,"5":-0.11770960688591003,"6":-0.13558946549892426,"7":0.21930980682373047,"8":0.015498376451432705,"9":-0.08228867501020432,"10":0.13614775240421295,"11":0.1849215179681778,"12":-0.1479572206735611,"13":0.18552355468273163,"14":0.17013011872768402,"15":0.2442261427640915,"16":0.21558691561222076,"17":0.4986352324485779,"18":0.1565283089876175,"19":0.4301008880138397,"20":0.3247230350971222,"21":-0.04187750443816185,"22":-0.3751896321773529,"23":-0.3820321559906006,"24":-0.37746095657348633,"25":-0.4167976975440979,"26":-0.4883913993835449,"27":-0.1192455142736435,"28":0.28085342049598694,"29":0.11367283016443253,"30":0.13971567153930664,"31":0.20794515311717987,"32":0.14733539521694183,"33":0.0768536850810051,"34":0.09276682138442993,"35":-0.06993059813976288,"36":0.037259966135025024,"37":-0.06813274323940277,"38":0.04873564466834068,"39":-0.1747274249792099,"40":-0.028068190440535545,"41":0.22706684470176697,"42":-0.12245817482471466,"43":0.11978840082883835,"44":-0.23256146907806396,"45":0.12157844007015228,"46":0.12947505712509155,"47":-0.14870068430900574,"48":-0.08290229737758636}},"19":{"bias":0.07331886142492294,"weights":{"0":-0.2934689521789551,"1":-0.10581249743700027,"2":0.036112189292907715,"3":0.2574874460697174,"4":0.14585469663143158,"5":-0.09263352304697037,"6":-0.23778145015239716,"7":0.3143315017223358,"8":-0.11273087561130524,"9":-0.15518100559711456,"10":0.3622282147407532,"11":0.1801798790693283,"12":-0.11604152619838715,"13":-0.138259157538414,"14":0.1091972067952156,"15":0.02215666137635708,"16":-0.2502387762069702,"17":0.10836959630250931,"18":-0.16363394260406494,"19":-0.2339036911725998,"20":-0.1989814192056656,"21":0.1631561815738678,"22":0.713674783706665,"23":0.5078379511833191,"24":0.8415241241455078,"25":0.6581366658210754,"26":0.7152214050292969,"27":-0.17564474046230316,"28":1.1560696363449097,"29":-0.14248616993427277,"30":-0.1730671375989914,"31":0.26717764139175415,"32":0.17275920510292053,"33":-0.008933314122259617,"34":-0.9915024638175964,"35":1.4099215269088745,"36":-0.13458721339702606,"37":-0.11697397381067276,"38":0.0019512452417984605,"39":0.1645289808511734,"40":0.006730733439326286,"41":-0.8166523575782776,"42":-0.3203788697719574,"43":-0.4550066590309143,"44":-0.630659818649292,"45":-0.34054291248321533,"46":-0.29519951343536377,"47":-0.6044291257858276,"48":-0.18131403625011444}}},{"zero":{"bias":-0.6666320562362671,"weights":{"0":0.43001583218574524,"1":0.15989822149276733,"2":-0.13262158632278442,"3":0.7051249742507935,"4":-1.278160572052002,"5":-0.16929106414318085,"6":-1.5575050115585327,"7":0.5238507986068726,"8":-1.7547043561935425,"9":-0.9878238439559937,"10":-1.0198248624801636,"11":0.5260475873947144,"12":0.013574270531535149,"13":-0.35520708560943604,"14":1.4748376607894897,"15":1.2501060962677002,"16":-0.9369381666183472,"17":-1.2942793369293213,"18":0.17605559527873993,"19":-1.6599515676498413}},"one":{"bias":-0.4872737526893616,"weights":{"0":0.870704174041748,"1":0.3145653307437897,"2":-1.2809255123138428,"3":-1.0094010829925537,"4":-1.2652478218078613,"5":1.1635607481002808,"6":0.9956051111221313,"7":-0.06782305985689163,"8":0.20756271481513977,"9":0.8454536199569702,"10":-1.0578750371932983,"11":-0.7853732705116272,"12":-0.30933117866516113,"13":-2.3125178813934326,"14":0.1652071326971054,"15":-0.5219497680664062,"16":0.34828150272369385,"17":-0.41386494040489197,"18":0.3902594745159149,"19":0.28695106506347656}},"two":{"bias":-0.18841473758220673,"weights":{"0":-0.6910187005996704,"1":1.5343066453933716,"2":-2.0444164276123047,"3":-1.632934808731079,"4":0.004198027309030294,"5":-0.6297773718833923,"6":-1.112620234489441,"7":-1.321185827255249,"8":-0.6460182070732117,"9":-0.1735612004995346,"10":0.8188537359237671,"11":-1.2089240550994873,"12":0.16131283342838287,"13":-0.29511532187461853,"14":-0.658719539642334,"15":0.36816877126693726,"16":0.20167690515518188,"17":-0.5800375938415527,"18":-0.6581346988677979,"19":1.4147531986236572}},"three":{"bias":-0.31475764513015747,"weights":{"0":-1.2327237129211426,"1":0.6972514390945435,"2":0.13727565109729767,"3":-1.5337507724761963,"4":-1.3295447826385498,"5":-0.8261639475822449,"6":0.549634575843811,"7":0.5379364490509033,"8":1.0567265748977661,"9":-0.4813363254070282,"10":1.262019395828247,"11":-2.4492061138153076,"12":0.23603107035160065,"13":-0.09617326408624649,"14":-0.3117242455482483,"15":-1.557218313217163,"16":0.0680418536067009,"17":-0.1253208965063095,"18":-0.5742810964584351,"19":-1.4015403985977173}},"four":{"bias":-0.5696748495101929,"weights":{"0":0.5574049949645996,"1":-0.938549280166626,"2":0.8391683101654053,"3":-0.7612429261207581,"4":0.6663332581520081,"5":1.092901349067688,"6":0.09727335721254349,"7":-0.5473936200141907,"8":-1.471052646636963,"9":0.3284759521484375,"10":-0.3356093466281891,"11":-0.02915829047560692,"12":-1.894857406616211,"13":-0.42379871010780334,"14":-0.711837112903595,"15":0.1596274971961975,"16":-1.394930362701416,"17":0.31972575187683105,"18":1.1381456851959229,"19":-1.235875129699707}},"five":{"bias":-0.5502855777740479,"weights":{"0":-0.7956435680389404,"1":-1.656318187713623,"2":-0.3249439299106598,"3":0.3479152023792267,"4":-1.5351839065551758,"5":-0.46294981241226196,"6":0.8333905935287476,"7":1.031650185585022,"8":1.0910552740097046,"9":-0.8738095760345459,"10":-0.46715298295021057,"11":0.8114500641822815,"12":-0.07973311841487885,"13":-0.28981009125709534,"14":-0.5762383341789246,"15":-1.9686706066131592,"16":-0.9738637804985046,"17":1.0202693939208984,"18":-0.6950156688690186,"19":-1.4208253622055054}},"six":{"bias":-0.5063990354537964,"weights":{"0":-0.3834412097930908,"1":-0.6380189061164856,"2":-2.5929768085479736,"3":0.8151715397834778,"4":-0.2395552694797516,"5":0.1341947317123413,"6":-1.5816431045532227,"7":0.7861402630805969,"8":-0.24268148839473724,"9":-0.8194265961647034,"10":-1.0289472341537476,"11":1.465734839439392,"12":0.14498725533485413,"13":0.13568080961704254,"14":-0.9722632169723511,"15":-0.5765091776847839,"16":-1.306993007659912,"17":-0.15298332273960114,"18":-0.6626080274581909,"19":1.12302827835083}},"seven":{"bias":-0.6916075944900513,"weights":{"0":-0.2388043999671936,"1":-0.8684260845184326,"2":0.8436434864997864,"3":-0.0480746291577816,"4":-0.8011202812194824,"5":-0.792463481426239,"6":0.2218128889799118,"7":-1.1703789234161377,"8":0.1926749050617218,"9":0.3237047493457794,"10":-0.796416163444519,"11":-1.6036068201065063,"12":-1.2247726917266846,"13":-0.479024738073349,"14":2.0668907165527344,"15":0.8937397003173828,"16":1.1328314542770386,"17":-1.0106842517852783,"18":-0.17455832660198212,"19":-1.5398566722869873}},"eight":{"bias":-0.45597735047340393,"weights":{"0":-0.9311675429344177,"1":0.2842835485935211,"2":0.5783909559249878,"3":-0.3587993383407593,"4":1.669651746749878,"5":-0.82853102684021,"6":-1.1714911460876465,"7":-0.7142125368118286,"8":-1.9588779211044312,"9":-1.0746155977249146,"10":-0.4292680323123932,"11":1.0110284090042114,"12":0.059867702424526215,"13":0.42556437849998474,"14":-1.355413794517517,"15":0.19940395653247833,"16":-1.2501252889633179,"17":-1.1497447490692139,"18":-0.6288965940475464,"19":0.3103189468383789}},"nine":{"bias":-0.4785304367542267,"weights":{"0":-1.0535475015640259,"1":-1.5707043409347534,"2":1.1431915760040283,"3":0.027032850310206413,"4":1.5951895713806152,"5":-0.6476477980613708,"6":0.23406893014907837,"7":-1.9976507425308228,"8":0.30524128675460815,"9":-0.900293231010437,"10":-0.9309147596359253,"11":-0.9021194577217102,"12":-0.6881322860717773,"13":-0.005796297453343868,"14":-1.096470594406128,"15":-1.4045333862304688,"16":0.8566849231719971,"17":-0.06995203346014023,"18":-0.5244770050048828,"19":0.7213655114173889}}}],"outputLookup":true,"inputLookup":false,"activation":"sigmoid","trainOpts":{"iterations":20000,"errorThresh":0.005,"log":false,"logPeriod":10,"learningRate":0.3,"momentum":0.1,"callbackPeriod":1,"beta1":0.9,"beta2":0.999,"epsilon":1e-8}}