{"sizes":[49,20,10],"layers":[{"0":{},"1":{},"2":{},"3":{},"4":{},"5":{},"6":{},"7":{},"8":{},"9":{},"10":{},"11":{},"12":{},"13":{},"14":{},"15":{},"16":{},"17":{},"18":{},"19":{},"20":{},"21":{},"22":{},"23":{},"24":{},"25":{},"26":{},"27":{},"28":{},"29":{},"30":{},"31":{},"32":{},"33":{},"34":{},"35":{},"36":{},"37":{},"38":{},"39":{},"40":{},"41":{},"42":{},"43":{},"44":{},"45":{},"46":{},"47":{},"48":{}},{"0":{"bias":25.849899291992188,"weights":{"0":28.307762145996094,"1":-12.483599662780762,"2":-12.51684284210205,"3":-12.77364730834961,"4":-12.659771919250488,"5":-12.741793632507324,"6":28.418907165527344,"7":36.13106918334961,"8":-0.19524875283241272,"9":0.016472192481160164,"10":0.17016293108463287,"11":-0.09700236469507217,"12":-0.13516047596931458,"13":29.44525718688965,"14":36.149898529052734,"15":41.15104675292969,"16":41.18299865722656,"17":41.30284118652344,"18":41.310935974121094,"19":41.26224899291992,"20":29.63100242614746,"21":-5.456118106842041,"22":-15.174121856689453,"23":-15.2067232131958,"24":-15.349129676818848,"25":-15.241673469543457,"26":-15.291546821594238,"27":28.547164916992188,"28":-25.676958084106445,"29":0.02406267262995243,"30":0.07362546771764755,"31":0.1423686146736145,"32":-0.010742925107479095,"33":0.07326222211122513,"34":27.943052291870117,"35":-25.657699584960938,"36":0.11213114857673645,"37":0.06801021844148636,"38":-0.10862413793802261,"39":-0.018270298838615417,"40":-0.0758112370967865,"41":28.048315048217773,"42":-28.649377822875977,"43":-28.584749221801758,"44":-28.492847442626953,"45":-28.41853141784668,"46":-28.373851776123047,"47":-28.34404945373535,"48":28.36309814453125}},"1":{"bias":0.08940616995096207,"weights":{"0":-0.140883669257164,"1":-0.07931862026453018,"2":0.12468623369932175,"3":0.07580605149269104,"4":0.10249645262956619,"5":-0.056432295590639114,"6":-0.08497112989425659,"7":0.11710035055875778,"8":0.11243714392185211,"9":0.037986934185028076,"10":-0.015926634892821312,"11":0.16901139914989471,"12":-0.10116265714168549,"13":-0.1227928027510643,"14":-0.26462846994400024,"15":0.13297028839588165,"16":-0.12553492188453674,"17":-0.13655313849449158,"18":0.18171553313732147,"19":0.20335645973682404,"20":-0.10104945302009583,"21":-0.12123427540063858,"22":0.059801775962114334,"23":-0.11604966968297958,"24":-0.03703059256076813,"25":-0.25358158349990845,"26":-0.11788174510002136,"27":0.04015394300222397,"28":0.17127230763435364,"29":-0.08461306989192963,"30":0.15663905441761017,"31":-0.18026770651340485,"32":0.03086499683558941,"33":0.0336301364004612,"34":-0.06713542342185974,"35":-0.03203536570072174,"36":-0.17906220257282257,"37":0.1892659068107605,"38":0.015333937481045723,"39":0.1391236037015915,"40":-0.09700889885425568,"41":0.004217364825308323,"42":-0.08876585215330124,"43":-0.1454777866601944,"44":-0.07978040724992752,"45":0.028677742928266525,"46":-0.06958142668008804,"47":-0.1411065310239792,"48":-0.09597384929656982}},"2":{"bias":11.4298095703125,"weights":{"0":-2.4653546810150146,"1":-32.36647415161133,"2":-32.16529083251953,"3":-17.00617027282715,"4":-32.35202407836914,"5":-32.34967803955078,"6":-2.4792797565460205,"7":88.81759643554688,"8":0.19909530878067017,"9":-0.11843648552894592,"10":15.15910530090332,"11":-0.11265501379966736,"12":0.04465795308351517,"13":72.34741973876953,"14":88.67857360839844,"15":29.770551681518555,"16":29.618623733520508,"17":45.05521774291992,"18":29.73311424255371,"19":29.93022918701172,"20":72.18098449707031,"21":-29.285266876220703,"22":-9.53787612915039,"23":-9.357072830200195,"24":5.699840545654297,"25":-9.421741485595703,"26":-9.353422164916992,"27":-2.6829183101654053,"28":132.2301483154297,"29":-0.17820657789707184,"30":0.187373086810112,"31":15.05077075958252,"32":-0.18452244997024536,"33":0.1360550969839096,"34":27.00299644470215,"35":132.15338134765625,"36":-0.14477194845676422,"37":-0.13201242685317993,"38":15.231504440307617,"39":0.01527322642505169,"40":-0.17939393222332,"41":27.242568969726562,"42":-3.47967267036438,"43":-3.4970080852508545,"44":-3.541517972946167,"45":11.631028175354004,"46":-3.147839307785034,"47":-3.2179739475250244,"48":-2.3255674839019775}},"3":{"bias":3.932103395462036,"weights":{"0":1.2331665754318237,"1":1.424436330795288,"2":1.5254908800125122,"3":4.739844799041748,"4":1.4766169786453247,"5":1.6149481534957886,"6":0.9905235767364502,"7":-5.198808193206787,"8":-0.16790065169334412,"9":-0.1721467524766922,"10":3.1678123474121094,"11":-0.06872807443141937,"12":0.07548496127128601,"13":20.444059371948242,"14":-5.089942455291748,"15":-0.4157288670539856,"16":-0.6310237646102905,"17":2.4818289279937744,"18":-0.2669626474380493,"19":-0.288303941488266,"20":20.626747131347656,"21":-1.0561888217926025,"22":3.297187328338623,"23":3.211315155029297,"24":6.178822994232178,"25":3.2556209564208984,"26":3.0944504737854004,"27":1.1761114597320557,"28":25.97089385986328,"29":-0.12407331168651581,"30":-0.07484254986047745,"31":3.2290453910827637,"32":0.16833198070526123,"33":-0.10277342796325684,"34":-9.518017768859863,"35":25.65048599243164,"36":0.07811252027750015,"37":0.04340063035488129,"38":3.0785717964172363,"39":-0.1762690544128418,"40":0.024865392595529556,"41":-9.386090278625488,"42":-2.926753044128418,"43":-3.053208351135254,"44":-2.8244314193725586,"45":0.11402053385972977,"46":-2.899425983428955,"47":-3.0028719902038574,"48":1.3201789855957031}},"4":{"bias":-0.7301967740058899,"weights":{"0":2.8516201972961426,"1":14.006393432617188,"2":14.059101104736328,"3":10.350261688232422,"4":13.775737762451172,"5":14.154067039489746,"6":2.924696922302246,"7":58.28163528442383,"8":0.02904040738940239,"9":-0.007650455925613642,"10":-3.6861753463745117,"11":0.0032767504453659058,"12":0.08843705803155899,"13":43.35581970214844,"14":57.97662353515625,"15":-11.071499824523926,"16":-11.192481994628906,"17":-14.62852668762207,"18":-11.274234771728516,"19":-11.235453605651855,"20":43.293033599853516,"21":36.12434005737305,"22":57.79296112060547,"23":57.637779235839844,"24":54.091068267822266,"25":57.5509033203125,"26":57.930755615234375,"27":2.7756805419921875,"28":-163.9990692138672,"29":-0.04109589755535126,"30":0.094847172498703,"31":-3.5315091609954834,"32":-0.1385406255722046,"33":0.07017297297716141,"34":82.27967071533203,"35":-163.8095703125,"36":-0.19875985383987427,"37":0.051101863384246826,"38":-3.722266435623169,"39":-0.16118919849395752,"40":-0.1648939698934555,"41":82.16451263427734,"42":-23.660676956176758,"43":-23.710886001586914,"44":-23.758447647094727,"45":-27.06056785583496,"46":-23.624025344848633,"47":-23.78098487854004,"48":2.7701892852783203}},"5":{"bias":-0.02865123562514782,"weights":{"0":-0.11425995826721191,"1":-0.1556088924407959,"2":-0.10422419011592865,"3":-0.10449056327342987,"4":0.07550055533647537,"5":-0.013207205571234226,"6":0.13305610418319702,"7":0.22861109673976898,"8":-0.1619708091020584,"9":0.06055929511785507,"10":0.05151829496026039,"11":-0.1831115186214447,"12":-0.014528905972838402,"13":-0.20119071006774902,"14":-0.059381548315286636,"15":0.18517115712165833,"16":0.016048986464738846,"17":-0.15316744148731232,"18":-0.09669893980026245,"19":-0.027172120288014412,"20":-0.19621019065380096,"21":0.019198762252926826,"22":-0.12712518870830536,"23":-0.10881812125444412,"24":0.0593426339328289,"25":-0.04958430677652359,"26":-0.1519199013710022,"27":0.11997009068727493,"28":-0.14987973868846893,"29":-0.023464957252144814,"30":0.11428402364253998,"31":-0.26732537150382996,"32":0.15318024158477783,"33":-0.09828884899616241,"34":0.0884115993976593,"35":0.040081147104501724,"36":-0.11138862371444702,"37":-0.05924106761813164,"38":0.05241337791085243,"39":-0.10038896650075912,"40":0.19586345553398132,"41":-0.15446217358112335,"42":0.15755505859851837,"43":0.13686750829219818,"44":-0.010906358249485493,"45":-0.14339351654052734,"46":0.01416017021983862,"47":-0.1739918291568756,"48":-0.011662721633911133}},"6":{"bias":57.50566101074219,"weights":{"0":11.137248039245605,"1":6.532989978790283,"2":6.59279727935791,"3":59.286746978759766,"4":6.399005889892578,"5":6.588304042816162,"6":11.20864486694336,"7":-44.34397888183594,"8":-0.05310782417654991,"9":-0.13672961294651031,"10":52.856117248535156,"11":0.10630766302347183,"12":0.028208903968334198,"13":-2.229714870452881,"14":-44.24296188354492,"15":4.412107944488525,"16":4.4067583084106445,"17":57.4432373046875,"18":4.598504543304443,"19":4.707993984222412,"20":-2.295238971710205,"21":6.874067306518555,"22":-7.904173374176025,"23":-7.952581882476807,"24":45.18631362915039,"25":-7.976653575897217,"26":-7.86839485168457,"27":11.318875312805176,"28":-15.877144813537598,"29":-0.10135114938020706,"30":-0.10910193622112274,"31":52.63978576660156,"32":0.017570288851857185,"33":0.10793164372444153,"34":-20.858440399169922,"35":-16.069190979003906,"36":-0.14020821452140808,"37":0.16546152532100677,"38":52.951290130615234,"39":-0.14849069714546204,"40":0.07065589725971222,"41":-20.63152313232422,"42":1.0090720653533936,"43":0.9563485980033875,"44":1.1688082218170166,"45":53.82395935058594,"46":1.0589337348937988,"47":0.9444645047187805,"48":10.937178611755371}},"7":{"bias":-0.09639964997768402,"weights":{"0":0.1299477517604828,"1":-0.14836996793746948,"2":0.09116322547197342,"3":0.09414462745189667,"4":-0.23961985111236572,"5":-0.0005058915703557432,"6":-0.025609657168388367,"7":0.03991653397679329,"8":0.014804613776504993,"9":0.006416921969503164,"10":-0.09965846687555313,"11":0.15175487101078033,"12":0.057316966354846954,"13":0.06077335402369499,"14":-0.03400682285428047,"15":0.08810694515705109,"16":0.1287953108549118,"17":-0.013819456100463867,"18":-0.13673989474773407,"19":-0.09987451136112213,"20":-0.1611923724412918,"21":0.12204090505838394,"22":0.1730467677116394,"23":-0.11998526006937027,"24":0.17510555684566498,"25":0.16915291547775269,"26":-0.14027716219425201,"27":-0.11424129456281662,"28":-0.04729913920164108,"29":-0.04540342092514038,"30":0.06935284286737442,"31":0.196955144405365,"32":-0.014736448414623737,"33":0.028806401416659355,"34":-0.23502473533153534,"35":0.0553739033639431,"36":-0.063831627368927,"37":0.12864276766777039,"38":-0.08541214466094971,"39":-0.09099336713552475,"40":-0.17802128195762634,"41":-0.19972717761993408,"42":-0.10520487278699875,"43":0.02419079653918743,"44":-0.12719233334064484,"45":-0.1690288633108139,"46":-0.09497889131307602,"47":-0.18028686940670013,"48":0.13012127578258514}},"8":{"bias":-21.247209548950195,"weights":{"0":-13.13278579711914,"1":-4.915936470031738,"2":-4.8665666580200195,"3":-14.93306827545166,"4":-4.8692121505737305,"5":-4.755514144897461,"6":-13.124312400817871,"7":-32.39213943481445,"8":0.05298667028546333,"9":-0.19598202407360077,"10":-10.332770347595215,"11":0.0038387903477996588,"12":0.16734839975833893,"13":20.282960891723633,"14":-32.492774963378906,"15":-8.441062927246094,"16":-8.587519645690918,"17":-18.7728214263916,"18":-8.327552795410156,"19":-8.477269172668457,"20":20.436403274536133,"21":16.87342643737793,"22":41.456390380859375,"23":41.47900390625,"24":31.11534881591797,"25":41.18460464477539,"26":41.28369903564453,"27":-13.445474624633789,"28":51.44287872314453,"29":-0.1066647320985794,"30":0.17160604894161224,"31":-10.053421974182129,"32":0.04748040810227394,"33":0.1775044947862625,"34":-14.128881454467773,"35":51.55311584472656,"36":0.07044375687837601,"37":0.09332339465618134,"38":-10.299091339111328,"39":0.09992395341396332,"40":0.12977348268032074,"41":-14.260210990905762,"42":55.07654571533203,"43":54.9737663269043,"44":54.89220428466797,"45":44.6219596862793,"46":54.73200225830078,"47":55.0876350402832,"48":-13.358359336853027}},"9":{"bias":-0.1180330365896225,"weights":{"0":-0.1491256058216095,"1":-0.08795221149921417,"2":0.0025618637446314096,"3":-0.11148043721914291,"4":-0.12324108928442001,"5":0.01474801916629076,"6":0.12819123268127441,"7":-0.28911668062210083,"8":-0.19482946395874023,"9":-0.06701938807964325,"10":0.027298634871840477,"11":-0.13518212735652924,"12":-0.07914356142282486,"13":-0.10183452069759369,"14":-0.08015576750040054,"15":-0.048406071960926056,"16":-0.10289310663938522,"17":-0.06129399687051773,"18":0.12173444777727127,"19":-0.16451407968997955,"20":0.17562247812747955,"21":0.037890322506427765,"22":0.09788108617067337,"23":0.2652408182621002,"24":0.1019585058093071,"25":-0.12566010653972626,"26":0.03412643074989319,"27":-0.029763786122202873,"28":0.008194617927074432,"29":-0.09465722739696503,"30":-0.02018442377448082,"31":0.08773982524871826,"32":0.027908047661185265,"33":0.0820402130484581,"34":0.03850702568888664,"35":0.07127026468515396,"36":0.1615504026412964,"37":-0.19918595254421234,"38":0.15414535999298096,"39":-0.03780648857355118,"40":-0.034918978810310364,"41":-0.03350718319416046,"42":0.08589984476566315,"43":-0.10958846658468246,"44":-0.21563485264778137,"45":-0.03592934086918831,"46":-0.0008619025466032326,"47":0.028113961219787598,"48":-0.08465651422739029}},"10":{"bias":-0.12511299550533295,"weights":{"0":-0.09075833857059479,"1":-0.1799999475479126,"2":0.04378566890954971,"3":0.018573278561234474,"4":-0.11244583129882812,"5":0.07701067626476288,"6":0.04308900982141495,"7":-0.030691683292388916,"8":0.12231145799160004,"9":-0.04633844643831253,"10":0.0882815271615982,"11":0.11547868698835373,"12":0.08650397509336472,"13":-0.04775266721844673,"14":-0.21249566972255707,"15":0.020519904792308807,"16":0.13794828951358795,"17":-0.015097621828317642,"18":-0.07398705184459686,"19":0.13892966508865356,"20":-0.15694692730903625,"21":-0.02986033819615841,"22":0.1591932624578476,"23":-0.009399843402206898,"24":-0.15815381705760956,"25":0.20909267663955688,"26":0.1268196702003479,"27":0.15368586778640747,"28":-0.19202843308448792,"29":0.006489289924502373,"30":-0.1754816472530365,"31":-0.12440171092748642,"32":-0.11335349082946777,"33":0.07331541925668716,"34":0.01849139668047428,"35":0.03713519498705864,"36":-0.022539563477039337,"37":-0.07885874807834625,"38":-0.11845878511667252,"39":0.18291692435741425,"40":-0.02900632470846176,"41":-0.036087289452552795,"42":0.10676991939544678,"43":-0.06298835575580597,"44":-0.169483482837677,"45":0.09593573212623596,"46":-0.16374605894088745,"47":-0.1596444994211197,"48":0.08382900804281235}},"11":{"bias":-0.11031390726566315,"weights":{"0":-0.011414635926485062,"1":-0.0841933861374855,"2":0.10702183097600937,"3":0.11241248995065689,"4":-0.2295055091381073,"5":0.00021218162146396935,"6":0.10759153217077255,"7":-0.0018512842943891883,"8":-0.02322758547961712,"9":0.10914735496044159,"10":0.03482130169868469,"11":-0.10819027572870255,"12":0.044960882514715195,"13":-0.034824032336473465,"14":-0.25418365001678467,"15":0.05773014575242996,"16":0.0871753916144371,"17":0.0350700244307518,"18":-0.15989738702774048,"19":-0.03992181643843651,"20":0.1661696881055832,"21":-0.2118460088968277,"22":0.12529416382312775,"23":-0.13406755030155182,"24":-0.1832807958126068,"25":-0.19453562796115875,"26":-0.06514616310596466,"27":0.05181298404932022,"28":-0.060981303453445435,"29":-0.044490013271570206,"30":-0.01710951142013073,"31":-0.02023855783045292,"32":-0.1480133980512619,"33":0.19787947833538055,"34":-0.05014048144221306,"35":0.12313254177570343,"36":0.03923498094081879,"37":-0.09348118305206299,"38":-0.15139085054397583,"39":0.007496223784983158,"40":0.16270387172698975,"41":-0.17847324907779694,"42":-0.17883974313735962,"43":0.007017053198069334,"44":0.10052081197500229,"45":-0.12270481139421463,"46":-0.22584213316440582,"47":0.024996869266033173,"48":-0.02313261479139328}},"12":{"bias":4.667854309082031,"weights":{"0":5.727670669555664,"1":-5.678280830383301,"2":-5.487378120422363,"3":-6.170692443847656,"4":-5.704879283905029,"5":-5.356722831726074,"6":5.4273223876953125,"7":8.623398780822754,"8":-0.07263857126235962,"9":0.09860780090093613,"10":-0.42409980297088623,"11":-0.032700806856155396,"12":0.1995014101266861,"13":5.6444597244262695,"14":8.68416976928711,"15":11.340134620666504,"16":11.323477745056152,"17":10.773655891418457,"18":11.124110221862793,"19":11.115554809570312,"20":5.48170804977417,"21":-2.3232991695404053,"22":-4.1749725341796875,"23":-4.158524513244629,"24":-4.729126930236816,"25":-4.358517169952393,"26":-4.201098918914795,"27":5.567911624908447,"28":-2.7559823989868164,"29":-0.033023808151483536,"30":-0.16975577175617218,"31":-0.45837846398353577,"32":-0.03207569196820259,"33":0.006963318679481745,"34":5.56935977935791,"35":-2.722062826156616,"36":-0.09853684157133102,"37":-0.05192858725786209,"38":-0.5445106029510498,"39":0.029693255200982094,"40":0.03272170200943947,"41":5.4271464347839355,"42":-2.6328482627868652,"43":-2.6636576652526855,"44":-2.524785041809082,"45":-2.986974000930786,"46":-2.3942692279815674,"47":-2.4028449058532715,"48":5.57196569442749}},"13":{"bias":28.485183715820312,"weights":{"0":32.75041198730469,"1":23.588790893554688,"2":23.6141357421875,"3":22.61860466003418,"4":23.81277084350586,"5":23.564373016357422,"6":32.780120849609375,"7":101.4992446899414,"8":0.08755214512348175,"9":-0.14769341051578522,"10":-0.7714343667030334,"11":0.06322707235813141,"12":0.14515186846256256,"13":-86.00210571289062,"14":101.75235748291016,"15":9.036690711975098,"16":9.013985633850098,"17":7.88818883895874,"18":9.011518478393555,"19":8.84974479675293,"20":-85.90052032470703,"21":2.666916608810425,"22":-60.62957000732422,"23":-60.65065002441406,"24":-61.527015686035156,"25":-60.577484130859375,"26":-60.73950958251953,"27":32.7095832824707,"28":85.83828735351562,"29":0.09134969860315323,"30":0.116001196205616,"31":-0.7604286074638367,"32":0.17986232042312622,"33":-0.1701008826494217,"34":38.31914138793945,"35":85.91417694091797,"36":0.00864712055772543,"37":-0.025441722944378853,"38":-0.7394329309463501,"39":0.036096520721912384,"40":-0.02441459894180298,"41":38.10037612915039,"42":18.31281852722168,"43":18.2999324798584,"44":18.237531661987305,"45":17.537080764770508,"46":18.454126358032227,"47":18.450780868530273,"48":32.5664176940918}},"14":{"bias":-0.06574311852455139,"weights":{"0":-0.15996010601520538,"1":-0.17414474487304688,"2":-0.09461936354637146,"3":0.05625222250819206,"4":-0.02150088921189308,"5":0.06019814312458038,"6":-0.012350942008197308,"7":0.1554105430841446,"8":-0.04306050017476082,"9":0.12948168814182281,"10":0.04104162007570267,"11":-0.18574663996696472,"12":-0.0918896496295929,"13":-0.06183485686779022,"14":-0.14233723282814026,"15":0.021309930831193924,"16":-0.1400088369846344,"17":-0.1809576004743576,"18":-0.019335730001330376,"19":-0.0438968688249588,"20":0.06700051575899124,"21":-0.13149434328079224,"22":0.09363910555839539,"23":0.05290701612830162,"24":0.15964190661907196,"25":-0.10903153568506241,"26":0.1600477397441864,"27":-0.1819564402103424,"28":0.049750518053770065,"29":-0.11835949867963791,"30":0.03737053647637367,"31":-0.12386259436607361,"32":-0.13983070850372314,"33":0.09433837980031967,"34":0.06876561790704727,"35":0.16455122828483582,"36":0.16404035687446594,"37":0.06257588416337967,"38":-0.1405942142009735,"39":0.10865720361471176,"40":0.07631289213895798,"41":-0.11641839891672134,"42":-0.011928343214094639,"43":-0.1369204968214035,"44":-0.15070036053657532,"45":-0.20699676871299744,"46":-0.08910813182592392,"47":-0.04817063733935356,"48":-0.042627256363630295}},"15":{"bias":-0.14901071786880493,"weights":{"0":0.06941000372171402,"1":0.13006317615509033,"2":-0.041170716285705566,"3":-0.06813514977693558,"4":0.1082676500082016,"5":-0.08370552957057953,"6":0.045196495950222015,"7":0.11192791163921356,"8":-0.09459251910448074,"9":-0.09518937766551971,"10":-0.052830442786216736,"11":0.04664141312241554,"12":0.13660752773284912,"13":-0.31450018286705017,"14":0.08963542431592941,"15":-0.02878573350608349,"16":-0.012190194800496101,"17":-0.024368345737457275,"18":-0.15215860307216644,"19":-0.1318606287240982,"20":-0.13605259358882904,"21":-0.00891367718577385,"22":0.08425583690404892,"23":-0.30716535449028015,"24":0.027438631281256676,"25":-0.16900329291820526,"26":-0.052052486687898636,"27":0.06518013030290604,"28":-0.12382669746875763,"29":0.14494659006595612,"30":0.10795708745718002,"31":-0.002964356914162636,"32":-0.14254257082939148,"33":-0.17203176021575928,"34":0.02618691697716713,"35":0.05424362048506737,"36":-0.18520207703113556,"37":-0.13258138298988342,"38":-0.04414243623614311,"39":-0.08467454463243484,"40":-0.060239486396312714,"41":-0.1427496075630188,"42":-0.06394430994987488,"43":-0.04652136191725731,"44":-0.0926886722445488,"45":0.20274154841899872,"46":-0.06969046592712402,"47":0.0606120228767395,"48":-0.040257617831230164}},"16":{"bias":43.5421142578125,"weights":{"0":47.573787689208984,"1":45.6815185546875,"2":45.831520080566406,"3":46.51469421386719,"4":45.64764404296875,"5":45.58356475830078,"6":47.42535400390625,"7":-87.74363708496094,"8":0.011967361904680729,"9":-0.05466728284955025,"10":1.0048351287841797,"11":0.17122098803520203,"12":-0.1466219425201416,"13":144.47152709960938,"14":-87.504150390625,"15":1.714877963066101,"16":1.9682950973510742,"17":2.7531824111938477,"18":1.8119795322418213,"19":1.8666841983795166,"20":144.40821838378906,"21":-4.285591125488281,"22":-64.59164428710938,"23":-64.55167388916016,"24":-63.49495315551758,"25":-64.47249603271484,"26":-64.51964569091797,"27":47.3560676574707,"28":-56.45597839355469,"29":0.06137826666235924,"30":-0.08855972439050674,"31":0.9652819633483887,"32":-0.006420135963708162,"33":-0.19053222239017487,"34":51.63828659057617,"35":-56.27165222167969,"36":0.155986949801445,"37":-0.024450069293379784,"38":1.0581459999084473,"39":-0.0063849883154034615,"40":0.03008241392672062,"41":51.75098419189453,"42":-7.75626802444458,"43":-7.727982044219971,"44":-7.685981273651123,"45":-6.6941094398498535,"46":-7.738933086395264,"47":-7.929898738861084,"48":47.58714294433594}},"17":{"bias":12.974616050720215,"weights":{"0":-1.4929544925689697,"1":-2.3713743686676025,"2":-2.2528088092803955,"3":13.566946029663086,"4":-2.412923574447632,"5":-2.405726194381714,"6":-1.7045445442199707,"7":2.985293388366699,"8":-0.1952974796295166,"9":0.01417706161737442,"10":16.00039291381836,"11":-0.030918868258595467,"12":-0.1711268126964569,"13":8.531617164611816,"14":2.6450023651123047,"15":0.7347233295440674,"16":0.7521743774414062,"17":16.9563045501709,"18":0.9827688932418823,"19":1.0426573753356934,"20":8.596267700195312,"21":-1.805678129196167,"22":-0.3867518901824951,"23":-0.07974021136760712,"24":15.872319221496582,"25":-0.06677491962909698,"26":-0.12563398480415344,"27":-1.6692169904708862,"28":7.603532791137695,"29":-0.10183727741241455,"30":-0.022317588329315186,"31":15.885344505310059,"32":0.048355039209127426,"33":0.11475703865289688,"34":-1.1183074712753296,"35":7.7409820556640625,"36":0.1570979803800583,"37":0.06947465240955353,"38":15.884729385375977,"39":0.012426760047674179,"40":-0.021088209003210068,"41":-1.1671050786972046,"42":-7.604574680328369,"43":-7.4402852058410645,"44":-7.436830043792725,"45":8.434327125549316,"46":-7.448562145233154,"47":-7.73258638381958,"48":-1.6848655939102173}},"18":{"bias":26.936378479003906,"weights":{"0":-0.9309852123260498,"1":-4.203211784362793,"2":-4.1841936111450195,"3":26.51382827758789,"4":-4.090568542480469,"5":-4.050268650054932,"6":-0.7100229263305664,"7":19.310768127441406,"8":-0.07618199288845062,"9":-0.15377330780029297,"10":30.487607955932617,"11":-0.01059962622821331,"12":0.16712644696235657,"13":-75.67655181884766,"14":19.22340965270996,"15":3.4036481380462646,"16":3.4230895042419434,"17":33.944583892822266,"18":3.2034900188446045,"19":3.1965372562408447,"20":-75.56817626953125,"21":16.678253173828125,"22":38.74216079711914,"23":38.80984878540039,"24":69.48015594482422,"25":38.562313079833984,"26":38.576290130615234,"27":-0.7103314399719238,"28":-91.57261657714844,"29":-0.15418270230293274,"30":0.14653311669826508,"31":30.468029022216797,"32":0.17684856057167053,"33":-0.007511497940868139,"34":11.509971618652344,"35":-91.47967529296875,"36":-0.020873336121439934,"37":-0.11512035131454468,"38":30.824739456176758,"39":-0.034936752170324326,"40":0.029565555974841118,"41":11.531417846679688,"42":-9.8310546875,"43":-10.083169937133789,"44":-10.117894172668457,"45":20.5783634185791,"46":-10.137019157409668,"47":-9.875864028930664,"48":-0.9447363615036011}},"19":{"bias":14.58839225769043,"weights":{"0":18.481731414794922,"1":-12.089947700500488,"2":-11.888042449951172,"3":-14.308284759521484,"4":-12.013230323791504,"5":-12.137261390686035,"6":18.241252899169922,"7":61.19171142578125,"8":-0.030921069905161858,"9":-0.11144895106554031,"10":-2.240683078765869,"11":-0.08761540055274963,"12":0.1835639774799347,"13":73.97090148925781,"14":61.253292083740234,"15":30.579498291015625,"16":30.345684051513672,"17":27.82904052734375,"18":30.3125,"19":30.5495548248291,"20":73.92298126220703,"21":-10.634744644165039,"22":20.37281036376953,"23":20.122631072998047,"24":17.65707015991211,"25":20.21050262451172,"26":20.229690551757812,"27":18.36785888671875,"28":25.792415618896484,"29":-0.18375571072101593,"30":-0.10632919520139694,"31":-2.2960596084594727,"32":-0.015623520128428936,"33":0.11109618842601776,"34":28.12359619140625,"35":25.76572608947754,"36":0.15078017115592957,"37":0.013249841518700123,"38":-2.4855844974517822,"39":-0.13647858798503876,"40":0.08968900889158249,"41":28.099315643310547,"42":-49.834163665771484,"43":-49.95267868041992,"44":-50.061317443847656,"45":-52.51491165161133,"46":-50.14533996582031,"47":-50.02455139160156,"48":18.42514419555664}}},{"zero":{"bias":1.0922185182571411,"weights":{"0":-4.8636064529418945,"1":0.011555035598576069,"2":4.206787109375,"3":-0.6428758502006531,"4":-12.08918285369873,"5":-0.04071478545665741,"6":-4.2117533683776855,"7":-0.11441296339035034,"8":-4.6237311363220215,"9":-0.18530336022377014,"10":-0.11140037328004837,"11":-0.005884495563805103,"12":-0.9605423212051392,"13":11.017765045166016,"14":-0.106687530875206,"15":0.060098543763160706,"16":5.690313816070557,"17":-0.42543280124664307,"18":-13.399736404418945,"19":-7.502213478088379}},"one":{"bias":13.17868709564209,"weights":{"0":-1.813308596611023,"1":-0.053415145725011826,"2":2.1606531143188477,"3":0.5909121632575989,"4":-4.081420421600342,"5":-0.17063386738300323,"6":13.841763496398926,"7":0.17903004586696625,"8":-8.654435157775879,"9":0.005649668630212545,"10":-0.13237756490707397,"11":0.07395590841770172,"12":-0.5150510668754578,"13":-2.390338897705078,"14":-0.009080884978175163,"15":0.1282234638929367,"16":-3.1477696895599365,"17":3.9817707538604736,"18":8.1448392868042,"19":-1.8343294858932495}},"two":{"bias":3.3041751384735107,"weights":{"0":-0.7874783277511597,"1":0.18435613811016083,"2":-2.2717185020446777,"3":2.449345350265503,"4":-15.946688652038574,"5":-0.18642307817935944,"6":2.5208356380462646,"7":0.11455279588699341,"8":19.2027645111084,"9":0.0493774488568306,"10":-0.06968773901462555,"11":-0.19622601568698883,"12":0.0438285656273365,"13":-8.939480781555176,"14":0.09325733035802841,"15":0.12675993144512177,"16":-3.096994161605835,"17":-0.5794462561607361,"18":-2.9186856746673584,"19":-1.0075910091400146}},"three":{"bias":-1.2322032451629639,"weights":{"0":-4.7168755531311035,"1":-0.15376347303390503,"2":-14.19925308227539,"3":-1.5472960472106934,"4":8.08869457244873,"5":-0.13391518592834473,"6":1.9362094402313232,"7":0.01694331504404545,"8":5.4656548500061035,"9":0.19605422019958496,"10":0.14201126992702484,"11":0.10662917792797089,"12":-0.23963920772075653,"13":-19.492033004760742,"14":0.1043030247092247,"15":-0.08540558815002441,"16":5.617376327514648,"17":-1.2086156606674194,"18":3.4194440841674805,"19":-10.489624977111816}},"four":{"bias":1.8051435947418213,"weights":{"0":10.234292984008789,"1":0.18476352095603943,"2":6.297699451446533,"3":-0.45784056186676025,"4":-4.957886219024658,"5":0.19051922857761383,"6":-0.877194344997406,"7":0.12231101095676422,"8":-9.921785354614258,"9":-0.1126018837094307,"10":-0.056768182665109634,"11":0.09063256531953812,"12":2.610469102859497,"13":0.5260239243507385,"14":-0.0584728978574276,"15":-0.004723577294498682,"16":-3.6578383445739746,"17":0.06267106533050537,"18":-3.5481865406036377,"19":6.632522106170654}},"five":{"bias":0.8556119203567505,"weights":{"0":-3.9890952110290527,"1":-0.12586480379104614,"2":-13.347311019897461,"3":-4.127277851104736,"4":13.941245079040527,"5":-0.009644373320043087,"6":-2.77018404006958,"7":-0.10759960114955902,"8":-0.9371150135993958,"9":-0.03314993903040886,"10":0.17533856630325317,"11":-0.16740578413009644,"12":-0.03246679529547691,"13":0.6896113157272339,"14":-0.05806600674986839,"15":0.15113365650177002,"16":-14.295969009399414,"17":-1.9955559968948364,"18":11.544551849365234,"19":-9.772992134094238}},"six":{"bias":-0.25299298763275146,"weights":{"0":-1.0707862377166748,"1":-0.06928851455450058,"2":3.9751904010772705,"3":-0.6241905093193054,"4":-12.381978034973145,"5":0.1678817719221115,"6":-3.7246320247650146,"7":-0.12228287011384964,"8":7.352229595184326,"9":-0.13962814211845398,"10":-0.08879861235618591,"11":-0.08940912038087845,"12":-0.24977126717567444,"13":14.508431434631348,"14":0.18220047652721405,"15":0.1342288702726364,"16":-24.317018508911133,"17":-0.5867999792098999,"18":1.1017646789550781,"19":-4.755177974700928}},"seven":{"bias":6.359776973724365,"weights":{"0":-2.3569791316986084,"1":0.13929609954357147,"2":-7.928685665130615,"3":-0.14346212148666382,"4":-0.5356643199920654,"5":0.043413449078798294,"6":-1.8897852897644043,"7":-0.09344416856765747,"8":-12.346383094787598,"9":0.07648757845163345,"10":0.10026750713586807,"11":0.008220076560974121,"12":-1.1630501747131348,"13":-2.903236150741577,"14":0.059446725994348526,"15":0.023662099614739418,"16":13.368112564086914,"17":-0.8427270650863647,"18":-9.659372329711914,"19":-2.1456315517425537}},"eight":{"bias":-3.0682685375213623,"weights":{"0":-8.966862678527832,"1":-0.006596624385565519,"2":12.424537658691406,"3":0.9600707292556763,"4":2.993910551071167,"5":-0.11970790475606918,"6":-5.527924537658691,"7":-0.1258317083120346,"8":6.103865146636963,"9":0.13560067117214203,"10":0.02050245739519596,"11":0.06494727730751038,"12":-1.6003106832504272,"13":-2.8763954639434814,"14":0.11627800762653351,"15":-0.18426349759101868,"16":-7.772731781005859,"17":0.4453898072242737,"18":-6.632277011871338,"19":5.657176494598389}},"nine":{"bias":0.45849189162254333,"weights":{"0":0.21477864682674408,"1":-0.10414595156908035,"2":-5.333254814147949,"3":0.08737820386886597,"4":14.129599571228027,"5":-0.03055303730070591,"6":-4.259457111358643,"7":-0.02011965960264206,"8":-9.879679679870605,"9":0.11664014309644699,"10":-0.034183431416749954,"11":0.06925313174724579,"12":-1.0974398851394653,"13":-10.18049144744873,"14":0.1574038565158844,"15":-0.15831132233142853,"16":-5.936790943145752,"17":0.3930094540119171,"18":1.4632353782653809,"19":7.944224834442139}}}],"outputLookup":true,"inputLookup":false,"activation":"leaky-relu","trainOpts":{"iterations":20000,"errorThresh":0.005,"log":false,"logPeriod":10,"learningRate":0.3,"momentum":0.1,"callbackPeriod":1,"beta1":0.9,"beta2":0.999,"epsilon":1e-8}}