{"sizes":[49,20,10],"layers":[{"0":{},"1":{},"2":{},"3":{},"4":{},"5":{},"6":{},"7":{},"8":{},"9":{},"10":{},"11":{},"12":{},"13":{},"14":{},"15":{},"16":{},"17":{},"18":{},"19":{},"20":{},"21":{},"22":{},"23":{},"24":{},"25":{},"26":{},"27":{},"28":{},"29":{},"30":{},"31":{},"32":{},"33":{},"34":{},"35":{},"36":{},"37":{},"38":{},"39":{},"40":{},"41":{},"42":{},"43":{},"44":{},"45":{},"46":{},"47":{},"48":{}},{"0":{"bias":0.009081320837140083,"weights":{"0":0.2581944465637207,"1":0.12083497643470764,"2":0.24924829602241516,"3":-0.04574936255812645,"4":0.06295930594205856,"5":0.24821966886520386,"6":0.07152245938777924,"7":-0.33232182264328003,"8":0.19703173637390137,"9":-0.045397352427244186,"10":-0.2678585350513458,"11":-0.012227647937834263,"12":-0.02292611263692379,"13":0.4264906942844391,"14":-0.18684841692447662,"15":0.24483366310596466,"16":0.2932264804840088,"17":-0.09984033554792404,"18":-0.06770594418048859,"19":-0.0322706438601017,"20":0.7206534147262573,"21":-0.11035327613353729,"22":0.1611599624156952,"23":0.15325717628002167,"24":-0.07572097331285477,"25":0.4068331718444824,"26":0.38208645582199097,"27":0.23773637413978577,"28":-2.019207239151001,"29":0.09597857296466827,"30":-0.08673013001680374,"31":-0.33010315895080566,"32":0.06401066482067108,"33":-0.12396322190761566,"34":0.6639517545700073,"35":-1.9426006078720093,"36":-0.034355372190475464,"37":0.13936544954776764,"38":-0.40106311440467834,"39":-0.11728005111217499,"40":-0.1345023363828659,"41":0.5056864023208618,"42":-0.195521742105484,"43":-0.1093452200293541,"44":-0.24237191677093506,"45":-0.5123656392097473,"46":-0.04785219579935074,"47":-0.17977257072925568,"48":0.31257522106170654}},"1":{"bias":-0.021671906113624573,"weights":{"0":0.15933509171009064,"1":-0.4953375458717346,"2":-0.3924870491027832,"3":-0.3696672320365906,"4":-0.49679937958717346,"5":-0.3779863119125366,"6":-0.08138120174407959,"7":0.37568727135658264,"8":-0.12280655652284622,"9":0.077704057097435,"10":-0.30171358585357666,"11":-0.0906176045536995,"12":0.0009901149896904826,"13":-0.04236111044883728,"14":0.4260311424732208,"15":0.43772122263908386,"16":0.43707823753356934,"17":0.474215567111969,"18":0.5091967582702637,"19":0.22940877079963684,"20":0.0033536457922309637,"21":-0.32410481572151184,"22":-0.1312863975763321,"23":-0.04215636104345322,"24":-0.178878515958786,"25":-0.3874344527721405,"26":-0.10263768583536148,"27":-0.03048142045736313,"28":0.06272793561220169,"29":0.18652737140655518,"30":0.04166373237967491,"31":-0.09435506165027618,"32":-0.0713505893945694,"33":-0.1707577258348465,"34":0.16108916699886322,"35":-0.11650651693344116,"36":-0.14676576852798462,"37":-0.1424170881509781,"38":-0.24963024258613586,"39":0.15194496512413025,"40":-0.054321520030498505,"41":0.017183871939778328,"42":-0.15412966907024384,"43":-0.2784116864204407,"44":-0.14738968014717102,"45":-0.26943477988243103,"46":-0.25304609537124634,"47":-0.21521449089050293,"48":0.07821562141180038}},"2":{"bias":0.10292289406061172,"weights":{"0":-0.1917775273323059,"1":-0.37826094031333923,"2":-0.08994974195957184,"3":-0.04575372487306595,"4":-0.10064120590686798,"5":-0.19357872009277344,"6":-0.03994687646627426,"7":0.3303189277648926,"8":-0.05802403762936592,"9":0.11056799441576004,"10":0.2498796582221985,"11":0.013352819718420506,"12":0.04410262405872345,"13":-0.34795162081718445,"14":0.4814486801624298,"15":0.24795092642307281,"16":0.12006708979606628,"17":0.39690083265304565,"18":0.05568762123584747,"19":0.17398680746555328,"20":-0.4565092623233795,"21":0.19786544144153595,"22":-0.18174991011619568,"23":-0.24402612447738647,"24":-0.12410032749176025,"25":-0.4900726079940796,"26":-0.39720043540000916,"27":-0.03310072422027588,"28":0.5756148099899292,"29":-0.12998631596565247,"30":-0.18931210041046143,"31":-0.06108303740620613,"32":0.18098944425582886,"33":-0.08442389219999313,"34":-0.20143981277942657,"35":0.5071808099746704,"36":-0.12847527861595154,"37":0.018173446878790855,"38":-0.1089591532945633,"39":-0.08328933268785477,"40":-0.07694738358259201,"41":0.04586341232061386,"42":0.6954622864723206,"43":0.7046664357185364,"44":0.5605593919754028,"45":0.6392613649368286,"46":0.5443055033683777,"47":0.334583580493927,"48":-0.11160878837108612}},"3":{"bias":0.1537056416273117,"weights":{"0":0.15991505980491638,"1":-0.3713897168636322,"2":-0.3336644470691681,"3":-0.24115389585494995,"4":-0.17441008985042572,"5":-0.3451062738895416,"6":0.06545499712228775,"7":0.13359466195106506,"8":-0.10415342450141907,"9":-0.08243109285831451,"10":0.22700899839401245,"11":0.026361646130681038,"12":-0.07220835983753204,"13":0.9446051120758057,"14":-0.030527297407388687,"15":0.2475271075963974,"16":0.3544478714466095,"17":0.4448901414871216,"18":0.24320940673351288,"19":0.18389320373535156,"20":1.0248383283615112,"21":0.1009417474269867,"22":0.49542343616485596,"23":0.43546080589294434,"24":0.6975112557411194,"25":0.327632874250412,"26":0.1466505527496338,"27":-0.1620151400566101,"28":0.3356824219226837,"29":0.0695001557469368,"30":0.17396411299705505,"31":0.34384819865226746,"32":0.02068951353430748,"33":-0.12586410343647003,"34":-0.491620272397995,"35":0.4364815950393677,"36":-0.12265952676534653,"37":0.07647039741277695,"38":-0.004620393272489309,"39":-0.08216524124145508,"40":-0.12299809604883194,"41":-0.5237885117530823,"42":-0.0592392273247242,"43":-0.3134344220161438,"44":-0.39996689558029175,"45":-0.041126690804958344,"46":-0.4049193561077118,"47":-0.3224969804286957,"48":-0.12476721405982971}},"4":{"bias":0.07824178785085678,"weights":{"0":-0.14331123232841492,"1":0.40300464630126953,"2":0.2270321100950241,"3":0.24041377007961273,"4":0.4238949418067932,"5":0.0551794171333313,"6":-0.11775094270706177,"7":-0.056510791182518005,"8":-0.07762512564659119,"9":-0.10408458113670349,"10":0.3277064859867096,"11":0.006447428371757269,"12":-0.13114450871944427,"13":0.19617679715156555,"14":0.1863105595111847,"15":-0.3316466510295868,"16":-0.20021522045135498,"17":-0.15790225565433502,"18":-0.4090364873409271,"19":-0.05961358919739723,"20":0.4278205633163452,"21":0.06555908918380737,"22":-0.30728986859321594,"23":-0.15693926811218262,"24":-0.08140744268894196,"25":0.05575854331254959,"26":-0.24367982149124146,"27":-0.01344162505120039,"28":1.1354560852050781,"29":-0.1587035059928894,"30":-0.05960256978869438,"31":0.28923580050468445,"32":0.10054302960634232,"33":-0.0031915404833853245,"34":-0.46494999527931213,"35":1.2266592979431152,"36":0.11490795761346817,"37":0.09235208481550217,"38":0.35752204060554504,"39":-0.04279700294137001,"40":-0.031260013580322266,"41":-0.3553105890750885,"42":-0.2449672967195511,"43":-0.20494656264781952,"44":-0.13144855201244354,"45":-0.10259079188108444,"46":-0.15621311962604523,"47":-0.10199462622404099,"48":-0.16876664757728577}},"5":{"bias":0.40045055747032166,"weights":{"0":0.1163330227136612,"1":0.3220756947994232,"2":0.3467315435409546,"3":0.5766128897666931,"4":0.10758455097675323,"5":0.35256028175354004,"6":0.08180539309978485,"7":-1.7789127826690674,"8":-0.000017421803931938484,"9":-0.06500554829835892,"10":0.37991267442703247,"11":0.050321634858846664,"12":0.14473214745521545,"13":-0.15366458892822266,"14":-1.793190598487854,"15":-0.3227382004261017,"16":-0.38898324966430664,"17":0.06553924083709717,"18":-0.4017917513847351,"19":-0.331683486700058,"20":-0.10202561318874359,"21":-0.06163880601525307,"22":0.2485913634300232,"23":0.07243802398443222,"24":0.18453042209148407,"25":0.01316057238727808,"26":-0.10866289585828781,"27":0.17488177120685577,"28":-0.8652581572532654,"29":0.08718451857566833,"30":0.16229672729969025,"31":0.4047205448150635,"32":-0.061870016157627106,"33":-0.10831182450056076,"34":-0.4266309440135956,"35":-1.031878113746643,"36":0.12261740863323212,"37":0.09961819648742676,"38":0.279727965593338,"39":0.18771280348300934,"40":0.0748695582151413,"41":-0.4797827899456024,"42":0.2344985008239746,"43":0.13704954087734222,"44":0.18390929698944092,"45":0.6280969977378845,"46":0.038713157176971436,"47":0.3431619703769684,"48":-0.12331715226173401}},"6":{"bias":0.4595591723918915,"weights":{"0":0.2876990735530853,"1":0.16712723672389984,"2":0.2669474184513092,"3":0.2724819779396057,"4":0.11521310359239578,"5":0.055461473762989044,"6":0.06375686079263687,"7":-0.3978637158870697,"8":0.10478442907333374,"9":-0.08780847489833832,"10":0.11519071459770203,"11":-0.14353609085083008,"12":-0.09499561041593552,"13":0.08168800920248032,"14":-0.40276700258255005,"15":-0.02563065104186535,"16":0.07434174418449402,"17":0.166448712348938,"18":0.10976400971412659,"19":-0.000555077160242945,"20":0.12464232742786407,"21":-0.4345286190509796,"22":-0.21201033890247345,"23":-0.25042447447776794,"24":-0.1676923781633377,"25":-0.13255678117275238,"26":-0.24787907302379608,"27":0.09664484858512878,"28":-0.14147192239761353,"29":0.17480802536010742,"30":0.14079007506370544,"31":0.2645469009876251,"32":0.08495663851499557,"33":-0.05639084056019783,"34":-0.10743117332458496,"35":0.023535359650850296,"36":-0.11937446892261505,"37":0.136864572763443,"38":0.2607329785823822,"39":-0.1287330687046051,"40":-0.08309906721115112,"41":-0.13449062407016754,"42":-0.3511837422847748,"43":-0.3011973798274994,"44":-0.1854439228773117,"45":-0.14955824613571167,"46":-0.34416547417640686,"47":-0.30807259678840637,"48":0.1718498170375824}},"7":{"bias":-0.4216517210006714,"weights":{"0":0.019661758095026016,"1":0.15059277415275574,"2":0.057250797748565674,"3":0.1539459228515625,"4":0.34890687465667725,"5":0.07777262479066849,"6":-0.2765902578830719,"7":0.3354246914386749,"8":0.09863955527544022,"9":-0.04757995903491974,"10":-0.2557189166545868,"11":-0.05904276296496391,"12":0.09261911362409592,"13":0.08403075486421585,"14":0.5717277526855469,"15":-0.3381529748439789,"16":-0.16812458634376526,"17":-0.6528667211532593,"18":-0.43929269909858704,"19":-0.48284247517585754,"20":0.242946594953537,"21":0.11924916505813599,"22":0.044985588639974594,"23":-0.1285783350467682,"24":-0.3160164952278137,"25":0.12325749546289444,"26":-0.13979241251945496,"27":-0.09233129024505615,"28":1.027516484260559,"29":0.0026066943537443876,"30":0.1271742880344391,"31":-0.2817245125770569,"32":0.015876226127147675,"33":0.1933683156967163,"34":0.1099918857216835,"35":1.1516996622085571,"36":0.061511486768722534,"37":-0.09132494032382965,"38":-0.053075745701789856,"39":0.1550145149230957,"40":0.19703659415245056,"41":0.009861181490123272,"42":-0.20328515768051147,"43":-0.23956900835037231,"44":-0.4582178294658661,"45":-0.35458940267562866,"46":-0.20971331000328064,"47":-0.12751784920692444,"48":0.055040135979652405}},"8":{"bias":-0.05266118049621582,"weights":{"0":0.07007250189781189,"1":0.21654988825321198,"2":0.16411076486110687,"3":0.009338375180959702,"4":0.31156542897224426,"5":0.2434924989938736,"6":0.16486124694347382,"7":0.5385617613792419,"8":-0.04068339616060257,"9":-0.0269777849316597,"10":-0.361538827419281,"11":-0.12044774740934372,"12":-0.11997227370738983,"13":-0.8455690741539001,"14":0.5755105018615723,"15":-0.021785255521535873,"16":-0.23981337249279022,"17":-0.22400133311748505,"18":-0.2330174744129181,"19":-0.03363945335149765,"20":-0.7426201701164246,"21":0.007752395700663328,"22":-0.31476759910583496,"23":-0.24565324187278748,"24":-0.6699210405349731,"25":-0.6069831848144531,"26":-0.28227347135543823,"27":-0.015414426103234291,"28":-0.38344806432724,"29":-0.17729195952415466,"30":0.11709202826023102,"31":-0.3352503180503845,"32":0.0859660804271698,"33":0.1453205645084381,"34":0.4897807538509369,"35":-0.3642345368862152,"36":0.04431279003620148,"37":0.08582716435194016,"38":-0.074105404317379,"39":0.17542491853237152,"40":0.09804999828338623,"41":0.6036868095397949,"42":0.1185590997338295,"43":0.23666581511497498,"44":-0.12471532076597214,"45":-0.1601915806531906,"46":-0.08706620335578918,"47":0.21287350356578827,"48":0.08363226056098938}},"9":{"bias":-0.13706378638744354,"weights":{"0":-0.11103412508964539,"1":0.02533063292503357,"2":0.10704956948757172,"3":0.2213684618473053,"4":-0.16302745044231415,"5":0.09859596937894821,"6":-0.10994092375040054,"7":-0.6502503752708435,"8":0.1217649057507515,"9":-0.11705558747053146,"10":0.2506358027458191,"11":-0.05631352216005325,"12":-0.0870969146490097,"13":-1.4787638187408447,"14":-0.9917764067649841,"15":-0.07258784770965576,"16":-0.1693594604730606,"17":0.16344350576400757,"18":-0.20145690441131592,"19":-0.23530782759189606,"20":-1.5352133512496948,"21":0.09215348213911057,"22":0.639755129814148,"23":0.5677410960197449,"24":0.8209890127182007,"25":0.4660705029964447,"26":0.4251321852207184,"27":-0.28419438004493713,"28":-0.1592949777841568,"29":-0.07358488440513611,"30":-0.003151330631226301,"31":0.1549905687570572,"32":-0.0687008649110794,"33":-0.18355722725391388,"34":-0.7375240325927734,"35":-0.12924331426620483,"36":0.07981258630752563,"37":-0.12589219212532043,"38":0.2860153019428253,"39":0.16062262654304504,"40":-0.15326786041259766,"41":-0.7177722454071045,"42":0.21248875558376312,"43":0.5170544981956482,"44":0.4908069968223572,"45":0.6130173802375793,"46":0.5465369820594788,"47":0.24652904272079468,"48":-0.46149730682373047}},"10":{"bias":0.20391727983951569,"weights":{"0":0.14771926403045654,"1":0.031228451058268547,"2":0.013743233866989613,"3":0.32062381505966187,"4":0.33471158146858215,"5":0.04826614633202553,"6":-0.14390799403190613,"7":-0.5986315608024597,"8":0.05825197696685791,"9":-0.1925879418849945,"10":0.13008376955986023,"11":-0.0020543010905385017,"12":0.006312025710940361,"13":0.24060437083244324,"14":-0.4042399525642395,"15":-0.13714481890201569,"16":-0.2080470770597458,"17":-0.04228835180401802,"18":-0.0528874509036541,"19":-0.21006035804748535,"20":0.11807062476873398,"21":-0.14098691940307617,"22":0.3572448492050171,"23":0.4799434542655945,"24":0.8105524182319641,"25":0.362307071685791,"26":0.3715347945690155,"27":0.0591353103518486,"28":-1.1213860511779785,"29":0.04666182026267052,"30":-0.15440154075622559,"31":0.2962295711040497,"32":0.11863332986831665,"33":-0.056587450206279755,"34":0.13462552428245544,"35":-1.1032814979553223,"36":-0.03636915236711502,"37":0.05880512297153473,"38":0.25550636649131775,"39":0.150279238820076,"40":-0.18237946927547455,"41":0.23024345934391022,"42":-0.6201543211936951,"43":-0.42214861512184143,"44":-0.243546262383461,"45":-0.11636945605278015,"46":-0.5821115374565125,"47":-0.5509821772575378,"48":0.07431875169277191}},"11":{"bias":0.35218027234077454,"weights":{"0":-0.13660095632076263,"1":-0.2789214849472046,"2":-0.3012646436691284,"3":0.20279298722743988,"4":-0.375887006521225,"5":-0.16111066937446594,"6":-0.06419027596712112,"7":0.01801755651831627,"8":-0.07858119904994965,"9":-0.05572297424077988,"10":0.34748393297195435,"11":-0.074710413813591,"12":0.03241186589002609,"13":0.14222924411296844,"14":-0.004586643073707819,"15":0.1584392786026001,"16":0.3203025460243225,"17":0.6366746425628662,"18":0.37056586146354675,"19":0.04474461451172829,"20":0.024174248799681664,"21":-0.14536714553833008,"22":-0.17211253941059113,"23":-0.4328247010707855,"24":0.0795501098036766,"25":-0.454732209444046,"26":-0.3727310299873352,"27":-0.08529484272003174,"28":0.17170004546642303,"29":-0.16946524381637573,"30":0.03976539522409439,"31":0.43328821659088135,"32":0.1763215810060501,"33":-0.16041751205921173,"34":-0.07503248006105423,"35":0.41696661710739136,"36":-0.1272406131029129,"37":-0.007737425155937672,"38":0.37908652424812317,"39":-0.09025650471448898,"40":-0.015236997976899147,"41":-0.27974584698677063,"42":0.262342244386673,"43":0.24012058973312378,"44":0.2068903148174286,"45":0.36784014105796814,"46":0.010551822371780872,"47":0.06998836994171143,"48":0.050877176225185394}},"12":{"bias":0.36646610498428345,"weights":{"0":0.26100602746009827,"1":0.1553332507610321,"2":0.14688147604465485,"3":0.5598610043525696,"4":0.06619882583618164,"5":0.10898931324481964,"6":0.22847671806812286,"7":0.3419554531574249,"8":-0.016368694603443146,"9":0.08978113532066345,"10":0.1888798326253891,"11":-0.10583879053592682,"12":-0.041037898510694504,"13":-0.3051481246948242,"14":0.31094685196876526,"15":-0.02543266862630844,"16":-0.06996751576662064,"17":0.4012150764465332,"18":-0.08938592672348022,"19":-0.2004743367433548,"20":-0.3048487901687622,"21":-0.4178551435470581,"22":-0.05836568400263786,"23":-0.21423982083797455,"24":-0.09132625162601471,"25":-0.22780315577983856,"26":-0.14119674265384674,"27":0.21471475064754486,"28":-0.25570744276046753,"29":0.14230865240097046,"30":-0.18993167579174042,"31":0.44101962447166443,"32":-0.10101744532585144,"33":0.12985312938690186,"34":0.34832531213760376,"35":-0.3265773057937622,"36":-0.06701415032148361,"37":0.14726124703884125,"38":0.42914730310440063,"39":-0.17098809778690338,"40":-0.005767695140093565,"41":0.12396979331970215,"42":-0.6486722826957703,"43":-0.5363267660140991,"44":-0.6113758087158203,"45":-0.17009654641151428,"46":-0.4573616683483124,"47":-0.37369170784950256,"48":0.20625202357769012}},"13":{"bias":-0.21243180334568024,"weights":{"0":-0.28091853857040405,"1":-0.4197751581668854,"2":-0.18199226260185242,"3":-0.20822003483772278,"4":-0.2526746094226837,"5":-0.3753923177719116,"6":-0.2939719259738922,"7":0.11104731261730194,"8":-0.09576801210641861,"9":-0.15338994562625885,"10":-0.04674844071269035,"11":-0.044342271983623505,"12":-0.1098540797829628,"13":0.894120454788208,"14":0.09774412959814072,"15":0.14017726480960846,"16":0.10732772946357727,"17":0.03715844824910164,"18":-0.11283258348703384,"19":0.08626226335763931,"20":0.7990670204162598,"21":0.23583930730819702,"22":0.3886525630950928,"23":0.3324548006057739,"24":0.26513150334358215,"25":0.5407735109329224,"26":0.3328569531440735,"27":-0.4449300467967987,"28":1.0389341115951538,"29":0.058175306767225266,"30":0.006663613487035036,"31":0.1494036465883255,"32":0.17133188247680664,"33":0.12585985660552979,"34":-0.9555821418762207,"35":1.1969631910324097,"36":0.0660059005022049,"37":-0.022809624671936035,"38":-0.08093269914388657,"39":0.037721771746873856,"40":0.1608726680278778,"41":-0.8112472891807556,"42":-0.002705574734136462,"43":-0.06278813630342484,"44":0.04237864166498184,"45":-0.03136570751667023,"46":0.15714505314826965,"47":0.01891653798520565,"48":-0.21770308911800385}},"14":{"bias":-0.17507904767990112,"weights":{"0":0.3560640513896942,"1":0.1429266631603241,"2":0.06310610473155975,"3":-0.03718607872724533,"4":0.08615414798259735,"5":0.1044226586818695,"6":0.25252240896224976,"7":-0.23007449507713318,"8":0.09084115922451019,"9":0.08518683165311813,"10":-0.3715664744377136,"11":0.014044119976460934,"12":-0.023781299591064453,"13":0.874190092086792,"14":-0.1267874836921692,"15":0.11796040087938309,"16":0.0968194305896759,"17":-0.19195814430713654,"18":0.2576825022697449,"19":0.2669719159603119,"20":1.1536787748336792,"21":-0.2152879685163498,"22":-0.3877074122428894,"23":-0.5960665941238403,"24":-0.8556926250457764,"25":-0.7116478681564331,"26":-0.5398404598236084,"27":0.23550444841384888,"28":0.885704517364502,"29":0.08711664378643036,"30":0.1252889186143875,"31":-0.38685816526412964,"32":-0.16245198249816895,"33":0.07612808793783188,"34":-0.22368621826171875,"35":0.7639068365097046,"36":0.04250309243798256,"37":-0.16401948034763336,"38":-0.3156558573246002,"39":-0.1703091859817505,"40":-0.16355492174625397,"41":-0.20975396037101746,"42":0.20869101583957672,"43":-0.017635269090533257,"44":0.10181570798158646,"45":-0.12893402576446533,"46":-0.04447304829955101,"47":0.0759519636631012,"48":0.14723864197731018}},"15":{"bias":-0.03183920308947563,"weights":{"0":-0.1771162748336792,"1":-0.3993913531303406,"2":-0.287638783454895,"3":-0.3195190131664276,"4":-0.1451948583126068,"5":-0.48445743322372437,"6":-0.01881393790245056,"7":1.2204893827438354,"8":-0.13201189041137695,"9":-0.18892063200473785,"10":0.17468835413455963,"11":-0.021186163648962975,"12":0.15058894455432892,"13":-0.22074240446090698,"14":1.042027473449707,"15":0.351113885641098,"16":0.3524872660636902,"17":0.4617350101470947,"18":0.021752942353487015,"19":0.07902003079652786,"20":-0.225937619805336,"21":-0.12597765028476715,"22":0.5664030909538269,"23":0.6458332538604736,"24":0.7997022271156311,"25":0.6831337809562683,"26":0.7968444228172302,"27":-0.24509142339229584,"28":-0.4629747271537781,"29":0.03455502912402153,"30":0.12288931012153625,"31":0.2923891842365265,"32":-0.17205671966075897,"33":-0.025064053013920784,"34":0.4751399755477905,"35":-0.3403966724872589,"36":-0.1606210321187973,"37":-0.0987725779414177,"38":-0.029255935922265053,"39":0.011905916966497898,"40":-0.0036858594976365566,"41":0.546771228313446,"42":-0.20093411207199097,"43":-0.3185602128505707,"44":-0.16611728072166443,"45":-0.1254894733428955,"46":-0.14720407128334045,"47":-0.5260626077651978,"48":-0.03950580582022667}},"16":{"bias":0.37350401282310486,"weights":{"0":0.3169453740119934,"1":0.3109857439994812,"2":0.13383826613426208,"3":0.5219159722328186,"4":0.37216466665267944,"5":0.021045010536909103,"6":0.2831384539604187,"7":-0.24223592877388,"8":0.1318097710609436,"9":0.12353010475635529,"10":0.09902603179216385,"11":0.034563787281513214,"12":0.06922265142202377,"13":0.131802037358284,"14":-0.14028407633304596,"15":0.15015701949596405,"16":0.0020001244265586138,"17":0.06511618196964264,"18":0.020997673273086548,"19":-0.19357159733772278,"20":-0.08143994212150574,"21":-0.3669707775115967,"22":-1.1088439226150513,"23":-1.1020729541778564,"24":-0.9135578274726868,"25":-1.072581171989441,"26":-1.0838897228240967,"27":0.19693882763385773,"28":0.16570840775966644,"29":-0.10543407499790192,"30":-0.08204641938209534,"31":0.0599815770983696,"32":-0.011456675827503204,"33":0.026323216035962105,"34":0.39882543683052063,"35":-0.21232466399669647,"36":-0.08090152591466904,"37":0.037554532289505005,"38":0.31368371844291687,"39":-0.020605746656656265,"40":-0.02650071680545807,"41":0.4083000123500824,"42":-0.027475818991661072,"43":-0.05034463852643967,"44":0.058155663311481476,"45":-0.0765526294708252,"46":-0.03085511550307274,"47":-0.24772952497005463,"48":0.027610311284661293}},"17":{"bias":0.12165126204490662,"weights":{"0":-0.053974177688360214,"1":-0.32072463631629944,"2":-0.029448192566633224,"3":-0.12444642186164856,"4":-0.27108973264694214,"5":-0.2885584235191345,"6":0.2080097794532776,"7":1.3866910934448242,"8":-0.17302799224853516,"9":-0.11297311633825302,"10":-0.17575037479400635,"11":-0.08287003636360168,"12":0.10195254534482956,"13":-1.4017820358276367,"14":1.282231092453003,"15":0.1248951256275177,"16":0.37609806656837463,"17":0.03019021265208721,"18":0.33937984704971313,"19":0.06069736182689667,"20":-1.4049055576324463,"21":0.1081707775592804,"22":0.17622753977775574,"23":0.06060239300131798,"24":0.044059306383132935,"25":0.21228963136672974,"26":0.21165063977241516,"27":0.14903715252876282,"28":-0.1287502497434616,"29":-0.10088901966810226,"30":0.027567533776164055,"31":0.07373703271150589,"32":-0.00545634375885129,"33":0.0742838904261589,"34":-0.06163368746638298,"35":0.13461792469024658,"36":0.12998561561107635,"37":-0.052590880542993546,"38":-0.22205495834350586,"39":0.16868752241134644,"40":0.14746128022670746,"41":-0.05993399769067764,"42":0.05603061243891716,"43":-0.17651334404945374,"44":-0.18994875252246857,"45":-0.09906399250030518,"46":-0.261670857667923,"47":-0.23109376430511475,"48":0.2491312325000763}},"18":{"bias":-0.19426634907722473,"weights":{"0":0.26467448472976685,"1":-0.04694477096199989,"2":0.13360559940338135,"3":-0.3528134226799011,"4":0.1252729594707489,"5":0.24775157868862152,"6":0.296459436416626,"7":-0.05013485252857208,"8":0.13915768265724182,"9":0.11089146137237549,"10":-0.15757976472377777,"11":-0.10271219164133072,"12":0.09196577966213226,"13":0.33647117018699646,"14":-0.2582281827926636,"15":0.04889092221856117,"16":0.179935023188591,"17":-0.4040954113006592,"18":0.04818473383784294,"19":-0.07655110955238342,"20":0.5384105443954468,"21":0.08084127306938171,"22":-0.15093694627285004,"23":0.12719430029392242,"24":-0.08645599335432053,"25":-0.09460748732089996,"26":0.19453272223472595,"27":0.2129356861114502,"28":0.17224369943141937,"29":0.19984638690948486,"30":0.023875225335359573,"31":-0.35978055000305176,"32":0.04089926928281784,"33":0.11313698440790176,"34":0.3059477210044861,"35":0.19399775564670563,"36":0.13876596093177795,"37":0.15483695268630981,"38":-0.370944619178772,"39":-0.09381203353404999,"40":0.13583427667617798,"41":0.1844293773174286,"42":0.18091656267642975,"43":-0.16321824491024017,"44":0.11561732739210129,"45":-0.2756132483482361,"46":-0.038934044539928436,"47":-0.139017716050148,"48":0.2649132013320923}},"19":{"bias":0.2570521831512451,"weights":{"0":-0.11374091356992722,"1":-0.41571301221847534,"2":-0.3340305685997009,"3":-0.07596556842327118,"4":-0.22016845643520355,"5":-0.4634420573711395,"6":0.053466904908418655,"7":0.29792869091033936,"8":-0.07204460352659225,"9":0.17635022103786469,"10":0.275797575712204,"11":-0.17045354843139648,"12":-0.13836365938186646,"13":0.24110804498195648,"14":0.3799838125705719,"15":0.3572092652320862,"16":0.41965094208717346,"17":0.4828799366950989,"18":0.17252574861049652,"19":0.3627997934818268,"20":-0.05526049807667732,"21":-0.2635582685470581,"22":-0.2991434931755066,"23":-0.468625545501709,"24":-0.22238221764564514,"25":-0.3565148115158081,"26":-0.16981230676174164,"27":-0.0555163249373436,"28":0.17149178683757782,"29":0.13767559826374054,"30":-0.11432308703660965,"31":0.24103669822216034,"32":0.04237145185470581,"33":0.05782454088330269,"34":-0.02407473511993885,"35":0.22031055390834808,"36":0.0028667007572948933,"37":0.158027783036232,"38":0.04384809359908104,"39":0.1853523850440979,"40":0.11027299612760544,"41":0.0028212247416377068,"42":-0.05335855484008789,"43":0.08130811899900436,"44":-0.18866854906082153,"45":0.34065061807632446,"46":-0.0066003091633319855,"47":0.04484928399324417,"48":0.1826280802488327}}},{"zero":{"bias":-0.38619962334632874,"weights":{"0":-1.2474184036254883,"1":-0.37144017219543457,"2":0.7024580240249634,"3":-0.9992939829826355,"4":0.19600394368171692,"5":-1.3195103406906128,"6":-0.6370941996574402,"7":0.4959007203578949,"8":0.6563024520874023,"9":-1.8532283306121826,"10":-1.7628289461135864,"11":0.11599570512771606,"12":-0.600820004940033,"13":-0.3693133592605591,"14":1.2353496551513672,"15":-1.9337440729141235,"16":1.1671497821807861,"17":-0.47723373770713806,"18":-0.26897868514060974,"19":0.04113020375370979}},"one":{"bias":-0.5233956575393677,"weights":{"0":-1.414678931236267,"1":-0.14199994504451752,"2":-0.4179103970527649,"3":0.4522337317466736,"4":-0.04027286544442177,"5":0.5968832969665527,"6":0.40815913677215576,"7":-1.2212263345718384,"8":-1.2422871589660645,"9":0.3955930471420288,"10":0.45435455441474915,"11":1.3859400749206543,"12":0.9469407796859741,"13":-0.18853716552257538,"14":-1.6331032514572144,"15":-0.07372398674488068,"16":0.09279637783765793,"17":-0.5037652850151062,"18":-1.8970866203308105,"19":0.6050754189491272}},"two":{"bias":-0.8061558604240417,"weights":{"0":-1.2468576431274414,"1":-0.4985799491405487,"2":-0.3544461727142334,"3":0.6017913222312927,"4":0.5590385794639587,"5":1.0494588613510132,"6":-0.2155272215604782,"7":-0.06872264295816422,"8":-1.6137878894805908,"9":0.9186124801635742,"10":-0.9683461785316467,"11":-0.1469765603542328,"12":-0.9934766888618469,"13":1.5654109716415405,"14":0.29195675253868103,"15":-1.8369498252868652,"16":-1.2298532724380493,"17":-1.2422350645065308,"18":-0.3181244134902954,"19":-0.6926928758621216}},"three":{"bias":-0.13133744895458221,"weights":{"0":1.7157782316207886,"1":-0.9007827639579773,"2":-0.8378204107284546,"3":-0.3494310975074768,"4":-1.159417748451233,"5":1.9502952098846436,"6":-0.7285748720169067,"7":-1.0770490169525146,"8":-0.7227625250816345,"9":0.40106701850891113,"10":0.8139580488204956,"11":-0.5087423324584961,"12":-1.3349425792694092,"13":-0.5722672343254089,"14":-0.9160891175270081,"15":-0.404790461063385,"16":-1.0749341249465942,"17":-2.276085138320923,"18":0.18072642385959625,"19":-0.6239981055259705}},"four":{"bias":-0.6025577187538147,"weights":{"0":0.03312249481678009,"1":2.0630276203155518,"2":-0.44397270679473877,"3":0.6170581579208374,"4":-1.3427953720092773,"5":-1.8599990606307983,"6":-0.05373001843690872,"7":-1.4320366382598877,"8":-0.6589499711990356,"9":-1.7548176050186157,"10":-0.5011937022209167,"11":0.5079448223114014,"12":0.03595898300409317,"13":-0.4910501539707184,"14":0.32699263095855713,"15":0.21909044682979584,"16":0.2319798618555069,"17":0.07817889750003815,"18":-0.4729985296726227,"19":1.2183308601379395}},"five":{"bias":-0.48663169145584106,"weights":{"0":1.0347740650177002,"1":-0.3217359185218811,"2":-0.049397941678762436,"3":-1.3325947523117065,"4":-1.7293140888214111,"5":-0.0047561731189489365,"6":-0.5492390990257263,"7":-1.0339781045913696,"8":0.839127242565155,"9":1.0462100505828857,"10":-0.12855768203735352,"11":-0.6670892834663391,"12":-0.22972750663757324,"13":-1.6590579748153687,"14":-1.9108822345733643,"15":0.6136016249656677,"16":-0.6574036478996277,"17":1.3823356628417969,"18":-0.6754411458969116,"19":-0.6366504430770874}},"six":{"bias":-0.5465959906578064,"weights":{"0":-2.8122336864471436,"1":-0.20998665690422058,"2":0.4288589060306549,"3":-1.0635325908660889,"4":0.09204627573490143,"5":-1.4206759929656982,"6":-0.6478211879730225,"7":0.7430338859558105,"8":0.26971951127052307,"9":1.4479273557662964,"10":-1.5622241497039795,"11":-0.3410411775112152,"12":-0.5362415313720703,"13":0.004815285559743643,"14":-1.3161511421203613,"15":-0.028683921322226524,"16":-1.136237621307373,"17":1.723771572113037,"18":-0.30717769265174866,"19":-0.428188294172287}},"seven":{"bias":-0.37654197216033936,"weights":{"0":0.5796318054199219,"1":-0.42577770352363586,"2":-1.7436577081680298,"3":-0.856356680393219,"4":-0.341169536113739,"5":0.4497758150100708,"6":0.7856119275093079,"7":-0.3158877491950989,"8":-0.07624660432338715,"9":-1.4494398832321167,"10":0.34059011936187744,"11":-0.6764062643051147,"12":0.6839659810066223,"13":-1.6789778470993042,"14":0.4154199957847595,"15":-1.4174684286117554,"16":1.8697195053100586,"17":-1.7017136812210083,"18":-0.2514457404613495,"19":-0.5722087621688843}},"eight":{"bias":-0.6814005374908447,"weights":{"0":-0.6288201808929443,"1":-0.5027847290039062,"2":0.11416986584663391,"3":0.6149895191192627,"4":0.173213392496109,"5":-2.1757636070251465,"6":-0.7958440780639648,"7":0.5601667165756226,"8":-0.8239660859107971,"9":-1.568901777267456,"10":-1.1117897033691406,"11":-0.3836063742637634,"12":-1.0748958587646484,"13":1.4560706615447998,"14":0.38105109333992004,"15":0.8487690687179565,"16":-1.8345398902893066,"17":-0.4772210717201233,"18":0.1292092502117157,"19":-0.34204864501953125}},"nine":{"bias":-0.6926912665367126,"weights":{"0":0.7554420232772827,"1":-0.3390081524848938,"2":-2.21040678024292,"3":0.6087568998336792,"4":-0.29488494992256165,"5":-1.5176467895507812,"6":-0.4176030457019806,"7":0.3919423222541809,"8":-0.43359342217445374,"9":-1.6606862545013428,"10":1.4168177843093872,"11":-1.0875270366668701,"12":0.4110068082809448,"13":-0.1929638832807541,"14":-0.900754451751709,"15":1.1941328048706055,"16":-1.2533987760543823,"17":0.05607985705137253,"18":-0.237952321767807,"19":-0.7734811305999756}}}],"outputLookup":true,"inputLookup":false,"activation":"sigmoid","trainOpts":{"iterations":20000,"errorThresh":0.005,"log":false,"logPeriod":10,"learningRate":0.3,"momentum":0.1,"callbackPeriod":10,"beta1":0.9,"beta2":0.999,"epsilon":1e-8}}