{"sizes":[49,20,10,10],"layers":[{"0":{},"1":{},"2":{},"3":{},"4":{},"5":{},"6":{},"7":{},"8":{},"9":{},"10":{},"11":{},"12":{},"13":{},"14":{},"15":{},"16":{},"17":{},"18":{},"19":{},"20":{},"21":{},"22":{},"23":{},"24":{},"25":{},"26":{},"27":{},"28":{},"29":{},"30":{},"31":{},"32":{},"33":{},"34":{},"35":{},"36":{},"37":{},"38":{},"39":{},"40":{},"41":{},"42":{},"43":{},"44":{},"45":{},"46":{},"47":{},"48":{}},{"0":{"bias":0.3831762373447418,"weights":{"0":0.01264751236885786,"1":0.046670202165842056,"2":-0.05154110863804817,"3":0.3444453477859497,"4":0.24630576372146606,"5":0.04988814890384674,"6":0.0799955278635025,"7":-0.18091239035129547,"8":-0.19080711901187897,"9":0.16913501918315887,"10":0.39621755480766296,"11":0.17650112509727478,"12":-0.13984987139701843,"13":0.17060591280460358,"14":-0.26834386587142944,"15":-0.14082369208335876,"16":-0.22071105241775513,"17":0.22422517836093903,"18":-0.20862872898578644,"19":0.050843771547079086,"20":0.20918647944927216,"21":-0.3134373128414154,"22":-0.1546839475631714,"23":-0.18227823078632355,"24":0.10134346038103104,"25":-0.1547592282295227,"26":-0.1325828731060028,"27":-0.13314472138881683,"28":-0.2984367311000824,"29":-0.18781208992004395,"30":-0.15057897567749023,"31":0.2859072685241699,"32":0.02346792258322239,"33":0.1548164337873459,"34":0.25956016778945923,"35":-0.5283874869346619,"36":-0.18147701025009155,"37":0.1740393042564392,"38":0.09960371255874634,"39":0.14926116168498993,"40":-0.06000082194805145,"41":0.15507382154464722,"42":-0.41429322957992554,"43":-0.18737488985061646,"44":-0.11175069957971573,"45":-0.20743867754936218,"46":-0.3716903030872345,"47":-0.1018136665225029,"48":-0.03420689329504967}},"1":{"bias":0.27982082962989807,"weights":{"0":0.137729212641716,"1":0.04316292330622673,"2":-0.19808906316757202,"3":0.12895573675632477,"4":-0.13043269515037537,"5":-0.17376363277435303,"6":0.10011140257120132,"7":0.3208146095275879,"8":-0.04074577987194061,"9":-0.08095237612724304,"10":0.03757929429411888,"11":0.15023863315582275,"12":-0.07719799131155014,"13":-0.10793060809373856,"14":0.19373522698879242,"15":0.18064428865909576,"16":0.31498467922210693,"17":0.35531601309776306,"18":0.373548686504364,"19":0.3646993339061737,"20":0.07630493491888046,"21":-0.21140506863594055,"22":-0.8150443434715271,"23":-0.539545476436615,"24":-0.5216448903083801,"25":-0.5583469271659851,"26":-0.5966609716415405,"27":0.0175914466381073,"28":0.26210689544677734,"29":-0.06398016959428787,"30":0.17103441059589386,"31":0.08186610043048859,"32":-0.17034810781478882,"33":0.06375827640295029,"34":0.14974354207515717,"35":0.3687986135482788,"36":0.0999860092997551,"37":-0.027586298063397408,"38":-0.00046663518878631294,"39":-0.021597297862172127,"40":-0.09142189472913742,"41":0.023307636380195618,"42":-0.17085842788219452,"43":0.06285566836595535,"44":-0.04253619909286499,"45":0.2715452313423157,"46":0.15097810328006744,"47":-0.023817215114831924,"48":0.08481644839048386}},"2":{"bias":0.15247668325901031,"weights":{"0":0.07597771286964417,"1":-0.23714859783649445,"2":-0.19193103909492493,"3":0.048590246587991714,"4":0.08699129521846771,"5":-0.03776777163147926,"6":0.054012879729270935,"7":0.18662934005260468,"8":0.07837460935115814,"9":-0.14738894999027252,"10":0.39177751541137695,"11":-0.04939202964305878,"12":-0.10915626585483551,"13":0.10761323571205139,"14":0.4012184143066406,"15":0.3823525607585907,"16":0.3679947257041931,"17":0.5516793131828308,"18":0.26134684681892395,"19":0.00780500378459692,"20":0.1276583969593048,"21":-0.1083439514040947,"22":-0.23226454854011536,"23":-0.2658159136772156,"24":-0.11448691040277481,"25":0.021432794630527496,"26":-0.05826709419488907,"27":0.04206912964582443,"28":-0.4458375871181488,"29":-0.1538098007440567,"30":-0.08448334783315659,"31":0.015884622931480408,"32":0.13491997122764587,"33":-0.010401075705885887,"34":0.4566974937915802,"35":-0.36254623532295227,"36":-0.02899456024169922,"37":0.06099937483668327,"38":0.02915702387690544,"39":-0.027756307274103165,"40":-0.06553953140974045,"41":0.20656785368919373,"42":-0.4136064946651459,"43":-0.3855135440826416,"44":-0.29336613416671753,"45":-0.1284262239933014,"46":-0.0767478421330452,"47":-0.1847790777683258,"48":0.10154161602258682}},"3":{"bias":-0.2289799302816391,"weights":{"0":-0.1698310822248459,"1":0.01418859139084816,"2":0.16342489421367645,"3":-0.2539125382900238,"4":0.0333825945854187,"5":0.07137579470872879,"6":-0.29606637358665466,"7":0.17080390453338623,"8":-0.03734184801578522,"9":-0.0361165888607502,"10":-0.30307868123054504,"11":-0.14240537583827972,"12":0.14105699956417084,"13":-0.5927755832672119,"14":0.079786516726017,"15":-0.030309060588479042,"16":-0.28789815306663513,"17":-0.647339403629303,"18":-0.32841038703918457,"19":-0.31716403365135193,"20":-0.59272301197052,"21":0.41431760787963867,"22":0.9846832156181335,"23":1.1258121728897095,"24":0.7327105402946472,"25":0.9268028736114502,"26":1.1995258331298828,"27":0.011226026341319084,"28":-0.4666275084018707,"29":-0.18319487571716309,"30":0.13518548011779785,"31":-0.37731337547302246,"32":-0.012145189568400383,"33":0.1931653618812561,"34":-0.28742411732673645,"35":-0.49791112542152405,"36":-0.05025646463036537,"37":-0.1552836298942566,"38":-0.35387465357780457,"39":0.15848682820796967,"40":0.13054630160331726,"41":-0.21665386855602264,"42":-0.0950905904173851,"43":-0.06491371244192123,"44":0.28447750210762024,"45":-0.16358286142349243,"46":-0.004814796149730682,"47":0.254239559173584,"48":-0.054356805980205536}},"4":{"bias":0.368257999420166,"weights":{"0":0.09717468172311783,"1":0.3052702844142914,"2":0.024544285610318184,"3":0.4166429042816162,"4":-0.04542538896203041,"5":0.2447582632303238,"6":0.34129759669303894,"7":-0.43277937173843384,"8":0.009865635074675083,"9":0.1249467134475708,"10":0.44225287437438965,"11":-0.09654121100902557,"12":0.12811066210269928,"13":0.365331768989563,"14":-0.27174466848373413,"15":0.13864819705486298,"16":-0.16265976428985596,"17":0.1490974724292755,"18":0.19236217439174652,"19":0.07080444693565369,"20":0.43751999735832214,"21":0.040921542793512344,"22":-0.15503861010074615,"23":-0.16151046752929688,"24":-0.12087703496217728,"25":-0.43287205696105957,"26":-0.407757967710495,"27":0.10438430309295654,"28":-0.8123121857643127,"29":0.16922202706336975,"30":-0.07494991272687912,"31":0.20219995081424713,"32":0.19025950133800507,"33":-0.13302886486053467,"34":0.6055870056152344,"35":-0.6930432915687561,"36":-0.169149711728096,"37":-0.11867384612560272,"38":0.3906579315662384,"39":0.06663478910923004,"40":0.024841314181685448,"41":0.3594217002391815,"42":-0.1335601806640625,"43":-0.2669001817703247,"44":-0.4395240247249603,"45":0.049430351704359055,"46":-0.3173220753669739,"47":-0.355280339717865,"48":-0.026051940396428108}},"5":{"bias":-0.13906803727149963,"weights":{"0":-0.1871298849582672,"1":-0.09952078014612198,"2":0.15440841019153595,"3":0.039891257882118225,"4":-0.08250102400779724,"5":0.09309417754411697,"6":-0.25858259201049805,"7":-0.9266849160194397,"8":-0.0023982441052794456,"9":0.07509516924619675,"10":-0.1162518635392189,"11":0.1439436823129654,"12":0.09691079705953598,"13":0.4203120172023773,"14":-0.8302048444747925,"15":-0.3659502863883972,"16":-0.4839901030063629,"17":-0.4821738600730896,"18":-0.27669864892959595,"19":-0.32183167338371277,"20":0.06124045327305794,"21":-0.20306925475597382,"22":0.29348045587539673,"23":0.1670597940683365,"24":0.3559105694293976,"25":0.511407196521759,"26":0.5142019391059875,"27":-0.2040228545665741,"28":0.01914982497692108,"29":0.15392200648784637,"30":0.038424890488386154,"31":-0.004536619875580072,"32":-0.17928366363048553,"33":-0.014050575904548168,"34":-0.42452701926231384,"35":0.1510414332151413,"36":0.0023960403632372618,"37":0.09301963448524475,"38":0.05306938290596008,"39":0.0825413167476654,"40":-0.17615985870361328,"41":-0.5035002827644348,"42":0.36061301827430725,"43":0.19114965200424194,"44":0.3795803487300873,"45":0.30412179231643677,"46":0.3258719742298126,"47":0.18237420916557312,"48":-0.30961406230926514}},"6":{"bias":-0.003443196415901184,"weights":{"0":0.0612068735063076,"1":0.2073354423046112,"2":-0.05442596599459648,"3":0.2369375079870224,"4":-0.10921671986579895,"5":0.17477600276470184,"6":-0.1597967892885208,"7":-0.46114248037338257,"8":0.012638097628951073,"9":0.17770850658416748,"10":0.40609830617904663,"11":0.08285737782716751,"12":0.12043824046850204,"13":-0.3574824631214142,"14":-0.2392093390226364,"15":-0.3103335499763489,"16":-0.11801746487617493,"17":0.10608682036399841,"18":0.012697438709437847,"19":-0.05574237182736397,"20":-0.4908696413040161,"21":0.01992717944085598,"22":0.5183349847793579,"23":0.48202282190322876,"24":0.805286705493927,"25":0.5733216404914856,"26":0.3000833988189697,"27":-0.16385531425476074,"28":-1.133346438407898,"29":0.1565207690000534,"30":-0.0389111265540123,"31":0.2694101333618164,"32":-0.1546306163072586,"33":-0.05290650203824043,"34":0.2622368335723877,"35":-1.3804187774658203,"36":0.0609615296125412,"37":0.047968387603759766,"38":0.3880298137664795,"39":-0.05526921525597572,"40":0.13995644450187683,"41":0.089570052921772,"42":-0.27368980646133423,"43":-0.03669646754860878,"44":-0.22640998661518097,"45":0.20151938498020172,"46":-0.3350149989128113,"47":-0.16226035356521606,"48":-0.10159842669963837}},"7":{"bias":0.3578829765319824,"weights":{"0":-0.12452605366706848,"1":0.10346206277608871,"2":0.19708816707134247,"3":0.4783392548561096,"4":0.31463661789894104,"5":0.1282767653465271,"6":-0.12960092723369598,"7":-1.126821517944336,"8":-0.09532591700553894,"9":-0.032956428825855255,"10":0.3059993386268616,"11":0.0039897640235722065,"12":0.02531031146645546,"13":0.5770519375801086,"14":-1.4197790622711182,"15":-0.01638292707502842,"16":0.014277441427111626,"17":0.15807116031646729,"18":-0.04511904716491699,"19":-0.2494116723537445,"20":0.5938163995742798,"21":-0.4192763864994049,"22":-0.27524417638778687,"23":-0.4452000856399536,"24":0.1503366380929947,"25":-0.32390016317367554,"26":-0.5512334108352661,"27":-0.10100889205932617,"28":-0.30392563343048096,"29":0.18808695673942566,"30":-0.016235291957855225,"31":0.5395014882087708,"32":0.1764906346797943,"33":-0.14488673210144043,"34":-0.08643661439418793,"35":-0.0572797916829586,"36":0.1217995434999466,"37":-0.02639177441596985,"38":0.25176572799682617,"39":0.0696583241224289,"40":0.15931512415409088,"41":-0.39675959944725037,"42":0.20297296345233917,"43":0.10093195736408234,"44":0.15769189596176147,"45":0.5580964088439941,"46":0.08776786178350449,"47":0.0622859001159668,"48":0.2380668967962265}},"8":{"bias":-0.22857342660427094,"weights":{"0":0.006873117294162512,"1":-0.17670419812202454,"2":-0.25157156586647034,"3":-0.35672035813331604,"4":-0.15733367204666138,"5":-0.024149185046553612,"6":-0.12320539355278015,"7":1.3758031129837036,"8":-0.1913265436887741,"9":-0.14772257208824158,"10":-0.4570552408695221,"11":0.10689391195774078,"12":0.16100190579891205,"13":0.23092122375965118,"14":1.4591333866119385,"15":0.31730785965919495,"16":0.26797714829444885,"17":-0.3566214144229889,"18":0.32593971490859985,"19":0.05542341247200966,"20":0.004037178587168455,"21":0.3959045112133026,"22":0.013162143528461456,"23":-0.17187000811100006,"24":-0.5044752359390259,"25":-0.019255271181464195,"26":-0.231942281126976,"27":0.11243890225887299,"28":0.6927264332771301,"29":0.12706981599330902,"30":-0.12976111471652985,"31":-0.3518185317516327,"32":0.15215595066547394,"33":0.14045827090740204,"34":0.23110367357730865,"35":0.7690005898475647,"36":0.15535403788089752,"37":-0.1706562042236328,"38":-0.5103169679641724,"39":-0.16682414710521698,"40":0.1154959574341774,"41":0.30624786019325256,"42":-0.32534971833229065,"43":-0.16376826167106628,"44":-0.12922434508800507,"45":-0.6694377660751343,"46":-0.17654317617416382,"47":-0.286020427942276,"48":0.1856098175048828}},"9":{"bias":0.37558209896087646,"weights":{"0":0.03391164168715477,"1":-0.269909143447876,"2":-0.06136030703783035,"3":0.14354336261749268,"4":-0.28879880905151367,"5":-0.0009441754664294422,"6":-0.1384240984916687,"7":0.4652802050113678,"8":-0.1522628664970398,"9":-0.014461507089436054,"10":0.08143138885498047,"11":-0.19979894161224365,"12":-0.006077458616346121,"13":-0.8028390407562256,"14":0.32007548213005066,"15":0.39405369758605957,"16":0.23292887210845947,"17":0.424960732460022,"18":0.3738115727901459,"19":0.24240507185459137,"20":-0.8678412437438965,"21":0.3060344159603119,"22":0.46252667903900146,"23":0.41375258564949036,"24":0.545711874961853,"25":0.5928347110748291,"26":0.3055672347545624,"27":-0.13525551557540894,"28":-0.7810737490653992,"29":0.012208325788378716,"30":0.0676826611161232,"31":0.3322008550167084,"32":-0.09327701479196548,"33":-0.048936549574136734,"34":0.2010250687599182,"35":-0.9179679751396179,"36":-0.1383749544620514,"37":-0.01881701871752739,"38":0.3801833391189575,"39":0.07248450815677643,"40":-0.11399491131305695,"41":0.4876975119113922,"42":-0.27574804425239563,"43":-0.2856782376766205,"44":-0.10042911767959595,"45":0.03951012343168259,"46":-0.10806187242269516,"47":-0.22694702446460724,"48":-0.12064829468727112}},"10":{"bias":-0.29422327876091003,"weights":{"0":-0.1317925602197647,"1":0.10104697197675705,"2":-0.11485422402620316,"3":-0.1310613602399826,"4":0.05805962532758713,"5":0.08034878224134445,"6":-0.013528862036764622,"7":-0.029736174270510674,"8":0.17052550613880157,"9":-0.02502315863966942,"10":-0.4114011824131012,"11":-0.1829046756029129,"12":0.010733967646956444,"13":-0.16409693658351898,"14":-0.30569368600845337,"15":-0.14710377156734467,"16":-0.3481103181838989,"17":-0.5963941812515259,"18":0.0028183935210108757,"19":-0.12452507764101028,"20":-0.1775331050157547,"21":0.04621473327279091,"22":-0.005687819793820381,"23":0.07413619756698608,"24":-0.3775077760219574,"25":-0.1897192746400833,"26":-0.07170051336288452,"27":-0.32041850686073303,"28":1.003330945968628,"29":0.12441451847553253,"30":-0.1641140878200531,"31":-0.3387620151042938,"32":0.10456311702728271,"33":-0.1934489905834198,"34":-0.6742485761642456,"35":1.0385991334915161,"36":0.01715250499546528,"37":-0.06274806708097458,"38":-0.24392828345298767,"39":0.15489575266838074,"40":-0.03798241540789604,"41":-0.3906119167804718,"42":0.2679811716079712,"43":0.3469809889793396,"44":0.4229808449745178,"45":0.2125767022371292,"46":0.4265161156654358,"47":0.2786139249801636,"48":-0.24424231052398682}},"11":{"bias":0.1977379024028778,"weights":{"0":0.12957969307899475,"1":0.3418107032775879,"2":0.010212548077106476,"3":0.45429542660713196,"4":0.010817915201187134,"5":0.37972813844680786,"6":0.04853762686252594,"7":-0.7935214638710022,"8":-0.1264924854040146,"9":-0.12594997882843018,"10":0.44320040941238403,"11":0.09386758506298065,"12":-0.06386258453130722,"13":-0.030017849057912827,"14":-0.9837475419044495,"15":-0.30463048815727234,"16":-0.30496078729629517,"17":0.21229299902915955,"18":-0.2601364850997925,"19":-0.4412139654159546,"20":0.29162052273750305,"21":-0.12766806781291962,"22":0.25480008125305176,"23":0.3453742265701294,"24":0.6627860069274902,"25":0.19951125979423523,"26":0.2394382357597351,"27":0.1326349675655365,"28":-1.1035221815109253,"29":0.11892025917768478,"30":0.006060656625777483,"31":0.09820704907178879,"32":-0.08292578905820847,"33":0.10576212406158447,"34":-0.15768325328826904,"35":-1.0117344856262207,"36":-0.0800262913107872,"37":-0.07551835477352142,"38":0.2965256869792938,"39":0.05195191502571106,"40":-0.042035605758428574,"41":-0.06729135662317276,"42":-0.12249059975147247,"43":-0.22171618044376373,"44":-0.09131146222352982,"45":0.09202214330434799,"46":-0.3121000826358795,"47":-0.06750156730413437,"48":-0.19675281643867493}},"12":{"bias":0.15218639373779297,"weights":{"0":-0.02241232618689537,"1":-0.4286006689071655,"2":-0.3845699429512024,"3":-0.3735206127166748,"4":-0.4610743224620819,"5":-0.4116356074810028,"6":0.04555214196443558,"7":0.7061524987220764,"8":0.05461966246366501,"9":0.04291295260190964,"10":0.12509126961231232,"11":0.08522595465183258,"12":0.0005377524648793042,"13":-1.3836736679077148,"14":0.8176184892654419,"15":0.5090876817703247,"16":0.45790809392929077,"17":0.3162494897842407,"18":0.2649003267288208,"19":0.4189348816871643,"20":-1.2143118381500244,"21":-0.12566278874874115,"22":0.24626214802265167,"23":0.26333484053611755,"24":0.2544378638267517,"25":0.06501224637031555,"26":-0.039296943694353104,"27":0.20419663190841675,"28":-0.005867046769708395,"29":-0.09396978467702866,"30":0.1834830790758133,"31":0.08937764167785645,"32":0.013979141600430012,"33":-0.13583451509475708,"34":-0.1830807328224182,"35":0.0755024328827858,"36":0.16870304942131042,"37":-0.11717252433300018,"38":0.11200318485498428,"39":0.004934555850923061,"40":0.17691202461719513,"41":-0.06919136643409729,"42":0.10345793515443802,"43":0.2833038866519928,"44":0.136774942278862,"45":0.15182974934577942,"46":0.22499100863933563,"47":0.13974039256572723,"48":0.21481823921203613}},"13":{"bias":0.20839348435401917,"weights":{"0":0.1059630885720253,"1":-0.2688427269458771,"2":-0.22306697070598602,"3":-0.026937678456306458,"4":-0.17529608309268951,"5":-0.3192782700061798,"6":0.032422639429569244,"7":0.6699103116989136,"8":-0.09600955247879028,"9":-0.008581033907830715,"10":0.3565891981124878,"11":0.167681485414505,"12":-0.15820948779582977,"13":-0.7920622229576111,"14":0.8260116577148438,"15":0.38062822818756104,"16":0.4242730140686035,"17":0.45528340339660645,"18":0.12186583131551743,"19":0.19898772239685059,"20":-0.812860369682312,"21":0.06808316707611084,"22":0.3199984133243561,"23":0.3549949526786804,"24":0.3211634159088135,"25":0.10994254797697067,"26":0.3020554780960083,"27":-0.03740302100777626,"28":-0.4051360487937927,"29":0.17273589968681335,"30":0.12862399220466614,"31":0.382019966840744,"32":0.0389799103140831,"33":0.037539493292570114,"34":0.3564114272594452,"35":-0.531262993812561,"36":-0.0009291169117204845,"37":0.029485303908586502,"38":0.12896665930747986,"39":-0.0733833909034729,"40":0.021664079278707504,"41":0.3315505385398865,"42":-0.14005352556705475,"43":-0.20442317426204681,"44":-0.1924571841955185,"45":-0.04578506946563721,"46":-0.30652710795402527,"47":-0.30117669701576233,"48":0.1542823612689972}},"14":{"bias":-0.17860229313373566,"weights":{"0":-0.17788943648338318,"1":0.22265663743019104,"2":0.3975449204444885,"3":0.23116664588451385,"4":0.35577064752578735,"5":0.11593455076217651,"6":0.057350922375917435,"7":-0.02754674293100834,"8":0.07952873408794403,"9":-0.1202968880534172,"10":-0.0833597332239151,"11":-0.08076944947242737,"12":-0.12922298908233643,"13":1.2613006830215454,"14":-0.1493116170167923,"15":-0.5510977506637573,"16":-0.4508691132068634,"17":-0.599477231502533,"18":-0.18494175374507904,"19":-0.5185021162033081,"20":1.2378405332565308,"21":0.11044950783252716,"22":-0.08172598481178284,"23":-0.14580482244491577,"24":-0.5335681438446045,"25":-0.28264445066452026,"26":-0.040145695209503174,"27":-0.16016645729541779,"28":-0.019871696829795837,"29":0.09827207773923874,"30":-0.04235350340604782,"31":-0.2730337083339691,"32":-0.1980946660041809,"33":0.07595158368349075,"34":0.35695523023605347,"35":0.3151411712169647,"36":-0.019299089908599854,"37":-0.025556089356541634,"38":-0.2586662471294403,"39":-0.17973878979682922,"40":0.098503977060318,"41":0.23138418793678284,"42":-0.164120614528656,"43":-0.08328555524349213,"44":-0.3611423075199127,"45":-0.4793456494808197,"46":-0.37923750281333923,"47":-0.3084163963794708,"48":-0.26021939516067505}},"15":{"bias":-0.6494214534759521,"weights":{"0":0.028468912467360497,"1":0.10820958018302917,"2":-0.060101643204689026,"3":-0.3659948706626892,"4":-0.010974283330142498,"5":-0.13393110036849976,"6":-0.22759346663951874,"7":0.07756475359201431,"8":0.16966938972473145,"9":-0.05229009687900543,"10":-0.33517494797706604,"11":0.19954752922058105,"12":0.13989689946174622,"13":-0.5046600103378296,"14":0.07624717801809311,"15":-0.2655479311943054,"16":-0.1942874938249588,"17":-0.4890783429145813,"18":-0.16013045608997345,"19":-0.27633529901504517,"20":-0.2516056299209595,"21":0.31308218836784363,"22":0.7281123399734497,"23":0.454195499420166,"24":0.3719702363014221,"25":0.5927097797393799,"26":0.7736182808876038,"27":-0.0031741431448608637,"28":0.34057578444480896,"29":-0.02219417132437229,"30":-0.12263629585504532,"31":-0.4736545979976654,"32":-0.024758923798799515,"33":-0.0855197012424469,"34":-0.2769536077976227,"35":0.1173897460103035,"36":0.14956851303577423,"37":0.04561586305499077,"38":-0.4367086589336395,"39":-0.07086163759231567,"40":-0.10791891813278198,"41":-0.18470308184623718,"42":0.2984689772129059,"43":0.20160982012748718,"44":0.2254635989665985,"45":-0.0959932878613472,"46":0.28124627470970154,"47":0.29287102818489075,"48":-0.26059219241142273}},"16":{"bias":-0.07619211822748184,"weights":{"0":0.13113538920879364,"1":0.021311521530151367,"2":0.20374695956707,"3":-0.00242001679725945,"4":0.4064253568649292,"5":0.1989532858133316,"6":-0.17928867042064667,"7":-0.5958973169326782,"8":0.07520996034145355,"9":-0.10546600818634033,"10":-0.004254995379596949,"11":0.08682414889335632,"12":-0.12169726938009262,"13":1.1290309429168701,"14":-0.30268484354019165,"15":-0.4357987940311432,"16":-0.17931367456912994,"17":-0.4993862807750702,"18":-0.30838361382484436,"19":-0.09670582413673401,"20":1.026902675628662,"21":0.10564393550157547,"22":-0.30424609780311584,"23":-0.08815527707338333,"24":-0.29377514123916626,"25":-0.3648805320262909,"26":-0.18420977890491486,"27":0.08577876538038254,"28":0.5326972007751465,"29":0.07559468597173691,"30":0.055898185819387436,"31":-0.19046831130981445,"32":0.14167296886444092,"33":-0.036797475069761276,"34":-0.16018046438694,"35":0.2878751754760742,"36":-0.0706539899110794,"37":-0.014841439202427864,"38":-0.31649428606033325,"39":0.1319267898797989,"40":-0.1463719606399536,"41":-0.2469301074743271,"42":-0.16549205780029297,"43":-0.2758486866950989,"44":0.04264893755316734,"45":-0.1313246488571167,"46":0.08124986290931702,"47":0.024366755038499832,"48":0.1128750666975975}},"17":{"bias":-0.05772313103079796,"weights":{"0":-0.07641363143920898,"1":-0.10388448089361191,"2":-0.10319783538579941,"3":-0.10821844637393951,"4":0.04122667387127876,"5":0.1137387827038765,"6":0.05377010628581047,"7":0.825678825378418,"8":-0.19890548288822174,"9":-0.13713201880455017,"10":-0.4579378664493561,"11":0.15923599898815155,"12":-0.19240394234657288,"13":0.814793586730957,"14":0.8636490702629089,"15":0.17222285270690918,"16":0.13744650781154633,"17":-0.17471511662006378,"18":-0.1196974664926529,"19":0.17540614306926727,"20":0.621792733669281,"21":0.046415913850069046,"22":-0.34422698616981506,"23":-0.2898244261741638,"24":-0.7345598340034485,"25":-0.27797234058380127,"26":-0.13304634392261505,"27":0.18093204498291016,"28":0.511844277381897,"29":0.08551346510648727,"30":0.03097521886229515,"31":-0.5052180886268616,"32":0.14949969947338104,"33":0.13371433317661285,"34":0.36690106987953186,"35":0.29399558901786804,"36":-0.16456077992916107,"37":0.119366355240345,"38":-0.44342318177223206,"39":-0.02285628207027912,"40":-0.05928511172533035,"41":0.6000884175300598,"42":-0.4080253839492798,"43":-0.2538313865661621,"44":-0.2579490542411804,"45":-0.7379046082496643,"46":-0.23316152393817902,"47":-0.45179271697998047,"48":0.11496008932590485}},"18":{"bias":-0.09555498510599136,"weights":{"0":-0.05337124690413475,"1":-0.2703375816345215,"2":-0.3934344947338104,"3":-0.34516534209251404,"4":-0.38008126616477966,"5":-0.2048587203025818,"6":0.23360462486743927,"7":0.5454500317573547,"8":0.12673503160476685,"9":0.03449447825551033,"10":-0.0475180558860302,"11":-0.16020900011062622,"12":0.0697590634226799,"13":-0.17106449604034424,"14":0.5558335185050964,"15":0.4112373888492584,"16":0.4445296823978424,"17":-0.04125669598579407,"18":0.17586193978786469,"19":0.3737987279891968,"20":-0.39005163311958313,"21":0.23456546664237976,"22":0.03695923089981079,"23":-0.0726395770907402,"24":-0.3872391879558563,"25":-0.00022778022685088217,"26":-0.25925931334495544,"27":0.11168006807565689,"28":0.8590853214263916,"29":0.09538454562425613,"30":0.011341368779540062,"31":-0.37843412160873413,"32":0.09012512117624283,"33":0.16823989152908325,"34":-0.45846548676490784,"35":0.9703640937805176,"36":-0.07247573882341385,"37":0.02529016137123108,"38":-0.31398656964302063,"39":-0.17897574603557587,"40":0.01927148923277855,"41":-0.36741963028907776,"42":0.11068611592054367,"43":0.2304917424917221,"44":0.4098762273788452,"45":0.260111927986145,"46":0.3069941997528076,"47":0.2731645107269287,"48":-0.09809819608926773}},"19":{"bias":0.19827565550804138,"weights":{"0":0.07943485677242279,"1":0.008286546915769577,"2":-0.23175311088562012,"3":0.1835625320672989,"4":-0.26157346367836,"5":-0.32469096779823303,"6":0.16040000319480896,"7":-0.14262114465236664,"8":-0.04203666001558304,"9":0.023972641676664352,"10":0.35782933235168457,"11":0.021011320874094963,"12":-0.15305887162685394,"13":-0.5270768404006958,"14":-0.2763511836528778,"15":0.32081475853919983,"16":0.202345609664917,"17":0.41865625977516174,"18":0.2478683590888977,"19":0.20909619331359863,"20":-0.5057015419006348,"21":-0.08289790153503418,"22":0.12560535967350006,"23":-0.07662560790777206,"24":0.39576321840286255,"25":0.23118312656879425,"26":0.2233400195837021,"27":-0.18627914786338806,"28":-0.6279195547103882,"29":0.19182470440864563,"30":-0.03222226724028587,"31":0.3555590808391571,"32":0.04602433368563652,"33":-0.02016189508140087,"34":0.15004724264144897,"35":-0.6386591792106628,"36":-0.13879749178886414,"37":-0.15236298739910126,"38":0.43952372670173645,"39":-0.1405375748872757,"40":-0.12338113784790039,"41":-0.04470459371805191,"42":0.2305009961128235,"43":0.16772785782814026,"44":0.14751975238323212,"45":0.41065192222595215,"46":-0.09697018563747406,"47":0.12785641849040985,"48":-0.03034985065460205}}},{"0":{"bias":0.028371986001729965,"weights":{"0":0.38416358828544617,"1":0.13339616358280182,"2":-0.11452829837799072,"3":-0.818278431892395,"4":0.4472828209400177,"5":0.8535903096199036,"6":0.2990739047527313,"7":1.9544684886932373,"8":-1.7437714338302612,"9":-0.45785653591156006,"10":0.2243301272392273,"11":1.0276023149490356,"12":-0.35439935326576233,"13":-0.5882677435874939,"14":-0.06974723190069199,"15":-0.8194584846496582,"16":0.3580090403556824,"17":-1.30276358127594,"18":-0.5031442642211914,"19":0.45881709456443787}},"1":{"bias":0.3849632740020752,"weights":{"0":0.7438468933105469,"1":1.1888123750686646,"2":0.863287627696991,"3":-1.9367055892944336,"4":0.8973588943481445,"5":-1.4957106113433838,"6":-0.46399420499801636,"7":0.3344789743423462,"8":0.843759298324585,"9":0.20737504959106445,"10":-0.44950079917907715,"11":-0.5410083532333374,"12":0.15368962287902832,"13":0.7701701521873474,"14":0.2658264935016632,"15":-1.4184235334396362,"16":0.01688910648226738,"17":0.7968403100967407,"18":-0.03598969802260399,"19":-0.14418183267116547}},"2":{"bias":0.11399298906326294,"weights":{"0":0.7093824744224548,"1":-0.01965903490781784,"2":0.9276039600372314,"3":-0.21310637891292572,"4":1.4400452375411987,"5":-1.0932190418243408,"6":1.3736155033111572,"7":0.38996365666389465,"8":-0.3227114677429199,"9":1.0080368518829346,"10":-1.8198273181915283,"11":1.0657525062561035,"12":-0.49225717782974243,"13":1.1919320821762085,"14":0.415640264749527,"15":-1.3272444009780884,"16":-0.22079487144947052,"17":-0.019622161984443665,"18":-1.1059656143188477,"19":0.6919106245040894}},"3":{"bias":0.042243409901857376,"weights":{"0":-0.5669599175453186,"1":0.7128671407699585,"2":0.08135205507278442,"3":-0.5290279984474182,"4":-0.5565963983535767,"5":-0.5869300365447998,"6":-1.0958648920059204,"7":-1.004770040512085,"8":1.5787409543991089,"9":-0.24273672699928284,"10":0.7101709842681885,"11":-1.5485910177230835,"12":1.2433991432189941,"13":0.36670762300491333,"14":-0.43505290150642395,"15":0.5053345561027527,"16":-0.2719501852989197,"17":0.4843282401561737,"18":1.296810269355774,"19":-0.3942629098892212}},"4":{"bias":0.27887260913848877,"weights":{"0":0.19978921115398407,"1":-0.21937836706638336,"2":-0.3574066162109375,"3":-0.21055658161640167,"4":0.5046820044517517,"5":0.7389650344848633,"6":-0.4703921973705292,"7":0.5948368906974792,"8":0.2062266767024994,"9":-1.4304656982421875,"10":0.48974117636680603,"11":0.16333360970020294,"12":-1.9498921632766724,"13":-1.3318414688110352,"14":1.9581459760665894,"15":0.23320885002613068,"16":1.7043719291687012,"17":0.9617213606834412,"18":-0.38904914259910583,"19":-0.8374779224395752}},"5":{"bias":0.0819086879491806,"weights":{"0":-0.810945451259613,"1":0.550429105758667,"2":-0.6832935214042664,"3":-0.28626739978790283,"4":-1.286978006362915,"5":0.5351452231407166,"6":-1.495882511138916,"7":-0.3819662630558014,"8":1.215829849243164,"9":-1.1913038492202759,"10":1.6507261991500854,"11":-1.294287919998169,"12":0.6768212914466858,"13":-0.44279882311820984,"14":-0.1352194845676422,"15":1.0492576360702515,"16":0.545516312122345,"17":0.5337303280830383,"18":1.5579547882080078,"19":-0.7076714634895325}},"6":{"bias":-0.06903654336929321,"weights":{"0":-0.15403549373149872,"1":-1.1572016477584839,"2":-0.6501606702804565,"3":2.46985125541687,"4":-0.6121214032173157,"5":1.2072834968566895,"6":0.8447350263595581,"7":-0.4412442743778229,"8":-0.32366591691970825,"9":0.8745090961456299,"10":0.40494123101234436,"11":0.6356632113456726,"12":0.42386528849601746,"13":0.2983261048793793,"14":-0.4913753867149353,"15":1.316193699836731,"16":-0.622496485710144,"17":-0.9265425801277161,"18":-0.21336659789085388,"19":0.18794704973697662}},"7":{"bias":0.12010441720485687,"weights":{"0":0.41409832239151,"1":0.37719428539276123,"2":-0.37862592935562134,"3":-1.0812132358551025,"4":0.3197735846042633,"5":1.1490689516067505,"6":-0.2734425365924835,"7":1.886090874671936,"8":-1.4093701839447021,"9":-1.060001254081726,"10":0.7544429898262024,"11":0.9544825553894043,"12":-0.7898256778717041,"13":-1.1803455352783203,"14":0.17840132117271423,"15":-0.2931289076805115,"16":0.7160682082176208,"17":-0.725757360458374,"18":-0.11426162719726562,"19":0.12389938533306122}},"8":{"bias":-0.2717805504798889,"weights":{"0":0.38117265701293945,"1":0.7678627967834473,"2":0.8280619978904724,"3":-0.9136931300163269,"4":0.32841992378234863,"5":-0.8542311787605286,"6":-0.07666763663291931,"7":0.5801379680633545,"8":-0.6343380808830261,"9":0.9038922190666199,"10":-0.8175199031829834,"11":-0.49424466490745544,"12":1.2070446014404297,"13":1.0714784860610962,"14":-1.1862887144088745,"15":-1.1411738395690918,"16":-0.9266366958618164,"17":-0.8700621128082275,"18":0.5999765396118164,"19":1.1426146030426025}},"9":{"bias":-0.26906681060791016,"weights":{"0":-0.21706043183803558,"1":-0.4443400502204895,"2":-0.38693326711654663,"3":1.1243746280670166,"4":-0.02550993673503399,"5":0.530134379863739,"6":1.2525923252105713,"7":0.5846614837646484,"8":-1.6797616481781006,"9":0.7202436923980713,"10":0.0860796645283699,"11":0.8808859586715698,"12":0.7998188138008118,"13":0.3518163859844208,"14":-1.4759576320648193,"15":0.2745826840400696,"16":-1.0482321977615356,"17":-1.7756378650665283,"18":-0.24224993586540222,"19":0.9168750643730164}}},{"zero":{"bias":-1.1770391464233398,"weights":{"0":-1.077353835105896,"1":1.2603051662445068,"2":-2.411034107208252,"3":0.8162658214569092,"4":0.9033650159835815,"5":1.236404538154602,"6":-3.5908594131469727,"7":-0.026074562221765518,"8":-1.727913737297058,"9":-2.453112840652466}},"one":{"bias":-1.8872065544128418,"weights":{"0":1.7918576002120972,"1":-0.5403399467468262,"2":0.6955575346946716,"3":-3.05464243888855,"4":-2.7510197162628174,"5":-2.950031280517578,"6":-1.1257933378219604,"7":-0.1635206788778305,"8":2.428753137588501,"9":0.9313341379165649}},"two":{"bias":-1.4424653053283691,"weights":{"0":0.37185654044151306,"1":-2.1676626205444336,"2":-3.496521234512329,"3":-2.0579416751861572,"4":0.3163975477218628,"5":1.170913815498352,"6":-0.0760590061545372,"7":2.2654659748077393,"8":-1.2344133853912354,"9":0.1370021104812622}},"three":{"bias":-1.2278426885604858,"weights":{"0":0.5882472395896912,"1":-2.7794883251190186,"2":0.22839251160621643,"3":-2.4732048511505127,"4":0.39404311776161194,"5":-3.2554514408111572,"6":0.3017168939113617,"7":1.0256624221801758,"8":-1.8789774179458618,"9":1.166609764099121}},"four":{"bias":-0.9630211591720581,"weights":{"0":-1.502686858177185,"1":1.2754873037338257,"2":0.8652060031890869,"3":0.8129462599754333,"4":-2.109429359436035,"5":-0.9163736701011658,"6":-2.8537652492523193,"7":-1.6999858617782593,"8":1.9102163314819336,"9":-1.3420720100402832}},"five":{"bias":-0.7322593331336975,"weights":{"0":-1.7245166301727295,"1":-2.0843520164489746,"2":1.0161261558532715,"3":-0.9621018767356873,"4":-2.6457295417785645,"5":-1.6831914186477661,"6":0.791547954082489,"7":-1.683042287826538,"8":-0.12462718039751053,"9":2.0194644927978516}},"six":{"bias":-1.0180747509002686,"weights":{"0":-1.324478268623352,"1":-1.4097486734390259,"2":-2.6205029487609863,"3":1.3218400478363037,"4":-3.219226837158203,"5":1.3906538486480713,"6":0.6648482084274292,"7":-1.5495779514312744,"8":-0.8496946096420288,"9":0.6747072339057922}},"seven":{"bias":-1.1738022565841675,"weights":{"0":0.4063985049724579,"1":0.8306109309196472,"2":0.9244182109832764,"3":-2.0668745040893555,"4":1.0914840698242188,"5":-2.155386447906494,"6":-3.189812421798706,"7":0.9845893383026123,"8":-1.114256501197815,"9":-1.5864834785461426}},"eight":{"bias":-0.9686204791069031,"weights":{"0":-1.921910285949707,"1":-2.2402331829071045,"2":-1.981044054031372,"3":0.365526407957077,"4":1.497229814529419,"5":0.7328851819038391,"6":1.1724683046340942,"7":-1.1333078145980835,"8":-1.5726404190063477,"9":-2.8543076515197754}},"nine":{"bias":-0.5856828093528748,"weights":{"0":-2.293405055999756,"1":0.28257378935813904,"2":2.235893726348877,"3":-1.8982124328613281,"4":0.5763311982154846,"5":-2.2718892097473145,"6":0.6736043691635132,"7":-2.6210756301879883,"8":-2.2213029861450195,"9":-1.0843615531921387}}}],"outputLookup":true,"inputLookup":false,"activation":"sigmoid","trainOpts":{"iterations":20000,"errorThresh":0.005,"log":false,"logPeriod":10,"learningRate":0.3,"momentum":0.1,"callbackPeriod":10,"beta1":0.9,"beta2":0.999,"epsilon":1e-8}}