{"type":"LSTM","options":{"inputSize":26,"inputRange":26,"hiddenLayers":[20,20],"outputSize":26,"decayRate":0.999,"smoothEps":1e-8,"regc":0.000001,"clipval":5,"maxPredictionLength":100,"dataFormatter":{"values":["I am super happy!","happy","What a pill!","sarcastic","I am super unhappy!","sad","Are we there yet?","excited"],"indexTable":{"I":0," ":1,"a":2,"m":3,"s":4,"u":5,"p":6,"e":7,"r":8,"h":9,"y":10,"!":11,"W":12,"t":13,"i":14,"l":15,"c":16,"n":17,"d":18,"A":19,"w":20,"?":21,"x":22,"stop-input":23,"start-output":24,"unrecognized":25},"characterTable":{"0":"I","1":" ","2":"a","3":"m","4":"s","5":"u","6":"p","7":"e","8":"r","9":"h","10":"y","11":"!","12":"W","13":"t","14":"i","15":"l","16":"c","17":"n","18":"d","19":"A","20":"w","21":"?","22":"x","23":null,"24":null,"25":null},"characters":["I"," ","a","m","s","u","p","e","r","h","y","!","W","t","i","l","c","n","d","A","w","?","x","stop-input","start-output","unrecognized"],"specialIndexes":[23,24,25]}},"input":{"rows":27,"columns":26,"weights":{"0":0.6625311970710754,"1":-1.048626184463501,"2":0.07432305067777634,"3":0.7367103099822998,"4":-0.7610774040222168,"5":-0.0602666474878788,"6":0.007877861149609089,"7":0.02670217677950859,"8":0.07864318788051605,"9":0.9965951442718506,"10":0.38658407330513,"11":-0.0018329451559111476,"12":0.28569769859313965,"13":0.6738690733909607,"14":0.15216343104839325,"15":0.08861424028873444,"16":0.4979759752750397,"17":0.1581549495458603,"18":-0.44033148884773254,"19":0.5809925198554993,"20":0.5323348641395569,"21":0.09475941956043243,"22":-0.5957096815109253,"23":-0.7760089039802551,"24":-0.08710245043039322,"25":0.7000976800918579,"26":1.6009138822555542,"27":-0.4893170893192291,"28":2.1931684017181396,"29":0.5368848443031311,"30":-0.4352162778377533,"31":0.30985894799232483,"32":-0.07620803266763687,"33":0.46512773633003235,"34":0.21727655827999115,"35":0.9743996858596802,"36":-0.039894163608551025,"37":0.012415459379553795,"38":0.5338706374168396,"39":-1.1652319431304932,"40":0.35280323028564453,"41":0.4234529137611389,"42":1.625674843788147,"43":-1.1167587041854858,"44":1.816160798072815,"45":0.06883388757705688,"46":0.39480769634246826,"47":0.10016915202140808,"48":-0.7106138467788696,"49":0.3835720717906952,"50":0.47990769147872925,"51":0.14967134594917297,"52":1.000026822090149,"53":-0.7420157790184021,"54":0.5612595081329346,"55":0.6892813444137573,"56":-0.5666326880455017,"57":-0.29806309938430786,"58":0.2583363354206085,"59":-0.39863014221191406,"60":-0.4757821559906006,"61":1.2469171285629272,"62":-0.5125755667686462,"63":0.311248242855072,"64":-0.32690611481666565,"65":-1.2378718852996826,"66":-0.361596018075943,"67":-0.4333769679069519,"68":1.5895121097564697,"69":-0.8992017507553101,"70":1.1301945447921753,"71":-0.34238579869270325,"72":0.4293837547302246,"73":0.1593066304922104,"74":-0.424446165561676,"75":0.09928755462169647,"76":-1.0960263013839722,"77":0.5902739763259888,"78":-0.8344937562942505,"79":0.7480053305625916,"80":-0.2940889298915863,"81":-0.6378776431083679,"82":0.11744088679552078,"83":0.5087479948997498,"84":-0.6354868412017822,"85":1.0855156183242798,"86":0.5776729583740234,"87":-0.5713727474212646,"88":0.1220519095659256,"89":-0.2935671806335449,"90":0.6725371479988098,"91":0.7272896766662598,"92":0.4046114385128021,"93":0.4485684931278229,"94":-1.2289304733276367,"95":0.8399578928947449,"96":-0.7041664719581604,"97":1.0010595321655273,"98":0.34905651211738586,"99":-0.8905652165412903,"100":0.16437534987926483,"101":0.28977087140083313,"102":0.09550356864929199,"103":-0.6542679071426392,"104":0.22243623435497284,"105":0.3414420485496521,"106":-1.4237830638885498,"107":-0.9299876689910889,"108":0.5382499694824219,"109":1.2186578512191772,"110":-0.9599913358688354,"111":0.9212133884429932,"112":0.5301105380058289,"113":0.7142722010612488,"114":0.7109829187393188,"115":-0.7455865144729614,"116":1.2973768711090088,"117":-0.6962416172027588,"118":0.8451787829399109,"119":1.1196739673614502,"120":-0.06544222682714462,"121":0.5154772400856018,"122":0.3836221992969513,"123":0.7155563831329346,"124":-0.6054852604866028,"125":-1.0246564149856567,"126":0.4148370325565338,"127":-0.9581793546676636,"128":-1.4590917825698853,"129":0.6375404000282288,"130":0.22116348147392273,"131":-0.7544190883636475,"132":-0.6383313536643982,"133":0.17229950428009033,"134":0.6358279585838318,"135":0.3364282548427582,"136":-0.7342365384101868,"137":0.6710881590843201,"138":0.9547081589698792,"139":0.7577241063117981,"140":0.8534626364707947,"141":-0.6130046844482422,"142":0.43000328540802,"143":0.12096895277500153,"144":0.7474717497825623,"145":0.5588176846504211,"146":0.4777924716472626,"147":-0.03466178849339485,"148":-0.16622404754161835,"149":0.8529868721961975,"150":-0.05017441511154175,"151":-0.822167158126831,"152":0.5687217712402344,"153":-0.5079445242881775,"154":-0.6347967386245728,"155":0.49248531460762024,"156":3.0686399936676025,"157":-0.1946924775838852,"158":1.3904012441635132,"159":-0.11098776012659073,"160":-0.10838200896978378,"161":-0.14413979649543762,"162":-0.355257511138916,"163":0.6827277541160583,"164":0.9836137890815735,"165":-0.11888687312602997,"166":1.1200066804885864,"167":-0.10462319850921631,"168":0.8205015659332275,"169":0.06841610372066498,"170":0.7679063081741333,"171":0.6497346758842468,"172":0.5019565224647522,"173":1.3209643363952637,"174":1.3303622007369995,"175":0.36606574058532715,"176":-0.3343585431575775,"177":1.064997673034668,"178":-0.20087048411369324,"179":-0.2374415546655655,"180":2.4121334552764893,"181":-0.9570740461349487,"182":-0.9609806537628174,"183":0.03243017569184303,"184":-0.9402568936347961,"185":-1.1056188344955444,"186":1.1146210432052612,"187":0.7333370447158813,"188":-1.0612454414367676,"189":0.6039507389068604,"190":1.2932792901992798,"191":-0.5859707593917847,"192":0.94692063331604,"193":-0.9089869856834412,"194":0.7169979810714722,"195":-0.04295835644006729,"196":1.0559214353561401,"197":0.9850285649299622,"198":-0.9535931348800659,"199":0.6397907137870789,"200":-0.667919397354126,"201":0.48829954862594604,"202":-0.6661716103553772,"203":-0.8929002285003662,"204":0.7690538167953491,"205":-0.5743868947029114,"206":0.5408701300621033,"207":-0.22875292599201202,"208":0.25218847393989563,"209":-0.3968944847583771,"210":0.2748293876647949,"211":0.028019564226269722,"212":1.437678575515747,"213":1.5569086074829102,"214":-1.2059340476989746,"215":0.7661012411117554,"216":1.0118869543075562,"217":0.6312472820281982,"218":1.2845032215118408,"219":-1.3454575538635254,"220":1.3242418766021729,"221":-1.632883906364441,"222":1.2001372575759888,"223":1.2603445053100586,"224":0.17666597664356232,"225":0.05518122762441635,"226":1.4728394746780396,"227":-0.29867491126060486,"228":-1.5141658782958984,"229":0.33667248487472534,"230":1.088560700416565,"231":-0.22163860499858856,"232":0.10448343306779861,"233":1.0877047777175903,"234":0.006237539928406477,"235":-0.5230855345726013,"236":0.07791579514741898,"237":0.2435292899608612,"238":0.9399400949478149,"239":0.2877921462059021,"240":-0.6208421587944031,"241":0.3188425898551941,"242":0.7216921448707581,"243":0.10208990424871445,"244":0.5726717114448547,"245":-0.3411303162574768,"246":0.20978927612304688,"247":-0.3439123332500458,"248":0.4831549823284149,"249":0.5072168707847595,"250":0.28621965646743774,"251":-0.15017133951187134,"252":0.2946555018424988,"253":0.03477752208709717,"254":-0.5883119702339172,"255":-0.03607450798153877,"256":0.9722923636436462,"257":0.4648187458515167,"258":-0.09412231296300888,"259":0.27067649364471436,"260":0.5614335536956787,"261":0.635783314704895,"262":1.398189663887024,"263":0.31334954500198364,"264":-0.8505972623825073,"265":-1.163048267364502,"266":1.1879537105560303,"267":-1.4280331134796143,"268":-1.4634515047073364,"269":-0.3371320962905884,"270":-1.5661197900772095,"271":1.288150668144226,"272":-0.6307857036590576,"273":0.16354991495609283,"274":-1.5573976039886475,"275":-1.1296509504318237,"276":0.9792366027832031,"277":0.0857396349310875,"278":0.1269027143716812,"279":-0.9911307692527771,"280":1.0397344827651978,"281":1.317966341972351,"282":-0.5737775564193726,"283":0.5158897638320923,"284":0.4008670449256897,"285":-0.30211859941482544,"286":0.16358399391174316,"287":0.9692556858062744,"288":0.49493157863616943,"289":-1.0382250547409058,"290":0.8298046588897705,"291":-0.6095996499061584,"292":0.690589189529419,"293":-0.8599252104759216,"294":-0.46704980731010437,"295":-0.4615875780582428,"296":0.13083277642726898,"297":0.11783536523580551,"298":0.15822412073612213,"299":-0.7764251828193665,"300":0.06736306101083755,"301":-0.5828772783279419,"302":0.1378701776266098,"303":0.1505119502544403,"304":0.519460916519165,"305":-0.4431214928627014,"306":-1.5685570240020752,"307":0.36333850026130676,"308":0.7475082278251648,"309":0.9492281675338745,"310":0.008360297419130802,"311":-1.157854437828064,"312":0.9250066876411438,"313":-0.0541972741484642,"314":0.5632781386375427,"315":0.14468315243721008,"316":-0.5089190006256104,"317":-1.2875561714172363,"318":1.3043197393417358,"319":-1.531245470046997,"320":-1.3062361478805542,"321":1.3443149328231812,"322":-0.9808300733566284,"323":1.2375966310501099,"324":-0.5452606678009033,"325":0.2607201337814331,"326":-0.9714723825454712,"327":-1.216810703277588,"328":1.6971606016159058,"329":-0.6397622227668762,"330":0.20825165510177612,"331":0.06457874923944473,"332":0.5323179960250854,"333":0.45391327142715454,"334":-0.7198641300201416,"335":-0.7806604504585266,"336":-0.2734242379665375,"337":0.2919796407222748,"338":-1.3623543977737427,"339":-1.5779106616973877,"340":-1.3593741655349731,"341":1.3877071142196655,"342":0.4975840449333191,"343":0.9731600284576416,"344":-1.0628225803375244,"345":0.9628148674964905,"346":0.6223997473716736,"347":1.5587886571884155,"348":0.5798959136009216,"349":-0.7130904793739319,"350":0.7715902924537659,"351":1.4055862426757812,"352":0.4194527566432953,"353":0.7823538184165955,"354":-1.0724977254867554,"355":1.395277976989746,"356":-0.7974920868873596,"357":1.0169711112976074,"358":1.1272684335708618,"359":-0.9322283267974854,"360":0.21066069602966309,"361":-1.3438100814819336,"362":-1.6528337001800537,"363":0.7188679575920105,"364":-0.7646708488464355,"365":-0.2372196912765503,"366":-2.234992504119873,"367":0.1623232662677765,"368":-0.7585951089859009,"369":0.0740281492471695,"370":-0.47476622462272644,"371":1.268256425857544,"372":0.3557097315788269,"373":0.04290781915187836,"374":-0.55849289894104,"375":0.2389070838689804,"376":-0.5861997008323669,"377":0.8275400400161743,"378":0.12483962625265121,"379":-0.10824715346097946,"380":-0.26197347044944763,"381":1.1996498107910156,"382":-2.3227181434631348,"383":1.0903438329696655,"384":0.6364121437072754,"385":-1.468031406402588,"386":-0.6360902190208435,"387":-1.3592336177825928,"388":0.8710017204284668,"389":-0.8193602561950684,"390":-1.8281813859939575,"391":1.7156341075897217,"392":-2.084807872772217,"393":-1.4014480113983154,"394":0.6621074080467224,"395":0.5390952825546265,"396":-0.1663818508386612,"397":0.29289594292640686,"398":0.33025968074798584,"399":-1.9878562688827515,"400":0.31426161527633667,"401":-0.3850385844707489,"402":0.8030232191085815,"403":1.2297329902648926,"404":0.12078829109668732,"405":0.3701794743537903,"406":-1.8823355436325073,"407":1.5726739168167114,"408":-1.4519983530044556,"409":0.009898165240883827,"410":-1.0523312091827393,"411":-0.07054487615823746,"412":0.20139722526073456,"413":0.10850069671869278,"414":0.4855983555316925,"415":-1.7399601936340332,"416":-0.09580294042825699,"417":-2.180288076400757,"418":-3.44232177734375,"419":0.6049659252166748,"420":-0.016594795510172844,"421":-0.029281549155712128,"422":0.21626996994018555,"423":0.049699816852808,"424":-0.4233078956604004,"425":2.4186811447143555,"426":-0.20164060592651367,"427":0.24732956290245056,"428":-0.39446914196014404,"429":0.3371960520744324,"430":-0.14736680686473846,"431":-0.5506958961486816,"432":1.417553424835205,"433":0.408786803483963,"434":-0.3613215982913971,"435":0.15672728419303894,"436":-0.0723080262541771,"437":-0.5551638007164001,"438":-0.24235354363918304,"439":-1.3649848699569702,"440":-1.9543646574020386,"441":0.562713086605072,"442":0.11275581270456314,"443":0.11820117384195328,"444":-0.12383425980806351,"445":-0.47824737429618835,"446":-0.3718782663345337,"447":0.004805135540664196,"448":-0.24583616852760315,"449":0.20294031500816345,"450":0.4781678318977356,"451":-1.0408332347869873,"452":0.516817569732666,"453":-0.10431317239999771,"454":0.1006396934390068,"455":0.664993166923523,"456":0.4748631417751312,"457":0.21317952871322632,"458":0.4069453179836273,"459":-0.12060516327619553,"460":-0.35428938269615173,"461":0.9213057160377502,"462":1.445827841758728,"463":-0.06973891705274582,"464":-0.05338532105088234,"465":0.6971514821052551,"466":0.9044577479362488,"467":-0.43828973174095154,"468":1.3793325424194336,"469":1.009835958480835,"470":1.631388783454895,"471":-0.4238658547401428,"472":-0.9712425470352173,"473":-1.3271609544754028,"474":1.4274685382843018,"475":-1.5778480768203735,"476":-1.7250306606292725,"477":-1.0190898180007935,"478":-1.6927769184112549,"479":1.613335371017456,"480":-1.1185559034347534,"481":-0.601443886756897,"482":-1.7330670356750488,"483":-1.3692140579223633,"484":-0.2153688669204712,"485":-0.752741277217865,"486":0.837847113609314,"487":-1.0091221332550049,"488":0.0315341092646122,"489":1.4554634094238281,"490":0.6686566472053528,"491":1.0027347803115845,"492":-0.2400546669960022,"493":-0.8413025736808777,"494":-0.6298742890357971,"495":2.010099411010742,"496":-0.1830788403749466,"497":-1.6501097679138184,"498":-0.25280770659446716,"499":0.9637508392333984,"500":-0.9048730731010437,"501":0.6053069233894348,"502":0.9551907181739807,"503":-1.9454010725021362,"504":1.014976978302002,"505":-0.9969958066940308,"506":1.4232841730117798,"507":1.9359933137893677,"508":1.0453357696533203,"509":1.2950470447540283,"510":-0.9691577553749084,"511":0.7489569187164307,"512":-0.5613282322883606,"513":1.2258963584899902,"514":-0.15186676383018494,"515":0.04612437263131142,"516":-0.6617261171340942,"517":-1.560739278793335,"518":3.3129096031188965,"519":-1.2904810905456543,"520":-1.570804238319397,"521":1.7258551120758057,"522":-0.9207771420478821,"523":-0.852956235408783,"524":-0.7110635042190552,"525":1.1166656017303467,"526":-1.2298271656036377,"527":0.9534891247749329,"528":0.9209465980529785,"529":-1.349422574043274,"530":1.0123664140701294,"531":-1.2017301321029663,"532":1.2605756521224976,"533":0.7255933880805969,"534":0.757870078086853,"535":0.8580667972564697,"536":-2.6373369693756104,"537":1.508787751197815,"538":-0.7562549114227295,"539":0.8963698744773865,"540":1.0078281164169312,"541":-1.7765142917633057,"542":-0.396775484085083,"543":0.03461259976029396,"544":-0.004403042607009411,"545":-2.0027072429656982,"546":1.8029369115829468,"547":-0.7519412636756897,"548":1.6567847728729248,"549":1.265854835510254,"550":-0.02214110642671585,"551":-0.07362531125545502,"552":0.18700139224529266,"553":-0.24306535720825195,"554":-0.27373331785202026,"555":1.9771418571472168,"556":-0.5643917322158813,"557":0.2904863655567169,"558":0.31288978457450867,"559":-2.649811267852783,"560":-0.41108062863349915,"561":-0.093514584004879,"562":1.599570870399475,"563":-0.6155490279197693,"564":2.788559913635254,"565":-1.8093411922454834,"566":0.20665840804576874,"567":1.024553894996643,"568":-0.39434924721717834,"569":2.5287058353424072,"570":-1.5880826711654663,"571":0.9575680494308472,"572":-1.5973314046859741,"573":-0.27747097611427307,"574":-1.4423342943191528,"575":-1.478143572807312,"576":0.6119260787963867,"577":1.0260573625564575,"578":-0.766530454158783,"579":0.8808699250221252,"580":0.8266303539276123,"581":-1.2020745277404785,"582":0.6883533000946045,"583":-0.5676511526107788,"584":0.8522534966468811,"585":1.3810176849365234,"586":0.625492513179779,"587":0.7219647169113159,"588":-1.9072530269622803,"589":1.2794545888900757,"590":-1.446224331855774,"591":1.3567761182785034,"592":-1.1704246997833252,"593":-1.6756938695907593,"594":-1.8200103044509888,"595":-1.8272640705108643,"596":0.7425438761711121,"597":-1.3856008052825928,"598":-0.1976432055234909,"599":-1.9217679500579834,"600":-0.7322054505348206,"601":-0.8577837944030762,"602":1.3816304206848145,"603":1.308007001876831,"604":-1.1783242225646973,"605":1.0000160932540894,"606":1.0399123430252075,"607":-0.0772458091378212,"608":1.1262106895446777,"609":-1.6326600313186646,"610":1.1542668342590332,"611":-0.27881109714508057,"612":2.4464874267578125,"613":1.2100286483764648,"614":2.4013478755950928,"615":0.4307560920715332,"616":-0.19956736266613007,"617":0.5870751142501831,"618":-0.507006824016571,"619":-0.6972072720527649,"620":0.5951521992683411,"621":-0.664972722530365,"622":0.5773976445198059,"623":-0.25681090354919434,"624":0.47909829020500183,"625":-0.2836597263813019,"626":0.6072031259536743,"627":0.5441722869873047,"628":-0.02493676356971264,"629":-0.04940062761306763,"630":0.1652420163154602,"631":-0.2605268359184265,"632":-0.1319539099931717,"633":0.6306096911430359,"634":-0.2935468852519989,"635":0.06430242210626602,"636":-0.01311659999191761,"637":-1.4053319692611694,"638":-0.07465071976184845,"639":-0.22468334436416626,"640":0.5042043924331665,"641":-0.4630560576915741,"642":1.756164312362671,"643":-0.7714982032775879,"644":0.12500859797000885,"645":0.33520227670669556,"646":-0.12448316067457199,"647":0.34717631340026855,"648":-0.833252489566803,"649":0.506547212600708,"650":0.9157984256744385,"651":0.31086814403533936,"652":0.9043970108032227,"653":0.9265357255935669,"654":0.6825929284095764,"655":-0.1199561208486557,"656":0.3382469713687897,"657":-0.5702701210975647,"658":-0.32323986291885376,"659":0.80427086353302,"660":-0.3015595078468323,"661":0.010559738613665104,"662":-0.26588764786720276,"663":-0.8856704831123352,"664":-0.00017915101489052176,"665":-0.37484505772590637,"666":1.2611114978790283,"667":-0.884442150592804,"668":0.9406166076660156,"669":-0.7038207650184631,"670":-0.6972749829292297,"671":0.6825829744338989,"672":0.617870569229126,"673":0.6203357577323914,"674":-0.3173820972442627,"675":0.9165132641792297,"676":0.03133529797196388,"677":-0.005151436664164066,"678":0.016199057921767235,"679":0.024437546730041504,"680":0.059916503727436066,"681":0.044040653854608536,"682":0.01011608261615038,"683":-0.013073315843939781,"684":0.05332834646105766,"685":0.04419150575995445,"686":-0.0018527160864323378,"687":0.07428721338510513,"688":0.007904929108917713,"689":-0.010996133089065552,"690":0.022394072264432907,"691":-0.028675634413957596,"692":0.02533615007996559,"693":0.011962712742388248,"694":-0.015374238602817059,"695":0.030878011137247086,"696":-0.002984544262290001,"697":-0.015699870884418488,"698":-0.00045520204002968967,"699":0.05783121660351753,"700":0.051410384476184845,"701":0.060922734439373016}},"hiddenLayers":[{"inputMatrix":{"rows":20,"columns":26,"weights":{"0":-0.4602384865283966,"1":1.1716982126235962,"2":-0.17640654742717743,"3":-0.034275367856025696,"4":-0.7192965745925903,"5":-0.2542184293270111,"6":0.3148166835308075,"7":-0.21927475929260254,"8":-0.3694145679473877,"9":-1.3166394233703613,"10":-0.43396079540252686,"11":0.4234481155872345,"12":-0.24053923785686493,"13":1.4064127206802368,"14":-0.41081416606903076,"15":-0.34832268953323364,"16":-0.6369113922119141,"17":0.5248034000396729,"18":-0.754489541053772,"19":0.04109365493059158,"20":0.5779072046279907,"21":0.07608569413423538,"22":-0.7541049718856812,"23":0.001984763890504837,"24":0.8371835947036743,"25":-1.8431026935577393,"26":0.4137521982192993,"27":0.43636012077331543,"28":0.777820348739624,"29":0.1818082332611084,"30":-0.4278597831726074,"31":-0.40826722979545593,"32":0.474675714969635,"33":-0.4760567545890808,"34":-0.36558789014816284,"35":0.5451573133468628,"36":-0.3103017210960388,"37":0.3789273500442505,"38":0.05560996010899544,"39":-0.29689300060272217,"40":-0.22397425770759583,"41":-0.2259799838066101,"42":0.4722653329372406,"43":-0.18982188403606415,"44":0.573576807975769,"45":-0.5911025404930115,"46":0.38007640838623047,"47":0.5553237199783325,"48":-0.6178717017173767,"49":0.39950230717658997,"50":0.0762314572930336,"51":-0.464192271232605,"52":-0.9615758061408997,"53":1.8173311948776245,"54":-0.7221219539642334,"55":-0.9009541273117065,"56":-0.3144831657409668,"57":0.2785588800907135,"58":0.03241598606109619,"59":0.45720648765563965,"60":-0.33509361743927,"61":-1.2698503732681274,"62":-0.31043800711631775,"63":0.08224908262491226,"64":0.10629017651081085,"65":-0.040815722197294235,"66":-0.13813577592372894,"67":0.0635000690817833,"68":-1.4731847047805786,"69":0.5811656713485718,"70":-0.7753354907035828,"71":-0.009507250972092152,"72":-0.7445945143699646,"73":-0.21102161705493927,"74":-0.18129652738571167,"75":0.23440641164779663,"76":0.3465976119041443,"77":-1.1500874757766724,"78":0.12250196188688278,"79":0.22647404670715332,"80":0.4265840947628021,"81":-0.17116373777389526,"82":1.642951488494873,"83":0.38843822479248047,"84":0.15632019937038422,"85":-0.8319448232650757,"86":0.22303472459316254,"87":-0.42636507749557495,"88":0.9183814525604248,"89":-0.7413930296897888,"90":1.1138745546340942,"91":-0.4120965301990509,"92":0.5832048058509827,"93":0.4956742227077484,"94":-0.7007015943527222,"95":-0.1967887431383133,"96":1.030775547027588,"97":-0.7118446230888367,"98":-0.7709729671478271,"99":0.4853314161300659,"100":1.5211423635482788,"101":0.7084870934486389,"102":-0.7549620270729065,"103":0.6079928278923035,"104":-1.4529346227645874,"105":1.2186144590377808,"106":-0.5921044945716858,"107":-0.24352756142616272,"108":-0.45196205377578735,"109":-0.09080658853054047,"110":0.39147669076919556,"111":0.178850457072258,"112":-0.4541487693786621,"113":-0.6336688995361328,"114":-0.6189654469490051,"115":0.43135425448417664,"116":0.05336743965744972,"117":0.7173022627830505,"118":-0.3663140535354614,"119":-0.2508549988269806,"120":-1.7745819091796875,"121":1.7235110998153687,"122":-0.7036915421485901,"123":0.1620507687330246,"124":0.25447580218315125,"125":0.051161155104637146,"126":-0.5092653036117554,"127":-0.27580365538597107,"128":-0.0794527679681778,"129":-1.1360372304916382,"130":-0.3268764913082123,"131":-0.21127112209796906,"132":0.0009755594073794782,"133":-0.23658353090286255,"134":0.558941662311554,"135":0.4622133672237396,"136":-0.5718435049057007,"137":0.6781620979309082,"138":0.69516521692276,"139":-0.1235462948679924,"140":0.7438017129898071,"141":-0.4798046946525574,"142":0.7676069736480713,"143":-0.45712533593177795,"144":0.5883857011795044,"145":0.6510470509529114,"146":-0.3409053087234497,"147":0.6576098799705505,"148":0.6415451765060425,"149":0.7122947573661804,"150":-0.2773686647415161,"151":-0.19843454658985138,"152":0.4906556308269501,"153":-0.647512674331665,"154":0.46806129813194275,"155":0.21784472465515137,"156":-0.24047158658504486,"157":0.43958333134651184,"158":-0.3371678590774536,"159":0.23222734034061432,"160":0.06515350192785263,"161":-0.3488806188106537,"162":0.40656331181526184,"163":-0.5200936198234558,"164":-0.4634476900100708,"165":0.06026165187358856,"166":-0.3964402675628662,"167":0.5026184320449829,"168":-0.4563191533088684,"169":0.35458555817604065,"170":-0.4964035153388977,"171":-0.6321860551834106,"172":0.04183300957083702,"173":0.21525001525878906,"174":-0.09472005814313889,"175":-0.21819573640823364,"176":-0.04225499927997589,"177":0.22371074557304382,"178":0.19211971759796143,"179":0.45989686250686646,"180":-0.843558132648468,"181":-0.03988507017493248,"182":-0.5207801461219788,"183":0.9476342797279358,"184":-0.44731661677360535,"185":-0.6379451751708984,"186":-0.37370383739471436,"187":-0.43084073066711426,"188":0.49544385075569153,"189":-0.37151750922203064,"190":-0.4107389450073242,"191":-1.5084850788116455,"192":-0.3944813311100006,"193":0.34195056557655334,"194":-0.39866936206817627,"195":0.9637579917907715,"196":-0.40524822473526,"197":-0.3754778504371643,"198":-0.3424919843673706,"199":0.3177364766597748,"200":-0.7721748352050781,"201":-0.34152156114578247,"202":0.2909305691719055,"203":0.22763454914093018,"204":-0.39966514706611633,"205":-0.5648303031921387,"206":1.1478365659713745,"207":-1.3467590808868408,"208":0.49537453055381775,"209":-0.09506493806838989,"210":0.45629066228866577,"211":1.18470299243927,"212":-0.6670806407928467,"213":-0.3613407015800476,"214":0.3866201937198639,"215":-0.37665677070617676,"216":-0.44383496046066284,"217":1.022271990776062,"218":-0.6648954749107361,"219":0.42490506172180176,"220":-0.5616840124130249,"221":-0.2313707321882248,"222":-0.5266962647438049,"223":-0.38476312160491943,"224":0.5889011025428772,"225":-0.4293631613254547,"226":1.101581335067749,"227":-0.660097062587738,"228":1.033290982246399,"229":0.5909178256988525,"230":-0.6638205647468567,"231":0.27876123785972595,"232":-0.4203541576862335,"233":0.37459930777549744,"234":-1.2284237146377563,"235":1.2995185852050781,"236":-0.09328248351812363,"237":-0.9801686406135559,"238":0.7427034974098206,"239":0.6298721432685852,"240":-0.4491204023361206,"241":0.2751328647136688,"242":0.3139592111110687,"243":-1.1178367137908936,"244":0.12123141437768936,"245":-0.6136723756790161,"246":0.30538755655288696,"247":-0.8376989960670471,"248":0.4813004434108734,"249":0.4251868426799774,"250":-0.7807618379592896,"251":-0.4548322260379791,"252":0.19160647690296173,"253":-0.24901558458805084,"254":-0.6262690424919128,"255":-0.4919515550136566,"256":0.8594598174095154,"257":0.6037970781326294,"258":0.11253799498081207,"259":-0.1332220882177353,"260":-1.3138527870178223,"261":0.37605658173561096,"262":-1.2469525337219238,"263":-0.8993545174598694,"264":0.4893108606338501,"265":0.3067571520805359,"266":-0.24387547373771667,"267":0.4168202877044678,"268":0.41966354846954346,"269":-0.7304462194442749,"270":0.319195032119751,"271":-0.3733554184436798,"272":0.31253793835639954,"273":-0.13420170545578003,"274":0.574418842792511,"275":0.23342040181159973,"276":-0.8221622109413147,"277":0.6069207191467285,"278":-0.5264785885810852,"279":0.5680713653564453,"280":-0.5995597839355469,"281":-0.7523100972175598,"282":0.3226209878921509,"283":0.15755805373191833,"284":-1.3874099254608154,"285":-0.4755667448043823,"286":-0.11200638860464096,"287":0.1802196353673935,"288":-0.22287330031394958,"289":-0.21551071107387543,"290":-0.9216017127037048,"291":0.5325803756713867,"292":-0.33161965012550354,"293":0.4183765947818756,"294":0.24899335205554962,"295":-0.5752124786376953,"296":0.23630721867084503,"297":-0.4405539929866791,"298":0.6711996793746948,"299":0.5945650339126587,"300":0.22576357424259186,"301":0.3792591094970703,"302":-0.8863572478294373,"303":0.35150986909866333,"304":-0.773149311542511,"305":1.1080756187438965,"306":0.07935631275177002,"307":-0.5597476363182068,"308":-0.7487587332725525,"309":-0.672602653503418,"310":0.7056205868721008,"311":-0.24350100755691528,"312":-0.20985949039459229,"313":1.5131524801254272,"314":0.2876972556114197,"315":-0.3757289946079254,"316":-0.19465647637844086,"317":-0.21035631000995636,"318":0.5350193381309509,"319":-0.5976869463920593,"320":-0.45735833048820496,"321":-1.5961418151855469,"322":-0.14485369622707367,"323":0.2303127944469452,"324":0.10360988974571228,"325":0.47204557061195374,"326":-0.5538394451141357,"327":-0.19724299013614655,"328":-0.4755273759365082,"329":0.1386130154132843,"330":0.2719976007938385,"331":-0.4138939380645752,"332":0.03441426157951355,"333":0.6458294987678528,"334":-0.16212011873722076,"335":0.9071115255355835,"336":0.23548120260238647,"337":-1.3445640802383423,"338":-0.419039785861969,"339":1.4681421518325806,"340":0.06360579282045364,"341":0.010457759723067284,"342":-0.10899064689874649,"343":-0.46526437997817993,"344":0.36649638414382935,"345":-0.43497052788734436,"346":-0.4602014124393463,"347":-1.0871974229812622,"348":-0.3096810281276703,"349":0.32856759428977966,"350":-0.3181145489215851,"351":0.3928848206996918,"352":-0.4097539782524109,"353":-0.4490616023540497,"354":0.04067153111100197,"355":0.28872108459472656,"356":-0.06769602000713348,"357":0.10224194824695587,"358":0.1664518564939499,"359":0.2703952193260193,"360":0.09608148038387299,"361":1.7488042116165161,"362":-0.008678854443132877,"363":-1.2404553890228271,"364":0.3852201998233795,"365":0.6920504570007324,"366":0.8567104339599609,"367":0.13075870275497437,"368":-0.40834635496139526,"369":-0.2239721119403839,"370":0.20018312335014343,"371":-0.1856245994567871,"372":-0.2325044423341751,"373":-0.1290709674358368,"374":-0.24490755796432495,"375":0.25781723856925964,"376":0.14580638706684113,"377":-0.4666041135787964,"378":-0.16420651972293854,"379":-0.0144970016553998,"380":-0.003311048960313201,"381":-0.06077137961983681,"382":0.9769893884658813,"383":-0.3412582576274872,"384":0.6855522990226746,"385":0.4169086217880249,"386":-0.6396703720092773,"387":0.5510048866271973,"388":0.34071019291877747,"389":-0.44957298040390015,"390":-0.3782498836517334,"391":0.46163448691368103,"392":-0.361748069524765,"393":-0.4286198914051056,"394":0.7177532315254211,"395":0.5839719176292419,"396":-0.8323840498924255,"397":0.6708981394767761,"398":0.7955424189567566,"399":-0.501625120639801,"400":0.6043328046798706,"401":-0.6519940495491028,"402":0.5165250301361084,"403":-0.33131808042526245,"404":0.8000167012214661,"405":0.5663124918937683,"406":-0.271006315946579,"407":0.4327738583087921,"408":0.06561478972434998,"409":0.9970642924308777,"410":-0.36043596267700195,"411":-0.6115720868110657,"412":0.7605358958244324,"413":-0.9786767959594727,"414":0.9220622777938843,"415":-0.274681955575943,"416":-1.128195881843567,"417":-0.31878000497817993,"418":-1.149278998374939,"419":-0.2004602998495102,"420":0.7853623628616333,"421":0.8052772283554077,"422":-0.7638035416603088,"423":0.6325842142105103,"424":0.257882297039032,"425":-0.07356198877096176,"426":0.41930121183395386,"427":-0.8704583048820496,"428":0.7819964289665222,"429":0.10774432122707367,"430":0.7434679865837097,"431":0.5567396879196167,"432":-0.44671735167503357,"433":0.40334972739219666,"434":-0.5874134302139282,"435":0.5695602893829346,"436":-0.5128464698791504,"437":-1.0002192258834839,"438":0.7677891850471497,"439":-0.5843377709388733,"440":0.1448088437318802,"441":0.09804742783308029,"442":0.28970128297805786,"443":-0.03425378352403641,"444":0.2711279094219208,"445":0.09348469227552414,"446":-0.614919900894165,"447":-0.4112912714481354,"448":0.47204965353012085,"449":-0.5084673166275024,"450":-0.5134501457214355,"451":0.0595780648291111,"452":-0.46624886989593506,"453":0.4748331904411316,"454":-0.26503074169158936,"455":-0.7010130882263184,"456":-0.537738561630249,"457":-0.5239717960357666,"458":0.5738173127174377,"459":-0.20352743566036224,"460":0.5957467555999756,"461":-0.6705328226089478,"462":0.809779703617096,"463":0.4696637988090515,"464":-0.5880635380744934,"465":0.28557345271110535,"466":-0.7934229373931885,"467":-0.5437990427017212,"468":-0.48538029193878174,"469":1.108881950378418,"470":0.08252871036529541,"471":-0.026009028777480125,"472":-0.26643815636634827,"473":-0.40540748834609985,"474":0.41225892305374146,"475":-0.4040490984916687,"476":-0.37314972281455994,"477":-1.2539629936218262,"478":-0.30737584829330444,"479":0.2981213927268982,"480":-0.25472134351730347,"481":-0.09863021224737167,"482":-0.5338351726531982,"483":-0.4296572208404541,"484":-0.7136634588241577,"485":0.39632654190063477,"486":-0.3319232165813446,"487":-0.7506782412528992,"488":-0.2065609246492386,"489":0.32105037569999695,"490":-0.16956819593906403,"491":1.4726520776748657,"492":-0.5356699824333191,"493":-1.5801758766174316,"494":-0.8608028292655945,"495":-0.215480238199234,"496":-0.967369019985199,"497":0.28588923811912537,"498":0.48129817843437195,"499":0.492719829082489,"500":-0.4883151650428772,"501":0.37555384635925293,"502":0.5350340604782104,"503":-0.35723987221717834,"504":0.40728938579559326,"505":-0.5062736868858337,"506":0.17776305973529816,"507":-0.31069645285606384,"508":0.42456650733947754,"509":0.40719273686408997,"510":-0.7684676647186279,"511":-0.17208336293697357,"512":-0.42289456725120544,"513":0.5697466731071472,"514":-0.1668580025434494,"515":-0.7796843647956848,"516":0.4461972415447235,"517":-0.24250076711177826,"518":-1.3306970596313477,"519":0.716524064540863}},"inputHidden":{"rows":20,"columns":20,"weights":{"0":1.5004936456680298,"1":-0.46033361554145813,"2":-0.23963050544261932,"3":0.05016247183084488,"4":0.2238897681236267,"5":0.44328394532203674,"6":0.7835195660591125,"7":0.41504499316215515,"8":0.0006152940331958234,"9":-0.8959625959396362,"10":0.12958453595638275,"11":2.0047242641448975,"12":1.0478625297546387,"13":-1.6399483680725098,"14":-0.39967477321624756,"15":-0.44755807518959045,"16":0.9002647995948792,"17":0.3655782639980316,"18":0.34120526909828186,"19":-0.047997236251831055,"20":-0.09468204528093338,"21":-0.02220740169286728,"22":-0.08908659964799881,"23":-0.9261265397071838,"24":0.6439119577407837,"25":0.6465290188789368,"26":-0.13198506832122803,"27":0.1596963256597519,"28":0.007277771830558777,"29":-0.6835582852363586,"30":1.4583920240402222,"31":-0.9107761979103088,"32":0.1593949794769287,"33":-0.09557505697011948,"34":0.24960467219352722,"35":-0.6622636318206787,"36":0.39702898263931274,"37":-0.08889582008123398,"38":0.14385753870010376,"39":-0.6789265871047974,"40":1.9572659730911255,"41":0.370952308177948,"42":1.3515956401824951,"43":0.5925641059875488,"44":-0.964130699634552,"45":0.6373690962791443,"46":-0.278125137090683,"47":0.40149569511413574,"48":-0.3291957974433899,"49":-0.9546897411346436,"50":-1.0798722505569458,"51":0.11119382828474045,"52":0.6892511248588562,"53":-1.6731168031692505,"54":0.3099820613861084,"55":-0.7185531854629517,"56":1.477968454360962,"57":-0.4458443820476532,"58":2.347796678543091,"59":-0.4258096218109131,"60":0.02571948431432247,"61":-0.9198727011680603,"62":0.3766159117221832,"63":0.014804482460021973,"64":0.44327622652053833,"65":-1.214847445487976,"66":-0.6093190908432007,"67":-0.21656425297260284,"68":0.6268033981323242,"69":1.5957924127578735,"70":0.03822792321443558,"71":-0.5851712226867676,"72":0.02743140608072281,"73":0.22207936644554138,"74":-1.2494559288024902,"75":1.4819629192352295,"76":-1.3615473508834839,"77":1.3050895929336548,"78":-0.2496795952320099,"79":0.8750021457672119,"80":0.46106064319610596,"81":0.1449952870607376,"82":0.34500887989997864,"83":-0.35363104939460754,"84":-0.6307937502861023,"85":0.6333785653114319,"86":-0.3989490568637848,"87":-0.18966664373874664,"88":0.2395501285791397,"89":-0.9144099354743958,"90":0.4503289461135864,"91":1.5140275955200195,"92":0.328815758228302,"93":0.22232072055339813,"94":0.35358643531799316,"95":-0.6032465100288391,"96":1.000411033630371,"97":-0.27893558144569397,"98":0.3323047459125519,"99":-0.38515380024909973,"100":0.25875023007392883,"101":-0.23879583179950714,"102":0.24959303438663483,"103":0.830447256565094,"104":0.8751834630966187,"105":-0.8476163744926453,"106":0.2742942273616791,"107":0.5634187459945679,"108":0.000055728065490256995,"109":1.1408997774124146,"110":-1.080625295639038,"111":-0.827436625957489,"112":0.4673289656639099,"113":0.036631472408771515,"114":-0.1736706644296646,"115":0.8303263187408447,"116":-1.1193692684173584,"117":0.3532825708389282,"118":0.5238573551177979,"119":0.6224108934402466,"120":0.29253652691841125,"121":-0.4186181426048279,"122":-0.005676602013409138,"123":0.6749663949012756,"124":0.8452587127685547,"125":-1.0872865915298462,"126":0.3996690809726715,"127":0.6677735447883606,"128":0.7287667393684387,"129":1.5206456184387207,"130":-0.39958837628364563,"131":-1.5512676239013672,"132":-0.23348896205425262,"133":0.2631143033504486,"134":-0.48416298627853394,"135":1.0455342531204224,"136":-1.430166482925415,"137":0.6816728115081787,"138":0.905917227268219,"139":1.558822512626648,"140":-0.027931425720453262,"141":-0.37266820669174194,"142":-0.2438749372959137,"143":-0.1740557700395584,"144":-0.25476202368736267,"145":0.4937816262245178,"146":1.0189236402511597,"147":0.5007116198539734,"148":0.5260947346687317,"149":-0.44745296239852905,"150":0.396322637796402,"151":1.2424834966659546,"152":0.7622446417808533,"153":0.40819934010505676,"154":-0.05029250308871269,"155":-0.6146306991577148,"156":0.5589561462402344,"157":0.3131103217601776,"158":-1.4448295831680298,"159":-0.32274144887924194,"160":0.608040988445282,"161":-0.41336432099342346,"162":-0.5167198181152344,"163":-0.18790921568870544,"164":0.9205388426780701,"165":0.5720022320747375,"166":0.7413064241409302,"167":0.395060658454895,"168":0.7109047174453735,"169":-0.6029170155525208,"170":0.46207812428474426,"171":-0.9444391131401062,"172":0.6308600902557373,"173":-0.48441269993782043,"174":-0.3010875880718231,"175":-0.7545357346534729,"176":0.5393764972686768,"177":0.41197288036346436,"178":0.3478977382183075,"179":-0.054402828216552734,"180":-0.22803646326065063,"181":-0.9438561797142029,"182":-0.19895108044147491,"183":0.5449950695037842,"184":0.8556929230690002,"185":-0.5644440650939941,"186":0.4831886887550354,"187":0.7238759398460388,"188":0.5867841839790344,"189":0.621647298336029,"190":-0.6028804183006287,"191":-0.06306150555610657,"192":0.7031930088996887,"193":-1.7206923961639404,"194":-1.2629857063293457,"195":0.562457263469696,"196":-0.5903352499008179,"197":1.1417993307113647,"198":0.31262636184692383,"199":0.708278477191925,"200":0.7644801139831543,"201":-0.9610469341278076,"202":0.09567932784557343,"203":0.8854891061782837,"204":-0.3461097180843353,"205":-0.4666447043418884,"206":0.5322023630142212,"207":0.740494966506958,"208":0.29637616872787476,"209":-0.21928732097148895,"210":-0.983402669429779,"211":0.09794078022241592,"212":0.35561859607696533,"213":-0.5919812321662903,"214":-0.8979662656784058,"215":0.5712883472442627,"216":0.1023138090968132,"217":0.6392813920974731,"218":0.429429829120636,"219":0.38178303837776184,"220":-0.6417094469070435,"221":0.9463946223258972,"222":0.7376502752304077,"223":-0.7292373180389404,"224":-0.9644294381141663,"225":0.7222292423248291,"226":-0.14914841949939728,"227":-0.7177488207817078,"228":-0.8560556769371033,"229":-0.6224854588508606,"230":1.0334405899047852,"231":0.3608686327934265,"232":-0.6339024901390076,"233":-0.3003644049167633,"234":0.8591788411140442,"235":-0.9137470722198486,"236":0.498033344745636,"237":-0.8202859163284302,"238":-0.9846606850624084,"239":-0.789463222026825,"240":1.2999752759933472,"241":-0.4387606084346771,"242":-0.6775749921798706,"243":0.279845267534256,"244":0.3075975179672241,"245":0.6836658120155334,"246":1.0479004383087158,"247":0.6825448274612427,"248":0.10031310468912125,"249":-0.9128419160842896,"250":-0.4150046706199646,"251":0.9245800375938416,"252":1.1272040605545044,"253":-0.8675242066383362,"254":-0.06319155544042587,"255":-0.657375156879425,"256":1.206299901008606,"257":0.37051519751548767,"258":1.0341776609420776,"259":-0.1911243200302124,"260":1.4183123111724854,"261":-0.5226300954818726,"262":1.2833220958709717,"263":2.010546922683716,"264":-0.1452375054359436,"265":-0.10129990428686142,"266":1.1863027811050415,"267":0.3102661073207855,"268":0.411079466342926,"269":-0.016325674951076508,"270":-2.21781849861145,"271":0.13514210283756256,"272":0.3574112355709076,"273":-1.8449946641921997,"274":-0.11604053527116776,"275":-0.08007284998893738,"276":0.025497278198599815,"277":0.6293889880180359,"278":0.9515340328216553,"279":1.0104002952575684,"280":-0.13049165904521942,"281":-0.40975508093833923,"282":-0.1424303948879242,"283":-0.6688749194145203,"284":0.5616267919540405,"285":0.6650450825691223,"286":0.430207222700119,"287":0.32544589042663574,"288":0.6346414089202881,"289":-0.8071900606155396,"290":1.0260651111602783,"291":-0.33770930767059326,"292":0.6174611449241638,"293":-0.726482629776001,"294":-0.19590984284877777,"295":-0.6172776222229004,"296":0.7176761031150818,"297":0.31073057651519775,"298":0.5149551033973694,"299":-0.4949231445789337,"300":0.35700270533561707,"301":-0.15278483927249908,"302":-0.8947040438652039,"303":0.017114879563450813,"304":0.3650606870651245,"305":-0.20508204400539398,"306":0.5847217440605164,"307":0.9212705492973328,"308":-0.10194852948188782,"309":-0.1824018508195877,"310":-0.09114515036344528,"311":-0.34890303015708923,"312":0.6219791769981384,"313":-0.2779039442539215,"314":-0.2658436894416809,"315":0.33021989464759827,"316":0.20300021767616272,"317":0.2864017188549042,"318":0.6060968041419983,"319":0.1450827419757843,"320":0.6009998321533203,"321":-0.29643332958221436,"322":0.6179959177970886,"323":0.6127539873123169,"324":1.0630160570144653,"325":-0.5930888652801514,"326":0.28676220774650574,"327":0.08553000539541245,"328":0.4590629041194916,"329":0.6060864329338074,"330":-0.8088399171829224,"331":-0.5772245526313782,"332":0.018679823726415634,"333":-1.3280994892120361,"334":-0.2341858446598053,"335":0.4907126724720001,"336":-0.3976854085922241,"337":0.16813555359840393,"338":0.8770998120307922,"339":0.9106850028038025,"340":0.23158185184001923,"341":-0.047476038336753845,"342":-0.0077596306800842285,"343":-0.791358470916748,"344":0.4512091279029846,"345":0.5051161646842957,"346":0.3401797413825989,"347":0.09103313088417053,"348":0.23603713512420654,"349":-0.4345918893814087,"350":1.3281100988388062,"351":-0.9164914488792419,"352":0.19244973361492157,"353":-0.3181757628917694,"354":0.4505571126937866,"355":-0.656673789024353,"356":0.6357967257499695,"357":-0.08297079801559448,"358":-0.08977178484201431,"359":-0.684185802936554,"360":1.1098381280899048,"361":-0.5689988136291504,"362":-0.311321884393692,"363":-0.47247254848480225,"364":0.27108481526374817,"365":0.6685003638267517,"366":0.8238322138786316,"367":0.36628228425979614,"368":0.7789519429206848,"369":-0.8227699995040894,"370":0.26028499007225037,"371":0.2965824007987976,"372":1.0219497680664062,"373":-0.8639866709709167,"374":-0.468466192483902,"375":-0.7647944688796997,"376":0.8050367832183838,"377":0.17187312245368958,"378":0.4630407392978668,"379":-0.45563259720802307,"380":0.37843066453933716,"381":-0.2958557605743408,"382":0.0775262713432312,"383":0.3635292649269104,"384":0.8913562297821045,"385":-0.42118749022483826,"386":-0.2043233960866928,"387":0.11936956644058228,"388":0.5745266079902649,"389":0.3874279260635376,"390":-0.5735050439834595,"391":-0.8301863670349121,"392":0.25100940465927124,"393":-0.5541942715644836,"394":-0.45218902826309204,"395":0.4742361903190613,"396":-0.5474181771278381,"397":0.3399844467639923,"398":0.59843909740448,"399":0.5281423926353455}},"inputBias":{"rows":20,"columns":1,"weights":{"0":0.3229488134384155,"1":0.07471630722284317,"2":0.0702434778213501,"3":-0.6136786341667175,"4":-0.2542440593242645,"5":-0.4551824927330017,"6":0.09482606500387192,"7":-0.2673446834087372,"8":-0.5695654153823853,"9":-0.18822546303272247,"10":-0.16289478540420532,"11":1.2352763414382935,"12":-0.13767528533935547,"13":-0.43769657611846924,"14":-0.16503897309303284,"15":-0.6305371522903442,"16":-0.09033011645078659,"17":-0.05700419843196869,"18":-0.18981486558914185,"19":0.43703773617744446}},"forgetMatrix":{"rows":20,"columns":26,"weights":{"0":0.13130678236484528,"1":0.17166101932525635,"2":0.3100644052028656,"3":0.41981908679008484,"4":-0.2547624111175537,"5":-0.8651119470596313,"6":0.8532264828681946,"7":-0.9092225432395935,"8":-0.8649301528930664,"9":0.4392813742160797,"10":-0.8797750473022461,"11":0.8586798906326294,"12":-0.5106359720230103,"13":0.15377984941005707,"14":-0.9035171866416931,"15":-0.7532978057861328,"16":0.4609028697013855,"17":-0.35976505279541016,"18":-0.11869271844625473,"19":-0.8143166899681091,"20":0.19492129981517792,"21":0.890907347202301,"22":-0.2835395038127899,"23":0.14873316884040833,"24":0.08013918995857239,"25":-0.15648412704467773,"26":0.5346962213516235,"27":-0.31142276525497437,"28":0.7132415771484375,"29":0.4517245888710022,"30":-0.24586990475654602,"31":-0.533976674079895,"32":0.49945616722106934,"33":-0.3707689046859741,"34":-0.375892698764801,"35":0.5830872058868408,"36":-0.2577081024646759,"37":0.3480621576309204,"38":-0.41183358430862427,"39":-0.35242295265197754,"40":-0.43570181727409363,"41":-0.38027286529541016,"42":0.35169491171836853,"43":-0.6886640191078186,"44":0.6521547436714172,"45":-0.18775582313537598,"46":-0.25481942296028137,"47":0.540859043598175,"48":-0.1528497338294983,"49":-0.22146733105182648,"50":-0.07811915129423141,"51":0.8449235558509827,"52":-0.6729326844215393,"53":0.7567126750946045,"54":0.22428852319717407,"55":-0.8909475803375244,"56":0.2677697539329529,"57":-0.5923935174942017,"58":0.9039212465286255,"59":-0.6396791338920593,"60":-0.508719801902771,"61":-0.6454386711120605,"62":-0.17544156312942505,"63":0.3262185752391815,"64":-0.13147954642772675,"65":0.13066057860851288,"66":-0.723897397518158,"67":-0.5095031261444092,"68":-0.7635700106620789,"69":0.12455888092517853,"70":-0.24936263263225555,"71":-1.0744704008102417,"72":-0.4722816050052643,"73":0.7977889776229858,"74":0.2751350700855255,"75":1.0072119235992432,"76":-0.23746079206466675,"77":-0.7867344617843628,"78":-0.583789050579071,"79":0.26781830191612244,"80":-0.4840906262397766,"81":-0.9756067991256714,"82":0.5253542065620422,"83":0.5037370920181274,"84":-0.45476478338241577,"85":0.34940358996391296,"86":0.5512317419052124,"87":-0.7302842140197754,"88":0.7835662364959717,"89":-0.7117459774017334,"90":0.7115567326545715,"91":-0.14512419700622559,"92":0.6944308280944824,"93":0.5279548764228821,"94":-0.533935010433197,"95":0.16278766095638275,"96":-0.3762277364730835,"97":0.5303236842155457,"98":-0.8256041407585144,"99":-0.5414270758628845,"100":0.47125908732414246,"101":-0.10622243583202362,"102":0.5377175211906433,"103":-0.4256788492202759,"104":-0.36215829849243164,"105":0.3694343566894531,"106":0.455012708902359,"107":-0.8446412682533264,"108":-0.5202301144599915,"109":-0.041503481566905975,"110":0.4244554340839386,"111":-0.04298073798418045,"112":-0.5457377433776855,"113":-0.7719138264656067,"114":-0.36253538727760315,"115":0.24727395176887512,"116":-0.212773397564888,"117":1.2763481140136719,"118":-0.325822651386261,"119":-0.37689903378486633,"120":-0.8960298895835876,"121":0.16409845650196075,"122":-0.46421536803245544,"123":0.33562764525413513,"124":0.3414228856563568,"125":0.19100545346736908,"126":-0.6577192544937134,"127":0.08620079606771469,"128":0.6416609287261963,"129":-1.0197874307632446,"130":-0.31633809208869934,"131":0.6878774166107178,"132":-0.770828902721405,"133":-0.8368472456932068,"134":0.6960906386375427,"135":0.32163140177726746,"136":-0.48830100893974304,"137":0.7365811467170715,"138":0.5014926791191101,"139":-0.7703583836555481,"140":0.7562059164047241,"141":-0.5916860699653625,"142":0.8198655843734741,"143":-0.09835685789585114,"144":0.8217860460281372,"145":0.46444424986839294,"146":-0.5371711850166321,"147":1.2852426767349243,"148":-0.3702380955219269,"149":1.0282132625579834,"150":-0.6219375729560852,"151":-0.8127886652946472,"152":0.6483240127563477,"153":0.07537854462862015,"154":0.2557506263256073,"155":-1.10966157913208,"156":-0.7736876606941223,"157":0.27787190675735474,"158":-0.9332213997840881,"159":-0.3668348491191864,"160":-0.7128456830978394,"161":-0.32373112440109253,"162":0.24370364844799042,"163":0.06579126417636871,"164":-0.004574196878820658,"165":0.26491373777389526,"166":-0.06780238449573517,"167":0.4572448134422302,"168":-0.4970605671405792,"169":1.0333174467086792,"170":-0.33072802424430847,"171":-0.26874789595603943,"172":0.22225719690322876,"173":0.4514509439468384,"174":-1.3326120376586914,"175":0.6888285279273987,"176":0.8722311854362488,"177":-0.4042429029941559,"178":-0.5703734755516052,"179":-1.5812418460845947,"180":1.1251747608184814,"181":-0.7518815398216248,"182":0.1527838259935379,"183":0.3534823954105377,"184":0.5803824067115784,"185":0.14102058112621307,"186":-0.4888085722923279,"187":-0.6080038547515869,"188":0.6251136064529419,"189":-0.6293976306915283,"190":-0.4790400266647339,"191":0.314794659614563,"192":-0.27933451533317566,"193":0.48286348581314087,"194":-0.476232647895813,"195":0.006453945767134428,"196":-0.5350462198257446,"197":-0.46224191784858704,"198":0.10582354664802551,"199":-0.5043991208076477,"200":0.15273448824882507,"201":-0.4792766273021698,"202":-0.4526961147785187,"203":0.5778566598892212,"204":-0.3883322775363922,"205":0.2767064869403839,"206":-0.16661988198757172,"207":-0.35472628474235535,"208":-0.21093331277370453,"209":0.6114022731781006,"210":0.04725237935781479,"211":0.0508914478123188,"212":-0.6472833752632141,"213":-0.9420523643493652,"214":0.8835394978523254,"215":-1.0067452192306519,"216":-0.8346481919288635,"217":0.37643224000930786,"218":-0.5541095733642578,"219":0.6735407710075378,"220":-0.5586400628089905,"221":0.1488276869058609,"222":-0.954910933971405,"223":-0.6620859503746033,"224":0.3294615149497986,"225":-0.0851985290646553,"226":-0.42465609312057495,"227":-0.5226097106933594,"228":-0.16425754129886627,"229":0.7118383646011353,"230":-0.5220049619674683,"231":0.19293390214443207,"232":-0.3389583230018616,"233":-0.6405150890350342,"234":-1.0764342546463013,"235":-0.12060785293579102,"236":-1.9165406227111816,"237":-0.7189028263092041,"238":-1.0485013723373413,"239":0.5931899547576904,"240":-0.25279298424720764,"241":0.7973220348358154,"242":0.046560753136873245,"243":-0.22261382639408112,"244":-0.0530930757522583,"245":0.10581640899181366,"246":0.10015468299388885,"247":1.1356877088546753,"248":0.03276973217725754,"249":0.17572133243083954,"250":-0.2987220287322998,"251":1.2851722240447998,"252":-1.386215090751648,"253":0.710308313369751,"254":0.9707953929901123,"255":-1.0952982902526855,"256":-0.8954961895942688,"257":-1.230366587638855,"258":-0.818449854850769,"259":-1.106703758239746,"260":-0.5852580666542053,"261":0.34165075421333313,"262":0.1276833862066269,"263":-0.5290294289588928,"264":0.6570725440979004,"265":0.7112878561019897,"266":-0.9677192568778992,"267":0.7336161136627197,"268":0.9733303785324097,"269":-0.7876282334327698,"270":0.5471444725990295,"271":-0.8137654066085815,"272":0.9841594696044922,"273":-0.3205004632472992,"274":1.2957757711410522,"275":0.9522513747215271,"276":-0.5643319487571716,"277":0.5738590359687805,"278":-0.7302994132041931,"279":0.7784715294837952,"280":-0.8828191161155701,"281":-0.6459625363349915,"282":0.7252078056335449,"283":0.3046668469905853,"284":1.1901659965515137,"285":-0.49604788422584534,"286":-0.7583489418029785,"287":-0.05137050151824951,"288":-0.16808030009269714,"289":0.34175145626068115,"290":-0.3526294231414795,"291":-0.10714729130268097,"292":0.13157935440540314,"293":0.3823244273662567,"294":-0.17923811078071594,"295":0.0503527894616127,"296":-0.1618451029062271,"297":0.01563352718949318,"298":-0.28910666704177856,"299":1.4160395860671997,"300":-0.13978160917758942,"301":-0.2239040732383728,"302":-0.28221121430397034,"303":0.18975183367729187,"304":-1.103232502937317,"305":1.0833569765090942,"306":1.1068334579467773,"307":-0.39888355135917664,"308":-0.41028764843940735,"309":-0.21393468976020813,"310":-0.4412324130535126,"311":0.057598624378442764,"312":-0.043883685022592545,"313":0.2485620528459549,"314":0.47021129727363586,"315":0.2826162576675415,"316":-0.34831634163856506,"317":-0.9271721839904785,"318":0.876965343952179,"319":-0.8791658878326416,"320":-0.9718649983406067,"321":0.3451788127422333,"322":-0.614801824092865,"323":0.7821863293647766,"324":-0.44311267137527466,"325":0.17121967673301697,"326":-0.9120737314224243,"327":-0.653171181678772,"328":0.37237095832824707,"329":-0.5672145485877991,"330":0.09696877747774124,"331":-0.7437703609466553,"332":-0.07092665880918503,"333":0.9886106848716736,"334":-0.38068708777427673,"335":0.23067636787891388,"336":-0.0940508097410202,"337":-0.0012108472874388099,"338":0.2835361063480377,"339":0.03712178021669388,"340":1.11177396774292,"341":0.44138190150260925,"342":-0.7885780334472656,"343":-0.5533384680747986,"344":0.6724990010261536,"345":-0.7874146103858948,"346":-0.6588715314865112,"347":0.37682557106018066,"348":-0.6559547185897827,"349":0.5237470269203186,"350":-0.3210729658603668,"351":0.18467117846012115,"352":-0.7980473637580872,"353":-0.47641807794570923,"354":0.6715440154075623,"355":-0.7952625155448914,"356":0.24962934851646423,"357":-0.9339522123336792,"358":0.7258421182632446,"359":0.7927213907241821,"360":-0.8047881722450256,"361":0.26950520277023315,"362":-0.1763174831867218,"363":-0.1150304526090622,"364":0.24170628190040588,"365":0.3260684609413147,"366":0.5004124045372009,"367":0.4584246873855591,"368":-0.5932705998420715,"369":-0.7190475463867188,"370":0.5960395336151123,"371":-0.6149418950080872,"372":-0.6347509026527405,"373":0.5489231944084167,"374":-0.44863131642341614,"375":0.48783352971076965,"376":-0.5914830565452576,"377":-0.1443280279636383,"378":-0.5604042410850525,"379":-0.5834354162216187,"380":0.25831085443496704,"381":-0.7519915699958801,"382":0.044247351586818695,"383":-0.4088568687438965,"384":-0.22256813943386078,"385":0.47589194774627686,"386":-0.41981321573257446,"387":0.3802415430545807,"388":-0.2035956233739853,"389":0.433294415473938,"390":-0.6449915766716003,"391":0.6972427368164062,"392":-0.7978008389472961,"393":-1.0339748859405518,"394":0.7343883514404297,"395":0.5763627290725708,"396":-0.70103919506073,"397":0.7265228033065796,"398":0.6971868276596069,"399":-0.8686121106147766,"400":0.8192679286003113,"401":-0.755013108253479,"402":0.8583455085754395,"403":-0.3634251654148102,"404":0.9817398190498352,"405":0.7747463583946228,"406":-0.562755286693573,"407":1.3038520812988281,"408":-0.5268663167953491,"409":1.101948857307434,"410":-0.6258453130722046,"411":-0.818659782409668,"412":0.7660407423973083,"413":0.20068959891796112,"414":0.5531703233718872,"415":-1.0437663793563843,"416":-0.9754712581634521,"417":-0.024173924699425697,"418":-0.9764094352722168,"419":0.3586457669734955,"420":0.25755080580711365,"421":0.7764819860458374,"422":-1.0777769088745117,"423":0.8364531993865967,"424":0.6408799886703491,"425":-0.08713708817958832,"426":0.7435758709907532,"427":-0.4751201272010803,"428":0.7184457182884216,"429":0.4454447329044342,"430":0.2979415953159332,"431":0.8981466293334961,"432":-0.5936660766601562,"433":0.7187147736549377,"434":-0.8314748406410217,"435":0.17085276544094086,"436":0.07539748400449753,"437":-0.7069789171218872,"438":0.3370220959186554,"439":-0.736911416053772,"440":-0.052968233823776245,"441":-0.24757063388824463,"442":0.5002742409706116,"443":-0.025839466601610184,"444":0.5952746868133545,"445":0.11171674728393555,"446":-0.3379139006137848,"447":-0.5390902161598206,"448":0.5737593173980713,"449":-0.5648089647293091,"450":-0.5031458735466003,"451":1.017160415649414,"452":-0.3621751368045807,"453":0.3664291203022003,"454":-0.38552725315093994,"455":-0.6590244770050049,"456":-0.4095931947231293,"457":-0.4047144055366516,"458":0.4550299346446991,"459":-0.7907748222351074,"460":0.4683166444301605,"461":-0.34898754954338074,"462":0.017252527177333832,"463":0.5062995553016663,"464":-0.34368568658828735,"465":-0.13097167015075684,"466":-0.04877898097038269,"467":0.02086632139980793,"468":0.17860084772109985,"469":0.15849991142749786,"470":0.49022793769836426,"471":0.3944546580314636,"472":-0.7236419916152954,"473":-0.8281406760215759,"474":0.6750432848930359,"475":-0.7065249085426331,"476":-0.7197149991989136,"477":0.3781549632549286,"478":-0.4487009048461914,"479":0.5627040266990662,"480":-0.5800462365150452,"481":-0.015072600916028023,"482":-0.7298802733421326,"483":-0.5803593397140503,"484":0.22312308847904205,"485":-0.6820095181465149,"486":-0.0023278091102838516,"487":-0.583716630935669,"488":0.27098265290260315,"489":0.7407413721084595,"490":-0.6612241864204407,"491":0.10444063693284988,"492":0.033878542482852936,"493":0.02002493105828762,"494":0.2728845775127411,"495":0.46104365587234497,"496":0.7581912279129028,"497":0.23202776908874512,"498":0.7572486996650696,"499":0.23614026606082916,"500":-0.41326749324798584,"501":0.35069334506988525,"502":0.5182967185974121,"503":-0.2967657446861267,"504":0.28471019864082336,"505":-0.27041035890579224,"506":0.2654227614402771,"507":-1.4178248643875122,"508":0.3412899672985077,"509":0.38608431816101074,"510":-0.2449413388967514,"511":-0.3216729164123535,"512":0.9341473579406738,"513":-0.3009289503097534,"514":-0.971075177192688,"515":-0.0709494948387146,"516":0.7524536848068237,"517":0.9426388144493103,"518":-0.31856903433799744,"519":0.3001540005207062}},"forgetHidden":{"rows":20,"columns":20,"weights":{"0":-0.1860664188861847,"1":0.1425832062959671,"2":-0.010565021075308323,"3":-0.2177678644657135,"4":-0.3198298513889313,"5":0.12351778894662857,"6":-0.03809407353401184,"7":-0.031197693198919296,"8":-0.16073118150234222,"9":-0.10341469198465347,"10":0.3731127977371216,"11":0.3657699227333069,"12":-0.1781253069639206,"13":0.13034161925315857,"14":0.04075776785612106,"15":-0.11434999108314514,"16":0.05731833353638649,"17":-0.02595979906618595,"18":-0.06721565127372742,"19":-0.37293049693107605,"20":0.2813379466533661,"21":0.38542789220809937,"22":-0.16193991899490356,"23":-0.20705075562000275,"24":0.026116086170077324,"25":0.1472017616033554,"26":0.6542276740074158,"27":0.43350347876548767,"28":-0.6810325384140015,"29":-0.361491322517395,"30":0.37651312351226807,"31":0.7614474892616272,"32":0.2007700353860855,"33":0.04117931053042412,"34":0.7761222720146179,"35":-0.31565940380096436,"36":0.3419594168663025,"37":-0.23686483502388,"38":0.11604604870080948,"39":-0.36512574553489685,"40":0.06962995231151581,"41":0.07957996428012848,"42":0.0668245479464531,"43":-0.3875787854194641,"44":-0.017772983759641647,"45":0.5103229284286499,"46":0.21106110513210297,"47":-0.17818623781204224,"48":0.22285057604312897,"49":-0.2608847916126251,"50":0.3331172466278076,"51":0.7814079523086548,"52":0.3003002405166626,"53":-0.1084238663315773,"54":0.09923996776342392,"55":-0.23446980118751526,"56":0.27469098567962646,"57":-0.06807833164930344,"58":0.10954597592353821,"59":-0.10230975598096848,"60":0.28683146834373474,"61":-0.17076119780540466,"62":-0.03644309565424919,"63":0.7484292984008789,"64":-0.005410665646195412,"65":-0.3868776857852936,"66":-0.15060211718082428,"67":0.16264057159423828,"68":0.10766633599996567,"69":0.2177843451499939,"70":-0.7237828969955444,"71":0.3380853235721588,"72":0.18664193153381348,"73":-0.29350271821022034,"74":-0.2420082539319992,"75":0.491519957780838,"76":-0.19730164110660553,"77":0.058070529252290726,"78":0.27323707938194275,"79":0.6328675746917725,"80":1.0531247854232788,"81":0.14649629592895508,"82":0.43714648485183716,"83":0.07403825968503952,"84":-0.059492066502571106,"85":0.33061477541923523,"86":-0.72745680809021,"87":-0.6212316155433655,"88":0.06182989478111267,"89":-0.2886659502983093,"90":-0.360512375831604,"91":-0.4143238067626953,"92":0.2418220341205597,"93":-0.3916494846343994,"94":0.14606893062591553,"95":-0.3629841208457947,"96":0.3729211091995239,"97":-0.08662810921669006,"98":1.2369122505187988,"99":-0.13110430538654327,"100":-0.2552841305732727,"101":0.29956862330436707,"102":0.20200562477111816,"103":-0.13309988379478455,"104":-0.021288270130753517,"105":-0.2377443164587021,"106":0.04431711882352829,"107":-0.2070561945438385,"108":-0.1669628769159317,"109":0.6001400351524353,"110":0.08247596770524979,"111":0.20747950673103333,"112":-0.2701479196548462,"113":0.549092173576355,"114":0.20249520242214203,"115":0.3296855688095093,"116":-0.43945467472076416,"117":-0.20860081911087036,"118":-0.24212774634361267,"119":0.2512206435203552,"120":-0.6138477921485901,"121":-0.10494798421859741,"122":0.10865524411201477,"123":-0.16875572502613068,"124":-0.29243263602256775,"125":0.0833558663725853,"126":0.08721472322940826,"127":-0.1865583062171936,"128":0.10388841480016708,"129":-0.041900720447301865,"130":0.10887447744607925,"131":0.2859135866165161,"132":0.013037174008786678,"133":0.6461838483810425,"134":-0.06418733298778534,"135":-0.12523812055587769,"136":0.0029981161933392286,"137":0.05277222394943237,"138":-0.5184010863304138,"139":-0.5337061882019043,"140":0.20595763623714447,"141":-0.09272954612970352,"142":0.05413004383444786,"143":-0.4725506007671356,"144":-0.3310492932796478,"145":0.37293824553489685,"146":0.3015245497226715,"147":-0.1908932477235794,"148":-0.12431077659130096,"149":-0.4667133390903473,"150":0.546425461769104,"151":0.7078621983528137,"152":0.0528239905834198,"153":0.009640611708164215,"154":-0.04413783177733421,"155":-0.49559709429740906,"156":0.39510378241539,"157":0.06534165889024734,"158":-0.05169088393449783,"159":-0.19544045627117157,"160":0.10238315165042877,"161":-0.30492982268333435,"162":-0.032361336052417755,"163":-0.6027668118476868,"164":-0.36064788699150085,"165":0.173926442861557,"166":0.2948681712150574,"167":-0.414072185754776,"168":-0.3781162202358246,"169":0.017759595066308975,"170":0.6096174716949463,"171":0.5821592211723328,"172":-0.24719512462615967,"173":0.5677242875099182,"174":0.2752353847026825,"175":-0.07718170434236526,"176":0.41534551978111267,"177":0.35431522130966187,"178":-0.23926205933094025,"179":-0.5055350065231323,"180":-0.2535201609134674,"181":0.276964008808136,"182":0.4036221206188202,"183":-0.6877458691596985,"184":0.3554076850414276,"185":-0.027224035933613777,"186":-0.7209680080413818,"187":-1.1862819194793701,"188":0.0067072659730911255,"189":0.345156192779541,"190":0.4449666738510132,"191":-0.2339039444923401,"192":-0.4886244535446167,"193":1.0121862888336182,"194":0.30817046761512756,"195":-0.0017922446131706238,"196":-0.2301478385925293,"197":-0.17094048857688904,"198":0.0525987409055233,"199":-0.09399424493312836,"200":0.06857086718082428,"201":-0.2885536551475525,"202":-0.2574494481086731,"203":0.04436684772372246,"204":0.3529099225997925,"205":-0.598168134689331,"206":0.14412294328212738,"207":0.9191009998321533,"208":0.467792809009552,"209":0.6326499581336975,"210":-0.36908993124961853,"211":-0.5324010252952576,"212":0.9722380042076111,"213":-0.5951738953590393,"214":-0.4145621359348297,"215":0.6301247477531433,"216":-0.6184213161468506,"217":0.11755771189928055,"218":0.01291198842227459,"219":0.6896360516548157,"220":0.9271619915962219,"221":0.35432669520378113,"222":1.5662379264831543,"223":1.3619900941848755,"224":-0.817704975605011,"225":-0.3027765154838562,"226":-1.8414195775985718,"227":0.7536822557449341,"228":-0.4181482791900635,"229":0.7180818319320679,"230":-2.7104060649871826,"231":0.466350257396698,"232":0.8298912644386292,"233":0.42264342308044434,"234":-1.1651686429977417,"235":0.13770189881324768,"236":-0.02345508150756359,"237":-0.7715349197387695,"238":0.49331411719322205,"239":0.337893009185791,"240":0.02945026569068432,"241":0.027947697788476944,"242":0.06714881211519241,"243":-0.37988150119781494,"244":-0.39206936955451965,"245":0.13767749071121216,"246":0.12310004234313965,"247":-0.09437885135412216,"248":-0.15524330735206604,"249":-0.23122191429138184,"250":0.40155237913131714,"251":0.5358047485351562,"252":-0.02715676836669445,"253":0.1553981453180313,"254":0.01648569293320179,"255":-0.17330302298069,"256":0.08356928080320358,"257":-0.035929907113313675,"258":-0.08149111270904541,"259":-0.27136296033859253,"260":0.005650325212627649,"261":0.23917007446289062,"262":-0.27826935052871704,"263":-0.7694899439811707,"264":-0.3658851981163025,"265":0.2792154848575592,"266":0.129003643989563,"267":0.15819525718688965,"268":-0.18529829382896423,"269":-0.13519327342510223,"270":0.6916183233261108,"271":0.6147956848144531,"272":0.02290262095630169,"273":-0.0002591710945125669,"274":-0.1159679964184761,"275":-0.23616749048233032,"276":0.07376064360141754,"277":0.0031370511278510094,"278":-0.048297736793756485,"279":-0.4184168875217438,"280":-0.17354658246040344,"281":0.16291840374469757,"282":0.0503489188849926,"283":-0.5579375624656677,"284":-0.3240690529346466,"285":0.1693325936794281,"286":0.25532591342926025,"287":-0.2384941726922989,"288":-0.41077786684036255,"289":-0.215130016207695,"290":0.6090744733810425,"291":0.7670395374298096,"292":-0.28796231746673584,"293":0.2947486937046051,"294":0.25582945346832275,"295":-0.4072653353214264,"296":0.35808584094047546,"297":-0.19366970658302307,"298":-0.27540743350982666,"299":-0.2147667109966278,"300":-0.319955438375473,"301":0.30598676204681396,"302":0.24342146515846252,"303":-0.015684636309742928,"304":0.053396545350551605,"305":-0.12132169306278229,"306":-0.17277124524116516,"307":-0.3315543234348297,"308":-0.3314014673233032,"309":0.5233679413795471,"310":-0.08090120553970337,"311":0.19699330627918243,"312":-0.20915573835372925,"313":0.17204143106937408,"314":0.17142952978610992,"315":0.21404892206192017,"316":-0.47155800461769104,"317":-0.29122138023376465,"318":-0.18818344175815582,"319":0.19613537192344666,"320":-1.3963251113891602,"321":0.6002451777458191,"322":0.00165646243840456,"323":-0.3014625608921051,"324":-1.585793375968933,"325":-0.16315039992332458,"326":-0.03284718841314316,"327":0.37274694442749023,"328":-0.29265668988227844,"329":0.12551121413707733,"330":0.2436436414718628,"331":1.2787997722625732,"332":0.556077778339386,"333":0.7260398268699646,"334":0.4858357906341553,"335":0.021150048822164536,"336":-0.01592494174838066,"337":-0.5965180397033691,"338":-1.4024717807769775,"339":0.2004925012588501,"340":0.34926003217697144,"341":0.2062753587961197,"342":0.057637810707092285,"343":-0.41680628061294556,"344":-0.15924124419689178,"345":0.16170379519462585,"346":0.4907311499118805,"347":-0.10780756175518036,"348":-0.11485442519187927,"349":-0.3634051978588104,"350":0.28169408440589905,"351":0.5268479585647583,"352":0.01579914800822735,"353":0.029803477227687836,"354":0.8468936681747437,"355":-0.345243901014328,"356":0.2692791223526001,"357":-0.16648337244987488,"358":0.034137677401304245,"359":-0.2942926287651062,"360":-0.03958737477660179,"361":-0.05110581964254379,"362":0.12621523439884186,"363":-0.49911779165267944,"364":-0.06418980658054352,"365":0.21635651588439941,"366":0.30400386452674866,"367":-0.20497563481330872,"368":-0.008282161317765713,"369":-0.24252144992351532,"370":0.5364760160446167,"371":0.6026003956794739,"372":-0.011043685488402843,"373":0.04577808454632759,"374":-0.1872829794883728,"375":-0.37635940313339233,"376":0.34662899374961853,"377":-0.006131667643785477,"378":-0.043487079441547394,"379":-0.21384543180465698,"380":-0.94089275598526,"381":0.44430169463157654,"382":-1.181502103805542,"383":-0.5499004125595093,"384":0.045760784298181534,"385":0.07417529821395874,"386":-0.28721171617507935,"387":0.8202183842658997,"388":0.12005621939897537,"389":0.3860887289047241,"390":0.012599318288266659,"391":-0.7206958532333374,"392":0.7442132830619812,"393":0.8864906430244446,"394":0.10729234665632248,"395":0.0874568298459053,"396":-0.6533728837966919,"397":-0.5460420250892639,"398":-0.7499171495437622,"399":0.42230165004730225}},"forgetBias":{"rows":20,"columns":1,"weights":{"0":0,"1":0,"2":0,"3":0,"4":0,"5":0,"6":0,"7":0,"8":0,"9":0,"10":0,"11":0,"12":0,"13":0,"14":0,"15":0,"16":0,"17":0,"18":0,"19":0}},"outputMatrix":{"rows":20,"columns":26,"weights":{"0":0.17880474030971527,"1":0.8938753604888916,"2":0.12768585979938507,"3":-0.3693879246711731,"4":-0.9753937125205994,"5":-0.19303588569164276,"6":0.08383844047784805,"7":0.03713937848806381,"8":-0.11844983696937561,"9":-1.9936927556991577,"10":-0.23694786429405212,"11":0.2713977098464966,"12":-0.30657923221588135,"13":0.42221879959106445,"14":-0.18230481445789337,"15":-0.10847345739603043,"16":-0.47668492794036865,"17":0.2575015127658844,"18":-1.1038968563079834,"19":0.18162405490875244,"20":0.8461483120918274,"21":0.19071492552757263,"22":-0.6367815136909485,"23":0.23544985055923462,"24":1.3945304155349731,"25":-1.4281562566757202,"26":0.1913057118654251,"27":-0.008651911281049252,"28":0.13289384543895721,"29":0.5990067720413208,"30":-0.35225269198417664,"31":-0.4722267687320709,"32":0.5786256790161133,"33":-0.6788583397865295,"34":-0.6455040574073792,"35":0.6882858276367188,"36":-0.5403085350990295,"37":0.492169052362442,"38":-0.25990939140319824,"39":-0.5040894150733948,"40":-0.4249686300754547,"41":-0.5362170934677124,"42":0.5611833930015564,"43":-0.0741804763674736,"44":0.3380674123764038,"45":-0.7134208679199219,"46":0.13803119957447052,"47":0.5539463758468628,"48":-0.618889331817627,"49":0.03794613108038902,"50":-0.427193284034729,"51":-0.03335028886795044,"52":-0.7532453536987305,"53":0.7979737520217896,"54":-0.7269431352615356,"55":-0.8297569751739502,"56":-0.20737753808498383,"57":0.20868031680583954,"58":-0.08830060809850693,"59":0.5602460503578186,"60":-0.03287701681256294,"61":-0.9957980513572693,"62":-0.020830268040299416,"63":-0.06697924435138702,"64":0.16982848942279816,"65":0.08038900792598724,"66":0.02527451701462269,"67":0.4025714695453644,"68":-1.1017478704452515,"69":0.6458389759063721,"70":-0.633972704410553,"71":0.23837900161743164,"72":-0.27245408296585083,"73":-0.15650539100170135,"74":-0.2566455900669098,"75":-0.27339309453964233,"76":0.8393703699111938,"77":-0.9192536473274231,"78":-0.5863383412361145,"79":0.8484432101249695,"80":-0.36363252997398376,"81":-1.5139957666397095,"82":1.3759088516235352,"83":0.5849082469940186,"84":-0.9649659991264343,"85":0.37192443013191223,"86":0.47869232296943665,"87":-0.8759213089942932,"88":0.914584755897522,"89":-0.6312348246574402,"90":1.323000192642212,"91":0.14220717549324036,"92":0.8337745070457458,"93":0.7353152632713318,"94":-0.5213953256607056,"95":0.8412117958068848,"96":-0.3374311923980713,"97":0.19067928194999695,"98":-1.1333435773849487,"99":-0.33601635694503784,"100":1.1799839735031128,"101":0.1515921801328659,"102":0.3017033338546753,"103":-0.8786391019821167,"104":-1.6377778053283691,"105":0.9156168103218079,"106":-0.7465698719024658,"107":-0.6100175976753235,"108":-0.31032630801200867,"109":0.09030427783727646,"110":0.15426695346832275,"111":0.4657464921474457,"112":-0.14139962196350098,"113":-0.9206268787384033,"114":-0.015704870223999023,"115":0.14601454138755798,"116":0.03566010296344757,"117":0.8239941596984863,"118":-0.08524750918149948,"119":-0.07123637199401855,"120":-1.4501757621765137,"121":1.5009862184524536,"122":-0.9310570359230042,"123":0.912468433380127,"124":0.3666057586669922,"125":-0.3109125792980194,"126":-0.4339495301246643,"127":0.3637418746948242,"128":0.4572269022464752,"129":-1.0113041400909424,"130":-0.25831082463264465,"131":0.09515343606472015,"132":0.4520431160926819,"133":-0.1582300215959549,"134":0.8021746873855591,"135":0.6896896958351135,"136":-0.6967571377754211,"137":0.4100559651851654,"138":0.8730560541152954,"139":-0.5119073390960693,"140":0.8794510960578918,"141":-0.7464012503623962,"142":1.3138298988342285,"143":-0.8273172378540039,"144":0.610412061214447,"145":1.0494588613510132,"146":-0.5873041749000549,"147":-0.11141864210367203,"148":1.2516132593154907,"149":0.13669398427009583,"150":-0.3056444227695465,"151":0.1535678505897522,"152":0.5360430479049683,"153":0.13048887252807617,"154":0.18292586505413055,"155":0.4652036428451538,"156":-0.4204150140285492,"157":-0.039614174515008926,"158":-0.40623337030410767,"159":-0.16332034766674042,"160":-0.7127388119697571,"161":-0.7591014504432678,"162":0.7063444256782532,"163":-0.610537588596344,"164":-0.7720000147819519,"165":-0.0728466659784317,"166":-0.7052856683731079,"167":0.761900007724762,"168":-0.7220649123191833,"169":0.7455030083656311,"170":-0.7005668878555298,"171":-0.8751157522201538,"172":0.12353257834911346,"173":-0.019170137122273445,"174":-0.852198600769043,"175":0.5230739712715149,"176":0.5120217800140381,"177":-0.0877985879778862,"178":-0.48223015666007996,"179":-0.17913204431533813,"180":-0.030074408277869225,"181":-0.39126870036125183,"182":-0.46402716636657715,"183":0.9704737663269043,"184":-0.28151094913482666,"185":-0.4971359074115753,"186":-0.4186933636665344,"187":-0.3604108691215515,"188":0.40703827142715454,"189":-0.4202120006084442,"190":-0.4874092638492584,"191":-1.6387273073196411,"192":-0.3496614694595337,"193":0.3306190073490143,"194":-0.3729932904243469,"195":0.9235300421714783,"196":-0.3701256215572357,"197":-0.42190659046173096,"198":-0.45561128854751587,"199":0.38005203008651733,"200":-0.8583977222442627,"201":-0.24176830053329468,"202":0.37500008940696716,"203":0.3194756805896759,"204":-0.45752379298210144,"205":-0.78690105676651,"206":1.6776398420333862,"207":-1.376109004020691,"208":0.38914209604263306,"209":0.5397716164588928,"210":0.8205966353416443,"211":0.2937754690647125,"212":-0.39070752263069153,"213":-0.48082631826400757,"214":0.5331752896308899,"215":-0.5065104961395264,"216":-0.4499451220035553,"217":0.21069547533988953,"218":-0.6220970153808594,"219":0.5340982675552368,"220":-0.46710139513015747,"221":-0.49943313002586365,"222":-0.5301907658576965,"223":-0.5756838917732239,"224":0.5942664742469788,"225":-0.6240968108177185,"226":1.4942615032196045,"227":-1.1763123273849487,"228":0.32531023025512695,"229":0.6730985045433044,"230":-0.35474908351898193,"231":0.9544934034347534,"232":-0.22920309007167816,"233":-0.6429089307785034,"234":-0.6041191220283508,"235":-0.2512468695640564,"236":-0.9400334358215332,"237":0.03541893512010574,"238":0.7046064138412476,"239":0.6993939876556396,"240":-0.6016048789024353,"241":0.43922853469848633,"242":0.3495597243309021,"243":0.2113933563232422,"244":0.21415574848651886,"245":-0.6590958833694458,"246":0.2961597740650177,"247":-0.5277398228645325,"248":0.6643674969673157,"249":0.32139456272125244,"250":-0.36011937260627747,"251":0.014028122648596764,"252":-0.2311742603778839,"253":0.31209707260131836,"254":-0.22665829956531525,"255":-0.9112462997436523,"256":0.7107265591621399,"257":-0.3046873211860657,"258":-0.8015314340591431,"259":0.013566105626523495,"260":-0.5515521764755249,"261":0.17007635533809662,"262":-1.0918667316436768,"263":-1.0777403116226196,"264":0.4648364186286926,"265":0.22247374057769775,"266":-0.21840396523475647,"267":0.4007869362831116,"268":0.5587079524993896,"269":-0.6818333864212036,"270":0.6196464896202087,"271":-0.30832788348197937,"272":0.4449659585952759,"273":0.2738545835018158,"274":0.5648658871650696,"275":0.2581729590892792,"276":-0.5339115858078003,"277":0.6300128698348999,"278":-0.42846885323524475,"279":0.7348573207855225,"280":-0.3226163685321808,"281":-0.602709174156189,"282":0.39838477969169617,"283":-0.03092189133167267,"284":0.29047518968582153,"285":-1.398404836654663,"286":0.47964081168174744,"287":0.0766051709651947,"288":-0.07319341599941254,"289":-0.057684022933244705,"290":-1.1616947650909424,"291":0.2520357370376587,"292":-0.4735143780708313,"293":0.8505469560623169,"294":0.4730710983276367,"295":-0.2888331711292267,"296":0.4492345154285431,"297":-0.5114389061927795,"298":0.36025360226631165,"299":1.7205747365951538,"300":0.46018147468566895,"301":0.4555095136165619,"302":-0.8949451446533203,"303":0.014321768656373024,"304":-1.4228004217147827,"305":1.310238242149353,"306":0.908331573009491,"307":-1.023772954940796,"308":-0.94297194480896,"309":-1.3829845190048218,"310":1.12864351272583,"311":-0.0841059461236,"312":-0.6309617757797241,"313":1.3842189311981201,"314":0.031876739114522934,"315":-0.7751614451408386,"316":-0.1828424483537674,"317":-0.20991598069667816,"318":0.22703592479228973,"319":-0.3037694990634918,"320":-0.34678539633750916,"321":-1.5230430364608765,"322":-0.22983525693416595,"323":0.2681916356086731,"324":0.10106389969587326,"325":0.8773593902587891,"326":-0.3524460792541504,"327":-0.13225066661834717,"328":-0.9863470792770386,"329":0.7377926111221313,"330":-0.8648019433021545,"331":-0.11995711177587509,"332":0.3765402138233185,"333":0.19783543050289154,"334":-0.03807709366083145,"335":0.08229412883520126,"336":0.5330783724784851,"337":-1.654694676399231,"338":-0.16378936171531677,"339":0.9317789673805237,"340":0.6121112108230591,"341":0.08149052411317825,"342":0.0785004273056984,"343":-0.6425914168357849,"344":0.7047486901283264,"345":-0.8839837312698364,"346":-0.6267173290252686,"347":-1.0481466054916382,"348":-0.2307976484298706,"349":0.4777831733226776,"350":-0.27997392416000366,"351":0.32104864716529846,"352":-0.5481982231140137,"353":-0.46436432003974915,"354":0.06201824173331261,"355":-0.13725706934928894,"356":-0.20495648682117462,"357":-0.02007703110575676,"358":-0.058325327932834625,"359":0.6291476488113403,"360":0.04885629564523697,"361":0.4775424897670746,"362":0.5024510025978088,"363":-0.8276588916778564,"364":0.5057772994041443,"365":0.6708547472953796,"366":1.0158861875534058,"367":0.21690316498279572,"368":-0.4193727672100067,"369":-0.29405319690704346,"370":0.419508695602417,"371":-0.40101611614227295,"372":-0.3888993263244629,"373":-0.16716411709785461,"374":-0.3532584309577942,"375":0.40814512968063354,"376":-0.008714849129319191,"377":-0.6486095786094666,"378":-0.28069230914115906,"379":-0.33579951524734497,"380":0.14343005418777466,"381":-0.2552367150783539,"382":0.9444693326950073,"383":-0.4007572531700134,"384":0.39974740147590637,"385":0.5043951272964478,"386":-0.5146063566207886,"387":0.36780163645744324,"388":0.48125433921813965,"389":-0.45859774947166443,"390":-0.42463332414627075,"391":0.07876027375459671,"392":-0.3162091374397278,"393":-0.15646050870418549,"394":0.652174711227417,"395":0.48396021127700806,"396":-0.7150064706802368,"397":0.6270730495452881,"398":0.7886715531349182,"399":-0.22811782360076904,"400":0.5487304329872131,"401":-0.6525248885154724,"402":0.6023290753364563,"403":-0.36214616894721985,"404":0.6100685000419617,"405":0.7558971643447876,"406":-0.2684175670146942,"407":0.39879924058914185,"408":-0.09269186854362488,"409":0.7569089531898499,"410":-0.3617004454135895,"411":-0.4109383821487427,"412":0.7125602960586548,"413":-0.23714840412139893,"414":0.0911794900894165,"415":0.12361415475606918,"416":-0.5405296087265015,"417":-0.08119623363018036,"418":-1.595659852027893,"419":-0.2448340654373169,"420":0.284498929977417,"421":0.31457287073135376,"422":-0.05555803328752518,"423":0.6002483367919922,"424":-0.3214285671710968,"425":0.8331431746482849,"426":-0.13009987771511078,"427":0.03323378786444664,"428":-0.10379090905189514,"429":-0.3702540397644043,"430":0.039282940328121185,"431":-0.32253918051719666,"432":0.15926288068294525,"433":0.28582921624183655,"434":-0.7013275623321533,"435":1.36476731300354,"436":0.13243341445922852,"437":-1.2741096019744873,"438":0.004513839725404978,"439":-0.7171300053596497,"440":-1.6457184553146362,"441":0.1917617917060852,"442":0.27650779485702515,"443":0.12578673660755157,"444":0.1162533313035965,"445":0.21911326050758362,"446":-0.4660240113735199,"447":-0.4701477289199829,"448":0.6076123714447021,"449":-0.6420984864234924,"450":-0.5211800336837769,"451":0.06581549346446991,"452":-0.6537626385688782,"453":0.5453413128852844,"454":-0.3956960141658783,"455":-0.9990909099578857,"456":-0.5843086838722229,"457":-0.5802255868911743,"458":0.43602102994918823,"459":-0.1023072823882103,"460":0.45660579204559326,"461":-0.723556637763977,"462":0.7829822897911072,"463":0.5359772443771362,"464":-0.5799391865730286,"465":0.22279421985149384,"466":-0.7900305390357971,"467":-0.651860773563385,"468":-0.39552658796310425,"469":1.4848135709762573,"470":0.23614808917045593,"471":-0.15162211656570435,"472":-0.26533007621765137,"473":-0.2975906431674957,"474":0.2286074459552765,"475":-0.2845153212547302,"476":-0.27060502767562866,"477":-2.072018623352051,"478":-0.24438931047916412,"479":0.3172970712184906,"480":-0.27655667066574097,"481":0.5613707304000854,"482":-0.4170970618724823,"483":-0.18984749913215637,"484":-0.9459178447723389,"485":0.48477041721343994,"486":-0.8519407510757446,"487":-0.6564561128616333,"488":0.027436919510364532,"489":0.5056185722351074,"490":-0.04637658968567848,"491":0.890909731388092,"492":0.9988012313842773,"493":-1.078941822052002,"494":-0.43146049976348877,"495":-0.5368542075157166,"496":-0.9375981688499451,"497":0.2677529752254486,"498":-0.07550059258937836,"499":0.6447009444236755,"500":-0.8864221572875977,"501":0.8057426810264587,"502":0.9293386936187744,"503":-0.24263589084148407,"504":0.9716257452964783,"505":-0.686963677406311,"506":0.6634864211082458,"507":0.5428695678710938,"508":0.7064931988716125,"509":0.8700087070465088,"510":-0.5740330815315247,"511":0.25520434975624084,"512":-0.45674851536750793,"513":1.1257786750793457,"514":0.2940392792224884,"515":-0.773202121257782,"516":0.008635694161057472,"517":-0.7546457648277283,"518":0.37539157271385193,"519":0.23031052947044373}},"outputHidden":{"rows":20,"columns":20,"weights":{"0":-0.7071115970611572,"1":0.7037647366523743,"2":-0.5263028740882874,"3":-1.3286523818969727,"4":-1.1467981338500977,"5":0.15046729147434235,"6":0.629234254360199,"7":0.6616396307945251,"8":-0.550754725933075,"9":0.006229748949408531,"10":1.4148335456848145,"11":1.1824959516525269,"12":0.9350548982620239,"13":-0.1432667076587677,"14":0.41188856959342957,"15":-0.4776375889778137,"16":0.5225741267204285,"17":-0.5875547528266907,"18":-0.5469274520874023,"19":0.05750393867492676,"20":0.20680363476276398,"21":0.20933464169502258,"22":0.027279460802674294,"23":-0.8422009944915771,"24":0.5598411560058594,"25":0.5910585522651672,"26":0.44124484062194824,"27":0.087653748691082,"28":-0.06979233771562576,"29":-0.6384080648422241,"30":1.2933417558670044,"31":-0.3019261658191681,"32":0.18837828934192657,"33":-0.13184919953346252,"34":0.43315163254737854,"35":-0.7871012091636658,"36":0.6280919909477234,"37":-0.29687565565109253,"38":0.01896457001566887,"39":-0.6982191801071167,"40":1.5219669342041016,"41":0.53799968957901,"42":0.6916650533676147,"43":0.24866212904453278,"44":-0.8120166659355164,"45":0.3550853133201599,"46":0.2143581211566925,"47":-0.11225099861621857,"48":-0.36059585213661194,"49":-0.6308460831642151,"50":-0.5018029808998108,"51":0.2291550636291504,"52":0.3451489806175232,"53":-1.3785697221755981,"54":0.5255959630012512,"55":-0.5681170225143433,"56":1.0033519268035889,"57":-0.5889784097671509,"58":1.3285118341445923,"59":-0.09739062935113907,"60":0.34383073449134827,"61":-0.3167543411254883,"62":-0.029879651963710785,"63":0.5914366245269775,"64":-0.28084036707878113,"65":-0.6269909143447876,"66":-0.12926137447357178,"67":0.3688616156578064,"68":-0.22534435987472534,"69":0.4444308876991272,"70":-0.8090469241142273,"71":0.33746427297592163,"72":0.3410409092903137,"73":-0.4967283308506012,"74":-0.5376218557357788,"75":0.8492297530174255,"76":-0.13294072449207306,"77":0.25935861468315125,"78":0.31506970524787903,"79":0.5494289398193359,"80":1.00603187084198,"81":-0.04186602309346199,"82":0.47166574001312256,"83":-0.22329992055892944,"84":-0.28502601385116577,"85":0.3186474144458771,"86":-0.42566126585006714,"87":-0.6811606884002686,"88":0.31304916739463806,"89":-0.559177577495575,"90":0.2841775417327881,"91":0.845200777053833,"92":-0.1575603038072586,"93":-0.6083574295043945,"94":0.1726498156785965,"95":-0.3736812174320221,"96":0.7230405211448669,"97":-0.13544386625289917,"98":0.4477612376213074,"99":-0.09299752116203308,"100":-0.3888246417045593,"101":-0.004156966228038073,"102":-0.37917307019233704,"103":-0.27999839186668396,"104":0.5313119292259216,"105":-0.2639829218387604,"106":-0.00015673685993533581,"107":1.0923045873641968,"108":0.008962619118392467,"109":0.5699156522750854,"110":-0.23868687450885773,"111":-0.9485241770744324,"112":1.2594894170761108,"113":0.09646153450012207,"114":0.1939309984445572,"115":0.41285955905914307,"116":-0.41822338104248047,"117":-0.0679934099316597,"118":-0.5333697199821472,"119":0.04419799894094467,"120":0.1278856247663498,"121":-0.07467404752969742,"122":1.286857008934021,"123":1.0197821855545044,"124":-0.3215877115726471,"125":-1.03952956199646,"126":-0.4410114884376526,"127":-0.17967571318149567,"128":-0.18335366249084473,"129":1.5187102556228638,"130":-1.2768224477767944,"131":0.07228930294513702,"132":-0.06823882460594177,"133":0.06838922947645187,"134":0.011647411622107029,"135":1.1835688352584839,"136":-0.8267543315887451,"137":0.2738526165485382,"138":0.31790998578071594,"139":1.356601357460022,"140":0.004902704618871212,"141":-0.3211461305618286,"142":-0.08692655712366104,"143":-0.3120283782482147,"144":-0.40870100259780884,"145":0.5248468518257141,"146":0.7585667967796326,"147":0.008632833138108253,"148":0.5079793334007263,"149":-0.34836333990097046,"150":0.5397430062294006,"151":1.4940139055252075,"152":0.7826465368270874,"153":0.4785345792770386,"154":0.17924903333187103,"155":-0.7182167768478394,"156":0.5348018407821655,"157":0.14105743169784546,"158":-1.481042742729187,"159":-0.38867825269699097,"160":-0.5660580396652222,"161":0.5442842841148376,"162":-0.31392642855644226,"163":-0.4274464547634125,"164":0.5281261205673218,"165":0.057950928807258606,"166":0.42779070138931274,"167":0.10864853858947754,"168":-0.6680114269256592,"169":0.10007686167955399,"170":0.9597664475440979,"171":-0.17406734824180603,"172":0.29352113604545593,"173":0.2905580699443817,"174":0.35418838262557983,"175":-0.267905592918396,"176":-0.25026869773864746,"177":-0.33723708987236023,"178":-0.7582277059555054,"179":-0.05700564384460449,"180":0.481847882270813,"181":-0.10771983861923218,"182":0.8566132187843323,"183":1.0414727926254272,"184":0.4239969253540039,"185":-0.9081552624702454,"186":-0.13542775809764862,"187":-0.529225766658783,"188":-0.4103800058364868,"189":0.8345787525177002,"190":-0.9508931040763855,"191":0.052526310086250305,"192":-0.3403658866882324,"193":0.11977233737707138,"194":-0.08100437372922897,"195":0.7917667031288147,"196":-0.7765512466430664,"197":0.17935270071029663,"198":0.4546375572681427,"199":0.9214691519737244,"200":0.12678854167461395,"201":-1.2353004217147827,"202":-0.08615952730178833,"203":0.479511559009552,"204":0.15196849405765533,"205":-0.7731332778930664,"206":0.30690133571624756,"207":0.7184444069862366,"208":0.6552382707595825,"209":0.2572897970676422,"210":-0.6451343894004822,"211":-0.279841810464859,"212":0.4939628839492798,"213":-0.8489980697631836,"214":-1.5170118808746338,"215":0.8389860391616821,"216":-0.3268463909626007,"217":0.842268168926239,"218":0.536180853843689,"219":0.6729644536972046,"220":-1.3070147037506104,"221":0.5669760704040527,"222":0.10093111544847488,"223":-0.3555298149585724,"224":-0.3534342348575592,"225":0.19690659642219543,"226":-0.9500077962875366,"227":-0.33396992087364197,"228":-0.3431799113750458,"229":0.1320432722568512,"230":0.5671080350875854,"231":-1.1135140657424927,"232":-0.39474672079086304,"233":0.17795637249946594,"234":0.6463788747787476,"235":-0.12956073880195618,"236":-0.00418865866959095,"237":-0.6827278733253479,"238":-1.446343183517456,"239":-0.15356352925300598,"240":1.012201189994812,"241":-0.11367350071668625,"242":0.5888557434082031,"243":-0.5880240797996521,"244":-0.730603814125061,"245":0.34248438477516174,"246":0.6449716687202454,"247":-0.32815682888031006,"248":-0.38915395736694336,"249":-0.19412332773208618,"250":-0.12251301854848862,"251":1.358135461807251,"252":0.6781986951828003,"253":-0.3371323049068451,"254":0.5715646743774414,"255":-0.6025525331497192,"256":0.4905550181865692,"257":0.15338066220283508,"258":0.1820279210805893,"259":0.0429864265024662,"260":0.5498521327972412,"261":-1.1871051788330078,"262":1.7627663612365723,"263":1.5799633264541626,"264":-0.8309223651885986,"265":-0.6167116165161133,"266":0.5145527720451355,"267":-0.7069029211997986,"268":0.4891701638698578,"269":0.2933819591999054,"270":-1.616189956665039,"271":0.33485323190689087,"272":-0.4529218375682831,"273":-0.757591187953949,"274":-0.19787192344665527,"275":0.7106994986534119,"276":-0.5413874387741089,"277":1.2469018697738647,"278":-0.6289228796958923,"279":1.160470962524414,"280":-0.14934445917606354,"281":0.21556715667247772,"282":0.19948063790798187,"283":-1.0618305206298828,"284":0.3159012496471405,"285":0.6570963263511658,"286":0.3518708050251007,"287":-0.21737618744373322,"288":-0.17428156733512878,"289":-0.8182860612869263,"290":1.2759076356887817,"291":0.09992902725934982,"292":0.2603202760219574,"293":-0.6501566767692566,"294":0.4347279965877533,"295":-0.6193007826805115,"296":0.601820707321167,"297":-0.5643356442451477,"298":-0.07212908565998077,"299":-0.4770658612251282,"300":0.24544237554073334,"301":0.017023641616106033,"302":0.1572696715593338,"303":0.3468988537788391,"304":0.42841199040412903,"305":-0.6372039914131165,"306":-0.39555850625038147,"307":0.23742812871932983,"308":0.1395406723022461,"309":0.8045583963394165,"310":-0.38217979669570923,"311":-0.4236217439174652,"312":-0.2809329032897949,"313":0.482211172580719,"314":0.036089811474084854,"315":0.6929813623428345,"316":-0.7579209804534912,"317":-0.15150333940982819,"318":0.15721191465854645,"319":0.6017674803733826,"320":1.7838119268417358,"321":-0.28267964720726013,"322":2.004683017730713,"323":1.5858780145645142,"324":-1.2291430234909058,"325":-0.8517161011695862,"326":1.472890019416809,"327":-0.4194638431072235,"328":0.23522843420505524,"329":0.24607010185718536,"330":-2.142205238342285,"331":1.5929524898529053,"332":0.43291419744491577,"333":-0.887100100517273,"334":-0.09882178902626038,"335":0.1717066615819931,"336":0.2159925252199173,"337":0.4020221531391144,"338":0.858398973941803,"339":0.8237404823303223,"340":0.5190520286560059,"341":0.34468966722488403,"342":0.15609608590602875,"343":-0.7580184936523438,"344":0.29014456272125244,"345":0.4649799168109894,"346":0.5920118093490601,"347":-0.0660785511136055,"348":0.34735000133514404,"349":-0.37909820675849915,"350":1.1998205184936523,"351":-0.5138758420944214,"352":0.16689835488796234,"353":-0.05109155923128128,"354":0.7696893215179443,"355":-0.5965070128440857,"356":0.6039412021636963,"357":-0.43599167466163635,"358":0.005015603732317686,"359":-0.6900472044944763,"360":0.6900771260261536,"361":-0.11105284839868546,"362":0.16853973269462585,"363":-1.0381300449371338,"364":-0.6116794943809509,"365":0.8348187208175659,"366":0.38768723607063293,"367":-0.2655489146709442,"368":-0.06505479663610458,"369":-0.825276792049408,"370":0.5423368811607361,"371":1.141803503036499,"372":0.613264799118042,"373":-0.36185434460639954,"374":-0.09891072660684586,"375":-0.9593591094017029,"376":0.7683636546134949,"377":-0.27719879150390625,"378":0.17687107622623444,"379":-0.33601897954940796,"380":0.3837302327156067,"381":-0.2991641163825989,"382":0.3441270887851715,"383":-0.3289862871170044,"384":0.7262314558029175,"385":-0.1478196680545807,"386":0.09864018112421036,"387":0.15424515306949615,"388":0.46125704050064087,"389":0.46255525946617126,"390":0.40528103709220886,"391":-0.8184707760810852,"392":0.39560720324516296,"393":-0.6206033825874329,"394":-0.6694045066833496,"395":0.33321714401245117,"396":-0.4760865867137909,"397":0.39511293172836304,"398":0.9665676355361938,"399":0.27071911096572876}},"outputBias":{"rows":20,"columns":1,"weights":{"0":0.18195493519306183,"1":-0.20511449873447418,"2":0.0597294457256794,"3":-0.6152232885360718,"4":-0.29869818687438965,"5":-0.7070829272270203,"6":0.13032275438308716,"7":-0.21971827745437622,"8":-0.7389031052589417,"9":-0.023670492693781853,"10":-0.13495135307312012,"11":0.9689440131187439,"12":-0.12119879573583603,"13":-0.4168572723865509,"14":-0.17879927158355713,"15":-0.6625987887382507,"16":-0.43416833877563477,"17":-0.04378938674926758,"18":-0.14791837334632874,"19":0.942657470703125}},"cellActivationMatrix":{"rows":20,"columns":26,"weights":{"0":-0.4719541668891907,"1":0.601421594619751,"2":-0.7048607468605042,"3":-0.1744103729724884,"4":0.31148561835289,"5":-0.6596114635467529,"6":0.6974537968635559,"7":-1.1236660480499268,"8":-0.8048476576805115,"9":-0.747016429901123,"10":-0.35764583945274353,"11":0.31449082493782043,"12":-1.057652235031128,"13":0.05079096183180809,"14":-0.5461137294769287,"15":-0.7982615232467651,"16":-0.525538980960846,"17":-0.036850519478321075,"18":-0.03788715600967407,"19":-1.297984004020691,"20":-0.6008010506629944,"21":0.8493558764457703,"22":0.3358413279056549,"23":1.0229235887527466,"24":-0.8607619404792786,"25":-0.22639082372188568,"26":1.1891118288040161,"27":0.6138451099395752,"28":1.096519947052002,"29":0.1296388953924179,"30":0.337821900844574,"31":-0.33969464898109436,"32":0.32171714305877686,"33":-0.5303598642349243,"34":-0.23609939217567444,"35":0.26866912841796875,"36":-0.5666497349739075,"37":0.35345879197120667,"38":-0.10047049075365067,"39":-1.044489860534668,"40":-0.47271502017974854,"41":-0.2471751868724823,"42":0.8732892870903015,"43":-0.6570864319801331,"44":1.2375496625900269,"45":-0.23579931259155273,"46":-0.3663724660873413,"47":0.30942004919052124,"48":0.4893651008605957,"49":0.6982311606407166,"50":-0.29327499866485596,"51":0.6542822122573853,"52":0.273867130279541,"53":0.31689903140068054,"54":0.33654800057411194,"55":-1.47499418258667,"56":0.7019598484039307,"57":0.3293377161026001,"58":-0.16730552911758423,"59":-0.7074775099754333,"60":0.3900231420993805,"61":-0.5676746368408203,"62":0.6593689322471619,"63":-0.228030264377594,"64":0.5034692883491516,"65":-0.7672544717788696,"66":0.24355070292949677,"67":0.45402300357818604,"68":0.07738183438777924,"69":-0.48392385244369507,"70":0.694984495639801,"71":-0.6944329142570496,"72":-2.4126250743865967,"73":0.7613308429718018,"74":0.41008326411247253,"75":-0.14051319658756256,"76":0.24276676774024963,"77":-0.03129724785685539,"78":0.051074620336294174,"79":0.5861445069313049,"80":0.07498248666524887,"81":-1.0854076147079468,"82":0.5033160448074341,"83":-0.032946158200502396,"84":-0.014203175902366638,"85":0.11502484232187271,"86":0.5598816275596619,"87":-0.23466213047504425,"88":0.3488805592060089,"89":-0.06211300566792488,"90":0.023487528786063194,"91":-0.5951594710350037,"92":0.5833231210708618,"93":0.013467091135680676,"94":-0.1073017567396164,"95":-0.031958408653736115,"96":0.22683556377887726,"97":-0.18282483518123627,"98":-0.8825439214706421,"99":0.027368048205971718,"100":0.5289199352264404,"101":0.7983623743057251,"102":0.7006895542144775,"103":-0.20548295974731445,"104":-0.6211655735969543,"105":-0.5399621725082397,"106":-0.8940656185150146,"107":0.878757655620575,"108":-0.06815236806869507,"109":0.1774415522813797,"110":-0.2827361226081848,"111":0.3924596905708313,"112":0.25596556067466736,"113":0.09841592609882355,"114":0.09369011223316193,"115":-0.21415670216083527,"116":0.1390552967786789,"117":0.29317107796669006,"118":0.14770518243312836,"119":0.2017083317041397,"120":-0.340438574552536,"121":0.7191652059555054,"122":-0.8050442337989807,"123":0.5081851482391357,"124":0.3138052821159363,"125":-0.5833179354667664,"126":-0.11702659726142883,"127":-0.5027013421058655,"128":0.35528454184532166,"129":-0.04762349650263786,"130":0.1062266081571579,"131":-0.02058788575232029,"132":0.5775235295295715,"133":0.0037870940286666155,"134":-0.060255225747823715,"135":-0.9460855722427368,"136":1.1693224906921387,"137":-1.4976015090942383,"138":-1.2069612741470337,"139":0.03858756273984909,"140":-0.7440084218978882,"141":0.7448248863220215,"142":-0.6078833341598511,"143":-0.2263789027929306,"144":-0.9293069839477539,"145":-1.067470669746399,"146":0.18677328526973724,"147":-0.7055121064186096,"148":0.25676921010017395,"149":-0.7750158309936523,"150":0.18776214122772217,"151":0.4531565010547638,"152":-0.21575996279716492,"153":0.4700615406036377,"154":-0.6538256406784058,"155":0.18551409244537354,"156":0.6578404903411865,"157":0.059069715440273285,"158":0.3005473017692566,"159":-0.05450054630637169,"160":-0.48338231444358826,"161":-1.2135162353515625,"162":0.9111725091934204,"163":-1.1740304231643677,"164":-1.112989902496338,"165":0.8208937048912048,"166":-0.49573540687561035,"167":0.9862602949142456,"168":-0.925601065158844,"169":-1.050144076347351,"170":-0.9502515196800232,"171":-1.0872055292129517,"172":0.8483767509460449,"173":-0.48653560876846313,"174":1.2723280191421509,"175":-1.0414478778839111,"176":0.5397087931632996,"177":0.4749702513217926,"178":-0.13995863497257233,"179":0.3908524513244629,"180":-0.8691067099571228,"181":0.06232490390539169,"182":0.13927306234836578,"183":-0.8927507996559143,"184":-0.204909086227417,"185":1.3339329957962036,"186":-0.43371668457984924,"187":-0.39499446749687195,"188":0.40735796093940735,"189":-0.3504011929035187,"190":-0.6386121511459351,"191":0.5323282480239868,"192":-1.1230744123458862,"193":0.6929446458816528,"194":-1.1281256675720215,"195":0.4049888849258423,"196":-0.5178627371788025,"197":-0.41250646114349365,"198":0.22603417932987213,"199":-0.18342240154743195,"200":-0.3884672224521637,"201":-0.41877201199531555,"202":0.6137869954109192,"203":0.3497201204299927,"204":-0.4415445923805237,"205":-0.43027597665786743,"206":0.7277040481567383,"207":0.4738750159740448,"208":-0.8960137367248535,"209":0.14342473447322845,"210":-1.6431328058242798,"211":-0.23501276969909668,"212":-0.5151534080505371,"213":-0.26804685592651367,"214":0.3800567090511322,"215":-0.3907565474510193,"216":-0.3166503310203552,"217":0.015304261818528175,"218":0.002035711193457246,"219":0.13795427978038788,"220":-0.22280491888523102,"221":1.5671093463897705,"222":-0.08751997351646423,"223":-0.3132030963897705,"224":-0.4397343397140503,"225":0.9614096283912659,"226":-1.5269619226455688,"227":0.05834135413169861,"228":0.34269073605537415,"229":-0.10802004486322403,"230":-0.7637934684753418,"231":-1.2879014015197754,"232":-0.13968858122825623,"233":-0.39343348145484924,"234":-0.7784366607666016,"235":-0.32265451550483704,"236":-0.5286043882369995,"237":0.45220455527305603,"238":0.2025701254606247,"239":0.8434638381004333,"240":-1.2183399200439453,"241":1.0873675346374512,"242":1.2073168754577637,"243":-0.3180886507034302,"244":0.5222219824790955,"245":-0.8770442008972168,"246":0.468079149723053,"247":0.4566807448863983,"248":0.7334169745445251,"249":1.1585595607757568,"250":-0.6571457982063293,"251":-0.029340093955397606,"252":-0.7869312167167664,"253":0.6623558402061462,"254":-0.17530322074890137,"255":-0.5752242207527161,"256":0.5456570386886597,"257":-0.19497519731521606,"258":0.9800900220870972,"259":0.12556631863117218,"260":-0.6886269450187683,"261":-0.890122652053833,"262":-1.0056731700897217,"263":1.0864214897155762,"264":-0.95490962266922,"265":-0.128094881772995,"266":-0.16224850714206696,"267":0.1495911180973053,"268":-0.5185557007789612,"269":1.251827597618103,"270":-0.5455800294876099,"271":0.4970214068889618,"272":-0.614215075969696,"273":1.11921226978302,"274":-0.4731801748275757,"275":-0.6232765913009644,"276":-0.06036600098013878,"277":0.9037893414497375,"278":-0.7377129793167114,"279":0.27975738048553467,"280":1.1568076610565186,"281":-0.49895548820495605,"282":-0.8764528632164001,"283":-0.8767898678779602,"284":-1.0658113956451416,"285":-0.0044144680723547935,"286":1.1978729963302612,"287":-0.25675147771835327,"288":0.40846943855285645,"289":-0.010340704582631588,"290":0.08644229173660278,"291":-0.042384788393974304,"292":0.05728350579738617,"293":-0.5417299866676331,"294":-0.025472698733210564,"295":1.2032661437988281,"296":0.30006271600723267,"297":0.027648182585835457,"298":0.29385364055633545,"299":-1.0390640497207642,"300":0.10954448580741882,"301":0.21584323048591614,"302":0.5826579332351685,"303":0.17238764464855194,"304":1.1843044757843018,"305":-0.5068095326423645,"306":-0.6146043539047241,"307":0.5123896598815918,"308":0.1805841326713562,"309":0.010388429276645184,"310":-0.7602351307868958,"311":0.837887704372406,"312":0.10773951560258865,"313":-0.8563350439071655,"314":0.18808946013450623,"315":0.8039436340332031,"316":-0.7912430167198181,"317":-0.5998383164405823,"318":0.31946125626564026,"319":-0.21350575983524323,"320":-0.450498104095459,"321":0.34772104024887085,"322":-0.8644868731498718,"323":0.6846221685409546,"324":-1.0453237295150757,"325":0.6602253317832947,"326":-0.5596697926521301,"327":-0.291401743888855,"328":0.18507342040538788,"329":-0.3574516177177429,"330":-0.281098872423172,"331":0.1358451098203659,"332":0.996442437171936,"333":0.8195354342460632,"334":-0.9399072527885437,"335":-0.6814092993736267,"336":0.5600675940513611,"337":0.2974776327610016,"338":0.3537275195121765,"339":-0.5570018887519836,"340":-0.4824596047401428,"341":0.6045560240745544,"342":0.24765892326831818,"343":0.793252170085907,