{"type":"LSTM","options":{"inputSize":26,"inputRange":26,"hiddenLayers":[20,20],"outputSize":26,"decayRate":0.999,"smoothEps":1e-8,"regc":0.000001,"clipval":5,"maxPredictionLength":100,"dataFormatter":{"values":["I am super happy!","happy","What a pill!","sarcastic","I am super unhappy!","sad","Are we there yet?","excited"],"indexTable":{"I":0," ":1,"a":2,"m":3,"s":4,"u":5,"p":6,"e":7,"r":8,"h":9,"y":10,"!":11,"W":12,"t":13,"i":14,"l":15,"c":16,"n":17,"d":18,"A":19,"w":20,"?":21,"x":22,"stop-input":23,"start-output":24,"unrecognized":25},"characterTable":{"0":"I","1":" ","2":"a","3":"m","4":"s","5":"u","6":"p","7":"e","8":"r","9":"h","10":"y","11":"!","12":"W","13":"t","14":"i","15":"l","16":"c","17":"n","18":"d","19":"A","20":"w","21":"?","22":"x","23":null,"24":null,"25":null},"characters":["I"," ","a","m","s","u","p","e","r","h","y","!","W","t","i","l","c","n","d","A","w","?","x","stop-input","start-output","unrecognized"],"specialIndexes":[23,24,25]}},"input":{"rows":27,"columns":26,"weights":{"0":0.20079708099365234,"1":-0.05703652650117874,"2":0.25771063566207886,"3":0.5036757588386536,"4":-0.6632876396179199,"5":0.17811113595962524,"6":-0.09209273010492325,"7":-0.4849356710910797,"8":0.10434191673994064,"9":0.18788552284240723,"10":0.12248208373785019,"11":-0.5973321199417114,"12":-0.3365881145000458,"13":-0.28255343437194824,"14":-0.3718529939651489,"15":0.16259238123893738,"16":-1.005990982055664,"17":0.8012479543685913,"18":0.19299961626529694,"19":0.4114668071269989,"20":-0.38573697209358215,"21":0.9980287551879883,"22":-0.29663360118865967,"23":0.47988656163215637,"24":-0.2057117372751236,"25":-1.3679022789001465,"26":0.6532315611839294,"27":-0.11891786754131317,"28":0.695134162902832,"29":-2.544541835784912,"30":-0.9217877388000488,"31":-1.314320683479309,"32":-2.0334091186523438,"33":-0.43315422534942627,"34":0.17290373146533966,"35":-0.07880353182554245,"36":0.43917232751846313,"37":1.3199903964996338,"38":-1.9870119094848633,"39":0.4308658838272095,"40":-0.9690324664115906,"41":-0.20101185142993927,"42":1.012241244316101,"43":0.1540401726961136,"44":0.534139096736908,"45":-0.7710471153259277,"46":-1.5396578311920166,"47":-0.15662573277950287,"48":0.2885192930698395,"49":-0.004557542968541384,"50":-1.3272948265075684,"51":1.0618442296981812,"52":0.3542974293231964,"53":-0.38451606035232544,"54":0.24050413072109222,"55":0.21452099084854126,"56":-0.1562148481607437,"57":0.5954968929290771,"58":-0.35097256302833557,"59":0.15238675475120544,"60":0.25982069969177246,"61":0.026247411966323853,"62":0.13777095079421997,"63":-1.0997971296310425,"64":-0.17969270050525665,"65":-0.6189489960670471,"66":-0.46538111567497253,"67":-0.44740545749664307,"68":-1.1310210227966309,"69":0.4959332048892975,"70":0.3160521388053894,"71":0.8234323859214783,"72":0.043360866606235504,"73":1.3904563188552856,"74":-0.84428471326828,"75":0.7170004844665527,"76":-0.08758184313774109,"77":-0.684398889541626,"78":0.5884381532669067,"79":0.07778342813253403,"80":0.40523138642311096,"81":-0.01919081062078476,"82":0.40607699751853943,"83":-0.2247125208377838,"84":-0.4905359447002411,"85":-0.6469050645828247,"86":0.21306468546390533,"87":0.15671488642692566,"88":0.27909812331199646,"89":0.596333384513855,"90":-0.39908307790756226,"91":-0.4743831157684326,"92":-0.47651222348213196,"93":0.0027390667237341404,"94":0.7299653887748718,"95":-0.07060395181179047,"96":0.6855164766311646,"97":-0.15256552398204803,"98":-0.011969931423664093,"99":0.2264719307422638,"100":-0.011564559303224087,"101":-0.7328058481216431,"102":-0.36185622215270996,"103":-0.9827656149864197,"104":-0.14450711011886597,"105":-1.361527919769287,"106":-0.04306395724415779,"107":-2.5150601863861084,"108":-1.1117256879806519,"109":0.8867214918136597,"110":-0.26951196789741516,"111":1.3135340213775635,"112":-0.5394739508628845,"113":-0.16160650551319122,"114":0.5910298824310303,"115":0.20330460369586945,"116":-1.0629971027374268,"117":0.701171338558197,"118":0.5634757876396179,"119":-1.1907309293746948,"120":1.0723456144332886,"121":-0.4318047761917114,"122":-0.8496054410934448,"123":0.34290292859077454,"124":-1.1136987209320068,"125":-0.978790819644928,"126":-0.592810869216919,"127":1.46970796585083,"128":0.15858176350593567,"129":2.4702320098876953,"130":0.8160498738288879,"131":-1.1008528470993042,"132":1.226265788078308,"133":-0.265097051858902,"134":0.5541107654571533,"135":-1.3486415147781372,"136":-1.156633734703064,"137":0.6750633716583252,"138":2.076869249343872,"139":1.7834813594818115,"140":1.7105605602264404,"141":1.67349112033844,"142":-1.2172226905822754,"143":-2.1800832748413086,"144":-1.0223764181137085,"145":-0.6112797260284424,"146":1.0948350429534912,"147":-1.1904088258743286,"148":2.031085729598999,"149":-0.8738756775856018,"150":-0.24675358831882477,"151":-0.16846543550491333,"152":1.112527847290039,"153":-2.175544500350952,"154":-0.9541969895362854,"155":-0.4363084137439728,"156":-0.7311700582504272,"157":0.43875807523727417,"158":-0.7273398637771606,"159":-0.785711407661438,"160":-0.22000379860401154,"161":1.6708351373672485,"162":-0.10187676548957825,"163":2.318643808364868,"164":-0.5991703867912292,"165":-0.2130025178194046,"166":-0.6576902270317078,"167":0.6523376107215881,"168":0.3481120467185974,"169":0.7421656250953674,"170":0.8075046539306641,"171":0.5824725031852722,"172":1.0028371810913086,"173":-0.41358813643455505,"174":-0.5001879334449768,"175":-0.30500635504722595,"176":0.6493183374404907,"177":-0.05787510797381401,"178":-0.13257239758968353,"179":-0.5764225125312805,"180":0.8235333561897278,"181":0.04470164328813553,"182":0.6489322781562805,"183":0.03604133427143097,"184":0.6205670833587646,"185":-0.20588260889053345,"186":-1.909669280052185,"187":-0.48781487345695496,"188":-0.961988091468811,"189":0.28723448514938354,"190":0.45616045594215393,"191":0.4369564354419708,"192":0.2836434245109558,"193":0.12996350228786469,"194":-1.4151378870010376,"195":-0.37218064069747925,"196":-0.9023734927177429,"197":-0.15268254280090332,"198":-0.43656352162361145,"199":0.23689426481723785,"200":0.5670859217643738,"201":-0.422600120306015,"202":0.4975716173648834,"203":0.4291659891605377,"204":0.34115615487098694,"205":-0.11977103352546692,"206":-0.6189561486244202,"207":-0.5266087651252747,"208":0.07198870927095413,"209":-0.4653055965900421,"210":0.14824937283992767,"211":-1.1261539459228516,"212":-1.3771376609802246,"213":0.860069990158081,"214":-0.41826051473617554,"215":1.472619652748108,"216":0.09482067823410034,"217":0.3054913580417633,"218":0.24209551513195038,"219":-0.8707748055458069,"220":-0.13153281807899475,"221":-0.07731366902589798,"222":-0.3725905120372772,"223":-0.3490716516971588,"224":-0.8150296211242676,"225":0.49445751309394836,"226":0.07891488820314407,"227":0.6999498605728149,"228":0.3401430547237396,"229":0.13496078550815582,"230":-1.104034662246704,"231":1.4376860857009888,"232":-0.41880548000335693,"233":0.3365837633609772,"234":0.4215940237045288,"235":-0.36758142709732056,"236":0.5031178593635559,"237":-1.572933316230774,"238":-0.8311600089073181,"239":0.9665862917900085,"240":-0.5346699953079224,"241":0.49065813422203064,"242":-0.06757791340351105,"243":0.12755049765110016,"244":0.17204676568508148,"245":-0.940979540348053,"246":-0.5216956734657288,"247":-0.16143903136253357,"248":-0.6745184659957886,"249":-0.17898677289485931,"250":-0.8744061589241028,"251":1.3052253723144531,"252":0.02105741947889328,"253":0.5578745603561401,"254":0.3326103985309601,"255":0.23637033998966217,"256":-1.1342926025390625,"257":1.6462751626968384,"258":-0.8138028979301453,"259":0.06913086026906967,"260":0.5314773321151733,"261":-0.15964192152023315,"262":0.48718276619911194,"263":-0.5935167074203491,"264":-1.3778609037399292,"265":-0.7633305191993713,"266":-0.7051055431365967,"267":1.80734121799469,"268":0.36251211166381836,"269":0.2794993817806244,"270":0.17404448986053467,"271":0.02038898691534996,"272":-0.5302769541740417,"273":-0.38955095410346985,"274":-0.9627325534820557,"275":-0.269779235124588,"276":-0.8907745480537415,"277":-0.22210247814655304,"278":0.5050055384635925,"279":-0.34957069158554077,"280":0.9668822884559631,"281":0.8447152972221375,"282":0.610055685043335,"283":0.33183813095092773,"284":-0.7955836653709412,"285":-0.44903287291526794,"286":-0.19634026288986206,"287":-0.03146011009812355,"288":0.24632097780704498,"289":0.12670692801475525,"290":0.22681143879890442,"291":0.779236912727356,"292":0.02851955220103264,"293":-0.668721079826355,"294":-0.24354010820388794,"295":-0.07028838992118835,"296":-0.05445928871631622,"297":-0.5445553064346313,"298":0.04436437413096428,"299":-0.1805066615343094,"300":-0.5139502882957458,"301":0.03776027262210846,"302":0.032690320163965225,"303":1.2797143459320068,"304":-0.13122671842575073,"305":0.8184486031532288,"306":-0.3245319724082947,"307":0.09920522570610046,"308":-1.231460690498352,"309":0.5914326906204224,"310":-0.4874125123023987,"311":-0.32120558619499207,"312":-0.6990561485290527,"313":0.3687956929206848,"314":-0.9486627578735352,"315":0.944115936756134,"316":1.1819722652435303,"317":0.2417186200618744,"318":1.4332536458969116,"319":-0.7744367122650146,"320":-1.1289658546447754,"321":-0.6459967494010925,"322":-0.7176948189735413,"323":-0.07292463630437851,"324":0.3816988170146942,"325":0.9910200238227844,"326":0.513654351234436,"327":0.35302734375,"328":0.9114635586738586,"329":-0.17543110251426697,"330":-1.227524995803833,"331":0.10940362513065338,"332":-0.7093384861946106,"333":-0.35515838861465454,"334":-0.028415024280548096,"335":-0.33038491010665894,"336":0.6063151955604553,"337":0.7162332534790039,"338":-0.8438692092895508,"339":0.5727630257606506,"340":-1.0199874639511108,"341":1.1570554971694946,"342":1.8438222408294678,"343":0.6028029322624207,"344":1.4377368688583374,"345":-1.2545685768127441,"346":-1.059179425239563,"347":-0.8536075949668884,"348":-0.8655942678451538,"349":-1.0073753595352173,"350":0.7946837544441223,"351":0.8129058480262756,"352":0.8160170316696167,"353":0.5533664226531982,"354":-0.24653741717338562,"355":0.10925957560539246,"356":-1.2228479385375977,"357":0.7678812146186829,"358":-1.0347157716751099,"359":-0.027037136256694794,"360":-0.7052105665206909,"361":0.8705244660377502,"362":0.8374462127685547,"363":0.83432936668396,"364":0.9202221632003784,"365":-0.9041275382041931,"366":0.9844129681587219,"367":-1.1034412384033203,"368":-0.2947997450828552,"369":1.8742388486862183,"370":-0.8931673765182495,"371":0.1904732882976532,"372":0.9247274398803711,"373":1.0804475545883179,"374":0.9092931747436523,"375":-1.2630057334899902,"376":-0.7669004797935486,"377":-1.1459431648254395,"378":-1.1577836275100708,"379":-0.9075987339019775,"380":-0.647376537322998,"381":1.9192328453063965,"382":0.9523817300796509,"383":1.9255930185317993,"384":0.5977992415428162,"385":0.5471117496490479,"386":-1.9888345003128052,"387":0.6350775361061096,"388":-1.2327525615692139,"389":-0.29425403475761414,"390":-1.2895041704177856,"391":1.0891592502593994,"392":-0.9170582294464111,"393":1.0426546335220337,"394":-0.10045765340328217,"395":0.6793208122253418,"396":0.9259973168373108,"397":-0.8902361392974854,"398":-0.6812945604324341,"399":-0.9109971523284912,"400":-0.8222719430923462,"401":-0.4358794391155243,"402":1.4142285585403442,"403":0.9457003474235535,"404":1.3867170810699463,"405":1.3608616590499878,"406":-0.843137264251709,"407":1.213834285736084,"408":-0.851616621017456,"409":0.7999062538146973,"410":-0.9672939777374268,"411":0.09603293985128403,"412":-0.4242483377456665,"413":0.7493892908096313,"414":1.0126533508300781,"415":-2.0636444091796875,"416":0.9694663882255554,"417":-1.0165711641311646,"418":1.0677056312561035,"419":-0.4227809011936188,"420":4.029957294464111,"421":-1.3361942768096924,"422":-0.8947902321815491,"423":0.07882115989923477,"424":1.2258522510528564,"425":1.446451187133789,"426":1.1162142753601074,"427":1.0767217874526978,"428":-0.7393552660942078,"429":-1.0242830514907837,"430":-0.7986898422241211,"431":-1.0801485776901245,"432":1.6614022254943848,"433":-2.0131170749664307,"434":1.152018666267395,"435":-1.2805863618850708,"436":1.507791519165039,"437":-1.5094822645187378,"438":1.427613615989685,"439":-1.7773219347000122,"440":-0.7165408730506897,"441":1.3738524913787842,"442":0.252826988697052,"443":-0.7543760538101196,"444":0.46949946880340576,"445":-0.5452625751495361,"446":-0.29175642132759094,"447":-0.24088165163993835,"448":-0.08320577442646027,"449":0.8041470646858215,"450":1.2121492624282837,"451":0.7552221417427063,"452":0.902068555355072,"453":0.933140754699707,"454":0.574565052986145,"455":-1.1419914960861206,"456":0.3434548079967499,"457":-0.8998649716377258,"458":1.354480266571045,"459":-0.7522324323654175,"460":0.9272521138191223,"461":-0.20569510757923126,"462":1.9825966358184814,"463":-1.5634347200393677,"464":0.3127571940422058,"465":-1.7044199705123901,"466":0.036081310361623764,"467":1.4976845979690552,"468":-0.807240903377533,"469":0.5560754537582397,"470":-1.034303069114685,"471":0.0443626269698143,"472":-1.8534197807312012,"473":0.07724915444850922,"474":0.9920840263366699,"475":2.1596508026123047,"476":-1.2480218410491943,"477":-0.3941381275653839,"478":-0.6515040397644043,"479":-3.2031643390655518,"480":0.1944708526134491,"481":1.2072710990905762,"482":0.5738232731819153,"483":0.23807351291179657,"484":-2.5791382789611816,"485":1.9298392534255981,"486":-1.0267215967178345,"487":2.255815267562866,"488":-0.9041223526000977,"489":3.1703035831451416,"490":-2.9721262454986572,"491":3.8404552936553955,"492":0.03380805626511574,"493":-2.2462158203125,"494":0.5767852663993835,"495":-3.08774733543396,"496":-0.8476479053497314,"497":-1.8813179731369019,"498":2.030027151107788,"499":1.2926995754241943,"500":-1.310571551322937,"501":-1.7793865203857422,"502":1.2671606540679932,"503":1.632629632949829,"504":1.0775727033615112,"505":-0.023559339344501495,"506":-3.0352470874786377,"507":-1.31354558467865,"508":-0.3607301115989685,"509":-3.220609426498413,"510":2.1248972415924072,"511":-1.1340833902359009,"512":1.4549497365951538,"513":0.6263914108276367,"514":0.5662811994552612,"515":-0.6403440833091736,"516":-0.7320728302001953,"517":-1.3688994646072388,"518":0.16098690032958984,"519":1.180599570274353,"520":1.5471715927124023,"521":0.1881881207227707,"522":1.5552644729614258,"523":-2.9004580974578857,"524":-2.52758526802063,"525":-0.4742198884487152,"526":-1.4844075441360474,"527":2.3564045429229736,"528":0.3701513409614563,"529":0.027561413124203682,"530":0.21253147721290588,"531":0.8269479870796204,"532":-1.35697603225708,"533":0.5032846927642822,"534":0.4218996465206146,"535":-0.08231798559427261,"536":-1.7423973083496094,"537":0.5058279633522034,"538":-0.03686513751745224,"539":-0.6365631818771362,"540":1.8192657232284546,"541":0.4080522060394287,"542":0.5350944399833679,"543":3.194495439529419,"544":-0.384698748588562,"545":-1.129602074623108,"546":1.1753835678100586,"547":-0.269053190946579,"548":0.5946259498596191,"549":0.013862749561667442,"550":-2.3193576335906982,"551":1.7683749198913574,"552":-0.6319112181663513,"553":0.4552280604839325,"554":1.5171027183532715,"555":0.6467980742454529,"556":0.5265050530433655,"557":-2.917200803756714,"558":-0.4863462746143341,"559":-1.1282721757888794,"560":-0.6277502179145813,"561":-0.3550543785095215,"562":-2.755877733230591,"563":0.7895671725273132,"564":1.1424081325531006,"565":2.7816340923309326,"566":-0.6282445192337036,"567":2.8155529499053955,"568":-1.603721261024475,"569":2.0390207767486572,"570":-0.20219433307647705,"571":-2.282447576522827,"572":-1.1795212030410767,"573":0.3851012885570526,"574":-0.5101187825202942,"575":0.7558797001838684,"576":-1.1710453033447266,"577":-0.3363429307937622,"578":0.8136093616485596,"579":2.1011972427368164,"580":-1.1474162340164185,"581":0.14145033061504364,"582":-0.34134915471076965,"583":-0.2120353728532791,"584":0.017286391928792,"585":1.1179091930389404,"586":0.26510074734687805,"587":0.5194546580314636,"588":-1.9334838390350342,"589":1.0562293529510498,"590":-0.7501741051673889,"591":0.7581738829612732,"592":1.459378957748413,"593":4.353034973144531,"594":-0.3287404477596283,"595":1.3092211484909058,"596":-0.2315630316734314,"597":-5.097475528717041,"598":0.7791722416877747,"599":0.057920873165130615,"600":0.021709755063056946,"601":0.4114135205745697,"602":-1.0656238794326782,"603":0.9407426714897156,"604":-0.1142052635550499,"605":0.36368709802627563,"606":0.8015791773796082,"607":1.3104071617126465,"608":0.5831171870231628,"609":-1.6006261110305786,"610":-0.5172675848007202,"611":-0.10492466390132904,"612":-0.5366626977920532,"613":0.3423570990562439,"614":-1.099288821220398,"615":1.670961856842041,"616":0.7520894408226013,"617":2.340338945388794,"618":-0.521766722202301,"619":2.4551472663879395,"620":-0.9708499312400818,"621":0.07486877590417862,"622":-0.3251957893371582,"623":-4.294772624969482,"624":0.7816082835197449,"625":-1.3342489004135132,"626":0.15539966523647308,"627":-1.2841557264328003,"628":0.547078013420105,"629":-0.022372476756572723,"630":-0.5030169486999512,"631":-0.43163272738456726,"632":1.1404320001602173,"633":0.8870255947113037,"634":1.006380558013916,"635":-0.06647735834121704,"636":-1.940201997756958,"637":-0.9873918294906616,"638":-0.31899017095565796,"639":-1.6142711639404297,"640":0.9958949685096741,"641":-0.36439934372901917,"642":0.7879049777984619,"643":0.047548808157444,"644":1.154977560043335,"645":-0.26289641857147217,"646":-0.22879916429519653,"647":-0.6569266319274902,"648":-0.41107335686683655,"649":0.7812861800193787,"650":0.6037467122077942,"651":0.2910686433315277,"652":0.056557536125183105,"653":-0.31608569622039795,"654":-1.4797027111053467,"655":-0.9230960607528687,"656":-0.5818286538124084,"657":0.07046586275100708,"658":0.1940283179283142,"659":-0.04109079763293266,"660":-0.15360192954540253,"661":0.018115486949682236,"662":-0.6370953917503357,"663":0.11867894232273102,"664":-0.8400812149047852,"665":0.0852985754609108,"666":0.20834560692310333,"667":0.9101100564002991,"668":0.12607091665267944,"669":-0.5004986524581909,"670":-0.11831294745206833,"671":1.133235216140747,"672":0.2608436644077301,"673":-0.6294273734092712,"674":-0.13370640575885773,"675":-0.6654963493347168,"676":0.05522570013999939,"677":-0.030356822535395622,"678":-0.07518751174211502,"679":0.07040636241436005,"680":0.006376476027071476,"681":-0.016368146985769272,"682":-0.0032145637087523937,"683":-0.057527437806129456,"684":-0.018385833129286766,"685":-0.03334493935108185,"686":-0.0029980605468153954,"687":-0.001809725072234869,"688":0.04058833792805672,"689":0.06495584547519684,"690":-0.010021770372986794,"691":0.015692638233304024,"692":-0.0632481798529625,"693":-0.0508575364947319,"694":0.07375811785459518,"695":0.05064300447702408,"696":0.05119869112968445,"697":-0.031145941466093063,"698":-0.01408309955149889,"699":-0.0299462229013443,"700":-0.014152630232274532,"701":-0.051074206829071045}},"hiddenLayers":[{"inputMatrix":{"rows":20,"columns":26,"weights":{"0":0.11844096332788467,"1":-1.0419752597808838,"2":0.23670218884944916,"3":-1.8902441263198853,"4":-1.3661079406738281,"5":0.19713769853115082,"6":-0.7330875396728516,"7":2.2370078563690186,"8":0.6675934791564941,"9":0.5211736559867859,"10":0.2585465610027313,"11":-0.45901158452033997,"12":-0.7529886364936829,"13":-0.4777798056602478,"14":-0.5238340497016907,"15":-1.0991376638412476,"16":-0.6374233961105347,"17":-0.3846198618412018,"18":0.11297880858182907,"19":-0.20133234560489655,"20":1.0919160842895508,"21":0.07514315098524094,"22":0.3548743724822998,"23":0.3941006660461426,"24":-0.33049485087394714,"25":0.7450793981552124,"26":1.016623616218567,"27":-1.2004941701889038,"28":0.9677531719207764,"29":-0.7995192408561707,"30":-1.0460504293441772,"31":-0.26512575149536133,"32":-1.188223958015442,"33":0.1311972290277481,"34":1.292227029800415,"35":0.8836451768875122,"36":0.7424300909042358,"37":-1.183207392692566,"38":-1.163663625717163,"39":-1.0671669244766235,"40":-1.6991419792175293,"41":-1.0746150016784668,"42":-0.693199872970581,"43":1.0880539417266846,"44":0.7130377292633057,"45":0.6855440735816956,"46":-0.08249664306640625,"47":0.3211516737937927,"48":-0.3292543888092041,"49":0.5924661159515381,"50":-1.1013597249984741,"51":0.6740590929985046,"52":-1.2149333953857422,"53":0.18303026258945465,"54":-1.3272572755813599,"55":-0.38085290789604187,"56":-0.2471131980419159,"57":0.43360790610313416,"58":0.5632400512695312,"59":0.8817533850669861,"60":-0.9555187821388245,"61":-0.619607150554657,"62":-1.0771396160125732,"63":-0.3806999921798706,"64":0.688370406627655,"65":1.4420666694641113,"66":0.8145731091499329,"67":0.35720667243003845,"68":-0.24540017545223236,"69":-0.24663130939006805,"70":-1.5085574388504028,"71":0.32368120551109314,"72":0.02853582799434662,"73":-0.17033937573432922,"74":-0.12353528290987015,"75":0.4003939926624298,"76":1.04539155960083,"77":0.4838927090167999,"78":0.3364425301551819,"79":-0.8637097477912903,"80":0.3558168113231659,"81":-1.5924023389816284,"82":-1.2212694883346558,"83":-0.6389257907867432,"84":-0.8155097365379333,"85":0.995415210723877,"86":0.6795055866241455,"87":0.7965719103813171,"88":0.44520580768585205,"89":0.3214726746082306,"90":-1.1505610942840576,"91":-0.0198317002505064,"92":-0.5185016989707947,"93":-0.8281245231628418,"94":0.024721981957554817,"95":-0.424996554851532,"96":0.24999134242534637,"97":-0.5702900886535645,"98":1.208168625831604,"99":-0.32930463552474976,"100":0.44314008951187134,"101":-0.07307866960763931,"102":-0.8050823211669922,"103":0.6929822564125061,"104":0.2700248062610626,"105":-1.116485834121704,"106":0.3801738917827606,"107":-2.1719987392425537,"108":-0.8580496311187744,"109":0.7891256809234619,"110":-0.9464499950408936,"111":1.9223451614379883,"112":0.4351705014705658,"113":0.6904422640800476,"114":0.27563217282295227,"115":-0.2300582230091095,"116":-0.70291668176651,"117":-0.2683198153972626,"118":-0.36264705657958984,"119":-1.0013872385025024,"120":-0.4258568584918976,"121":-0.5156378149986267,"122":0.25329530239105225,"123":0.035454556345939636,"124":1.3836126327514648,"125":-0.0934484601020813,"126":-0.2643696367740631,"127":0.35715922713279724,"128":-0.30709290504455566,"129":1.0266560316085815,"130":-1.4891589879989624,"131":0.7435629367828369,"132":-1.029290795326233,"133":1.0350350141525269,"134":0.1757577806711197,"135":0.3448404371738434,"136":1.3767683506011963,"137":0.2416040003299713,"138":-1.1506644487380981,"139":-0.8045704364776611,"140":-1.0860424041748047,"141":-0.26552656292915344,"142":1.1682230234146118,"143":1.1688387393951416,"144":0.9379602074623108,"145":0.8347832560539246,"146":-0.05356353893876076,"147":0.3352803587913513,"148":-1.3081607818603516,"149":0.5178834795951843,"150":0.15719835460186005,"151":0.3871183693408966,"152":-0.5281342267990112,"153":0.3644343912601471,"154":0.48453107476234436,"155":0.06860072165727615,"156":-0.3766445815563202,"157":-0.06045062094926834,"158":-0.6006336212158203,"159":0.09239429235458374,"160":0.22631721198558807,"161":-0.2712673246860504,"162":1.5935088396072388,"163":0.35143008828163147,"164":-0.8527230620384216,"165":-0.2620982527732849,"166":-0.457147479057312,"167":-0.4074641168117523,"168":-0.144618421792984,"169":0.7678635120391846,"170":-0.10071301460266113,"171":-0.4141903817653656,"172":-0.011487496085464954,"173":-0.39763927459716797,"174":-1.085685133934021,"175":-0.005974325817078352,"176":-0.4747110605239868,"177":0.20757627487182617,"178":-0.1988738775253296,"179":0.5464090704917908,"180":0.11990079283714294,"181":1.178368330001831,"182":-0.35737141966819763,"183":0.0954928919672966,"184":0.03435589745640755,"185":-0.3886362314224243,"186":-0.5091318488121033,"187":0.254801869392395,"188":-0.49708834290504456,"189":1.1232478618621826,"190":0.4152583181858063,"191":0.31547701358795166,"192":0.3691096901893616,"193":0.358321875333786,"194":0.16637080907821655,"195":-0.21264256536960602,"196":0.4915715157985687,"197":0.4284934401512146,"198":0.150699183344841,"199":0.24198365211486816,"200":0.4658541977405548,"201":0.12342892587184906,"202":-0.5082504153251648,"203":0.09745804965496063,"204":-0.015745846554636955,"205":-0.2158546894788742,"206":0.166117325425148,"207":-1.0612726211547852,"208":0.45429307222366333,"209":-1.1173139810562134,"210":0.4471145272254944,"211":-1.791642427444458,"212":-1.0244430303573608,"213":0.5866817831993103,"214":-0.5494624972343445,"215":1.4581652879714966,"216":0.6230018138885498,"217":0.5709599256515503,"218":0.6129461526870728,"219":-0.7096121311187744,"220":-0.6129526495933533,"221":-0.6172436475753784,"222":-0.559225857257843,"223":-1.0526087284088135,"224":-0.923963725566864,"225":0.27904486656188965,"226":0.4222552180290222,"227":0.604686975479126,"228":0.8627962470054626,"229":0.5495020747184753,"230":-0.5677756667137146,"231":0.8946111798286438,"232":-0.5674270987510681,"233":0.5281231999397278,"234":0.22985704243183136,"235":-0.7451929450035095,"236":0.2366681545972824,"237":-2.27463698387146,"238":-0.7049444913864136,"239":0.48246508836746216,"240":-0.9951006174087524,"241":1.8344837427139282,"242":0.21209177374839783,"243":0.3881468176841736,"244":0.2552369236946106,"245":0.3428592085838318,"246":-0.9464254379272461,"247":-0.32156234979629517,"248":-0.36734092235565186,"249":-0.588700532913208,"250":0.3192614018917084,"251":-0.4815858006477356,"252":0.27067142724990845,"253":-0.24572259187698364,"254":0.7734920978546143,"255":-0.5259048938751221,"256":-0.08535068482160568,"257":-0.19863107800483704,"258":-0.2665780484676361,"259":0.5062950253486633,"260":1.216867208480835,"261":-0.8979138135910034,"262":0.9482377171516418,"263":-0.8970975875854492,"264":-1.067516803741455,"265":0.2361881583929062,"266":-1.2060678005218506,"267":0.8430231213569641,"268":1.3404449224472046,"269":0.8298275470733643,"270":0.8895009160041809,"271":-0.4065949320793152,"272":-1.3446950912475586,"273":-1.4813213348388672,"274":-1.2416149377822876,"275":-0.8780266046524048,"276":-0.8075998425483704,"277":0.12692780792713165,"278":1.1940042972564697,"279":0.3917011618614197,"280":0.0520600862801075,"281":0.5340080857276917,"282":-0.3992227613925934,"283":0.49379172921180725,"284":-0.7580236792564392,"285":0.22844372689723969,"286":-0.23790208995342255,"287":0.9951532483100891,"288":-0.14449159801006317,"289":0.4085884988307953,"290":0.27408072352409363,"291":0.5374033451080322,"292":0.4444270133972168,"293":-0.7495710253715515,"294":-0.6433560848236084,"295":0.10210951417684555,"296":-0.11829152703285217,"297":0.39081650972366333,"298":-0.04858801141381264,"299":0.8960147500038147,"300":0.39334461092948914,"301":1.3408812284469604,"302":0.7358967661857605,"303":0.778206467628479,"304":-0.33281657099723816,"305":0.2216937392950058,"306":0.11217623203992844,"307":0.17264337837696075,"308":-0.4327874481678009,"309":-0.21929362416267395,"310":0.0232409480959177,"311":-1.3675659894943237,"312":-1.2958369255065918,"313":0.7283662557601929,"314":-1.0090699195861816,"315":0.24766144156455994,"316":-0.4815137982368469,"317":0.5196463465690613,"318":1.2480311393737793,"319":0.6096326112747192,"320":-0.8086467385292053,"321":-1.1515400409698486,"322":-1.048046588897705,"323":-0.697050154209137,"324":1.371360182762146,"325":0.9826316237449646,"326":1.5458756685256958,"327":0.7277804613113403,"328":-0.7360910773277283,"329":-0.15178900957107544,"330":-1.2486257553100586,"331":0.5620210766792297,"332":-0.6194941997528076,"333":0.8604158163070679,"334":-0.36942145228385925,"335":0.7200976610183716,"336":1.1198850870132446,"337":-0.10027287155389786,"338":0.8441186547279358,"339":0.13594405353069305,"340":0.2881314158439636,"341":-0.7227418422698975,"342":-0.13535703718662262,"343":0.30750495195388794,"344":-1.1242666244506836,"345":0.3155086636543274,"346":0.11807979643344879,"347":0.14102910459041595,"348":0.28286027908325195,"349":0.7503674030303955,"350":-1.120485782623291,"351":-0.10386323928833008,"352":-0.8092300891876221,"353":0.1273299604654312,"354":1.156982183456421,"355":0.2934863567352295,"356":0.7232826948165894,"357":-0.44208434224128723,"358":0.5076060891151428,"359":0.042780134826898575,"360":-0.21955090761184692,"361":-1.1103278398513794,"362":-0.38240185379981995,"363":-0.7038434743881226,"364":1.1175198554992676,"365":-0.8952907919883728,"366":1.0958888530731201,"367":-0.9336651563644409,"368":-0.7629128098487854,"369":-0.777629554271698,"370":-1.1215472221374512,"371":0.23567554354667664,"372":0.6792811155319214,"373":0.8217734098434448,"374":1.2485103607177734,"375":-0.20023295283317566,"376":-1.5749189853668213,"377":-0.6166692972183228,"378":-1.2379449605941772,"379":-1.0167667865753174,"380":-0.2172718346118927,"381":0.29323020577430725,"382":0.8383076786994934,"383":0.35475146770477295,"384":0.01712172105908394,"385":0.21992965042591095,"386":-0.3553842306137085,"387":-0.18842612206935883,"388":-1.1014602184295654,"389":-0.026432836428284645,"390":-0.37359675765037537,"391":-0.127944678068161,"392":-0.25652143359184265,"393":-0.008574145846068859,"394":-0.6069937348365784,"395":1.0661273002624512,"396":0.779953122138977,"397":0.15230901539325714,"398":-0.47211626172065735,"399":-0.15851406753063202,"400":-0.1154586672782898,"401":-0.94840008020401,"402":0.5301090478897095,"403":0.690474271774292,"404":0.6921199560165405,"405":-0.111324243247509,"406":-0.6387028098106384,"407":1.1614593267440796,"408":-0.8474782705307007,"409":0.9383278489112854,"410":-0.15053196251392365,"411":-0.14121459424495697,"412":-1.2260067462921143,"413":1.3092644214630127,"414":0.18934743106365204,"415":0.06246728450059891,"416":1.193044662475586,"417":-1.1280766725540161,"418":0.9175236225128174,"419":-1.3999760150909424,"420":-0.8633816838264465,"421":-0.8745580315589905,"422":-1.0918649435043335,"423":0.5814071893692017,"424":0.9553483724594116,"425":0.7997968792915344,"426":0.9689326286315918,"427":0.02612711302936077,"428":-1.2782647609710693,"429":-0.975205659866333,"430":-1.3191531896591187,"431":-1.045847773551941,"432":-0.3915330171585083,"433":-0.044234924018383026,"434":0.8599849939346313,"435":-0.07032475620508194,"436":0.4141955077648163,"437":-0.3431914150714874,"438":0.2526412308216095,"439":0.3150545060634613,"440":-1.1637681722640991,"441":0.865456759929657,"442":-1.7129572629928589,"443":0.01690066233277321,"444":-0.8367699384689331,"445":-0.10191520303487778,"446":0.17807698249816895,"447":0.7465246915817261,"448":1.222281575202942,"449":0.8642085194587708,"450":-0.7301214933395386,"451":-0.24035786092281342,"452":-0.6123479604721069,"453":-0.32922470569610596,"454":1.2221722602844238,"455":1.339712381362915,"456":1.5341793298721313,"457":0.27613693475723267,"458":0.023352857679128647,"459":-0.15556861460208893,"460":-1.4136484861373901,"461":0.48820650577545166,"462":0.013575156219303608,"463":-0.062014635652303696,"464":-0.4491082727909088,"465":0.47938236594200134,"466":0.5010100603103638,"467":0.6188462376594543,"468":0.5327562093734741,"469":-0.8409718871116638,"470":0.150598406791687,"471":-1.488836407661438,"472":-1.1759520769119263,"473":0.8637139201164246,"474":-0.9406800270080566,"475":1.4706448316574097,"476":0.5358921885490417,"477":0.8110224008560181,"478":0.18871064484119415,"479":-0.26645079255104065,"480":-0.9499751329421997,"481":0.026874301955103874,"482":-0.5703315734863281,"483":-0.6160858273506165,"484":-0.4381404221057892,"485":-0.04080159217119217,"486":0.3491078317165375,"487":0.07668901979923248,"488":1.141870379447937,"489":0.8140928149223328,"490":0.0037671320606023073,"491":-0.02335711009800434,"492":0.01434125006198883,"493":0.008013870567083359,"494":-0.1918840855360031,"495":-0.4879957437515259,"496":-0.5003505349159241,"497":-1.1779383420944214,"498":-1.2066417932510376,"499":1.2151837348937988,"500":-0.19854886829853058,"501":1.4700571298599243,"502":-0.08159183710813522,"503":-0.1173694059252739,"504":-0.2149558663368225,"505":-1.2497897148132324,"506":-0.6764737963676453,"507":0.1309703141450882,"508":0.07907552272081375,"509":-0.4255569577217102,"510":-1.1927894353866577,"511":0.16552302241325378,"512":-0.2836182415485382,"513":0.9301446676254272,"514":0.6982355117797852,"515":0.6851580142974854,"516":-0.7558580040931702,"517":1.082391381263733,"518":0.21160854399204254,"519":-0.012291500344872475}},"inputHidden":{"rows":20,"columns":20,"weights":{"0":-0.25565168261528015,"1":-0.028119245544075966,"2":-0.3658323585987091,"3":0.1720021665096283,"4":-0.03062579222023487,"5":0.025716572999954224,"6":0.27760738134384155,"7":-0.3463920056819916,"8":-0.3086779713630676,"9":-1.346666693687439,"10":-0.08632566034793854,"11":0.3638077676296234,"12":0.24184587597846985,"13":0.5109855532646179,"14":0.4350754916667938,"15":-0.10040616989135742,"16":-0.3048400282859802,"17":0.13113024830818176,"18":-0.041463520377874374,"19":0.27814993262290955,"20":-0.5004709959030151,"21":-0.3866269886493683,"22":-0.5459112524986267,"23":-0.3686225712299347,"24":0.32648181915283203,"25":0.009192452766001225,"26":0.417885422706604,"27":0.7679740190505981,"28":0.8047144412994385,"29":-0.5417318940162659,"30":0.7393930554389954,"31":1.0870155096054077,"32":-0.013370404951274395,"33":-0.21790535748004913,"34":-0.1336178034543991,"35":-0.7005833387374878,"36":0.02594398334622383,"37":-0.7557840347290039,"38":-0.5677788853645325,"39":0.09652163833379745,"40":0.3228979706764221,"41":-0.834882378578186,"42":-0.32917270064353943,"43":-0.673651397228241,"44":0.31258517503738403,"45":0.432509183883667,"46":-0.34706375002861023,"47":-0.3197648525238037,"48":0.06187351793050766,"49":-0.479475200176239,"50":-0.4788075387477875,"51":0.3364714980125427,"52":-0.5011910796165466,"53":0.2541171610355377,"54":-0.033520542085170746,"55":-0.1813647300004959,"56":0.48225706815719604,"57":-0.39810076355934143,"58":0.1713736355304718,"59":0.037302955985069275,"60":0.3674766719341278,"61":-0.331387460231781,"62":-0.3623540699481964,"63":-0.37703290581703186,"64":0.75376296043396,"65":-0.19101375341415405,"66":0.9626042246818542,"67":0.12031089514493942,"68":0.598536491394043,"69":-0.8751501441001892,"70":0.24477489292621613,"71":0.5966824293136597,"72":-0.19236169755458832,"73":0.10578012466430664,"74":0.11382070928812027,"75":-0.8959546089172363,"76":-0.1399533748626709,"77":-0.2661280035972595,"78":-0.010600000619888306,"79":1.5210375785827637,"80":1.2108049392700195,"81":0.1726011037826538,"82":-0.8412142395973206,"83":0.19746823608875275,"84":-0.14490750432014465,"85":0.0017957801464945078,"86":0.009513582102954388,"87":0.5996547937393188,"88":-0.07149430364370346,"89":-0.6580327749252319,"90":-0.5383754968643188,"91":0.7790104150772095,"92":-0.17215991020202637,"93":-0.7721520662307739,"94":0.12543216347694397,"95":-0.7040773034095764,"96":-0.3334124684333801,"97":-0.18370011448860168,"98":0.11981351673603058,"99":0.4859759509563446,"100":0.06102459505200386,"101":-0.46000948548316956,"102":0.14569495618343353,"103":-0.8507837057113647,"104":0.11345691233873367,"105":0.1226428747177124,"106":-0.684402346611023,"107":-0.18290385603904724,"108":-0.20096875727176666,"109":0.0686245709657669,"110":0.27708062529563904,"111":0.41567614674568176,"112":-0.037031855434179306,"113":0.7937508225440979,"114":-0.34618258476257324,"115":0.24583730101585388,"116":0.6390506029129028,"117":-0.13045181334018707,"118":-0.5265641212463379,"119":-0.22756899893283844,"120":-0.8182072043418884,"121":0.5413591265678406,"122":1.7711693048477173,"123":-1.6922738552093506,"124":0.6040059328079224,"125":1.009886384010315,"126":-1.51601243019104,"127":0.4342590868473053,"128":0.965413510799408,"129":0.29645437002182007,"130":-0.06404893845319748,"131":0.49836117029190063,"132":-0.02258095145225525,"133":-0.03062940388917923,"134":1.0652155876159668,"135":-0.7970667481422424,"136":0.45233339071273804,"137":0.6671452522277832,"138":-0.18054121732711792,"139":-0.02196207270026207,"140":0.44524016976356506,"141":1.4433447122573853,"142":-0.20337125658988953,"143":0.9436678886413574,"144":-1.3132283687591553,"145":-0.6516028046607971,"146":0.48484161496162415,"147":0.9490711688995361,"148":-1.3616009950637817,"149":-0.1579837203025818,"150":-0.5153228044509888,"151":-0.9816235303878784,"152":0.5988633036613464,"153":1.1936018466949463,"154":-0.4716847538948059,"155":0.5438517332077026,"156":-1.4463050365447998,"157":0.6485411524772644,"158":0.6333929300308228,"159":0.6818157434463501,"160":0.9944613575935364,"161":0.5354816913604736,"162":-0.12361054122447968,"163":0.052790943533182144,"164":-0.09269624948501587,"165":-0.3420361876487732,"166":0.038697250187397,"167":0.34599241614341736,"168":0.013283949345350266,"169":-0.8283214569091797,"170":-0.39129894971847534,"171":-0.31651657819747925,"172":0.5901684165000916,"173":-1.2237231731414795,"174":0.3233984708786011,"175":0.41152679920196533,"176":-0.38035207986831665,"177":0.46713879704475403,"178":0.2610780596733093,"179":0.35753631591796875,"180":0.46245381236076355,"181":0.5018275380134583,"182":-0.2114570587873459,"183":0.3744540512561798,"184":-0.41612404584884644,"185":0.0502704493701458,"186":0.22673827409744263,"187":-0.09248905628919601,"188":-0.6867348551750183,"189":-0.45145878195762634,"190":-0.8286086320877075,"191":-0.01647329516708851,"192":0.40216687321662903,"193":0.4315403401851654,"194":-0.09846310317516327,"195":-0.021373488008975983,"196":-0.42964547872543335,"197":0.2343917191028595,"198":0.29052862524986267,"199":-0.1681990623474121,"200":-0.029903503134846687,"201":0.33766722679138184,"202":-0.5620470643043518,"203":0.17959852516651154,"204":-0.31846189498901367,"205":-0.5314532518386841,"206":0.15879078209400177,"207":0.46971291303634644,"208":-0.3126460611820221,"209":0.048749055713415146,"210":0.06599071621894836,"211":0.3128826320171356,"212":0.4085589349269867,"213":-0.5150653719902039,"214":0.6091791987419128,"215":-0.7770970463752747,"216":-0.49959585070610046,"217":0.10138683766126633,"218":0.1304607093334198,"219":1.1803053617477417,"220":0.038841381669044495,"221":-0.2630390524864197,"222":1.203885793685913,"223":0.2253478765487671,"224":-0.27548032999038696,"225":0.37826475501060486,"226":0.49226558208465576,"227":-0.2441776841878891,"228":0.04543982446193695,"229":0.8309285640716553,"230":1.589961290359497,"231":-0.2729461193084717,"232":0.6126799583435059,"233":-0.5308822989463806,"234":-0.3631066381931305,"235":0.19240958988666534,"236":-0.012641525827348232,"237":0.6661982536315918,"238":-1.593932032585144,"239":-0.5245777368545532,"240":0.13844016194343567,"241":0.22417299449443817,"242":0.022620417177677155,"243":-0.5688047409057617,"244":0.625857412815094,"245":-0.4993097484111786,"246":0.5173616409301758,"247":0.04992520064115524,"248":-0.39801520109176636,"249":-0.44680556654930115,"250":-0.48396697640419006,"251":1.029929757118225,"252":0.031767647713422775,"253":0.7771429419517517,"254":-0.2493695169687271,"255":0.5092685222625732,"256":-0.03714824840426445,"257":0.43545612692832947,"258":0.7302424907684326,"259":0.034932877868413925,"260":-0.38376402854919434,"261":-0.10653848201036453,"262":-0.220005065202713,"263":0.5458358526229858,"264":-0.6498815417289734,"265":0.16929776966571808,"266":0.013947452418506145,"267":0.6270738244056702,"268":-0.24482418596744537,"269":0.5090901255607605,"270":0.3977601230144501,"271":0.3671436011791229,"272":0.22848625481128693,"273":-0.07165572792291641,"274":-0.6689147353172302,"275":-0.48000603914260864,"276":-0.8235132098197937,"277":-0.11256113648414612,"278":0.2138850837945938,"279":0.4194161295890808,"280":0.07855038344860077,"281":0.4565979242324829,"282":-0.22887620329856873,"283":0.22051799297332764,"284":-0.34042662382125854,"285":0.07447703927755356,"286":0.05902755260467529,"287":-0.01731843315064907,"288":0.0443948432803154,"289":0.055138539522886276,"290":-0.10641750693321228,"291":0.4751911461353302,"292":0.19426992535591125,"293":-0.7837115526199341,"294":-0.25691697001457214,"295":-0.1684403270483017,"296":-0.44999954104423523,"297":-0.003741626627743244,"298":0.6152951717376709,"299":0.19799698889255524,"300":-0.16487619280815125,"301":1.160717248916626,"302":0.48714739084243774,"303":1.1183326244354248,"304":0.4863077998161316,"305":0.24465800821781158,"306":0.2496458739042282,"307":0.4441302418708801,"308":0.09292498975992203,"309":1.0221775770187378,"310":1.0053906440734863,"311":0.3543235957622528,"312":-0.5646023154258728,"313":-0.564285159111023,"314":-0.1884598433971405,"315":0.14502859115600586,"316":0.5496218800544739,"317":0.36129429936408997,"318":-0.17124179005622864,"319":-0.6808741688728333,"320":0.1981513500213623,"321":0.1926914006471634,"322":-0.48436009883880615,"323":-0.04206719249486923,"324":0.0023720094468444586,"325":-0.3003174364566803,"326":0.05870385468006134,"327":-0.23102514445781708,"328":-0.09082557260990143,"329":-0.3578135371208191,"330":-0.15486456453800201,"331":0.27161306142807007,"332":0.13370658457279205,"333":-0.295623779296875,"334":0.36918336153030396,"335":0.14935444295406342,"336":-0.3226061761379242,"337":0.07305626571178436,"338":0.13065434992313385,"339":0.3396308720111847,"340":-0.22751805186271667,"341":0.3437338173389435,"342":0.5757776498794556,"343":-0.6086732149124146,"344":0.34154966473579407,"345":-0.2283075600862503,"346":0.025743994861841202,"347":0.1244327500462532,"348":-0.08175119757652283,"349":0.38487935066223145,"350":0.1905595064163208,"351":-0.16087806224822998,"352":-0.016777439042925835,"353":0.47378477454185486,"354":-0.1479680836200714,"355":0.8332481384277344,"356":0.1035212054848671,"357":0.21529951691627502,"358":0.09831234812736511,"359":-0.16356025636196136,"360":-1.595338225364685,"361":0.9946169853210449,"362":-0.7959245443344116,"363":0.2403028905391693,"364":-0.284652978181839,"365":0.27239790558815,"366":0.5560218095779419,"367":1.5772805213928223,"368":0.5602496266365051,"369":-0.052968189120292664,"370":0.7104581594467163,"371":0.3509024381637573,"372":-0.2793036997318268,"373":-0.9705139994621277,"374":0.5579238533973694,"375":-0.9361074566841125,"376":-1.29524827003479,"377":-0.2851269841194153,"378":0.09709976613521576,"379":1.6995391845703125,"380":-0.4520522952079773,"381":1.111814260482788,"382":1.1384955644607544,"383":0.2841198444366455,"384":0.048819899559020996,"385":-0.07636430114507675,"386":-1.5247739553451538,"387":-0.9279403686523438,"388":0.17287473380565643,"389":-0.02062741480767727,"390":-1.3110805749893188,"391":-0.17203734815120697,"392":-1.1273411512374878,"393":-0.5105259418487549,"394":-0.002173955785110593,"395":0.38947808742523193,"396":-0.5621079802513123,"397":0.4464162588119507,"398":0.5690004825592041,"399":0.009155482053756714}},"inputBias":{"rows":20,"columns":1,"weights":{"0":-0.44849175214767456,"1":-0.008090456016361713,"2":-0.08860306441783905,"3":-0.5522420406341553,"4":-0.7491016983985901,"5":-0.8546028137207031,"6":-0.46632763743400574,"7":0.04993266984820366,"8":-0.5711952447891235,"9":-0.6272419691085815,"10":-0.1938169300556183,"11":0.653569221496582,"12":-0.5537627339363098,"13":0.12271852046251297,"14":-0.7056372761726379,"15":-0.3834819495677948,"16":-0.6984291672706604,"17":-0.5593540072441101,"18":0.18463139235973358,"19":-1.0569884777069092}},"forgetMatrix":{"rows":20,"columns":26,"weights":{"0":0.8486931324005127,"1":-0.37866032123565674,"2":0.8702871203422546,"3":0.1507038027048111,"4":-0.6425322890281677,"5":-0.2449696809053421,"6":-0.5963772535324097,"7":-0.635242223739624,"8":0.9530142545700073,"9":0.6364903450012207,"10":0.7721520662307739,"11":-0.16660675406455994,"12":-0.7069472670555115,"13":-0.8294159173965454,"14":-0.8063663840293884,"15":-0.38503938913345337,"16":-0.4485114514827728,"17":0.2737697660923004,"18":0.8476212024688721,"19":0.23848426342010498,"20":0.24014735221862793,"21":0.3720609247684479,"22":-0.12021351605653763,"23":0.13583390414714813,"24":-0.8324092030525208,"25":-0.560198962688446,"26":-0.6938005089759827,"27":-0.21627914905548096,"28":-0.13129420578479767,"29":0.6930897831916809,"30":0.8887026309967041,"31":0.2901744544506073,"32":0.42353618144989014,"33":0.5554635524749756,"34":-0.12361228466033936,"35":0.015628116205334663,"36":0.05380721762776375,"37":1.6477303504943848,"38":0.5897818207740784,"39":-0.19745680689811707,"40":0.7356120944023132,"41":0.20239132642745972,"42":1.1646747589111328,"43":-2.466684103012085,"44":-0.10397040098905563,"45":-0.6775911450386047,"46":-0.15676835179328918,"47":-1.214991807937622,"48":0.7898423075675964,"49":-1.359239935874939,"50":0.302049458026886,"51":0.7439902424812317,"52":-0.3156193494796753,"53":0.2174905389547348,"54":-0.2921672463417053,"55":-0.28522345423698425,"56":-0.3907373249530792,"57":0.5087587833404541,"58":-0.4695681631565094,"59":0.7437294721603394,"60":-0.4597340524196625,"61":-0.38430243730545044,"62":-0.38061758875846863,"63":-0.5627906918525696,"64":0.36887073516845703,"65":0.3681555986404419,"66":0.23129452764987946,"67":0.21556539833545685,"68":-0.27135592699050903,"69":0.1747850924730301,"70":-0.37333738803863525,"71":0.5112139582633972,"72":-0.4895612597465515,"73":0.2736568748950958,"74":-0.5049893856048584,"75":0.37969309091567993,"76":0.26961982250213623,"77":-0.03726827725768089,"78":-0.7499388456344604,"79":0.13719293475151062,"80":-0.4086109399795532,"81":1.0532832145690918,"82":1.0084315538406372,"83":0.5509559512138367,"84":0.7571795582771301,"85":0.6473044157028198,"86":-0.4758090376853943,"87":-0.4537723660469055,"88":-0.03956809267401695,"89":0.7525489926338196,"90":1.2018662691116333,"91":0.27515095472335815,"92":0.9498941898345947,"93":0.23000779747962952,"94":0.7109637260437012,"95":-1.345535159111023,"96":-0.36187294125556946,"97":0.24105051159858704,"98":0.38448527455329895,"99":-0.8311135768890381,"100":0.34357208013534546,"101":-0.6579376459121704,"102":0.3476431965827942,"103":0.3209276795387268,"104":-0.993690550327301,"105":0.4466373026371002,"106":-0.6625186204910278,"107":0.9873391389846802,"108":0.4601875841617584,"109":0.7155622243881226,"110":0.9540714025497437,"111":0.6231335401535034,"112":-0.8387623429298401,"113":-0.581112265586853,"114":-0.5664706826210022,"115":0.08869414031505585,"116":1.1284449100494385,"117":0.7097986340522766,"118":0.9200398325920105,"119":0.4998893439769745,"120":-0.12337163835763931,"121":-0.7821716070175171,"122":-0.8212450742721558,"123":0.4528401792049408,"124":-0.3547278940677643,"125":-0.3976479768753052,"126":0.08896784484386444,"127":0.5352252721786499,"128":0.6441730260848999,"129":0.39917221665382385,"130":-0.6217044591903687,"131":0.39131608605384827,"132":-0.6561880111694336,"133":0.27005890011787415,"134":-0.05621860921382904,"135":0.5084933638572693,"136":0.505736231803894,"137":-0.08726652711629868,"138":-0.592775285243988,"139":-0.46304580569267273,"140":-0.4739049971103668,"141":-0.3895184099674225,"142":0.4847966134548187,"143":0.5966222286224365,"144":0.4483994245529175,"145":0.5806772112846375,"146":-0.41464677453041077,"147":0.19142723083496094,"148":-0.5486716628074646,"149":0.4422764182090759,"150":-0.5050894618034363,"151":0.20283499360084534,"152":-0.4121362864971161,"153":0.25363925099372864,"154":0.54227215051651,"155":-0.27187129855155945,"156":-0.23739375174045563,"157":0.5039454102516174,"158":-0.2220747470855713,"159":0.6048102378845215,"160":0.6050089597702026,"161":-0.4263444244861603,"162":0.3504313826560974,"163":-0.6246702671051025,"164":-0.34008264541625977,"165":-0.5132744312286377,"166":-0.3149506747722626,"167":0.4793587625026703,"168":0.47436466813087463,"169":0.3501085042953491,"170":0.15420885384082794,"171":0.48578083515167236,"172":0.43292519450187683,"173":-0.5349655747413635,"174":-0.370644748210907,"175":-0.3853074312210083,"176":-0.5145276784896851,"177":-0.43275022506713867,"178":0.5299417972564697,"179":-0.5005131959915161,"180":0.24691613018512726,"181":0.465035617351532,"182":0.7894574999809265,"183":-0.09471845626831055,"184":0.9683605432510376,"185":0.3326350152492523,"186":0.13018657267093658,"187":-0.603367030620575,"188":-0.8514836430549622,"189":-0.3480806350708008,"190":0.6877182126045227,"191":0.7106999158859253,"192":0.4931248724460602,"193":0.2951470911502838,"194":-0.6970347166061401,"195":-1.1953381299972534,"196":-0.7485665678977966,"197":-0.31217464804649353,"198":-0.16574257612228394,"199":-0.1399015486240387,"200":1.0436404943466187,"201":-0.408871591091156,"202":0.012417102232575417,"203":0.1757780760526657,"204":0.30699941515922546,"205":-0.2360856533050537,"206":-0.6283265352249146,"207":-0.21931730210781097,"208":-0.758966326713562,"209":-0.21032412350177765,"210":-0.3323032557964325,"211":-0.3333573639392853,"212":0.15001647174358368,"213":0.9426972270011902,"214":0.48872140049934387,"215":0.6920947432518005,"216":-0.3649384379386902,"217":-0.13577969372272491,"218":-0.09365740418434143,"219":-0.484855592250824,"220":0.9481456279754639,"221":0.25340554118156433,"222":0.5298658609390259,"223":0.03767566755414009,"224":-0.1794130653142929,"225":-0.13468456268310547,"226":-0.6083441972732544,"227":0.7245710492134094,"228":0.10211280733346939,"229":-0.6665652394294739,"230":-0.5912972688674927,"231":0.7232803106307983,"232":0.0763566642999649,"233":0.8168464303016663,"234":0.20972652733325958,"235":0.06336259841918945,"236":0.8909629583358765,"237":0.45688486099243164,"238":-0.943597674369812,"239":-1.1138834953308105,"240":-0.015720948576927185,"241":1.241097092628479,"242":0.866327166557312,"243":0.3004089295864105,"244":0.4880228042602539,"245":0.4590665400028229,"246":0.30374446511268616,"247":-0.48292362689971924,"248":-0.09503193199634552,"249":-0.02907712385058403,"250":-0.7821159362792969,"251":-0.3293922245502472,"252":0.4963199496269226,"253":-0.6752161383628845,"254":1.0714765787124634,"255":0.14432330429553986,"256":0.9044415354728699,"257":0.026016617193818092,"258":-0.5091080665588379,"259":-0.015109485015273094,"260":-0.6081470847129822,"261":0.3691593110561371,"262":0.007102664560079575,"263":0.47869908809661865,"264":0.4855439066886902,"265":1.6876189708709717,"266":0.2433399111032486,"267":0.16941307485103607,"268":-0.6762433052062988,"269":-0.12824541330337524,"270":-0.30104485154151917,"271":-0.5037757158279419,"272":0.9237765073776245,"273":0.42934373021125793,"274":0.17587055265903473,"275":0.48637282848358154,"276":-0.2675238847732544,"277":0.6940378546714783,"278":-0.4659493863582611,"279":0.8464012145996094,"280":-0.3466256260871887,"281":-0.44984012842178345,"282":-1.3569270372390747,"283":0.9301336407661438,"284":-0.15000483393669128,"285":-0.20552052557468414,"286":0.005381891969591379,"287":0.19091911613941193,"288":0.14592188596725464,"289":0.5398244261741638,"290":0.6641181111335754,"291":-0.7565174698829651,"292":0.16944099962711334,"293":-1.3108073472976685,"294":-0.12246182560920715,"295":-0.04138266667723656,"296":-0.10513586550951004,"297":0.28081467747688293,"298":-0.09058542549610138,"299":-0.16890673339366913,"300":-0.2956518530845642,"301":0.22664475440979004,"302":0.5175248384475708,"303":-0.0870131403207779,"304":0.05499732494354248,"305":-0.1487145870923996,"306":-0.7885311245918274,"307":-0.5893466472625732,"308":0.3090760111808777,"309":-0.43122583627700806,"310":-0.37011876702308655,"311":0.3422577977180481,"312":-0.25042566657066345,"313":0.5398446321487427,"314":-0.5331493020057678,"315":0.30314338207244873,"316":0.668139636516571,"317":-0.2597183585166931,"318":0.36696842312812805,"319":-0.3455604910850525,"320":-0.323709636926651,"321":-0.2543819844722748,"322":-0.3799058794975281,"323":0.5779374837875366,"324":0.431829571723938,"325":0.47361379861831665,"326":0.45545774698257446,"327":0.4629729390144348,"328":0.47737404704093933,"329":-0.5872392058372498,"330":-0.3574911057949066,"331":-0.38991066813468933,"332":-0.11929628998041153,"333":-0.43091797828674316,"334":0.6349297165870667,"335":-0.7006185054779053,"336":0.6189654469490051,"337":0.6059175133705139,"338":0.6417872309684753,"339":-0.669428825378418,"340":0.8093106150627136,"341":-0.8317789435386658,"342":-0.34986093640327454,"343":-0.18404382467269897,"344":-0.6395467519760132,"345":0.5928381681442261,"346":0.7559865713119507,"347":0.6948660612106323,"348":0.7306402921676636,"349":-0.3105055093765259,"350":-0.49594059586524963,"351":-0.9102733135223389,"352":-0.9610321521759033,"353":-0.6552804708480835,"354":-0.27450135350227356,"355":0.15427400171756744,"356":0.83927321434021,"357":0.29501572251319885,"358":0.047603655606508255,"359":0.421787291765213,"360":-0.14098747074604034,"361":0.22587808966636658,"362":-0.9740145206451416,"363":-0.6066616773605347,"364":-0.8562805652618408,"365":0.27287283539772034,"366":-0.49626031517982483,"367":0.035754572600126266,"368":0.5502356290817261,"369":1.4767611026763916,"370":0.8056797981262207,"371":0.33234813809394836,"372":-0.7830789089202881,"373":-0.14565223455429077,"374":-0.40574705600738525,"375":-0.6831679940223694,"376":0.7514342069625854,"377":0.10791421681642532,"378":0.4627266526222229,"379":0.1994834542274475,"380":-0.33024492859840393,"381":0.7301344275474548,"382":-0.3979904055595398,"383":1.2431399822235107,"384":-0.2579707205295563,"385":0.18116198480129242,"386":-1.3997620344161987,"387":0.6532753705978394,"388":0.13625526428222656,"389":-0.28705713152885437,"390":-0.43813657760620117,"391":0.38558366894721985,"392":-0.637836754322052,"393":0.018289631232619286,"394":0.41899314522743225,"395":-0.5689529776573181,"396":0.4253632426261902,"397":0.3057466447353363,"398":-0.6921172142028809,"399":-0.6421418190002441,"400":-0.7026403546333313,"401":0.3845609724521637,"402":0.5514837503433228,"403":0.4133886694908142,"404":0.5886659026145935,"405":0.2015761137008667,"406":0.7420824766159058,"407":-1.2768502235412598,"408":-0.685661792755127,"409":-0.7157269716262817,"410":-0.3202626407146454,"411":-0.3174704313278198,"412":0.5830264091491699,"413":-0.4958694875240326,"414":0.710614025592804,"415":1.2503089904785156,"416":0.1371525228023529,"417":-0.17489145696163177,"418":0.2123560905456543,"419":0.23559780418872833,"420":-0.004060002043843269,"421":-0.08435020595788956,"422":-0.3076421022415161,"423":0.2428809106349945,"424":0.43219131231307983,"425":0.4414077401161194,"426":0.4239208400249481,"427":0.7792283892631531,"428":-0.0018024416640400887,"429":-0.34848931431770325,"430":0.11630899459123611,"431":-0.10101532191038132,"432":0.9254178404808044,"433":-0.6453938484191895,"434":0.42002981901168823,"435":-0.291475772857666,"436":0.00678942771628499,"437":-0.6447337865829468,"438":0.01673799939453602,"439":-1.036049485206604,"440":0.05923394113779068,"441":0.5545917749404907,"442":-0.25861048698425293,"443":0.3955899775028229,"444":-0.24776506423950195,"445":0.36364468932151794,"446":0.6652625799179077,"447":-0.37052854895591736,"448":0.3772844076156616,"449":-0.7631850242614746,"450":-0.3161602318286896,"451":-0.3942241072654724,"452":-0.31690508127212524,"453":0.4338630437850952,"454":0.3489108681678772,"455":0.19393415749073029,"456":0.2411581426858902,"457":0.34890010952949524,"458":0.6929752230644226,"459":-0.5903682708740234,"460":-0.3548656404018402,"461":-0.43757447600364685,"462":-0.33822527527809143,"463":-0.5767765641212463,"464":0.5168400406837463,"465":-0.683942437171936,"466":0.2678903341293335,"467":0.6094940304756165,"468":0.2213577926158905,"469":-0.01604512520134449,"470":0.5981173515319824,"471":-0.48894041776657104,"472":-0.9060853719711304,"473":-0.7451215982437134,"474":-0.4745137393474579,"475":0.5140303373336792,"476":0.41122016310691833,"477":0.224905326962471,"478":0.34454283118247986,"479":0.4178328812122345,"480":-0.3760853409767151,"481":0.13708144426345825,"482":0.041287343949079514,"483":-0.11523035913705826,"484":0.4102930724620819,"485":-0.34334996342658997,"486":0.3275870978832245,"487":-1.0450822114944458,"488":0.48129796981811523,"489":-1.156490683555603,"490":0.855517566204071,"491":-0.6648961901664734,"492":-0.13919228315353394,"493":0.7879160642623901,"494":1.1186378002166748,"495":-0.8515691757202148,"496":0.96193528175354,"497":-0.0716395452618599,"498":-0.6058200001716614,"499":0.19103452563285828,"500":-1.3941186666488647,"501":0.4222245216369629,"502":1.2369730472564697,"503":0.9876782894134521,"504":1.057191014289856,"505":-0.28214654326438904,"506":-0.443225622177124,"507":-1.3454527854919434,"508":-1.1927499771118164,"509":-0.9073178172111511,"510":0.3856496512889862,"511":-0.1959274262189865,"512":1.745905876159668,"513":0.31763970851898193,"514":-0.1288197636604309,"515":-0.41085588932037354,"516":-0.5401554703712463,"517":-0.48340004682540894,"518":-0.7563923597335815,"519":0.3770126700401306}},"forgetHidden":{"rows":20,"columns":20,"weights":{"0":0.02301318384706974,"1":0.7889862656593323,"2":-0.19239230453968048,"3":0.8449549674987793,"4":-1.281290054321289,"5":-0.369133323431015,"6":0.32051706314086914,"7":0.36853519082069397,"8":-1.3100085258483887,"9":0.044125646352767944,"10":-0.20729508996009827,"11":-0.3754405379295349,"12":0.3417663276195526,"13":0.09899725764989853,"14":-0.3712140619754791,"15":0.1547384411096573,"16":-0.6963291168212891,"17":0.5303991436958313,"18":0.791814386844635,"19":0.8953877687454224,"20":-0.3506641685962677,"21":0.20715253055095673,"22":0.06914134323596954,"23":-0.25249382853507996,"24":0.0552847720682621,"25":-0.607303261756897,"26":0.7680712938308716,"27":0.6912434697151184,"28":-0.1404128521680832,"29":0.052295561879873276,"30":-1.4131914377212524,"31":-0.5637537240982056,"32":-0.2570746839046478,"33":0.07680898159742355,"34":0.08412426710128784,"35":1.2532306909561157,"36":-0.8789740800857544,"37":-0.022447438910603523,"38":0.10837013274431229,"39":0.418599396944046,"40":0.005189192947000265,"41":0.503132164478302,"42":-0.1450904756784439,"43":-0.288350909948349,"44":0.28870806097984314,"45":-0.28382402658462524,"46":0.31087616086006165,"47":0.4230143427848816,"48":0.5393782258033752,"49":0.26446205377578735,"50":-0.03748882934451103,"51":-0.4432086646556854,"52":0.2566884756088257,"53":-0.5766159296035767,"54":0.5108916163444519,"55":0.4261448383331299,"56":-0.10568583756685257,"57":0.39888250827789307,"58":-0.5068286061286926,"59":-0.3325168192386627,"60":1.0792828798294067,"61":-0.24075332283973694,"62":-0.5616649985313416,"63":0.1632739007472992,"64":-0.32772162556648254,"65":-0.2407478243112564,"66":0.3299616277217865,"67":0.4525670111179352,"68":-0.549144983291626,"69":-0.1424284428358078,"70":0.126998171210289,"71":-0.093927763402462,"72":0.5066961646080017,"73":1.341679334640503,"74":-1.0240596532821655,"75":0.3345937132835388,"76":-0.3588200807571411,"77":0.3115188181400299,"78":-0.05151448771357536,"79":-0.40729352831840515,"80":0.5000341534614563,"81":-0.17599977552890778,"82":-0.3944067060947418,"83":-0.1101696565747261,"84":0.07905086129903793,"85":0.13067327439785004,"86":0.09683936834335327,"87":0.9840092658996582,"88":-0.018415629863739014,"89":-0.6746659874916077,"90":0.4222332835197449,"91":0.02505258098244667,"92":0.3239991366863251,"93":0.783775269985199,"94":-0.42179766297340393,"95":0.25497540831565857,"96":0.1286911517381668,"97":0.05632724612951279,"98":-0.2793649137020111,"99":0.008576987311244011,"100":-0.24311843514442444,"101":-0.1204879954457283,"102":0.12469588220119476,"103":-0.318831205368042,"104":0.3246803283691406,"105":0.13958652317523956,"106":0.05015609785914421,"107":-0.31347233057022095,"108":0.34975749254226685,"109":0.31342455744743347,"110":0.5667880773544312,"111":0.004952627699822187,"112":0.057672254741191864,"113":-0.40056413412094116,"114":0.4919235408306122,"115":-0.19360338151454926,"116":0.1663665473461151,"117":0.08551683276891708,"118":-0.7717596888542175,"119":0.10876728594303131,"120":-0.05080388858914375,"121":0.2478242814540863,"122":-0.5143773555755615,"123":-0.315607488155365,"124":0.7435240149497986,"125":-0.34918099641799927,"126":0.16020841896533966,"127":-0.11257877200841904,"128":0.7910879850387573,"129":0.5518681406974792,"130":-0.13745196163654327,"131":-0.3145920932292938,"132":0.03849930316209793,"133":-0.41978365182876587,"134":0.7308213114738464,"135":0.40529024600982666,"136":0.5652815699577332,"137":0.2158481627702713,"138":-0.8193234801292419,"139":-0.7563468813896179,"140":-0.2676270306110382,"141":0.7214431762695312,"142":-0.5414356589317322,"143":0.04175382852554321,"144":-0.4279903769493103,"145":-0.36213383078575134,"146":0.24021852016448975,"147":0.4017586410045624,"148":-0.601360559463501,"149":0.13600961863994598,"150":0.4591202735900879,"151":0.08595357090234756,"152":0.33327776193618774,"153":0.20102795958518982,"154":-0.23519372940063477,"155":0.09525669366121292,"156":-0.028607001528143883,"157":0.46196335554122925,"158":0.5017857551574707,"159":1.4693981409072876,"160":0.3512662947177887,"161":-0.0296007189899683,"162":-0.5355854034423828,"163":-0.2616674304008484,"164":-0.17982186377048492,"165":0.27936631441116333,"166":-0.5034418702125549,"167":1.0474846363067627,"168":-0.1969231218099594,"169":-0.4661150574684143,"170":0.6869530081748962,"171":0.4841403663158417,"172":0.38338223099708557,"173":0.8140642046928406,"174":-0.6399492621421814,"175":-0.33447590470314026,"176":0.0230683796107769,"177":-0.05657969042658806,"178":0.20112186670303345,"179":0.6029609441757202,"180":0.13923999667167664,"181":1.455047607421875,"182":-0.27276748418807983,"183":0.7361363172531128,"184":-0.9802089929580688,"185":-0.3339434266090393,"186":0.23627761006355286,"187":0.44788429141044617,"188":-1.6973199844360352,"189":-0.34935247898101807,"190":-0.6997471451759338,"191":-0.039201900362968445,"192":0.30688393115997314,"193":0.47777873277664185,"194":-0.6033660173416138,"195":0.14626368880271912,"196":-0.43153855204582214,"197":0.391332745552063,"198":0.5110781788825989,"199":0.6347730159759521,"200":0.43943271040916443,"201":-0.33426639437675476,"202":-0.14292317628860474,"203":0.3004571497440338,"204":-0.34877026081085205,"205":-0.3239641785621643,"206":-0.32628557085990906,"207":-0.13866887986660004,"208":-0.5036939978599548,"209":1.012048602104187,"210":0.4452719986438751,"211":-0.36705002188682556,"212":0.819503903388977,"213":0.7706248760223389,"214":-0.5610601902008057,"215":0.8023838400840759,"216":0.019465383142232895,"217":0.5753884315490723,"218":-0.11234117299318314,"219":-0.5055411458015442,"220":-1.0403109788894653,"221":-0.24775837361812592,"222":-0.5992887616157532,"223":-0.14754243195056915,"224":0.6426302790641785,"225":-0.05914594978094101,"226":0.09397918730974197,"227":-0.5088082551956177,"228":0.5944337248802185,"229":1.368259072303772,"230":0.6632874011993408,"231":-0.04530072584748268,"232":0.3417951762676239,"233":-1.2771307229995728,"234":1.0386974811553955,"235":0.133172407746315,"236":0.3020312488079071,"237":0.12492389976978302,"238":-1.6083914041519165,"239":-0.7198818325996399,"240":0.05548715218901634,"241":0.26249077916145325,"242":-0.13144592940807343,"243":-0.14991313219070435,"244":0.2932013273239136,"245":-0.09461363404989243,"246":0.06137546896934509,"247":-0.12974242866039276,"248":0.3394833207130432,"249":0.36106088757514954,"250":0.04159875959157944,"251":-0.11273467540740967,"252":-0.004985059145838022,"253":-0.350585401058197,"254":0.3051869869232178,"255":0.31188538670539856,"256":0.22274249792099,"257":0.09280350059270859,"258":-0.4316301941871643,"259":-0.5950941443443298,"260":-0.006313591729849577,"261":0.8756922483444214,"262":-0.34018224477767944,"263":0.7301527261734009,"264":-0.5575743317604065,"265":-0.057885561138391495,"266":0.3405749797821045,"267":0.07869216799736023,"268":-0.5413843989372253,"269":-0.2935691475868225,"270":-0.17630308866500854,"271":0.18972831964492798,"272":0.4186449944972992,"273":0.06717386841773987,"274":0.11909370124340057,"275":0.32587572932243347,"276":-0.2014891654253006,"277":0.4205949604511261,"278":-0.8313933610916138,"279":0.3328566551208496,"280":-0.4894867241382599,"281":-0.08155009150505066,"282":-0.5672934055328369,"283":-0.0099755534902215,"284":0.08303126692771912,"285":0.31340691447257996,"286":-0.23236209154129028,"287":0.6166196465492249,"288":-0.19382455945014954,"289":0.4844416677951813,"290":-0.26824259757995605,"291":1.338576316833496,"292":0.4344176948070526,"293":0.5210325717926025,"294":-0.1458440124988556,"295":0.20402580499649048,"296":-0.26922717690467834,"297":0.05185437202453613,"298":-0.6060635447502136,"299":-0.18087506294250488,"300":-0.09239055961370468,"301":-0.04293503612279892,"302":-0.257354736328125,"303":-1.6978884935379028,"304":0.926303505897522,"305":-0.10723748803138733,"306":0.03293546661734581,"307":-0.17545904219150543,"308":1.0693473815917969,"309":-1.1603974103927612,"310":-0.3521728515625,"311":-0.3429853320121765,"312":-0.09225239604711533,"313":-0.5297923684120178,"314":1.9544122219085693,"315":0.09375067800283432,"316":0.6943410038948059,"317":0.02645537070930004,"318":0.19545826315879822,"319":-0.09262527525424957,"320":0.5949454307556152,"321":1.6318539381027222,"322":-0.38124045729637146,"323":0.9245457053184509,"324":-0.6692872047424316,"325":-0.3778316378593445,"326":0.2847825288772583,"327":0.4119373857975006,"328":-0.8591182827949524,"329":-0.6210708022117615,"330":-0.9523596167564392,"331":-0.6257290840148926,"332":0.3839341998100281,"333":0.2976410984992981,"334":-0.5646615624427795,"335":0.52970951795578,"336":-0.5402121543884277,"337":0.42754805088043213,"338":0.8101601004600525,"339":1.0326594114303589,"340":-0.39217162132263184,"341":0.019205057993531227,"342":-0.41087478399276733,"343":-0.4641006290912628,"344":0.7883619666099548,"345":-0.05027712881565094,"346":0.10415646433830261,"347":-0.09273861348628998,"348":0.6252400875091553,"349":0.6922135949134827,"350":-0.09933753311634064,"351":-0.15016520023345947,"352":0.01913832686841488,"353":-0.5061954259872437,"354":0.45549529790878296,"355":0.17144794762134552,"356":0.7963732481002808,"357":0.023915814235806465,"358":-0.7864100933074951,"359":-0.9524179697036743,"360":0.8480304479598999,"361":-0.8719335198402405,"362":-0.02044922485947609,"363":-1.1325675249099731,"364":0.5000098943710327,"365":0.06572957336902618,"366":0.33749523758888245,"367":-0.2523883581161499,"368":-0.8207685351371765,"369":-1.132760763168335,"370":-0.8858364820480347,"371":1.2165645360946655,"372":0.3524116277694702,"373":0.9227492213249207,"374":-0.4668745696544647,"375":-0.04989900439977646,"376":0.8967483639717102,"377":0.21773909032344818,"378":-0.44958987832069397,"379":0.14078496396541595,"380":-0.009847604669630527,"381":0.8099117875099182,"382":-0.032181814312934875,"383":0.5134983658790588,"384":-0.4278773069381714,"385":-0.418234646320343,"386":0.13318157196044922,"387":0.6679624915122986,"388":-0.23313014209270477,"389":0.34724000096321106,"390":0.256737619638443,"391":-1.025734782218933,"392":0.16041933000087738,"393":0.56206214427948,"394":-0.9953451156616211,"395":0.6543216109275818,"396":-1.1047288179397583,"397":0.12460007518529892,"398":0.8931260108947754,"399":0.5658937692642212}},"forgetBias":{"rows":20,"columns":1,"weights":{"0":0,"1":0,"2":0,"3":0,"4":0,"5":0,"6":0,"7":0,"8":0,"9":0,"10":0,"11":0,"12":0,"13":0,"14":0,"15":0,"16":0,"17":0,"18":0,"19":0}},"outputMatrix":{"rows":20,"columns":26,"weights":{"0":0.6124405860900879,"1":-0.9073264598846436,"2":0.6986345648765564,"3":-2.0866146087646484,"4":-0.7378746271133423,"5":-0.47802314162254333,"6":-0.9753032326698303,"7":0.9966257214546204,"8":0.5515854954719543,"9":0.6647621989250183,"10":0.7090805768966675,"11":0.2993743121623993,"12":-0.9749913811683655,"13":-0.505510151386261,"14":-0.7215264439582825,"15":-1.0450434684753418,"16":0.7208267450332642,"17":-0.4193038046360016,"18":0.6117359399795532,"19":-0.5990352034568787,"20":0.7954921126365662,"21":-0.7900902032852173,"22":0.3349766433238983,"23":0.059164244681596756,"24":-1.0175282955169678,"25":1.350785493850708,"26":0.9905236959457397,"27":-0.5211260914802551,"28":0.944908082485199,"29":-0.9130116701126099,"30":-0.9670833945274353,"31":0.24171745777130127,"32":-1.1708869934082031,"33":0.6138440370559692,"34":0.7168883681297302,"35":0.7479512691497803,"36":0.6589975953102112,"37":-0.4823155701160431,"38":-0.9066162705421448,"39":-1.112058401107788,"40":-1.327578067779541,"41":-0.6070277094841003,"42":-0.5356941223144531,"43":1.1413809061050415,"44":0.9931128025054932,"45":0.6938652396202087,"46":0.507509171962738,"47":0.8166835904121399,"48":-0.6672712564468384,"49":0.4100476801395416,"50":-1.0709505081176758,"51":-0.8539748787879944,"52":-1.3235211372375488,"53":0.490626722574234,"54":-1.1973519325256348,"55":0.04151974990963936,"56":0.5288281440734863,"57":0.016726693138480186,"58":0.6680210828781128,"59":0.27528828382492065,"60":-0.9465954899787903,"61":-1.0172076225280762,"62":-1.1437760591506958,"63":0.4518473446369171,"64":0.8158478736877441,"65":1.3859100341796875,"66":1.2089638710021973,"67":1.1090177297592163,"68":0.4380624294281006,"69":-0.8595737218856812,"70":-1.3771775960922241,"71":-0.26433032751083374,"72":-0.27048641443252563,"73":-0.8224591016769409,"74":0.5510674118995667,"75":-0.4184446632862091,"76":1.6145811080932617,"77":0.9795551896095276,"78":0.8230639696121216,"79":-1.0781868696212769,"80":0.7860631942749023,"81":-1.5973951816558838,"82":-0.6811177134513855,"83":-0.2186034768819809,"84":-1.0210038423538208,"85":1.5978275537490845,"86":1.1027103662490845,"87":1.0559414625167847,"88":0.8427234888076782,"89":0.4341132342815399,"90":-1.2928487062454224,"91":-0.44185125827789307,"92":-0.8995814919471741,"93":-0.9552515149116516,"94":0.3041747808456421,"95":-0.4006006717681885,"96":0.5924669504165649,"97":-0.44608041644096375,"98":1.072121500968933,"99":-0.37968021631240845,"100":0.45300596952438354,"101":-0.26815399527549744,"102":-1.1381235122680664,"103":0.5406237244606018,"104":0.4996488392353058,"105":0.2641008496284485,"106":0.3232734203338623,"107":-0.39591172337532043,"108":-1.2238048315048218,"109":-1.3339786529541016,"110":-0.4951779246330261,"111":0.8876773118972778,"112":0.40845340490341187,"113":-0.07874184101819992,"114":0.05691326782107353,"115":1.4576834440231323,"116":-0.8869757056236267,"117":0.03279958665370941,"118":0.13676637411117554,"119":-0.16864442825317383,"120":0.058598704636096954,"121":-0.8930625915527344,"122":0.1054297387599945,"123":-1.129797339439392,"124":1.1081358194351196,"125":0.11624665558338165,"126":1.389617681503296,"127":-0.5255690813064575,"128":0.0668022409081459,"129":0.04087818041443825,"130":-1.2368038892745972,"131":0.953307569026947,"132":-0.7925926446914673,"133":1.0487291812896729,"134":0.10424381494522095,"135":0.027174510061740875,"136":1.420832872390747,"137":-0.11909854412078857,"138":-0.7756419777870178,"139":-0.6797117590904236,"140":-1.1035033464431763,"141":-0.17590934038162231,"142":1.274903655052185,"143":0.8902705907821655,"144":0.8903891444206238,"145":0.9428641200065613,"146":-0.15175601840019226,"147":0.199844628572464,"148":-0.9396213293075562,"149":0.14107367396354675,"150":0.06368952244520187,"151":0.42811980843544006,"152":-0.08295141160488129,"153":0.2530624568462372,"154":0.5179018378257751,"155":-0.15268924832344055,"156":-1.308469533920288,"157":0.10320889204740524,"158":-0.7763262987136841,"159":-0.3039787709712982,"160":0.2662772834300995,"161":-0.04967125132679939,"162":0.7913757562637329,"163":0.3819655179977417,"164":-1.0268207788467407,"165":-0.8048969507217407,"166":-0.4158121347427368,"167":0.18771740794181824,"168":0.10200879722833633,"169":1.0600610971450806,"170":0.9562459588050842,"171":0.2759888172149658,"172":0.8676173090934753,"173":-0.7445207834243774,"174":-1.4000825881958008,"175":-0.20184673368930817,"176":-0.7989804744720459,"177":-0.5154472589492798,"178":0.05180734768509865,"179":0.1151982769370079,"180":0.6536492705345154,"181":1.0791994333267212,"182":-0.20617026090621948,"183":0.2824685275554657,"184":0.15167081356048584,"185":0.709368884563446,"186":-0.204481303691864,"187":-0.685502827167511,"188":0.10557610541582108,"189":0.17074799537658691,"190":0.1958082616329193,"191":0.054806437343358994,"192":-0.04027818515896797,"193":0.7559507489204407,"194":0.047129351645708084,"195":-0.15577302873134613,"196":0.2114180028438568,"197":0.24481555819511414,"198":0.11782078444957733,"199":-0.29654258489608765,"200":0.26498422026634216,"201":-0.42409059405326843,"202":-0.14542798697948456,"203":-0.002753203734755516,"204":0.809794545173645,"205":-0.7776422500610352,"206":0.055978745222091675,"207":-0.6509372591972351,"208":0.1847733110189438,"209":-0.5517346858978271,"210":0.046368829905986786,"211":-0.22223374247550964,"212":0.0029785519000142813,"213":-1.179565668106079,"214":-0.41058284044265747,"215":0.6382497549057007,"216":0.32903581857681274,"217":0.1228853166103363,"218":0.1861593872308731,"219":0.8047138452529907,"220":-0.7317187786102295,"221":-0.23148265480995178,"222":-0.12383761256933212,"223":-0.635658860206604,"224":0.2087952345609665,"225":-1.3828275203704834,"226":0.30285128951072693,"227":-0.9128804206848145,"228":0.40757042169570923,"229":0.4922674000263214,"230":1.1010684967041016,"231":-0.6991291642189026,"232":-0.15658597648143768,"233":0.48261046409606934,"234":0.5814143419265747,"235":-0.5426967144012451,"236":0.6744884252548218,"237":-1.8608207702636719,"238":-0.7314389944076538,"239":-0.38966456055641174,"240":-1.0208485126495361,"241":1.9692394733428955,"242":0.5018960237503052,"243":0.6838394999504089,"244":0.6569360494613647,"245":0.49823203682899475,"246":-0.8253334760665894,"247":-0.347586989402771,"248":-0.5977604389190674,"249":-0.715570867061615,"250":0.6271048784255981,"251":-0.3888390064239502,"252":0.5678431987762451,"253":-0.5189417004585266,"254":0.7650588750839233,"255":-0.9214443564414978,"256":0.4539519250392914,"257":-0.08203248679637909,"258":-0.6945900917053223,"259":1.2556674480438232,"260":0.30045005679130554,"261":-1.1810275316238403,"262":0.6670475006103516,"263":-1.1964130401611328,"264":-0.6945944428443909,"265":0.2584148645401001,"266":-0.9702227115631104,"267":1.7264758348464966,"268":0.4511204957962036,"269":0.8286218047142029,"270":0.5637254118919373,"271":-0.6583346724510193,"272":-0.9904273748397827,"273":-0.6304145455360413,"274":-0.2593050003051758,"275":-1.1873557567596436,"276":-0.6975821852684021,"277":0.2319440394639969,"278":0.41026729345321655,"279":0.14307352900505066,"280":0.7181057333946228,"281":0.8484207391738892,"282":-0.45479512214660645,"283":0.8642752170562744,"284":-0.358628511428833,"285":-0.4965863525867462,"286":-0.2573639154434204,"287":1.072593092918396,"288":-0.40382614731788635,"289":0.30210548639297485,"290":0.2875996530056,"291":0.15643173456192017,"292":0.3303277790546417,"293":-0.7150363922119141,"294":-0.6765155792236328,"295":0.22124281525611877,"296":-0.0730566680431366,"297":0.4272080063819885,"298":-0.0469219870865345,"299":1.1139777898788452,"300":0.46162933111190796,"301":1.5649257898330688,"302":0.6931501626968384,"303":0.56086266040802,"304":-0.2923012375831604,"305":0.08356355130672455,"306":-0.6782415509223938,"307":0.09161823987960815,"308":-0.2942192554473877,"309":-0.288512647151947,"310":0.01138166431337595,"311":-1.3808492422103882,"312":-0.36179009079933167,"313":1.1207987070083618,"314":-1.188225507736206,"315":0.7885459661483765,"316":-0.15455593168735504,"317":0.8111981153488159,"318":0.765339195728302,"319":-0.6293779611587524,"320":-0.12606194615364075,"321":-1.4200407266616821,"322":-1.250011682510376,"323":-0.3225041329860687,"324":1.68565833568573,"325":0.6105896830558777,"326":1.6573853492736816,"327":0.9682533740997314,"328":0.06932415813207626,"329":-0.49564844369888306,"330":-0.5886617302894592,"331":0.1572965830564499,"332":-1.7605422735214233,"333":-0.42425084114074707,"334":-0.2519470155239105,"335":0.27381157875061035,"336":2.029073715209961,"337":0.8946737051010132,"338":0.24496421217918396,"339":0.24746926128864288,"340":0.008496525697410107,"341":0.019911842420697212,"342":0.7396724820137024,"343":-1.2280386686325073,"344":-0.034395769238471985,"345":-0.32434698939323425,"346":0.4255608022212982,"347":0.21712587773799896,"348":0.023976381868124008,"349":1.1131738424301147,"350":-0.039698220789432526,"351":-0.44920971989631653,"352":-0.40176522731781006,"353":0.1889379769563675,"354":1.2528586387634277,"355":-0.8942796587944031,"356":0.4530632197856903,"357":-1.0328532457351685,"358":0.19883857667446136,"359":-0.3223313093185425,"360":0.9810395240783691,"361":-1.4342458248138428,"362":-0.23684541881084442,"363":0.2152400016784668,"364":0.6977905035018921,"365":-0.5709621906280518,"366":0.4473314583301544,"367":-0.28464680910110474,"368":2.0737340450286865,"369":0.07706277817487717,"370":-0.5047008395195007,"371":-0.5748898386955261,"372":0.524152398109436,"373":0.6358408331871033,"374":0.654882550239563,"375":0.8707911372184753,"376":-0.6610590219497681,"377":-0.4748777151107788,"378":0.15342696011066437,"379":-0.717038094997406,"380":2.3013076782226562,"381":-0.2553776502609253,"382":0.519025444984436,"383":-0.05562726780772209,"384":-0.6696885228157043,"385":-0.6184630990028381,"386":0.064937062561512,"387":-1.3116917610168457,"388":-0.002510875230655074,"389":0.7823143005371094,"390":-0.599357008934021,"391":-0.21267089247703552,"392":-0.2150554656982422,"393":-0.22035185992717743,"394":-0.45248621702194214,"395":1.3974922895431519,"396":0.7223791480064392,"397":0.3911903202533722,"398":-0.3525976836681366,"399":-0.0436033271253109,"400":-0.08994356542825699,"401":-0.7972453236579895,"402":0.4284278452396393,"403":0.5235104560852051,"404":0.6686772108078003,"405":-0.1740778237581253,"406":-0.44593337178230286,"407":0.9750657677650452,"408":-0.8645195364952087,"409":1.1051769256591797,"410":0.06139251962304115,"411":-0.19356931746006012,"412":-1.0730764865875244,"413":1.240714430809021,"414":0.17846879363059998,"415":0.14187680184841156,"416":-0.4783211052417755,"417":0.03540412336587906,"418":-0.20221929252147675,"419":-0.8491475582122803,"420":-1.2394719123840332,"421":-0.5206976532936096,"422":-0.13341978192329407,"423":2.690398931503296,"424":-0.3404834568500519,"425":0.00015251121658366174,"426":-0.09392780810594559,"427":0.777280330657959,"428":0.6497069001197815,"429":0.4358164966106415,"430":0.07388702034950256,"431":0.12566803395748138,"432":0.15268518030643463,"433":-1.0975509881973267,"434":-0.23907865583896637,"435":-0.4187090992927551,"436":0.11204053461551666,"437":-0.5622084736824036,"438":0.49671071767807007,"439":-0.15164102613925934,"440":0.00751665560528636,"441":1.1560388803482056,"442":-2.0327064990997314,"443":0.26806703209877014,"444":-1.262360692024231,"445":-0.13780555129051208,"446":0.37142032384872437,"447":-0.27052491903305054,"448":1.3139703273773193,"449":1.2283661365509033,"450":-2.0679821968078613,"451":-1.2142804861068726,"452":-0.9781391620635986,"453":0.3479311764240265,"454":0.8653265833854675,"455":1.8119834661483765,"456":1.6861807107925415,"457":0.4510911703109741,"458":-0.0034034375566989183,"459":-0.6904159188270569,"460":-2.207629442214966,"461":-0.28095129132270813,"462":0.3723258674144745,"463":-0.12525460124015808,"464":0.46383175253868103,"465":0.284940630197525,"466":0.9173690676689148,"467":0.5544592142105103,"468":0.9369535446166992,"469":-0.7619869112968445,"470":0.2890744209289551,"471":-0.661506175994873,"472":-0.9779737591743469,"473":0.1697959154844284,"474":-0.6975365281105042,"475":1.0340867042541504,"476":1.178288221359253,"477":0.8768292665481567,"478":0.6986234188079834,"479":-0.480558842420578,"480":-0.8415386080741882,"481":-0.6692476272583008,"482":-0.22453324496746063,"483":-0.6918894648551941,"484":-0.756526529788971,"485":-0.020973261445760727,"486":0.9574735760688782,"487":0.5286964178085327,"488":0.4232032001018524,"489":0.5704404711723328,"490":0.05648050084710121,"491":0.014448820613324642,"492":-0.23944315314292908,"493":-0.3634262681007385,"494":0.7301259636878967,"495":-0.45149755477905273,"496":0.2947636842727661,"497":-0.9984967112541199,"498":-0.2642333209514618,"499":-0.6275996565818787,"500":-0.6941631436347961,"501":1.2540748119354248,"502":0.5072407126426697,"503":0.8091505765914917,"504":0.408332884311676,"505":-0.12982074916362762,"506":-0.978503942489624,"507":-0.4257097840309143,"508":-0.72334885597229,"509":-0.648383617401123,"510":-0.42504608631134033,"511":-0.47752881050109863,"512":0.7695138454437256,"513":0.0899275690317154,"514":1.1660348176956177,"515":1.0221055746078491,"516":0.061054155230522156,"517":0.19498352706432343,"518":-0.6863487362861633,"519":-1.0947058200836182}},"outputHidden":{"rows":20,"columns":20,"weights":{"0":-0.009229496121406555,"1":0.416521817445755,"2":0.2659282386302948,"3":0.4692048728466034,"4":-0.8949122428894043,"5":0.26892393827438354,"6":0.6933002471923828,"7":-0.16000981628894806,"8":-1.2296702861785889,"9":-0.04969516396522522,"10":-0.6981427669525146,"11":0.5592636466026306,"12":1.030661940574646,"13":0.45581337809562683,"14":-0.37770190834999084,"15":0.7800346612930298,"16":-1.2810624837875366,"17":1.1354001760482788,"18":0.1302381157875061,"19":0.07053595781326294,"20":0.5432294607162476,"21":-0.31296613812446594,"22":-0.6738057136535645,"23":0.5838205814361572,"24":-0.8323334455490112,"25":0.25007370114326477,"26":-0.11110048741102219,"27":0.9842962026596069,"28":0.16291670501232147,"29":-0.41899800300598145,"30":-0.022087231278419495,"31":0.8327703475952148,"32":-0.045653413981199265,"33":0.8262612223625183,"34":-1.392229437828064,"35":-1.082969307899475,"36":-0.6616158485412598,"37":-0.6343504190444946,"38":0.05782224237918854,"39":1.0748120546340942,"40":1.0352210998535156,"41":-0.9970038533210754,"42":-0.28873521089553833,"43":-0.7756820321083069,"44":0.5635551810264587,"45":0.11025214195251465,"46":-0.4813067317008972,"47":-0.1072695329785347,"48":0.29625990986824036,"49":-0.6118656396865845,"50":-0.8414384126663208,"51":0.2865665853023529,"52":-0.5405938625335693,"53":0.0357416607439518,"54":-0.6036978363990784,"55":0.2614741027355194,"56":0.03771074116230011,"57":-0.669302761554718,"58":0.6055412888526917,"59":0.0029458696953952312,"60":0.6654002666473389,"61":-0.3825249671936035,"62":-0.47517624497413635,"63":-0.27306121587753296,"64":0.22184497117996216,"65":-0.005963669158518314,"66":1.1015113592147827,"67":-0.013215870596468449,"68":0.001394790131598711,"69":-0.882483184337616,"70":-0.42908626794815063,"71":0.7191594243049622,"72":0.2365652173757553,"73":0.9251968264579773,"74":-0.6619261503219604,"75":-0.6239643692970276,"76":-0.329657644033432,"77":-0.10047042369842529,"78":-0.0039588939398527145,"79":0.7512916922569275,"80":1.0850576162338257,"81":-0.20902875065803528,"82":-0.817973792552948,"83":-0.553363561630249,"84":-0.6619625091552734,"85":-0.08505134284496307,"86":-0.4694242775440216,"87":0.3612504303455353,"88":-0.3836890161037445,"89":-1.113394856452942,"90":-0.848120927810669,"91":1.6728315353393555,"92":0.36792609095573425,"93":1.4012422561645508,"94":-0.9461550116539001,"95":-0.6592395901679993,"96":-0.201433926820755,"97":0.030949516221880913,"98":0.02646697871387005,"99":0.42781299352645874,"100":0.19343352317810059,"101":-0.6869864463806152,"102":0.11261140555143356,"103":-1.54762601852417,"104":0.7004730105400085,"105":-0.13476961851119995,"106":-0.08209890872240067,"107":-0.4218640625476837,"108":-0.256529301404953,"109":-0.40770551562309265,"110":0.12520040571689606,"111":-0.02541469596326351,"112":-0.1908353567123413,"113":0.7114260196685791,"114":0.1458842009305954,"115":0.02671731449663639,"116":0.8504290580749512,"117":-0.04296952486038208,"118":-0.90008944272995,"119":0.007638992741703987,"120":0.9688056111335754,"121":0.3096412122249603,"122":1.9796066284179688,"123":-1.6398134231567383,"124":0.17258191108703613,"125":-0.1991196572780609,"126":-0.5157933831214905,"127":0.08200328797101974,"128":0.2701403498649597,"129":-0.1556113064289093,"130":-1.0389323234558105,"131":-0.11904945224523544,"132":-0.8277443051338196,"133":0.18113556504249573,"134":0.46918296813964844,"135":0.3456026315689087,"136":0.41938918828964233,"137":0.12789256870746613,"138":-0.1545061320066452,"139":-0.6440950036048889,"140":-0.6819322109222412,"141":1.2533290386199951,"142":-0.33906984329223633,"143":0.6244504451751709,"144":-1.4066499471664429,"145":-0.7111165523529053,"146":0.2880125343799591,"147":0.6688888669013977,"148":-1.3327386379241943,"149":0.21775993704795837,"150":-1.06033456325531,"151":-0.09997998178005219,"152":0.3398168087005615,"153":1.7696603536605835,"154":-0.36202162504196167,"155":0.7461074590682983,"156":-1.3948956727981567,"157":0.26314017176628113,"158":0.7322799563407898,"159":0.7285372018814087,"160":2.0055525302886963,"161":-0.12269892543554306,"162":1.2580605745315552,"163":-0.3196481168270111,"164":-0.9240869879722595,"165":-0.021727103739976883,"166":-0.37226852774620056,"167":1.0425587892532349,"168":-1.1916301250457764,"169":-1.2207319736480713,"170":-1.2112969160079956,"171":1.1895363330841064,"172":-0.1561059206724167,"173":1.984842300415039,"174":-1.3844220638275146,"175":-0.4638058841228485,"176":0.09615802764892578,"177":-0.008895181119441986,"178":0.3511621952056885,"179":0.46606218814849854,"180":-0.170925572514534,"181":0.0037066368386149406,"182":-0.1902930587530136,"183":-0.053057774901390076,"184":-0.4546719491481781,"185":0.09583241492509842,"186":0.0543224960565567,"187":-0.07516609877347946,"188":-0.4740358889102936,"189":-0.16334061324596405,"190":-0.01883701980113983,"191":0.43545928597450256,"192":0.47418469190597534,"193":0.306603342294693,"194":0.014765291474759579,"195":-0.00031090396805666387,"196":-0.777255117893219,"197":0.5826679468154907,"198":-0.09947400540113449,"199":0.335875928401947,"200":1.4713473320007324,"201":-0.7650562524795532,"202":-0.5322085618972778,"203":-0.7203016877174377,"204":0.033265456557273865,"205":0.41072773933410645,"206":0.11437059938907623,"207":-0.9547389149665833,"208":-0.8584918975830078,"209":-1.0645023584365845,"210":0.1689966917037964,"211":1.0769506692886353,"212":-0.0121565330773592,"213":0.7688972353935242,"214":0.605378270149231,"215":-1.649221420288086,"216":0.5149339437484741,"217":0.3721618056297302,"218":0.3779396712779999,"219":1.4409832954406738,"220":-0.019456801936030388,"221":-0.29035812616348267,"222":1.1731749773025513,"223":0.06680775433778763,"224":-0.5249218940734863,"225":0.3573143482208252,"226":0.2861357033252716,"227":-0.028247805312275887,"228":-0.1210986003279686,"229":0.649715006351471,"230":1.6615464687347412,"231":-0.0881502777338028,"232":0.5474103689193726,"233":-0.5537691712379456,"234":-0.8092096447944641,"235":0.13421513140201569,"236":-0.008479875512421131,"237":0.3630179762840271,"238":-2.066091537475586,"239":-0.4301340878009796,"240":0.4502742290496826,"241":0.4687235355377197,"242":0.2851448357105255,"243":-0.8455164432525635,"244":0.047561004757881165,"245":-0.3576321303844452,"246":0.4016868770122528,"247":0.2156779021024704,"248":-0.7674378156661987,"249":-0.9759093523025513,"250":-0.9687386155128479,"251":0.4206849932670593,"252":-0.2779107987880707,"253":1.170925259590149,"254":-0.6396948099136353,"255":0.4957434833049774,"256":-0.39190414547920227,"257":0.15839453041553497,"258":0.3661954998970032,"259":-0.7116439342498779,"260":0.462979793548584,"261":-0.7570886611938477,"262":0.39467141032218933,"263":-0.16621223092079163,"264":-0.9860878586769104,"265":0.6127112507820129,"266":-0.6704537868499756,"267":1.060758113861084,"268":-0.9127745628356934,"269":-0.36120501160621643,"270":-0.21887509524822235,"271":1.138216257095337,"272":0.5041788816452026,"273":0.5664370059967041,"274":-0.24936532974243164,"275":-1.5077314376831055,"276":-0.3691941797733307,"277":-0.9598010778427124,"278":0.13751113414764404,"279":0.5969781875610352,"280":0.18792754411697388,"281":0.7965900301933289,"282":-1.7266656160354614,"283":0.1591673344373703,"284":-1.40355384349823,"285":-0.007100082002580166,"286":-0.323089599609375,"287":0.17473651468753815,"288":-1.1457544565200806,"289":-0.6527130603790283,"290":-2.078430652618408,"291":0.7307347059249878,"292":0.7830178737640381,"293":1.2947227954864502,"294":-0.6238390207290649,"295":-0.1568424254655838,"296":-0.6127951741218567,"297":-0.6573712825775146,"298":1.2151917219161987,"299":0.7904110550880432,"300":-0.1297820508480072,"301":0.8558948040008545,"302":0.33891960978507996,"303":0.48783981800079346,"304":0.8899131417274475,"305":0.11898768693208694,"306":0.20491820573806763,"307":-0.24622924625873566,"308":0.0947728082537651,"309":0.8208802342414856,"310":1.0423704385757446,"311":0.15221542119979858,"312":-0.029371455311775208,"313":-0.7875487804412842,"314":0.32654696702957153,"315":0.43556612730026245,"316":0.9503294229507446,"317":0.27560409903526306,"318":-0.4610689580440521,"319":-0.8438887000083923,"320":0.1464868187904358,"321":-0.904076874256134,"322":-1.2079888582229614,"323":-0.5330430269241333,"324":0.37006041407585144,"325":-0.1417813003063202,"326":1.1717206239700317,"327":0.7037004828453064,"328":0.6796758770942688,"329":-0.27705374360084534,"330":0.6264708042144775,"331":0.5127894878387451,"332":1.582019329071045,"333":0.8454267978668213,"334":-0.12458258122205734,"335":0.5213971734046936,"336":0.6825727820396423,"337":0.15365731716156006,"338":0.30601972341537476,"339":-0.2760465741157532,"340":0.17468668520450592,"341":0.1174330860376358,"342":0.6869074106216431,"343":-1.0263327360153198,"344":0.14071115851402283,"345":-0.06177125498652458,"346":-0.18593032658100128,"347":0.07182814180850983,"348":-0.6225735545158386,"349":0.03763529285788536,"350":-0.6559041142463684,"351":-0.2856459319591522,"352":0.2126680165529251,"353":0.4815487861633301,"354":-0.6881977319717407,"355":0.6393343210220337,"356":0.3113275170326233,"357":0.16533203423023224,"358":0.6966737508773804,"359":0.15339313447475433,"360":0.25093433260917664,"361":1.6554988622665405,"362":-0.5502692461013794,"363":0.7540574669837952,"364":-1.5500693321228027,"365":0.7770978212356567,"366":0.6038767099380493,"367":0.8411582708358765,"368":0.06815838068723679,"369":-0.48698732256889343,"370":-0.4283909499645233,"371":-0.11634524166584015,"372":0.684096097946167,"373":0.8091191053390503,"374":-1.4134777784347534,"375":-0.2216702550649643,"376":-1.4291328191757202,"377":-0.18219736218452454,"378":1.642285943031311,"379":1.3097102642059326,"380":-0.0807180255651474,"381":1.0179855823516846,"382":-0.10894423723220825,"383":1.4206392765045166,"384":-1.9263725280761719,"385":1.1157363653182983,"386":0.2573893666267395,"387":0.07694915682077408,"388":-0.36352187395095825,"389":0.368781179189682,"390":-0.11924942582845688,"391":-0.2949061393737793,"392":1.0341452360153198,"393":-0.03890591859817505,"394":-0.9121003746986389,"395":-0.615021824836731,"396":-1.0062577724456787,"397":0.14760847389698029,"398":1.3045982122421265,"399":1.2070742845535278}},"outputBias":{"rows":20,"columns":1,"weights":{"0":-0.6739752888679504,"1":-0.07582922279834747,"2":-0.11656901240348816,"3":-0.772539496421814,"4":-1.159447193145752,"5":-0.9015870690345764,"6":-0.5201204419136047,"7":-0.031939100474119186,"8":-1.1228357553482056,"9":-0.781021773815155,"10":-0.11115892231464386,"11":0.578241765499115,"12":-0.8032717108726501,"13":-0.022224748507142067,"14":-1.0818169116973877,"15":-0.6682905554771423,"16":-0.7900803089141846,"17":-0.6569315195083618,"18":-0.44233307242393494,"19":-1.6225186586380005}},"cellActivationMatrix":{"rows":20,"columns":26,"weights":{"0":-0.11719301342964172,"1":-0.7625497579574585,"2":-0.14545103907585144,"3":0.6947635412216187,"4":1.926143765449524,"5":0.6484670639038086,"6":0.2644963562488556,"7":-0.8199401497840881,"8":0.7575063705444336,"9":0.6957749128341675,"10":0.5482381582260132,"11":-0.17581023275852203,"12":0.37283653020858765,"13":-0.7924400568008423,"14":0.20299585163593292,"15":-0.6788422465324402,"16":0.753362238407135,"17":-0.066708505153656,"18":0.41766396164894104,"19":0.7637879252433777,"20":0.30788344144821167,"21":-0.756506621837616,"22":-0.6643304824829102,"23":-0.9274444580078125,"24":0.16982392966747284,"25":0.5097246766090393,"26":0.08350128680467606,"27":-0.3479902744293213,"28":0.2529015839099884,"29":-0.5741515755653381,"30":0.10699506103992462,"31":0.22069813311100006,"32":-0.24280458688735962,"33":-0.2594417631626129,"34":0.10505805909633636,"35":0.2710789740085602,"36":0.2778688073158264,"37":0.3071099817752838,"38":-0.12252765893936157,"39":-0.2668815553188324,"40":-0.21209123730659485,"41":-0.4200059175491333,"42":0.5741748809814453,"43":0.3529983162879944,"44":0.19249455630779266,"45":-0.09126479923725128,"46":0.3536527454853058,"47":-0.9331895709037781,"48":-0.31304311752319336,"49":-0.1383407711982727,"50":-0.3230246305465698,"51":1.1116974353790283,"52":-0.10244320333003998,"53":-0.5714787840843201,"54":-0.1801322102546692,"55":0.07184391468763351,"56":0.49549293518066406,"57":0.08698513358831406,"58":0.5166653394699097,"59":-0.06041756272315979,"60":-0.5281920433044434,"61":0.16431471705436707,"62":0.08972682803869247,"63":0.30237776041030884,"64":-0.375803679227829,"65":0.2891402542591095,"66":-0.3990224301815033,"67":-0.6811627149581909,"68":0.4598628878593445,"69":-0.8117515444755554,"70":-0.6665613055229187,"71":-0.32285791635513306,"72":0.3120926320552826,"73":-0.7959465980529785,"74":0.4057934880256653,"75":-0.0048761828802526,"76":-0.35791346430778503,"77":1.08134126663208,"78":0.7214071750640869,"79":-0.43818381428718567,"80":0.7335348129272461,"81":-0.6909233927726746,"82":-0.48425230383872986,"83":0.21355821192264557,"84":-0.9146428108215332,"85":-0.04750286787748337,"86":0.6450749635696411,"87":0.6713739037513733,"88":0.5477935075759888,"89":0.07542804628610611,"90":-0.5151793360710144,"91":-0.8987505435943604,"92":-0.7285903096199036,"93":-0.5571147799491882,"94":0.2655186653137207,"95":-0.16549891233444214,"96":0.7787733674049377,"97":-0.203833669424057,"98":0.47011837363243103,"99":-0.21964433789253235,"100":-0.10040406137704849,"101":-0.4792780876159668,"102":-0.5543290376663208,"103":0.8467971086502075,"104":-0.5164982676506042,"105":1.0536006689071655,"106":-0.718005359172821,"107":1.0445581674575806,"108":-0.35482579469680786,"109":-0.3462517261505127,"110":0.8451683521270752,"111":-0.5362463593482971,"112":-0.7142637968063354,"113":-0.9388311505317688,"114":-0.826951801776886,"115":0.299138605594635,"116":0.7689105868339539,"117":0.8123494386672974,"118":0.5278617143630981,"119":1.0186398029327393,"120":0.08571559190750122,"121":-0.10478232800960541,"122":-0.735370934009552,"123":-0.1978328824043274,"124":-1.2434022426605225,"125":-0.10528630763292313,"126":0.41573190689086914,"127":-0.24125678837299347,"128":0.6719586253166199,"129":-0.20936931669712067,"130":-0.8386878371238708,"131":0.49799051880836487,"132":-0.7717152833938599,"133":0.26214051246643066,"134":0.06723406910896301,"135":0.5200160145759583,"136":0.9205902218818665,"137":-0.4671300947666168,"138":-0.6921126842498779,"139":-0.461362361907959,"140":-0.5404987335205078,"141":-0.15810401737689972,"142":1.00287663936615,"143":0.8717491030693054,"144":0.8226237297058105,"145":0.585667610168457,"146":-0.18859343230724335,"147":0.38600316643714905,"148":-0.8590618968009949,"149":0.46663451194763184,"150":-0.44078734517097473,"151":-0.3329574465751648,"152":-0.4093625545501709,"153":0.7078668475151062,"154":0.45988404750823975,"155":-0.2828063368797302,"156":0.15428631007671356,"157":-0.43088290095329285,"158":0.16103900969028473,"159":-1.2119241952896118,"160":-0.48509925603866577,"161":0.496125191450119,"162":-1.0751276016235352,"163":1.5998200178146362,"164":0.1975204199552536,"165":0.25670406222343445,"166":0.22141340374946594,"167":0.16112259030342102,"168":-0.5185860991477966,"169":-0.1293260157108307,"170":-0.11712831258773804,"171":-0.44292399287223816,"172":0.3470979928970337,"173":-0.5562782287597656,"174":0.2340848445892334,"175":-0.35607972741127014,"176":1.2001299858093262,"177":-0.4428073465824127,"178":-0.21189114451408386,"179":-0.09744583815336227,"180":-0.04514148086309433,"181":0.7504469752311707,"182":0.4708460867404938,"183":-1.0751510858535767,"184":0.6190762519836426,"185":-0.398406982421875,"186":0.05420402064919472,"187":0.6299760341644287,"188":-0.3155316114425659,"189":0.8443695902824402,"190":0.6707320213317871,"191":0.679412841796875,"192":0.701225757598877,"193":-0.7820478081703186,"194":-0.6857599020004272,"195":-0.7384363412857056,"196":-0.44712841510772705,"197":-0.8218294382095337,"198":-1.1687843799591064,"199":-0.13154104351997375,"200":0.5045174956321716,"201":0.6117518544197083,"202":0.1875062733888626,"203":0.1437458097934723,"204":-0.5715581774711609,"205":1.0346884727478027,"206":-0.663600504398346,"207":0.1740475296974182,"208":-0.1848248392343521,"209":0.7237085700035095,"210":-0.023078327998518944,"211":0.669282078742981,"212":-0.4080396592617035,"213":-0.9306066036224365,"214":0.2563105523586273,"215":0.3491891920566559,"216":-0.4948362708091736,"217":-0.49766746163368225,"218":-0.5099299550056458,"219":0.36264440417289734,"220":0.21775460243225098,"221":0.6300370693206787,"222":0.0027661528438329697,"223":0.44198888540267944,"224":-0.11517240107059479,"225":-0.3617069721221924,"226":-0.3720000088214874,"227":-0.7202849984169006,"228":0.16144216060638428,"229":-0.15016603469848633,"230":0.9624090194702148,"231":-0.11676158010959625,"232":-0.06629673391580582,"233":-0.1246139407157898,"234":0.5450417399406433,"235":-0.003926665987819433,"236":0.7641787528991699,"237":-0.522811770439148,"238":-1.4946340322494507,"239":-0.8304625153541565,"240":-0.7938939332962036,"241":1.0688904523849487,"242":0.5181874632835388,"243":0.33673128485679626,"244":0.2782885432243347,"245":0.27827975153923035,"246":0.011004909873008728,"247":-0.5303184986114502,"248":-0.8189355134963989,"249":0.1538453996181488,"250":-1.0045872926712036,"251":0.4763331115245819,"252":0.4864090085029602,"253":-0.12795475125312805,"254":-0.504598081111908,"255":1.0481131076812744,"256":0.4345349669456482,"257":-0.2298918217420578,"258":-0.5433844327926636,"259":-1.0468356609344482,"260":0.1458229273557663,"261":0.05993594974279404,"262":0.19156140089035034,"263":-0.2694345712661743,"264":-0.49816879630088806,"265":0.6620266437530518,"266":-0.06541608273983002,"267":1.4446603059768677,"268":-0.07170645147562027,"269":0.14035014808177948,"270":0.030137203633785248,"271":-0.7891240119934082,"272":0.09357902407646179,"273":-0.029946288093924522,"274":-0.35597914457321167,"275":0.02859983593225479,"276":-1.0155348777770996,"277":0.6239693760871887,"278":-0.03941049054265022,"279":0.7136732935905457,"280":0.12383735179901123,"281":0.5904093980789185,"282":-0.564956784248352,"283":1.4968557357788086,"284":-0.4640633463859558,"285":-0.18074630200862885,"286":-0.2859613299369812,"287":0.6707409024238586,"288":-0.5927885174751282,"289":1.4507665634155273,"290":0.32304465770721436,"291":-0.2991069555282593,"292":0.8603256940841675,"293":-1.4227724075317383,"294":-0.5074800848960876,"295":-0.3975973129272461,"296":-0.3171708583831787,"297":-0.462610125541687,"298":0.5496326088905334,"299":0.3916213810443878,"300":0.3225715160369873,"301":0.470195472240448,"302":0.05333862826228142,"303":0.6128345727920532,"304":-0.25582289695739746,"305":0.4966312646865845,"306":-1.379716396331787,"307":0.35676145553588867,"308":-0.5114799737930298,"309":0.13492955267429352,"310":0.25822213292121887,"311":-0.6764983534812927,"312":0.032870396971702576,"313":0.05941925197839737,"314":-0.19572459161281586,"315":-0.9136565327644348,"316":-0.8971418142318726,"317":0.10984407365322113,"318":-0.328586608171463,"319":1.5025360584259033,"320":0.2580724358558655,"321":0.36483439803123474,"322":0.07839757949113846,"323":-0.0009709979640319943,"324":-0.018926529213786125,"325":0.06184523552656174,"326":0.5145843625068665,"327":-0.15392102301120758,"328":-0.4499454200267792,"329":0.2249995768070221,"330":0.24788348376750946,"331":-0.2003386914730072,"332":0.680865466594696,"333":0.6172745823860168,"334":-0.34810730814933777,"335":0.35942021012306213,"336":0.3581351041793823,"337":-0.09829156845808029,"338":-0.007460837718099356,"339":0.022172216325998306,"340":-0.02599220722913742,"341":-0.507468044757843,"342":-0.3516010046005249,"343":0.43322956562042236,"344":-0.3571845591068268,"345":-0.16919377446174622,"346":-0.1421215683221817,"347":-0.06085026264190674,"348":0.025809329003095627,"349":-0.02738267555832863,