{"type":"LSTM","options":{"inputSize":13,"inputRange":13,"hiddenLayers":[20],"outputSize":13,"decayRate":0.999,"smoothEps":1e-8,"regc":0.000001,"clipval":5,"maxPredictionLength":100,"dataFormatter":{"values":["0+0=0","0+1=1","0+2=2","0+3=3","0+4=4","0+5=5","1+0=1","1+1=2","1+2=3","1+3=4","1+4=5","1+5=6","2+0=2","2+1=3","2+2=4","2+3=5","2+4=6","2+5=7","3+0=3","3+1=4","3+2=5","3+3=6","3+4=7","3+5=8","4+0=4","4+1=5","4+2=6","4+3=7","4+4=8","4+5=9","5+0=5","5+1=6","5+2=7","5+3=8","5+4=9","5+5=10"],"indexTable":{"0":0,"1":3,"2":4,"3":5,"4":6,"5":7,"6":8,"7":9,"8":10,"9":11,"+":1,"=":2,"unrecognized":12},"characterTable":{"0":"0","1":"+","2":"=","3":"1","4":"2","5":"3","6":"4","7":"5","8":"6","9":"7","10":"8","11":"9","12":null},"characters":["0","+","=","1","2","3","4","5","6","7","8","9","unrecognized"],"specialIndexes":[12]}},"input":{"rows":14,"columns":13,"weights":{"0":-1.1062344312667847,"1":-2.121015787124634,"2":-0.2351813018321991,"3":0.4363505244255066,"4":-0.657966673374176,"5":-0.2912726104259491,"6":0.228647381067276,"7":0.18906384706497192,"8":0.44328704476356506,"9":-1.1512213945388794,"10":0.25564825534820557,"11":0.1792987734079361,"12":-0.6742469668388367,"13":2.605602979660034,"14":1.2352734804153442,"15":0.6936852335929871,"16":-1.714930772781372,"17":1.5598024129867554,"18":0.06051948666572571,"19":0.44508832693099976,"20":0.9820827841758728,"21":-1.056140422821045,"22":2.1220951080322266,"23":-0.04892288148403168,"24":1.28001868724823,"25":0.9049580693244934,"26":0.6096097826957703,"27":0.5414773225784302,"28":-1.010990023612976,"29":-0.26526039838790894,"30":-0.7970854043960571,"31":-0.2612442076206207,"32":0.016547739505767822,"33":1.3080509901046753,"34":1.0442626476287842,"35":-0.2420315444469452,"36":-0.030563917011022568,"37":0.3779674172401428,"38":1.6174474954605103,"39":-0.7769641280174255,"40":-0.25028812885284424,"41":0.15031692385673523,"42":0.1835804134607315,"43":0.32417032122612,"44":-0.04778182879090309,"45":-0.0773768201470375,"46":-0.5001629590988159,"47":-0.09857920557260513,"48":0.6596875190734863,"49":-0.2636699974536896,"50":0.06572937965393066,"51":0.06012404337525368,"52":0.8265886306762695,"53":1.0689537525177002,"54":1.7178977727890015,"55":-0.03865101560950279,"56":0.41939887404441833,"57":1.5214306116104126,"58":-0.32194408774375916,"59":-0.22319179773330688,"60":-1.375813364982605,"61":-0.9184772372245789,"62":0.0949164628982544,"63":-0.6449739336967468,"64":1.5202996730804443,"65":2.3974781036376953,"66":0.9735469222068787,"67":0.2960253655910492,"68":0.37866365909576416,"69":0.04682596027851105,"70":-0.7116153836250305,"71":0.21975046396255493,"72":0.43674394488334656,"73":-0.602569580078125,"74":-0.8020001649856567,"75":1.645986795425415,"76":-2.775423765182495,"77":0.6045095324516296,"78":2.1701738834381104,"79":0.11084888875484467,"80":-2.1541550159454346,"81":-0.3531514108181,"82":0.9778047204017639,"83":-0.2046160250902176,"84":0.7398293018341064,"85":0.8663733601570129,"86":-0.5744518041610718,"87":0.6515762209892273,"88":1.3228168487548828,"89":-3.030245065689087,"90":-0.5008415579795837,"91":-0.8911362886428833,"92":1.7553775310516357,"93":2.0712976455688477,"94":-0.5651044249534607,"95":-1.4962294101715088,"96":1.5682814121246338,"97":-0.5116158127784729,"98":-0.8214189410209656,"99":1.6286870241165161,"100":1.4287811517715454,"101":0.2664695978164673,"102":-0.07514975965023041,"103":-0.13601742684841156,"104":1.365867018699646,"105":-1.2507888078689575,"106":-1.6674237251281738,"107":0.9612810611724854,"108":1.7462122440338135,"109":3.0562455654144287,"110":0.15594704449176788,"111":1.6547057628631592,"112":-3.2158584594726562,"113":1.1352468729019165,"114":2.491332530975342,"115":-3.5259487628936768,"116":-2.5672967433929443,"117":1.8192601203918457,"118":1.8843348026275635,"119":-1.218126654624939,"120":0.6704724431037903,"121":0.9064574241638184,"122":2.1507112979888916,"123":0.8033909201622009,"124":1.6839091777801514,"125":0.9759508371353149,"126":0.5361799001693726,"127":1.327757716178894,"128":0.32778725028038025,"129":-1.4025325775146484,"130":1.772328495979309,"131":2.147077798843384,"132":-0.8343816995620728,"133":-0.539415180683136,"134":0.5291072130203247,"135":1.2593498229980469,"136":-0.4813084900379181,"137":1.3365763425827026,"138":0.977590799331665,"139":1.4940065145492554,"140":1.2626419067382812,"141":-0.3906545042991638,"142":-1.4818687438964844,"143":1.3645281791687012,"144":2.357813835144043,"145":1.0765786170959473,"146":0.4483911097049713,"147":-0.9811682105064392,"148":1.4166208505630493,"149":0.7941375970840454,"150":0.5015543699264526,"151":1.3224142789840698,"152":3.4407050609588623,"153":1.8805433511734009,"154":-1.5895222425460815,"155":-3.6827025413513184,"156":5.314550399780273,"157":5.965337753295898,"158":-1.5021253824234009,"159":0.8051387071609497,"160":0.2346828579902649,"161":1.4211825132369995,"162":-0.9673879742622375,"163":-1.4691215753555298,"164":-3.075399398803711,"165":4.844721794128418,"166":0.15546491742134094,"167":-1.4761689901351929,"168":-2.4285888671875,"169":-0.01676389016211033,"170":-0.0014756593154743314,"171":-0.04982299730181694,"172":-0.029231613501906395,"173":-0.07626303285360336,"174":0.06735912710428238,"175":-0.06560619920492172,"176":-0.010746684856712818,"177":0.06633839756250381,"178":-0.01569957099854946,"179":0.014832274988293648,"180":-0.026403402909636497,"181":-0.024476811289787292}},"hiddenLayers":[{"inputMatrix":{"rows":20,"columns":13,"weights":{"0":2.462905168533325,"1":0.9028668403625488,"2":-1.1013447046279907,"3":-0.7555026412010193,"4":0.5782031416893005,"5":-0.6911169290542603,"6":0.8524138331413269,"7":-0.3791768550872803,"8":-0.7095622420310974,"9":-0.1714276224374771,"10":-1.4330562353134155,"11":0.7966330647468567,"12":2.8091318607330322,"13":0.010132992640137672,"14":-2.221057176589966,"15":1.9045000076293945,"16":-2.466446876525879,"17":-0.7946216464042664,"18":-0.5571771264076233,"19":-0.9166276454925537,"20":-0.5011205077171326,"21":-1.0276168584823608,"22":0.3727860152721405,"23":-1.181056022644043,"24":1.929786205291748,"25":-0.5804623961448669,"26":0.9941569566726685,"27":0.8772273659706116,"28":0.7983564734458923,"29":-0.31450462341308594,"30":0.8947691917419434,"31":0.13534702360630035,"32":0.974716305732727,"33":-0.8505707383155823,"34":-0.057975396513938904,"35":-0.13794544339179993,"36":-0.37197086215019226,"37":-0.19699792563915253,"38":1.8526965379714966,"39":-0.7867738604545593,"40":-0.9026367664337158,"41":-2.020350217819214,"42":-0.1955832988023758,"43":0.8424451947212219,"44":-0.20578064024448395,"45":0.48732855916023254,"46":-0.3587662875652313,"47":-0.01714378222823143,"48":1.1481965780258179,"49":-1.509289264678955,"50":1.1518008708953857,"51":-0.08332426846027374,"52":1.5395362377166748,"53":1.5822736024856567,"54":1.1146990060806274,"55":-0.9446325302124023,"56":0.6872732639312744,"57":0.7483130693435669,"58":-0.6301153898239136,"59":0.07190537452697754,"60":-0.17220811545848846,"61":0.6101381182670593,"62":0.3102511167526245,"63":-0.5799835920333862,"64":-0.20373345911502838,"65":0.18727602064609528,"66":1.2178374528884888,"67":1.1478511095046997,"68":-0.4738820493221283,"69":-0.09123507887125015,"70":-0.8347206115722656,"71":-0.6520774364471436,"72":-0.46919891238212585,"73":-0.03431861847639084,"74":-0.05021652579307556,"75":0.17880448698997498,"76":-0.044447075575590134,"77":-0.042433105409145355,"78":2.4273197650909424,"79":0.9195002317428589,"80":-1.0283591747283936,"81":-1.6946353912353516,"82":-0.41862985491752625,"83":0.21367071568965912,"84":0.24663564562797546,"85":3.28277325630188,"86":0.5906949639320374,"87":0.819426417350769,"88":1.2196660041809082,"89":-0.5005055665969849,"90":0.6442920565605164,"91":-0.26462388038635254,"92":-0.4874865412712097,"93":-0.021262113004922867,"94":0.0954425036907196,"95":1.0864989757537842,"96":0.5948600769042969,"97":-0.3404736816883087,"98":-0.24053260684013367,"99":-0.9183048009872437,"100":-0.03375640884041786,"101":0.17122496664524078,"102":-0.16820096969604492,"103":-1.241692066192627,"104":0.8538481593132019,"105":0.6923320293426514,"106":-1.8477431535720825,"107":0.16638460755348206,"108":-0.7306576371192932,"109":0.41967785358428955,"110":1.6060887575149536,"111":0.4800480306148529,"112":0.7647550702095032,"113":1.108290195465088,"114":0.7000003457069397,"115":-1.040488839149475,"116":0.606772243976593,"117":1.2534531354904175,"118":0.062652587890625,"119":1.1946313381195068,"120":-0.35192975401878357,"121":-0.2666347622871399,"122":1.242802619934082,"123":-0.6984320282936096,"124":-0.6470285654067993,"125":-1.6575895547866821,"126":0.23711857199668884,"127":1.3986631631851196,"128":-1.9887511730194092,"129":-0.43687766790390015,"130":0.28083404898643494,"131":-0.3161672055721283,"132":1.994093656539917,"133":0.49791425466537476,"134":1.0999681949615479,"135":0.15493538975715637,"136":0.6900876760482788,"137":-0.5521951913833618,"138":-1.637998342514038,"139":-1.1956133842468262,"140":-0.4259420931339264,"141":-0.09866507351398468,"142":-1.230018138885498,"143":0.31940433382987976,"144":1.325225830078125,"145":1.7802987098693848,"146":0.5433822870254517,"147":-0.2819558382034302,"148":0.3170117437839508,"149":0.4673171043395996,"150":-0.020185861736536026,"151":0.7439265251159668,"152":1.0771597623825073,"153":-0.25446292757987976,"154":0.8533409237861633,"155":0.3039168417453766,"156":0.8173163533210754,"157":2.4270050525665283,"158":0.031546808779239655,"159":-0.811189591884613,"160":-0.8818427324295044,"161":-0.3150092661380768,"162":-0.42123696208000183,"163":0.012807374820113182,"164":1.1825100183486938,"165":0.9556519985198975,"166":0.28177741169929504,"167":-0.12258955836296082,"168":0.7864924669265747,"169":0.15214575827121735,"170":0.19408144056797028,"171":1.094110369682312,"172":-0.9701164960861206,"173":0.4877639412879944,"174":-0.5812035799026489,"175":-0.4124981164932251,"176":-0.40479692816734314,"177":-0.08724310249090195,"178":1.1529021263122559,"179":-1.7733128070831299,"180":3.0265095233917236,"181":-1.259368658065796,"182":0.09168305993080139,"183":-0.34003570675849915,"184":0.600699782371521,"185":-0.18258896470069885,"186":0.3288354277610779,"187":0.4559999108314514,"188":-0.011231103911995888,"189":-0.6531822085380554,"190":-0.7605081796646118,"191":0.6144489645957947,"192":-0.05801760405302048,"193":0.0007327409111894667,"194":0.04863770306110382,"195":0.6198694109916687,"196":0.6435899138450623,"197":2.0302698612213135,"198":-0.46090221405029297,"199":0.07207263261079788,"200":1.1446834802627563,"201":-0.6441956162452698,"202":-0.4512307047843933,"203":-0.9643971920013428,"204":1.2709789276123047,"205":0.019518420100212097,"206":-1.0266492366790771,"207":0.229805588722229,"208":0.7466450333595276,"209":1.018151044845581,"210":1.7010725736618042,"211":0.24154800176620483,"212":0.7764488458633423,"213":0.3948049545288086,"214":-0.3798450529575348,"215":-0.23698242008686066,"216":-0.8454012870788574,"217":-0.02789672464132309,"218":0.08989328891038895,"219":-0.2377796322107315,"220":-0.046548906713724136,"221":-1.6021865606307983,"222":0.28186360001564026,"223":-1.464032769203186,"224":0.6002882122993469,"225":0.2607443630695343,"226":-0.4684489369392395,"227":-1.2935296297073364,"228":0.7237173914909363,"229":0.5675702691078186,"230":0.06673464179039001,"231":2.5567526817321777,"232":-3.179849147796631,"233":-0.6561847925186157,"234":1.6165341138839722,"235":1.2207989692687988,"236":2.254924774169922,"237":-0.9968436360359192,"238":0.8567432761192322,"239":0.5048273205757141,"240":0.6251055002212524,"241":0.04467449337244034,"242":-1.5707861185073853,"243":0.32360395789146423,"244":0.35640519857406616,"245":-1.251290202140808,"246":-0.18120969831943512,"247":-0.79978346824646,"248":-1.082680344581604,"249":0.8483738303184509,"250":0.09608949720859528,"251":1.6223317384719849,"252":-0.17127497494220734,"253":-0.07990691810846329,"254":-0.8291195631027222,"255":-1.8934416770935059,"256":-0.1549844741821289,"257":-1.9005982875823975,"258":1.7612440586090088,"259":0.8643549084663391}},"inputHidden":{"rows":20,"columns":20,"weights":{"0":-0.3073193430900574,"1":2.0716006755828857,"2":-1.2784069776535034,"3":-0.6793860793113708,"4":-0.6736964583396912,"5":-0.3587883710861206,"6":-0.5075914263725281,"7":1.4715288877487183,"8":-0.18978376686573029,"9":2.538745641708374,"10":1.9817947149276733,"11":1.1604372262954712,"12":-0.9319093227386475,"13":-0.764853835105896,"14":-0.11357109993696213,"15":3.0239970684051514,"16":1.9445931911468506,"17":-0.0929861068725586,"18":-2.8156330585479736,"19":1.4892710447311401,"20":-1.652098536491394,"21":-0.4328257143497467,"22":0.9470345973968506,"23":-2.517489194869995,"24":0.09284830093383789,"25":5.025479316711426,"26":0.5616299510002136,"27":2.271514654159546,"28":0.7455086708068848,"29":0.09087581932544708,"30":1.2426340579986572,"31":4.090144634246826,"32":-2.3892087936401367,"33":1.091002106666565,"34":0.10879617929458618,"35":4.150192737579346,"36":0.5782967805862427,"37":-1.3053314685821533,"38":-1.9977445602416992,"39":-2.2134222984313965,"40":4.148269176483154,"41":-4.3690104484558105,"42":-1.5938560962677002,"43":0.1392781287431717,"44":-0.8218684196472168,"45":-2.6262006759643555,"46":0.015937894582748413,"47":0.860230028629303,"48":0.5752701759338379,"49":1.1695945262908936,"50":-4.904393672943115,"51":2.1231467723846436,"52":1.578980803489685,"53":-2.857752561569214,"54":1.6863430738449097,"55":-0.32663682103157043,"56":2.252756357192993,"57":-2.3433992862701416,"58":-0.5497064590454102,"59":1.6325668096542358,"60":1.6323224306106567,"61":-1.198805570602417,"62":-1.7432950735092163,"63":2.396669387817383,"64":-0.5547746419906616,"65":-3.3870298862457275,"66":1.629908800125122,"67":-0.979123592376709,"68":1.6412473917007446,"69":0.6896194815635681,"70":-1.4096843004226685,"71":-0.13394753634929657,"72":2.5987634658813477,"73":-0.1618553251028061,"74":2.314271926879883,"75":-0.5565552711486816,"76":1.0973107814788818,"77":-0.11697236448526382,"78":0.872278094291687,"79":2.2355189323425293,"80":-2.0103747844696045,"81":0.3106710612773895,"82":2.5536768436431885,"83":-3.6855733394622803,"84":-0.23043034970760345,"85":4.923503875732422,"86":0.49285003542900085,"87":-0.2315381020307541,"88":-0.8577121496200562,"89":-0.2921411991119385,"90":-0.30922913551330566,"91":2.0584089756011963,"92":-2.4044294357299805,"93":-1.4948629140853882,"94":-1.6281843185424805,"95":-0.04528395086526871,"96":-0.016252031549811363,"97":0.7965556979179382,"98":-0.7986025810241699,"99":-3.7136805057525635,"100":3.671069622039795,"101":-4.325122833251953,"102":-1.4649653434753418,"103":0.45864343643188477,"104":1.4792042970657349,"105":-1.834086298942566,"106":-0.666823148727417,"107":0.16881795227527618,"108":0.24511781334877014,"109":-1.7352951765060425,"110":-0.010641083121299744,"111":1.6689573526382446,"112":0.6414339542388916,"113":-0.09605266898870468,"114":4.663959503173828,"115":-3.819335699081421,"116":1.7350258827209473,"117":0.5847387909889221,"118":-0.8942795991897583,"119":4.684945106506348,"120":0.5277265906333923,"121":0.19826674461364746,"122":-0.9795483350753784,"123":-0.1453208476305008,"124":-1.3388617038726807,"125":0.05505943298339844,"126":1.577972412109375,"127":1.940066933631897,"128":0.018868451938033104,"129":-0.46389493346214294,"130":-0.7388707399368286,"131":1.1922098398208618,"132":1.9501591920852661,"133":-0.3081706166267395,"134":-0.5676153302192688,"135":-2.9926092624664307,"136":-0.9500773549079895,"137":0.03401966765522957,"138":-0.2583456337451935,"139":-2.1116220951080322,"140":-5.044665813446045,"141":0.719958484172821,"142":3.858550548553467,"143":-1.4467859268188477,"144":1.1093077659606934,"145":5.187526702880859,"146":-1.468114972114563,"147":-0.4059041142463684,"148":-1.4166356325149536,"149":-1.067535638809204,"150":2.0059990882873535,"151":0.39119407534599304,"152":-2.604491949081421,"153":0.5366483926773071,"154":-4.796228885650635,"155":0.028695257380604744,"156":-1.7790192365646362,"157":0.37284722924232483,"158":-0.37732189893722534,"159":-2.182924747467041,"160":-1.027284026145935,"161":-1.2747927904129028,"162":-1.3651396036148071,"163":0.2270907759666443,"164":-1.273360013961792,"165":-2.148169755935669,"166":1.0289182662963867,"167":0.9768779873847961,"168":0.19710448384284973,"169":0.9356818199157715,"170":-4.974959850311279,"171":0.17574995756149292,"172":0.8484782576560974,"173":-1.4866992235183716,"174":0.8701265454292297,"175":1.6885782480239868,"176":2.96066951751709,"177":-0.31047573685646057,"178":-1.2644647359848022,"179":-0.32939985394477844,"180":0.9705868363380432,"181":-2.4154977798461914,"182":0.059612467885017395,"183":-1.5462876558303833,"184":0.43019893765449524,"185":0.5068439841270447,"186":-0.6823304891586304,"187":0.7233660221099854,"188":-0.5424748659133911,"189":-2.125391721725464,"190":-1.8723487854003906,"191":1.7950820922851562,"192":0.018596632406115532,"193":-1.5424460172653198,"194":-2.3106982707977295,"195":-1.582159161567688,"196":-1.150801181793213,"197":0.5048928260803223,"198":-0.05707721784710884,"199":0.8943666219711304,"200":0.8665650486946106,"201":-4.715420722961426,"202":0.005460573825985193,"203":0.9390575885772705,"204":0.9248014092445374,"205":-2.2118263244628906,"206":0.8947393894195557,"207":-0.09758622199296951,"208":1.131003737449646,"209":-0.11006409674882889,"210":-0.6855533719062805,"211":0.8643068671226501,"212":0.12821845710277557,"213":3.1462202072143555,"214":1.1854435205459595,"215":-4.497559070587158,"216":-0.37693390250205994,"217":1.334990382194519,"218":1.7119474411010742,"219":0.6754326820373535,"220":1.8207478523254395,"221":-0.7112765312194824,"222":-2.03532338142395,"223":0.5986189246177673,"224":0.5501564145088196,"225":-3.3613290786743164,"226":-1.0344815254211426,"227":-2.0016071796417236,"228":-0.11021246016025543,"229":-0.09116128832101822,"230":-4.001403331756592,"231":-2.591421604156494,"232":-0.14336426556110382,"233":0.07742759585380554,"234":2.053734064102173,"235":-2.8924360275268555,"236":0.16598103940486908,"237":2.511340856552124,"238":0.39550772309303284,"239":3.7606515884399414,"240":0.12942539155483246,"241":-1.5055357217788696,"242":-1.2782796621322632,"243":-0.6529359221458435,"244":-0.8344986438751221,"245":-3.131399154663086,"246":0.031786780804395676,"247":1.6968014240264893,"248":-0.4416333734989166,"249":0.38169294595718384,"250":-4.739943981170654,"251":1.5627192258834839,"252":0.5693607926368713,"253":-1.325234055519104,"254":1.5782592296600342,"255":1.0833547115325928,"256":3.2202394008636475,"257":-2.0557572841644287,"258":-0.9477248787879944,"259":0.6305044293403625,"260":1.1542662382125854,"261":-0.08274221420288086,"262":-0.10464552789926529,"263":-0.13010214269161224,"264":-0.37190428376197815,"265":2.5028975009918213,"266":0.7777989506721497,"267":4.1381144523620605,"268":1.2467103004455566,"269":-0.3069201111793518,"270":-6.35335636138916,"271":-1.2470645904541016,"272":1.0711027383804321,"273":0.41741129755973816,"274":-1.5179821252822876,"275":-0.49763864278793335,"276":-0.08792094886302948,"277":4.059001922607422,"278":0.3775336742401123,"279":0.3933182656764984,"280":5.939396381378174,"281":-3.152553081512451,"282":-0.5223214030265808,"283":2.9764716625213623,"284":0.9348794221878052,"285":-2.6914749145507812,"286":-0.22737346589565277,"287":0.7660120129585266,"288":0.9674881100654602,"289":-0.9279288053512573,"290":-2.586326837539673,"291":0.7092254161834717,"292":1.346967339515686,"293":1.647223711013794,"294":4.838818073272705,"295":-0.30286720395088196,"296":0.04573787748813629,"297":-0.6825507879257202,"298":-1.2901568412780762,"299":3.48225474357605,"300":0.652193009853363,"301":-0.9422799348831177,"302":-0.6625105142593384,"303":-2.752915620803833,"304":-0.26281529664993286,"305":1.6922982931137085,"306":-3.2627387046813965,"307":1.7094577550888062,"308":-0.8210861086845398,"309":1.1376817226409912,"310":0.23215441405773163,"311":0.1670517772436142,"312":-2.2913107872009277,"313":0.3249911069869995,"314":-0.9349579811096191,"315":2.5797507762908936,"316":1.8084630966186523,"317":-2.708038330078125,"318":-1.1766092777252197,"319":-0.4064822494983673,"320":-0.828613817691803,"321":-2.054013252258301,"322":-0.019787579774856567,"323":-0.6739287376403809,"324":0.17799919843673706,"325":-2.0901780128479004,"326":-0.4076959490776062,"327":-1.0722861289978027,"328":-1.4600844383239746,"329":-0.9415610432624817,"330":-5.39260721206665,"331":1.430464744567871,"332":-0.8411623239517212,"333":2.212803363800049,"334":0.0525360107421875,"335":0.5560219883918762,"336":-0.20395343005657196,"337":0.677747368812561,"338":-1.6151434183120728,"339":0.8229464292526245,"340":-0.2504425048828125,"341":-0.07176496833562851,"342":1.2783148288726807,"343":-1.0237736701965332,"344":0.31189846992492676,"345":4.418343544006348,"346":-0.575179398059845,"347":1.8685797452926636,"348":1.5585190057754517,"349":-0.3608088791370392,"350":1.9107295274734497,"351":3.1474497318267822,"352":-1.8731849193572998,"353":0.614422082901001,"354":-1.2890433073043823,"355":3.1213178634643555,"356":0.6672089099884033,"357":-1.4016022682189941,"358":-2.7009291648864746,"359":-3.406249761581421,"360":3.6330535411834717,"361":-4.327707767486572,"362":-1.2630815505981445,"363":-2.129258871078491,"364":1.1584234237670898,"365":0.4075329899787903,"366":-1.4530925750732422,"367":0.32699236273765564,"368":1.048547625541687,"369":-0.7906138300895691,"370":-2.3761377334594727,"371":2.8681108951568604,"372":1.2063090801239014,"373":0.23531867563724518,"374":-0.6421041488647461,"375":1.8198301792144775,"376":1.1820110082626343,"377":-3.8958375453948975,"378":-0.19578766822814941,"379":-1.1924057006835938,"380":-0.6613250374794006,"381":3.503005027770996,"382":1.1146302223205566,"383":0.08117350190877914,"384":-1.3535661697387695,"385":0.42695721983909607,"386":0.25677037239074707,"387":1.2789069414138794,"388":0.163798525929451,"389":0.9746905565261841,"390":-0.5076383352279663,"391":-3.3216514587402344,"392":0.07807525247335434,"393":-1.884881615638733,"394":1.3215532302856445,"395":-0.22035057842731476,"396":-0.24684834480285645,"397":0.2091420292854309,"398":-1.3257935047149658,"399":1.5923690795898438}},"inputBias":{"rows":20,"columns":1,"weights":{"0":-0.9234628677368164,"1":1.8178850412368774,"2":0.25528135895729065,"3":0.9441133737564087,"4":-0.0541028194129467,"5":-1.7919281721115112,"6":-0.47734564542770386,"7":-1.0838600397109985,"8":0.9410497546195984,"9":-0.695974588394165,"10":0.6936978697776794,"11":-0.7343470454216003,"12":0.15400566160678864,"13":-1.398408055305481,"14":-0.5392181873321533,"15":-1.2222148180007935,"16":-0.6401040554046631,"17":-0.6912663578987122,"18":-0.37174978852272034,"19":0.11740297824144363}},"forgetMatrix":{"rows":20,"columns":13,"weights":{"0":-0.18438459932804108,"1":-0.555593729019165,"2":0.0302263293415308,"3":-0.005871078465133905,"4":-0.5445106625556946,"5":-0.31812191009521484,"6":-0.5019118785858154,"7":0.01200519222766161,"8":-0.7392941117286682,"9":-0.051307350397109985,"10":-0.3011159598827362,"11":0.17303763329982758,"12":-0.5782161355018616,"13":-0.6595024466514587,"14":-2.0679972171783447,"15":-2.560967445373535,"16":-0.11449775844812393,"17":-0.2136254757642746,"18":1.2021965980529785,"19":-0.5191468596458435,"20":0.5768279433250427,"21":0.38741058111190796,"22":0.6708466410636902,"23":-0.005951941478997469,"24":0.02716175466775894,"25":0.005559376906603575,"26":1.2471859455108643,"27":0.5003777742385864,"28":-0.2670542597770691,"29":0.0995410904288292,"30":-1.3158128261566162,"31":-0.28515347838401794,"32":0.8455207943916321,"33":1.1088498830795288,"34":1.6706959009170532,"35":1.1507587432861328,"36":0.8908041715621948,"37":-0.6579633355140686,"38":-0.3877357542514801,"39":0.07777882367372513,"40":-1.5058257579803467,"41":-0.5746562480926514,"42":0.8184643387794495,"43":-0.4394572079181671,"44":0.02554043009877205,"45":0.15120232105255127,"46":0.05439271405339241,"47":0.17619091272354126,"48":-0.6553903222084045,"49":0.22850187122821808,"50":-0.08382517099380493,"51":-2.154207944869995,"52":-0.21081498265266418,"53":-0.8150843977928162,"54":-0.31046968698501587,"55":-0.030980156734585762,"56":0.8050480484962463,"57":-0.0431353934109211,"58":-0.6994518637657166,"59":-0.09392719715833664,"60":-0.39176562428474426,"61":0.32986360788345337,"62":-0.4642059803009033,"63":0.7004090547561646,"64":-1.472631573677063,"65":2.1764280796051025,"66":0.3231968283653259,"67":0.4063270688056946,"68":-2.0887649059295654,"69":-0.3298124372959137,"70":1.3801733255386353,"71":-0.2890159487724304,"72":2.2607181072235107,"73":-0.16302044689655304,"74":0.09202364832162857,"75":1.028546929359436,"76":-0.5640190243721008,"77":0.029792914167046547,"78":1.655564308166504,"79":-0.2649066150188446,"80":0.5685379505157471,"81":-1.714365839958191,"82":0.5751186609268188,"83":-0.6899616122245789,"84":-2.249288320541382,"85":0.6660253405570984,"86":-1.9083081483840942,"87":0.29528674483299255,"88":1.4822924137115479,"89":-1.0626907348632812,"90":-0.8355839252471924,"91":0.10875345021486282,"92":-0.21564380824565887,"93":0.09332923591136932,"94":-0.7418450117111206,"95":-0.19037353992462158,"96":-1.0174988508224487,"97":-1.2071439027786255,"98":-0.8237102031707764,"99":-0.30707794427871704,"100":0.18710969388484955,"101":0.3783099353313446,"102":-0.5149422883987427,"103":-0.037636030465364456,"104":-1.0538362264633179,"105":-1.7740397453308105,"106":0.33433493971824646,"107":0.8778302669525146,"108":0.027968503534793854,"109":0.1414985954761505,"110":-1.3505852222442627,"111":-0.35324323177337646,"112":-1.0127458572387695,"113":-1.227428913116455,"114":-0.11835436522960663,"115":0.29239127039909363,"116":-1.1162927150726318,"117":-1.3125826120376587,"118":-2.0923430919647217,"119":-0.07868286222219467,"120":-0.03221407160162926,"121":0.2656139135360718,"122":0.35085949301719666,"123":-1.3621773719787598,"124":-1.4880186319351196,"125":-1.0757215023040771,"126":0.21495521068572998,"127":0.7549464106559753,"128":-0.8464223742485046,"129":-1.8834370374679565,"130":-0.7572435736656189,"131":-0.9967342019081116,"132":-1.9871249198913574,"133":0.3540399968624115,"134":-1.0784815549850464,"135":0.6277369856834412,"136":0.2473582774400711,"137":0.5962846279144287,"138":1.2128498554229736,"139":0.3646281659603119,"140":-0.5201761722564697,"141":0.6437186598777771,"142":-0.24481303989887238,"143":1.084999918937683,"144":-0.4636337459087372,"145":-0.32154080271720886,"146":-0.4158911406993866,"147":0.5795316696166992,"148":-1.6715083122253418,"149":0.2828674614429474,"150":0.18106360733509064,"151":1.0704091787338257,"152":-0.8166429996490479,"153":-0.7210582494735718,"154":1.2237991094589233,"155":-0.22241494059562683,"156":1.7560360431671143,"157":0.7976728677749634,"158":-0.22527098655700684,"159":-1.9874135255813599,"160":-0.7006525993347168,"161":0.18602441251277924,"162":-0.07204074412584305,"163":0.9341182708740234,"164":-0.12843219935894012,"165":0.9984495639801025,"166":0.8437803387641907,"167":-1.0932261943817139,"168":1.0290850400924683,"169":1.1167867183685303,"170":1.2032617330551147,"171":0.6770797371864319,"172":-1.142122507095337,"173":0.5636151432991028,"174":-0.6306259632110596,"175":-0.2500261068344116,"176":0.38208866119384766,"177":-0.5328633785247803,"178":-0.7948082089424133,"179":0.08289410918951035,"180":-0.5421754717826843,"181":0.25814288854599,"182":2.3567304611206055,"183":0.31225714087486267,"184":0.5688689947128296,"185":-1.675955057144165,"186":0.008715220727026463,"187":1.6420965194702148,"188":0.03182998672127724,"189":0.9443019032478333,"190":-1.099475622177124,"191":0.6264087557792664,"192":0.487511545419693,"193":-0.9147911667823792,"194":-0.9035660028457642,"195":-2.1250243186950684,"196":-1.8159552812576294,"197":-1.0048176050186157,"198":0.9918131232261658,"199":-0.9315816164016724,"200":1.222452163696289,"201":0.6145309805870056,"202":0.06868821382522583,"203":1.066128134727478,"204":1.9958351850509644,"205":0.7552433013916016,"206":-0.5366266369819641,"207":-0.974511981010437,"208":0.7400639653205872,"209":0.19699755311012268,"210":0.06005880981683731,"211":-0.4762638211250305,"212":0.874481737613678,"213":0.39607346057891846,"214":0.19820520281791687,"215":-0.6229642033576965,"216":-1.334157943725586,"217":0.3119429051876068,"218":-0.2384295016527176,"219":-0.46272459626197815,"220":0.13308262825012207,"221":-0.3847767412662506,"222":-1.9768691062927246,"223":-0.9728829264640808,"224":-0.4078806936740875,"225":-0.6422075629234314,"226":0.11777276545763016,"227":0.7179859280586243,"228":0.1238376572728157,"229":0.9153991937637329,"230":0.36102989315986633,"231":-0.44207391142845154,"232":0.24965153634548187,"233":-1.0386099815368652,"234":-0.02332998625934124,"235":-0.7865282297134399,"236":0.06323296576738358,"237":-0.30928751826286316,"238":-0.2387763112783432,"239":-0.04055643454194069,"240":-0.8312914967536926,"241":0.7750582098960876,"242":0.0788961797952652,"243":0.8262155055999756,"244":-0.2212185263633728,"245":0.5037093162536621,"246":-0.541927695274353,"247":1.6400620937347412,"248":1.0366171598434448,"249":0.9262057542800903,"250":-1.9676017761230469,"251":0.02582266367971897,"252":0.8888028860092163,"253":-1.4202520847320557,"254":1.6175305843353271,"255":-0.2983500361442566,"256":-0.519688069820404,"257":0.28108397126197815,"258":0.35812538862228394,"259":-0.26143357157707214}},"forgetHidden":{"rows":20,"columns":20,"weights":{"0":-5.740118980407715,"1":-0.011863159015774727,"2":0.8172730207443237,"3":0.7309804558753967,"4":0.35180172324180603,"5":2.056165933609009,"6":0.3967137932777405,"7":-0.5597254633903503,"8":-0.532001793384552,"9":-1.639814853668213,"10":-0.23046286404132843,"11":-0.4730316996574402,"12":-0.4509730041027069,"13":0.9180276393890381,"14":-0.9760093688964844,"15":0.33439475297927856,"16":-2.043224334716797,"17":-0.47479668259620667,"18":-0.2718973159790039,"19":-1.7630970478057861,"20":1.6451432704925537,"21":2.040708541870117,"22":-0.972706139087677,"23":-0.7006426453590393,"24":-1.2874183654785156,"25":-0.19333933293819427,"26":-0.536863386631012,"27":1.374714732170105,"28":1.9108859300613403,"29":0.5086622834205627,"30":1.2638710737228394,"31":0.6757730841636658,"32":0.9820358157157898,"33":-1.6862481832504272,"34":-0.3096311688423157,"35":1.189154863357544,"36":0.5601248741149902,"37":0.1443023681640625,"38":-1.2915723323822021,"39":1.755576252937317,"40":-1.25760018825531,"41":-2.070443630218506,"42":-0.2757802903652191,"43":-0.2658904790878296,"44":-0.26779723167419434,"45":0.8019070625305176,"46":-1.9417437314987183,"47":-1.179792046546936,"48":-2.271479606628418,"49":-0.42339351773262024,"50":-0.23782597482204437,"51":-1.8848762512207031,"52":-0.9676429629325867,"53":-1.297979712486267,"54":1.1566147804260254,"55":-1.4111745357513428,"56":1.0799002647399902,"57":-0.20899254083633423,"58":1.3104678392410278,"59":0.6723139882087708,"60":-1.5909041166305542,"61":-0.8269287943840027,"62":0.17435061931610107,"63":1.1999846696853638,"64":2.895904064178467,"65":4.834899425506592,"66":0.7006804347038269,"67":-3.5485198497772217,"68":1.0208828449249268,"69":-3.2983756065368652,"70":2.2975075244903564,"71":1.357498288154602,"72":0.7921228408813477,"73":-0.49342790246009827,"74":0.1041816920042038,"75":-0.6157923936843872,"76":-1.2925972938537598,"77":-2.3204405307769775,"78":0.17073246836662292,"79":-4.255759239196777,"80":0.6547225117683411,"81":1.9175550937652588,"82":-0.8179427981376648,"83":0.6469805836677551,"84":0.1650211364030838,"85":-0.3825477361679077,"86":-1.0672237873077393,"87":-0.3407635986804962,"88":-0.5928707122802734,"89":0.485200434923172,"90":0.12439946830272675,"91":-1.3755848407745361,"92":1.9765255451202393,"93":3.3561556339263916,"94":0.18706363439559937,"95":-0.8817907571792603,"96":-1.0285757780075073,"97":-0.8117704391479492,"98":-0.5653149485588074,"99":2.295229434967041,"100":2.477670669555664,"101":1.7904503345489502,"102":-1.49844491481781,"103":-1.0083816051483154,"104":-0.22791360318660736,"105":1.1334761381149292,"106":-0.6153261065483093,"107":-0.3604569435119629,"108":-2.976881265640259,"109":1.3388327360153198,"110":2.634655237197876,"111":-1.5754071474075317,"112":-0.5969130396842957,"113":-0.32893261313438416,"114":-4.498501300811768,"115":-0.1746799200773239,"116":-0.6228929758071899,"117":0.26974430680274963,"118":1.7593272924423218,"119":-1.176431655883789,"120":0.21549558639526367,"121":-1.554866075515747,"122":0.7173212170600891,"123":-0.2943004369735718,"124":0.6630715727806091,"125":0.45650577545166016,"126":-0.6812129616737366,"127":0.04434696212410927,"128":0.13590537011623383,"129":-0.7796260118484497,"130":-1.6691361665725708,"131":-0.4828060269355774,"132":-0.9062474966049194,"133":1.0005379915237427,"134":0.44198718667030334,"135":-0.0824868232011795,"136":-0.7299305200576782,"137":-0.644256591796875,"138":-0.746438205242157,"139":0.7089737057685852,"140":3.3948814868927,"141":-2.1508445739746094,"142":-3.30985426902771,"143":-0.08239340782165527,"144":-0.25595033168792725,"145":-2.0711729526519775,"146":-1.0289863348007202,"147":0.5124409794807434,"148":0.02299182116985321,"149":1.4035670757293701,"150":-0.4142407178878784,"151":-1.196083903312683,"152":3.5297086238861084,"153":0.22923609614372253,"154":5.737032890319824,"155":-0.3267912268638611,"156":0.7843911051750183,"157":-0.9904196262359619,"158":-0.8954516053199768,"159":0.2561120092868805,"160":1.943004846572876,"161":3.092656135559082,"162":0.7618041038513184,"163":0.5778949856758118,"164":2.202413558959961,"165":1.6985113620758057,"166":0.18864566087722778,"167":-2.800030469894409,"168":0.8543875813484192,"169":-0.7233039736747742,"170":3.3872692584991455,"171":-0.2538680136203766,"172":0.053256433457136154,"173":1.636222004890442,"174":0.24586664140224457,"175":-2.907465934753418,"176":-1.1993712186813354,"177":-0.4027746021747589,"178":1.0150909423828125,"179":-0.6913052797317505,"180":1.0750927925109863,"181":0.5884972810745239,"182":0.08881411701440811,"183":-0.7236948609352112,"184":-0.13200023770332336,"185":-0.5835903882980347,"186":-0.7793763875961304,"187":0.8010110259056091,"188":0.026731479912996292,"189":1.283045768737793,"190":0.7746202349662781,"191":-0.915998101234436,"192":0.3908156752586365,"193":0.8174669742584229,"194":-0.726246178150177,"195":0.6878512501716614,"196":0.5401371121406555,"197":1.2023611068725586,"198":-1.671130895614624,"199":0.675581157207489,"200":1.7769486904144287,"201":2.6887192726135254,"202":0.23155662417411804,"203":-0.45360836386680603,"204":-1.230377435684204,"205":-0.11244478076696396,"206":-0.7424669861793518,"207":2.2163686752319336,"208":-0.09429765492677689,"209":1.7845513820648193,"210":3.045621395111084,"211":0.6980036497116089,"212":-0.4490506052970886,"213":0.009677673690021038,"214":0.23220935463905334,"215":0.44343888759613037,"216":0.43885836005210876,"217":-0.3243536353111267,"218":-1.4201688766479492,"219":1.8806763887405396,"220":-0.0894189402461052,"221":1.1592869758605957,"222":2.5860533714294434,"223":-1.0660957098007202,"224":0.14014573395252228,"225":6.031831741333008,"226":-0.6756143569946289,"227":0.3007763922214508,"228":0.22914904356002808,"229":0.7229801416397095,"230":1.8091222047805786,"231":0.6769342422485352,"232":-0.7375614643096924,"233":1.5620064735412598,"234":-0.42971912026405334,"235":2.0800938606262207,"236":-0.9813093543052673,"237":-3.552685022354126,"238":0.06842144578695297,"239":-2.1054883003234863,"240":1.8326061964035034,"241":0.6568939685821533,"242":-0.7373995780944824,"243":-1.0658926963806152,"244":-1.1905043125152588,"245":-0.036128539592027664,"246":-1.4500590562820435,"247":-0.0012985534267500043,"248":-0.13356901705265045,"249":0.5953018069267273,"250":1.951714277267456,"251":-1.19631826877594,"252":-2.487513303756714,"253":-2.240652084350586,"254":3.420794725418091,"255":-0.3851291239261627,"256":1.7314112186431885,"257":-1.8544588088989258,"258":0.8617662191390991,"259":2.726444959640503,"260":-1.1005609035491943,"261":0.839431643486023,"262":0.4657028019428253,"263":2.9792237281799316,"264":0.4538271129131317,"265":-2.493238925933838,"266":-0.14449812471866608,"267":-8.421793937683105,"268":0.10974285006523132,"269":-0.5361064672470093,"270":1.3555924892425537,"271":-1.8828098773956299,"272":-1.0480015277862549,"273":-0.7937964797019958,"274":3.446237802505493,"275":-3.1246325969696045,"276":-0.26951512694358826,"277":-2.9020721912384033,"278":2.253873109817505,"279":0.4514256715774536,"280":0.02932976745069027,"281":-0.5692135095596313,"282":-0.03101387806236744,"283":-0.01813201792538166,"284":3.100555658340454,"285":2.502169370651245,"286":-0.5081791877746582,"287":-3.1609292030334473,"288":-1.8658894300460815,"289":-0.6249733567237854,"290":-2.3180015087127686,"291":1.8885297775268555,"292":-0.008902856148779392,"293":2.158857822418213,"294":-1.9285019636154175,"295":0.9965173602104187,"296":-0.8048824071884155,"297":-0.18771083652973175,"298":1.106023907661438,"299":-3.938333749771118,"300":0.5466951131820679,"301":0.2244686782360077,"302":0.49781450629234314,"303":-2.0620129108428955,"304":-0.40269139409065247,"305":0.9574751853942871,"306":0.13142195343971252,"307":2.082186222076416,"308":0.11315927654504776,"309":1.1423896551132202,"310":-0.8925256729125977,"311":-0.11403633654117584,"312":-0.7273373007774353,"313":-0.4707130789756775,"314":-0.8133833408355713,"315":0.7908241748809814,"316":0.9533491730690002,"317":1.4818826913833618,"318":-1.7078921794891357,"319":1.4060972929000854,"320":-2.276491403579712,"321":0.9191213846206665,"322":0.4630822241306305,"323":-2.22476863861084,"324":-1.430037260055542,"325":2.6816372871398926,"326":0.06343479454517365,"327":0.3762649595737457,"328":0.06815827637910843,"329":1.2945359945297241,"330":-1.364558458328247,"331":-0.4151397943496704,"332":-0.231966033577919,"333":0.9867945909500122,"334":0.07449876517057419,"335":0.12893250584602356,"336":0.7372989654541016,"337":-0.9611193537712097,"338":0.2983790338039398,"339":-1.3739008903503418,"340":-1.0216114521026611,"341":-0.5893128514289856,"342":0.284241259098053,"343":-0.7513704299926758,"344":-0.9323229193687439,"345":-2.235382318496704,"346":1.4084696769714355,"347":0.6092675924301147,"348":-0.24813202023506165,"349":-1.2479655742645264,"350":-1.3695306777954102,"351":3.9231467247009277,"352":-2.2983522415161133,"353":-0.393359899520874,"354":2.4865074157714844,"355":1.3367244005203247,"356":0.6222639679908752,"357":-2.641704797744751,"358":-0.7170996069908142,"359":-0.5643988847732544,"360":3.3682637214660645,"361":-0.6741112470626831,"362":-2.129739284515381,"363":1.4941703081130981,"364":-0.3243195414543152,"365":-3.3055288791656494,"366":-0.7924608588218689,"367":0.9338079690933228,"368":1.5243836641311646,"369":0.9478763341903687,"370":-2.2403852939605713,"371":-0.15231014788150787,"372":3.4773194789886475,"373":-2.8349411487579346,"374":2.1893203258514404,"375":-0.53473299741745,"376":1.1635528802871704,"377":-1.383494257926941,"378":-0.9694835543632507,"379":0.9730808138847351,"380":-0.547046959400177,"381":0.5708599090576172,"382":0.22623679041862488,"383":0.9733512997627258,"384":0.577154278755188,"385":-0.5248676538467407,"386":-2.4705798625946045,"387":-2.2935898303985596,"388":-1.9329304695129395,"389":0.07672484964132309,"390":0.772045910358429,"391":-1.4828064441680908,"392":-1.875832200050354,"393":-0.40582993626594543,"394":-1.5178195238113403,"395":-0.9748237729072571,"396":-0.8896549940109253,"397":-1.249259352684021,"398":1.066536545753479,"399":-0.20488542318344116}},"forgetBias":{"rows":20,"columns":1,"weights":{"0":0,"1":0,"2":0,"3":0,"4":0,"5":0,"6":0,"7":0,"8":0,"9":0,"10":0,"11":0,"12":0,"13":0,"14":0,"15":0,"16":0,"17":0,"18":0,"19":0}},"outputMatrix":{"rows":20,"columns":13,"weights":{"0":-0.9701189994812012,"1":-0.9568117260932922,"2":0.22946175932884216,"3":0.6696109771728516,"4":0.13888727128505707,"5":0.0675264522433281,"6":0.20013155043125153,"7":-0.8873376250267029,"8":-0.025483421981334686,"9":1.6392900943756104,"10":0.7800806760787964,"11":-0.818081796169281,"12":-2.126512050628662,"13":-0.5582314729690552,"14":-2.649872303009033,"15":2.1119871139526367,"16":-0.530310869216919,"17":-0.319948673248291,"18":1.4637377262115479,"19":-1.8219088315963745,"20":-0.5897716283798218,"21":-0.777445375919342,"22":0.8851608037948608,"23":0.027820631861686707,"24":1.168681025505066,"25":-2.2402241230010986,"26":0.0329347588121891,"27":-0.5711042284965515,"28":0.6347671747207642,"29":-0.3087305724620819,"30":0.23603716492652893,"31":1.5177253484725952,"32":-1.3164221048355103,"33":-0.9441229104995728,"34":-1.0247917175292969,"35":2.051058292388916,"36":0.550224781036377,"37":-1.3110859394073486,"38":-1.0636818408966064,"39":1.0423213243484497,"40":0.4484364688396454,"41":-1.5549992322921753,"42":-0.4213845133781433,"43":1.1412514448165894,"44":0.6098527908325195,"45":0.8179524540901184,"46":1.2501758337020874,"47":-0.24572016298770905,"48":1.0096626281738281,"49":0.041724950075149536,"50":-0.5435492396354675,"51":1.3529719114303589,"52":0.9098727107048035,"53":1.2152599096298218,"54":2.862797975540161,"55":-0.3137321174144745,"56":1.3953951597213745,"57":-0.0999797061085701,"58":-1.2470946311950684,"59":-0.4161781370639801,"60":-1.0774304866790771,"61":0.07841696590185165,"62":0.6183456182479858,"63":-0.37404727935791016,"64":-0.7026207447052002,"65":0.8233827352523804,"66":-0.27186068892478943,"67":-0.5532013177871704,"68":-0.7658019065856934,"69":-0.6641730666160583,"70":0.6637601256370544,"71":-0.043166499584913254,"72":0.36814412474632263,"73":-0.6647278070449829,"74":1.781790018081665,"75":-0.9561241865158081,"76":0.3884539306163788,"77":0.2542423605918884,"78":3.905475378036499,"79":-0.3175280690193176,"80":-0.7738859057426453,"81":-1.8993991613388062,"82":-0.4240625202655792,"83":-0.4305466413497925,"84":-1.1138474941253662,"85":2.979259490966797,"86":-0.5378156900405884,"87":-0.5293301939964294,"88":1.3017544746398926,"89":-0.31425076723098755,"90":0.566440224647522,"91":0.30336451530456543,"92":0.3725768029689789,"93":0.03821148723363876,"94":-1.0163123607635498,"95":0.3478749990463257,"96":1.5698022842407227,"97":-1.1125504970550537,"98":0.7638735771179199,"99":-1.4188083410263062,"100":1.286238431930542,"101":-0.44643229246139526,"102":0.7179610133171082,"103":-0.7518738508224487,"104":1.8406745195388794,"105":0.06958045065402985,"106":-2.690906047821045,"107":-0.2940649390220642,"108":-0.9920114278793335,"109":0.053839992731809616,"110":0.6109490394592285,"111":2.356865644454956,"112":0.39894041419029236,"113":1.1949131488800049,"114":1.016400933265686,"115":-0.7602913975715637,"116":1.264453649520874,"117":0.8964293003082275,"118":0.4378555715084076,"119":0.9228201508522034,"120":-0.680006742477417,"121":-0.3468158543109894,"122":1.0120657682418823,"123":-1.2001067399978638,"124":-0.7684333324432373,"125":-0.9570798277854919,"126":0.19717980921268463,"127":2.1067111492156982,"128":-2.743314504623413,"129":-0.5126572251319885,"130":-0.9024555683135986,"131":-1.547558069229126,"132":2.12050199508667,"133":0.11344484984874725,"134":0.5594172477722168,"135":1.5503062009811401,"136":0.09825871139764786,"137":-0.7298463582992554,"138":-1.2708473205566406,"139":-0.1937190592288971,"140":-0.7349329590797424,"141":0.9310504198074341,"142":-1.5349076986312866,"143":0.17305609583854675,"144":1.1585121154785156,"145":3.0031166076660156,"146":-0.20611192286014557,"147":1.9244799613952637,"148":-1.1942609548568726,"149":-0.19101524353027344,"150":-1.1082972288131714,"151":-0.9968708157539368,"152":0.6436865329742432,"153":0.10916558653116226,"154":-0.5725585222244263,"155":-0.7496980428695679,"156":1.2287019491195679,"157":-0.2703665494918823,"158":-2.406460762023926,"159":-1.2355149984359741,"160":-0.45310989022254944,"161":0.3371461033821106,"162":0.5938099026679993,"163":1.0604792833328247,"164":0.9255728125572205,"165":3.281986951828003,"166":-0.4805237054824829,"167":0.26485180854797363,"168":-0.662113606929779,"169":-0.08275663107633591,"170":1.171076774597168,"171":2.678462266921997,"172":0.2568393349647522,"173":1.1774895191192627,"174":-0.07759194821119308,"175":-0.30606767535209656,"176":-1.5771485567092896,"177":-0.36200886964797974,"178":0.19531835615634918,"179":-1.0540807247161865,"180":1.129982829093933,"181":-0.503325343132019,"182":0.8546358942985535,"183":-1.4856255054473877,"184":-2.3696587085723877,"185":-0.8464974761009216,"186":0.8521279096603394,"187":0.4563133716583252,"188":-0.8424221873283386,"189":0.3989233076572418,"190":-1.1507022380828857,"191":1.0087592601776123,"192":-0.5167632102966309,"193":0.3849612772464752,"194":0.5141339302062988,"195":-1.242807149887085,"196":0.011214380152523518,"197":-0.44397780299186707,"198":0.9791058897972107,"199":0.23242391645908356,"200":-0.016472885385155678,"201":0.13880589604377747,"202":-1.3848859071731567,"203":-0.241011843085289,"204":1.0613242387771606,"205":0.9139620661735535,"206":-1.4289895296096802,"207":-1.1791878938674927,"208":1.4653990268707275,"209":1.5268744230270386,"210":2.022644519805908,"211":-0.5732324719429016,"212":2.149388551712036,"213":1.1868865489959717,"214":0.4166266918182373,"215":-0.5035301446914673,"216":-2.108640432357788,"217":0.9695721864700317,"218":-0.05453362315893173,"219":-1.0037598609924316,"220":-0.6318032741546631,"221":-0.11314095556735992,"222":1.8908718824386597,"223":2.494656562805176,"224":0.8997015953063965,"225":0.851482629776001,"226":-0.33920255303382874,"227":0.5977868437767029,"228":-1.9585193395614624,"229":0.37852346897125244,"230":1.3296260833740234,"231":-0.5375977754592896,"232":-0.24456113576889038,"233":1.2000457048416138,"234":-0.174313485622406,"235":-0.5754601955413818,"236":1.0509532690048218,"237":1.045336365699768,"238":0.3807571530342102,"239":0.2861509621143341,"240":0.2456798553466797,"241":-1.1215447187423706,"242":-0.7325047850608826,"243":0.36413073539733887,"244":0.6501175761222839,"245":-1.5283894538879395,"246":-0.8711791038513184,"247":1.5257655382156372,"248":1.071790337562561,"249":0.32117754220962524,"250":-0.947808563709259,"251":0.03408610448241234,"252":0.5563318729400635,"253":-0.5729073882102966,"254":0.6199982762336731,"255":-0.2197616696357727,"256":0.955855667591095,"257":-0.052246108651161194,"258":0.11680086702108383,"259":1.0010266304016113}},"outputHidden":{"rows":20,"columns":20,"weights":{"0":1.5108630657196045,"1":0.5657468438148499,"2":-0.5595408082008362,"3":-3.80798077583313,"4":-0.9456910490989685,"5":1.3088634014129639,"6":-3.6455721855163574,"7":2.8460981845855713,"8":-1.4426294565200806,"9":1.2691675424575806,"10":0.07947466522455215,"11":-0.2631225287914276,"12":-2.7888376712799072,"13":-0.440064400434494,"14":-1.1646658182144165,"15":2.6492795944213867,"16":1.0587551593780518,"17":0.975337564945221,"18":-3.0920093059539795,"19":2.272003412246704,"20":-0.1306038796901703,"21":0.06706714630126953,"22":0.5197457075119019,"23":-2.6143178939819336,"24":-0.4795311689376831,"25":-0.5213950872421265,"26":-0.7446903586387634,"27":1.4264426231384277,"28":-0.44885608553886414,"29":0.6410578489303589,"30":-2.4495291709899902,"31":0.07757982611656189,"32":0.009198560379445553,"33":-0.8217692971229553,"34":-0.44284552335739136,"35":2.6399283409118652,"36":0.5148576498031616,"37":-0.8102084398269653,"38":-2.6156277656555176,"39":1.166015386581421,"40":0.9402492642402649,"41":-0.3871808648109436,"42":-0.5232219696044922,"43":-2.4129061698913574,"44":-0.9455212950706482,"45":0.8572480082511902,"46":-1.0756291151046753,"47":0.9797123670578003,"48":0.021493902429938316,"49":1.1025139093399048,"50":-2.8424432277679443,"51":-0.2535245716571808,"52":-1.2999807596206665,"53":-0.4512392580509186,"54":-1.213037133216858,"55":0.15785226225852966,"56":1.645179271697998,"57":0.27564558386802673,"58":-1.7757582664489746,"59":0.16230253875255585,"60":4.096311092376709,"61":-0.884126603603363,"62":-2.11661958694458,"63":1.5163055658340454,"64":0.001057405723258853,"65":-4.268981456756592,"66":-1.1826180219650269,"67":-1.6172481775283813,"68":0.8146774172782898,"69":-0.0761570930480957,"70":0.8756948113441467,"71":-1.577339768409729,"72":1.3412610292434692,"73":-0.21517471969127655,"74":-0.6368168592453003,"75":-0.8652848601341248,"76":1.4597432613372803,"77":0.6162161827087402,"78":0.439449280500412,"79":6.361090660095215,"80":-0.10584433376789093,"81":0.8854874968528748,"82":2.4969420433044434,"83":-1.5421518087387085,"84":0.34560278058052063,"85":3.726865530014038,"86":-0.3703750669956207,"87":-0.11202879250049591,"88":-0.4507211744785309,"89":-0.44496551156044006,"90":0.2721843421459198,"91":1.9173712730407715,"92":-1.3036513328552246,"93":-0.49940046668052673,"94":-2.3826723098754883,"95":-0.028467942029237747,"96":-0.4457853138446808,"97":-0.6211844682693481,"98":-0.7698134779930115,"99":-2.3482375144958496,"100":2.1722705364227295,"101":-0.8478284478187561,"102":-0.7939926385879517,"103":-2.291618585586548,"104":-0.6182535290718079,"105":-1.352213978767395,"106":-1.6683088541030884,"107":3.09525203704834,"108":-2.183509588241577,"109":0.303374320268631,"110":3.9626522064208984,"111":0.005842046346515417,"112":-1.6781268119812012,"113":-0.8697569370269775,"114":-0.24977344274520874,"115":-3.003279685974121,"116":1.2877784967422485,"117":0.08795817196369171,"118":-1.0013848543167114,"119":3.6923911571502686,"120":-0.011469955556094646,"121":-0.12361752986907959,"122":-0.6640721559524536,"123":0.19679661095142365,"124":-0.1892642080783844,"125":-0.9860907793045044,"126":1.1863617897033691,"127":1.2739806175231934,"128":0.04891395941376686,"129":-0.7800553441047668,"130":-1.3767081499099731,"131":0.9227280616760254,"132":0.8299764394760132,"133":-0.48508843779563904,"134":-0.7034453749656677,"135":-2.3903563022613525,"136":0.38982927799224854,"137":1.4558665752410889,"138":1.0968396663665771,"139":1.9580419063568115,"140":-2.6663732528686523,"141":1.527350902557373,"142":1.622086524963379,"143":-2.855325937271118,"144":-0.543937087059021,"145":4.0454607009887695,"146":-1.6314847469329834,"147":1.3567495346069336,"148":-1.7376396656036377,"149":0.7347475290298462,"150":1.1942341327667236,"151":0.15441875159740448,"152":-3.4966847896575928,"153":-1.5724804401397705,"154":-4.2387871742248535,"155":1.32420015335083,"156":1.1375794410705566,"157":-1.5000358819961548,"158":-2.229588270187378,"159":-0.3890978693962097,"160":2.8110811710357666,"161":0.13463734090328217,"162":-1.8187906742095947,"163":1.1314802169799805,"164":-0.12516097724437714,"165":-2.7732114791870117,"166":0.7126744389533997,"167":0.5788699984550476,"168":1.4681873321533203,"169":-0.40104272961616516,"170":1.3861424922943115,"171":1.1535589694976807,"172":1.6772493124008179,"173":-3.2033374309539795,"174":1.1484214067459106,"175":0.10499697923660278,"176":3.1477956771850586,"177":-1.5836602449417114,"178":-0.5759327411651611,"179":2.1540493965148926,"180":2.151388168334961,"181":-2.1771914958953857,"182":-0.5191827416419983,"183":-0.3641080856323242,"184":0.022215139120817184,"185":-1.4031555652618408,"186":-0.12046271562576294,"187":1.1697666645050049,"188":1.487311601638794,"189":0.3900853097438812,"190":-1.117150068283081,"191":0.058974605053663254,"192":1.3927112817764282,"193":-0.6917988657951355,"194":-3.994541883468628,"195":-1.4899171590805054,"196":0.11434441804885864,"197":4.853977680206299,"198":-0.8265813589096069,"199":0.12815365195274353,"200":1.1808637380599976,"201":-3.035320520401001,"202":-0.01338085439056158,"203":0.09399312734603882,"204":-0.6462830305099487,"205":-2.230443239212036,"206":0.9008891582489014,"207":3.034696340560913,"208":0.9986108541488647,"209":1.3404706716537476,"210":-1.636867880821228,"211":-0.6081755757331848,"212":0.1473933309316635,"213":2.3103749752044678,"214":3.658946990966797,"215":-3.2373194694519043,"216":-0.0016981352819129825,"217":-0.6009435057640076,"218":0.8596868515014648,"219":1.416980504989624,"220":3.098989486694336,"221":0.18847425282001495,"222":-1.1803427934646606,"223":-0.4857560694217682,"224":0.708726704120636,"225":-3.18587327003479,"226":-2.4626686573028564,"227":-0.7783733010292053,"228":1.0466269254684448,"229":0.21624444425106049,"230":-0.24563643336296082,"231":-2.9422082901000977,"232":-0.9233679175376892,"233":0.23930813372135162,"234":1.1966074705123901,"235":-1.5229957103729248,"236":0.3351812958717346,"237":0.8639112114906311,"238":-0.2776414155960083,"239":2.008923053741455,"240":-1.1409705877304077,"241":-0.711398720741272,"242":1.9558899402618408,"243":-1.9022953510284424,"244":-0.16524788737297058,"245":3.76468825340271,"246":0.7139405012130737,"247":2.3375794887542725,"248":0.43844839930534363,"249":-0.5678505301475525,"250":0.7096160650253296,"251":4.5940446853637695,"252":-1.6731584072113037,"253":0.22163940966129303,"254":0.9770970940589905,"255":1.5898141860961914,"256":0.5552886128425598,"257":-3.3350110054016113,"258":0.47431108355522156,"259":-2.6556267738342285,"260":0.7382414937019348,"261":1.4076957702636719,"262":-0.5236156582832336,"263":0.08323890715837479,"264":0.04017899930477142,"265":-0.4028707444667816,"266":-2.3838791847229004,"267":-0.6527129411697388,"268":-3.3167099952697754,"269":-1.1848856210708618,"270":-3.083301544189453,"271":-2.3804149627685547,"272":-1.9190280437469482,"273":-1.5424888134002686,"274":2.2722108364105225,"275":-2.238464593887329,"276":-0.7528437972068787,"277":1.9661779403686523,"278":0.6394155025482178,"279":-0.022387219592928886,"280":6.089248180389404,"281":-0.986495852470398,"282":-1.3255431652069092,"283":0.08970055729150772,"284":-0.3053894639015198,"285":-3.3733091354370117,"286":-0.6321576833724976,"287":-0.15689828991889954,"288":0.21363003551959991,"289":1.9184653759002686,"290":2.1289515495300293,"291":0.40632617473602295,"292":0.6907017827033997,"293":1.4535386562347412,"294":1.517632007598877,"295":0.6349740028381348,"296":1.0452576875686646,"297":1.2596551179885864,"298":-0.7303895950317383,"299":3.9931538105010986,"300":-1.0205270051956177,"301":-0.3200503885746002,"302":1.1177787780761719,"303":-1.982755422592163,"304":0.5350461602210999,"305":4.796285629272461,"306":-0.4174381196498871,"307":1.6964441537857056,"308":-0.10606705397367477,"309":-0.05694429576396942,"310":0.9669438004493713,"311":3.147369384765625,"312":-1.6892198324203491,"313":1.7527788877487183,"314":-2.1999597549438477,"315":5.5148024559021,"316":0.9585058689117432,"317":-1.3892120122909546,"318":-3.163775682449341,"319":-1.9977989196777344,"320":-1.9484202861785889,"321":-0.9223977327346802,"322":0.4333117604255676,"323":-2.797968626022339,"324":-0.3687765598297119,"325":0.6421869397163391,"326":-2.0438246726989746,"327":-0.07070703059434891,"328":-1.956967830657959,"329":-0.09350522607564926,"330":-2.0430283546447754,"331":1.3542206287384033,"332":-2.533179521560669,"333":0.45156875252723694,"334":0.42631006240844727,"335":0.37889429926872253,"336":0.03343819081783295,"337":-1.4262856245040894,"338":0.015709945932030678,"339":-1.5129401683807373,"340":-1.7148430347442627,"341":0.19859349727630615,"342":1.6469366550445557,"343":-3.220756769180298,"344":-0.20856019854545593,"345":2.833517551422119,"346":-1.6912484169006348,"347":1.490452527999878,"348":-0.37750229239463806,"349":-0.680278480052948,"350":-3.1040563583374023,"351":3.1217174530029297,"352":-2.301645517349243,"353":-0.12926840782165527,"354":-1.4644980430603027,"355":2.9207026958465576,"356":-0.04666956141591072,"357":-0.595255970954895,"358":-1.7649192810058594,"359":-1.947913408279419,"360":0.5559309720993042,"361":0.3245541751384735,"362":0.16268065571784973,"363":-4.649554252624512,"364":-1.212580919265747,"365":1.457239031791687,"366":-2.6749002933502197,"367":1.4486747980117798,"368":-1.7378957271575928,"369":-0.23514346778392792,"370":-1.568528175354004,"371":-1.71786630153656,"372":-2.1285927295684814,"373":-0.08823230117559433,"374":-1.4981786012649536,"375":-0.16741718351840973,"376":-0.11759883165359497,"377":-1.7939958572387695,"378":-1.2457685470581055,"379":0.12676627933979034,"380":-3.760188579559326,"381":1.8098417520523071,"382":1.5671005249023438,"383":-1.8914973735809326,"384":-1.4758416414260864,"385":2.1480093002319336,"386":0.4804869592189789,"387":1.580731987953186,"388":-2.446133852005005,"389":1.3195836544036865,"390":-0.12576833367347717,"391":-0.601813018321991,"392":-3.018557071685791,"393":-0.8360145688056946,"394":-2.288402795791626,"395":0.7502135634422302,"396":-0.5874649882316589,"397":-0.9367342591285706,"398":-0.4040443003177643,"399":-1.2567665576934814}},"outputBias":{"rows":20,"columns":1,"weights":{"0":-0.1560385823249817,"1":1.1365244388580322,"2":0.8019139766693115,"3":1.1514893770217896,"4":0.019178275018930435,"5":-1.50455641746521,"6":-0.5365398526191711,"7":-1.649755835533142,"8":1.1458667516708374,"9":-0.835132360458374,"10":0.9106929302215576,"11":-1.2785732746124268,"12":-0.22824633121490479,"13":-1.1385470628738403,"14":-0.6707752346992493,"15":-0.9641523361206055,"16":-0.6101807355880737,"17":-0.7732933759689331,"18":0.4371831715106964,"19":-0.10349585860967636}},"cellActivationMatrix":{"rows":20,"columns":13,"weights":{"0":1.182735800743103,"1":0.7423600554466248,"2":0.08774320036172867,"3":-0.022116290405392647,"4":-0.09538943320512772,"5":0.2591463029384613,"6":0.21270188689231873,"7":0.43335339426994324,"8":-0.2007046341896057,"9":-0.12175153940916061,"10":0.19552332162857056,"11":-0.4635595381259918,"12":0.8011506199836731,"13":1.8746311664581299,"14":1.2150062322616577,"15":0.05704043433070183,"16":-0.4758561849594116,"17":0.7228235006332397,"18":-0.2820075452327728,"19":-0.062192246317863464,"20":0.2196887582540512,"21":-1.5979939699172974,"22":-0.241972416639328,"23":0.1522047370672226,"24":-0.17476016283035278,"25":0.9870433807373047,"26":-0.057272255420684814,"27":0.14035071432590485,"28":-0.3523447811603546,"29":-0.05461243540048599,"30":0.29730114340782166,"31":-0.6517094373703003,"32":0.20160731673240662,"33":-0.583181619644165,"34":0.6444960236549377,"35":-0.19806328415870667,"36":-0.04566122218966484,"37":0.40618494153022766,"38":0.25722599029541016,"39":1.3065987825393677,"40":-0.08966521173715591,"41":1.8474839925765991,"42":-1.2465113401412964,"43":-0.11257151514291763,"44":1.3593299388885498,"45":-0.0717606171965599,"46":0.6668315529823303,"47":-1.4418281316757202,"48":0.5453633069992065,"49":1.8960342407226562,"50":-1.0706897974014282,"51":-1.2591923475265503,"52":-1.10414457321167,"53":-0.7792738676071167,"54":-0.8565559387207031,"55":0.3760950267314911,"56":-0.04432712867856026,"57":-0.12493112683296204,"58":-0.013799963518977165,"59":-0.780151903629303,"60":1.4808603525161743,"61":-0.28749504685401917,"62":0.19653727114200592,"63":0.414967805147171,"64":-0.9049618244171143,"65":-1.3153902292251587,"66":-0.42836588621139526,"67":-1.2390520572662354,"68":0.28823861479759216,"69":-0.1587228775024414,"70":-0.2570052444934845,"71":-0.15962094068527222,"72":-0.5310426950454712,"73":0.598219096660614,"74":0.39876022934913635,"75":-1.306207537651062,"76":1.1786597967147827,"77":0.28450387716293335,"78":1.616204857826233,"79":0.8938357830047607,"80":0.6793493032455444,"81":-0.7168942093849182,"82":1.517884612083435,"83":0.017668981105089188,"84":-0.9096808433532715,"85":-0.3842817544937134,"86":-2.1401703357696533,"87":0.250431090593338,"88":0.27942121028900146,"89":-1.382996916770935,"90":-1.084972858428955,"91":1.836748480796814,"92":1.046181321144104,"93":1.1829839944839478,"94":-0.7677160501480103,"95":0.872653603553772,"96":0.0500497929751873,"97":-0.04161619767546654,"98":0.2485891729593277,"99":-0.9005728960037231,"100":0.21937760710716248,"101":0.18698596954345703,"102":-0.730140745639801,"103":-0.6876616477966309,"104":0.9525289535522461,"105":0.40126875042915344,"106":0.7012373805046082,"107":-0.13184180855751038,"108":-0.08221600949764252,"109":0.5786605477333069,"110":-0.028246711939573288,"111":0.2613668143749237,"112":-0.4092092216014862,"113":-0.5070380568504333,"114":1.8056588172912598,"115":-2.061763286590576,"116":-0.8540507555007935,"117":1.4544693231582642,"118":1.112736701965332,"119":0.5424820184707642,"120":-0.8333778977394104,"121":0.19781145453453064,"122":0.7507596611976624,"123":-1.5969730615615845,"124":-0.5973731875419617,"125":-1.2843985557556152,"126":1.133758783340454,"127":0.6234563589096069,"128":-1.1388739347457886,"129":0.4081989526748657,"130":0.7082135081291199,"131":0.170781210064888,"132":1.7137633562088013,"133":-1.4992210865020752,"134":-0.4899144172668457,"135":1.695311188697815,"136":-1.5157335996627808,"137":0.21159474551677704,"138":-0.7452192902565002,"139":1.2613431215286255,"140":-0.04260449483990669,"141":-0.15850088000297546,"142":1.1177047491073608,"143":-1.2541340589523315,"144":-0.0784313902258873,"145":0.5465736389160156,"146":0.08197279274463654,"147":-0.5467231273651123,"148":0.5837981700897217,"149":-0.04240559786558151,"150":0.1803470402956009,"151":1.5109398365020752,"152":0.18423427641391754,"153":0.19148583710193634,"154":0.20535215735435486,"155":-1.1626311540603638,"156":1.4635398387908936,"157":-0.40883132815361023,"158":-0.6489374041557312,"159":0.19249312579631805,"160":0.9440127015113831,"161":-0.5740932822227478,"162":1.7176564931869507,"163":0.9860624074935913,"164":-1.190292239189148,"165":-1.2977464199066162,"166":0.5687819123268127,"167":-1.1967811584472656,"168":-0.5773288607597351,"169":0.07123186439275742,"170":-0.4350082278251648,"171":-2.349567413330078,"172":0.02974814362823963,"173":-0.681178867816925,"174":-0.2338378131389618,"175":-0.06684882938861847,"176":0.3894718587398529,"177":-0.007512361276894808,"178":0.5571785569190979,"179":0.3153581917285919,"180":-0.7890041470527649,"181":0.14697226881980896,"182":0.9941034317016602,"183":-0.7960988283157349,"184":-0.9220792651176453,"185":-0.5842936635017395,"186":0.9299864768981934,"187":-0.6216849684715271,"188":-0.4199400246143341,"189":0.31821683049201965,"190":-0.9387207627296448,"191":-1.4440959692001343,"192":0.9496857523918152,"193":-0.5094535946846008,"194":-0.6744571924209595,"195":0.9922139644622803,"196":0.4242614507675171,"197":-0.6722887754440308,"198":0.5220742225646973,"199":-0.6261319518089294,"200":-0.42652052640914917,"201":0.9173557162284851,"202":-0.29069867730140686,"203":0.6747968196868896,"204":1.0740199089050293,"205":-0.012018377892673016,"206":0.07659278810024261,"207":0.17837730050086975,"208":0.19365917146205902,"209":0.10852854698896408,"210":0.5166579484939575,"211":0.07316489517688751,"212":-0.23710514605045319,"213":0.016767727211117744,"214":-0.19645974040031433,"215":0.27577337622642517,"216":0.026141462847590446,"217":0.21492204070091248,"218":0.18562452495098114,"219":-0.13350385427474976,"220":0.4389481842517853,"221":0.3319050073623657,"222":-0.6433522701263428,"223":-0.24512097239494324,"224":0.6486131548881531,"225":0.03379755839705467,"226":-0.5797232389450073,"227":0.08451828360557556,"228":0.8686025142669678,"229":-0.7018232345581055,"230":-1.1586157083511353,"231":0.4135538339614868,"232":0.07929358631372452,"233":0.2123204469680786,"234":-0.4325161576271057,"235":-0.2031615525484085,"236":-0.10022658854722977,"237":0.10979800671339035,"238":-0.5737023949623108,"239":-0.0278742928057909,"240":0.0723823755979538,"241":-0.21487265825271606,"242":0.2933120131492615,"243":-1.0004963874816895,"244":0.5316933989524841,"245":-0.7101896405220032,"246":0.4380308985710144,"247":0.6271653175354004,"248":1.4443796873092651,"249":0.5313534736633301,"250":-0.5777012705802917,"251":0.1834692507982254,"252":-0.1889408677816391,"253":0.7248278260231018,"254":0.7355509400367737,"255":0.44104066491127014,"256":0.0237788837403059,"257":-0.8898962736129761,"258":0.5868902206420898,"259":1.237842082977295}},"cellActivationHidden":{"rows":20,"columns":20,"weights":{"0":0.766177237033844,"1":0.49628353118896484,"2":0.465057373046875,"3":0.607329249382019,"4":0.822163462638855,"5":-2.3643765449523926,"6":-1.0415908098220825,"7":-2.41220760345459,"8":-1.2347784042358398,"9":-1.082154393196106,"10":-0.9786996841430664,"11":-3.0401558876037598,"12":-1.256518840789795,"13":-0.4991661012172699,"14":2.3281216621398926,"15":-4.242342948913574,"16":-0.9494219422340393,"17":0.1284269243478775,"18":2.0691659450531006,"19":2.5941097736358643,"20":-3.750065565109253,"21":-0.34482041001319885,"22":1.7778112888336182,"23":-1.3002599477767944,"24":0.5034725069999695,"25":3.597621440887451,"26":-0.5626376867294312,"27":0.17670758068561554,"28":-0.1538231074810028,"29":-0.2332073599100113,"30":1.427385926246643,"31":-0.020242566242814064,"32":-1.5779083967208862,"33":2.6259093284606934,"34":-0.8407903909683228,"35":0.702732503414154,"36":-0.36973389983177185,"37":0.5120278596878052,"38":-0.2883213758468628,"39":-3.5267250537872314,"40":-0.2051922231912613,"41":1.5058947801589966,"42":-0.4514292776584625,"43":-0.51507568359375,"44":-0.9714184999465942,"45":2.2873995304107666,"46":1.9776638746261597,"47":3.02880859375,"48":2.069136619567871,"49":1.7967901229858398,"50":1.0475503206253052,"51":-0.39657896757125854,"52":1.8583483695983887,"53":2.215350389480591,"54":-2.655529737472534,"55":1.4808225631713867,"56":-0.2848207950592041,"57":2.301152467727661,"58":-2.6737406253814697,"59":-1.0580596923828125,"60":-0.6451724171638489,"61":-1.4806959629058838,"62":-0.1537385880947113,"63":-0.8717387914657593,"64":0.2595182955265045,"65":0.8900212049484253,"66":0.3106255531311035,"67":-0.2512813210487366,"68":0.06425749510526657,"69":-0.8932615518569946,"70":-1.1957045793533325,"71":-1.086349606513977,"72":0.14869245886802673,"73":0.2601131200790405,"74":0.3051937222480774,"75":-0.8600588440895081,"76":-1.359269618988037,"77":0.004484869074076414,"78":0.29034098982810974,"79":0.43911075592041016,"80":2.816056251525879,"81":-0.9629079103469849,"82":0.1388051062822342,"83":1.3473750352859497,"84":-0.4001486301422119,"85":-2.645721435546875,"86":0.69004887342453,"87":0.19583380222320557,"88":2.515045642852783,"89":0.36908644437789917,"90":0.24203063547611237,"91":1.352770209312439,"92":0.8295374512672424,"93":-1.3043920993804932,"94":2.2781460285186768,"95":0.15507900714874268,"96":1.2726649045944214,"97":-1.3365564346313477,"98":-0.034821100533008575,"99":1.6064597368240356,"100":-0.26782724261283875,"101":1.1818839311599731,"102":-1.4787368774414062,"103":0.06661003082990646,"104":-1.2611430883407593,"105":0.5657215714454651,"106":0.3018539547920227,"107":2.0538747310638428,"108":0.3414233326911926,"109":1.5964374542236328,"110":3.261683702468872,"111":1.2148704528808594,"112":1.0970234870910645,"113":-0.3199397325515747,"114":-1.8084173202514648,"115":1.1833720207214355,"116":1.5622540712356567,"117":-0.2018059492111206,"118":-1.9296882152557373,"119":-1.5802314281463623,"120":-1.2211107015609741,"121":-0.5049375295639038,"122":0.4226885437965393,"123":-0.8733440041542053,"124":0.15970396995544434,"125":0.13169324398040771,"126":-0.906019389629364,"127":-0.06440609693527222,"128":-0.5368099212646484,"129":-0.17926357686519623,"130":-0.6239829063415527,"131":0.1018405333161354,"132":-1.3701430559158325,"133":0.620061993598938,"134":0.022936180233955383,"135":-0.23464813828468323,"136":-0.682313859462738,"137":-0.26008254289627075,"138":-0.5218735337257385,"139":-0.48173823952674866,"140":-1.61561119556427,"141":-0.2804333567619324,"142":1.876315712928772,"143":-0.9568071961402893,"144":1.70320725440979,"145":0.26434406638145447,"146":-1.22178053855896,"147":-1.0472124814987183,"148":-1.3348150253295898,"149":-0.8256182670593262,"150":0.03766018897294998,"151":0.9944481253623962,"152":-0.7072041630744934,"153":2.0107808113098145,"154":-0.7336770296096802,"155":-0.23860576748847961,"156":-2.1296589374542236,"157":-0.8212174773216248,"158":-0.11709283292293549,"159":-0.9852321743965149,"160":-2.172408103942871,"161":0.17610937356948853,"162":0.5021482706069946,"163":-0.704800009727478,"164":0.8276087045669556,"165":1.4364620447158813,"166":-0.7538414001464844,"167":-0.315364271402359,"168":-0.7709674835205078,"169":-0.2617364823818207,"170":-0.4440320134162903,"171":-0.5241499543190002,"172":-0.916721761226654,"173":2.129744052886963,"174":-1.975987195968628,"175":-0.2740218937397003,"176":-0.9444154500961304,"177":0.07713213562965393,"178":-0.08006681501865387,"179":-1.8421683311462402,"180":-0.4063335359096527,"181":-0.3100753128528595,"182":-0.6067122220993042,"183":-1.374457597732544,"184":-1.5350126028060913,"185":1.0746803283691406,"186":-1.1181025505065918,"187":1.2895351648330688,"188":-1.1045113801956177,"189":0.885881781578064,"190":-0.35257697105407715,"191":-0.11005913466215134,"192":-1.179869532585144,"193":-0.9074931144714355,"194":-1.6558866500854492,"195":1.3781664371490479,"196":0.8161942958831787,"197":-0.3556652069091797,"198":-1.6997520923614502,"199":-0.32085394859313965,"200":0.9064249992370605,"201":-2.646153211593628,"202":-2.2991888523101807,"203":1.2661622762680054,"204":-1.0772570371627808,"205":0.7632758617401123,"206":0.2538732886314392,"207":-0.08911024034023285,"208":-0.0701712816953659,"209":0.2551407814025879,"210":-1.364330530166626,"211":-1.5764914751052856,"212":0.5000672340393066,"213":0.01918298937380314,"214":1.7915383577346802,"215":-1.35443913936615,"216":1.1109771728515625,"217":-1.8955917358398438,"218":0.2939125895500183,"219":-2.0220727920532227,"220":1.8202099800109863,"221":0.9834896922111511,"222":-1.942526936531067,"223":3.1655828952789307,"224":0.9182788133621216,"225":-1.303977608680725,"226":-0.8287082314491272,"227":-1.3134480714797974,"228":-0.7860969305038452,"229":-0.596267819404602,"230":1.7230955362319946,"231":-3.3853578567504883,"232":0.47122618556022644,"233":0.5578616261482239,"234":0.07971164584159851,"235":-1.5763217210769653,"236":0.3149174749851227,"237":2.3127171993255615,"238":0.6262970566749573,"239":0.38796091079711914,"240":-1.2372922897338867,"241":1.7421932220458984,"242":0.3252840042114258,"243":-0.45364147424697876,"244":0.9612783193588257,"245":2.5948660373687744,"246":-0.6707046031951904,"247":-0.41841650009155273,"248":-2.508607864379883,"249":-0.7485610842704773,"250":0.14410461485385895,"251":-1.2525899410247803,"252":-0.987421989440918,"253":1.1830968856811523,"254":-2.440575122833252,"255":-0.21353673934936523,"256":-1.8680000305175781,"257":1.4888434410095215,"258":-0.38231855630874634,"259":-2.0960686206817627,"260":0.16423770785331726,"261":1.3314142227172852,"262":-0.3805350661277771,"263":0.03502447158098221,"264":-0.3991236984729767,"265":0.1698327213525772,"266":0.80862957239151,"267":0.7222263813018799,"268":1.3784089088439941,"269":1.2113977670669556,"270":0.48915979266166687,"271":-0.3838459849357605,"272":0.8584876656532288,"273":-1.6125240325927734,"274":0.587150514125824,"275":1.8347891569137573,"276":1.0655380487442017,"277":1.3129889965057373,"278":-0.6888582706451416,"279":0.36277273297309875,"280":-0.4288107454776764,"281":1.6746677160263062,"282":1.8155564069747925,"283":-2.1453914642333984,"284":0.6204036474227905,"285":1.696685791015625,"286":-1.8026201725006104,"287":-0.622255265712738,"288":-1.2089037895202637,"289":-0.3525359332561493,"290":0.6490066647529602,"291":0.33615273237228394,"292":-1.6567133665084839,"293":0.335421085357666,"294":-2.2005443572998047,"295":0.19827215373516083,"296":-2.3113300800323486,"297":0.9904693365097046,"298":0.7007816433906555,"299":0.8921020030975342,"300":0.21254920959472656,"301":0.6459614634513855,"302":-2.509066104888916,"303":-2.8523941040039062,"304":-0.05449303984642029,"305":1.360360026359558,"306":-2.523219108581543,"307":0.90716552734375,"308":-1.4470860958099365,"309":1.5809820890426636,"310":0.838963508605957,"311":1.1679326295852661,"312":-1.207108497619629,"313":-0.7187934517860413,"314":-3.2145729064941406,"315":-0.9969735741615295,"316":2.795612335205078,"317":1.8893321752548218,"318":-1.2251139879226685,"319":1.7743570804595947,"320":2.039301633834839,"321":-1.0057923793792725,"322":-0.1234821081161499,"323":0.019244950264692307,"324":1.4486275911331177,"325":-2.1084532737731934,"326":-3.076453685760498,"327":-1.5026671886444092,"328":0.5843949317932129,"329":-1.8397537469863892,"330":0.3039782643318176,"331":-1.8381468057632446,"332":-1.0063883066177368,"333":-1.132021427154541,"334":1.5854136943817139,"335":-2.741447687149048,"336":0.6816602349281311,"337":0.7699520587921143,"338":3.1466195583343506,"339":1.642989158630371,"340":3.764993906021118,"341":1.2862716913223267,"342":-1.7763336896896362,"343":2.562941789627075,"344":0.03560703620314598,"345":-1.656412124633789,"346":-0.6348365545272827,"347":-1.2334054708480835,"348":0.3581385314464569,"349":-0.6263481378555298,"350":-0.9311604499816895,"351":-2.867056369781494,"352":1.180959939956665,"353":-2.4573118686676025,"354":2.1761505603790283,"355":-1.2922852039337158,"356":0.3541358411312103,"357":1.124717116355896,"358":1.00809907913208,"359":2.632317304611206,"360":0.9695131778717041,"361":-1.5739058256149292,"362":-0.7134436368942261,"363":2.689337968826294,"364":0.9835702180862427,"365":-2.1694557666778564,"366":1.7421162128448486,"367":-1.4268193244934082,"368":1.5430762767791748,"369":-0.7938805222511292,"370":-1.7059838771820068,"371":-3.0464861392974854,"372":1.4556587934494019,"373":-0.209671288728714,"374":1.7531921863555908,"375":-1.4965251684188843,"376":0.6190236210823059,"377":0.8208581209182739,"378":1.0387476682662964,"379":-1.2105388641357422,"380":0.7465097904205322,"381":-0.1926971971988678,"382":-0.7355045080184937,"383":0.0795120820403099,"384":0.6523974537849426,"385":-0.13880249857902527,"386":-1.860416054725647,"387":-1.150031566619873,"388":-1.1623811721801758,"389":-0.6657478213310242,"390":1.5801372528076172,"391":-1.1894242763519287,"392":-0.7591819763183594,"393":-2.0708320140838623,"394":-0.7376569509506226,"395":-1.5315799713134766,"396":0.016787465661764145,"397":-0.33896404504776,"398":2.7882394790649414,"399":-0.2720157206058502}},"cellActivationBias":{"rows":20,"columns":1,"weights":{"0":0.3156642019748688,"1":-0.48190730810165405,"2":-1.3605438470840454,"3":-0.32862868905067444,"4":0.8458697199821472,"5":1.1219100952148438,"6":-0.120088130235672,"7":-0.016325831413269043,"8":-1.550897240638733,"9":-0.8498794436454773,"10":0.13816110789775848,"11":0.9049081206321716,"12":-0.17668397724628448,"13":-0.980573296546936,"14":-0.2242150455713272,"15":0.10587576031684875,"16":1.1601183414459229,"17":0.5798743367195129,"18":0.5155423283576965,"19":0.9579694271087646}}}],"outputConnector":{"rows":14,"columns":20,"weights":{"0":-0.630003809928894,"1":1.679326057434082,"2":1.4290525913238525,"3":1.7728993892669678,"4":-1.9194258451461792,"5":-0.18834911286830902,"6":5.3678436279296875,"7":3.387730121612549,"8":4.067033290863037,"9":2.3097691535949707,"10":1.400267481803894,"11":-1.3176610469818115,"12":2.781632661819458,"13":-3.423110008239746,"14":0.7370638251304626,"15":1.159476399421692,"16":-4.753455638885498,"17":0.01399775967001915,"18":-1.9409162998199463,"19":0.8622989058494568,"20":2.5236175060272217,"21":1.6384462118148804,"22":-1.7358438968658447,"23":0.5672120451927185,"24":0.5808830857276917,"25":-0.40090247988700867,"26":-0.4067875146865845,"27":0.9190154075622559,"28":0.7769800424575806,"29":-2.3598272800445557,"30":-0.36890020966529846,"31":-0.8470896482467651,"32":0.15998435020446777,"33":-3.332157850265503,"34":0.5914297103881836,"35":-5.950901985168457,"36":-2.8894753456115723,"37":-0.590391218662262,"38":0.940708577632904,"39":-0.3028903603553772,"40":-0.310310035943985,"41":-0.25178858637809753,"42":-3.433588981628418,"43":1.1985669136047363,"44":-2.5820939540863037,"45":-1.4235974550247192,"46":4.277441501617432,"47":-0.7060548663139343,"48":1.5582247972488403,"49":2.0033910274505615,"50":5.894158840179443,"51":1.0661344528198242,"52":0.894154965877533,"53":-3.7023138999938965,"54":0.0016784481704235077,"55":-2.2176177501678467,"56":4.719504356384277,"57":0.2847723066806793,"58":5.665678977966309,"59":-0.05468392372131348,"60":3.27864408493042,"61":1.799324631690979,"62":-3.4993107318878174,"63":-0.9518387317657471,"64":-3.4010326862335205,"65":-1.173673152923584,"66":0.3252843916416168,"67":3.9559638500213623,"68":2.550960063934326,"69":3.0794715881347656,"70":-0.8818322420120239,"71":0.3831483721733093,"72":-0.4657038152217865,"73":-0.9851008653640747,"74":1.5337961912155151,"75":2.8582417964935303,"76":5.823525428771973,"77":0.9873039722442627,"78":-4.19531774520874,"79":4.360533237457275,"80":3.098541259765625,"81":0.8604950904846191,"82":-2.715142011642456,"83":0.5175305604934692,"84":-0.9432637691497803,"85":-0.49059486389160156,"86":-0.8023972511291504,"87":-3.168776750564575,"88":0.7682335376739502,"89":-2.4018666744232178,"90":-0.17288295924663544,"91":0.5006639957427979,"92":0.08477020263671875,"93":2.8094046115875244,"94":0.6148805618286133,"95":-1.4092603921890259,"96":-1.2075566053390503,"97":-1.0301122665405273,"98":-0.05602763965725899,"99":-0.1819281280040741,"100":3.37847900390625,"101":0.6030293703079224,"102":2.3182270526885986,"103":0.2770705223083496,"104":1.6995849609375,"105":-0.14766910672187805,"106":-0.39203768968582153,"107":-3.647864818572998,"108":0.22162233293056488,"109":-1.2395914793014526,"110":-0.46960100531578064,"111":0.38396555185317993,"112":0.17661486566066742,"113":2.818807601928711,"114":0.42702436447143555,"115":-6.621353626251221,"116":-0.3124348223209381,"117":0.45053356885910034,"118":0.08842692524194717,"119":0.09843765944242477,"120":-1.6314030885696411,"121":1.0923622846603394,"122":1.782370686531067,"123":0.0653519406914711,"124":2.2553346157073975,"125":-0.35798877477645874,"126":0.09505437314510345,"127":-0.88241046667099,"128":0.3827829658985138,"129":1.1467839479446411,"130":-0.19201873242855072,"131":0.9651337265968323,"132":0.35946834087371826,"133":-0.22247591614723206,"134":0.680899441242218,"135":-7.445146560668945,"136":-0.941542387008667,"137":0.753464937210083,"138":2.0398106575012207,"139":-0.26597025990486145,"140":-0.6412379741668701,"141":-1.4367613792419434,"142":-0.20372705161571503,"143":-0.9515812993049622,"144":0.7201504111289978,"145":0.13746607303619385,"146":-0.6580974459648132,"147":0.19179975986480713,"148":-0.5659188628196716,"149":-0.6468065977096558,"150":-0.552452027797699,"151":0.5625291466712952,"152":0.6182938814163208,"153":1.3524152040481567,"154":0.39654815196990967,"155":-0.0893091931939125,"156":-0.18811620771884918,"157":3.1931722164154053,"158":2.462074041366577,"159":0.00199165684171021,"160":0.002222473733127117,"161":-1.94913649559021,"162":0.27858206629753113,"163":-0.4565998315811157,"164":2.200111150741577,"165":-0.43654438853263855,"166":-0.7340366840362549,"167":-1.487048864364624,"168":-1.0875216722488403,"169":-0.020875990390777588,"170":-0.46089568734169006,"171":-6.970877170562744,"172":-0.19773508608341217,"173":0.12326586991548538,"174":0.42845237255096436,"175":1.1047253608703613,"176":-1.4656697511672974,"177":6.2869038581848145,"178":0.5994439721107483,"179":0.016459409147500992,"180":-1.4907695055007935,"181":-3.0740740299224854,"182":2.0716288089752197,"183":-0.30652129650115967,"184":-3.2940640449523926,"185":0.6964345574378967,"186":0.1387915164232254,"187":1.7662047147750854,"188":-2.0676660537719727,"189":0.1894531548023224,"190":-2.1162352561950684,"191":-3.405773878097534,"192":-2.8924920558929443,"193":-1.9558175802230835,"194":-2.009225606918335,"195":2.110752820968628,"196":-1.4661381244659424,"197":-0.738437831401825,"198":-1.0310053825378418,"199":-2.1085410118103027,"200":-0.8481833934783936,"201":-2.969506025314331,"202":3.1924636363983154,"203":7.662170886993408,"204":2.7467877864837646,"205":-0.20769654214382172,"206":-0.5553581714630127,"207":3.5523364543914795,"208":-1.8311485052108765,"209":-1.834679365158081,"210":0.693477213382721,"211":0.5058462619781494,"212":-2.36189603805542,"213":-0.7956117987632751,"214":0.053501006215810776,"215":1.4352506399154663,"216":1.8314847946166992,"217":-3.2812657356262207,"218":-0.8800511956214905,"219":-3.3289618492126465,"220":-0.9717355370521545,"221":-2.1537516117095947,"222":4.882436275482178,"223":9.073074340820312,"224":4.4637932777404785,"225":-4.048987865447998,"226":-0.18695780634880066,"227":-1.919195294380188,"228":-2.6387574672698975,"229":3.0709400177001953,"230":-0.5753974914550781,"231":-0.4288814961910248,"232":-1.9670190811157227,"233":-0.26507529616355896,"234":4.87568473815918,"235":1.4877866506576538,"236":2.293008327484131,"237":-2.8399035930633545,"238":-1.7694603204727173,"239":-2.134542465209961,"240":-1.1451791524887085,"241":1.5018254518508911,"242":0.09634187817573547,"243":8.01089096069336,"244":2.171489715576172,"245":-6.690735340118408,"246":-0.030196916311979294,"247":-3.103163003921509,"248":-0.8506966233253479,"249":-1.6577197313308716,"250":2.7609376907348633,"251":-1.5352619886398315,"252":-2.851749897003174,"253":1.079964518547058,"254":2.502450942993164,"255":1.5985054969787598,"256":1.7533810138702393,"257":-2.1493711471557617,"258":0.47630825638771057,"259":-2.1949639320373535,"260":2.1375014781951904,"261":3.689699649810791,"262":2.4776406288146973,"263":4.911820888519287,"264":2.360119581222534,"265":-1.7467128038406372,"266":1.0158272981643677,"267":-0.3228604197502136,"268":2.2504594326019287,"269":-1.9781546592712402,"270":3.4383723735809326,"271":-1.2761973142623901,"272":1.2441884279251099,"273":1.0084830522537231,"274":1.7371412515640259,"275":-2.1995062828063965,"276":-1.2212446928024292,"277":1.9665687084197998,"278":1.2209724187850952,"279":0.33844470977783203}},"output":{"rows":14,"columns":1,"weights":{"0":-8.50902271270752,"1":0.6756054162979126,"2":-6.3286614418029785,"3":-9.919459342956543,"4":0.2801765501499176,"5":-0.06381120532751083,"6":0.5484828948974609,"7":-1.549666404724121,"8":-1.8108739852905273,"9":-13.903949737548828,"10":-12.4806489944458,"11":-12.745616912841797,"12":-8.787032127380371,"13":-6.196957111358643}}}