{
  "type": "LSTMTimeStep",
  "options": {
    "inputSize": 4,
    "hiddenLayers": [8, 8],
    "outputSize": 4,
    "decayRate": 0.999,
    "smoothEps": 1e-8,
    "regc": 0.000001,
    "clipval": 5
  },
  "hiddenLayers": [
    {
      "inputMatrix": {
        "rows": 8,
        "columns": 4,
        "weights": {
          "0": 0.4756679832935333,
          "1": 0.9667499661445618,
          "2": 1.006469964981079,
          "3": 1.075081467628479,
          "4": 0.5132737159729004,
          "5": 0.34941646456718445,
          "6": 0.4757777452468872,
          "7": 0.3879750669002533,
          "8": 0.3658617436885834,
          "9": 0.9761410355567932,
          "10": 0.5788843631744385,
          "11": 0.9400357007980347,
          "12": 0.4403054714202881,
          "13": 0.5738591551780701,
          "14": 0.28033268451690674,
          "15": 0.4199194610118866,
          "16": 0.29083770513534546,
          "17": 0.14359743893146515,
          "18": 0.14278627932071686,
          "19": -0.05757449194788933,
          "20": 0.1561538130044937,
          "21": 0.8100881576538086,
          "22": 0.32727697491645813,
          "23": 0.7103871703147888,
          "24": 0.45331141352653503,
          "25": 0.6298395991325378,
          "26": 0.2421937733888626,
          "27": 0.6385340690612793,
          "28": -0.44005289673805237,
          "29": -0.11664988100528717,
          "30": -0.4150044023990631,
          "31": -0.22271539270877838
        }
      },
      "inputHidden": {
        "rows": 8,
        "columns": 8,
        "weights": {
          "0": -0.2241286188364029,
          "1": -0.41571328043937683,
          "2": 0.6770845055580139,
          "3": -0.18331189453601837,
          "4": -0.9687013030052185,
          "5": -0.2779960334300995,
          "6": 0.12877292931079865,
          "7": -0.18374942243099213,
          "8": -1.2434147596359253,
          "9": -0.8186254501342773,
          "10": 0.7178466320037842,
          "11": -0.3647885024547577,
          "12": -0.6274473667144775,
          "13": -0.323637992143631,
          "14": 0.07929401844739914,
          "15": -0.009491771459579468,
          "16": 0.09073011577129364,
          "17": -0.03973358869552612,
          "18": 0.86599200963974,
          "19": 0.13412974774837494,
          "20": -0.47531625628471375,
          "21": -0.03934983164072037,
          "22": -0.2558765113353729,
          "23": -0.23054681718349457,
          "24": 0.43229103088378906,
          "25": -0.08866427093744278,
          "26": -0.9041953682899475,
          "27": -0.3869312107563019,
          "28": -0.26108619570732117,
          "29": 0.5454656481742859,
          "30": 0.36833667755126953,
          "31": 0.22817710041999817,
          "32": -0.6864557266235352,
          "33": -0.4315415918827057,
          "34": 1.0678545236587524,
          "35": 0.6007445454597473,
          "36": -0.801429033279419,
          "37": -0.7371126413345337,
          "38": -1.1660751104354858,
          "39": -0.179422989487648,
          "40": 0.19931499660015106,
          "41": 0.46442127227783203,
          "42": -0.1165233924984932,
          "43": 0.6437064409255981,
          "44": -0.19468525052070618,
          "45": -0.1113722026348114,
          "46": -0.712096631526947,
          "47": 0.2630033791065216,
          "48": 0.3663232624530792,
          "49": -0.25397583842277527,
          "50": -0.7290958762168884,
          "51": -0.4641859829425812,
          "52": -0.2501221299171448,
          "53": 0.6036720871925354,
          "54": 0.4810991883277893,
          "55": 0.24527718126773834,
          "56": 0.29489830136299133,
          "57": -0.39518144726753235,
          "58": 0.035682763904333115,
          "59": -0.06977389007806778,
          "60": -0.16067025065422058,
          "61": 0.25169140100479126,
          "62": 0.06576885282993317,
          "63": 0.05306992307305336
        }
      },
      "inputBias": {
        "rows": 8,
        "columns": 1,
        "weights": {
          "0": 0.6984397172927856,
          "1": 0.11380849778652191,
          "2": 0.5692408680915833,
          "3": 1.0739879608154297,
          "4": -0.6536973118782043,
          "5": 0.36693963408470154,
          "6": 0.8853376507759094,
          "7": -0.8116927146911621
        }
      },
      "forgetMatrix": {
        "rows": 8,
        "columns": 4,
        "weights": {
          "0": -0.9948590397834778,
          "1": -1.2057409286499023,
          "2": -1.193427562713623,
          "3": -1.1806200742721558,
          "4": 0.31348010897636414,
          "5": 0.36250928044319153,
          "6": 0.10929351300001144,
          "7": 0.468281090259552,
          "8": -0.13888958096504211,
          "9": 0.23556934297084808,
          "10": -0.2603558301925659,
          "11": 0.3161134123802185,
          "12": 0.17221026122570038,
          "13": 0.4259675145149231,
          "14": -0.19215643405914307,
          "15": 0.468534916639328,
          "16": 0.01529362890869379,
          "17": 0.16602106392383575,
          "18": 0.017106985673308372,
          "19": 0.27624011039733887,
          "20": 0.018088817596435547,
          "21": 0.23113074898719788,
          "22": -0.23492944240570068,
          "23": 0.3288208544254303,
          "24": 0.4898628890514374,
          "25": 0.7326906323432922,
          "26": 0.08159560710191727,
          "27": 0.7899854183197021,
          "28": 0.023041201755404472,
          "29": -0.12533250451087952,
          "30": -0.03268160670995712,
          "31": 0.021500607952475548
        }
      },
      "forgetHidden": {
        "rows": 8,
        "columns": 8,
        "weights": {
          "0": 0.33918967843055725,
          "1": -0.07519985735416412,
          "2": -1.324440836906433,
          "3": -0.7403998970985413,
          "4": 0.17854057252407074,
          "5": 0.3731174170970917,
          "6": 0.7509371638298035,
          "7": 0.47795405983924866,
          "8": -0.6315270662307739,
          "9": -1.6991913318634033,
          "10": 0.6194146275520325,
          "11": -1.0622694492340088,
          "12": -1.096609354019165,
          "13": -0.022042209282517433,
          "14": 0.8881257772445679,
          "15": -0.2671908438205719,
          "16": 0.11530402302742004,
          "17": -1.0120450258255005,
          "18": -0.59466552734375,
          "19": -0.9655698537826538,
          "20": -0.24817554652690887,
          "21": 0.49908652901649475,
          "22": 0.9807067513465881,
          "23": 0.1424858272075653,
          "24": 0.6401709318161011,
          "25": -0.6677221059799194,
          "26": -0.8469001054763794,
          "27": -0.5899015069007874,
          "28": -0.12293331325054169,
          "29": 0.6433847546577454,
          "30": 0.6640834808349609,
          "31": 0.17871356010437012,
          "32": 0.8591805100440979,
          "33": -0.14342130720615387,
          "34": 0.12491058558225632,
          "35": 0.1460149586200714,
          "36": -0.2509576976299286,
          "37": 0.01955214887857437,
          "38": -0.024651862680912018,
          "39": -0.0035037770867347717,
          "40": -0.7708606719970703,
          "41": -1.1470448970794678,
          "42": -0.25316324830055237,
          "43": -0.6688198447227478,
          "44": -0.31678658723831177,
          "45": 0.05445319414138794,
          "46": 0.7484555840492249,
          "47": 0.09222579002380371,
          "48": 0.16204708814620972,
          "49": -0.9026979804039001,
          "50": -0.623052716255188,
          "51": -0.7575021982192993,
          "52": -0.12543438374996185,
          "53": 0.5580058097839355,
          "54": 0.7953718900680542,
          "55": 0.11976058036088943,
          "56": 0.021551933139562607,
          "57": -0.09023889154195786,
          "58": -0.12680009007453918,
          "59": -0.032234326004981995,
          "60": -0.06118398532271385,
          "61": 0.01001516543328762,
          "62": 0.07654474675655365,
          "63": -0.0027295725885778666
        }
      },
      "forgetBias": {
        "rows": 8,
        "columns": 1,
        "weights": {
          "0": 0,
          "1": 0,
          "2": 0,
          "3": 0,
          "4": 0,
          "5": 0,
          "6": 0,
          "7": 0
        }
      },
      "outputMatrix": {
        "rows": 8,
        "columns": 4,
        "weights": {
          "0": 0.401836097240448,
          "1": 0.858851969242096,
          "2": 0.71406090259552,
          "3": 0.897337794303894,
          "4": 0.44527924060821533,
          "5": 0.3565808832645416,
          "6": 0.45168599486351013,
          "7": 0.47583797574043274,
          "8": 0.09372972697019577,
          "9": 0.8861904144287109,
          "10": 0.29605409502983093,
          "11": 0.7049692869186401,
          "12": 0.4068857729434967,
          "13": 0.5556110143661499,
          "14": 0.08047347515821457,
          "15": 0.43297243118286133,
          "16": 0.26719528436660767,
          "17": 0.1169997900724411,
          "18": 0.0727771669626236,
          "19": -0.02068406343460083,
          "20": 0.21488909423351288,
          "21": 0.6409902572631836,
          "22": 0.4380502998828888,
          "23": 0.7059378027915955,
          "24": 0.4857451021671295,
          "25": 0.8134147524833679,
          "26": 0.30758997797966003,
          "27": 0.731043815612793,
          "28": -0.32630693912506104,
          "29": -0.21800270676612854,
          "30": -0.46633967757225037,
          "31": -0.19416283071041107
        }
      },
      "outputHidden": {
        "rows": 8,
        "columns": 8,
        "weights": {
          "0": 0.08207086473703384,
          "1": -0.04002981632947922,
          "2": 0.16152116656303406,
          "3": -0.06752295792102814,
          "4": -0.9207784533500671,
          "5": -0.22398369014263153,
          "6": -0.0640050396323204,
          "7": 0.0861789733171463,
          "8": -1.708225131034851,
          "9": -1.0765835046768188,
          "10": 1.036928653717041,
          "11": -0.5143124461174011,
          "12": -0.7369430065155029,
          "13": -0.2980910539627075,
          "14": 0.5716949701309204,
          "15": -0.12184556573629379,
          "16": 0.5332714915275574,
          "17": 0.05712638422846794,
          "18": 0.11552219837903976,
          "19": -0.1099785566329956,
          "20": -0.6069082617759705,
          "21": 0.2678983509540558,
          "22": -0.11000469326972961,
          "23": -0.02045384980738163,
          "24": 0.5581029057502747,
          "25": -0.4393024444580078,
          "26": -0.7681874632835388,
          "27": -0.42738649249076843,
          "28": -0.37495189905166626,
          "29": 0.7810865044593811,
          "30": 0.5038361549377441,
          "31": 0.21477502584457397,
          "32": -0.4018579125404358,
          "33": -0.5084870457649231,
          "34": 1.121978998184204,
          "35": 0.5676863193511963,
          "36": -0.9272233843803406,
          "37": -0.6903232336044312,
          "38": -1.0171760320663452,
          "39": -0.24263007938861847,
          "40": -0.16401222348213196,
          "41": 0.1272220015525818,
          "42": -0.07216621190309525,
          "43": 0.5328003764152527,
          "44": -0.2788245677947998,
          "45": -0.20456194877624512,
          "46": -0.6613596081733704,
          "47": 0.20204970240592957,
          "48": 0.330667108297348,
          "49": -0.5040017366409302,
          "50": -0.5819145441055298,
          "51": -0.4554641842842102,
          "52": -0.3498951196670532,
          "53": 0.6558992862701416,
          "54": 0.595664381980896,
          "55": 0.20358611643314362,
          "56": 0.39205196499824524,
          "57": -0.31968197226524353,
          "58": -0.09537339210510254,
          "59": 0.07712447643280029,
          "60": -0.09420332312583923,
          "61": 0.17329059541225433,
          "62": 0.025505196303129196,
          "63": 0.05711223930120468
        }
      },
      "outputBias": {
        "rows": 8,
        "columns": 1,
        "weights": {
          "0": 0.7745188474655151,
          "1": 0.1307574361562729,
          "2": 0.3485512137413025,
          "3": 1.0973420143127441,
          "4": -0.6746152639389038,
          "5": 0.5046645998954773,
          "6": 0.9095210433006287,
          "7": -0.8165737390518188
        }
      },
      "cellActivationMatrix": {
        "rows": 8,
        "columns": 4,
        "weights": {
          "0": 0.6963376402854919,
          "1": -1.0191453695297241,
          "2": -0.26424965262413025,
          "3": -1.2348390817642212,
          "4": 0.15411388874053955,
          "5": 0.18134257197380066,
          "6": 0.1528782695531845,
          "7": 0.021746603772044182,
          "8": -0.15147288143634796,
          "9": 0.8182477951049805,
          "10": 0.5842710137367249,
          "11": 1.0680866241455078,
          "12": -0.38084736466407776,
          "13": 0.5310179591178894,
          "14": 0.5170586705207825,
          "15": 0.6419220566749573,
          "16": -0.13663628697395325,
          "17": -0.06905390322208405,
          "18": -0.08753759413957596,
          "19": -0.22387191653251648,
          "20": 0.3802056312561035,
          "21": -0.7809926867485046,
          "22": -0.15293529629707336,
          "23": -0.9436219334602356,
          "24": 0.2584415078163147,
          "25": -0.6683845520019531,
          "26": -0.5827563405036926,
          "27": -0.8063497543334961,
          "28": -0.1758793741464615,
          "29": -0.4823753833770752,
          "30": -0.22949770092964172,
          "31": -0.5875842571258545
        }
      },
      "cellActivationHidden": {
        "rows": 8,
        "columns": 8,
        "weights": {
          "0": -0.21417351067066193,
          "1": 1.0319037437438965,
          "2": 0.1943807452917099,
          "3": 0.6685805320739746,
          "4": 0.6742814779281616,
          "5": -0.3311231732368469,
          "6": -0.7808724641799927,
          "7": 0.398712158203125,
          "8": -0.44010671973228455,
          "9": 0.8814644813537598,
          "10": -0.20835889875888824,
          "11": 1.01747727394104,
          "12": 1.1158607006072998,
          "13": -0.212322399020195,
          "14": -0.8349028825759888,
          "15": 0.8880945444107056,
          "16": 0.702341616153717,
          "17": -0.9751214981079102,
          "18": -0.62132328748703,
          "19": -0.6600146293640137,
          "20": -0.5848010778427124,
          "21": 0.612876832485199,
          "22": 0.8432000279426575,
          "23": -0.418851763010025,
          "24": 0.09191682934761047,
          "25": 0.3703792989253998,
          "26": -0.20309214293956757,
          "27": 0.3737375736236572,
          "28": 0.3562069535255432,
          "29": -0.007312075700610876,
          "30": -0.2990978956222534,
          "31": 0.17168037593364716,
          "32": -1.5343601703643799,
          "33": -0.07489251345396042,
          "34": 0.3578867018222809,
          "35": 0.9061806797981262,
          "36": 0.1326652467250824,
          "37": -0.6161186099052429,
          "38": -0.7375431060791016,
          "39": 0.5209009647369385,
          "40": -0.44760891795158386,
          "41": 0.5540378093719482,
          "42": 0.32935962080955505,
          "43": 0.22097423672676086,
          "44": 0.4216976463794708,
          "45": -0.31551581621170044,
          "46": -0.07364820688962936,
          "47": 0.1729385256767273,
          "48": -0.4360963702201843,
          "49": -0.3826312720775604,
          "50": 0.09382525831460953,
          "51": -0.3468949794769287,
          "52": -0.4541608691215515,
          "53": -0.013272283598780632,
          "54": 0.3899456560611725,
          "55": -0.2318423092365265,
          "56": -0.3584027886390686,
          "57": 0.4633374512195587,
          "58": -0.18108227849006653,
          "59": 0.20949144661426544,
          "60": 0.5402916073799133,
          "61": -0.16392827033996582,
          "62": 0.012476191855967045,
          "63": 0.02719179540872574
        }
      },
      "cellActivationBias": {
        "rows": 8,
        "columns": 1,
        "weights": {
          "0": 1.2374300956726074,
          "1": -0.3686602711677551,
          "2": -0.4035521149635315,
          "3": -0.7164298892021179,
          "4": -0.4479321539402008,
          "5": 0.867232084274292,
          "6": 0.6928481459617615,
          "7": 0.050469771027565
        }
      }
    },
    {
      "inputMatrix": {
        "rows": 8,
        "columns": 8,
        "weights": {
          "0": -1.1132946014404297,
          "1": 0.009781726635992527,
          "2": 0.21966314315795898,
          "3": 0.5364924669265747,
          "4": 0.19373895227909088,
          "5": -0.6744508147239685,
          "6": -0.43311646580696106,
          "7": -0.04936428368091583,
          "8": -0.6153378486633301,
          "9": 0.6876145601272583,
          "10": 0.37803009152412415,
          "11": 0.2847461402416229,
          "12": 0.4268965423107147,
          "13": -0.2407788187265396,
          "14": -0.38769638538360596,
          "15": 0.19036167860031128,
          "16": 0.5128637552261353,
          "17": 0.8478952050209045,
          "18": -0.3995014429092407,
          "19": 0.4180567264556885,
          "20": 0.6885920763015747,
          "21": -0.24377740919589996,
          "22": -0.6877513527870178,
          "23": 0.13015612959861755,
          "24": -0.9461037516593933,
          "25": 0.7210814356803894,
          "26": 0.41914916038513184,
          "27": 0.36198246479034424,
          "28": -0.3344246745109558,
          "29": -0.39649802446365356,
          "30": -0.35766157507896423,
          "31": 0.05607501417398453,
          "32": -0.8084167242050171,
          "33": 0.4445798099040985,
          "34": 0.5316899418830872,
          "35": 0.23060043156147003,
          "36": 0.643677294254303,
          "37": -0.333392471075058,
          "38": -0.22535793483257294,
          "39": 0.016698500141501427,
          "40": 0.06756705045700073,
          "41": 1.0252808332443237,
          "42": 0.15155182778835297,
          "43": 0.3595868647098541,
          "44": -0.6080363392829895,
          "45": 0.02294316701591015,
          "46": -0.61008220911026,
          "47": -0.079945407807827,
          "48": -1.282364010810852,
          "49": -0.14851568639278412,
          "50": 0.5201354026794434,
          "51": 0.1611146628856659,
          "52": 0.17208413779735565,
          "53": -0.5897588729858398,
          "54": -0.11021679639816284,
          "55": 0.01865028403699398,
          "56": 2.0699288845062256,
          "57": -1.1439920663833618,
          "58": -0.9976498484611511,
          "59": -2.4563333988189697,
          "60": 0.7127448916435242,
          "61": 2.1608922481536865,
          "62": 2.523503065109253,
          "63": 0.015919402241706848
        }
      },
      "inputHidden": {
        "rows": 8,
        "columns": 8,
        "weights": {
          "0": -0.4700388014316559,
          "1": -0.5763112902641296,
          "2": -1.5733797550201416,
          "3": -0.4937003254890442,
          "4": 0.7028348445892334,
          "5": 0.6557651162147522,
          "6": 0.6042932868003845,
          "7": -0.3250066339969635,
          "8": -0.28502020239830017,
          "9": -0.41209876537323,
          "10": -0.3486822843551636,
          "11": -0.44205906987190247,
          "12": 0.4405900239944458,
          "13": -0.13189063966274261,
          "14": 0.39444389939308167,
          "15": -0.27776485681533813,
          "16": 0.7583658695220947,
          "17": 0.529671847820282,
          "18": 1.7216308116912842,
          "19": 0.5970615744590759,
          "20": -0.9523343443870544,
          "21": -0.8473609089851379,
          "22": -0.7377920746803284,
          "23": 0.27463826537132263,
          "24": -0.271679550409317,
          "25": -0.4129047393798828,
          "26": -0.20283691585063934,
          "27": -0.3879621922969818,
          "28": 0.2391660064458847,
          "29": 0.07688456028699875,
          "30": 0.30934107303619385,
          "31": 0.32428908348083496,
          "32": -0.1404416710138321,
          "33": -0.22228120267391205,
          "34": -0.04840778186917305,
          "35": -0.09347257018089294,
          "36": 0.013973928056657314,
          "37": -0.5803679823875427,
          "38": 0.0701679065823555,
          "39": -0.8255046010017395,
          "40": 0.031104817986488342,
          "41": 0.18360915780067444,
          "42": -0.30798304080963135,
          "43": -0.08668610453605652,
          "44": -0.01671500876545906,
          "45": -0.27821898460388184,
          "46": 0.039637353271245956,
          "47": 0.7842713594436646,
          "48": -0.2560257315635681,
          "49": -0.5527060627937317,
          "50": -0.4226549565792084,
          "51": -0.4049202501773834,
          "52": 0.3001351058483124,
          "53": 0.13221342861652374,
          "54": 0.3311828672885895,
          "55": -0.6531086564064026,
          "56": -1.0879017114639282,
          "57": -1.115420937538147,
          "58": -1.735975742340088,
          "59": -0.847050130367279,
          "60": 0.6932617425918579,
          "61": 0.8592973351478577,
          "62": 1.0501608848571777,
          "63": 1.1056365966796875
        }
      },
      "inputBias": {
        "rows": 8,
        "columns": 1,
        "weights": {
          "0": -0.07430591434240341,
          "1": -0.036479074507951736,
          "2": 0.38705143332481384,
          "3": -0.03374335542321205,
          "4": 0.10029863566160202,
          "5": -0.09759578108787537,
          "6": -0.12993085384368896,
          "7": -0.3671129047870636
        }
      },
      "forgetMatrix": {
        "rows": 8,
        "columns": 8,
        "weights": {
          "0": 0.020190507173538208,
          "1": -0.06800245493650436,
          "2": -0.581494152545929,
          "3": -0.29966044425964355,
          "4": 0.6796278357505798,
          "5": 0.10126695781946182,
          "6": 0.3891669511795044,
          "7": 0.24111966788768768,
          "8": 0.0787932351231575,
          "9": 0.7721458077430725,
          "10": -0.4663962423801422,
          "11": -0.1366722583770752,
          "12": 0.6294094920158386,
          "13": 0.3489830195903778,
          "14": 0.22576844692230225,
          "15": 0.16904450953006744,
          "16": -0.20006032288074493,
          "17": -0.13733859360218048,
          "18": -0.8082861304283142,
          "19": -1.0459256172180176,
          "20": 0.6448480486869812,
          "21": 0.5882776379585266,
          "22": 1.6212178468704224,
          "23": 0.19640719890594482,
          "24": -0.18498089909553528,
          "25": 0.8451930284500122,
          "26": -0.32738280296325684,
          "27": -0.2403363138437271,
          "28": 0.3536323606967926,
          "29": 0.34770750999450684,
          "30": 0.14208360016345978,
          "31": 0.1641044318675995,
          "32": -0.03173377364873886,
          "33": -0.1798330545425415,
          "34": -0.07020852714776993,
          "35": -0.7885103821754456,
          "36": 0.26456978917121887,
          "37": 0.43542546033859253,
          "38": 0.7275807857513428,
          "39": 0.02452506683766842,
          "40": -0.20193946361541748,
          "41": 0.8164666891098022,
          "42": -0.5589516758918762,
          "43": -0.17007984220981598,
          "44": 1.0173134803771973,
          "45": 0.21628175675868988,
          "46": 0.22553463280200958,
          "47": 0.14170101284980774,
          "48": 0.2392352670431137,
          "49": 0.2601478099822998,
          "50": -0.4752673804759979,
          "51": -0.4592687487602234,
          "52": 0.26679497957229614,
          "53": 0.5419782400131226,
          "54": 0.37865784764289856,
          "55": 0.14858737587928772,
          "56": 1.0040096044540405,
          "57": 0.6076899766921997,
          "58": -0.5073934197425842,
          "59": 0.673707902431488,
          "60": 0.453652560710907,
          "61": 0.42340999841690063,
          "62": -0.8658998608589172,
          "63": 0.07016430050134659
        }
      },
      "forgetHidden": {
        "rows": 8,
        "columns": 8,
        "weights": {
          "0": -0.12722845375537872,
          "1": -0.423873633146286,
          "2": 0.17569971084594727,
          "3": -0.2049763947725296,
          "4": 0.40778157114982605,
          "5": 0.38740503787994385,
          "6": 0.2092130184173584,
          "7": -0.4544621706008911,
          "8": -0.21995389461517334,
          "9": -0.39608561992645264,
          "10": -0.006672965828329325,
          "11": -0.4353163242340088,
          "12": 0.37925097346305847,
          "13": 0.09213634580373764,
          "14": 0.24503439664840698,
          "15": -0.004874235484749079,
          "16": -1.1107032299041748,
          "17": -1.2314672470092773,
          "18": -0.06111583486199379,
          "19": -1.1594679355621338,
          "20": 1.3457735776901245,
          "21": 0.5329228043556213,
          "22": 1.3485262393951416,
          "23": -0.6634302735328674,
          "24": -0.21914294362068176,
          "25": -0.4362642467021942,
          "26": 0.003768053138628602,
          "27": -0.48500460386276245,
          "28": 0.5173128247261047,
          "29": 0.18326549232006073,
          "30": 0.34964755177497864,
          "31": 0.13150213658809662,
          "32": -0.548173189163208,
          "33": -0.6804898381233215,
          "34": -1.0955514907836914,
          "35": -0.6335174441337585,
          "36": 0.7420253753662109,
          "37": 0.29103201627731323,
          "38": 0.545947790145874,
          "39": -0.6666393280029297,
          "40": -0.26178520917892456,
          "41": -0.4749802350997925,
          "42": 1.6919870376586914,
          "43": -0.31751570105552673,
          "44": 0.11608704179525375,
          "45": 0.3618999123573303,
          "46": 0.16725598275661469,
          "47": -0.0998339131474495,
          "48": -0.344139039516449,
          "49": -0.5459837913513184,
          "50": -0.4817635715007782,
          "51": -0.32190853357315063,
          "52": 0.5884943604469299,
          "53": 0.16856034100055695,
          "54": 0.42892760038375854,
          "55": -0.7191610336303711,
          "56": -0.65968257188797,
          "57": -0.6625759601593018,
          "58": -0.5979357361793518,
          "59": -0.6712231040000916,
          "60": 0.7683153748512268,
          "61": 0.1598089337348938,
          "62": 1.1273260116577148,
          "63": 0.7233189940452576
        }
      },
      "forgetBias": {
        "rows": 8,
        "columns": 1,
        "weights": {
          "0": 0,
          "1": 0,
          "2": 0,
          "3": 0,
          "4": 0,
          "5": 0,
          "6": 0,
          "7": 0
        }
      },
      "outputMatrix": {
        "rows": 8,
        "columns": 8,
        "weights": {
          "0": -0.6345770359039307,
          "1": 0.47124549746513367,
          "2": 0.12297576665878296,
          "3": 0.6278958916664124,
          "4": 0.6367321014404297,
          "5": -0.46454548835754395,
          "6": -0.515337347984314,
          "7": 0.11124855279922485,
          "8": -0.4842689335346222,
          "9": 0.8493823409080505,
          "10": 0.2446422129869461,
          "11": 0.23423172533512115,
          "12": 0.3670215904712677,
          "13": -0.12660819292068481,
          "14": -0.27774375677108765,
          "15": 0.20755717158317566,
          "16": 0.2545296251773834,
          "17": 1.045369029045105,
          "18": -0.44270381331443787,
          "19": 0.1251172572374344,
          "20": 0.8143667578697205,
          "21": -0.2940116226673126,
          "22": -0.418648362159729,
          "23": 0.1563825011253357,
          "24": -0.7863044738769531,
          "25": 1.0109140872955322,
          "26": 0.3163145184516907,
          "27": 0.2695337235927582,
          "28": -0.311626672744751,
          "29": -0.2698436379432678,
          "30": -0.3551815152168274,
          "31": 0.08613792061805725,
          "32": -0.6135097742080688,
          "33": 0.6099557876586914,
          "34": 0.29374364018440247,
          "35": 0.22760571539402008,
          "36": 0.7555681467056274,
          "37": -0.27086666226387024,
          "38": -0.22089263796806335,
          "39": 0.0724361315369606,
          "40": 0.04365937411785126,
          "41": 1.213683843612671,
          "42": 0.015379847027361393,
          "43": 0.2483445554971695,
          "44": -0.35083118081092834,
          "45": 0.04307270422577858,
          "46": -0.3950691521167755,
          "47": 0.002903927583247423,
          "48": -0.8782989978790283,
          "49": 0.29322490096092224,
          "50": 0.3933218717575073,
          "51": 0.1662874072790146,
          "52": 0.3283222019672394,
          "53": -0.36378157138824463,
          "54": -0.22848184406757355,
          "55": 0.047790057957172394,
          "56": 2.0025410652160645,
          "57": -1.2876380681991577,
          "58": -0.7887188792228699,
          "59": -2.257673978805542,
          "60": 0.4529236853122711,
          "61": 2.105754852294922,
          "62": 2.133178234100342,
          "63": -0.07160240411758423
        }
      },
      "outputHidden": {
        "rows": 8,
        "columns": 8,
        "weights": {
          "0": -0.29495880007743835,
          "1": -0.5714660882949829,
          "2": -1.0655796527862549,
          "3": -0.20269633829593658,
          "4": 0.7028867602348328,
          "5": 0.35066166520118713,
          "6": 0.4973439872264862,
          "7": -0.8770209550857544,
          "8": -0.2615882456302643,
          "9": -0.48125529289245605,
          "10": -0.2747138738632202,
          "11": -0.37889373302459717,
          "12": 0.4139367640018463,
          "13": 0.009294964373111725,
          "14": 0.28887423872947693,
          "15": -0.3450116515159607,
          "16": 0.7519176602363586,
          "17": 0.19234900176525116,
          "18": 1.673288345336914,
          "19": 0.578427791595459,
          "20": -0.8210345506668091,
          "21": -0.5854568481445312,
          "22": -0.7446835041046143,
          "23": 0.07309789210557938,
          "24": -0.1882084310054779,
          "25": -0.30993080139160156,
          "26": -0.023708293214440346,
          "27": -0.39302706718444824,
          "28": 0.29761120676994324,
          "29": 0.12248560041189194,
          "30": 0.25413501262664795,
          "31": 0.32160115242004395,
          "32": -0.1567254513502121,
          "33": -0.3082126975059509,
          "34": -0.6157422065734863,
          "35": -0.2423735409975052,
          "36": 0.21028923988342285,
          "37": -0.44953519105911255,
          "38": 0.2253522127866745,
          "39": -1.1510288715362549,
          "40": -0.028930561617016792,
          "41": -0.055986445397138596,
          "42": 0.116824209690094,
          "43": -0.0868682712316513,
          "44": 0.08483175188302994,
          "45": -0.06280504167079926,
          "46": 0.22053566575050354,
          "47": 0.5098177194595337,
          "48": -0.17784011363983154,
          "49": -0.4066452085971832,
          "50": -0.5384232997894287,
          "51": -0.24751225113868713,
          "52": 0.411548912525177,
          "53": -0.11946447938680649,
          "54": 0.41209638118743896,
          "55": -0.9540454149246216,
          "56": -1.1382743120193481,
          "57": -1.122124195098877,
          "58": -1.8083596229553223,
          "59": -0.9261751770973206,
          "60": 0.7650876045227051,
          "61": 0.9588304758071899,
          "62": 1.0173052549362183,
          "63": 1.1117571592330933
        }
      },
      "outputBias": {
        "rows": 8,
        "columns": 1,
        "weights": {
          "0": 0.14700976014137268,
          "1": 0.10404864698648453,
          "2": 0.42212021350860596,
          "3": 0.11506938934326172,
          "4": 0.14403598010540009,
          "5": -0.03755168989300728,
          "6": 0.09563171863555908,
          "7": -0.23760423064231873
        }
      },
      "cellActivationMatrix": {
        "rows": 8,
        "columns": 8,
        "weights": {
          "0": -0.6822001338005066,
          "1": -0.16519133746623993,
          "2": 0.7335727214813232,
          "3": 0.5821793079376221,
          "4": -0.15303292870521545,
          "5": -0.9768461585044861,
          "6": -0.6910029649734497,
          "7": -0.4093201756477356,
          "8": -0.40883857011795044,
          "9": -0.3140386939048767,
          "10": 0.8069680333137512,
          "11": 0.4077034890651703,
          "12": -0.16516776382923126,
          "13": -0.36337360739707947,
          "14": -0.567488968372345,
          "15": -0.4035920798778534,
          "16": -0.8896588087081909,
          "17": 0.24130961298942566,
          "18": 0.5373687148094177,
          "19": 0.6481373906135559,
          "20": 0.7284985780715942,
          "21": -0.7760930061340332,
          "22": -0.3679039478302002,
          "23": 0.08082346618175507,
          "24": -0.7491855621337891,
          "25": -0.23162102699279785,
          "26": 0.5780412554740906,
          "27": 0.31003862619400024,
          "28": 0.12264801561832428,
          "29": -0.33183780312538147,
          "30": -0.33859145641326904,
          "31": -0.1947534829378128,
          "32": 0.8687269687652588,
          "33": 0.41677650809288025,
          "34": -1.3583414554595947,
          "35": -0.40945151448249817,
          "36": 0.5030987858772278,
          "37": 0.6660009622573853,
          "38": 0.619549572467804,
          "39": 0.5004578232765198,
          "40": 0.4848252832889557,
          "41": -0.20834261178970337,
          "42": -0.2419038861989975,
          "43": -0.3371773064136505,
          "44": -0.5905671715736389,
          "45": 0.4226457178592682,
          "46": 0.34629276394844055,
          "47": 0.13714155554771423,
          "48": 0.7919456958770752,
          "49": 0.5859299302101135,
          "50": -0.8704014420509338,
          "51": -0.3129484951496124,
          "52": 0.4081036448478699,
          "53": 0.33289408683776855,
          "54": 0.42519187927246094,
          "55": 0.4847802519798279,
          "56": -0.24318411946296692,
          "57": 0.31784823536872864,
          "58": 0.6746313571929932,
          "59": 0.5891587138175964,
          "60": 0.015135323628783226,
          "61": -0.3248262107372284,
          "62": -0.9170977473258972,
          "63": -0.05328388884663582
        }
      },
      "cellActivationHidden": {
        "rows": 8,
        "columns": 8,
        "weights": {
          "0": -0.016082163900136948,
          "1": 0.31530702114105225,
          "2": 0.5768375992774963,
          "3": -0.01759747974574566,
          "4": -0.7166044116020203,
          "5": 0.4861781895160675,
          "6": -0.22384093701839447,
          "7": 1.1886686086654663,
          "8": 0.3946205973625183,
          "9": 0.4855433404445648,
          "10": -0.622547447681427,
          "11": 0.2970505356788635,
          "12": -0.4936046302318573,
          "13": -0.7995399236679077,
          "14": -0.4314959943294525,
          "15": 0.21282413601875305,
          "16": -0.5335017442703247,
          "17": -0.29122838377952576,
          "18": -0.7992634177207947,
          "19": -0.19840772449970245,
          "20": 0.5530905723571777,
          "21": 1.1692830324172974,
          "22": 0.555914044380188,
          "23": -0.9671911597251892,
          "24": 0.2917689085006714,
          "25": 0.06395959854125977,
          "26": -0.45632845163345337,
          "27": 0.06471887230873108,
          "28": -0.08636703342199326,
          "29": -0.9820209741592407,
          "30": -0.30767151713371277,
          "31": 0.24967041611671448,
          "32": 0.11113020032644272,
          "33": 0.30779263377189636,
          "34": 0.7022654414176941,
          "35": 0.3864222466945648,
          "36": -0.36229267716407776,
          "37": -0.2119903415441513,
          "38": -0.18630161881446838,
          "39": 0.2796846032142639,
          "40": 0.0013827465008944273,
          "41": 0.11449819803237915,
          "42": -2.3323893547058105,
          "43": 0.17003674805164337,
          "44": 0.33528798818588257,
          "45": -0.23904043436050415,
          "46": -0.016973275691270828,
          "47": -1.7104542255401611,
          "48": -0.10943610966205597,
          "49": -0.2782749831676483,
          "50": 0.6496860980987549,
          "51": -0.06937265396118164,
          "52": 0.30245932936668396,
          "53": 0.3972209393978119,
          "54": 0.19174015522003174,
          "55": 0.07918073236942291,
          "56": -0.269336462020874,
          "57": 0.027459878474473953,
          "58": 0.86407071352005,
          "59": -0.15155750513076782,
          "60": -0.4545430839061737,
          "61": 0.208661288022995,
          "62": -0.039140522480010986,
          "63": -0.9559493660926819
        }
      },
      "cellActivationBias": {
        "rows": 8,
        "columns": 1,
        "weights": {
          "0": -0.46629598736763,
          "1": 0.01406440231949091,
          "2": -0.06359490007162094,
          "3": -0.09531089663505554,
          "4": -0.5707103610038757,
          "5": -0.07681349664926529,
          "6": -0.03842421993613243,
          "7": 0.7518890500068665
        }
      }
    }
  ],
  "outputConnector": {
    "rows": 4,
    "columns": 8,
    "weights": {
      "0": 0.41352033615112305,
      "1": 0.5045382976531982,
      "2": -0.5192838311195374,
      "3": 0.3107360899448395,
      "4": -0.49573370814323425,
      "5": -0.2794109880924225,
      "6": -0.42245960235595703,
      "7": 0.02008920907974243,
      "8": 0.550195038318634,
      "9": 0.3812088668346405,
      "10": -0.17865599691867828,
      "11": 0.4372175335884094,
      "12": -0.20498411357402802,
      "13": -0.3039979934692383,
      "14": -0.4183252155780792,
      "15": 0.6355436444282532,
      "16": -0.14885611832141876,
      "17": 0.500247597694397,
      "18": 0.10609448701143265,
      "19": 0.7370290160179138,
      "20": -0.6590359210968018,
      "21": 0.03323821723461151,
      "22": -0.5061724185943604,
      "23": 0.2763158679008484,
      "24": 0.6297793984413147,
      "25": 0.2823730707168579,
      "26": 0.11507999151945114,
      "27": 0.060971830040216446,
      "28": -0.423444926738739,
      "29": 0.07029460370540619,
      "30": -0.501238226890564,
      "31": 0.910843014717102
    }
  },
  "output": {
    "rows": 4,
    "columns": 1,
    "weights": {
      "0": 0.22277002036571503,
      "1": 0.4113837778568268,
      "2": 0.09322872757911682,
      "3": 0.3232036232948303
    }
  }
}
