{"type":"LSTMTimeStep","options":{"inputSize":4,"hiddenLayers":[8,8],"outputSize":4,"decayRate":0.999,"smoothEps":1e-8,"regc":0.000001,"clipval":5},"hiddenLayers":[{"inputMatrix":{"rows":8,"columns":4,"weights":{"0":0.9844712018966675,"1":1.012510061264038,"2":1.2249666452407837,"3":0.9046275019645691,"4":-0.02669578045606613,"5":0.9108010530471802,"6":-0.14040175080299377,"7":0.5492658615112305,"8":0.06981406360864639,"9":0.9982369542121887,"10":0.5118823647499084,"11":0.9952332973480225,"12":-0.32723268866539,"13":0.7475507259368896,"14":-0.04768427833914757,"15":0.41441065073013306,"16":0.9903539419174194,"17":0.5569316148757935,"18":0.48420658707618713,"19":0.43210431933403015,"20":0.030281295999884605,"21":0.6332713961601257,"22":0.6777054071426392,"23":0.6075112223625183,"24":-0.19192816317081451,"25":0.6905462145805359,"26":0.10748839378356934,"27":0.5212351083755493,"28":-0.3199739456176758,"29":0.5337782502174377,"30":0.27893882989883423,"31":0.46784472465515137}},"inputHidden":{"rows":8,"columns":8,"weights":{"0":0.07777955383062363,"1":-0.5260335803031921,"2":-0.35236525535583496,"3":0.7428097724914551,"4":-0.14101435244083405,"5":-0.12650902569293976,"6":0.8979190587997437,"7":-0.4120940566062927,"8":-0.5212679505348206,"9":0.17565232515335083,"10":0.3855680525302887,"11":-0.014591792598366737,"12":-1.3809216022491455,"13":0.40763363242149353,"14":0.19234982132911682,"15":0.4534938335418701,"16":-0.39249441027641296,"17":-0.23880556225776672,"18":0.1973663717508316,"19":0.01872771978378296,"20":-0.6215083599090576,"21":0.5741363763809204,"22":0.11823207885026932,"23":0.31192225217819214,"24":-0.29408198595046997,"25":-0.2785564363002777,"26":0.24485254287719727,"27":0.09917813539505005,"28":-0.7399646639823914,"29":0.29849153757095337,"30":0.4080948531627655,"31":0.2613310217857361,"32":-0.5315624475479126,"33":0.15163253247737885,"34":0.4057120382785797,"35":0.3246629238128662,"36":-0.6983243227005005,"37":-0.1368228793144226,"38":0.8092418909072876,"39":0.13155497610569,"40":-0.562176525592804,"41":-0.4458252191543579,"42":0.36476922035217285,"43":-0.035078708082437515,"44":-1.110265851020813,"45":0.5486571192741394,"46":0.15352647006511688,"47":0.44607147574424744,"48":-0.058280013501644135,"49":0.42810529470443726,"50":0.21381066739559174,"51":-0.23282919824123383,"52":-0.22060106694698334,"53":0.07439534366130829,"54":-0.1412629634141922,"55":0.056921977549791336,"56":-0.5885303020477295,"57":-0.60893315076828,"58":0.03546135500073433,"59":0.22140257060527802,"60":-0.7497392892837524,"61":0.41670235991477966,"62":0.43004581332206726,"63":0.17726826667785645}},"inputBias":{"rows":8,"columns":1,"weights":{"0":1.733201026916504,"1":0.37163448333740234,"2":-0.04792824015021324,"3":0.1073116660118103,"4":0.25869205594062805,"5":0.9216671586036682,"6":0.14543601870536804,"7":0.3891242742538452}},"forgetMatrix":{"rows":8,"columns":4,"weights":{"0":-0.18334168195724487,"1":-0.05278858169913292,"2":0.029050176963210106,"3":-0.06623692065477371,"4":0.058961041271686554,"5":0.27641984820365906,"6":0.3127867877483368,"7":0.6716260313987732,"8":0.23912128806114197,"9":0.29547297954559326,"10":0.1555180847644806,"11":0.46635937690734863,"12":0.18055425584316254,"13":0.35475435853004456,"14":0.29089298844337463,"15":0.7828569412231445,"16":-0.1477312594652176,"17":-0.6328752040863037,"18":0.36769551038742065,"19":-0.5107186436653137,"20":-0.14588391780853271,"21":-0.029011087492108345,"22":-0.38459303975105286,"23":0.06686589121818542,"24":0.337263286113739,"25":0.6900565028190613,"26":0.5298858880996704,"27":1.1139700412750244,"28":0.0928833931684494,"29":0.3027955889701843,"30":-0.0324544683098793,"31":0.5263509154319763}},"forgetHidden":{"rows":8,"columns":8,"weights":{"0":1.5255556106567383,"1":-0.29846295714378357,"2":-0.7455694675445557,"3":0.30063381791114807,"4":1.8420315980911255,"5":-0.11111202090978622,"6":0.6584386825561523,"7":-0.3500042259693146,"8":-0.31896018981933594,"9":0.2089403122663498,"10":0.1662060022354126,"11":-0.3440474271774292,"12":-0.6499008536338806,"13":0.17619873583316803,"14":-0.4756897985935211,"15":0.19130466878414154,"16":-0.5870617032051086,"17":-0.02949180081486702,"18":-0.10678619891405106,"19":0.008148197084665298,"20":-0.3059008717536926,"21":-0.00519083347171545,"22":-0.28718826174736023,"23":-0.03652472048997879,"24":-0.537214994430542,"25":0.41889098286628723,"26":0.02039370872080326,"27":-0.25159361958503723,"28":-0.3317326605319977,"29":0.010552172549068928,"30":-0.5754727125167847,"31":0.07175403088331223,"32":2.1671195030212402,"33":-0.2830728590488434,"34":-0.6618597507476807,"35":0.21486984193325043,"36":0.877036988735199,"37":-0.4190572500228882,"38":0.4300788640975952,"39":-0.646980881690979,"40":-0.16221323609352112,"41":0.2373676598072052,"42":0.19709011912345886,"43":-0.21034491062164307,"44":0.02915029413998127,"45":0.40973132848739624,"46":-0.34391552209854126,"47":0.3477703034877777,"48":-0.23323652148246765,"49":0.5347738862037659,"50":-0.08347450196743011,"51":-0.3715149462223053,"52":-0.1755610555410385,"53":-0.312929630279541,"54":-0.693079948425293,"55":-0.2349604368209839,"56":-0.4324696362018585,"57":0.3301396369934082,"58":0.16296620666980743,"59":-0.1950233429670334,"60":-0.18260318040847778,"61":0.09002147614955902,"62":-0.36478686332702637,"63":0.19604581594467163}},"forgetBias":{"rows":8,"columns":1,"weights":{"0":0,"1":0,"2":0,"3":0,"4":0,"5":0,"6":0,"7":0}},"outputMatrix":{"rows":8,"columns":4,"weights":{"0":0.40287524461746216,"1":0.6194789409637451,"2":0.6916587948799133,"3":0.4511299729347229,"4":0.05623503029346466,"5":0.8102452754974365,"6":-0.07589137554168701,"7":0.5621297359466553,"8":0.23883995413780212,"9":0.9191930294036865,"10":0.42846956849098206,"11":0.9317816495895386,"12":-0.07264481484889984,"13":0.6736329197883606,"14":0.17010851204395294,"15":0.7177625894546509,"16":0.7788410186767578,"17":0.33503109216690063,"18":0.3153829574584961,"19":0.3392808735370636,"20":-0.12949754297733307,"21":0.4811331629753113,"22":0.34978434443473816,"23":0.571842610836029,"24":-0.03165361285209656,"25":0.752309262752533,"26":0.42086899280548096,"27":0.8590609431266785,"28":-0.1668194979429245,"29":0.5625725388526917,"30":0.25568246841430664,"31":0.5772051811218262}},"outputHidden":{"rows":8,"columns":8,"weights":{"0":0.318893164396286,"1":-0.33777615427970886,"2":-0.3012683391571045,"3":0.5666157007217407,"4":-0.1978434920310974,"5":0.2913362979888916,"6":0.5819035172462463,"7":-0.08354666084051132,"8":-0.39405104517936707,"9":0.12486358731985092,"10":0.4750693142414093,"11":-0.3001226484775543,"12":-1.6881351470947266,"13":0.507123589515686,"14":-0.17426742613315582,"15":0.5502387285232544,"16":-0.4602798819541931,"17":-0.21887831389904022,"18":0.10469260066747665,"19":0.015248539857566357,"20":-0.7815424203872681,"21":0.4461822509765625,"22":-0.09470511972904205,"23":0.35620465874671936,"24":-0.30586183071136475,"25":0.08971360325813293,"26":0.20626898109912872,"27":-0.1289624124765396,"28":-0.5228483080863953,"29":0.2470179945230484,"30":0.05851491913199425,"31":0.18578609824180603,"32":0.0465366430580616,"33":0.4398566484451294,"34":0.4188595116138458,"35":0.082860566675663,"36":-0.3195226490497589,"37":-0.06307770311832428,"38":0.5549266934394836,"39":0.09430792927742004,"40":-0.5383420586585999,"41":-0.35296010971069336,"42":0.25498080253601074,"43":0.041951242834329605,"44":-0.9557046890258789,"45":0.5287420153617859,"46":0.31062793731689453,"47":0.39778003096580505,"48":-0.39917370676994324,"49":0.5567257404327393,"50":0.1387195885181427,"51":-0.3373010456562042,"52":-0.3461642861366272,"53":-0.16132716834545135,"54":-0.6059346199035645,"55":-0.06283513456583023,"56":-0.5218186378479004,"57":-0.2871316075325012,"58":0.08837877959012985,"59":0.15268880128860474,"60":-0.649574339389801,"61":0.3695281445980072,"62":0.30748823285102844,"63":0.16250362992286682}},"outputBias":{"rows":8,"columns":1,"weights":{"0":1.7365549802780151,"1":0.525092601776123,"2":0.05896201357245445,"3":0.2824152708053589,"4":0.43950071930885315,"5":0.6973093748092651,"6":0.2982165813446045,"7":0.40219736099243164}},"cellActivationMatrix":{"rows":8,"columns":4,"weights":{"0":0.3053927421569824,"1":-0.19349704682826996,"2":-0.8220925331115723,"3":-0.8194014430046082,"4":0.7483788132667542,"5":-0.5278977155685425,"6":-0.4588043987751007,"7":-0.7161838412284851,"8":0.9462308287620544,"9":-0.6119789481163025,"10":-0.1804833859205246,"11":-0.7328120470046997,"12":-0.7078607082366943,"13":0.4576309621334076,"14":0.4547909200191498,"15":0.6613197922706604,"16":-0.4222424626350403,"17":0.5625017285346985,"18":-0.577399730682373,"19":0.1310720443725586,"20":0.3622589111328125,"21":-0.4032348096370697,"22":-0.6148630380630493,"23":-0.9167839288711548,"24":-0.5420892834663391,"25":0.42415255308151245,"26":0.4797479212284088,"27":0.5218246579170227,"28":0.7156246304512024,"29":-0.4279772937297821,"30":-0.3259555697441101,"31":-0.7009202837944031}},"cellActivationHidden":{"rows":8,"columns":8,"weights":{"0":-0.7211284637451172,"1":-0.8864463567733765,"2":-0.6779701113700867,"3":0.8035587072372437,"4":-0.5447364449501038,"5":-0.6849285960197449,"6":0.9051592350006104,"7":-0.6777613162994385,"8":-0.03262057155370712,"9":-0.0969899371266365,"10":0.1162407398223877,"11":0.02220091223716736,"12":-0.23024676740169525,"13":-0.18978308141231537,"14":0.07644986361265182,"15":0.02602081373333931,"16":0.35448941588401794,"17":-0.042600445449352264,"18":-0.19311125576496124,"19":0.09925372898578644,"20":0.404708594083786,"21":-0.211078479886055,"22":0.14432577788829803,"23":-0.11237429082393646,"24":-0.06869446486234665,"25":0.011238261125981808,"26":-0.0440157912671566,"27":-0.17734937369823456,"28":0.048984527587890625,"29":0.3163105845451355,"30":-0.15695089101791382,"31":0.160286083817482,"32":-1.9816498756408691,"33":-0.8503034710884094,"34":-0.7122997641563416,"35":1.118677020072937,"36":-1.4924052953720093,"37":-1.3079439401626587,"38":0.8242491483688354,"39":-1.1042143106460571,"40":0.37222322821617126,"41":-0.6997030973434448,"42":-0.5267344117164612,"43":0.7753556370735168,"44":0.6986596584320068,"45":-0.7769657969474792,"46":1.1278584003448486,"47":-0.7278544902801514,"48":0.00935919489711523,"49":-0.5780543684959412,"50":-0.14474372565746307,"51":0.26088377833366394,"52":0.215326726436615,"53":0.5403098464012146,"54":0.5966361165046692,"55":0.2605580687522888,"56":0.3688293695449829,"57":-0.26230376958847046,"58":-0.33397331833839417,"59":0.4183923602104187,"60":0.41300085186958313,"61":-0.3857245147228241,"62":0.4725304841995239,"63":-0.30018576979637146}},"cellActivationBias":{"rows":8,"columns":1,"weights":{"0":0.17981790006160736,"1":0.5664511919021606,"2":0.47082895040512085,"3":-0.3599773049354553,"4":-0.28789108991622925,"5":-0.1852765679359436,"6":-0.2712702453136444,"7":0.20403319597244263}}},{"inputMatrix":{"rows":8,"columns":8,"weights":{"0":1.3983794450759888,"1":0.05607403442263603,"2":-1.0474621057510376,"3":-0.07120948284864426,"4":2.0549004077911377,"5":0.199778214097023,"6":-0.2518868148326874,"7":0.03928126022219658,"8":0.8657535314559937,"9":-1.1276319026947021,"10":-0.03986014798283577,"11":0.5308014750480652,"12":0.6399685144424438,"13":0.7770906090736389,"14":1.5989964008331299,"15":0.6072037220001221,"16":0.919833779335022,"17":1.8568360805511475,"18":0.6270478963851929,"19":-0.9761320352554321,"20":0.7433803081512451,"21":0.11008075624704361,"22":-0.4296214282512665,"23":0.37237632274627686,"24":-0.5825399160385132,"25":-0.6031133532524109,"26":-0.6505228281021118,"27":0.42802107334136963,"28":-0.062577024102211,"29":-0.4507226049900055,"30":0.25645726919174194,"31":-0.5456478595733643,"32":1.3824608325958252,"33":-0.9564543962478638,"34":-1.0982261896133423,"35":0.4994167983531952,"36":1.1531710624694824,"37":0.3588128685951233,"38":0.9675660133361816,"39":0.2749783992767334,"40":-0.37242257595062256,"41":-1.007961392402649,"42":-0.8990768790245056,"43":0.5240797400474548,"44":0.015484515577554703,"45":-0.5307890772819519,"46":0.11419306695461273,"47":-0.6925338506698608,"48":-0.10894875973463058,"49":-0.3778955638408661,"50":-0.5188304781913757,"51":0.27454885840415955,"52":0.2580939829349518,"53":-0.33767104148864746,"54":-0.10560861974954605,"55":-0.2948244512081146,"56":-0.3577810823917389,"57":-0.5207624435424805,"58":-0.7050135731697083,"59":0.4051777720451355,"60":0.28390347957611084,"61":-0.41614651679992676,"62":0.37312909960746765,"63":-0.39471039175987244}},"inputHidden":{"rows":8,"columns":8,"weights":{"0":-1.8606841564178467,"1":-1.0517340898513794,"2":0.48252540826797485,"3":-0.12244658917188644,"4":1.1931171417236328,"5":0.0410383976995945,"6":0.8855136036872864,"7":-0.08052879571914673,"8":0.664761483669281,"9":0.2073175609111786,"10":-0.36615416407585144,"11":-0.23689253628253937,"12":0.19128838181495667,"13":-0.504256546497345,"14":-0.03488187491893768,"15":-0.20017240941524506,"16":1.186530590057373,"17":0.6016541123390198,"18":-0.6555542349815369,"19":-0.5181441307067871,"20":-0.2315465211868286,"21":-0.3118639886379242,"22":-0.13093070685863495,"23":-0.5132020115852356,"24":-0.4914172291755676,"25":0.030767614021897316,"26":0.262569785118103,"27":0.6270145773887634,"28":-0.41160398721694946,"29":0.5197500586509705,"30":-0.5829060077667236,"31":0.5979416370391846,"32":-0.07889412343502045,"33":-0.3240177631378174,"34":-0.6748572587966919,"35":0.19666580855846405,"36":0.816037118434906,"37":0.31357312202453613,"38":-0.19279174506664276,"39":0.43933671712875366,"40":0.26991161704063416,"41":0.27281081676483154,"42":0.6859865188598633,"43":0.5226302742958069,"44":-0.2228441834449768,"45":0.4411212205886841,"46":-0.6757103204727173,"47":0.49912580847740173,"48":-1.0016918182373047,"49":-0.2873939573764801,"50":-0.4319154918193817,"51":0.845299482345581,"52":0.21337245404720306,"53":0.9832332134246826,"54":-0.631786584854126,"55":1.0466222763061523,"56":0.9499645829200745,"57":1.2150119543075562,"58":0.2683100700378418,"59":0.309063583612442,"60":-0.47738075256347656,"61":0.24346217513084412,"62":-0.6561945676803589,"63":0.21245510876178741}},"inputBias":{"rows":8,"columns":1,"weights":{"0":0.6038358211517334,"1":0.09339676052331924,"2":-0.870370090007782,"3":0.24279199540615082,"4":0.4032244384288788,"5":0.2811913788318634,"6":1.1741083860397339,"7":0.18326115608215332}},"forgetMatrix":{"rows":8,"columns":8,"weights":{"0":-1.01557195186615,"1":0.6764726638793945,"2":0.45872288942337036,"3":-0.7440047264099121,"4":-2.0002405643463135,"5":0.36964499950408936,"6":-1.6177600622177124,"7":0.37207359075546265,"8":0.12028143554925919,"9":-0.16689352691173553,"10":-0.10836373269557953,"11":0.2017810195684433,"12":0.7252610325813293,"13":-0.08914241939783096,"14":0.2721107602119446,"15":-0.1041848361492157,"16":-0.30858299136161804,"17":0.3337337374687195,"18":-0.04065652936697006,"19":-0.5026841759681702,"20":-1.1043463945388794,"21":0.01673131063580513,"22":-1.1687757968902588,"23":0.18211078643798828,"24":0.47129496932029724,"25":0.3102495074272156,"26":0.49798548221588135,"27":-0.34766823053359985,"28":-0.26163190603256226,"29":0.47694745659828186,"30":-0.2903606593608856,"31":0.37777525186538696,"32":0.08531863242387772,"33":-0.28363263607025146,"34":-0.6150941252708435,"35":0.27835342288017273,"36":-0.2654822766780853,"37":-0.5499457716941833,"38":-0.8021225929260254,"39":-0.6636224985122681,"40":0.7028844356536865,"41":0.4667139947414398,"42":0.5645315051078796,"43":-0.5487169027328491,"44":-0.442090779542923,"45":0.621338963508606,"46":-0.5748328566551208,"47":0.5442045331001282,"48":0.05849992483854294,"49":0.6776782274246216,"50":0.6485469937324524,"51":-0.6512042880058289,"52":-0.7721881866455078,"53":0.35326555371284485,"54":-0.8602786064147949,"55":0.46314701437950134,"56":0.904360830783844,"57":0.24416103959083557,"58":0.4442320764064789,"59":-0.16137191653251648,"60":-0.20863860845565796,"61":0.3446713089942932,"62":-0.158615380525589,"63":0.3165833652019501}},"forgetHidden":{"rows":8,"columns":8,"weights":{"0":0.4964906573295593,"1":-0.17761272192001343,"2":-1.1827110052108765,"3":1.4936288595199585,"4":-0.3074251115322113,"5":1.768072247505188,"6":-1.3014857769012451,"7":2.010974407196045,"8":0.1661689281463623,"9":-0.2379031479358673,"10":-0.22361963987350464,"11":-0.1678420752286911,"12":0.436966210603714,"13":0.022559627890586853,"14":0.031091168522834778,"15":0.0518050380051136,"16":0.1692967414855957,"17":0.3690297603607178,"18":-0.45740705728530884,"19":1.2228997945785522,"20":-0.3571476638317108,"21":1.873868703842163,"22":-0.9287973046302795,"23":1.8608598709106445,"24":0.28780096769332886,"25":0.09682255238294601,"26":0.6324961185455322,"27":0.18591496348381042,"28":-0.36857202649116516,"29":0.11504004150629044,"30":-0.26985424757003784,"31":0.20108719170093536,"32":-0.29546058177948,"33":-0.612524688243866,"34":-0.2904869318008423,"35":0.4234430491924286,"36":-0.17855052649974823,"37":0.5819301009178162,"38":-0.3047853708267212,"39":0.6780989766120911,"40":0.678998589515686,"41":0.4610936641693115,"42":0.3268698751926422,"43":0.24356110394001007,"44":-0.5252246260643005,"45":0.15649259090423584,"46":-0.46963512897491455,"47":0.20643723011016846,"48":0.5042107105255127,"49":-0.14286793768405914,"50":-0.17500483989715576,"51":0.3908896744251251,"52":-0.3335278332233429,"53":0.3019520342350006,"54":-0.47264590859413147,"55":0.46406933665275574,"56":0.3414679169654846,"57":0.04205019399523735,"58":-0.2973480820655823,"59":0.17051105201244354,"60":-0.13356024026870728,"61":0.1785046011209488,"62":-0.42958196997642517,"63":0.18123109638690948}},"forgetBias":{"rows":8,"columns":1,"weights":{"0":0,"1":0,"2":0,"3":0,"4":0,"5":0,"6":0,"7":0}},"outputMatrix":{"rows":8,"columns":8,"weights":{"0":0.7111213207244873,"1":0.7307927012443542,"2":-0.47077658772468567,"3":-0.18725310266017914,"4":1.159882664680481,"5":0.045068446546792984,"6":-0.5033894181251526,"7":-0.08594960719347,"8":0.8061649799346924,"9":-1.1329373121261597,"10":-0.02851102687418461,"11":0.6225982904434204,"12":0.7179793119430542,"13":0.8354436755180359,"14":1.370445966720581,"15":0.6153411865234375,"16":0.8527958393096924,"17":2.1524360179901123,"18":0.7931280732154846,"19":-1.2874243259429932,"20":0.5454426407814026,"21":0.07947082817554474,"22":-0.9614214301109314,"23":0.582444429397583,"24":-0.3387831449508667,"25":-0.5980511903762817,"26":-0.493010014295578,"27":0.47580114006996155,"28":0.11601700633764267,"29":-0.3149879276752472,"30":0.33996981382369995,"31":-0.4555656313896179,"32":1.172582745552063,"33":-1.0832539796829224,"34":-1.2915270328521729,"35":0.6511217355728149,"36":1.1394673585891724,"37":0.4919590651988983,"38":0.852272093296051,"39":0.2781274616718292,"40":-0.26000043749809265,"41":-0.8844910264015198,"42":-0.8121936321258545,"43":0.479962557554245,"44":0.2825067639350891,"45":-0.329681396484375,"46":0.2784669101238251,"47":-0.5127701759338379,"48":0.15051482617855072,"49":-0.4308188855648041,"50":-0.29349833726882935,"51":0.11952228844165802,"52":0.18682682514190674,"53":-0.16626869142055511,"54":-0.0843111202120781,"55":-0.20178933441638947,"56":-0.08448588103055954,"57":-0.5667770504951477,"58":-0.5379367470741272,"59":0.4600429832935333,"60":0.2417784482240677,"61":-0.42962560057640076,"62":0.37992608547210693,"63":-0.3958459198474884}},"outputHidden":{"rows":8,"columns":8,"weights":{"0":-1.3374669551849365,"1":-1.043349266052246,"2":-1.1502286195755005,"3":0.48245009779930115,"4":1.0327788591384888,"5":0.7676413059234619,"6":-0.08569588512182236,"7":0.6946783065795898,"8":1.0619109869003296,"9":-0.10571596026420593,"10":-0.560936450958252,"11":-0.10899900645017624,"12":0.29371747374534607,"13":-0.31188157200813293,"14":-0.035410769283771515,"15":-0.026097320020198822,"16":1.3359179496765137,"17":0.8043487071990967,"18":-0.9176833033561707,"19":-0.48914971947669983,"20":-0.49083375930786133,"21":0.0556313581764698,"22":-0.2906695008277893,"23":-0.3829936981201172,"24":-0.21175241470336914,"25":0.07451886683702469,"26":0.7118394374847412,"27":0.42068374156951904,"28":-0.4369751214981079,"29":0.2270364761352539,"30":-0.39104124903678894,"31":0.21920326352119446,"32":0.010679681785404682,"33":-0.6022080183029175,"34":-0.9413464069366455,"35":0.2141566425561905,"36":0.8700127005577087,"37":0.4221613109111786,"38":-0.3287194073200226,"39":0.6453567147254944,"40":0.4464524984359741,"41":0.38647934794425964,"42":0.7512795925140381,"43":0.3037627935409546,"44":-0.18500320613384247,"45":0.183369442820549,"46":-0.5843957662582397,"47":0.2784328758716583,"48":-0.739334225654602,"49":-0.2183035910129547,"50":-0.5824694037437439,"51":0.7246685028076172,"52":-0.012034420855343342,"53":0.8259556293487549,"54":-0.6014706492424011,"55":0.9435369968414307,"56":0.667190432548523,"57":0.6741928458213806,"58":0.13057434558868408,"59":0.21623648703098297,"60":-0.4721224308013916,"61":0.16790896654129028,"62":-0.6594616770744324,"63":0.13054153323173523}},"outputBias":{"rows":8,"columns":1,"weights":{"0":0.6892551183700562,"1":0.09066988527774811,"2":-0.8635538220405579,"3":0.3021106421947479,"4":0.41592803597450256,"5":0.3876444697380066,"6":0.8631765246391296,"7":0.2850862741470337}},"cellActivationMatrix":{"rows":8,"columns":8,"weights":{"0":0.6213440895080566,"1":0.6259255409240723,"2":0.40951359272003174,"3":-0.375861793756485,"4":0.025014784187078476,"5":0.4612298607826233,"6":-0.04793631285429001,"7":0.40080562233924866,"8":0.3519695997238159,"9":-0.5225532650947571,"10":0.024258824065327644,"11":0.10296930372714996,"12":-0.12906883656978607,"13":0.5088955163955688,"14":0.589854896068573,"15":0.40957561135292053,"16":0.1239275187253952,"17":-1.0691760778427124,"18":-1.1822978258132935,"19":1.0332214832305908,"20":0.5975235104560852,"21":-0.48185428977012634,"22":1.0475658178329468,"23":-0.6751880049705505,"24":0.27891668677330017,"25":0.3245059549808502,"26":0.25222739577293396,"27":-0.3678378462791443,"28":-0.13035140931606293,"29":0.7009154558181763,"30":-0.1521030217409134,"31":0.5698358416557312,"32":-1.2272894382476807,"33":-0.636809229850769,"34":-0.6481233239173889,"35":0.5950665473937988,"36":-0.21750466525554657,"37":-0.8142383694648743,"38":0.02948112040758133,"39":-0.8435764908790588,"40":-0.30568447709083557,"41":0.8403779864311218,"42":1.3594257831573486,"43":-0.4645014703273773,"44":-1.2005764245986938,"45":0.3868304193019867,"46":-0.43779683113098145,"47":0.48348328471183777,"48":-0.6889551281929016,"49":-0.42660269141197205,"50":-0.37842634320259094,"51":0.49861669540405273,"52":0.07657844573259354,"53":-0.835128664970398,"54":0.16806916892528534,"55":-0.7148922085762024,"56":-0.05044042319059372,"57":0.3113287687301636,"58":0.4400655925273895,"59":-0.47040247917175293,"60":-0.8117925524711609,"61":0.6978317499160767,"62":-0.7319733500480652,"63":0.5790312886238098}},"cellActivationHidden":{"rows":8,"columns":8,"weights":{"0":-0.9698226451873779,"1":-0.25456321239471436,"2":0.6886147856712341,"3":-0.8020843267440796,"4":0.8769954442977905,"5":-0.8741880059242249,"6":0.8448662161827087,"7":-0.94355708360672,"8":-1.5852638483047485,"9":0.04507778212428093,"10":0.36048582196235657,"11":0.39766260981559753,"12":0.8849626779556274,"13":0.5032585263252258,"14":0.08389470726251602,"15":0.5326919555664062,"16":-1.320523977279663,"17":-0.38277485966682434,"18":0.6158421635627747,"19":0.5142858624458313,"20":0.23804177343845367,"21":0.40379583835601807,"22":-0.14080528914928436,"23":0.48309850692749023,"24":-0.32437440752983093,"25":-0.12831255793571472,"26":-0.5362643599510193,"27":-0.026599256321787834,"28":0.2346922755241394,"29":-0.08122627437114716,"30":0.3547075092792511,"31":0.1133599504828453,"32":0.6433193683624268,"33":-0.16010119020938873,"34":-0.3254202902317047,"35":0.020458828657865524,"36":-0.7084623575210571,"37":-0.1807112693786621,"38":-0.04601489007472992,"39":-0.008195643313229084,"40":0.443584680557251,"41":-0.14568009972572327,"42":-1.0746572017669678,"43":0.44974538683891296,"44":-0.5793670415878296,"45":0.42544025182724,"46":-1.1923120021820068,"47":0.4396113157272339,"48":0.4425129294395447,"49":0.12834730744361877,"50":-0.08909894526004791,"51":-0.09811025857925415,"52":-0.5797114372253418,"53":0.3011959195137024,"54":-0.05490754917263985,"55":0.2142602503299713,"56":0.5083245038986206,"57":0.8506532311439514,"58":-0.8587892055511475,"59":0.6549302339553833,"60":-0.699759840965271,"61":0.49466848373413086,"62":-1.0395121574401855,"63":0.5610185265541077}},"cellActivationBias":{"rows":8,"columns":1,"weights":{"0":0.2121260017156601,"1":0.4878455102443695,"2":0.44025206565856934,"3":-0.1300520896911621,"4":-0.1257847249507904,"5":-0.06112610548734665,"6":-0.22912165522575378,"7":-0.418716698884964}}}],"outputConnector":{"rows":4,"columns":8,"weights":{"0":0.25689443945884705,"1":0.07230336964130402,"2":-0.7486745119094849,"3":-0.6084048748016357,"4":-0.3108012080192566,"5":-0.3170468509197235,"6":0.3692348301410675,"7":-0.6879752278327942,"8":-0.42203113436698914,"9":0.3505443334579468,"10":-0.00899555068463087,"11":-0.34652188420295715,"12":0.13181082904338837,"13":-0.5783655047416687,"14":0.0348229818046093,"15":-0.52234947681427,"16":-0.11550678312778473,"17":-0.1505325734615326,"18":-0.9481672048568726,"19":-0.4636750817298889,"20":0.2662001848220825,"21":-0.4347926080226898,"22":0.6417377591133118,"23":-0.3296329379081726,"24":-0.7406178712844849,"25":-0.12104538828134537,"26":0.5071489214897156,"27":0.03937216103076935,"28":0.520561695098877,"29":-0.4627667963504791,"30":0.06260664761066437,"31":-0.3748786449432373}},"output":{"rows":4,"columns":1,"weights":{"0":0.17340242862701416,"1":0.4931779205799103,"2":0.12614862620830536,"3":0.5288806557655334}}}