{"type":"LSTMTimeStep","options":{"inputSize":4,"hiddenLayers":[8,8],"outputSize":4,"decayRate":0.999,"smoothEps":1e-8,"regc":0.000001,"clipval":5},"hiddenLayers":[{"inputMatrix":{"rows":8,"columns":4,"weights":{"0":0.5605891346931458,"1":0.48259562253952026,"2":0.6779696345329285,"3":0.4517469108104706,"4":-0.35700568556785583,"5":-0.37784504890441895,"6":-1.3618714809417725,"7":-0.5901165008544922,"8":-0.09994015097618103,"9":0.04891841486096382,"10":0.09352613985538483,"11":0.10666094720363617,"12":0.21995693445205688,"13":0.7883710265159607,"14":0.45952239632606506,"15":0.6194358468055725,"16":0.5683724284172058,"17":0.9710857272148132,"18":0.9374036192893982,"19":1.015756607055664,"20":0.3413165807723999,"21":0.2946467101573944,"22":0.32995957136154175,"23":0.21700230240821838,"24":-0.3106350898742676,"25":0.0012686386471614242,"26":-0.2800579369068146,"27":0.09325750917196274,"28":0.1295151561498642,"29":0.6552639007568359,"30":0.34956157207489014,"31":0.6140214204788208}},"inputHidden":{"rows":8,"columns":8,"weights":{"0":-0.42673903703689575,"1":-0.1427421122789383,"2":0.07471369951963425,"3":0.3200370967388153,"4":0.34207484126091003,"5":0.12404722720384598,"6":0.0032946618739515543,"7":0.6305320262908936,"8":-0.6648474931716919,"9":-0.49174100160598755,"10":-0.9502727389335632,"11":-2.6373186111450195,"12":-1.0730175971984863,"13":-0.10171123594045639,"14":-1.5112048387527466,"15":-1.6279891729354858,"16":-0.24298442900180817,"17":-0.060635026544332504,"18":-0.14709097146987915,"19":-0.22174972295761108,"20":-0.3028952479362488,"21":0.31199756264686584,"22":-0.04758528992533684,"23":-0.0627971664071083,"24":0.607681393623352,"25":0.2946716845035553,"26":-0.25608518719673157,"27":-0.4775245189666748,"28":-0.2709805369377136,"29":-0.1311870664358139,"30":-0.35784319043159485,"31":0.24983425438404083,"32":0.467058002948761,"33":0.046452660113573074,"34":-0.4658259153366089,"35":-0.24489633738994598,"36":-0.3888464868068695,"37":-0.030779965221881866,"38":-0.4619382619857788,"39":0.10909964889287949,"40":0.06976684927940369,"41":0.5411438941955566,"42":-0.31574714183807373,"43":-0.24989400804042816,"44":-0.10095153003931046,"45":-0.0623079352080822,"46":-0.2600700557231903,"47":0.2123086005449295,"48":-1.0111027956008911,"49":0.08418066054582596,"50":-0.23492760956287384,"51":-0.1863797903060913,"52":-0.6356211304664612,"53":0.435780793428421,"54":-0.04058751463890076,"55":-0.2507389783859253,"56":0.831349790096283,"57":0.018704932183027267,"58":-0.462810218334198,"59":-0.9018397927284241,"60":-0.7259331941604614,"61":-0.3414710760116577,"62":-0.6380643248558044,"63":-0.4686812162399292}},"inputBias":{"rows":8,"columns":1,"weights":{"0":0.15344123542308807,"1":1.4953588247299194,"2":0.1813025325536728,"3":0.4470249116420746,"4":0.6472585797309875,"5":0.39198458194732666,"6":-0.6022433042526245,"7":1.0751535892486572}},"forgetMatrix":{"rows":8,"columns":4,"weights":{"0":0.5262411832809448,"1":0.751776933670044,"2":0.4930027425289154,"3":0.8304973244667053,"4":0.08081362396478653,"5":-0.15677250921726227,"6":-0.4857681393623352,"7":-0.1531822830438614,"8":-0.12600445747375488,"9":-0.23883169889450073,"10":-0.06338522583246231,"11":-0.18396447598934174,"12":-0.06519393622875214,"13":0.006191748660057783,"14":-0.13954980671405792,"15":0.1390819102525711,"16":0.32103246450424194,"17":0.21639226377010345,"18":0.24633990228176117,"19":0.2394871860742569,"20":-0.0383928120136261,"21":-0.20958103239536285,"22":0.008094700053334236,"23":-0.134834885597229,"24":-0.23614856600761414,"25":-0.266741544008255,"26":-0.11455138027667999,"27":-0.22988073527812958,"28":-0.06867552548646927,"29":0.11747898161411285,"30":-0.2006814032793045,"31":0.2241651862859726}},"forgetHidden":{"rows":8,"columns":8,"weights":{"0":-1.239169716835022,"1":0.1403311938047409,"2":0.11187292635440826,"3":0.5778909921646118,"4":0.5623061060905457,"5":0.3565429151058197,"6":0.20639702677726746,"7":0.27675431966781616,"8":-0.7530273795127869,"9":0.2791297435760498,"10":0.10547441244125366,"11":-0.3376351594924927,"12":-0.650595486164093,"13":0.342837929725647,"14":0.23287655413150787,"15":-0.6346012353897095,"16":-0.026085933670401573,"17":0.020680107176303864,"18":0.012674850411713123,"19":-0.033778902143239975,"20":-0.025705987587571144,"21":-0.006558104418218136,"22":-0.04560456424951553,"23":-0.039798907935619354,"24":-0.4902806580066681,"25":0.21697859466075897,"26":-0.06604623049497604,"27":-0.4369226396083832,"28":-0.2444721758365631,"29":-0.1658366173505783,"30":-0.19564546644687653,"31":-0.08825928717851639,"32":-0.8909757137298584,"33":0.1085614487528801,"34":0.23014560341835022,"35":0.1586722582578659,"36":0.26067134737968445,"37":-0.18879272043704987,"38":0.25665387511253357,"39":0.342319518327713,"40":-0.5183229446411133,"41":0.0947418361902237,"42":-0.04268820583820343,"43":-0.057778313755989075,"44":-0.1411302536725998,"45":0.09835932403802872,"46":-0.05870412662625313,"47":-0.016318054869771004,"48":-0.17152832448482513,"49":-0.049504198133945465,"50":0.05215197801589966,"51":-0.05614817887544632,"52":0.011102079413831234,"53":0.04010770097374916,"54":-0.026880593970417976,"55":-0.015466582961380482,"56":-0.9920667409896851,"57":0.4093270003795624,"58":0.07234181463718414,"59":-0.2690053880214691,"60":-0.1750221699476242,"61":0.42460188269615173,"62":0.12667153775691986,"63":-0.2923404574394226}},"forgetBias":{"rows":8,"columns":1,"weights":{"0":0,"1":0,"2":0,"3":0,"4":0,"5":0,"6":0,"7":0}},"outputMatrix":{"rows":8,"columns":4,"weights":{"0":0.44617077708244324,"1":0.5331674814224243,"2":0.5578814148902893,"3":0.557326078414917,"4":-0.627663791179657,"5":-0.727138340473175,"6":-1.724564790725708,"7":-0.7838255763053894,"8":-0.19195853173732758,"9":0.038931719958782196,"10":0.0655655711889267,"11":-0.00802101194858551,"12":0.2205243557691574,"13":0.667121410369873,"14":0.39749985933303833,"15":0.5433170199394226,"16":0.6524350643157959,"17":0.8357377052307129,"18":0.9361563324928284,"19":0.8281539082527161,"20":0.25117701292037964,"21":0.2986099421977997,"22":0.20218780636787415,"23":0.24133552610874176,"24":-0.2994386851787567,"25":-0.12493922561407089,"26":-0.24697554111480713,"27":-0.09691441804170609,"28":0.022571798413991928,"29":0.6936757564544678,"30":0.4563232660293579,"31":0.7488284111022949}},"outputHidden":{"rows":8,"columns":8,"weights":{"0":-1.3088562488555908,"1":0.1860673427581787,"2":0.17577160894870758,"3":0.5238880515098572,"4":0.3430296778678894,"5":0.4679689109325409,"6":0.20574720203876495,"7":0.6822779774665833,"8":-0.7857794761657715,"9":-0.3437570333480835,"10":-1.0796655416488647,"11":-2.8524415493011475,"12":-1.1208240985870361,"13":0.14949628710746765,"14":-1.6175451278686523,"15":-1.8546115159988403,"16":-0.17425020039081573,"17":-0.04645158722996712,"18":-0.1258731633424759,"19":-0.18154220283031464,"20":-0.4335801899433136,"21":0.27731841802597046,"22":0.03979670628905296,"23":-0.1193038821220398,"24":0.750331461429596,"25":0.3552585542201996,"26":-0.3291507363319397,"27":-0.4704597294330597,"28":-0.2974914312362671,"29":-0.06683549284934998,"30":-0.5132551789283752,"31":0.054714638739824295,"32":0.4586620330810547,"33":0.2481468915939331,"34":-0.34288597106933594,"35":-0.15409117937088013,"36":-0.2250629961490631,"37":-0.06947167962789536,"38":-0.3978220224380493,"39":0.29691794514656067,"40":-0.21517205238342285,"41":0.45581796765327454,"42":-0.30276718735694885,"43":-0.2704836130142212,"44":-0.13863977789878845,"45":0.06023767590522766,"46":-0.22124169766902924,"47":0.0064572482369840145,"48":-0.9107356667518616,"49":-0.036313313990831375,"50":-0.28855952620506287,"51":-0.1267513483762741,"52":-0.6136990189552307,"53":0.5680584907531738,"54":-0.04741006717085838,"55":-0.31155505776405334,"56":0.32025274634361267,"57":0.18904054164886475,"58":-0.4740290939807892,"59":-0.877062976360321,"60":-0.5531570911407471,"61":-0.3662557899951935,"62":-0.5665202140808105,"63":-0.47400161623954773}},"outputBias":{"rows":8,"columns":1,"weights":{"0":0.04752292484045029,"1":1.390911340713501,"2":0.1931956708431244,"3":0.5313175320625305,"4":0.6872632503509521,"5":0.40782174468040466,"6":-0.6043943166732788,"7":1.1062239408493042}},"cellActivationMatrix":{"rows":8,"columns":4,"weights":{"0":-0.2787870168685913,"1":0.42756888270378113,"2":0.355901300907135,"3":0.6066076159477234,"4":-0.21812346577644348,"5":-1.0287401676177979,"6":-2.449113130569458,"7":-1.3522229194641113,"8":-0.2650688588619232,"9":0.6062632203102112,"10":-0.43826547265052795,"11":0.5621158480644226,"12":-0.36884835362434387,"13":0.5430207848548889,"14":0.3783855140209198,"15":0.8232419490814209,"16":-0.6338071823120117,"17":0.7835800647735596,"18":0.19056768715381622,"19":0.9610463380813599,"20":0.5958712100982666,"21":-0.42205438017845154,"22":-0.1404368132352829,"23":-0.5654403567314148,"24":-0.17813751101493835,"25":0.3722807466983795,"26":-0.24980072677135468,"27":0.3363223969936371,"28":-0.7787699103355408,"29":0.33246228098869324,"30":0.5411595702171326,"31":0.8096451163291931}},"cellActivationHidden":{"rows":8,"columns":8,"weights":{"0":1.1819689273834229,"1":0.6235886812210083,"2":0.37885814905166626,"3":-0.15433882176876068,"4":0.6826708316802979,"5":-0.7348902225494385,"6":-0.4886168837547302,"7":0.5016512870788574,"8":0.162666454911232,"9":-0.423047810792923,"10":0.007651908788830042,"11":-1.439617395401001,"12":-0.3698042631149292,"13":-0.5919978618621826,"14":0.03474486619234085,"15":-1.1680608987808228,"16":-0.5800371170043945,"17":0.855075478553772,"18":-0.1867721527814865,"19":-0.149104505777359,"20":-0.5074256062507629,"21":0.6516045331954956,"22":0.011903608217835426,"23":-0.12201298028230667,"24":-1.2285680770874023,"25":0.28041577339172363,"26":-0.2811618745326996,"27":-0.30172961950302124,"28":-0.915158748626709,"29":0.26171544194221497,"30":-0.07863237708806992,"31":-0.3625723123550415,"32":-0.776995062828064,"33":0.6670789122581482,"34":-0.2782624363899231,"35":-0.1363915055990219,"36":-0.5080291628837585,"37":0.2730693519115448,"38":-0.09691488742828369,"39":0.02026968263089657,"40":0.04817976802587509,"41":-0.2736603915691376,"42":-0.25987809896469116,"43":0.028725523501634598,"44":-0.19919133186340332,"45":0.05209982395172119,"46":0.08277066051959991,"47":-0.35998401045799255,"48":-1.4825160503387451,"49":1.0431774854660034,"50":-0.6095206141471863,"51":-0.6726654767990112,"52":-1.1978875398635864,"53":0.9961526393890381,"54":-0.17190484702587128,"55":-1.2061984539031982,"56":-0.4727917015552521,"57":-0.3884199261665344,"58":0.1765931248664856,"59":-0.3378908038139343,"60":-0.29982075095176697,"61":-0.161228746175766,"62":0.06777522712945938,"63":-0.3197858929634094}},"cellActivationBias":{"rows":8,"columns":1,"weights":{"0":-0.6568071842193604,"1":0.8863083124160767,"2":-0.4621641933917999,"3":-0.45021122694015503,"4":-0.8506243824958801,"5":0.41131481528282166,"6":-0.2639773488044739,"7":-0.4443575441837311}}},{"inputMatrix":{"rows":8,"columns":8,"weights":{"0":0.6545481085777283,"1":-0.2238479107618332,"2":-1.0833823680877686,"3":-0.8937996029853821,"4":-1.6638529300689697,"5":0.2021111398935318,"6":-1.6279963254928589,"7":-0.30894795060157776,"8":0.47012847661972046,"9":1.1604491472244263,"10":0.17313489317893982,"11":0.4761006236076355,"12":0.6272675395011902,"13":-0.09291792660951614,"14":0.257475882768631,"15":0.9487106800079346,"16":0.4588976502418518,"17":-0.7422237992286682,"18":-0.8436959385871887,"19":-1.1082234382629395,"20":-0.5096175670623779,"21":0.125350683927536,"22":-0.5564107894897461,"23":0.1944219470024109,"24":1.273693323135376,"25":-0.15520541369915009,"26":0.11405545473098755,"27":1.2496864795684814,"28":1.9926074743270874,"29":-1.5338646173477173,"30":-0.5618782043457031,"31":2.1000654697418213,"32":0.6561750769615173,"33":0.44205182790756226,"34":-0.24910207092761993,"35":0.28167012333869934,"36":0.31737184524536133,"37":-0.21060949563980103,"38":-0.3439919650554657,"39":0.39468467235565186,"40":0.16558291018009186,"41":-0.18102902173995972,"42":-0.30937957763671875,"43":-0.08667261898517609,"44":0.2749898135662079,"45":0.35888516902923584,"46":0.3374985158443451,"47":0.007605251390486956,"48":0.7559553384780884,"49":0.8818327784538269,"50":0.009495985694229603,"51":0.2097776234149933,"52":0.3902629315853119,"53":-0.10345806926488876,"54":-0.22485648095607758,"55":0.6132779121398926,"56":0.485352098941803,"57":0.44814854860305786,"58":0.1299866884946823,"59":0.3394528031349182,"60":0.5742570161819458,"61":0.03260185942053795,"62":0.08943779766559601,"63":0.5776997208595276}},"inputHidden":{"rows":8,"columns":8,"weights":{"0":-0.23057681322097778,"1":0.07690722495317459,"2":0.8658310174942017,"3":-0.6380234360694885,"4":0.20546147227287292,"5":-0.27018940448760986,"6":0.3017764091491699,"7":0.20556478202342987,"8":0.10420719534158707,"9":-0.3305937349796295,"10":0.5477705001831055,"11":0.49488481879234314,"12":-0.4071616232395172,"13":-0.4125818610191345,"14":-0.25901076197624207,"15":-0.3642261028289795,"16":0.5882650017738342,"17":0.4995865523815155,"18":0.37931281328201294,"19":0.9717028737068176,"20":0.3465983271598816,"21":-1.0705845355987549,"22":0.29360848665237427,"23":0.4110874533653259,"24":0.1695622354745865,"25":0.7363219261169434,"26":0.1529231071472168,"27":0.5222397446632385,"28":0.34617069363594055,"29":-0.9627395868301392,"30":0.4119940400123596,"31":0.3740100860595703,"32":0.2583356499671936,"33":-0.3891926109790802,"34":-0.6155399680137634,"35":-0.6478856801986694,"36":-0.204426109790802,"37":0.07307381927967072,"38":-0.43733829259872437,"39":-0.49734699726104736,"40":0.5273439288139343,"41":-0.3431982398033142,"42":-0.536300778388977,"43":-1.16663658618927,"44":-0.1028612032532692,"45":0.20720897614955902,"46":-0.2349642515182495,"47":-0.24511393904685974,"48":-0.1422155350446701,"49":-0.48212185502052307,"50":0.03813600540161133,"51":0.09692759811878204,"52":-0.45523151755332947,"53":-0.11177880316972733,"54":-0.35663554072380066,"55":-0.46809375286102295,"56":0.2217048853635788,"57":-0.46441566944122314,"58":-0.5391775965690613,"59":-0.11033789068460464,"60":-0.4780573546886444,"61":0.3321811854839325,"62":-0.5113415718078613,"63":-0.5730236768722534}},"inputBias":{"rows":8,"columns":1,"weights":{"0":0.2883976697921753,"1":0.3010367453098297,"2":0.22172673046588898,"3":0.449389785528183,"4":0.5976252555847168,"5":0.6887749433517456,"6":0.4081598222255707,"7":0.527554452419281}},"forgetMatrix":{"rows":8,"columns":8,"weights":{"0":-0.02869429811835289,"1":0.1696874499320984,"2":-0.24146394431591034,"3":-0.7634536027908325,"4":-0.46373745799064636,"5":0.24954549968242645,"6":-0.06579171121120453,"7":-0.27228522300720215,"8":0.06524034589529037,"9":0.5535385012626648,"10":-0.13582898676395416,"11":-0.12359260767698288,"12":-0.36089760065078735,"13":0.5210347771644592,"14":-0.04921048879623413,"15":-0.47437584400177,"16":-0.49125611782073975,"17":-0.23793025314807892,"18":0.13907040655612946,"19":-0.45268064737319946,"20":0.7893466949462891,"21":-0.010711273178458214,"22":0.2627829909324646,"23":-0.3909447193145752,"24":0.21640564501285553,"25":0.7352649569511414,"26":-0.08902736753225327,"27":-0.3822903037071228,"28":0.4619581699371338,"29":-0.042758069932460785,"30":-0.11060179024934769,"31":-0.31916025280952454,"32":-0.23956841230392456,"33":0.5029854774475098,"34":-0.23462343215942383,"35":0.13061831891536713,"36":-0.0619407556951046,"37":0.1636163592338562,"38":-0.3222660422325134,"39":-0.07023477554321289,"40":-0.7508413195610046,"41":0.777098536491394,"42":-0.0739942416548729,"43":0.9161500930786133,"44":0.7715972661972046,"45":0.1350143402814865,"46":0.19826708734035492,"47":0.0037792494986206293,"48":-0.01302560418844223,"49":0.3068549335002899,"50":-0.14181974530220032,"51":-0.1336878389120102,"52":-0.43874767422676086,"53":0.3854844272136688,"54":-0.10583522915840149,"55":-0.44811803102493286,"56":0.12878097593784332,"57":0.4799869656562805,"58":-0.13112767040729523,"59":-0.2456880360841751,"60":-0.33467280864715576,"61":0.41967785358428955,"62":-0.2444925606250763,"63":-0.6377660632133484}},"forgetHidden":{"rows":8,"columns":8,"weights":{"0":-0.6266196966171265,"1":-0.3095092177391052,"2":-0.12128280848264694,"3":-0.09149707108736038,"4":-0.3951902985572815,"5":0.2612725496292114,"6":-0.2597592771053314,"7":-0.34446805715560913,"8":-0.028745707124471664,"9":-0.624031126499176,"10":-0.27369847893714905,"11":-0.15949898958206177,"12":-0.5210014581680298,"13":0.12338785827159882,"14":-0.4266088902950287,"15":-0.5178870558738708,"16":-0.221668541431427,"17":-0.36700525879859924,"18":-0.3766922950744629,"19":0.01956082135438919,"20":-0.33921048045158386,"21":0.5745887160301208,"22":-0.36276862025260925,"23":-0.6704789996147156,"24":-0.3497093915939331,"25":-0.1401677131652832,"26":-0.010583680123090744,"27":0.12244611978530884,"28":-0.4911889135837555,"29":0.46386948227882385,"30":-0.2239774912595749,"31":-0.2879350185394287,"32":-0.04764389246702194,"33":-0.14725719392299652,"34":0.12558159232139587,"35":-0.17095538973808289,"36":-0.20476044714450836,"37":-0.541153073310852,"38":-0.38014012575149536,"39":-0.25830408930778503,"40":-0.38058507442474365,"41":-0.25455188751220703,"42":-0.3067623972892761,"43":-0.8386629223823547,"44":-0.4029753804206848,"45":0.9793094992637634,"46":-0.4721648097038269,"47":-0.41735902428627014,"48":-0.006375863682478666,"49":-0.5557382702827454,"50":-0.205112025141716,"51":-0.13991416990756989,"52":-0.46910473704338074,"53":-0.08101282268762589,"54":-0.44647538661956787,"55":-0.43832263350486755,"56":-0.05182313546538353,"57":-0.4444122314453125,"58":-0.22525030374526978,"59":-0.19765160977840424,"60":-0.4244776964187622,"61":-0.01114561501890421,"62":-0.4312439262866974,"63":-0.37010446190834045}},"forgetBias":{"rows":8,"columns":1,"weights":{"0":0,"1":0,"2":0,"3":0,"4":0,"5":0,"6":0,"7":0}},"outputMatrix":{"rows":8,"columns":8,"weights":{"0":0.26789891719818115,"1":-0.17313408851623535,"2":-0.8502441644668579,"3":-0.724631667137146,"4":-1.4341440200805664,"5":0.4450550675392151,"6":-1.2339845895767212,"7":-0.1552174985408783,"8":0.6167859435081482,"9":0.8181822299957275,"10":0.09021925181150436,"11":0.2585388720035553,"12":0.19743067026138306,"13":0.26080870628356934,"14":0.17002645134925842,"15":0.5300138592720032,"16":0.3778108060359955,"17":-0.8552193641662598,"18":-0.7941787838935852,"19":-1.1430515050888062,"20":-0.2409316599369049,"21":0.27244117856025696,"22":-0.29322192072868347,"23":0.03751900792121887,"24":1.5254161357879639,"25":0.5363983511924744,"26":0.2005923092365265,"27":0.9652029871940613,"28":2.21040415763855,"29":-1.6127939224243164,"30":-0.5943678617477417,"31":2.116178512573242,"32":0.2574584484100342,"33":0.35103490948677063,"34":-0.20828446745872498,"35":0.3597855865955353,"36":0.35174086689949036,"37":-0.03823418542742729,"38":-0.18923991918563843,"39":0.4287812113761902,"40":-0.18648074567317963,"41":-0.002546929754316807,"42":0.04187323898077011,"43":0.1989874541759491,"44":0.4384029507637024,"45":0.5312368869781494,"46":0.7045548558235168,"47":0.07496362924575806,"48":0.517059862613678,"49":0.6946328282356262,"50":-0.01933726854622364,"51":0.3520655333995819,"52":0.30714526772499084,"53":-0.07322852313518524,"54":-0.18791501224040985,"55":0.38095128536224365,"56":0.6049357056617737,"57":0.3042922019958496,"58":0.05155375227332115,"59":0.31174302101135254,"60":0.3431396484375,"61":-0.028927259147167206,"62":0.12274063378572464,"63":0.3846290409564972}},"outputHidden":{"rows":8,"columns":8,"weights":{"0":-0.7600907683372498,"1":-0.04213977977633476,"2":0.984941840171814,"3":-0.583713948726654,"4":-0.2353312373161316,"5":-0.14609475433826447,"6":-0.054997768253088,"7":0.0977366715669632,"8":0.15952882170677185,"9":-0.4624791741371155,"10":0.3125174343585968,"11":0.36217403411865234,"12":-0.431194543838501,"13":-0.3552798330783844,"14":-0.20785199105739594,"15":-0.38330116868019104,"16":0.30345532298088074,"17":0.3368021845817566,"18":0.31171858310699463,"19":0.8513026237487793,"20":0.2909355163574219,"21":-0.8443470597267151,"22":0.1654396504163742,"23":0.20214639604091644,"24":-0.14146922528743744,"25":0.5643908381462097,"26":0.029359281063079834,"27":0.5634607076644897,"28":-0.029223402962088585,"29":-0.527563214302063,"30":0.2262132465839386,"31":0.13213913142681122,"32":0.021721554920077324,"33":-0.27074357867240906,"34":-0.3578249514102936,"35":-0.6263313293457031,"36":-0.13516490161418915,"37":-0.173452228307724,"38":-0.4282676875591278,"39":-0.4038160443305969,"40":0.16553986072540283,"41":-0.35803237557411194,"42":-0.43701833486557007,"43":-1.1929994821548462,"44":-0.2405785322189331,"45":0.7033199667930603,"46":-0.41345661878585815,"47":-0.4011111855506897,"48":-0.07220721989870071,"49":-0.3373469412326813,"50":0.07575801014900208,"51":0.18685458600521088,"52":-0.3461873233318329,"53":-0.3289395570755005,"54":-0.36208271980285645,"55":-0.35593193769454956,"56":0.06351123750209808,"57":-0.3260740339756012,"58":-0.365439772605896,"59":-0.02642510086297989,"60":-0.3303653299808502,"61":0.026162579655647278,"62":-0.36632245779037476,"63":-0.4951520562171936}},"outputBias":{"rows":8,"columns":1,"weights":{"0":0.3112933039665222,"1":0.48108914494514465,"2":0.2963661849498749,"3":0.3416368365287781,"4":0.6665775775909424,"5":0.748124897480011,"6":0.5285502672195435,"7":0.6339349150657654}},"cellActivationMatrix":{"rows":8,"columns":8,"weights":{"0":-0.02293621003627777,"1":-0.8274849057197571,"2":-0.21339082717895508,"3":-0.5326257944107056,"4":-0.05136038735508919,"5":-0.05148516595363617,"6":0.0996667891740799,"7":0.6859295964241028,"8":0.3815671503543854,"9":-0.3054159879684448,"10":0.4548620283603668,"11":0.6555225849151611,"12":1.1035064458847046,"13":-0.4303690195083618,"14":0.48412227630615234,"15":0.719537615776062,"16":0.34671032428741455,"17":-0.8827652335166931,"18":0.825064480304718,"19":0.4822536110877991,"20":0.7601335644721985,"21":-0.42370671033859253,"22":0.6883646249771118,"23":0.42534565925598145,"24":0.6676398515701294,"25":-0.8597536683082581,"26":0.7978046536445618,"27":0.7497664093971252,"28":1.248508334159851,"29":-0.7668172121047974,"30":0.6975979208946228,"31":0.8497132658958435,"32":0.6635943651199341,"33":-0.16683056950569153,"34":0.16488665342330933,"35":0.792005181312561,"36":0.7882248759269714,"37":-0.36973220109939575,"38":-0.054702211171388626,"39":0.5607209801673889,"40":-0.4331270158290863,"41":1.238178014755249,"42":0.3229527771472931,"43":-0.3699187934398651,"44":-0.2845624089241028,"45":0.4061979055404663,"46":0.5406491756439209,"47":-0.4553814232349396,"48":0.9326445460319519,"49":-0.38386088609695435,"50":0.31872621178627014,"51":0.5293435454368591,"52":0.46163704991340637,"53":0.13771307468414307,"54":0.2526828348636627,"55":0.45138201117515564,"56":0.39424264430999756,"57":-0.6538571119308472,"58":0.20562995970249176,"59":0.781108558177948,"60":0.8189651370048523,"61":-0.03573312610387802,"62":0.25870707631111145,"63":0.6257213354110718}},"cellActivationHidden":{"rows":8,"columns":8,"weights":{"0":-0.7127932906150818,"1":-0.06762223690748215,"2":2.192490339279175,"3":2.771580457687378,"4":-0.6496184468269348,"5":-1.3833171129226685,"6":-0.42503777146339417,"7":-0.2673775553703308,"8":0.37201815843582153,"9":-0.10670958459377289,"10":0.04223043844103813,"11":0.1980256587266922,"12":-0.3932048976421356,"13":0.12434432655572891,"14":-0.1523134857416153,"15":-0.15898434817790985,"16":-0.7558947801589966,"17":-0.3833945095539093,"18":-0.9050021767616272,"19":-0.18507824838161469,"20":-0.14697296917438507,"21":1.1566072702407837,"22":-0.48366284370422363,"23":-0.4634043574333191,"24":0.5095104575157166,"25":-0.15512387454509735,"26":-0.31684625148773193,"27":-1.038306474685669,"28":-0.0691271722316742,"29":0.6250250339508057,"30":-0.049681130796670914,"31":-0.1917160153388977,"32":0.4157640337944031,"33":-0.03653090447187424,"34":0.3398641347885132,"35":-0.6315398812294006,"36":-0.02378745749592781,"37":-0.07816711068153381,"38":-0.025277307257056236,"39":0.044061869382858276,"40":-0.8246796131134033,"41":0.5695385336875916,"42":0.019820217043161392,"43":0.14005520939826965,"44":0.2765427529811859,"45":0.14788515865802765,"46":0.42257705330848694,"47":0.4201444983482361,"48":0.6591721177101135,"49":-0.3954120874404907,"50":-0.1744772344827652,"51":-0.3198935389518738,"52":-0.3731999695301056,"53":0.1629854142665863,"54":-0.08503884822130203,"55":-0.16322576999664307,"56":0.22818133234977722,"57":-0.310537189245224,"58":0.12140060216188431,"59":-0.5202721357345581,"60":-0.3012581467628479,"61":0.2806929349899292,"62":-0.3340999484062195,"63":-0.26514360308647156}},"cellActivationBias":{"rows":8,"columns":1,"weights":{"0":0.551328182220459,"1":-0.14813631772994995,"2":0.5993128418922424,"3":-0.5522107481956482,"4":-0.06043616682291031,"5":-0.4350772798061371,"6":-0.02910779044032097,"7":0.020106155425310135}}}],"outputConnector":{"rows":4,"columns":8,"weights":{"0":0.1313505917787552,"1":0.2915440499782562,"2":-0.4207080900669098,"3":-0.21107202768325806,"4":0.5603124499320984,"5":0.06049026548862457,"6":0.3525041341781616,"7":0.6098671555519104,"8":0.48236483335494995,"9":0.38551032543182373,"10":-0.24522799253463745,"11":0.2219807654619217,"12":0.23281587660312653,"13":-0.47382852435112,"14":0.3782195448875427,"15":0.27855372428894043,"16":-0.5753980278968811,"17":0.6057615280151367,"18":0.516742467880249,"19":-0.177707701921463,"20":0.27224621176719666,"21":-0.06052294373512268,"22":0.380833238363266,"23":0.32636550068855286,"24":0.1913360357284546,"25":0.02035646140575409,"26":0.3394090533256531,"27":0.5417230725288391,"28":0.18675704300403595,"29":-0.794195830821991,"30":-0.03199224919080734,"31":0.16396842896938324}},"output":{"rows":4,"columns":1,"weights":{"0":0.4622262120246887,"1":0.49236124753952026,"2":0.38831621408462524,"3":0.36350905895233154}},"inputLookup":{"open":0,"high":1,"low":2,"close":3},"inputLookupLength":4,"outputLookup":{"open":0,"high":1,"low":2,"close":3},"outputLookupLength":4}