{"type":"LSTMTimeStep","options":{"inputSize":4,"hiddenLayers":[8,8],"outputSize":4,"decayRate":0.999,"smoothEps":1e-8,"regc":0.000001,"clipval":5},"hiddenLayers":[{"inputMatrix":{"rows":8,"columns":4,"weights":{"0":0.002336362609639764,"1":-0.07643084973096848,"2":0.07394372671842575,"3":0.11651381105184555,"4":0.9788782596588135,"5":-0.2503125071525574,"6":0.02878047712147236,"7":-0.16861329972743988,"8":-0.01084618829190731,"9":0.17216840386390686,"10":-0.14860495924949646,"11":0.22158142924308777,"12":0.24378150701522827,"13":-0.06032957509160042,"14":-0.2686506509780884,"15":-0.09480531513690948,"16":-0.5974287986755371,"17":-0.2794148623943329,"18":-0.619752824306488,"19":-0.09820402413606644,"20":0.6174129843711853,"21":0.44104981422424316,"22":0.4669722318649292,"23":0.5345880389213562,"24":0.5639877915382385,"25":1.017991304397583,"26":0.5657604336738586,"27":0.9092642664909363,"28":0.5078601241111755,"29":1.1377365589141846,"30":0.7882363796234131,"31":1.0605597496032715}},"inputHidden":{"rows":8,"columns":8,"weights":{"0":-0.14050112664699554,"1":-0.22697508335113525,"2":-0.35404157638549805,"3":0.03476905822753906,"4":-0.0892888680100441,"5":1.2257872819900513,"6":0.5330856442451477,"7":1.5980043411254883,"8":0.005532781593501568,"9":0.14334098994731903,"10":0.11070996522903442,"11":0.16338743269443512,"12":-0.08068167418241501,"13":-0.02717949077486992,"14":1.5042829513549805,"15":0.7759898900985718,"16":0.7135589718818665,"17":0.14028728008270264,"18":0.06486377120018005,"19":-0.12453597784042358,"20":0.25083476305007935,"21":-0.18251462280750275,"22":-0.585594654083252,"23":0.6209695339202881,"24":-0.31853240728378296,"25":-0.3387213945388794,"26":0.5503195524215698,"27":-0.01845080778002739,"28":0.12475001811981201,"29":-0.0024067037738859653,"30":1.1317182779312134,"31":0.6136944890022278,"32":-0.16600514948368073,"33":-0.49642515182495117,"34":0.31759217381477356,"35":-0.59521484375,"36":0.1406610757112503,"37":0.7297230958938599,"38":0.5201982259750366,"39":0.5706267356872559,"40":0.983555018901825,"41":0.42640072107315063,"42":0.9771601557731628,"43":0.30582910776138306,"44":0.3660869300365448,"45":-1.024895429611206,"46":0.18775548040866852,"47":0.8643612861633301,"48":0.07186917215585709,"49":-0.2198370099067688,"50":-0.19169862568378448,"51":-0.19729818403720856,"52":-0.07382997870445251,"53":0.15143384039402008,"54":0.08847759664058685,"55":0.1442279815673828,"56":-0.43686962127685547,"57":-0.6777851581573486,"58":-0.1134907677769661,"59":-0.3749808371067047,"60":-0.23919075727462769,"61":0.5671196579933167,"62":0.3113892674446106,"63":0.41705551743507385}},"inputBias":{"rows":8,"columns":1,"weights":{"0":1.6325312852859497,"1":0.024482445791363716,"2":0.41135579347610474,"3":0.051219917833805084,"4":-0.6291094422340393,"5":0.3577086925506592,"6":1.8219777345657349,"7":0.6994657516479492}},"forgetMatrix":{"rows":8,"columns":4,"weights":{"0":-0.3545660078525543,"1":-0.6226906776428223,"2":-0.4159146845340729,"3":-0.7912036180496216,"4":-0.05856044217944145,"5":-0.47073307633399963,"6":-0.4369107782840729,"7":-0.6770813465118408,"8":-0.6815583109855652,"9":-0.9028043746948242,"10":-0.6667352914810181,"11":-0.7993980050086975,"12":-0.1291455626487732,"13":-0.26805180311203003,"14":-0.48373278975486755,"15":-0.3693314492702484,"16":-0.05778976157307625,"17":-0.09002477675676346,"18":-0.3286556899547577,"19":-0.23587118089199066,"20":0.012218226678669453,"21":-0.5196253061294556,"22":0.1213076189160347,"23":-0.6219916343688965,"24":-0.2228301763534546,"25":0.09878769516944885,"26":-0.28073650598526,"27":0.5315048694610596,"28":0.20568294823169708,"29":0.5995041131973267,"30":0.24632833898067474,"31":1.0159142017364502}},"forgetHidden":{"rows":8,"columns":8,"weights":{"0":0.9422969818115234,"1":0.20814834535121918,"2":0.20549409091472626,"3":0.09136415272951126,"4":0.12319507449865341,"5":-0.7957852482795715,"6":-0.18576157093048096,"7":-0.23587173223495483,"8":-0.17968285083770752,"9":0.1256730854511261,"10":0.02537996508181095,"11":0.19873842597007751,"12":-0.11824052780866623,"13":0.000788059551268816,"14":0.4270598292350769,"15":0.11580044776201248,"16":-0.02350015938282013,"17":-0.016464710235595703,"18":-0.04867492616176605,"19":0.17907635867595673,"20":-0.10477486997842789,"21":-0.028172429651021957,"22":0.32583728432655334,"23":0.04462052881717682,"24":-0.14041829109191895,"25":0.06078372895717621,"26":0.05919330567121506,"27":0.1211686059832573,"28":-0.10168372839689255,"29":-0.059837065637111664,"30":0.6794979572296143,"31":0.22289229929447174,"32":0.08446232974529266,"33":-0.034826282411813736,"34":0.09281354397535324,"35":-0.08270005136728287,"36":0.12168735265731812,"37":-0.03461327403783798,"38":0.18608565628528595,"39":0.11707822978496552,"40":0.0471046082675457,"41":-0.028575053438544273,"42":-0.013774268329143524,"43":0.19313842058181763,"44":-0.17288759350776672,"45":-0.4037378132343292,"46":-0.23496291041374207,"47":-0.7014058232307434,"48":0.11272416263818741,"49":0.14423562586307526,"50":-0.09634032845497131,"51":-0.056711941957473755,"52":0.5169265866279602,"53":0.10775790363550186,"54":0.5162545442581177,"55":0.8547784090042114,"56":0.36529380083084106,"57":-0.14587125182151794,"58":0.3207523822784424,"59":-0.19504277408123016,"60":0.48689061403274536,"61":0.39651429653167725,"62":0.01992979273200035,"63":0.8879387378692627}},"forgetBias":{"rows":8,"columns":1,"weights":{"0":0,"1":0,"2":0,"3":0,"4":0,"5":0,"6":0,"7":0}},"outputMatrix":{"rows":8,"columns":4,"weights":{"0":-0.37492039799690247,"1":-0.5886760354042053,"2":-0.6202327609062195,"3":-0.32674795389175415,"4":0.9477117657661438,"5":-0.309079110622406,"6":0.0374954529106617,"7":-0.3716132640838623,"8":-0.05412619560956955,"9":0.13786102831363678,"10":-0.2250775396823883,"11":0.07324883341789246,"12":0.17848525941371918,"13":-0.161505326628685,"14":-0.5014867782592773,"15":-0.1882011890411377,"16":-0.6302053928375244,"17":-0.279043048620224,"18":-0.6287751197814941,"19":-0.15870429575443268,"20":0.6887421607971191,"21":0.4321054220199585,"22":0.4413520395755768,"23":0.4711608588695526,"24":0.40186044573783875,"25":0.9971663355827332,"26":0.5186194777488708,"27":0.8313023447990417,"28":0.567804753780365,"29":1.1504077911376953,"30":0.7739033102989197,"31":1.1559371948242188}},"outputHidden":{"rows":8,"columns":8,"weights":{"0":0.16887374222278595,"1":-0.0029204804450273514,"2":-0.43584156036376953,"3":0.18670444190502167,"4":-0.058111730962991714,"5":1.2307668924331665,"6":0.7781789898872375,"7":1.8645093441009521,"8":-0.06423027068376541,"9":0.1681929975748062,"10":0.1599562168121338,"11":0.31339263916015625,"12":-0.1935296505689621,"13":-0.07644978165626526,"14":1.655217170715332,"15":0.7641637921333313,"16":0.7013212442398071,"17":0.3314076364040375,"18":0.10639133304357529,"19":-0.011880611069500446,"20":0.253400981426239,"21":-0.41816291213035583,"22":-0.32199981808662415,"23":0.7326487898826599,"24":-0.4536809027194977,"25":-0.2476612776517868,"26":0.5389431715011597,"27":0.07373630255460739,"28":0.07820219546556473,"29":0.013915046118199825,"30":1.3314759731292725,"31":0.6601295471191406,"32":-0.17582391202449799,"33":-0.5791816115379333,"34":0.3153328001499176,"35":-0.6222026348114014,"36":0.1824895441532135,"37":0.5914188623428345,"38":0.5565221905708313,"39":0.6812785863876343,"40":1.0578956604003906,"41":0.3672121465206146,"42":0.969516396522522,"43":0.3046427369117737,"44":0.46116819977760315,"45":-1.0625972747802734,"46":0.019212933257222176,"47":0.6596277356147766,"48":0.27122431993484497,"49":-0.027056775987148285,"50":-0.007048027124255896,"51":0.06524123251438141,"52":-0.07845062762498856,"53":-0.2571876049041748,"54":0.619911253452301,"55":0.5673621892929077,"56":0.03406823053956032,"57":-0.4247478246688843,"58":0.06026560068130493,"59":-0.0989522635936737,"60":0.010907221585512161,"61":0.413632333278656,"62":0.3200194835662842,"63":0.8361615538597107}},"outputBias":{"rows":8,"columns":1,"weights":{"0":1.333998680114746,"1":0.03797566518187523,"2":0.42599982023239136,"3":-0.012470538727939129,"4":-0.639666736125946,"5":0.3483257591724396,"6":1.7510744333267212,"7":0.7546690106391907}},"cellActivationMatrix":{"rows":8,"columns":4,"weights":{"0":-0.08430857956409454,"1":0.19736526906490326,"2":-1.3090360164642334,"3":-0.44998738169670105,"4":-0.5736172795295715,"5":0.3198443055152893,"6":-0.3111160397529602,"7":0.20704983174800873,"8":0.4230812191963196,"9":-0.3696005344390869,"10":-0.3224869966506958,"11":-0.5625545978546143,"12":-0.467732697725296,"13":-0.19250339269638062,"14":-0.4066285490989685,"15":-0.35674822330474854,"16":0.46456828713417053,"17":0.2738777995109558,"18":-0.18287020921707153,"19":0.11538463830947876,"20":0.34353768825531006,"21":-0.5830551981925964,"22":0.4914771020412445,"23":-0.17522120475769043,"24":0.7830470204353333,"25":-0.3771654963493347,"26":-0.45584577322006226,"27":-1.0075774192810059,"28":0.7832958102226257,"29":-0.5973643660545349,"30":-0.2906942367553711,"31":-0.8908951878547668}},"cellActivationHidden":{"rows":8,"columns":8,"weights":{"0":-0.9739253520965576,"1":-1.585869312286377,"2":0.5762656331062317,"3":-1.595094084739685,"4":0.9640427827835083,"5":1.3055275678634644,"6":-0.12352731078863144,"7":0.5781159996986389,"8":0.16643615067005157,"9":-0.5534056425094604,"10":-0.04931025952100754,"11":-0.5310699343681335,"12":0.49598827958106995,"13":0.5393239855766296,"14":-1.0386321544647217,"15":-0.5776969790458679,"16":-0.7913265228271484,"17":0.03184836357831955,"18":-1.3655511140823364,"19":0.1321052759885788,"20":-0.9114918112754822,"21":0.8679575324058533,"22":-0.22131676971912384,"23":-0.3890645503997803,"24":-0.36098456382751465,"25":0.11951467394828796,"26":-0.7266598343849182,"27":0.01812523417174816,"28":-0.35684534907341003,"29":0.5115252137184143,"30":-1.0415769815444946,"31":-0.7745317220687866,"32":-0.681792676448822,"33":-1.3054804801940918,"34":0.2978193163871765,"35":-1.3817214965820312,"36":0.4578477442264557,"37":0.9388088583946228,"38":-0.5882708430290222,"39":-0.14106573164463043,"40":1.3505189418792725,"41":0.7758215069770813,"42":0.5864145159721375,"43":0.7656161189079285,"44":0.680029034614563,"45":-1.1172139644622803,"46":0.9355659484863281,"47":1.2986363172531128,"48":-0.46313047409057617,"49":0.23299042880535126,"50":0.23700159788131714,"51":0.3168111741542816,"52":-0.5560360550880432,"53":-0.4718274772167206,"54":-0.5099592208862305,"55":-1.3718056678771973,"56":0.1695491075515747,"57":-0.4919971525669098,"58":0.13199478387832642,"59":-0.5897838473320007,"60":0.7746036052703857,"61":0.14750617742538452,"62":-0.399717777967453,"63":-0.20913636684417725}},"cellActivationBias":{"rows":8,"columns":1,"weights":{"0":0.08299580961465836,"1":-0.4887896478176117,"2":0.5786808133125305,"3":-0.16157998144626617,"4":0.0757066160440445,"5":0.34156736731529236,"6":0.30301159620285034,"7":0.5198155045509338}}},{"inputMatrix":{"rows":8,"columns":8,"weights":{"0":0.5851317644119263,"1":0.22515428066253662,"2":-0.06123947352170944,"3":-0.07022623717784882,"4":-0.051107317209243774,"5":-0.9208469390869141,"6":-1.1542699337005615,"7":-1.0453959703445435,"8":-0.3611234128475189,"9":-0.3238655924797058,"10":0.19390086829662323,"11":-0.47702425718307495,"12":-0.07642779499292374,"13":-0.07624619454145432,"14":-0.4804517924785614,"15":-0.6531434655189514,"16":-0.28141075372695923,"17":-0.10575512796640396,"18":0.10628816485404968,"19":-0.2073313146829605,"20":-0.14893856644630432,"21":-0.04711657017469406,"22":-0.7467833757400513,"23":-0.6288469433784485,"24":0.8863396644592285,"25":0.2995966374874115,"26":-0.2364729940891266,"27":-0.000018058999557979405,"28":0.0074348123744130135,"29":-0.6941896080970764,"30":-0.7321863770484924,"31":-1.30156672000885,"32":0.047072459012269974,"33":-0.6390976905822754,"34":0.08313295245170593,"35":-0.4830227494239807,"36":0.5140194296836853,"37":0.786533772945404,"38":2.514197826385498,"39":1.28269362449646,"40":0.8399776816368103,"41":0.3093551993370056,"42":-0.3027295768260956,"43":-0.0069236112758517265,"44":0.03688366338610649,"45":-0.7615772485733032,"46":-0.8305423855781555,"47":-0.8029844760894775,"48":0.5254196524620056,"49":0.6262775659561157,"50":1.512158751487732,"51":0.6670653223991394,"52":0.21324701607227325,"53":-1.0121396780014038,"54":1.4667322635650635,"55":0.5887357592582703,"56":0.8850619196891785,"57":-0.6725450754165649,"58":-0.7702704071998596,"59":-0.43147170543670654,"60":0.14019611477851868,"61":0.09918582439422607,"62":-0.8341249823570251,"63":-1.8049352169036865}},"inputHidden":{"rows":8,"columns":8,"weights":{"0":0.4576042592525482,"1":0.6374992728233337,"2":-0.5292256474494934,"3":-0.35422247648239136,"4":0.9547702074050903,"5":-0.5095047354698181,"6":-0.037550851702690125,"7":-0.37329626083374023,"8":0.3461475670337677,"9":-0.13391520082950592,"10":0.039809100329875946,"11":-0.18312913179397583,"12":-0.5012314319610596,"13":-0.2984973192214966,"14":1.152075171470642,"15":0.12416806817054749,"16":0.29075542092323303,"17":0.34296536445617676,"18":-0.35830530524253845,"19":-0.3759026527404785,"20":0.23612259328365326,"21":-0.41858136653900146,"22":0.0023882954847067595,"23":-0.22749879956245422,"24":0.41434308886528015,"25":0.5477213859558105,"26":-0.4690895080566406,"27":-0.45611992478370667,"28":0.548978865146637,"29":-0.3445441424846649,"30":0.17981399595737457,"31":-0.3241364657878876,"32":-0.12565931677818298,"33":-0.5619628429412842,"34":0.5075331926345825,"35":0.33758974075317383,"36":-0.052163466811180115,"37":0.11770961433649063,"38":1.0066255331039429,"39":0.14575517177581787,"40":0.4838266968727112,"41":0.5461717247962952,"42":-0.4997052252292633,"43":-0.559471070766449,"44":0.7355741262435913,"45":-0.4302317798137665,"46":-0.15204067528247833,"47":-0.46705153584480286,"48":-0.24640099704265594,"49":0.10990294814109802,"50":0.17505240440368652,"51":0.3430306315422058,"52":-1.6223196983337402,"53":0.3885345160961151,"54":-1.56524658203125,"55":0.09391409903764725,"56":1.1279475688934326,"57":1.1371301412582397,"58":-1.2486852407455444,"59":-0.8820102214813232,"60":1.6307785511016846,"61":-1.1022213697433472,"62":1.7752412557601929,"63":-0.4571502208709717}},"inputBias":{"rows":8,"columns":1,"weights":{"0":0.3780096769332886,"1":0.2121477723121643,"2":0.3810132145881653,"3":0.02834824100136757,"4":-0.10658492892980576,"5":0.18970930576324463,"6":1.1099852323532104,"7":0.23055599629878998}},"forgetMatrix":{"rows":8,"columns":8,"weights":{"0":-0.5237554311752319,"1":-0.11301453411579132,"2":0.18732976913452148,"3":0.02747691608965397,"4":-0.2102358192205429,"5":0.47920742630958557,"6":0.13361050188541412,"7":0.6217116713523865,"8":-0.8915084600448608,"9":-0.19985578954219818,"10":0.03993397578597069,"11":-0.1546456515789032,"12":-0.13101036846637726,"13":0.31426292657852173,"14":-0.10985831171274185,"15":0.1279880255460739,"16":-0.4955683946609497,"17":-0.01900251768529415,"18":0.42361778020858765,"19":0.0681094229221344,"20":-0.24180027842521667,"21":-0.05470835417509079,"22":0.04180077835917473,"23":0.161210834980011,"24":-0.7443588972091675,"25":-0.22346360981464386,"26":-0.02530752122402191,"27":-0.07995010912418365,"28":-0.34001657366752625,"29":-0.1846259981393814,"30":0.4250074028968811,"31":-0.6479448676109314,"32":0.47115111351013184,"33":0.09547882527112961,"34":-0.013499613851308823,"35":0.03404999524354935,"36":0.030700363218784332,"37":0.34224146604537964,"38":-0.5269901156425476,"39":0.06586579978466034,"40":-0.5089613199234009,"41":-0.1841338723897934,"42":0.06504256278276443,"43":0.05970416218042374,"44":-0.2253713607788086,"45":0.14671649038791656,"46":0.500539243221283,"47":0.06193132326006889,"48":0.30817103385925293,"49":-0.233070969581604,"50":-0.2843371629714966,"51":-0.07971670478582382,"52":-0.11955969780683517,"53":0.1357809454202652,"54":-0.6170287132263184,"55":-0.5022597908973694,"56":-0.7500232458114624,"57":-0.26019883155822754,"58":0.08549247682094574,"59":-0.088932566344738,"60":-0.2941131889820099,"61":0.0036467695608735085,"62":0.6206328272819519,"63":-0.13332787156105042}},"forgetHidden":{"rows":8,"columns":8,"weights":{"0":0.4764921963214874,"1":0.5454531311988831,"2":-0.5529340505599976,"3":-0.5485159754753113,"4":0.02263321354985237,"5":-0.5222695469856262,"6":0.37585052847862244,"7":-0.24699296057224274,"8":-0.04382512345910072,"9":0.13973069190979004,"10":-0.2273365557193756,"11":-0.04583432525396347,"12":0.1814943253993988,"13":-0.012270884588360786,"14":-0.22362445294857025,"15":0.14089560508728027,"16":0.20260575413703918,"17":0.3248911201953888,"18":-0.298603355884552,"19":-0.33877885341644287,"20":-0.08003459870815277,"21":-0.07970365136861801,"22":-0.3072562515735626,"23":-0.0967063158750534,"24":-0.2833276391029358,"25":0.12010108679533005,"26":-0.08427263796329498,"27":0.17754670977592468,"28":-0.2276412844657898,"29":0.20655128359794617,"30":0.16314558684825897,"31":0.187620148062706,"32":0.03726630285382271,"33":0.27194005250930786,"34":-0.13426724076271057,"35":-0.17072360217571259,"36":0.4145238995552063,"37":-0.11272714287042618,"38":-0.13021428883075714,"39":-0.35349684953689575,"40":0.10802031308412552,"41":0.41364407539367676,"42":-0.2729223966598511,"43":-0.23565669357776642,"44":-0.04811156913638115,"45":-0.2650374174118042,"46":0.2661406993865967,"47":-0.05992915853857994,"48":0.30404725670814514,"49":0.5906015634536743,"50":-0.5516897439956665,"51":-0.3419715166091919,"52":0.9664171934127808,"53":-0.3799724876880646,"54":0.5065481066703796,"55":-0.32356202602386475,"56":-0.06738834828138351,"57":-0.051700200885534286,"58":-0.05926784500479698,"59":0.09250641614198685,"60":-0.21277973055839539,"61":0.01806844212114811,"62":0.4297858774662018,"63":-0.013912470079958439}},"forgetBias":{"rows":8,"columns":1,"weights":{"0":0,"1":0,"2":0,"3":0,"4":0,"5":0,"6":0,"7":0}},"outputMatrix":{"rows":8,"columns":8,"weights":{"0":0.2864081561565399,"1":0.0836174413561821,"2":-0.00021867231407668442,"3":-0.10136909782886505,"4":-0.0871596485376358,"5":-0.5546961426734924,"6":-1.0094530582427979,"7":-0.7626426815986633,"8":-0.5753282904624939,"9":-0.12363339215517044,"10":0.09753533452749252,"11":-0.24555988609790802,"12":-0.1377066820859909,"13":-0.024154044687747955,"14":-0.5377033948898315,"15":-0.6186062693595886,"16":-0.3073962926864624,"17":-0.006078751757740974,"18":0.1213596761226654,"19":-0.1700821816921234,"20":-0.05833214893937111,"21":-0.14743226766586304,"22":-0.6524487733840942,"23":-0.6870580911636353,"24":0.519603967666626,"25":0.1438646763563156,"26":-0.1349651962518692,"27":-0.10213345289230347,"28":-0.05283990874886513,"29":-0.645365834236145,"30":-0.6404785513877869,"31":-1.2936328649520874,"32":0.2671354115009308,"33":-0.6948471069335938,"34":0.18764500319957733,"35":-0.4527413845062256,"36":0.5320483446121216,"37":0.8650692701339722,"38":2.4260964393615723,"39":1.4469465017318726,"40":0.5782244801521301,"41":0.2788301706314087,"42":-0.24013100564479828,"43":-0.08325540274381638,"44":0.05211082100868225,"45":-0.429028183221817,"46":-0.6936697959899902,"47":-0.7153074741363525,"48":0.6895108819007874,"49":0.4754449725151062,"50":1.4307861328125,"51":0.45446357131004333,"52":0.4627605974674225,"53":-0.9427617788314819,"54":1.2982183694839478,"55":0.5858806371688843,"56":0.6763643026351929,"57":-0.7616909146308899,"58":-0.5505858659744263,"59":-0.3750244677066803,"60":0.06118760630488396,"61":0.025798624381422997,"62":-0.7345565557479858,"63":-1.574944257736206}},"outputHidden":{"rows":8,"columns":8,"weights":{"0":0.5105134844779968,"1":0.48077017068862915,"2":-0.5231569409370422,"3":-0.2543136775493622,"4":0.9310828447341919,"5":-0.391017884016037,"6":0.15719249844551086,"7":-0.22388724982738495,"8":0.2295289784669876,"9":0.05656961351633072,"10":-0.09119047224521637,"11":-0.1933642029762268,"12":-0.42339715361595154,"13":-0.23168028891086578,"14":0.6333944797515869,"15":0.23853270709514618,"16":0.23092909157276154,"17":0.3379717469215393,"18":-0.2552254796028137,"19":-0.2758912742137909,"20":0.1992972493171692,"21":-0.19687657058238983,"22":-0.21596887707710266,"23":-0.03574711084365845,"24":0.114045150578022,"25":0.37676405906677246,"26":-0.3051099181175232,"27":-0.2784680426120758,"28":0.15886297821998596,"29":-0.27052390575408936,"30":0.11785997450351715,"31":-0.117950938642025,"32":-0.003112480277195573,"33":-0.3665335178375244,"34":0.49208277463912964,"35":0.3422303795814514,"36":0.023391960188746452,"37":0.13822795450687408,"38":0.9761033058166504,"39":0.010070953518152237,"40":0.31763970851898193,"41":0.5100661516189575,"42":-0.332308292388916,"43":-0.3252679705619812,"44":0.4603893458843231,"45":-0.3233768343925476,"46":-0.10298904776573181,"47":-0.26017457246780396,"48":-0.1446329653263092,"49":0.06755386292934418,"50":0.10399987548589706,"51":0.32682567834854126,"52":-0.7228403091430664,"53":0.24254857003688812,"54":-1.146254539489746,"55":-0.0047208997420966625,"56":0.8176518678665161,"57":0.9226495027542114,"58":-0.9326053857803345,"59":-0.6728955507278442,"60":1.4273314476013184,"61":-0.7570570707321167,"62":1.438738226890564,"63":-0.3198034465312958}},"outputBias":{"rows":8,"columns":1,"weights":{"0":0.47532111406326294,"1":0.2256779670715332,"2":0.41085851192474365,"3":0.12758873403072357,"4":-0.15713170170783997,"5":0.300469309091568,"6":1.0492843389511108,"7":0.2748168110847473}},"cellActivationMatrix":{"rows":8,"columns":8,"weights":{"0":-0.0788700208067894,"1":-0.6830991506576538,"2":0.0007359925075434148,"3":-0.2732205390930176,"4":-0.08238203823566437,"5":0.5237557888031006,"6":0.9258580803871155,"7":0.7080049514770508,"8":0.5107945203781128,"9":0.21270766854286194,"10":0.28809109330177307,"11":0.3936861753463745,"12":-0.34978559613227844,"13":-0.5549824237823486,"14":1.2360399961471558,"15":0.8461534380912781,"16":-0.3564184904098511,"17":-0.3399825096130371,"18":0.25806429982185364,"19":-0.5839999318122864,"20":0.5652636289596558,"21":0.507427990436554,"22":-0.949275016784668,"23":-0.7078779339790344,"24":0.24115724861621857,"25":0.42808449268341064,"26":-0.7217615246772766,"27":0.21827341616153717,"28":0.19028377532958984,"29":-0.2916301488876343,"30":-0.5591351985931396,"31":-0.9554230570793152,"32":-0.4691183865070343,"33":-0.8630000352859497,"34":-0.2262425273656845,"35":-1.0360723733901978,"36":0.512272298336029,"37":1.1801027059555054,"38":0.48204389214515686,"39":1.5205254554748535,"40":0.07435017079114914,"41":0.45935600996017456,"42":-0.40299418568611145,"43":0.09922443330287933,"44":0.15409208834171295,"45":-0.12094776332378387,"46":-0.7677227854728699,"47":-0.706946074962616,"48":1.180689811706543,"49":0.026068415492773056,"50":-0.21541960537433624,"51":0.1201205626130104,"52":0.20089086890220642,"53":0.10177025198936462,"54":1.3000264167785645,"55":0.604128897190094,"56":0.47489142417907715,"57":0.919468343257904,"58":-0.8050581812858582,"59":0.35537096858024597,"60":0.24311070144176483,"61":-1.1050105094909668,"62":-0.7458490133285522,"63":-1.171469807624817}},"cellActivationHidden":{"rows":8,"columns":8,"weights":{"0":-0.46396738290786743,"1":-0.48283013701438904,"2":0.3782825171947479,"3":0.5165133476257324,"4":0.45217040181159973,"5":0.38950979709625244,"6":0.6603384017944336,"7":0.4418667256832123,"8":1.1157070398330688,"9":0.44004762172698975,"10":-0.5470258593559265,"11":-0.40393853187561035,"12":-0.07238637655973434,"13":-0.6944868564605713,"14":1.3602875471115112,"15":-0.5677868127822876,"16":-0.16310647130012512,"17":-0.1746044158935547,"18":0.1629459708929062,"19":0.06189974024891853,"20":0.26892176270484924,"21":0.1299745738506317,"22":-0.5341435074806213,"23":0.26629698276519775,"24":-0.22142206132411957,"25":0.356563925743103,"26":-0.2647704482078552,"27":-0.09808098524808884,"28":-0.7774356603622437,"29":-0.08260614424943924,"30":-0.7930923104286194,"31":0.05889635533094406,"32":0.06752903759479523,"33":-0.7639411091804504,"34":0.714595377445221,"35":0.15036748349666595,"36":0.5787410736083984,"37":0.08845970779657364,"38":2.039870023727417,"39":0.32143354415893555,"40":0.12385541945695877,"41":0.44612544775009155,"42":-0.26791489124298096,"43":-0.363114595413208,"44":-0.36163321137428284,"45":-0.23854756355285645,"46":-0.6435221433639526,"47":-0.20000478625297546,"48":-0.7179784178733826,"49":-0.6987618803977966,"50":0.8456587195396423,"51":0.7267704010009766,"52":-0.7349107265472412,"53":0.6733578443527222,"54":-1.3197978734970093,"55":0.4856855571269989,"56":0.11263599246740341,"57":-0.028944244608283043,"58":0.005355337169021368,"59":-0.1298309862613678,"60":-1.3704664707183838,"61":-0.16160541772842407,"62":-1.1217713356018066,"63":-0.2697930634021759}},"cellActivationBias":{"rows":8,"columns":1,"weights":{"0":-0.06451818346977234,"1":-0.32776665687561035,"2":0.2708457112312317,"3":0.031653888523578644,"4":-0.7451757192611694,"5":0.0491802953183651,"6":-0.23639826476573944,"7":-0.012694303877651691}}}],"outputConnector":{"rows":4,"columns":8,"weights":{"0":-0.3346869647502899,"1":-0.8382307291030884,"2":0.5576597452163696,"3":0.12083493173122406,"4":0.11838458478450775,"5":0.13065026700496674,"6":0.50357985496521,"7":0.1544068306684494,"8":-0.09042621403932571,"9":-0.33261120319366455,"10":0.3024108409881592,"11":0.6008821725845337,"12":0.07505031675100327,"13":0.29501211643218994,"14":-0.12628906965255737,"15":0.6013128161430359,"16":-0.6030003428459167,"17":-0.5120916962623596,"18":0.7935246825218201,"19":0.4140722453594208,"20":0.974757194519043,"21":0.6134291887283325,"22":-0.08082526922225952,"23":-0.08794678002595901,"24":-0.4731089472770691,"25":-0.1878575086593628,"26":-0.03241569176316261,"27":0.23232197761535645,"28":0.4992731213569641,"29":0.261552631855011,"30":-0.7488359808921814,"31":0.7484627962112427}},"output":{"rows":4,"columns":1,"weights":{"0":0.21184854209423065,"1":0.5411006212234497,"2":0.03493019938468933,"3":0.5267005562782288}},"inputLookup":{"open":0,"high":1,"low":2,"close":3},"inputLookupLength":4,"outputLookup":{"open":0,"high":1,"low":2,"close":3},"outputLookupLength":4}