{"sizes":[49,3,10],"layers":[{"0":{},"1":{},"2":{},"3":{},"4":{},"5":{},"6":{},"7":{},"8":{},"9":{},"10":{},"11":{},"12":{},"13":{},"14":{},"15":{},"16":{},"17":{},"18":{},"19":{},"20":{},"21":{},"22":{},"23":{},"24":{},"25":{},"26":{},"27":{},"28":{},"29":{},"30":{},"31":{},"32":{},"33":{},"34":{},"35":{},"36":{},"37":{},"38":{},"39":{},"40":{},"41":{},"42":{},"43":{},"44":{},"45":{},"46":{},"47":{},"48":{}},{"0":{"bias":0.3372015357017517,"weights":{"0":1.211648941040039,"1":1.1847975254058838,"2":1.2091044187545776,"3":0.271032452583313,"4":1.043972134590149,"5":1.0789012908935547,"6":1.3354597091674805,"7":1.7066129446029663,"8":-0.15572504699230194,"9":-0.10847301036119461,"10":-0.6566092371940613,"11":0.052892670035362244,"12":0.05730722099542618,"13":0.8386400938034058,"14":1.3196848630905151,"15":0.3571040630340576,"16":0.2159743458032608,"17":-0.4478972256183624,"18":0.2805526852607727,"19":0.06791242212057114,"20":0.9172090888023376,"21":0.683239221572876,"22":-2.428910493850708,"23":-2.5575027465820312,"24":-3.3248655796051025,"25":-2.5965936183929443,"26":-2.4609904289245605,"27":1.2188321352005005,"28":-5.331018447875977,"29":-0.040008895099163055,"30":-0.1323026567697525,"31":-0.6381229758262634,"32":-0.16203540563583374,"33":0.1663825660943985,"34":2.346341609954834,"35":-5.221348762512207,"36":-0.15862955152988434,"37":-0.12637430429458618,"38":-0.6525253057479858,"39":0.09916703402996063,"40":-0.06151032820343971,"41":2.4257431030273438,"42":-0.5492682456970215,"43":-0.7310495972633362,"44":-0.4487416446208954,"45":-1.3924055099487305,"46":-0.5043078660964966,"47":-0.731342613697052,"48":1.186018943786621}},"1":{"bias":-1.5542665719985962,"weights":{"0":-0.7648926377296448,"1":0.12831008434295654,"2":0.07234751433134079,"3":-1.0090808868408203,"4":0.14116235077381134,"5":-0.05997517332434654,"6":-0.6185916662216187,"7":0.9189395904541016,"8":-0.15164698660373688,"9":-0.08001533895730972,"10":-1.0875662565231323,"11":0.06241710111498833,"12":-0.0048958840779960155,"13":-0.6313420534133911,"14":1.0519481897354126,"15":-0.4142349362373352,"16":-0.4167402684688568,"17":-1.294700026512146,"18":-0.5526250004768372,"19":-0.573921799659729,"20":-0.6037198901176453,"21":1.937678575515747,"22":1.0639816522598267,"23":0.7830356359481812,"24":0.11228439956903458,"25":1.0862984657287598,"26":0.9238300323486328,"27":-0.6290951371192932,"28":1.3435741662979126,"29":-0.11383439600467682,"30":-0.09772899746894836,"31":-0.9298812747001648,"32":-0.05423726141452789,"33":0.1013573482632637,"34":-0.8389548063278198,"35":1.2552390098571777,"36":0.13263104856014252,"37":-0.1507166177034378,"38":-0.9333992004394531,"39":0.014268125407397747,"40":-0.12929591536521912,"41":-0.5792154669761658,"42":1.8899400234222412,"43":1.6240938901901245,"44":1.6456325054168701,"45":0.7878881692886353,"46":1.9703840017318726,"47":1.888929843902588,"48":-0.6748303771018982}},"2":{"bias":0.06094908341765404,"weights":{"0":0.43595102429389954,"1":-0.9982823133468628,"2":-0.9131147265434265,"3":-1.1009066104888916,"4":-0.7082798480987549,"5":-0.9335190057754517,"6":0.34188124537467957,"7":2.660961151123047,"8":0.0242390725761652,"9":0.16302871704101562,"10":-0.5541238784790039,"11":0.08938491344451904,"12":-0.08195032179355621,"13":-4.222163677215576,"14":2.8257784843444824,"15":1.2615125179290771,"16":1.1197147369384766,"17":0.9313815236091614,"18":1.3150428533554077,"19":1.1638543605804443,"20":-4.481142997741699,"21":-0.2958388030529022,"22":0.4609440863132477,"23":0.36384478211402893,"24":-0.1193133145570755,"25":0.405618816614151,"26":0.37958353757858276,"27":0.2876436710357666,"28":1.1435154676437378,"29":-0.10138098895549774,"30":0.195000559091568,"31":-0.4889989495277405,"32":0.08373348414897919,"33":-0.037144772708415985,"34":-1.5914559364318848,"35":1.2483302354812622,"36":-0.0048049739561975,"37":-0.016150841489434242,"38":-0.22366958856582642,"39":-0.051920466125011444,"40":0.10468024015426636,"41":-1.5877825021743774,"42":1.140009880065918,"43":1.3689756393432617,"44":1.1816871166229248,"45":0.9770453572273254,"46":1.2988390922546387,"47":1.2732203006744385,"48":0.2833418846130371}}},{"zero":{"bias":-23.431838989257812,"weights":{"0":12.13560676574707,"1":15.119189262390137,"2":-3.061638593673706}},"one":{"bias":3.72331166267395,"weights":{"0":-8.600862503051758,"1":-8.948667526245117,"2":0.4424893856048584}},"two":{"bias":-0.12250574678182602,"weights":{"0":-22.83701515197754,"1":5.982278347015381,"2":-12.153786659240723}},"three":{"bias":-9.232817649841309,"weights":{"0":-0.5671058297157288,"1":11.994003295898438,"2":-22.214813232421875}},"four":{"bias":-8.235336303710938,"weights":{"0":4.537217140197754,"1":-9.529009819030762,"2":10.455360412597656}},"five":{"bias":-21.6833438873291,"weights":{"0":8.194984436035156,"1":4.240084171295166,"2":14.430045127868652}},"six":{"bias":-12.50478744506836,"weights":{"0":-10.310016632080078,"1":-4.3759541511535645,"2":19.14273452758789}},"seven":{"bias":-0.5474942326545715,"weights":{"0":3.9949402809143066,"1":-12.737650871276855,"2":-10.775081634521484}},"eight":{"bias":-4.703925609588623,"weights":{"0":-6.099483013153076,"1":3.3134403228759766,"2":1.0955299139022827}},"nine":{"bias":-17.758535385131836,"weights":{"0":15.132858276367188,"1":8.802526473999023,"2":-21.640838623046875}}}],"outputLookup":true,"inputLookup":false,"activation":"sigmoid","trainOpts":{"iterations":20000,"errorThresh":0.005,"log":true,"logPeriod":100,"learningRate":0.3,"momentum":0.1,"callbackPeriod":10,"beta1":0.9,"beta2":0.999,"epsilon":1e-8}}