{"type":"LSTM","options":{"inputSize":26,"inputRange":26,"hiddenLayers":[20,20],"outputSize":26,"decayRate":0.999,"smoothEps":1e-8,"regc":0.000001,"clipval":5,"maxPredictionLength":100,"dataFormatter":{"values":["I am super happy!","happy","What a pill!","sarcastic","I am super unhappy!","sad","Are we there yet?","excited"],"indexTable":{"I":0," ":1,"a":2,"m":3,"s":4,"u":5,"p":6,"e":7,"r":8,"h":9,"y":10,"!":11,"W":12,"t":13,"i":14,"l":15,"c":16,"n":17,"d":18,"A":19,"w":20,"?":21,"x":22,"stop-input":23,"start-output":24,"unrecognized":25},"characterTable":{"0":"I","1":" ","2":"a","3":"m","4":"s","5":"u","6":"p","7":"e","8":"r","9":"h","10":"y","11":"!","12":"W","13":"t","14":"i","15":"l","16":"c","17":"n","18":"d","19":"A","20":"w","21":"?","22":"x","23":null,"24":null,"25":null},"characters":["I"," ","a","m","s","u","p","e","r","h","y","!","W","t","i","l","c","n","d","A","w","?","x","stop-input","start-output","unrecognized"],"specialIndexes":[23,24,25]}},"input":{"rows":27,"columns":26,"weights":{"0":-0.40055009722709656,"1":0.08822543919086456,"2":-0.02807632088661194,"3":-0.6136362552642822,"4":0.29598432779312134,"5":0.31547993421554565,"6":0.37432175874710083,"7":0.27712205052375793,"8":-0.611691951751709,"9":0.4588334858417511,"10":0.09494102746248245,"11":0.3396090865135193,"12":0.14984162151813507,"13":-0.1828463226556778,"14":0.6010962128639221,"15":-0.4068097174167633,"16":-0.6472602486610413,"17":0.29686814546585083,"18":0.2690390646457672,"19":-0.4310790002346039,"20":0.45120969414711,"21":0.018472397699952126,"22":0.253653347492218,"23":0.08122743666172028,"24":-0.12046664953231812,"25":0.13605991005897522,"26":0.3818995952606201,"27":-1.0441941022872925,"28":0.8463289737701416,"29":1.1037378311157227,"30":0.3370175361633301,"31":-0.5566285848617554,"32":-1.2238495349884033,"33":0.9495764374732971,"34":1.114497423171997,"35":-0.8826468586921692,"36":0.8125368356704712,"37":0.5460463166236877,"38":0.7218068242073059,"39":1.2345362901687622,"40":0.5794981718063354,"41":-0.37735164165496826,"42":-0.40203195810317993,"43":0.3255309760570526,"44":0.6976877450942993,"45":-0.5882192850112915,"46":0.5628716945648193,"47":0.8541578650474548,"48":0.29531535506248474,"49":-1.2114118337631226,"50":-0.8697274327278137,"51":0.699264645576477,"52":0.2811518609523773,"53":-0.3503759503364563,"54":-0.7052526473999023,"55":0.47808241844177246,"56":-0.408265620470047,"57":-0.30717557668685913,"58":-0.2596733570098877,"59":-0.3657875657081604,"60":0.532641589641571,"61":-0.18510623276233673,"62":-0.4694201648235321,"63":-0.1895715445280075,"64":-0.20651304721832275,"65":-0.7902377247810364,"66":-0.2396463006734848,"67":-0.11861300468444824,"68":-0.33277469873428345,"69":-0.5687748193740845,"70":-0.5222080945968628,"71":0.2064729481935501,"72":0.03855936601758003,"73":-0.6259462833404541,"74":-0.697105348110199,"75":-1.3061524629592896,"76":0.4083114266395569,"77":-1.0152933597564697,"78":-0.9906547665596008,"79":-0.9421968460083008,"80":0.6207021474838257,"81":-0.13729989528656006,"82":0.25103628635406494,"83":0.1567090004682541,"84":-0.21149075031280518,"85":0.4659268856048584,"86":0.11026427149772644,"87":0.15554392337799072,"88":0.7688618302345276,"89":1.6222046613693237,"90":1.4412723779678345,"91":0.9755116701126099,"92":0.45095062255859375,"93":-0.44151031970977783,"94":0.7194952964782715,"95":-0.23064595460891724,"96":-0.15571904182434082,"97":-0.47472336888313293,"98":1.0001252889633179,"99":0.1945580691099167,"100":0.5272133350372314,"101":-0.9230150580406189,"102":-0.9095863103866577,"103":0.2827499806880951,"104":-1.5092064142227173,"105":1.2273638248443604,"106":0.3726630210876465,"107":-0.3849874436855316,"108":0.6207418441772461,"109":0.871172308921814,"110":-0.2577266991138458,"111":-0.11190731078386307,"112":-0.27724143862724304,"113":1.2879360914230347,"114":0.017253365367650986,"115":2.0761733055114746,"116":0.8729274272918701,"117":1.0917736291885376,"118":1.49009108543396,"119":-2.1856350898742676,"120":2.0400307178497314,"121":0.36551403999328613,"122":0.376297265291214,"123":-1.0003751516342163,"124":2.018820285797119,"125":0.04292073845863342,"126":1.7242289781570435,"127":0.9148468375205994,"128":-0.2201438844203949,"129":0.17305459082126617,"130":-0.14956408739089966,"131":-1.1109726428985596,"132":0.8356400728225708,"133":0.5229942202568054,"134":0.9706655144691467,"135":-0.22485794126987457,"136":-0.5585379600524902,"137":0.8418724536895752,"138":0.517101526260376,"139":-0.020127909258008003,"140":0.9591538310050964,"141":0.0775575339794159,"142":0.86287522315979,"143":0.9043638110160828,"144":-0.3587949275970459,"145":-0.07965437322854996,"146":-0.05806920677423477,"147":1.118873119354248,"148":0.7176256775856018,"149":-0.9761888384819031,"150":0.18619750440120697,"151":0.5795832276344299,"152":0.11377152800559998,"153":-0.9412310123443604,"154":-0.9324665069580078,"155":0.6552788019180298,"156":-0.24458326399326324,"157":-1.5038725137710571,"158":0.7651138305664062,"159":0.6147835850715637,"160":-0.9909396171569824,"161":-0.30237504839897156,"162":-0.5842376351356506,"163":0.9884383082389832,"164":0.46912211179733276,"165":0.12832215428352356,"166":1.5583604574203491,"167":-0.27757543325424194,"168":0.7619444131851196,"169":1.5500142574310303,"170":-0.4664284884929657,"171":0.18805460631847382,"172":-0.5558154582977295,"173":-0.9581539630889893,"174":2.4167823791503906,"175":0.2977522611618042,"176":-0.33662930130958557,"177":0.874894917011261,"178":-0.37147465348243713,"179":-1.842155933380127,"180":-1.8720118999481201,"181":0.25123482942581177,"182":0.5119337439537048,"183":-1.003322720527649,"184":0.7819898128509521,"185":-0.1617874950170517,"186":1.5257593393325806,"187":0.1881769299507141,"188":-0.003587256884202361,"189":0.7032787799835205,"190":-0.025421064347028732,"191":-0.9300472140312195,"192":0.8191304206848145,"193":0.9168888926506042,"194":0.5352166295051575,"195":-1.2862224578857422,"196":0.31494879722595215,"197":-0.3946782946586609,"198":0.7424228191375732,"199":1.692621111869812,"200":0.921302855014801,"201":-0.5694891214370728,"202":0.5389394164085388,"203":0.4842415750026703,"204":0.4971379339694977,"205":-1.1107099056243896,"206":-0.5789788365364075,"207":0.8104475140571594,"208":0.4388222396373749,"209":-1.0432136058807373,"210":0.13004280626773834,"211":0.5785505771636963,"212":-1.1451178789138794,"213":-1.0206161737442017,"214":-0.5532619953155518,"215":0.21387644112110138,"216":0.34373509883880615,"217":-1.3423829078674316,"218":0.4416411519050598,"219":-1.0346837043762207,"220":-1.0362008810043335,"221":-0.4203358590602875,"222":-1.1333975791931152,"223":1.4141489267349243,"224":-1.2453445196151733,"225":-0.9684705138206482,"226":-0.2075522541999817,"227":1.0060802698135376,"228":-1.1569424867630005,"229":-0.061050061136484146,"230":-1.0867269039154053,"231":-1.2367570400238037,"232":-0.3473164737224579,"233":0.3724679946899414,"234":0.6912071108818054,"235":0.640475332736969,"236":-0.5229703783988953,"237":-0.3011035919189453,"238":-0.3890187740325928,"239":0.001737702521495521,"240":0.4123670160770416,"241":-0.6742261648178101,"242":-0.11662016808986664,"243":0.04100707918405533,"244":-0.4815467596054077,"245":0.23661291599273682,"246":-0.4847422242164612,"247":-1.1790542602539062,"248":0.30531033873558044,"249":-0.2889276444911957,"250":0.37110087275505066,"251":-0.17125292122364044,"252":-0.13557609915733337,"253":0.15601642429828644,"254":0.3990459144115448,"255":-0.4482864439487457,"256":-0.6803019046783447,"257":0.5457041263580322,"258":0.6156545877456665,"259":-0.6005262732505798,"260":-0.4069228768348694,"261":1.280979037284851,"262":-1.3980501890182495,"263":-0.4412088990211487,"264":0.09997251629829407,"265":0.9218687415122986,"266":0.14557532966136932,"267":-1.032810091972351,"268":-0.3708146810531616,"269":1.6315157413482666,"270":-1.3790936470031738,"271":0.9166178107261658,"272":0.28289103507995605,"273":0.7725254893302917,"274":0.9995031356811523,"275":-0.9040692448616028,"276":1.2795926332473755,"277":-0.14281590282917023,"278":-0.9225303530693054,"279":0.046341124922037125,"280":0.9883533120155334,"281":-1.145148754119873,"282":0.09843512624502182,"283":0.8603618144989014,"284":0.9980161190032959,"285":-0.7859792113304138,"286":0.06704699248075485,"287":-0.1925497204065323,"288":-0.18964800238609314,"289":-0.39473941922187805,"290":0.14053437113761902,"291":0.4667772948741913,"292":0.3204837739467621,"293":-0.8367926478385925,"294":-0.2734178602695465,"295":0.50557541847229,"296":-0.2689937353134155,"297":1.2131403684616089,"298":-0.06665439158678055,"299":-0.3269096910953522,"300":0.6735773682594299,"301":-1.0845171213150024,"302":0.4167586863040924,"303":0.08102153241634369,"304":-0.37268969416618347,"305":-0.015402230434119701,"306":1.0394583940505981,"307":-0.5700650215148926,"308":0.08599097281694412,"309":-0.4072192907333374,"310":0.2845577895641327,"311":0.031208541244268417,"312":-0.20075680315494537,"313":1.1734445095062256,"314":-0.6306796073913574,"315":-0.06469140201807022,"316":-0.5679782629013062,"317":0.38674789667129517,"318":0.6176838874816895,"319":-1.2128902673721313,"320":-0.464718222618103,"321":0.803676426410675,"322":-1.2237776517868042,"323":-0.6825571656227112,"324":-0.2823629081249237,"325":-0.10192112624645233,"326":-0.21928685903549194,"327":-0.06414258480072021,"328":1.4800360202789307,"329":-0.9728521704673767,"330":-1.13942289352417,"331":0.6289625763893127,"332":-0.4571898579597473,"333":-0.6300574541091919,"334":0.04402109608054161,"335":0.7994303703308105,"336":0.9449785351753235,"337":-0.9678220152854919,"338":-1.044623613357544,"339":1.2919869422912598,"340":-0.14312314987182617,"341":-0.5165291428565979,"342":-1.8776276111602783,"343":1.2065045833587646,"344":1.7544488906860352,"345":-2.9390108585357666,"346":-1.7636032104492188,"347":0.03908544033765793,"348":-2.6525964736938477,"349":-1.8089799880981445,"350":-0.7020854353904724,"351":-1.613251805305481,"352":-0.17644555866718292,"353":-0.1791163831949234,"354":0.6785293221473694,"355":-2.2152578830718994,"356":-2.8976433277130127,"357":2.365828037261963,"358":-0.9559871554374695,"359":-1.8860316276550293,"360":1.1862425804138184,"361":1.4113850593566895,"362":3.3117363452911377,"363":-0.6902486681938171,"364":-0.7100181579589844,"365":1.8627210855484009,"366":-1.2293890714645386,"367":-0.7838505506515503,"368":0.039140649139881134,"369":1.023270606994629,"370":0.09860364347696304,"371":-1.0970031023025513,"372":-0.4572809040546417,"373":2.21212100982666,"374":-1.7341054677963257,"375":0.7029920220375061,"376":0.472141832113266,"377":0.7201890349388123,"378":1.4875166416168213,"379":-1.2755217552185059,"380":1.4598459005355835,"381":-0.5474510788917542,"382":-1.248713731765747,"383":-0.3038173317909241,"384":1.164820671081543,"385":-1.060381293296814,"386":0.5972669124603271,"387":1.720277190208435,"388":0.8487260341644287,"389":-0.8801085352897644,"390":-0.4500969648361206,"391":0.9785736203193665,"392":-0.2565261721611023,"393":-0.7609626054763794,"394":0.24425245821475983,"395":-0.0014813803136348724,"396":0.908473014831543,"397":0.23232033848762512,"398":-0.7610336542129517,"399":1.2028357982635498,"400":-0.43525946140289307,"401":1.4110808372497559,"402":0.15489766001701355,"403":0.058161623775959015,"404":0.8983426094055176,"405":-1.5954687595367432,"406":0.5233295559883118,"407":0.12253115326166153,"408":0.09637598693370819,"409":0.021070387214422226,"410":1.6923482418060303,"411":0.020826430991292,"412":-0.23786963522434235,"413":1.293510913848877,"414":0.6771860122680664,"415":1.0242515802383423,"416":-1.9378066062927246,"417":-0.40613850951194763,"418":-0.3773610591888428,"419":-0.27964091300964355,"420":-1.6672172546386719,"421":-0.39876461029052734,"422":0.3718647062778473,"423":-0.12501446902751923,"424":-0.7720528841018677,"425":-0.44743379950523376,"426":-0.15612627565860748,"427":-2.676860809326172,"428":-1.44784677028656,"429":-0.23608753085136414,"430":-2.176345109939575,"431":2.2749173641204834,"432":-2.9078328609466553,"433":-2.0429341793060303,"434":-1.2249103784561157,"435":1.5543910264968872,"436":-2.3385276794433594,"437":-0.5495153069496155,"438":-0.6243770122528076,"439":0.33545196056365967,"440":0.09555432945489883,"441":-0.37079277634620667,"442":0.41231095790863037,"443":-0.3889899253845215,"444":-0.704721212387085,"445":-0.182974711060524,"446":-1.0942074060440063,"447":0.050304826349020004,"448":0.17865650355815887,"449":-0.2922933101654053,"450":-0.2891426980495453,"451":0.1462802290916443,"452":-0.37067291140556335,"453":-0.38413795828819275,"454":-0.9245027899742126,"455":-0.4890984296798706,"456":-0.14176306128501892,"457":0.9438019394874573,"458":-1.145302414894104,"459":-1.3702795505523682,"460":-1.7818413972854614,"461":1.016162395477295,"462":-0.6469689607620239,"463":-0.8380126953125,"464":-1.4212480783462524,"465":-0.42077627778053284,"466":0.3478735387325287,"467":-2.1600124835968018,"468":-0.050367001444101334,"469":2.2943694591522217,"470":-1.3815398216247559,"471":0.2657936215400696,"472":0.8150954842567444,"473":-0.6833586096763611,"474":0.7527590394020081,"475":-0.3312758207321167,"476":0.021478530019521713,"477":1.8301265239715576,"478":-2.1579678058624268,"479":0.3209630846977234,"480":1.2934023141860962,"481":-0.34897086024284363,"482":-0.034680552780628204,"483":0.02387773059308529,"484":1.9367334842681885,"485":0.11774125695228577,"486":0.21026262640953064,"487":-0.14667917788028717,"488":-0.045412659645080566,"489":-0.840866208076477,"490":-0.39422544836997986,"491":2.196281671524048,"492":2.064925193786621,"493":1.7592170238494873,"494":-0.9747886061668396,"495":1.0593608617782593,"496":-0.6458575129508972,"497":-0.7489665150642395,"498":-1.1286815404891968,"499":1.189609169960022,"500":0.9042387008666992,"501":-1.3516905307769775,"502":-1.1557896137237549,"503":0.35942864418029785,"504":-1.2101061344146729,"505":-0.6092694401741028,"506":-0.9028655290603638,"507":-0.06663379073143005,"508":0.47026750445365906,"509":0.5015671253204346,"510":-0.135231152176857,"511":-1.3007452487945557,"512":-1.6488901376724243,"513":1.2224987745285034,"514":-0.3329307436943054,"515":-0.9457970857620239,"516":0.8680714964866638,"517":1.8565170764923096,"518":1.1147379875183105,"519":-0.7723568677902222,"520":1.9001270532608032,"521":0.5380434393882751,"522":-0.9785130620002747,"523":-0.5318495631217957,"524":-0.9370946288108826,"525":0.4582816958427429,"526":0.6400211453437805,"527":-0.5636997222900391,"528":-0.5108493566513062,"529":1.4290014505386353,"530":-0.47127294540405273,"531":1.4967381954193115,"532":-0.6035336256027222,"533":-0.5870465636253357,"534":1.1086231470108032,"535":0.41982075572013855,"536":-0.31521856784820557,"537":-1.1137505769729614,"538":-0.4227258861064911,"539":0.7465706467628479,"540":1.2879207134246826,"541":-0.7860045433044434,"542":-2.4844586849212646,"543":-0.39761438965797424,"544":0.5530809164047241,"545":-1.190856695175171,"546":2.9139184951782227,"547":0.954181969165802,"548":-1.2573705911636353,"549":-0.8040235042572021,"550":-0.2519356608390808,"551":0.42183762788772583,"552":1.1663930416107178,"553":-0.7608668804168701,"554":-0.7503564953804016,"555":-0.23156589269638062,"556":-0.8067009449005127,"557":0.30837351083755493,"558":-1.1917450428009033,"559":-3.5586929321289062,"560":0.8690360188484192,"561":0.5772526860237122,"562":-0.34119749069213867,"563":0.39039838314056396,"564":-0.2639842629432678,"565":0.7793073654174805,"566":0.042512256652116776,"567":-1.0537242889404297,"568":-2.3332574367523193,"569":0.1031358614563942,"570":0.952796995639801,"571":-1.3039506673812866,"572":1.0092096328735352,"573":0.7835065722465515,"574":-0.8320329189300537,"575":-0.715648889541626,"576":-1.0323137044906616,"577":0.7545272707939148,"578":0.8232280015945435,"579":-0.9619380235671997,"580":-0.8306006193161011,"581":0.8597226738929749,"582":-0.8342145681381226,"583":0.39146095514297485,"584":-0.820514976978302,"585":-0.6387110352516174,"586":0.6909000873565674,"587":-0.34627172350883484,"588":0.7145687937736511,"589":-1.0931891202926636,"590":-0.8775272369384766,"591":0.9439143538475037,"592":0.514936625957489,"593":-0.7623021602630615,"594":-1.013617992401123,"595":0.7647255063056946,"596":0.7906602025032043,"597":-1.4405474662780762,"598":1.768489122390747,"599":0.46467646956443787,"600":-0.9528810381889343,"601":-0.963019847869873,"602":-0.8424861431121826,"603":0.7071369886398315,"604":0.904455304145813,"605":-0.1696920096874237,"606":-0.81053626537323,"607":1.0207712650299072,"608":-0.6413865089416504,"609":1.3121182918548584,"610":-1.1021168231964111,"611":-1.488498568534851,"612":0.8219184279441833,"613":0.17247070372104645,"614":0.03989911451935768,"615":-0.8438486456871033,"616":-0.7392976880073547,"617":1.087365746498108,"618":0.6168850660324097,"619":-0.6531177759170532,"620":-1.8708813190460205,"621":-0.10076522082090378,"622":0.6923139691352844,"623":-0.7206549644470215,"624":0.24209491908550262,"625":0.691963255405426,"626":-0.2653350234031677,"627":-0.2094709873199463,"628":-0.36457744240760803,"629":0.29879897832870483,"630":0.36607179045677185,"631":-0.6989112496376038,"632":-0.2513069808483124,"633":0.063534215092659,"634":-0.45681092143058777,"635":0.15513604879379272,"636":-0.24392378330230713,"637":-0.30550479888916016,"638":0.299024373292923,"639":-0.8818410634994507,"640":1.1919150352478027,"641":-0.3115958273410797,"642":-0.4678918123245239,"643":0.2575002610683441,"644":0.537847638130188,"645":-0.37912675738334656,"646":-0.12648428976535797,"647":0.666436493396759,"648":0.5973707437515259,"649":-0.4859336018562317,"650":0.687820553779602,"651":0.7394709587097168,"652":-0.5762997269630432,"653":-0.25697579979896545,"654":-0.4192119240760803,"655":0.20072506368160248,"656":0.355943888425827,"657":-0.29608675837516785,"658":-0.3049192726612091,"659":0.18273787200450897,"660":-0.6082957983016968,"661":-0.12951917946338654,"662":-0.5246847867965698,"663":-0.7586933374404907,"664":0.16839240491390228,"665":0.8368421792984009,"666":-0.8921171426773071,"667":-0.3003220856189728,"668":-0.3959501385688782,"669":0.4522777497768402,"670":-0.5096970796585083,"671":-0.5236716866493225,"672":-1.0997180938720703,"673":0.7663717269897461,"674":0.4157838523387909,"675":-0.9322446584701538,"676":0.07829146087169647,"677":-0.02989465929567814,"678":0.012045254930853844,"679":-0.017486078664660454,"680":0.02946871519088745,"681":0.013704267330467701,"682":0.05960838869214058,"683":0.0380592904984951,"684":0.051235295832157135,"685":0.02919038198888302,"686":0.0029805609956383705,"687":0.03515323996543884,"688":0.047325897961854935,"689":-0.05425386130809784,"690":-0.03605060279369354,"691":-0.008250642567873001,"692":-0.031008990481495857,"693":0.06953214854001999,"694":0.015613497234880924,"695":0.07139129936695099,"696":-0.011946605518460274,"697":0.06434173136949539,"698":-0.023609431460499763,"699":-0.014460640959441662,"700":0.04471856355667114,"701":-0.010857831686735153}},"hiddenLayers":[{"inputMatrix":{"rows":20,"columns":26,"weights":{"0":0.8467438817024231,"1":-0.11940108984708786,"2":0.0011982261203229427,"3":0.1739545464515686,"4":-1.2713816165924072,"5":-0.2407134771347046,"6":0.3001142740249634,"7":-0.3610016405582428,"8":-0.051040858030319214,"9":-0.7198508381843567,"10":-0.10499156266450882,"11":-1.168244481086731,"12":-1.5264562368392944,"13":-2.253012180328369,"14":-0.82027667760849,"15":0.6624751687049866,"16":-0.6421706080436707,"17":-0.6374824047088623,"18":-0.44742438197135925,"19":1.054309368133545,"20":-1.0322918891906738,"21":-0.12355080991983414,"22":-0.7182333469390869,"23":-0.13086973130702972,"24":0.2459697127342224,"25":-0.925456702709198,"26":-1.5154170989990234,"27":-0.15019230544567108,"28":0.306883841753006,"29":-0.15426845848560333,"30":-0.1065303236246109,"31":0.3270508050918579,"32":-0.03988046571612358,"33":0.1983329951763153,"34":-0.22437231242656708,"35":0.6920488476753235,"36":0.07069866359233856,"37":-0.19770878553390503,"38":0.3545117676258087,"39":0.9658690690994263,"40":-0.12825140357017517,"41":-0.4478844702243805,"42":0.714475691318512,"43":-0.3841612637042999,"44":-0.32574430108070374,"45":0.14506050944328308,"46":-0.06151166558265686,"47":0.31380975246429443,"48":1.059399127960205,"49":0.2223055213689804,"50":-0.20108918845653534,"51":0.08222487568855286,"52":-0.6391721367835999,"53":0.3044607639312744,"54":-0.4576139450073242,"55":-0.8354377150535583,"56":-0.18875113129615784,"57":0.6167164444923401,"58":0.7141599655151367,"59":-0.3856429159641266,"60":-0.670993447303772,"61":1.2109594345092773,"62":-0.38007858395576477,"63":0.7449285984039307,"64":-0.1745864450931549,"65":-0.2879137694835663,"66":0.6073539853096008,"67":-0.6073244214057922,"68":0.954901933670044,"69":-1.0342373847961426,"70":-0.9709742069244385,"71":0.31356239318847656,"72":0.6427505612373352,"73":-0.5090442299842834,"74":0.45641767978668213,"75":0.22999826073646545,"76":0.2923310399055481,"77":-0.41079726815223694,"78":-0.43298113346099854,"79":-0.1445067822933197,"80":1.1070382595062256,"81":-0.2570860981941223,"82":1.3109880685806274,"83":0.46824508905410767,"84":0.08486860990524292,"85":0.5519958734512329,"86":-0.1124405488371849,"87":0.46768128871917725,"88":0.5710870623588562,"89":0.5789939165115356,"90":0.9599579572677612,"91":1.581573486328125,"92":0.2724274694919586,"93":-0.249782532453537,"94":0.7308635115623474,"95":0.8964685797691345,"96":0.5885413885116577,"97":-0.6646496653556824,"98":0.6203596591949463,"99":0.8058797121047974,"100":0.771619975566864,"101":0.1946745067834854,"102":-0.6185523271560669,"103":0.38085758686065674,"104":0.07800091803073883,"105":-0.6946154832839966,"106":0.15114045143127441,"107":1.0973594188690186,"108":-0.4151991307735443,"109":-0.7529317140579224,"110":-0.973240315914154,"111":0.24109172821044922,"112":0.9377164244651794,"113":-0.3253691494464874,"114":0.30630359053611755,"115":-1.0432249307632446,"116":-0.0929698720574379,"117":1.1186434030532837,"118":-1.1400251388549805,"119":0.7917354702949524,"120":-1.6586893796920776,"121":-0.2177666425704956,"122":0.21564017236232758,"123":0.09485971182584763,"124":-0.827904999256134,"125":0.18328161537647247,"126":-0.83284991979599,"127":-0.728018581867218,"128":-0.28018760681152344,"129":0.16358360648155212,"130":-0.9155463576316833,"131":0.32521721720695496,"132":-0.32092687487602234,"133":-0.18019293248653412,"134":-0.3445375859737396,"135":0.3641381561756134,"136":0.1570899337530136,"137":-0.4438451826572418,"138":-0.4709608554840088,"139":1.2370953559875488,"140":-0.3958105146884918,"141":-0.1493568867444992,"142":-0.2164933979511261,"143":0.9150006175041199,"144":0.05076264590024948,"145":0.20654983818531036,"146":-0.29012757539749146,"147":-0.5937162041664124,"148":-0.6052804589271545,"149":0.28611376881599426,"150":-0.1605740487575531,"151":-0.44604989886283875,"152":0.39099717140197754,"153":0.4258689284324646,"154":0.22588084638118744,"155":-0.47914230823516846,"156":0.198371022939682,"157":0.8116267323493958,"158":-1.0843347311019897,"159":0.02130875363945961,"160":-0.9169424772262573,"161":-0.30881041288375854,"162":0.27967140078544617,"163":-0.6823527216911316,"164":-0.18541069328784943,"165":0.590033233165741,"166":-0.9827558398246765,"167":-0.5991186499595642,"168":-0.9787710905075073,"169":-0.5873258709907532,"170":-0.3163260221481323,"171":0.3453831076622009,"172":-0.3883972764015198,"173":-0.5621789693832397,"174":-0.527722954750061,"175":1.0360968112945557,"176":-0.5664230585098267,"177":-0.6332254409790039,"178":-0.6071287393569946,"179":0.931155800819397,"180":1.0050644874572754,"181":-0.5752284526824951,"182":-0.4913954436779022,"183":0.6037536859512329,"184":-0.6459866762161255,"185":-0.34228867292404175,"186":-0.4529273211956024,"187":0.014089423231780529,"188":0.5224018096923828,"189":-0.6140077710151672,"190":-0.34974193572998047,"191":0.29574525356292725,"192":-0.7457749843597412,"193":0.0675920620560646,"194":-0.29584887623786926,"195":-0.46683648228645325,"196":0.22152024507522583,"197":-0.35656502842903137,"198":0.34598031640052795,"199":-0.5529365539550781,"200":-0.5633500218391418,"201":0.3792925477027893,"202":0.18771138787269592,"203":-0.5890817046165466,"204":0.20943577587604523,"205":0.3987763524055481,"206":0.6863716244697571,"207":-0.6325051188468933,"208":-0.702018141746521,"209":0.9063241481781006,"210":-0.2923392355442047,"211":-0.8922128677368164,"212":-0.14177919924259186,"213":0.47641298174858093,"214":0.8475369811058044,"215":-0.4730932414531708,"216":-0.7229254245758057,"217":1.0476306676864624,"218":-0.41590288281440735,"219":0.33687156438827515,"220":-0.14599235355854034,"221":-0.11053946614265442,"222":0.5650734901428223,"223":-0.4397847354412079,"224":0.7471371293067932,"225":-0.1861727237701416,"226":-0.24782776832580566,"227":0.20188462734222412,"228":0.5114565491676331,"229":-0.3409985899925232,"230":0.48751869797706604,"231":0.9653461575508118,"232":0.46889179944992065,"233":-0.24338676035404205,"234":-0.09687555581331253,"235":-0.4550716280937195,"236":0.3917127251625061,"237":0.0502638965845108,"238":-0.6839789152145386,"239":-0.005371499340981245,"240":0.010197783820331097,"241":0.05605417862534523,"242":-0.18361805379390717,"243":0.23645131289958954,"244":0.6246383190155029,"245":0.033224593847990036,"246":0.14861449599266052,"247":0.6633495688438416,"248":-0.12903866171836853,"249":0.7388069033622742,"250":-1.0468697547912598,"251":-0.8540059328079224,"252":0.1406518518924713,"253":-0.0022845433559268713,"254":0.07981258630752563,"255":0.12372040003538132,"256":-0.4935355484485626,"257":-0.5058615207672119,"258":-0.861282229423523,"259":-0.42134368419647217,"260":-1.365933895111084,"261":0.9219406247138977,"262":-0.07666072249412537,"263":-1.5968581438064575,"264":-0.4414576292037964,"265":0.9705895781517029,"266":1.2301803827285767,"267":-0.15013650059700012,"268":-1.3543757200241089,"269":1.3236825466156006,"270":-0.3099972605705261,"271":0.6909290552139282,"272":-0.11795841157436371,"273":0.3284246325492859,"274":0.8385891914367676,"275":-0.0793273076415062,"276":0.56167072057724,"277":-0.5946909189224243,"278":-0.5057462453842163,"279":0.4555242657661438,"280":0.4981607496738434,"281":-0.16100351512432098,"282":0.37507590651512146,"283":1.1463593244552612,"284":0.18680550158023834,"285":0.024728618562221527,"286":-0.7371704578399658,"287":0.00872358400374651,"288":-0.22718439996242523,"289":-0.3300733268260956,"290":-0.8140480518341064,"291":0.1363954246044159,"292":0.30348068475723267,"293":0.04663119092583656,"294":-0.4249013364315033,"295":0.42777320742607117,"296":0.1120305061340332,"297":-0.34364864230155945,"298":-0.19352662563323975,"299":0.12571266293525696,"300":-0.038921765983104706,"301":0.28251776099205017,"302":-0.8961216807365417,"303":-1.062329888343811,"304":-0.14819420874118805,"305":0.6165336966514587,"306":-0.39044150710105896,"307":-0.0408581867814064,"308":0.004065053537487984,"309":0.27535781264305115,"310":-0.22238507866859436,"311":-0.9531341791152954,"312":0.15353521704673767,"313":0.9350085258483887,"314":-0.872749924659729,"315":-0.07430202513933182,"316":-0.8448311686515808,"317":-0.13819213211536407,"318":0.3946376442909241,"319":-0.8910225629806519,"320":-0.3773844540119171,"321":0.592139482498169,"322":-0.8086481690406799,"323":-0.531349778175354,"324":-1.0243502855300903,"325":-0.5284817218780518,"326":-0.15911869704723358,"327":0.0398569330573082,"328":-0.2419172078371048,"329":-0.7154381275177002,"330":-0.600774347782135,"331":0.806321382522583,"332":-0.20154696702957153,"333":-0.7881021499633789,"334":-0.3943561315536499,"335":0.9493043422698975,"336":0.8329588770866394,"337":-0.7273679375648499,"338":0.2106424868106842,"339":0.3461117446422577,"340":-1.10399329662323,"341":-0.1303136795759201,"342":-1.1176589727401733,"343":0.3107447326183319,"344":0.23460833728313446,"345":-1.2238037586212158,"346":-0.13291311264038086,"347":0.44012710452079773,"348":-1.0120055675506592,"349":0.008074699901044369,"350":-0.9111340641975403,"351":-1.3074324131011963,"352":0.1734173446893692,"353":-0.28616711497306824,"354":0.172024205327034,"355":-0.8715515732765198,"356":-1.0721722841262817,"357":0.7726263403892517,"358":0.24081383645534515,"359":-1.2854714393615723,"360":-0.1577078253030777,"361":0.09378290921449661,"362":0.8389905095100403,"363":-1.8234410285949707,"364":-0.05940156430006027,"365":0.7689566612243652,"366":-0.6605538725852966,"367":-0.22484730184078217,"368":-0.7055652737617493,"369":0.05367093160748482,"370":0.40163761377334595,"371":-0.7688844799995422,"372":-0.39314475655555725,"373":0.44323235750198364,"374":-0.780860185623169,"375":-0.5151180028915405,"376":-0.9252731800079346,"377":-0.4046767055988312,"378":-0.10633586347103119,"379":0.10702302306890488,"380":-0.4329212009906769,"381":-0.5126122832298279,"382":-0.6466062068939209,"383":0.6024810671806335,"384":-0.2718052268028259,"385":-0.5020041465759277,"386":-0.19484388828277588,"387":0.8566683530807495,"388":0.6944297552108765,"389":-0.6955409049987793,"390":-1.6711492538452148,"391":0.6492170095443726,"392":-0.14874053001403809,"393":-1.2162226438522339,"394":-0.48863258957862854,"395":0.9566091299057007,"396":0.8879078030586243,"397":-0.3755134046077728,"398":-0.9883760213851929,"399":1.21722412109375,"400":-0.5176437497138977,"401":0.5602049827575684,"402":-0.03976467251777649,"403":0.6579044461250305,"404":0.85197514295578,"405":-0.22637030482292175,"406":0.36128875613212585,"407":-0.7576899528503418,"408":-0.7724996209144592,"409":-0.039053548127412796,"410":0.37351366877555847,"411":-0.4586499035358429,"412":0.5963563919067383,"413":1.020855188369751,"414":0.47896552085876465,"415":-0.06162954121828079,"416":-0.49649345874786377,"417":0.42915475368499756,"418":-0.3678756654262543,"419":-0.8191637396812439,"420":-0.9937168955802917,"421":-0.22864851355552673,"422":0.7015048861503601,"423":-0.4462701976299286,"424":-0.8042940497398376,"425":0.5138584971427917,"426":-0.17553366720676422,"427":0.17087116837501526,"428":-0.8741926550865173,"429":-0.9258872866630554,"430":0.10816524177789688,"431":0.35055169463157654,"432":-0.5712847113609314,"433":-0.9985133409500122,"434":-0.557574450969696,"435":0.5645207762718201,"436":-0.05423522740602493,"437":-0.6170007586479187,"438":-0.523685872554779,"439":0.5024092793464661,"440":0.2962695062160492,"441":-0.4725157618522644,"442":-0.25246044993400574,"443":1.2352031469345093,"444":-0.5850833654403687,"445":-0.7993062138557434,"446":-0.3630521893501282,"447":0.5013845562934875,"448":1.0614875555038452,"449":-0.4392175078392029,"450":-0.9529060125350952,"451":0.9840172529220581,"452":-0.9139745831489563,"453":0.06837579607963562,"454":-0.5065890550613403,"455":-0.3226214349269867,"456":0.4990779459476471,"457":0.14304162561893463,"458":-0.38641905784606934,"459":-0.501611590385437,"460":-0.5914161205291748,"461":0.359360933303833,"462":-0.09823419898748398,"463":-0.6124980449676514,"464":-0.01033936906605959,"465":1.3434396982192993,"466":0.6752813458442688,"467":-0.7464200258255005,"468":-0.39743614196777344,"469":0.4676801562309265,"470":0.7382164597511292,"471":-0.4796963632106781,"472":1.6944692134857178,"473":0.5772857069969177,"474":0.3908630907535553,"475":-0.06271550059318542,"476":-0.3331790566444397,"477":0.37313535809516907,"478":0.1631755530834198,"479":0.7145979404449463,"480":1.3134361505508423,"481":0.5010006427764893,"482":0.5437464714050293,"483":-0.5780854225158691,"484":1.0432958602905273,"485":1.6712020635604858,"486":0.13800539076328278,"487":-1.6509822607040405,"488":0.716513991355896,"489":0.4445766508579254,"490":0.7656272053718567,"491":0.6220242381095886,"492":-0.21925672888755798,"493":0.8461622595787048,"494":-0.8716397285461426,"495":-0.015016176737844944,"496":0.15909923613071442,"497":-0.39621028304100037,"498":-0.6014792919158936,"499":0.33390170335769653,"500":0.5835264921188354,"501":-0.3339012563228607,"502":-0.5851216912269592,"503":-0.19786830246448517,"504":-0.05547709763050079,"505":-0.1945982128381729,"506":-0.7653020024299622,"507":-1.1433212757110596,"508":-0.003545103594660759,"509":-0.06596965342760086,"510":-0.23697437345981598,"511":-0.09992588311433792,"512":-0.20605257153511047,"513":0.7513746619224548,"514":-0.015018641017377377,"515":-0.0015677999472245574,"516":0.6697263121604919,"517":0.3226154148578644,"518":0.09342451393604279,"519":0.24747903645038605}},"inputHidden":{"rows":20,"columns":20,"weights":{"0":0.32624292373657227,"1":0.35665932297706604,"2":-0.5303400754928589,"3":0.04714621603488922,"4":-0.33988383412361145,"5":0.3833816349506378,"6":0.2187507450580597,"7":0.19349077343940735,"8":-0.10178058594465256,"9":0.582278847694397,"10":0.5744200348854065,"11":-0.5463786125183105,"12":0.13996773958206177,"13":0.44575273990631104,"14":-0.2217773199081421,"15":-0.34738558530807495,"16":-0.5342844128608704,"17":-0.2634594738483429,"18":-0.07395859807729721,"19":0.5830861926078796,"20":0.09192726761102676,"21":0.2940000891685486,"22":-0.2800007164478302,"23":0.001068957382813096,"24":-0.938982367515564,"25":0.25392472743988037,"26":0.394926518201828,"27":0.24993030726909637,"28":-0.09023308008909225,"29":1.112478494644165,"30":-0.02638969197869301,"31":-0.22161632776260376,"32":0.44309428334236145,"33":-0.13850927352905273,"34":-0.4217623770236969,"35":-0.16753405332565308,"36":-0.3173157274723053,"37":-0.34963351488113403,"38":0.12908558547496796,"39":0.5009980797767639,"40":0.633716881275177,"41":0.7261731028556824,"42":0.04707467555999756,"43":0.5388301014900208,"44":-0.21985822916030884,"45":0.21997106075286865,"46":0.344790518283844,"47":-0.405682235956192,"48":0.47672057151794434,"49":-1.1600208282470703,"50":0.17613664269447327,"51":-0.3535516858100891,"52":0.3345506191253662,"53":0.8598081469535828,"54":-0.3104057312011719,"55":-0.16534313559532166,"56":-0.29930514097213745,"57":-0.11881458014249802,"58":0.5399408936500549,"59":0.10295379906892776,"60":0.9069007635116577,"61":0.030530646443367004,"62":0.10753697901964188,"63":-1.0283809900283813,"64":-0.7062845826148987,"65":-0.5547600388526917,"66":-0.5199917554855347,"67":-0.385536789894104,"68":0.30639830231666565,"69":0.3559553325176239,"70":0.13095495104789734,"71":0.6570994853973389,"72":-0.5277112126350403,"73":0.35795700550079346,"74":0.6361752152442932,"75":-0.44972604513168335,"76":0.5841452479362488,"77":0.5176567435264587,"78":-1.2958208322525024,"79":0.5286180377006531,"80":-0.16027402877807617,"81":-0.4762856066226959,"82":0.31674981117248535,"83":0.012186231091618538,"84":0.5466490387916565,"85":-0.7043997049331665,"86":-0.46961379051208496,"87":0.6564308404922485,"88":-0.5176941156387329,"89":0.06008986011147499,"90":-0.6812892556190491,"91":0.5301493406295776,"92":-0.4374868869781494,"93":-0.22481276094913483,"94":0.41558846831321716,"95":0.6496581435203552,"96":0.2659124732017517,"97":0.3865314722061157,"98":-0.059074610471725464,"99":-0.37662190198898315,"100":0.167038232088089,"101":1.2002705335617065,"102":-0.6858945488929749,"103":0.1223238930106163,"104":-0.20554713904857635,"105":-0.24099291861057281,"106":0.012060639448463917,"107":-0.9930327534675598,"108":0.8522250652313232,"109":-0.7599326372146606,"110":1.0136563777923584,"111":0.017675746232271194,"112":-0.03372694179415703,"113":0.5999321937561035,"114":0.0809904932975769,"115":-0.9522716999053955,"116":-0.10055964440107346,"117":0.47880515456199646,"118":-0.13201259076595306,"119":0.34292012453079224,"120":0.02431069314479828,"121":0.9277496337890625,"122":-0.8873251676559448,"123":0.21465641260147095,"124":-0.5257262587547302,"125":0.41962677240371704,"126":0.15592361986637115,"127":0.05145614221692085,"128":0.18074508011341095,"129":1.365785002708435,"130":0.9376342296600342,"131":-0.4340074062347412,"132":0.014631075784564018,"133":-0.008868430741131306,"134":-0.010231103748083115,"135":-0.7656563520431519,"136":-0.009130454622209072,"137":-0.36606574058532715,"138":0.12737566232681274,"139":0.39139193296432495,"140":0.44862326979637146,"141":0.5477122068405151,"142":-0.4790385365486145,"143":0.3434346914291382,"144":0.3218466639518738,"145":0.19018866121768951,"146":0.11073286086320877,"147":-0.5326047539710999,"148":0.5550347566604614,"149":-1.1551777124404907,"150":0.8774555325508118,"151":-0.1856529265642166,"152":0.3619164824485779,"153":0.6874786615371704,"154":-0.244232639670372,"155":-0.6842660903930664,"156":-0.3176243305206299,"157":0.026474688202142715,"158":0.32774218916893005,"159":0.44184014201164246,"160":0.05492047965526581,"161":0.4935048520565033,"162":-0.2500649094581604,"163":0.24044053256511688,"164":-0.16407665610313416,"165":-0.0610368549823761,"166":0.14844119548797607,"167":-0.6037271022796631,"168":0.6085244417190552,"169":-0.4454476535320282,"170":0.7149967551231384,"171":-0.08629712462425232,"172":0.2982608675956726,"173":0.41865071654319763,"174":-0.18484510481357574,"175":-0.591260552406311,"176":-0.21450361609458923,"177":0.0690159797668457,"178":0.2965344190597534,"179":0.41964438557624817,"180":-1.0504217147827148,"181":-0.5856236219406128,"182":-0.059578973799943924,"183":-0.9992222785949707,"184":-0.1316707283258438,"185":0.32714495062828064,"186":-0.06148676201701164,"187":1.384597659111023,"188":-1.2658963203430176,"189":0.7539410591125488,"190":-1.5560762882232666,"191":-0.28426259756088257,"192":0.14959777891635895,"193":-1.1008954048156738,"194":-0.30714207887649536,"195":1.5079076290130615,"196":0.044455256313085556,"197":-0.17962996661663055,"198":-1.2050714492797852,"199":-0.9747194647789001,"200":0.10130151361227036,"201":0.29200324416160583,"202":-0.5677205324172974,"203":0.15503644943237305,"204":-0.2979552149772644,"205":0.1711340844631195,"206":-0.04996934533119202,"207":0.10997189581394196,"208":0.12441553175449371,"209":0.2823951840400696,"210":0.8430747985839844,"211":-0.3255344331264496,"212":-0.03061627596616745,"213":-0.11042480170726776,"214":0.26855412125587463,"215":-0.003497280878946185,"216":-0.3542855381965637,"217":-0.15110914409160614,"218":0.09614788740873337,"219":0.72528076171875,"220":0.45653411746025085,"221":1.0076972246170044,"222":-0.9878644347190857,"223":-0.06150006875395775,"224":0.10343164205551147,"225":0.07716821879148483,"226":0.07200454920530319,"227":-0.5539271831512451,"228":0.39073556661605835,"229":-1.7079225778579712,"230":0.8205883502960205,"231":-0.008308184333145618,"232":0.07973627746105194,"233":0.8067271709442139,"234":-0.06585747748613358,"235":-0.7752466797828674,"236":-0.12435352057218552,"237":0.19989165663719177,"238":0.05523969233036041,"239":0.11152330785989761,"240":0.17614132165908813,"241":0.51558518409729,"242":-0.33382582664489746,"243":0.3496928811073303,"244":-0.42997676134109497,"245":0.15618133544921875,"246":0.18975818157196045,"247":-0.2655397057533264,"248":0.38137006759643555,"249":0.4789760112762451,"250":0.6662423610687256,"251":-0.12774573266506195,"252":0.12378625571727753,"253":0.2498059719800949,"254":-0.08701686561107635,"255":-0.5023506283760071,"256":-0.1292143017053604,"257":-0.1295064389705658,"258":0.2935045659542084,"259":0.3099289536476135,"260":0.10681798309087753,"261":0.05356155335903168,"262":-0.013122595846652985,"263":0.4584576189517975,"264":-0.1149577721953392,"265":0.4514303207397461,"266":0.35089248418807983,"267":-0.27437448501586914,"268":0.18845152854919434,"269":-0.5497534871101379,"270":0.42269182205200195,"271":-0.27689698338508606,"272":0.36764752864837646,"273":0.348771870136261,"274":-0.3493371307849884,"275":-0.06372880935668945,"276":-0.31319460272789,"277":-0.3632972836494446,"278":0.428572416305542,"279":0.3425753116607666,"280":0.24325303733348846,"281":0.7955752611160278,"282":-0.733633816242218,"283":0.3730514347553253,"284":-0.19054104387760162,"285":-0.025116994976997375,"286":0.11385627835988998,"287":-0.6000052094459534,"288":0.7078661322593689,"289":0.19734445214271545,"290":0.7974036335945129,"291":-0.03673452511429787,"292":0.055333107709884644,"293":0.3836117088794708,"294":-0.10731872916221619,"295":-0.5008825063705444,"296":-0.10348042845726013,"297":-0.08543629199266434,"298":0.3670840561389923,"299":0.423410564661026,"300":-0.28668999671936035,"301":0.08514593541622162,"302":-0.01717670075595379,"303":-0.13427646458148956,"304":-0.38018667697906494,"305":-0.12347256392240524,"306":0.17851535975933075,"307":-0.2896202802658081,"308":0.4380681812763214,"309":0.3310227692127228,"310":0.15405483543872833,"311":0.367893248796463,"312":-0.04144041985273361,"313":-0.6348987221717834,"314":0.12234704941511154,"315":0.5596945881843567,"316":0.23378823697566986,"317":0.4501248896121979,"318":-0.013713618740439415,"319":-0.0567147433757782,"320":0.4305388629436493,"321":0.9442746639251709,"322":-0.8782169222831726,"323":-0.16306693851947784,"324":-0.568539023399353,"325":-0.010593577288091183,"326":0.1286526322364807,"327":-1.022497534751892,"328":0.45705342292785645,"329":0.5861554145812988,"330":0.6015599370002747,"331":-0.1844661682844162,"332":0.012676474638283253,"333":0.4309358596801758,"334":0.02122875116765499,"335":-0.47892579436302185,"336":-0.19378863275051117,"337":-0.07622437179088593,"338":-0.15718486905097961,"339":-0.12040679156780243,"340":0.5044946074485779,"341":0.7247567176818848,"342":-0.7851104736328125,"343":-0.20293095707893372,"344":-0.11345751583576202,"345":-0.13563713431358337,"346":0.1824207752943039,"347":-0.3857380449771881,"348":0.5468629002571106,"349":0.6980888843536377,"350":0.7968789935112,"351":0.6054024696350098,"352":0.06760439276695251,"353":0.3369627594947815,"354":0.04993002861738205,"355":-0.4494750201702118,"356":0.3372166156768799,"357":0.04959077015519142,"358":-0.16342571377754211,"359":0.9203409552574158,"360":-0.4476695656776428,"361":0.17905886471271515,"362":-0.4579945504665375,"363":-0.4598768651485443,"364":0.1393512338399887,"365":-0.42342379689216614,"366":-0.5040395259857178,"367":0.04761049151420593,"368":0.07571641355752945,"369":0.4019652307033539,"370":0.21552450954914093,"371":0.46619775891304016,"372":-0.48844775557518005,"373":-0.17283770442008972,"374":0.47094082832336426,"375":-0.41085731983184814,"376":0.5285549759864807,"377":0.5724869966506958,"378":-0.64356529712677,"379":0.0389566533267498,"380":0.39587029814720154,"381":0.6249614357948303,"382":-0.4744235873222351,"383":0.894008994102478,"384":0.28101468086242676,"385":-0.8515251278877258,"386":-0.11287951469421387,"387":-1.2560153007507324,"388":1.4392856359481812,"389":0.07078522443771362,"390":1.4955378770828247,"391":0.6879387497901917,"392":-0.3162006735801697,"393":0.9375790357589722,"394":0.3880343437194824,"395":-1.1207072734832764,"396":0.6068737506866455,"397":0.6209610104560852,"398":0.9574158191680908,"399":1.0254191160202026}},"inputBias":{"rows":20,"columns":1,"weights":{"0":-0.5132622718811035,"1":-0.7463092803955078,"2":-0.7372452616691589,"3":0.1045592874288559,"4":-0.24183864891529083,"5":-0.2657163739204407,"6":-0.5040331482887268,"7":-0.41958117485046387,"8":-0.6820381879806519,"9":-0.27525418996810913,"10":0.9682431221008301,"11":-0.39617976546287537,"12":-0.3797561526298523,"13":-0.6731114387512207,"14":-0.03260426223278046,"15":0.9801031351089478,"16":0.323454886674881,"17":0.5521227121353149,"18":0.42387062311172485,"19":-0.7399221658706665}},"forgetMatrix":{"rows":20,"columns":26,"weights":{"0":-1.4536123275756836,"1":-0.33029699325561523,"2":1.3419098854064941,"3":-0.014670725911855698,"4":1.1038670539855957,"5":0.07371779531240463,"6":0.22330670058727264,"7":1.897937536239624,"8":-0.08552548289299011,"9":-0.7355246543884277,"10":0.730614185333252,"11":0.4567073881626129,"12":1.2998886108398438,"13":0.9353323578834534,"14":0.33804523944854736,"15":-0.14860482513904572,"16":-0.019525403156876564,"17":0.9673120379447937,"18":0.6708422303199768,"19":-0.9535267353057861,"20":0.4156888723373413,"21":1.1207777261734009,"22":1.2412924766540527,"23":-0.005839766468852758,"24":-0.8208461403846741,"25":0.7183579206466675,"26":0.2758864760398865,"27":1.0372778177261353,"28":-0.9863144159317017,"29":-0.5330728888511658,"30":-0.0774308443069458,"31":0.4540103077888489,"32":0.5873680114746094,"33":-0.9612548351287842,"34":-0.4051319658756256,"35":1.1123700141906738,"36":-0.9403221607208252,"37":0.4796397387981415,"38":-0.24192151427268982,"39":-0.07028768211603165,"40":0.710305392742157,"41":-0.3772084712982178,"42":0.8013536930084229,"43":-0.18931668996810913,"44":-0.6435493230819702,"45":0.037857990711927414,"46":0.48652681708335876,"47":-0.7936575412750244,"48":-0.15180976688861847,"49":0.9730125665664673,"50":0.993569016456604,"51":-0.752476155757904,"52":-0.6448056101799011,"53":0.3882576525211334,"54":-0.5047970414161682,"55":-0.7740800976753235,"56":0.05765223130583763,"57":0.5486588478088379,"58":0.516308605670929,"59":-0.526200532913208,"60":-0.40716683864593506,"61":1.0244543552398682,"62":-0.29200631380081177,"63":0.9453346133232117,"64":0.542178213596344,"65":0.5472172498703003,"66":0.6992911696434021,"67":-0.6540147662162781,"68":0.8664964437484741,"69":-0.4389139413833618,"70":-0.9990893602371216,"71":-0.18238206207752228,"72":0.8898006677627563,"73":-0.7126895785331726,"74":0.3691709637641907,"75":0.6531130075454712,"76":0.36968645453453064,"77":-0.4298093020915985,"78":1.572155475616455,"79":-0.7517204284667969,"80":0.2245675027370453,"81":0.8816917538642883,"82":-0.04148628190159798,"83":-1.0974634885787964,"84":-0.7803177833557129,"85":0.21598400175571442,"86":0.8478524684906006,"87":-0.8931869864463806,"88":0.32934778928756714,"89":-0.23072481155395508,"90":-0.24836960434913635,"91":-0.3442535996437073,"92":-0.9261645078659058,"93":0.32296717166900635,"94":-0.39194443821907043,"95":0.24915258586406708,"96":0.5018346309661865,"97":-0.005101451184600592,"98":-0.4358591139316559,"99":0.3446081876754761,"100":-0.6464009284973145,"101":-0.759580135345459,"102":-0.17957794666290283,"103":0.11516804993152618,"104":-0.342458039522171,"105":0.09359026700258255,"106":-0.07390794157981873,"107":0.3222626745700836,"108":-1.237889289855957,"109":-0.10920637100934982,"110":-0.19965863227844238,"111":0.16803540289402008,"112":0.14999432861804962,"113":1.3529183864593506,"114":0.061451513320207596,"115":-0.3330572545528412,"116":-0.005468002986162901,"117":0.47870469093322754,"118":-0.33117157220840454,"119":-0.019079377874732018,"120":-0.20577846467494965,"121":-1.3283517360687256,"122":0.8070849180221558,"123":0.6250203251838684,"124":-0.16405004262924194,"125":0.06597387045621872,"126":-0.19961917400360107,"127":0.05855203792452812,"128":-0.231323704123497,"129":-0.714921236038208,"130":-0.8918571472167969,"131":0.06627321988344193,"132":0.23730561137199402,"133":-0.2928504943847656,"134":1.1023614406585693,"135":0.739467203617096,"136":-0.15292951464653015,"137":0.5442836880683899,"138":-0.14374832808971405,"139":0.6220688819885254,"140":0.041785430163145065,"141":1.0770142078399658,"142":1.2584919929504395,"143":1.8147317171096802,"144":0.6137872934341431,"145":-0.6866317391395569,"146":0.38836026191711426,"147":0.9384761452674866,"148":0.22977286577224731,"149":-1.0322140455245972,"150":0.8547638654708862,"151":0.18242065608501434,"152":0.776053786277771,"153":0.13448721170425415,"154":-0.150570347905159,"155":1.2087448835372925,"156":-0.6894750595092773,"157":0.09291768074035645,"158":0.0782007947564125,"159":-0.26647672057151794,"160":0.8653307557106018,"161":0.6407527327537537,"162":0.03143997862935066,"163":0.035319793969392776,"164":-0.2597894072532654,"165":0.45888611674308777,"166":0.014162496663630009,"167":0.8197289109230042,"168":0.9491504430770874,"169":1.1164844036102295,"170":0.5232077836990356,"171":-0.6413427591323853,"172":0.711354672908783,"173":0.8139225840568542,"174":0.017789142206311226,"175":-0.7387509346008301,"176":0.6820241212844849,"177":-0.011896664276719093,"178":0.6842561960220337,"179":0.1582203507423401,"180":0.02569074183702469,"181":0.6232804656028748,"182":0.19170743227005005,"183":0.9776865243911743,"184":-1.045113205909729,"185":0.026529459282755852,"186":-0.053258635103702545,"187":0.15295879542827606,"188":0.11413554102182388,"189":-1.0034277439117432,"190":-0.0964665487408638,"191":0.6964602470397949,"192":-1.052691102027893,"193":0.4035738408565521,"194":-0.163466215133667,"195":-0.19637709856033325,"196":0.2653294503688812,"197":-0.2378532439470291,"198":0.3720383644104004,"199":-0.21262255311012268,"200":-0.7572882771492004,"201":-0.016750063747167587,"202":0.14624649286270142,"203":-0.8673689365386963,"204":-0.16945555806159973,"205":0.6133037209510803,"206":1.0841981172561646,"207":-0.9775112867355347,"208":-0.18575258553028107,"209":0.7951081395149231,"210":-1.0216970443725586,"211":-0.24510805308818817,"212":-0.13535112142562866,"213":0.24568277597427368,"214":0.4670466482639313,"215":-0.7352468371391296,"216":-0.30883827805519104,"217":0.7122635245323181,"218":-1.417778730392456,"219":0.4234170615673065,"220":-0.19808274507522583,"221":-0.2620471119880676,"222":0.30628594756126404,"223":-0.0491572804749012,"224":0.19511854648590088,"225":-0.3529604971408844,"226":-1.1760822534561157,"227":0.18085575103759766,"228":0.24480262398719788,"229":-1.1526556015014648,"230":-0.13832987844944,"231":0.6062779426574707,"232":1.330004334449768,"233":-1.283522129058838,"234":1.3720570802688599,"235":-0.1970706284046173,"236":-0.590018630027771,"237":1.054883360862732,"238":-1.200870394706726,"239":-0.7906085252761841,"240":-0.8129594922065735,"241":-0.022706083953380585,"242":0.9157895445823669,"243":-0.18435147404670715,"244":0.20575673878192902,"245":-0.5555230975151062,"246":-0.9194895029067993,"247":-1.1077566146850586,"248":-0.767619788646698,"249":0.9174732565879822,"250":-0.8500820994377136,"251":-0.7461507320404053,"252":0.22152160108089447,"253":0.7518101930618286,"254":-0.737737774848938,"255":-0.11875224858522415,"256":-1.4332517385482788,"257":-0.35971882939338684,"258":0.014505656436085701,"259":-1.0703647136688232,"260":-0.9098925590515137,"261":0.432227224111557,"262":-0.38379228115081787,"263":-1.2083333730697632,"264":0.13819532096385956,"265":0.9311174750328064,"266":0.8801849484443665,"267":-0.6236722469329834,"268":-0.7538731098175049,"269":1.5985075235366821,"270":-0.6904345750808716,"271":0.8466036915779114,"272":0.5189233422279358,"273":-0.013713167048990726,"274":0.9437352418899536,"275":-1.1615437269210815,"276":1.1834559440612793,"277":-0.6695520877838135,"278":-1.1638809442520142,"279":-0.4531092941761017,"280":1.0739190578460693,"281":-0.8961454033851624,"282":0.6760993599891663,"283":0.07664863765239716,"284":0.44699060916900635,"285":-1.4933847188949585,"286":-0.6241018176078796,"287":-0.12862329185009003,"288":0.4282160699367523,"289":-0.07029957324266434,"290":0.7843157052993774,"291":0.28052017092704773,"292":-0.07097522169351578,"293":0.6917325258255005,"294":-0.009595216251909733,"295":-0.2000313699245453,"296":0.10050150752067566,"297":0.6902199983596802,"298":0.804678738117218,"299":0.7424737811088562,"300":0.3355485200881958,"301":-0.531208336353302,"302":-0.11018574237823486,"303":0.738773763179779,"304":0.06044395640492439,"305":-0.8373069763183594,"306":0.7381051778793335,"307":0.2178964763879776,"308":0.7191460728645325,"309":-0.05229155346751213,"310":-0.027193691581487656,"311":0.7585731744766235,"312":-0.6523518562316895,"313":-0.11525469273328781,"314":-0.007904725149273872,"315":-0.08083292841911316,"316":0.9468219876289368,"317":0.43406733870506287,"318":-0.22534392774105072,"319":0.2863563895225525,"320":-0.04978514835238457,"321":0.11100353300571442,"322":0.13168136775493622,"323":0.5730510354042053,"324":0.9642900824546814,"325":1.6185070276260376,"326":0.36662939190864563,"327":-0.3806668221950531,"328":0.3561757802963257,"329":0.8415983319282532,"330":0.166383758187294,"331":-0.7961785197257996,"332":0.41760215163230896,"333":0.0672714114189148,"334":0.5388559699058533,"335":-0.22332629561424255,"336":-0.09579555690288544,"337":0.6868171691894531,"338":-0.06760788708925247,"339":0.9720465540885925,"340":-0.4763285517692566,"341":-0.7511292099952698,"342":0.4274325370788574,"343":0.7454822063446045,"344":0.8165506720542908,"345":-0.7077493071556091,"346":-0.7486318945884705,"347":1.394131064414978,"348":-0.5039091110229492,"349":1.1991509199142456,"350":0.17938674986362457,"351":0.21548576653003693,"352":0.7978781461715698,"353":-0.6459870934486389,"354":1.6433229446411133,"355":0.3389340937137604,"356":-0.5666282773017883,"357":-0.30753034353256226,"358":0.8146486878395081,"359":-0.5076006054878235,"360":0.18760782480239868,"361":1.5270488262176514,"362":0.5090519785881042,"363":-0.5613504648208618,"364":-0.7316051721572876,"365":0.015390008687973022,"366":0.20871490240097046,"367":-0.25237712264060974,"368":0.9363936185836792,"369":0.5026068687438965,"370":0.1230415552854538,"371":0.3931257724761963,"372":-0.18019849061965942,"373":0.2462419867515564,"374":0.06636077910661697,"375":0.8136698007583618,"376":0.929240345954895,"377":1.341030240058899,"378":0.5213667154312134,"379":-0.7237806916236877,"380":0.7664336562156677,"381":0.8241733312606812,"382":0.1592525839805603,"383":-0.7523759007453918,"384":0.7887709140777588,"385":0.3264472186565399,"386":0.6048452854156494,"387":0.07058654725551605,"388":-0.060918163508176804,"389":1.1466569900512695,"390":0.26649144291877747,"391":0.665525496006012,"392":-0.21140913665294647,"393":-0.7399383187294006,"394":0.5167881846427917,"395":1.1912527084350586,"396":0.5948287844657898,"397":-0.6419262886047363,"398":-0.47574910521507263,"399":0.2763465344905853,"400":-0.37735629081726074,"401":1.3561406135559082,"402":0.32377928495407104,"403":-0.3762485384941101,"404":1.7876746654510498,"405":-1.0011154413223267,"406":0.7160067558288574,"407":0.3078644871711731,"408":-0.031110363081097603,"409":-0.5357553362846375,"410":1.5946310758590698,"411":-0.4078834652900696,"412":0.23201042413711548,"413":0.4676951467990875,"414":0.10653279721736908,"415":-0.37365415692329407,"416":-0.5533433556556702,"417":-0.05142860487103462,"418":0.015541198663413525,"419":-0.3412027060985565,"420":0.7175025939941406,"421":0.6753196716308594,"422":0.17728224396705627,"423":0.05215736851096153,"424":-0.12944549322128296,"425":0.030334189534187317,"426":-0.08198226243257523,"427":0.9513307809829712,"428":0.7455152869224548,"429":0.03982415795326233,"430":0.7320119142532349,"431":-0.8712012767791748,"432":-0.2625465989112854,"433":0.7075754404067993,"434":0.4931332468986511,"435":-0.8652907609939575,"436":0.9032912254333496,"437":-0.16853195428848267,"438":0.7598459720611572,"439":-0.043717797845602036,"440":-0.11522975564002991,"441":-0.12044844031333923,"442":-1.0798839330673218,"443":0.06832301616668701,"444":0.09530165791511536,"445":-0.7568848729133606,"446":1.199044108390808,"447":1.0991342067718506,"448":0.1216856837272644,"449":0.009645436890423298,"450":-0.47309088706970215,"451":0.7846234440803528,"452":-0.09614065289497375,"453":1.6395132541656494,"454":1.3016384840011597,"455":1.7267149686813354,"456":1.0886054039001465,"457":-1.029384732246399,"458":0.5473100543022156,"459":1.0289053916931152,"460":0.19651439785957336,"461":-1.0723336935043335,"462":1.2825239896774292,"463":-0.20362332463264465,"464":0.9524826407432556,"465":0.3556344509124756,"466":-0.05276651680469513,"467":0.9131444096565247,"468":1.5371415615081787,"469":-0.6264387369155884,"470":0.16194820404052734,"471":1.0280966758728027,"472":-0.09793560206890106,"473":-0.8425284624099731,"474":-0.9065346121788025,"475":0.3582959473133087,"476":0.926287055015564,"477":-1.058855414390564,"478":0.5951207280158997,"479":-0.4536804258823395,"480":-0.4498622715473175,"481":-0.7445372343063354,"482":-0.6476684808731079,"483":0.43710973858833313,"484":-0.39965635538101196,"485":0.19712643325328827,"486":0.5951516628265381,"487":0.10625524818897247,"488":-0.6068871021270752,"489":0.46457773447036743,"490":-0.599747896194458,"491":-0.9269233345985413,"492":-0.37040242552757263,"493":-0.04840725660324097,"494":0.4068395793437958,"495":-0.6820551156997681,"496":1.7588530778884888,"497":0.6485875844955444,"498":0.2880364954471588,"499":-0.35282301902770996,"500":-0.8547119498252869,"501":1.5294896364212036,"502":0.8093403577804565,"503":-1.4918522834777832,"504":1.1900277137756348,"505":0.12504170835018158,"506":0.10959742963314056,"507":0.8126377463340759,"508":-0.16057699918746948,"509":0.20574422180652618,"510":-0.35478177666664124,"511":0.42165711522102356,"512":1.637939453125,"513":-0.2770310640335083,"514":-0.006494943518191576,"515":1.5224930047988892,"516":0.08570640534162521,"517":-0.5425234436988831,"518":-1.6188987493515015,"519":1.9463680982589722}},"forgetHidden":{"rows":20,"columns":20,"weights":{"0":0.11613506823778152,"1":0.46510598063468933,"2":-0.5189982652664185,"3":0.3161688446998596,"4":-0.7330300807952881,"5":0.3311878740787506,"6":0.40356436371803284,"7":0.1622648984193802,"8":0.2553379535675049,"9":0.5955658555030823,"10":0.1967841237783432,"11":-0.16154086589813232,"12":0.36167779564857483,"13":0.00030136347049847245,"14":-0.3095858693122864,"15":-0.4161471724510193,"16":-0.2902880311012268,"17":-0.19726349413394928,"18":0.3536366820335388,"19":0.7018283009529114,"20":0.0837053582072258,"21":0.3770819902420044,"22":-0.34521299600601196,"23":0.1946616917848587,"24":-0.23112712800502777,"25":0.5773155689239502,"26":0.4840797781944275,"27":-0.47110554575920105,"28":0.20012566447257996,"29":-0.42064765095710754,"30":0.24118897318840027,"31":-0.3816862106323242,"32":0.556282103061676,"33":0.22327212989330292,"34":-0.5147198438644409,"35":-0.20894967019557953,"36":-0.4443974792957306,"37":-0.3350382447242737,"38":0.5451093316078186,"39":0.20667514204978943,"40":0.25650396943092346,"41":0.23049411177635193,"42":-0.6280513405799866,"43":0.1774657815694809,"44":-0.3697793781757355,"45":0.7114640474319458,"46":0.45680391788482666,"47":-0.01591183990240097,"48":-0.18665969371795654,"49":0.4305267930030823,"50":0.26705315709114075,"51":-0.3928130567073822,"52":0.5259632468223572,"53":0.002515444764867425,"54":-0.5883975028991699,"55":-0.14602255821228027,"56":-0.4304238259792328,"57":-0.46389681100845337,"58":0.2739838659763336,"59":0.04300224781036377,"60":-0.24357883632183075,"61":-0.6401790380477905,"62":0.7398631572723389,"63":0.1397513896226883,"64":0.5755428671836853,"65":-0.22522787749767303,"66":-0.13934794068336487,"67":0.9270488023757935,"68":-0.7018671631813049,"69":-0.21521668136119843,"70":-0.7252287268638611,"71":0.1058850809931755,"72":-0.35428011417388916,"73":-0.8419165015220642,"74":0.27496007084846497,"75":0.6961357593536377,"76":0.009594685398042202,"77":0.5137134790420532,"78":0.059555329382419586,"79":-0.33227360248565674,"80":-0.8872250914573669,"81":-0.03940778598189354,"82":0.1518944948911667,"83":0.10844079405069351,"84":1.0830177068710327,"85":-0.5173285603523254,"86":-0.6488369703292847,"87":-0.35931408405303955,"88":0.417694628238678,"89":-1.5425692796707153,"90":0.24679455161094666,"91":0.297122061252594,"92":-0.4962672293186188,"93":-0.04308958351612091,"94":0.35508760809898376,"95":-0.43301600217819214,"96":0.2894197404384613,"97":0.7874215245246887,"98":0.03652936965227127,"99":0.06819818913936615,"100":0.3778862953186035,"101":0.25116071105003357,"102":-0.04730968177318573,"103":0.25861090421676636,"104":-0.16736996173858643,"105":0.4778757095336914,"106":0.49508175253868103,"107":-0.2763630151748657,"108":0.2389245629310608,"109":-0.3239712715148926,"110":0.49594202637672424,"111":-0.3828098773956299,"112":0.41463202238082886,"113":0.3588833808898926,"114":-0.5102609992027283,"115":-0.5630769729614258,"116":-0.4757365584373474,"117":-0.22043746709823608,"118":0.28966858983039856,"119":0.3638550639152527,"120":0.5083000659942627,"121":0.1518429070711136,"122":-0.0629754438996315,"123":0.37375375628471375,"124":-0.3798058032989502,"125":0.5852976441383362,"126":0.530441164970398,"127":-0.2089066058397293,"128":0.10839923471212387,"129":0.23762419819831848,"130":0.2673734724521637,"131":-0.4052393436431885,"132":0.4136011302471161,"133":0.3556920289993286,"134":-0.5292784571647644,"135":-0.559768557548523,"136":-0.4311453402042389,"137":-0.463733047246933,"138":0.45446932315826416,"139":0.45288410782814026,"140":-0.0446656309068203,"141":-0.1267445981502533,"142":0.06973173469305038,"143":0.23995532095432281,"144":-0.10190702974796295,"145":0.7274431586265564,"146":0.5846782922744751,"147":-0.14314815402030945,"148":0.09536387771368027,"149":-0.08505507558584213,"150":0.2057008147239685,"151":-0.4411684274673462,"152":0.5791469812393188,"153":0.15449674427509308,"154":-0.6948174834251404,"155":-0.16659587621688843,"156":-0.6305692195892334,"157":-0.4736124575138092,"158":0.3560571074485779,"159":0.16959449648857117,"160":-0.14307938516139984,"161":0.028871770948171616,"162":0.22402852773666382,"163":0.379663348197937,"164":-0.13531680405139923,"165":0.4719364643096924,"166":0.588074803352356,"167":-0.06138303130865097,"168":0.2258528620004654,"169":0.027007384225726128,"170":0.2902454733848572,"171":-0.4222696125507355,"172":0.547443151473999,"173":0.1926916539669037,"174":-0.6405639052391052,"175":-0.24491457641124725,"176":-0.5052371025085449,"177":-0.41848066449165344,"178":0.2696794867515564,"179":0.2783159911632538,"180":-0.0881083607673645,"181":0.13656990230083466,"182":-0.20196767151355743,"183":-0.15699641406536102,"184":0.812710702419281,"185":-0.3283374011516571,"186":-0.31403541564941406,"187":-0.13942313194274902,"188":-0.060027435421943665,"189":-1.1708613634109497,"190":-0.2336435168981552,"191":0.28925415873527527,"192":-0.4309491515159607,"193":0.03384815528988838,"194":0.18217206001281738,"195":0.13590824604034424,"196":0.35713866353034973,"197":0.31239598989486694,"198":-0.28306692838668823,"199":-0.3139241337776184,"200":0.9077194333076477,"201":-0.6850734353065491,"202":1.3414595127105713,"203":0.7344701886177063,"204":-0.7816832065582275,"205":0.17983993887901306,"206":-0.02046404965221882,"207":0.20276321470737457,"208":-0.3065059781074524,"209":-0.27741825580596924,"210":-0.8093574643135071,"211":-0.24642111361026764,"212":-0.044740669429302216,"213":1.0142168998718262,"214":-0.05129286274313927,"215":0.22202543914318085,"216":-0.17527420818805695,"217":-0.4060860276222229,"218":0.464650422334671,"219":0.2345992922782898,"220":0.37177184224128723,"221":0.18707029521465302,"222":-0.23336772620677948,"223":0.32934901118278503,"224":-0.20855838060379028,"225":0.3000890612602234,"226":0.30886539816856384,"227":-0.3332161009311676,"228":0.3818981945514679,"229":0.06462660431861877,"230":0.48993226885795593,"231":-0.3268181085586548,"232":0.2758326530456543,"233":0.3560599088668823,"234":-0.3252318501472473,"235":-0.5167845487594604,"236":-0.2710641026496887,"237":-0.3352656066417694,"238":0.22954468429088593,"239":0.4554383456707001,"240":0.37250208854675293,"241":0.32378044724464417,"242":-0.08214270323514938,"243":0.3658241927623749,"244":-0.34293466806411743,"245":0.39714643359184265,"246":0.4670305848121643,"247":-0.45318564772605896,"248":0.12556017935276031,"249":0.2256784290075302,"250":0.33664917945861816,"251":-0.2745249271392822,"252":0.406228244304657,"253":0.32641172409057617,"254":-0.5113629102706909,"255":-0.4586736261844635,"256":-0.42479661107063293,"257":-0.22395549714565277,"258":0.23001380264759064,"259":0.42429760098457336,"260":0.45419204235076904,"261":0.015652529895305634,"262":-0.200462207198143,"263":0.23684313893318176,"264":-0.040452416986227036,"265":0.28890472650527954,"266":0.3527352213859558,"267":0.04006170108914375,"268":0.0883105918765068,"269":0.3725213408470154,"270":-0.09332703053951263,"271":-0.4019576609134674,"272":0.33846330642700195,"273":0.25527191162109375,"274":-0.41187888383865356,"275":-0.15945033729076385,"276":-0.3483876585960388,"277":-0.4090283215045929,"278":0.382352739572525,"279":0.3357328176498413,"280":0.36017853021621704,"281":0.263967365026474,"282":-0.18553929030895233,"283":0.3287961184978485,"284":-0.3125402629375458,"285":0.44385847449302673,"286":0.4555933177471161,"287":-0.4128205180168152,"288":0.3209382891654968,"289":0.24154582619667053,"290":0.32818803191185,"291":-0.32046884298324585,"292":0.33209139108657837,"293":0.3404980003833771,"294":-0.39615488052368164,"295":-0.5195898413658142,"296":-0.3200407922267914,"297":-0.1786067634820938,"298":0.3829541802406311,"299":0.36275553703308105,"300":1.012701153755188,"301":-0.5106315016746521,"302":0.793857216835022,"303":0.6871607899665833,"304":-0.18033535778522491,"305":0.6813346743583679,"306":1.1515165567398071,"307":0.250927597284317,"308":-0.006917846389114857,"309":0.45379284024238586,"310":-0.897087574005127,"311":-0.31777945160865784,"312":0.9079499840736389,"313":0.21549880504608154,"314":-0.6143174171447754,"315":-0.4765956699848175,"316":-0.3487568795681,"317":-0.21444618701934814,"318":0.6153765916824341,"319":1.119486927986145,"320":0.49691736698150635,"321":0.27881699800491333,"322":-0.127016082406044,"323":0.8413233160972595,"324":-0.028309544548392296,"325":0.24911664426326752,"326":0.41847383975982666,"327":-0.5513818264007568,"328":0.6176906824111938,"329":-0.4564056098461151,"330":0.6505993008613586,"331":-0.34164175391197205,"332":0.4427192807197571,"333":0.6634042859077454,"334":-0.4999140501022339,"335":-0.714777410030365,"336":-0.3668678402900696,"337":-0.13844318687915802,"338":0.6704932451248169,"339":1.0135736465454102,"340":0.4517621099948883,"341":0.46939462423324585,"342":-0.09712613373994827,"343":0.29879283905029297,"344":-0.048601239919662476,"345":0.1468789130449295,"346":0.3586980104446411,"347":-0.5937851071357727,"348":0.5844011902809143,"349":-0.6649025678634644,"350":0.6018171906471252,"351":-0.33149757981300354,"352":0.3780427575111389,"353":0.579556941986084,"354":-0.32555559277534485,"355":-0.41940271854400635,"356":-0.30943775177001953,"357":-0.1696976274251938,"358":0.36788037419319153,"359":0.7826806902885437,"360":-0.24371029436588287,"361":-0.7400178909301758,"362":0.5657521486282349,"363":-0.04726974293589592,"364":0.41847360134124756,"365":-0.2869780659675598,"366":-0.14023886620998383,"367":0.8345592021942139,"368":-0.886160671710968,"369":-0.25864294171333313,"370":-0.6602888107299805,"371":0.37638190388679504,"372":-0.3538644313812256,"373":-0.6889547109603882,"374":0.3280748128890991,"375":0.6931265592575073,"376":0.15744614601135254,"377":0.41578206419944763,"378":-0.10564780235290527,"379":-0.48549869656562805,"380":0.37617939710617065,"381":0.29700157046318054,"382":-0.4320821166038513,"383":0.20634829998016357,"384":0.19760474562644958,"385":0.3335643410682678,"386":0.4064708650112152,"387":-0.42650163173675537,"388":0.34307894110679626,"389":-0.44773736596107483,"390":0.3273913860321045,"391":-0.2887389063835144,"392":0.43443968892097473,"393":0.5372040867805481,"394":-0.400029718875885,"395":-0.34741657972335815,"396":-0.40231403708457947,"397":-0.5606182813644409,"398":0.32124996185302734,"399":0.37751778960227966}},"forgetBias":{"rows":20,"columns":1,"weights":{"0":0,"1":0,"2":0,"3":0,"4":0,"5":0,"6":0,"7":0,"8":0,"9":0,"10":0,"11":0,"12":0,"13":0,"14":0,"15":0,"16":0,"17":0,"18":0,"19":0}},"outputMatrix":{"rows":20,"columns":26,"weights":{"0":-0.7849373817443848,"1":0.3515874147415161,"2":-0.5751374959945679,"3":-0.48011866211891174,"4":-0.7796850204467773,"5":0.3023783266544342,"6":0.7102598547935486,"7":-0.6581591367721558,"8":-0.35617873072624207,"9":0.8593953847885132,"10":-0.4542982280254364,"11":0.20099151134490967,"12":-0.3624477982521057,"13":-0.6543441414833069,"14":0.331664115190506,"15":-0.3703443706035614,"16":0.4039277136325836,"17":-0.7817297577857971,"18":-0.7904055118560791,"19":0.4020911753177643,"20":0.49445199966430664,"21":-0.709315299987793,"22":0.216010183095932,"23":0.24418194591999054,"24":0.469317227602005,"25":-0.8865926861763,"26":-1.2669651508331299,"27":0.39457735419273376,"28":-0.47423112392425537,"29":-1.065390706062317,"30":-0.8018674254417419,"31":0.5229315757751465,"32":0.92049241065979,"33":-0.509930431842804,"34":-0.7379863858222961,"35":1.5405092239379883,"36":-0.37615546584129333,"37":0.6381217241287231,"38":0.059923216700553894,"39":0.3493332266807556,"40":0.5720576643943787,"41":-0.7102323174476624,"42":0.7072960138320923,"43":-1.3543610572814941,"44":-1.1770038604736328,"45":0.438078373670578,"46":0.6755403876304626,"47":-0.5978723168373108,"48":0.528520405292511,"49":0.5099018812179565,"50":0.2551126778125763,"51":-0.4567531645298004,"52":-0.9084705114364624,"53":0.0987778902053833,"54":-0.5173189043998718,"55":-0.5716229677200317,"56":-0.5200205445289612,"57":0.5017856955528259,"58":0.585358738899231,"59":-0.5641530752182007,"60":-0.3786202669143677,"61":0.893398106098175,"62":-0.43972551822662354,"63":0.9236288666725159,"64":0.05733241140842438,"65":-0.3276340365409851,"66":0.623605489730835,"67":-0.9234920740127563,"68":1.2564324140548706,"69":-0.8902016878128052,"70":-0.9937424063682556,"71":0.42346805334091187,"72":0.975900411605835,"73":-0.7475166916847229,"74":0.4597610533237457,"75":0.31288203597068787,"76":0.32017502188682556,"77":-0.4187525510787964,"78":0.11668436974287033,"79":-1.3571656942367554,"80":0.826478123664856,"81":0.6091718673706055,"82":0.12109023332595825,"83":-0.007137491833418608,"84":-0.7514641880989075,"85":0.38941842317581177,"86":0.8176532983779907,"87":-0.6863964200019836,"88":0.9686774611473083,"89":0.32003262639045715,"90":0.7791630029678345,"91":0.4636278748512268,"92":-0.2134133279323578,"93":-0.10708586871623993,"94":0.42991992831230164,"95":0.22097890079021454,"96":0.18790894746780396,"97":-0.22355203330516815,"98":0.2937910556793213,"99":0.28250640630722046,"100":0.3296072483062744,"101":-1.9586964845657349,"102":-0.9312337636947632,"103":0.0942593514919281,"104":-0.08434577286243439,"105":0.14395582675933838,"106":0.19846685230731964,"107":0.3656121492385864,"108":-0.05285670980811119,"109":-0.2867931127548218,"110":-0.15339072048664093,"111":0.09771381318569183,"112":0.07160322368144989,"113":0.1143505796790123,"114":0.06607348471879959,"115":-1.156578540802002,"116":-0.06298749148845673,"117":1.3685476779937744,"118":-0.3464558720588684,"119":0.7923425436019897,"120":-1.3218247890472412,"121":-0.18304729461669922,"122":0.5204197764396667,"123":-0.02461809478700161,"124":-1.0051599740982056,"125":0.5141672492027283,"126":-0.3554489314556122,"127":0.3515784442424774,"128":-0.20206253230571747,"129":0.7162618637084961,"130":-0.005668735131621361,"131":0.4140055477619171,"132":-0.9240454435348511,"133":-0.18769650161266327,"134":-0.3937918543815613,"135":0.1930743306875229,"136":-0.003804354928433895,"137":-0.7582387328147888,"138":-0.17549283802509308,"139":0.6641063094139099,"140":-0.6415629982948303,"141":-0.602360188961029,"142":-0.6007726192474365,"143":0.11246417462825775,"144":-0.060669347643852234,"145":0.47582268714904785,"146":-0.6196475028991699,"147":-0.3297366797924042,"148":-0.7105187773704529,"149":0.4871262013912201,"150":-0.3499544560909271,"151":-0.7208985686302185,"152":-0.13352978229522705,"153":0.5418762564659119,"154":0.5672120451927185,"155":-0.8730300664901733,"156":-1.284015417098999,"157":0.14965692162513733,"158":0.10879618674516678,"159":-0.20970498025417328,"160":0.9006143808364868,"161":0.36702731251716614,"162":-0.12609288096427917,"163":0.031092975288629532,"164":-0.058957938104867935,"165":0.9702036380767822,"166":-0.016990335658192635,"167":1.3642202615737915,"168":1.0432887077331543,"169":1.4000056982040405,"170":0.5670265555381775,"171":-0.691778838634491,"172":0.8003599047660828,"173":0.6619887948036194,"174":0.07781045138835907,"175":-0.68121337890625,"176":0.9705038070678711,"177":-0.046136125922203064,"178":1.0532734394073486,"179":0.2498161792755127,"180":-0.13036511838436127,"181":0.6178798675537109,"182":-0.2222132831811905,"183":1.3079904317855835,"184":-1.0948454141616821,"185":-0.30584895610809326,"186":-0.34956637024879456,"187":0.22842910885810852,"188":0.524979293346405,"189":-0.7227463722229004,"190":-0.38800010085105896,"191":0.6352769732475281,"192":-1.4339083433151245,"193":0.047664545476436615,"194":-0.47206127643585205,"195":-0.6677811145782471,"196":0.3128700852394104,"197":-0.10781609266996384,"198":0.3904280364513397,"199":-0.2777424454689026,"200":-0.2700486183166504,"201":0.1795569360256195,"202":0.13424189388751984,"203":-0.8341014981269836,"204":0.008392603136599064,"205":1.0985816717147827,"206":1.1284232139587402,"207":-1.0581364631652832,"208":-0.04981223866343498,"209":0.779570460319519,"210":-0.9084977507591248,"211":-0.1866694688796997,"212":-0.5457003712654114,"213":0.3278256058692932,"214":0.17166802287101746,"215":-0.8369941711425781,"216":-0.2630229592323303,"217":0.4076211154460907,"218":-0.8794716596603394,"219":-0.6381483674049377,"220":-0.5139516592025757,"221":-0.47889164090156555,"222":0.10500450432300568,"223":0.4442177414894104,"224":-0.389415442943573,"225":-0.39300158619880676,"226":-0.6773507595062256,"227":0.41931313276290894,"228":-0.5391759872436523,"229":-0.920014500617981,"230":-0.06680865585803986,"231":0.8019434809684753,"232":0.4313725531101227,"233":-1.5211706161499023,"234":0.6056833863258362,"235":-0.5179343819618225,"236":0.010825172998011112,"237":0.7986669540405273,"238":-1.1263830661773682,"239":-0.5320244431495667,"240":-0.44003531336784363,"241":-0.03412916883826256,"242":0.556067943572998,"243":-0.2123504877090454,"244":0.4294431805610657,"245":-0.35542112588882446,"246":-0.27155232429504395,"247":0.34158656001091003,"248":-0.152988463640213,"249":0.7263612747192383,"250":-1.2647699117660522,"251":-1.232850193977356,"252":0.2146565467119217,"253":0.626654863357544,"254":-0.6077908277511597,"255":0.12505552172660828,"256":-0.9893050789833069,"257":-0.8976009488105774,"258":-0.5193272233009338,"259":-0.7704002261161804,"260":-1.2657421827316284,"261":0.22710929811000824,"262":-0.8767427802085876,"263":-0.6864491701126099,"264":-0.8379781246185303,"265":0.48523610830307007,"266":0.48486292362213135,"267":-0.746040403842926,"268":-0.4573131799697876,"269":1.1344703435897827,"270":-0.615268349647522,"271":0.8300272226333618,"272":-0.15625908970832825,"273":-0.4356377124786377,"274":0.5865573287010193,"275":-0.6431333422660828,"276":0.6788525581359863,"277":-1.1212468147277832,"278":-1.1330949068069458,"279":0.4865889251232147,"280":0.7578198313713074,"281":-1.101454734802246,"282":0.006806307006627321,"283":-0.012345176190137863,"284":0.5739718079566956,"285":-1.1915059089660645,"286":-0.731437623500824,"287":-0.434285044670105,"288":0.1836272031068802,"289":0.08433590829372406,"290":-0.6681674122810364,"291":-0.14611725509166718,"292":-0.023221725597977638,"293":-0.036541569977998734,"294":-0.02757473662495613,"295":-0.5477421879768372,"296":0.15484687685966492,"297":-0.750197172164917,"298":-0.47090423107147217,"299":-0.03146498277783394,"300":-0.3453029692173004,"301":0.5826238989830017,"302":-1.496172308921814,"303":-0.7226473093032837,"304":-0.3621927797794342,"305":0.6442110538482666,"306":-0.6176403760910034,"307":-0.19170786440372467,"308":0.2641412913799286,"309":-0.243703231215477,"310":-0.12324561923742294,"311":-0.43225398659706116,"312":-1.9495620727539062,"313":-0.0176626555621624,"314":-0.052270736545324326,"315":-0.33908751606941223,"316":0.2075795829296112,"317":0.06566084921360016,"318":0.11447744816541672,"319":0.16374225914478302,"320":-0.2610730528831482,"321":1.4143123626708984,"322":-0.09146428853273392,"323":0.2753320336341858,"324":0.8392571806907654,"325":1.501101016998291,"326":-0.02976013533771038,"327":0.06041001155972481,"328":-0.12154383957386017,"329":-0.18877944350242615,"330":-0.3826030492782593,"331":-0.25127753615379333,"332":0.30204522609710693,"333":-0.05736054852604866,"334":0.924712598323822,"335":0.3479951322078705,"336":-0.10699138045310974,"337":0.5254707932472229,"338":0.24299991130828857,"339":0.32967957854270935,"340":-0.880248486995697,"341":-0.2232944667339325,"342":-1.537340521812439,"343":0.3853551745414734,"344":0.10366973280906677,"345":-1.1807020902633667,"346":-0.20681296288967133,"347":-0.08048733323812485,"348":-0.7264363765716553,"349":-0.41716310381889343,"350":-1.4907346963882446,"351":-0.8552678227424622,"352":0.20368589460849762,"353":-0.11628477275371552,"354":-0.09865423291921616,"355":-1.1541441679000854,"356":-1.1804392337799072,"357":0.9101197123527527,"358":0.05327349901199341,"359":-1.0118913650512695,"360":-0.0399148166179657,"361":0.21140062808990479,"362":0.5200318694114685,"363":-2.5583553314208984,"364":-0.9479049444198608,"365":-0.027506038546562195,"366":0.04867199435830116,"367":-0.5125823616981506,"368":0.18481417000293732,"369":0.377196729183197,"370":0.21601726114749908,"371":0.12289003282785416,"372":-0.44002097845077515,"373":0.87907475233078,"374":-0.09624025225639343,"375":0.9337642192840576,"376":0.4853023886680603,"377":0.46284744143486023,"378":0.3331690728664398,"379":-0.37316974997520447,"380":0.7215705513954163,"381":-0.14080014824867249,"382":-0.16907288134098053,"383":-0.018900558352470398,"384":0.6147509813308716,"385":0.024557702243328094,"386":0.642992377281189,"387":0.022030910477042198,"388":-0.00900314748287201,"389":0.5693259835243225,"390":-1.1821521520614624,"391":0.9000497460365295,"392":-0.5149269104003906,"393":-1.095577359199524,"394":-0.6121827363967896,"395":0.7459810972213745,"396":0.8148589730262756,"397":-0.5042992830276489,"398":-0.8507634997367859,"399":1.6922500133514404,"400":-0.5243075489997864,"401":0.6658660769462585,"402":0.2612813413143158,"403":0.03529264032840729,"404":0.8774387836456299,"405":-0.5715500712394714,"406":0.5992807745933533,"407":-1.1181691884994507,"408":-0.9886401891708374,"409":-0.12137191742658615,"410":0.7686192393302917,"411":-0.7332639098167419,"412":0.13948802649974823,"413":0.7793198823928833,"414":0.4768262207508087,"415":-0.7625612020492554,"416":-1.3980751037597656,"417":-0.013294009491801262,"418":0.6769753098487854,"419":-0.9256517291069031,"420":-0.6429036259651184,"421":-0.016350816935300827,"422":0.48714423179626465,"423":-0.1591569483280182,"424":-0.9579909443855286,"425":-0.45338335633277893,"426":0.27163973450660706,"427":-0.1216474398970604,"428":-0.4863886535167694,"429":0.08898278325796127,"430":-0.06489560753107071,"431":0.061707232147455215,"432":-1.0776605606079102,"433":-0.4817834198474884,"434":-0.0853370800614357,"435":0.014247437007725239,"436":-0.16381295025348663,"437":0.14657685160636902,"438":1.3280267715454102,"439":0.7192152738571167,"440":-0.016199257224798203,"441":0.7143820524215698,"442":0.05800657719373703,"443":0.6685303449630737,"444":-0.6277894973754883,"445":-0.2294972538948059,"446":-0.580920398235321,"447":-0.38265731930732727,"448":0.9360837340354919,"449":0.031610336154699326,"450":-0.3647168278694153,"451":0.5232222676277161,"452":-0.330596387386322,"453":-0.7090588808059692,"454":-0.7697015404701233,"455":-0.7312729954719543,"456":-0.06774785369634628,"457":0.8225193619728088,"458":-1.404434323310852,"459":-0.35628822445869446,"460":-0.1045750081539154,"461":0.7085859775543213,"462":-0.5378789305686951,"463":-0.23378925025463104,"464":-0.5008063912391663,"465":1.075232744216919,"466":0.6481837630271912,"467":-0.23043103516101837,"468":-0.10536809265613556,"469":-2.2320261001586914,"470":0.5711777806282043,"471":0.49637579917907715,"472":0.08512330055236816,"473":-0.38082215189933777,"474":-0.43173128366470337,"475":0.3124011158943176,"476":0.726492702960968,"477":-1.2148847579956055,"478":0.8747594356536865,"479":0.01873818226158619,"480":0.703437328338623,"481":-0.012863469310104847,"482":-0.4084709882736206,"483":0.46928274631500244,"484":-0.22836187481880188,"485":-0.19890639185905457,"486":-0.32417529821395874,"487":0.06532030552625656,"488":-0.24102288484573364,"489":0.08514534682035446,"490":0.14913113415241241,"491":-2.3149662017822266,"492":-1.0153943300247192,"493":0.052549343556165695,"494":0.5302442908287048,"495":-0.18526290357112885,"496":0.2865701913833618,"497":-0.14884643256664276,"498":-0.8595782518386841,"499":0.14904053509235382,"500":0.5355896353721619,"501":-0.1475597321987152,"502":-0.5770033001899719,"503":-0.8324862122535706,"504":0.42497849464416504,"505":-0.308199018239975,"506":-1.5049278736114502,"507":-1.1590886116027832,"508":-0.18871115148067474,"509":0.5205643773078918,"510":-1.044912576675415,"511":-0.32855433225631714,"512":-0.12706035375595093,"513":1.304836392402649,"514":-0.41164323687553406,"515":0.12147553265094757,"516":-0.35096707940101624,"517":0.29251828789711,"518":0.11782397329807281,"519":0.8450478911399841}},"outputHidden":{"rows":20,"columns":20,"weights":{"0":-0.23235763609409332,"1":-0.583720862865448,"2":-0.025327300652861595,"3":0.6366543173789978,"4":-0.6919875741004944,"5":0.8593111634254456,"6":0.3464430868625641,"7":0.5748164057731628,"8":-0.5004099607467651,"9":2.015768527984619,"10":-0.026891348883509636,"11":-0.36137884855270386,"12":0.5727143883705139,"13":-0.42668604850769043,"14":-0.6373812556266785,"15":0.570307195186615,"16":-0.3042868971824646,"17":-1.0180233716964722,"18":0.60259610414505,"19":1.0138678550720215,"20":0.5448411107063293,"21":-0.10744187235832214,"22":0.03477165102958679,"23":0.5449224710464478,"24":-0.5025479197502136,"25":0.41479453444480896,"26":0.4467540979385376,"27":0.05236335098743439,"28":-0.047887932509183884,"29":-0.03581961616873741,"30":-0.11707285791635513,"31":-0.40704110264778137,"32":0.40587303042411804,"33":0.2554365396499634,"34":-0.38684549927711487,"35":0.23581959307193756,"36":-0.345181405544281,"37":-0.24076466262340546,"38":0.8074126839637756,"39":0.39774757623672485,"40":0.6204041838645935,"41":0.3224857747554779,"42":-0.620246410369873,"43":0.45590686798095703,"44":-0.10120187699794769,"45":0.6410079002380371,"46":0.48420652747154236,"47":0.07927383482456207,"48":-0.253740131855011,"49":-0.583636999130249,"50":-0.04559975862503052,"51":-0.33942222595214844,"52":0.40133851766586304,"53":0.44936057925224304,"54":-0.5386079549789429,"55":0.07779364287853241,"56":-0.43553251028060913,"57":-0.5225790739059448,"58":0.42741554975509644,"59":0.01246162410825491,"60":0.11735470592975616,"61":-1.0469907522201538,"62":0.5698856115341187,"63":0.6974294781684875,"64":0.6872818470001221,"65":0.12422628700733185,"66":-0.17141081392765045,"67":0.5245370864868164,"68":-0.7590959072113037,"69":-0.5207487344741821,"70":-1.1454885005950928,"71":-0.0553358756005764,"72":-0.13056468963623047,"73":-0.27177464962005615,"74":-0.0751643180847168,"75":0.5018066763877869,"76":0.00015414621157106012,"77":-0.3322147727012634,"78":0.6023364067077637,"79":0.10289616882801056,"80":-0.4708910882472992,"81":-0.06785143911838531,"82":-0.6943641304969788,"83":-0.6159429550170898,"84":-0.12695008516311646,"85":-0.09682979434728622,"86":-0.28461575508117676,"87":0.7993422746658325,"88":-0.804199755191803,"89":1.2123405933380127,"90":-1.0038808584213257,"91":0.03623851388692856,"92":-0.17034734785556793,"93":-0.8189387321472168,"94":0.1880643516778946,"95":0.43545565009117126,"96":0.0809660255908966,"97":-0.19195273518562317,"98":-0.5155677795410156,"99":-0.7578762173652649,"100":0.22066211700439453,"101":0.6759184002876282,"102":-0.23251132667064667,"103":0.13031184673309326,"104":0.08997756987810135,"105":0.19580480456352234,"106":0.37451642751693726,"107":-0.545134425163269,"108":0.5463076233863831,"109":-0.8517255187034607,"110":0.8416627645492554,"111":-0.23428641259670258,"112":0.3028492033481598,"113":0.5663585066795349,"114":-0.1733912080526352,"115":-0.7520295977592468,"116":-0.25554805994033813,"117":0.27539151906967163,"118":-0.12516513466835022,"119":0.38294127583503723,"120":0.3348722457885742,"121":0.44785076379776,"122":-0.17870844900608063,"123":0.4192998707294464,"124":-0.3895100951194763,"125":-0.1637914925813675,"126":0.3144753575325012,"127":-0.48296165466308594,"128":0.7218151092529297,"129":-0.14935123920440674,"130":0.5843519568443298,"131":0.14636316895484924,"132":0.1798841804265976,"133":0.31501051783561707,"134":-0.02380647137761116,"135":-0.45779624581336975,"136":-0.020079776644706726,"137":0.23488332331180573,"138":0.464265912771225,"139":0.5501391887664795,"140":0.07841165363788605,"141":0.40995174646377563,"142":-0.09924927353858948,"143":0.6060905456542969,"144":0.31682664155960083,"145":0.009565148502588272,"146":0.1449868232011795,"147":-0.7216692566871643,"148":0.7033820152282715,"149":-0.8542432188987732,"150":0.7700316309928894,"151":-0.49011361598968506,"152":0.21740292012691498,"153":0.738415002822876,"154":-0.16829822957515717,"155":-0.49024099111557007,"156":-0.2532294988632202,"157":0.3874829411506653,"158":0.5742680430412292,"159":0.2615583539009094,"160":-0.355005145072937,"161":0.4642985761165619,"162":-0.6861611008644104,"163":0.17706841230392456,"164":-0.009951377287507057,"165":0.17415252327919006,"166":0.2014957070350647,"167":-0.6337741613388062,"168":0.524397075176239,"169":-0.7378154993057251,"170":0.6043217778205872,"171":-0.29690349102020264,"172":0.3685442805290222,"173":0.47398272156715393,"174":-0.21248656511306763,"175":-0.4756833016872406,"176":-0.3029460310935974,"177":0.10013838857412338,"178":0.13142699003219604,"179":-0.11140026897192001,"180":-1.7348787784576416,"181":-0.5538313984870911,"182":-0.33375784754753113,"183":-0.6304526925086975,"184":0.7521579265594482,"185":0.6857971549034119,"186":-0.35393044352531433,"187":1.2857587337493896,"188":-1.3472994565963745,"189":0.29246509075164795,"190":-1.0957605838775635,"191":-0.6926522254943848,"192":0.022241875529289246,"193":-1.8268218040466309,"194":-0.12081398069858551,"195":1.3938623666763306,"196":-0.3547392189502716,"197":-0.8130009174346924,"198":-0.7135947942733765,"199":-1.5585367679595947,"200":0.1361350268125534,"201":-0.24487383663654327,"202":0.2758570611476898,"203":0.6860966086387634,"204":-0.30299970507621765,"205":0.6135533452033997,"206":0.4963705241680145,"207":0.26100340485572815,"208":-0.40760600566864014,"209":-0.5045593976974487,"210":0.15059028565883636,"211":-0.4881334602832794,"212":0.5128603577613831,"213":-0.40970247983932495,"214":-0.47790491580963135,"215":0.7308101654052734,"216":-0.5165414214134216,"217":-0.6222543716430664,"218":0.6173450946807861,"219":-0.33412328362464905,"220":0.3164710998535156,"221":0.8638551235198975,"222":-0.298699289560318,"223":0.5169438719749451,"224":-0.04838700219988823,"225":-0.185438871383667,"226":0.28583353757858276,"227":-0.9277846813201904,"228":0.9372173547744751,"229":-1.194367527961731,"230":0.8111270666122437,"231":0.07942043244838715,"232":0.168227881193161,"233":0.6628615260124207,"234":0.006588471122086048,"235":-0.810404360294342,"236":0.06911548972129822,"237":0.3781558573246002,"238":0.44149407744407654,"239":0.6347400546073914,"240":0.36759158968925476,"241":0.5462225675582886,"242":-0.21340633928775787,"243":0.3828485608100891,"244":-0.3496091365814209,"245":0.21784237027168274,"246":0.23461905121803284,"247":-0.44526761770248413,"248":0.3425242304801941,"249":0.06556838005781174,"250":0.6413429379463196,"251":-0.07284477353096008,"252":0.17117632925510406,"253":0.2667996883392334,"254":-0.13861533999443054,"255":-0.4398944675922394,"256":-0.34046199917793274,"257":0.12907803058624268,"258":0.3702459931373596,"259":0.544260561466217,"260":0.19469329714775085,"261":-0.33707043528556824,"262":0.16117651760578156,"263":0.41526103019714355,"264":-0.05599529296159744,"265":0.45094019174575806,"266":0.41461560130119324,"267":-0.19970977306365967,"268":0.17750641703605652,"269":-0.14258672297000885,"270":0.12617149949073792,"271":-0.32330816984176636,"272":0.4563935399055481,"273":0.21891406178474426,"274":-0.5160582065582275,"275":0.162711039185524,"276":-0.30117249488830566,"277":-0.10003548860549927,"278":0.5836147665977478,"279":0.34701281785964966,"280":0.5621449947357178,"281":0.527248203754425,"282":-0.20681670308113098,"283":0.34457266330718994,"284":-0.16461335122585297,"285":0.20650042593479156,"286":0.34068918228149414,"287":-0.4288955330848694,"288":0.38478052616119385,"289":-0.32883667945861816,"290":0.6906490921974182,"291":-0.18778041005134583,"292":0.40543198585510254,"293":0.4637346863746643,"294":-0.3214561641216278,"295":-0.5790475606918335,"296":-0.34398531913757324,"297":-0.09128933399915695,"298":0.3847205638885498,"299":0.36297017335891724,"300":0.3711952269077301,"301":0.17031322419643402,"302":0.07910745590925217,"303":-0.34170955419540405,"304":-0.48462045192718506,"305":0.7662118673324585,"306":0.6797492504119873,"307":0.6037834286689758,"308":-0.49436864256858826,"309":0.2268068641424179,"310":-0.1814962923526764,"311":-0.013721347786486149,"312":0.5139273405075073,"313":-0.052675407379865646,"314":-0.3438553512096405,"315":0.0370282344520092,"316":0.13312077522277832,"317":-0.6489864587783813,"318":-0.1638461798429489,"319":0.06441652029752731,"320":0.13753794133663177,"321":1.2704671621322632,"322":-0.7415919899940491,"323":0.7452994585037231,"324":0.3233718276023865,"325":-1.2072304487228394,"326":0.31287193298339844,"327":-1.4854326248168945,"328":1.7783838510513306,"329":0.1521543264389038,"330":1.2910478115081787,"331":0.5396601557731628,"332":-0.22333580255508423,"333":0.6573920249938965,"334":0.39093366265296936,"335":-1.6221965551376343,"336":0.10146227478981018,"337":1.1776964664459229,"338":1.0117806196212769,"339":1.0980757474899292,"340":0.8370671272277832,"341":0.9850592017173767,"342":-0.940817654132843,"343":-0.7910666465759277,"344":-0.9746398329734802,"345":0.12898452579975128,"346":-0.29559874534606934,"347":-1.0702613592147827,"348":0.717919647693634,"349":0.6540165543556213,"350":1.0820232629776,"351":-0.6907488107681274,"352":-0.2331271767616272,"353":0.7902765274047852,"354":0.30820441246032715,"355":-0.8865124583244324,"356":0.19811585545539856,"357":-0.7110879421234131,"358":-0.6991541981697083,"359":0.7866438031196594,"360":0.08473699539899826,"361":-0.23222461342811584,"362":0.2764495313167572,"363":0.08430524915456772,"364":1.0042821168899536,"365":-0.020695669576525688,"366":-0.18338696658611298,"367":0.2385900914669037,"368":-0.3979169726371765,"369":-0.9678483009338379,"370":-0.16990579664707184,"371":0.030909540131688118,"372":-0.2148345708847046,"373":-0.160529226064682,"374":0.1392316371202469,"375":0.06603175401687622,"376":0.12465722858905792,"377":0.08279687911272049,"378":0.024270186200737953,"379":-0.42581111192703247,"380":0.5894191861152649,"381":1.144234538078308,"382":-1.3699078559875488,"383":-0.03549141064286232,"384":0.07411403208971024,"385":0.1142711341381073,"386":0.015199006535112858,"387":-0.9212400913238525,"388":0.823549747467041,"389":-0.7209450006484985,"390":1.0605612993240356,"391":-1.010187029838562,"392":0.01841767132282257,"393":0.9683737754821777,"394":0.08482913672924042,"395":-0.9101572036743164,"396":-0.45440909266471863,"397":-0.0658963993191719,"398":-0.09010365605354309,"399":0.3376733660697937}},"outputBias":{"rows":20,"columns":1,"weights":{"0":-0.5522153973579407,"1":-0.6180061101913452,"2":-0.8745237588882446,"3":-0.4567720890045166,"4":-0.24722978472709656,"5":-0.381705105304718,"6":-0.651086688041687,"7":-0.2459528148174286,"8":-0.8939000964164734,"9":-0.23210786283016205,"10":1.0630491971969604,"11":-0.3381996154785156,"12":-0.23962827026844025,"13":-0.7058113217353821,"14":-0.31922855973243713,"15":1.0546348094940186,"16":0.3227836489677429,"17":0.8998716473579407,"18":0.2726134657859802,"19":-0.6769092679023743}},"cellActivationMatrix":{"rows":20,"columns":26,"weights":{"0":0.4575740694999695,"1":-0.9841756224632263,"2":0.10507933795452118,"3":0.18200990557670593,"4":-0.3410194516181946,"5":-0.1394575983285904,"6":-0.2872731685638428,"7":1.0494898557662964,"8":0.13527338206768036,"9":-0.05104982852935791,"10":0.495034396648407,"11":-0.058496732264757156,"12":-0.24712909758090973,"13":-0.25322121381759644,"14":-0.2753297686576843,"15":1.1843688488006592,"16":-1.923433780670166,"17":-0.5660417079925537,"18":-0.2455156445503235,"19":0.6327804327011108,"20":-0.8125669956207275,"21":0.20809179544448853,"22":-0.7509282231330872,"23":-0.9521505236625671,"24":-0.7054407000541687,"25":-0.2861827611923218,"26":0.8007470369338989,"27":-0.12368299067020416,"28":0.2557571530342102,"29":0.4858724772930145,"30":0.1588815599679947,"31":-0.22955293953418732,"32":-0.2723962068557739,"33":0.43969255685806274,"34":0.3259434103965759,"35":-0.8155806064605713,"36":0.4000115394592285,"37":-0.42481380701065063,"38":-0.36016926169395447,"39":-0.9559768438339233,"40":-0.046084269881248474,"41":0.19227701425552368,"42":-0.41880008578300476,"43":1.1484781503677368,"44":1.1321794986724854,"45":-0.15033592283725739,"46":-0.2387511134147644,"47":0.5567349791526794,"48":-0.22918936610221863,"49":-0.19879908859729767,"50":-0.19685909152030945,"51":0.66622394323349,"52":-1.2493810653686523,"53":0.35106927156448364,"54":0.06534934043884277,"55":-0.06931731104850769,"56":0.05733492225408554,"57":0.4371049106121063,"58":0.05253678560256958,"59":-0.537880003452301,"60":-0.31315359473228455,"61":0.4611479341983795,"62":-0.4705366790294647,"63":-0.001811803551390767,"64":0.552620530128479,"65":1.3853291273117065,"66":0.07095259428024292,"67":-0.2722966969013214,"68":0.5314387679100037,"69":-0.47591403126716614,"70":-0.8190340399742126,"71":0.008570920675992966,"72":0.006268613506108522,"73":-0.25321996212005615,"74":1.0042141675949097,"75":0.5795596241950989,"76":0.2171710729598999,"77":-0.00862108264118433,"78":-0.20721596479415894,"79":-0.517551839351654,"80":0.732302725315094,"81":0.048678476363420486,"82":0.4489285945892334,"83":0.6529581546783447,"84":-0.027783790603280067,"85":0.4215431809425354,"86":-0.04910236969590187,"87":0.1675276905298233,"88":0.43633833527565,"89":0.4996888041496277,"90":0.6417484879493713,"91":0.6670286655426025,"92":0.5823203325271606,"93":-0.8067671656608582,"94":0.5625224113464355,"95":0.392712265253067,"96":0.34717682003974915,"97":-0.3961597979068756,"98":0.6747334599494934,"99":0.47519248723983765,"100":0.8629076480865479,"101":-0.36625245213508606,"102":-0.4640299081802368,"103":0.47634249925613403,"104":0.25630995631217957,"105":-0.6897211074829102,"106":1.8284720182418823,"107":0.5022441148757935,"108":0.18375302851200104,"109":-0.5380920767784119,"110":-0.6283563375473022,"111":1.4075446128845215,"112":0.5312274098396301,"113":-0.5720207095146179,"114":1.4549813270568848,"115":-0.08727356046438217,"116":0.217477947473526,"117":0.7241430282592773,"118":-0.24300464987754822,"119":0.2384214997291565,"120":0.30563244223594666,"121":0.23222117125988007,"122":1.5771970748901367,"123":-0.12450074404478073,"124":-0.1377137303352356,"125":1.7178040742874146,"126":0.02570548839867115,"127":-0.540145218372345,"128":-1.4866336584091187,"129":1.9034535884857178,"130":-0.23506736755371094,"131":0.9186724424362183,"132":-0.5979922413825989,"133":-0.21771177649497986,"134":-0.49185577034950256,"135":-0.3503686487674713,"136":0.5348858833312988,"137":-0.9516679048538208,"138":-0.35757747292518616,"139":0.45006540417671204,"140":-1.101780652999878,"141":-0.4076894223690033,"142":-0.4116917550563812,"143":-0.21210932731628418,"144":-0.46779993176460266,"145":0.43706589937210083,"146":0.4798718988895416,"147":-0.45502790808677673,"148":-0.4629625082015991,"149":0.6759355664253235,"150":-0.5008525848388672,"151":-0.3943081796169281,"152":-0.35512903332710266,"153":1.1537730693817139,"154":1.0964213609695435,"155":0.11800317466259003,"156":0.08062220364809036,"157":0.9398348331451416,"158":-0.7028262615203857,"159":-0.09369595348834991,"160":-0.41831550002098083,"161":0.12268716096878052,"162":0.5434655547142029,"163":-0.5003216862678528,"164":-0.11773707717657089,"165":0.5011150240898132,"166":-0.9980887770652771,"167":0.06923869252204895,"168":-0.3668881952762604,"169":-0.5118873119354248,"170":-0.10687151551246643,"171":0.08839838206768036,"172":1.1443227529525757,"173":-0.529139518737793,"174":-0.4609021842479706,"175":0.618316113948822,"176":-0.10954312235116959,"177":-0.8906278610229492,"178":-0.2709342837333679,"179":0.8523545861244202,"180":1.0869126319885254,"181":-0.23090910911560059,"182":-0.298907607793808,"183":1.1935709714889526,"184":-0.3185131251811981,"185":-0.5804816484451294,"186":0.10661502927541733,"187":0.10106044262647629,"188":0.6676336526870728,"189":-0.40623295307159424,"190":-0.5843287110328674,"191":0.9249109625816345,"192":-0.9876039624214172,"193":0.1916215568780899,"194":-0.08365970104932785,"195":0.1739264875650406,"196":0.3180125057697296,"197":-0.018896132707595825,"198":0.3889710009098053,"199":-0.16402305662631989,"200":-0.3509846329689026,"201":0.003044217126443982,"202":0.13324519991874695,"203":-0.42545515298843384,"204":0.0670216903090477,"205":1.148681640625,"206":0.8969600796699524,"207":-0.09801676869392395,"208":0.1305810958147049,"209":-0.7589183449745178,"210":0.952492892742157,"211":0.4219188988208771,"212":0.1857721358537674,"213":-0.17034554481506348,"214":-0.4209279417991638,"215":0.7517915368080139,"216":0.2033170908689499,"217":-0.8619762063026428,"218":0.8122828602790833,"219":-0.26417678594589233,"220":0.14373666048049927,"221":-0.12686844170093536,"222":-0.10620077699422836,"223":0.15895278751850128,"224":-0.5427241325378418,"225":0.17002737522125244,"226":0.8691766858100891,"227":-0.10802017152309418,"228":-0.19159510731697083,"229":0.9900521636009216,"230":0.10190768539905548,"231":-0.5907326340675354,"232":-0.752816915512085,"233":0.361713707447052,"234":-0.5235621929168701,"235":1.1125661134719849,"236":-0.48313117027282715,"237":-0.8450096249580383,"238":-0.16962262988090515,"239":0.61660236120224,"240":0.861503541469574,"241":-0.5842519402503967,"242":-0.9894223809242249,"243":0.689716100692749,"244":-0.8634587526321411,"245":-0.28241968154907227,"246":-0.4117039442062378,"247":-0.7022774815559387,"248":0.2548278868198395,"249":0.06830829381942749,"250":-0.1578196883201599,"251":-0.4126136302947998,"252":-0.7049685120582581,"253":0.41997361183166504,"254":-0.26648762822151184,"255":-0.40834563970565796,"256":0.3009420931339264,"257":1.2488552331924438,"258":0.6438619494438171,"259":-1.0259243249893188,"260":0.11260514706373215,"261":-0.1723906695842743,"262":0.5876677632331848,"263":0.15479163825511932,"264":-0.0026390377897769213,"265":0.250233918428421,"266":-0.33484822511672974,"267":0.07299818098545074,"268":0.05659082904458046,"269":-0.5736746191978455,"270":0.39974460005760193,"271":-0.5067810416221619,"272":-0.16967818140983582,"273":0.5339986085891724,"274":-0.3730468451976776,"275":0.39096805453300476,"276":-0.3100014626979828,"277":0.21059677004814148,"278":0.3924790620803833,"279":-0.08325111865997314,"280":-0.5678220987319946,"281":0.49149879813194275,"282":0.132560595870018,"283":-0.49271607398986816,"284":-0.5479766726493835,"285":0.289339154958725,"286":-0.45739173889160156,"287":0.11028937250375748,"288":0.4015956521034241,"289":-0.35732564330101013,"290":0.6770638227462769,"291":0.20698182284832,"292":0.07810270041227341,"293":0.22718437016010284,"294":-0.12854191660881042,"295":0.24707254767417908,"296":0.7371031045913696,"297":0.20528849959373474,"298":0.5508279800415039,"299":1.062263011932373,"300":0.22075089812278748,"301":-0.4236276149749756,"302":-0.2471187263727188,"303":0.7074215412139893,"304":0.8387265205383301,"305":-0.744620144367218,"306":0.2745588421821594,"307":0.9090390801429749,"308":0.4021551012992859,"309":0.25631183385849,"310":-0.3864038586616516,"311":-0.003098155139014125,"312":0.4314669966697693,"313":0.3971400856971741,"314":-0.517612636089325,"315":0.2042107880115509,"316":-0.6326430439949036,"317":0.03006809949874878,"318":-0.0933874249458313,"319":-1.8798635005950928,"320":0.29284676909446716,"321":-0.04670354351401329,"322":-0.8082690238952637,"323":-0.005137039814144373,"324":-0.61869877576828,"325":-0.5509375333786011,"326":-0.1944471150636673,"327":0.280178964138031,"328":1.0607355833053589,"329":-0.8203603029251099,"330":-1.0389697551727295,"331":0.7936108708381653,"332":-0.3111257255077362,"333":-1.0044851303100586,"334":-0.2853265404701233,"335":0.125342458486557,"336":0.8075332641601562,"337":-1.0395636558532715,"338":-0.26782694458961487,"339":-1.8948551416397095,"340":0.6660780310630798,"341":1.022870659828186,"342":0.06288793683052063,