{"type":"LSTM","options":{"inputSize":13,"inputRange":13,"hiddenLayers":[20],"outputSize":13,"decayRate":0.999,"smoothEps":1e-8,"regc":0.000001,"clipval":5,"maxPredictionLength":100,"dataFormatter":{"values":["0+0=0","0+1=1","0+2=2","0+3=3","0+4=4","0+5=5","1+0=1","1+1=2","1+2=3","1+3=4","1+4=5","1+5=6","2+0=2","2+1=3","2+2=4","2+3=5","2+4=6","2+5=7","3+0=3","3+1=4","3+2=5","3+3=6","3+4=7","3+5=8","4+0=4","4+1=5","4+2=6","4+3=7","4+4=8","4+5=9","5+0=5","5+1=6","5+2=7","5+3=8","5+4=9","5+5=10"],"indexTable":{"0":0,"1":3,"2":4,"3":5,"4":6,"5":7,"6":8,"7":9,"8":10,"9":11,"+":1,"=":2,"unrecognized":12},"characterTable":{"0":"0","1":"+","2":"=","3":"1","4":"2","5":"3","6":"4","7":"5","8":"6","9":"7","10":"8","11":"9","12":null},"characters":["0","+","=","1","2","3","4","5","6","7","8","9","unrecognized"],"specialIndexes":[12]}},"input":{"rows":14,"columns":13,"weights":{"0":0.35097992420196533,"1":-0.03160983324050903,"2":0.5824998617172241,"3":0.267162948846817,"4":-0.35422930121421814,"5":0.6373232007026672,"6":0.20800378918647766,"7":0.6597421169281006,"8":1.1592071056365967,"9":2.440966844558716,"10":-0.11355769634246826,"11":-0.9994561076164246,"12":0.26607343554496765,"13":0.36535200476646423,"14":-1.321546196937561,"15":1.2581632137298584,"16":-0.030894245952367783,"17":1.061006784439087,"18":-3.4070358276367188,"19":0.861646831035614,"20":-0.3432580828666687,"21":-0.3418283462524414,"22":-2.4985880851745605,"23":-0.4671807587146759,"24":2.314145565032959,"25":-1.487226128578186,"26":0.5695148706436157,"27":0.024945441633462906,"28":0.12379974126815796,"29":-0.3734501898288727,"30":-0.0007465914823114872,"31":-0.1782052367925644,"32":-0.8821076154708862,"33":-1.6755516529083252,"34":0.3282235860824585,"35":0.6798380613327026,"36":-0.728676974773407,"37":-0.19755807518959045,"38":-0.8218812346458435,"39":0.2314079999923706,"40":0.09828104823827744,"41":0.11832105368375778,"42":0.18585561215877533,"43":0.3516692817211151,"44":0.11821121722459793,"45":0.440081924200058,"46":0.24772943556308746,"47":0.540725827217102,"48":0.034720368683338165,"49":1.1100435256958008,"50":-0.022781843319535255,"51":0.3148803114891052,"52":0.22630161046981812,"53":-0.6463326811790466,"54":1.4528625011444092,"55":0.07922613620758057,"56":1.7870166301727295,"57":-0.9552132487297058,"58":2.379999876022339,"59":0.1445780247449875,"60":0.748909592628479,"61":-0.7359220385551453,"62":-0.3739822506904602,"63":3.4672679901123047,"64":-0.5671886801719666,"65":-2.3200793266296387,"66":0.5965224504470825,"67":-1.1126149892807007,"68":0.4710265100002289,"69":-0.3821815848350525,"70":-0.8455458879470825,"71":0.3778323531150818,"72":2.4973978996276855,"73":0.48621565103530884,"74":-0.1326495110988617,"75":0.17375127971172333,"76":1.207436203956604,"77":-0.507692277431488,"78":-2.160013437271118,"79":-0.19416525959968567,"80":1.0893042087554932,"81":0.8307705521583557,"82":0.014820266515016556,"83":0.8930968642234802,"84":-0.5931791067123413,"85":0.8799114227294922,"86":-1.7612566947937012,"87":-1.910293459892273,"88":-0.4407835304737091,"89":0.3801092505455017,"90":-0.8110274076461792,"91":-0.9585409760475159,"92":0.42830488085746765,"93":0.35429349541664124,"94":-0.2725878059864044,"95":-0.26864272356033325,"96":0.713776171207428,"97":-1.335030436515808,"98":0.8718685507774353,"99":-0.1158740371465683,"100":-3.1341195106506348,"101":0.3600254952907562,"102":-0.8632320165634155,"103":0.6823982000350952,"104":-0.7558625936508179,"105":0.7892038822174072,"106":0.7532589435577393,"107":0.7179706692695618,"108":1.047385573387146,"109":-0.481912225484848,"110":0.6828545331954956,"111":0.5214395523071289,"112":-1.799744725227356,"113":-1.0204278230667114,"114":1.7182128429412842,"115":0.40744972229003906,"116":0.5011970400810242,"117":-1.7808091640472412,"118":-2.1020591259002686,"119":1.46635901927948,"120":1.2066338062286377,"121":1.9443323612213135,"122":-0.4880485534667969,"123":-3.8552563190460205,"124":-0.02890872396528721,"125":-2.010145664215088,"126":-2.7824490070343018,"127":1.7643442153930664,"128":0.5975828766822815,"129":0.6691082715988159,"130":-2.6247215270996094,"131":-2.0184874534606934,"132":-1.35337233543396,"133":1.6192628145217896,"134":0.07434280216693878,"135":0.09821857511997223,"136":-2.5650439262390137,"137":2.140472173690796,"138":-2.3878915309906006,"139":-1.960900068283081,"140":1.3845129013061523,"141":0.6050320863723755,"142":2.684054374694824,"143":-7.558718681335449,"144":-4.620985507965088,"145":-3.2744767665863037,"146":6.551403522491455,"147":-2.5271360874176025,"148":-2.5831289291381836,"149":0.04046570509672165,"150":-0.4781854450702667,"151":-5.769999027252197,"152":-1.73371160030365,"153":1.2708414793014526,"154":-0.2959781885147095,"155":1.2914700508117676,"156":-2.18744158744812,"157":-7.112375259399414,"158":0.7784861922264099,"159":3.551992654800415,"160":-1.9289456605911255,"161":1.475687026977539,"162":-3.6482012271881104,"163":-0.9461641907691956,"164":-1.497747540473938,"165":-1.3867870569229126,"166":3.136880874633789,"167":0.8942385911941528,"168":2.3784124851226807,"169":-0.0410192534327507,"170":-0.008128038607537746,"171":-0.07681534439325333,"172":0.0751514732837677,"173":-0.053947653621435165,"174":0.0034690990578383207,"175":0.05240859463810921,"176":-0.03630398213863373,"177":-0.07776744663715363,"178":0.03129824250936508,"179":-0.024590127170085907,"180":0.03589997440576553,"181":-0.025736935436725616}},"hiddenLayers":[{"inputMatrix":{"rows":20,"columns":13,"weights":{"0":-0.9582691192626953,"1":0.7183741331100464,"2":-0.12538236379623413,"3":-0.15756148099899292,"4":0.3625028133392334,"5":0.8573721647262573,"6":0.6880142688751221,"7":1.4208792448043823,"8":0.24202363193035126,"9":1.0235369205474854,"10":0.7764683961868286,"11":-1.0786633491516113,"12":2.9313061237335205,"13":-0.27381542325019836,"14":-0.38677892088890076,"15":0.5189999341964722,"16":-0.5645357370376587,"17":1.1281505823135376,"18":-0.6450065970420837,"19":-1.5130552053451538,"20":-2.5899696350097656,"21":-0.7757158875465393,"22":-0.43763643503189087,"23":0.673958957195282,"24":-1.975793480873108,"25":0.23047997057437897,"26":-1.2131515741348267,"27":1.0602281093597412,"28":-0.2696537971496582,"29":0.0734994038939476,"30":0.07958010584115982,"31":1.2959473133087158,"32":-0.5636144876480103,"33":0.20215362310409546,"34":-0.8015996813774109,"35":-0.8565824627876282,"36":1.2950406074523926,"37":-0.13697198033332825,"38":0.9910367727279663,"39":-0.5766746997833252,"40":0.2966361939907074,"41":0.21494369208812714,"42":-0.15339906513690948,"43":0.6476624011993408,"44":-0.5293154716491699,"45":1.2811442613601685,"46":1.1541515588760376,"47":0.6231598258018494,"48":0.09153670072555542,"49":0.7913535237312317,"50":1.1372414827346802,"51":-0.16162674129009247,"52":-0.3372577726840973,"53":-0.0009056026465259492,"54":-0.28221595287323,"55":-0.43145400285720825,"56":-0.40994158387184143,"57":-0.5495786666870117,"58":-1.2503678798675537,"59":-0.4642969071865082,"60":-1.6565158367156982,"61":-1.4817454814910889,"62":0.7111371755599976,"63":-0.042599376291036606,"64":-0.35471460223197937,"65":-0.76731938123703,"66":0.005991179030388594,"67":0.028803972527384758,"68":0.31016281247138977,"69":0.01839134842157364,"70":1.1741867065429688,"71":0.457051545381546,"72":1.1457043886184692,"73":-0.19698813557624817,"74":-0.01878148689866066,"75":1.5120066404342651,"76":-0.4082031846046448,"77":1.3548568487167358,"78":0.8370370864868164,"79":-0.2779185473918915,"80":0.527377188205719,"81":-0.6080479025840759,"82":1.9149237871170044,"83":0.056052930653095245,"84":2.0563056468963623,"85":1.1015862226486206,"86":0.5448983907699585,"87":-0.09971444308757782,"88":0.4811256527900696,"89":0.6585742235183716,"90":1.1782525777816772,"91":0.5634823441505432,"92":-0.547662615776062,"93":0.5154753923416138,"94":0.040724847465753555,"95":-0.23411501944065094,"96":1.6642472743988037,"97":-1.1373177766799927,"98":-1.7181776762008667,"99":0.05916948989033699,"100":-0.001485346001572907,"101":1.4784290790557861,"102":-3.1509389877319336,"103":1.5065667629241943,"104":0.05705984681844711,"105":0.7495546340942383,"106":0.9213647842407227,"107":-0.43792402744293213,"108":0.7054457068443298,"109":-0.42637115716934204,"110":-0.560718834400177,"111":-1.1607587337493896,"112":0.5616849064826965,"113":-0.9905941486358643,"114":1.4692723751068115,"115":0.8296442031860352,"116":0.5882669687271118,"117":-2.5440213680267334,"118":0.21693047881126404,"119":0.3245466649532318,"120":2.0599095821380615,"121":-0.41317811608314514,"122":0.34578171372413635,"123":0.5094265341758728,"124":1.5299947261810303,"125":-2.0740292072296143,"126":-1.9711717367172241,"127":-2.7686238288879395,"128":0.87044757604599,"129":-0.7080817818641663,"130":-0.2160952389240265,"131":-0.15903227031230927,"132":-0.8079622387886047,"133":0.12277834862470627,"134":-0.3061088025569916,"135":-1.0170475244522095,"136":1.8247159719467163,"137":1.273992657661438,"138":0.5797539353370667,"139":-0.368248850107193,"140":0.7000873684883118,"141":-0.3252168297767639,"142":0.05529211461544037,"143":0.4524409770965576,"144":-0.524007260799408,"145":0.7380698323249817,"146":1.1934559345245361,"147":1.1489942073822021,"148":-0.28517836332321167,"149":-0.6465919017791748,"150":-1.263498067855835,"151":-0.688285768032074,"152":-1.6827970743179321,"153":0.8370954394340515,"154":0.25845634937286377,"155":0.42982885241508484,"156":0.5517746806144714,"157":0.4909881353378296,"158":-0.18551601469516754,"159":-0.07205461710691452,"160":0.2900008261203766,"161":-0.19754014909267426,"162":-1.84615159034729,"163":-2.3478028774261475,"164":0.6609048247337341,"165":-0.27293601632118225,"166":-0.6724663376808167,"167":0.12888433039188385,"168":-2.7192647457122803,"169":-0.9765664339065552,"170":0.4942626357078552,"171":0.9159370064735413,"172":1.0914653539657593,"173":1.2481999397277832,"174":0.6541981101036072,"175":-0.7744583487510681,"176":0.794911801815033,"177":-2.7501304149627686,"178":-2.2399532794952393,"179":-1.653542160987854,"180":1.2893157005310059,"181":-0.3991217613220215,"182":0.7530204653739929,"183":0.5170858502388,"184":1.2101445198059082,"185":-0.49643614888191223,"186":0.9461554884910583,"187":-0.3167630732059479,"188":1.086606740951538,"189":0.5353518128395081,"190":0.19138486683368683,"191":0.05818035826086998,"192":0.5504031777381897,"193":-0.31113845109939575,"194":1.1193476915359497,"195":-1.0519031286239624,"196":-0.026194395497441292,"197":-0.9045985341072083,"198":-0.503381609916687,"199":-1.0976195335388184,"200":-1.2626763582229614,"201":-0.4934152662754059,"202":0.11971006542444229,"203":0.31996777653694153,"204":-0.6129236817359924,"205":-0.008752558380365372,"206":-0.4353649318218231,"207":-0.001287797000259161,"208":-2.5425143241882324,"209":1.5128021240234375,"210":-0.3615328371524811,"211":-0.15702559053897858,"212":-0.8515272736549377,"213":1.1620432138442993,"214":-0.7868355512619019,"215":0.8991637229919434,"216":-0.6441133618354797,"217":-0.5562344789505005,"218":2.3981730937957764,"219":-0.14870446920394897,"220":0.979458749294281,"221":-1.3795347213745117,"222":-1.0358233451843262,"223":1.2780698537826538,"224":1.4172812700271606,"225":0.9123629331588745,"226":0.05349510535597801,"227":0.03084952011704445,"228":1.5866811275482178,"229":-0.9982362985610962,"230":-2.172968626022339,"231":-0.6113672852516174,"232":1.4033057689666748,"233":-0.22710438072681427,"234":-0.12677496671676636,"235":0.908798336982727,"236":0.3946132957935333,"237":0.09776699542999268,"238":0.26336002349853516,"239":1.3704729080200195,"240":-1.3558598756790161,"241":-1.0628020763397217,"242":-1.2547204494476318,"243":-0.7649071216583252,"244":0.34880751371383667,"245":-1.4255207777023315,"246":0.6149091720581055,"247":-0.5372369289398193,"248":-0.2995094060897827,"249":-1.3516910076141357,"250":0.12412626296281815,"251":-1.5498042106628418,"252":-0.07539702951908112,"253":-1.50907301902771,"254":-1.0498548746109009,"255":-0.10242530703544617,"256":-0.42455071210861206,"257":1.5328044891357422,"258":-0.5402292013168335,"259":-0.5707182884216309}},"inputHidden":{"rows":20,"columns":20,"weights":{"0":-0.47624680399894714,"1":-0.983430027961731,"2":2.585707664489746,"3":-3.61735200881958,"4":3.8311452865600586,"5":-1.9979897737503052,"6":-1.2880396842956543,"7":-3.828878402709961,"8":-0.2692736089229584,"9":-0.37552160024642944,"10":0.8953640460968018,"11":-1.1349854469299316,"12":1.784726619720459,"13":-1.4928642511367798,"14":0.733751118183136,"15":2.120140790939331,"16":-1.9207422733306885,"17":0.18816161155700684,"18":-0.726260244846344,"19":2.0550055503845215,"20":-1.9338243007659912,"21":-0.909408688545227,"22":-1.252248764038086,"23":1.816583275794983,"24":-1.8122992515563965,"25":0.5288805961608887,"26":-0.5113910436630249,"27":-2.4842991828918457,"28":-1.7919249534606934,"29":0.39601799845695496,"30":0.1855314075946808,"31":-5.808309555053711,"32":-0.5747841596603394,"33":0.7738248705863953,"34":1.735729455947876,"35":-1.7835454940795898,"36":-1.213575005531311,"37":0.5286335945129395,"38":-1.555107593536377,"39":-0.5801073312759399,"40":-4.16762638092041,"41":1.0967427492141724,"42":-0.5482373833656311,"43":0.8292850852012634,"44":-0.15040546655654907,"45":-1.8361057043075562,"46":0.6481807827949524,"47":4.406200408935547,"48":1.0349105596542358,"49":0.9354161620140076,"50":-4.252476692199707,"51":5.069979190826416,"52":-3.2371585369110107,"53":-1.3629326820373535,"54":0.9759093523025513,"55":-2.8693432807922363,"56":3.2855050563812256,"57":2.019103527069092,"58":1.514898419380188,"59":5.08775520324707,"60":-0.4439731240272522,"61":-0.32344403862953186,"62":6.189823150634766,"63":6.4772491455078125,"64":-0.4672301411628723,"65":2.78048038482666,"66":-1.4462279081344604,"67":8.199164390563965,"68":-0.9839289784431458,"69":0.7555462718009949,"70":-3.217548370361328,"71":6.289319038391113,"72":-1.3407105207443237,"73":-2.3391802310943604,"74":0.9289411902427673,"75":-0.4504128098487854,"76":4.577295303344727,"77":-0.6511837840080261,"78":4.239173412322998,"79":-0.8304315209388733,"80":-4.353396415710449,"81":1.289018988609314,"82":1.0407795906066895,"83":-1.3934214115142822,"84":2.5007400512695312,"85":-2.412515163421631,"86":0.7696850895881653,"87":1.889523983001709,"88":-1.6059163808822632,"89":-1.7930119037628174,"90":-4.862036228179932,"91":2.4833695888519287,"92":-0.20526960492134094,"93":-1.100124478340149,"94":2.606898069381714,"95":3.3402562141418457,"96":-2.5820116996765137,"97":0.026971200481057167,"98":5.512667655944824,"99":-1.2772216796875,"100":-1.8576939105987549,"101":1.048806071281433,"102":0.3663845956325531,"103":-3.3881804943084717,"104":1.7789422273635864,"105":5.681609153747559,"106":-4.603404998779297,"107":5.7988433837890625,"108":-1.5274012088775635,"109":0.8060287237167358,"110":-0.6356766223907471,"111":2.752451181411743,"112":1.7693318128585815,"113":-1.214371919631958,"114":0.6868916153907776,"115":0.2896648943424225,"116":3.3525326251983643,"117":1.4746278524398804,"118":5.679694652557373,"119":-0.43324026465415955,"120":-2.8308022022247314,"121":0.3119286000728607,"122":-1.2723305225372314,"123":-2.1907172203063965,"124":0.21999138593673706,"125":2.1105222702026367,"126":3.613901138305664,"127":3.2100934982299805,"128":1.5445610284805298,"129":0.11162082105875015,"130":-5.4720635414123535,"131":0.8547345399856567,"132":0.2862589955329895,"133":3.0844244956970215,"134":2.0213449001312256,"135":6.364044666290283,"136":0.7470724582672119,"137":1.5291986465454102,"138":3.256267547607422,"139":-10.169751167297363,"140":1.0824253559112549,"141":0.11330399662256241,"142":-0.3748907148838043,"143":0.9349316358566284,"144":1.1335837841033936,"145":-2.6087427139282227,"146":-0.7621466517448425,"147":-0.33327674865722656,"148":0.06771525740623474,"149":-1.1060960292816162,"150":0.10534434020519257,"151":-5.085933685302734,"152":1.495575189590454,"153":-0.8549034595489502,"154":0.7475315928459167,"155":-2.94043231010437,"156":-1.7916570901870728,"157":0.6781697273254395,"158":-3.5955100059509277,"159":2.495305299758911,"160":-0.140329509973526,"161":2.307969093322754,"162":-0.4044482707977295,"163":4.259889602661133,"164":-2.1584856510162354,"165":0.0507008396089077,"166":-0.5994247198104858,"167":1.9481096267700195,"168":1.861253023147583,"169":1.0382145643234253,"170":-1.5324519872665405,"171":2.7974817752838135,"172":1.3727099895477295,"173":-1.1530654430389404,"174":-1.1901557445526123,"175":-6.034119129180908,"176":1.0888561010360718,"177":-0.8088863492012024,"178":0.9812958240509033,"179":1.893344521522522,"180":0.3488755524158478,"181":0.2634575366973877,"182":1.5301181077957153,"183":-2.2119758129119873,"184":-0.8674956560134888,"185":-1.7510929107666016,"186":2.183565616607666,"187":-2.616339921951294,"188":1.9288872480392456,"189":1.254762887954712,"190":-1.4389209747314453,"191":-2.2188005447387695,"192":-1.063181757926941,"193":1.6577787399291992,"194":-0.4286347031593323,"195":-0.015281064435839653,"196":0.19736407697200775,"197":4.841336727142334,"198":-2.6850192546844482,"199":-0.19119936227798462,"200":1.1412911415100098,"201":0.42975568771362305,"202":-0.40847936272621155,"203":0.485540509223938,"204":-0.9318175911903381,"205":-2.7777998447418213,"206":0.6484487056732178,"207":-3.5767226219177246,"208":-0.43700137734413147,"209":-0.5115633010864258,"210":-2.2586112022399902,"211":-4.325392246246338,"212":-1.0195797681808472,"213":0.4535766839981079,"214":2.7291014194488525,"215":0.1638587862253189,"216":-0.6011908054351807,"217":0.23613426089286804,"218":-0.21060311794281006,"219":-4.756001949310303,"220":-0.3000936508178711,"221":0.7190154790878296,"222":1.2781645059585571,"223":1.456344485282898,"224":-1.8927156925201416,"225":-1.889670968055725,"226":-0.8503780961036682,"227":0.9999769330024719,"228":-0.8225017189979553,"229":-1.3191112279891968,"230":0.5622509121894836,"231":0.6935849785804749,"232":0.806022584438324,"233":-2.3049116134643555,"234":-2.331552743911743,"235":-2.4114532470703125,"236":-1.3876069784164429,"237":-0.6019376516342163,"238":-0.6100572347640991,"239":4.46124267578125,"240":-1.569993495941162,"241":-0.22406210005283356,"242":0.6620573997497559,"243":2.631838798522949,"244":-2.2776808738708496,"245":-5.159859657287598,"246":-0.8531188368797302,"247":-3.163820743560791,"248":0.8645426630973816,"249":1.8981136083602905,"250":-1.1189179420471191,"251":-1.0736180543899536,"252":-1.3936048746109009,"253":-0.9613988995552063,"254":1.6193861961364746,"255":-0.8544135689735413,"256":-1.7158176898956299,"257":0.6755644083023071,"258":-1.8024541139602661,"259":0.509141206741333,"260":1.415924310684204,"261":1.3068617582321167,"262":-1.341459035873413,"263":-0.514091432094574,"264":-0.07861191034317017,"265":-0.41870352625846863,"266":0.28161242604255676,"267":1.3986389636993408,"268":1.9820387363433838,"269":1.6575735807418823,"270":-1.1415975093841553,"271":2.0406692028045654,"272":0.11884989589452744,"273":0.6943712830543518,"274":-1.177473783493042,"275":2.0640766620635986,"276":0.3385182023048401,"277":2.4491705894470215,"278":-1.529167652130127,"279":0.6536623239517212,"280":-0.9631639122962952,"281":-0.7612213492393494,"282":4.608641624450684,"283":-2.1057803630828857,"284":2.4440994262695312,"285":-1.6094619035720825,"286":0.313377320766449,"287":0.19564156234264374,"288":-3.039252519607544,"289":-0.0818275660276413,"290":-3.7845213413238525,"291":4.897853374481201,"292":-1.9439271688461304,"293":-0.4807261526584625,"294":0.10584288835525513,"295":3.1005756855010986,"296":-0.7948567271232605,"297":-0.38383322954177856,"298":4.652167320251465,"299":0.42382481694221497,"300":4.117893218994141,"301":-0.5361427068710327,"302":2.4883923530578613,"303":-0.8155876398086548,"304":-0.5294399261474609,"305":2.469637870788574,"306":-2.2925801277160645,"307":-2.0948426723480225,"308":-2.543557643890381,"309":-2.737682819366455,"310":5.346769332885742,"311":-1.0350977182388306,"312":2.408316135406494,"313":-0.7969438433647156,"314":-4.686886310577393,"315":-0.8875007033348083,"316":2.0200178623199463,"317":-0.35785427689552307,"318":-1.724546194076538,"319":1.4212669134140015,"320":-0.814140796661377,"321":0.4231005311012268,"322":2.478546380996704,"323":1.7595661878585815,"324":5.429433345794678,"325":-2.435939073562622,"326":4.934820652008057,"327":-0.8020451664924622,"328":0.5757745504379272,"329":2.482081413269043,"330":-1.1052794456481934,"331":-0.826894998550415,"332":-1.270133137702942,"333":0.06134038046002388,"334":2.6651949882507324,"335":2.159292459487915,"336":-0.870546281337738,"337":-2.0731165409088135,"338":2.4984450340270996,"339":-1.813402771949768,"340":0.2788601517677307,"341":2.6309854984283447,"342":-0.8242273330688477,"343":6.436268329620361,"344":2.9647023677825928,"345":4.862259864807129,"346":-1.135030746459961,"347":8.972527503967285,"348":1.6971192359924316,"349":-0.10059871524572372,"350":0.32326918840408325,"351":3.441743850708008,"352":0.760308027267456,"353":-0.8359707593917847,"354":-0.9717021584510803,"355":-0.8878539800643921,"356":4.716332912445068,"357":-0.1338019222021103,"358":2.874403476715088,"359":0.2853969633579254,"360":1.2404823303222656,"361":3.069640636444092,"362":-0.5107945203781128,"363":-0.044821884483098984,"364":0.07944529503583908,"365":-5.014554023742676,"366":0.3604481518268585,"367":-0.4922637939453125,"368":1.7431663274765015,"369":-1.65678870677948,"370":-0.9631657600402832,"371":-2.061173677444458,"372":0.47035878896713257,"373":0.15585832297801971,"374":0.10301890224218369,"375":-0.7711058259010315,"376":-6.101152420043945,"377":0.4634721279144287,"378":-1.9293049573898315,"379":1.7312917709350586,"380":4.296376705169678,"381":-0.5123356580734253,"382":2.370645761489868,"383":3.4140682220458984,"384":0.40429359674453735,"385":0.12103789299726486,"386":-3.016317844390869,"387":-2.117166042327881,"388":0.7548254132270813,"389":-0.3212006390094757,"390":5.251404762268066,"391":-4.1637797355651855,"392":1.5791003704071045,"393":-4.34155797958374,"394":-3.1103856563568115,"395":-1.6482958793640137,"396":1.835802674293518,"397":-1.0074400901794434,"398":-2.7564382553100586,"399":2.6584155559539795}},"inputBias":{"rows":20,"columns":1,"weights":{"0":1.5889275074005127,"1":-0.44045495986938477,"2":0.9635806083679199,"3":-2.187945604324341,"4":-0.9153323769569397,"5":2.5311005115509033,"6":-0.44396865367889404,"7":0.6350271105766296,"8":-1.9233143329620361,"9":2.0971055030822754,"10":0.7082871794700623,"11":0.015988392755389214,"12":-1.9996387958526611,"13":-0.3639961779117584,"14":0.1590360850095749,"15":-0.19547118246555328,"16":0.8707783222198486,"17":1.4135942459106445,"18":-1.065906047821045,"19":0.23788349330425262}},"forgetMatrix":{"rows":20,"columns":13,"weights":{"0":0.45832324028015137,"1":1.65473473072052,"2":0.6630865335464478,"3":-0.8809095025062561,"4":1.0521955490112305,"5":-0.38160571455955505,"6":0.6458321809768677,"7":-0.8178405165672302,"8":0.3928168714046478,"9":-0.3688129186630249,"10":-1.331856608390808,"11":0.15067444741725922,"12":-0.5861189961433411,"13":0.6163635849952698,"14":-1.6514122486114502,"15":0.46539223194122314,"16":0.9188114404678345,"17":0.4680043160915375,"18":-0.638588547706604,"19":0.6228979229927063,"20":0.8245810866355896,"21":0.3422662019729614,"22":0.14438383281230927,"23":-1.5099098682403564,"24":0.29452991485595703,"25":0.011325795203447342,"26":0.884531557559967,"27":-0.8890687227249146,"28":2.1585774421691895,"29":-0.3925532400608063,"30":0.6028696894645691,"31":-0.3659968972206116,"32":2.3910233974456787,"33":2.41878342628479,"34":0.9965460896492004,"35":1.160753607749939,"36":0.25431379675865173,"37":0.17725156247615814,"38":1.9515429735183716,"39":-0.9947347640991211,"40":-1.5559990406036377,"41":0.4585316777229309,"42":0.07634621113538742,"43":-0.6087668538093567,"44":-1.978113055229187,"45":0.2725485861301422,"46":0.3870861530303955,"47":-0.9871849417686462,"48":-0.04874613881111145,"49":0.17966453731060028,"50":-0.03159257769584656,"51":1.2023767232894897,"52":-0.24763453006744385,"53":-1.5204355716705322,"54":-0.1449800282716751,"55":0.5753743648529053,"56":-0.8804367780685425,"57":-0.6991323232650757,"58":0.5104093551635742,"59":0.21932248771190643,"60":0.17865030467510223,"61":1.0318934917449951,"62":-1.1288628578186035,"63":-1.532563328742981,"64":0.16007643938064575,"65":-2.004161834716797,"66":0.25556305050849915,"67":1.5204918384552002,"68":1.1760826110839844,"69":0.9113844633102417,"70":-0.2992872893810272,"71":0.9077466726303101,"72":1.5602340698242188,"73":-1.4151362180709839,"74":-2.35563063621521,"75":-0.06364897638559341,"76":0.4801468253135681,"77":0.16534556448459625,"78":-0.6442152857780457,"79":0.9620192646980286,"80":0.524924099445343,"81":-0.4484027028083801,"82":-0.7888417840003967,"83":0.7003920078277588,"84":0.24859414994716644,"85":-0.4566313624382019,"86":0.04856664687395096,"87":0.9502325654029846,"88":-0.9269627928733826,"89":-2.0508170127868652,"90":-0.12231448292732239,"91":-0.3340141177177429,"92":-2.5173490047454834,"93":-0.7368249893188477,"94":1.8391457796096802,"95":-0.43663305044174194,"96":-1.6744780540466309,"97":2.3595199584960938,"98":2.2420103549957275,"99":-0.535115122795105,"100":0.08924559503793716,"101":-1.0882973670959473,"102":1.8672378063201904,"103":-2.0794856548309326,"104":1.3921704292297363,"105":-2.885284423828125,"106":-1.116902470588684,"107":-0.23090806603431702,"108":-1.4475319385528564,"109":-2.50315523147583,"110":1.7712390422821045,"111":0.20580440759658813,"112":0.5142450928688049,"113":1.9521554708480835,"114":-0.572621762752533,"115":0.41841405630111694,"116":-0.8310648202896118,"117":-0.454581618309021,"118":-0.32297804951667786,"119":-0.7179225087165833,"120":0.4738655686378479,"121":-0.22566744685173035,"122":0.12127197533845901,"123":-0.11177343875169754,"124":0.07303903251886368,"125":0.28893500566482544,"126":-0.6488755941390991,"127":-0.4846438765525818,"128":0.2052975445985794,"129":-0.9600317478179932,"130":-0.26737603545188904,"131":0.6180835962295532,"132":0.6836504340171814,"133":1.381577968597412,"134":1.0293620824813843,"135":0.1825726330280304,"136":1.6215662956237793,"137":1.3689625263214111,"138":-1.862381935119629,"139":-1.241321086883545,"140":2.521026849746704,"141":2.1648049354553223,"142":0.13500310480594635,"143":-0.38965120911598206,"144":0.9391015768051147,"145":0.6761154532432556,"146":-0.034732308238744736,"147":1.2189619541168213,"148":-0.08558132499456406,"149":-0.3352206349372864,"150":0.07655267417430878,"151":-1.5574603080749512,"152":-1.771072506904602,"153":-1.5367449522018433,"154":1.580230951309204,"155":-2.2010631561279297,"156":-1.5139037370681763,"157":-0.8538877964019775,"158":-0.018523341044783592,"159":1.2772188186645508,"160":0.1183992549777031,"161":-0.2813417911529541,"162":-0.9136661887168884,"163":-0.3132213056087494,"164":-0.009612158872187138,"165":-2.619046449661255,"166":0.28894805908203125,"167":1.2683097124099731,"168":0.04342912510037422,"169":0.7746891975402832,"170":-0.8649131655693054,"171":-0.6274553537368774,"172":0.5288423299789429,"173":-0.12359317392110825,"174":-0.35005486011505127,"175":0.9368124604225159,"176":1.1692875623703003,"177":1.1583607196807861,"178":-0.32476893067359924,"179":-0.5618348121643066,"180":-0.21677789092063904,"181":0.7206904292106628,"182":0.6091248989105225,"183":-0.6395034790039062,"184":-1.609754204750061,"185":0.25470876693725586,"186":-0.8077566027641296,"187":1.5106935501098633,"188":-1.7361549139022827,"189":-1.6850261688232422,"190":-0.7640199661254883,"191":-0.08707413077354431,"192":-1.3900226354599,"193":-0.7032492756843567,"194":0.15710288286209106,"195":1.1355386972427368,"196":0.37090325355529785,"197":0.6611118316650391,"198":-0.09633573889732361,"199":0.9508988261222839,"200":0.8352450132369995,"201":-0.8647822737693787,"202":-1.0780290365219116,"203":0.32685837149620056,"204":0.9649187922477722,"205":0.27663758397102356,"206":-1.5705360174179077,"207":0.24520544707775116,"208":0.9957262277603149,"209":-2.1178135871887207,"210":-0.9137758612632751,"211":0.3196142911911011,"212":-1.113837480545044,"213":-0.37865588068962097,"214":-0.932800829410553,"215":-1.4454174041748047,"216":0.21017253398895264,"217":-0.0811866819858551,"218":-1.5179253816604614,"219":-0.4733317792415619,"220":-0.3855116665363312,"221":-0.5974779725074768,"222":-1.7833560705184937,"223":0.6424489617347717,"224":2.330686092376709,"225":0.11869927495718002,"226":-1.2703983783721924,"227":0.8943899273872375,"228":0.6796212196350098,"229":0.38678526878356934,"230":-0.8938651084899902,"231":0.599746584892273,"232":-0.6995735168457031,"233":1.0521833896636963,"234":-0.6412622928619385,"235":-1.165576696395874,"236":0.5725194811820984,"237":1.2709853649139404,"238":0.21771684288978577,"239":0.4931441843509674,"240":0.01461490523070097,"241":0.13121531903743744,"242":-1.1314677000045776,"243":-0.9855130314826965,"244":0.8315098881721497,"245":0.35580363869667053,"246":0.297145813703537,"247":-0.5003037452697754,"248":1.358130693435669,"249":0.22617726027965546,"250":-0.47699204087257385,"251":2.3554205894470215,"252":-0.9898830056190491,"253":-0.22620941698551178,"254":0.027362490072846413,"255":-0.3249160647392273,"256":-0.8422135710716248,"257":0.08585452288389206,"258":2.1843020915985107,"259":-0.07907239347696304}},"forgetHidden":{"rows":20,"columns":20,"weights":{"0":-1.5799229145050049,"1":0.822350800037384,"2":-0.850775957107544,"3":-1.0829975605010986,"4":0.29738476872444153,"5":-2.28947114944458,"6":1.8384796380996704,"7":-0.004064237233251333,"8":-0.3859449028968811,"9":2.107041358947754,"10":-3.222315549850464,"11":1.072451114654541,"12":-3.3331151008605957,"13":1.495108962059021,"14":2.093243360519409,"15":1.9460675716400146,"16":-0.8219590187072754,"17":-0.9148138761520386,"18":1.2090730667114258,"19":-4.5730791091918945,"20":1.2439870834350586,"21":-0.738745391368866,"22":-1.6284970045089722,"23":1.5267271995544434,"24":1.0176513195037842,"25":-1.8884690999984741,"26":0.3933970034122467,"27":0.3491038382053375,"28":-0.017745710909366608,"29":-1.4012188911437988,"30":4.488498210906982,"31":3.4482510089874268,"32":-0.12681898474693298,"33":-1.883118987083435,"34":-2.5521562099456787,"35":0.6308827996253967,"36":-2.0359561443328857,"37":2.8453269004821777,"38":0.09998822212219238,"39":1.3524017333984375,"40":2.2797513008117676,"41":-2.9462568759918213,"42":-0.11538324505090714,"43":-0.07234623283147812,"44":0.829253077507019,"45":-0.2739963233470917,"46":-0.13090741634368896,"47":-0.5122699737548828,"48":-1.7431702613830566,"49":-2.776348114013672,"50":4.035665035247803,"51":0.2751758396625519,"52":0.4559462070465088,"53":0.5476347208023071,"54":0.8671849966049194,"55":-4.86385440826416,"56":-0.17993441224098206,"57":0.3581225872039795,"58":0.23831763863563538,"59":-0.05008144676685333,"60":0.8250574469566345,"61":0.018911445513367653,"62":0.9653811454772949,"63":3.014418601989746,"64":-2.4258713722229004,"65":2.210484504699707,"66":-0.19346803426742554,"67":0.9279143810272217,"68":0.6081140637397766,"69":-2.1147146224975586,"70":1.233582615852356,"71":1.7353655099868774,"72":0.18654584884643555,"73":0.49688005447387695,"74":-5.04668664932251,"75":-1.3110111951828003,"76":0.4236280024051666,"77":1.0138002634048462,"78":-2.6173171997070312,"79":-0.13357329368591309,"80":3.0329976081848145,"81":-2.467991590499878,"82":0.3020274341106415,"83":1.00046968460083,"84":-1.0786906480789185,"85":2.7983930110931396,"86":-1.9652875661849976,"87":1.377454400062561,"88":-0.8759484887123108,"89":-2.3601322174072266,"90":3.282477855682373,"91":-4.275368690490723,"92":0.9178447127342224,"93":-1.122955560684204,"94":-1.804203987121582,"95":-0.384872168302536,"96":0.809833824634552,"97":-1.6102157831192017,"98":-1.3356261253356934,"99":-0.58346027135849,"100":-2.3787903785705566,"101":0.13401946425437927,"102":-1.7761214971542358,"103":-0.6428866386413574,"104":0.5157256126403809,"105":-3.9623334407806396,"106":1.2870534658432007,"107":1.327022910118103,"108":-1.3146250247955322,"109":3.075854778289795,"110":-2.0113484859466553,"111":-1.6398757696151733,"112":1.3720592260360718,"113":1.271378993988037,"114":3.0560851097106934,"115":0.22800284624099731,"116":0.6797806620597839,"117":0.7553240656852722,"118":1.8885291814804077,"119":0.9768177270889282,"120":1.8783732652664185,"121":-1.190914273262024,"122":-1.5521315336227417,"123":-1.1857764720916748,"124":-0.6312947869300842,"125":-0.6374969482421875,"126":2.766096353530884,"127":-1.9311550855636597,"128":1.9644372463226318,"129":-1.3575711250305176,"130":1.1229225397109985,"131":-0.9117648005485535,"132":-0.6077713370323181,"133":1.6589547395706177,"134":0.08533646911382675,"135":0.5942119359970093,"136":-1.4100580215454102,"137":0.7055750489234924,"138":-0.23095637559890747,"139":1.53103768825531,"140":1.465826392173767,"141":-0.20871825516223907,"142":1.3521329164505005,"143":-0.2694686949253082,"144":-1.2866088151931763,"145":-2.9726028442382812,"146":0.4512500762939453,"147":-1.9013079404830933,"148":0.47667497396469116,"149":-0.4137953221797943,"150":1.5153080224990845,"151":-1.4426015615463257,"152":0.38039910793304443,"153":-0.33950257301330566,"154":1.469110369682312,"155":-2.2148866653442383,"156":-3.6496479511260986,"157":-2.634878158569336,"158":-1.0826966762542725,"159":1.2652119398117065,"160":-0.35258349776268005,"161":-1.642233967781067,"162":0.5402178764343262,"163":-5.367088317871094,"164":1.7943247556686401,"165":0.9057527780532837,"166":2.515354633331299,"167":-0.7495751976966858,"168":-1.609771966934204,"169":-1.244581937789917,"170":-0.22893525660037994,"171":1.272950530052185,"172":-1.233364462852478,"173":0.2516382038593292,"174":1.1118699312210083,"175":0.7120535969734192,"176":2.0518689155578613,"177":-1.8114843368530273,"178":0.9901350140571594,"179":0.9140298366546631,"180":7.486288070678711,"181":4.728030681610107,"182":0.8773534297943115,"183":11.378968238830566,"184":-2.18483567237854,"185":2.05956768989563,"186":-0.33336523175239563,"187":12.221955299377441,"188":-0.5687119364738464,"189":-0.5410819053649902,"190":0.6510578989982605,"191":3.365940570831299,"192":-2.0482218265533447,"193":0.34098267555236816,"194":-4.086337089538574,"195":-0.33059701323509216,"196":4.3817644119262695,"197":-0.11127790063619614,"198":3.078047037124634,"199":0.17671623826026917,"200":-0.8499695658683777,"201":1.5079712867736816,"202":-2.2425081729888916,"203":1.6805959939956665,"204":0.7426382303237915,"205":-3.2448692321777344,"206":0.9279759526252747,"207":-0.8065181374549866,"208":0.06886889040470123,"209":4.877981662750244,"210":-1.2786592245101929,"211":-0.5868210792541504,"212":-0.42749086022377014,"213":1.7096885442733765,"214":0.7652552723884583,"215":-0.6663907170295715,"216":-1.3837770223617554,"217":0.8253506422042847,"218":0.19761081039905548,"219":-1.7535611391067505,"220":2.617065668106079,"221":2.784607172012329,"222":-2.3987197875976562,"223":3.469736337661743,"224":-2.2474026679992676,"225":1.5543603897094727,"226":-2.3227221965789795,"227":3.1828832626342773,"228":3.5636017322540283,"229":-0.7674574851989746,"230":-0.6029123663902283,"231":1.2312829494476318,"232":1.3103432655334473,"233":0.4884280264377594,"234":-2.017695665359497,"235":-1.7300418615341187,"236":0.24300725758075714,"237":1.125594973564148,"238":-4.397027492523193,"239":0.7246750593185425,"240":0.24864105880260468,"241":2.6811490058898926,"242":-3.27307391166687,"243":-0.8801754117012024,"244":-1.5419138669967651,"245":0.20350414514541626,"246":1.2200313806533813,"247":2.84242582321167,"248":2.9226911067962646,"249":-0.11179479211568832,"250":1.6051335334777832,"251":-0.8933965563774109,"252":1.3050135374069214,"253":1.086079716682434,"254":-4.106851577758789,"255":-2.578606367111206,"256":-1.7055128812789917,"257":1.301399827003479,"258":-1.9900377988815308,"259":1.746992826461792,"260":4.4453277587890625,"261":-1.774843454360962,"262":-4.055319309234619,"263":-2.692438840866089,"264":-0.9708406925201416,"265":-3.233677387237549,"266":4.220767974853516,"267":-3.6166203022003174,"268":-0.43661263585090637,"269":0.22988201677799225,"270":-0.032001394778490067,"271":0.3299315571784973,"272":-1.459720492362976,"273":-0.017977843061089516,"274":-2.621182680130005,"275":0.4235469102859497,"276":2.932345390319824,"277":1.8881386518478394,"278":-2.9752204418182373,"279":0.3560818135738373,"280":-1.4542492628097534,"281":0.39856693148612976,"282":-1.5061646699905396,"283":1.1069895029067993,"284":-0.2174857258796692,"285":-1.5469422340393066,"286":1.6177033185958862,"287":0.43995970487594604,"288":-0.9160472750663757,"289":1.5228955745697021,"290":-1.3110933303833008,"291":0.8277168869972229,"292":-1.8407292366027832,"293":2.7858946323394775,"294":0.15220782160758972,"295":-2.103358030319214,"296":0.7289600968360901,"297":0.8157782554626465,"298":0.3624652028083801,"299":-6.088975429534912,"300":-0.6611108779907227,"301":1.4276727437973022,"302":-0.1406754106283188,"303":0.48840072751045227,"304":2.226985454559326,"305":-0.33732372522354126,"306":-0.7697668671607971,"307":0.40365931391716003,"308":3.6984314918518066,"309":0.9718587398529053,"310":-1.4644711017608643,"311":-1.856799840927124,"312":-0.050414033234119415,"313":-0.6498838663101196,"314":0.2020094096660614,"315":3.332350969314575,"316":-0.2951069176197052,"317":-0.536064088344574,"318":0.5944615602493286,"319":-2.4497628211975098,"320":0.514236330986023,"321":-2.8890647888183594,"322":-2.4438421726226807,"323":-0.17226481437683105,"324":-2.048943042755127,"325":3.278217315673828,"326":-0.02302159182727337,"327":2.85565447807312,"328":2.9462592601776123,"329":0.993247926235199,"330":0.19920657575130463,"331":-1.362326979637146,"332":-0.23943400382995605,"333":0.8805034756660461,"334":0.3518942892551422,"335":-1.7328191995620728,"336":0.7626051306724548,"337":2.5374999046325684,"338":-0.501107394695282,"339":0.4536510407924652,"340":1.955464482307434,"341":-0.5924755334854126,"342":-4.9251708984375,"343":-2.181105852127075,"344":3.3453261852264404,"345":-3.1805481910705566,"346":1.1749283075332642,"347":-5.262908458709717,"348":0.23783104121685028,"349":-0.02586902678012848,"350":2.0857603549957275,"351":-2.394630193710327,"352":0.4084991216659546,"353":-0.12237280607223511,"354":1.672755241394043,"355":-2.497411012649536,"356":-0.5446109771728516,"357":-0.6713816523551941,"358":-0.6631157994270325,"359":-0.7952042818069458,"360":1.7028895616531372,"361":-1.7544817924499512,"362":-2.860863447189331,"363":-0.8818903565406799,"364":-1.3123873472213745,"365":2.164243221282959,"366":-1.3532394170761108,"367":0.6218414902687073,"368":1.0552994012832642,"369":-0.9206994771957397,"370":2.8002312183380127,"371":-4.742620944976807,"372":0.5220495462417603,"373":-0.4368118941783905,"374":-0.2718426287174225,"375":-2.646528720855713,"376":0.15121358633041382,"377":0.16898874938488007,"378":-0.4885502755641937,"379":3.0443058013916016,"380":1.7860767841339111,"381":0.19639134407043457,"382":6.48586368560791,"383":1.6550335884094238,"384":6.566013336181641,"385":-1.0326327085494995,"386":0.4552622437477112,"387":0.2672659456729889,"388":-0.2637556791305542,"389":3.165472984313965,"390":-2.1799516677856445,"391":2.7652218341827393,"392":0.6898267865180969,"393":1.4226824045181274,"394":-1.0479538440704346,"395":2.4578969478607178,"396":0.17722883820533752,"397":0.2744098901748657,"398":4.793697357177734,"399":1.970861792564392}},"forgetBias":{"rows":20,"columns":1,"weights":{"0":0,"1":0,"2":0,"3":0,"4":0,"5":0,"6":0,"7":0,"8":0,"9":0,"10":0,"11":0,"12":0,"13":0,"14":0,"15":0,"16":0,"17":0,"18":0,"19":0}},"outputMatrix":{"rows":20,"columns":13,"weights":{"0":-1.2873129844665527,"1":0.765128493309021,"2":-0.11973686516284943,"3":0.12419477105140686,"4":-0.5982803106307983,"5":0.9054183959960938,"6":-0.4962684214115143,"7":1.4054782390594482,"8":0.2650100886821747,"9":-0.30808621644973755,"10":1.7330048084259033,"11":-1.3453274965286255,"12":0.8001996874809265,"13":1.721402883529663,"14":1.0345407724380493,"15":-0.8111491203308105,"16":-1.5649977922439575,"17":0.0241431575268507,"18":-0.3161907196044922,"19":-0.5694918632507324,"20":-2.708505630493164,"21":-0.08936949819326401,"22":-0.3862813115119934,"23":1.7605042457580566,"24":-1.5238399505615234,"25":0.7604905366897583,"26":-2.3868181705474854,"27":-1.0139775276184082,"28":-0.7062739729881287,"29":0.8474184274673462,"30":-1.6747764348983765,"31":0.07413291931152344,"32":0.2564763128757477,"33":1.8308707475662231,"34":-1.5910717248916626,"35":-2.261936902999878,"36":-0.9692744612693787,"37":1.696512222290039,"38":0.17466452717781067,"39":-0.2981533408164978,"40":-0.6670457720756531,"41":-1.4525429010391235,"42":-0.4567309319972992,"43":-1.2371656894683838,"44":-2.287543296813965,"45":1.5409331321716309,"46":0.9368659853935242,"47":-0.05854586139321327,"48":-1.3411121368408203,"49":1.2830878496170044,"50":2.866574287414551,"51":-0.42687028646469116,"52":-0.692674994468689,"53":0.4882834255695343,"54":0.5428177714347839,"55":0.8387486338615417,"56":0.41908279061317444,"57":-1.2271184921264648,"58":0.18098023533821106,"59":0.5600634217262268,"60":0.5290782451629639,"61":-1.5252408981323242,"62":2.184133291244507,"63":0.3175860643386841,"64":1.2738229036331177,"65":-0.848222553730011,"66":-0.8164698481559753,"67":-0.3070920407772064,"68":0.773166298866272,"69":-0.7992798089981079,"70":-1.394413948059082,"71":2.8535168170928955,"72":1.861951231956482,"73":0.964545726776123,"74":0.3182864785194397,"75":1.7476757764816284,"76":0.5908085107803345,"77":0.3475435674190521,"78":-0.5881609916687012,"79":-1.0790703296661377,"80":-0.5828948616981506,"81":0.37060412764549255,"82":-0.5523585081100464,"83":-1.9273995161056519,"84":2.8197107315063477,"85":1.8587566614151,"86":-0.7002713680267334,"87":-1.2433158159255981,"88":-0.7820430397987366,"89":3.522204875946045,"90":-0.7157015800476074,"91":-0.02142793871462345,"92":0.24819272756576538,"93":0.2989793121814728,"94":0.5762972831726074,"95":0.2108275145292282,"96":0.22004733979701996,"97":-0.5575559139251709,"98":-0.7860739231109619,"99":-0.484267920255661,"100":-1.5902185440063477,"101":0.6343315243721008,"102":0.1228005513548851,"103":0.5596259832382202,"104":0.2517920136451721,"105":0.4356212615966797,"106":2.1111061573028564,"107":-0.8730233311653137,"108":1.5917789936065674,"109":1.7399848699569702,"110":-1.9489614963531494,"111":-0.8177810907363892,"112":0.5463911294937134,"113":0.0364958755671978,"114":1.804990291595459,"115":-0.7477138638496399,"116":0.9519240260124207,"117":-0.6707865595817566,"118":-2.0132012367248535,"119":-1.4241501092910767,"120":1.1240324974060059,"121":-1.0283446311950684,"122":-0.9119488000869751,"123":2.262727975845337,"124":0.45748084783554077,"125":-1.5571569204330444,"126":-0.9796781539916992,"127":-0.5340119004249573,"128":1.2652270793914795,"129":-1.8248201608657837,"130":-0.2329225242137909,"131":0.7568606734275818,"132":-0.39717644453048706,"133":0.18524155020713806,"134":1.3574634790420532,"135":-0.30554908514022827,"136":-0.0330490805208683,"137":0.2802812159061432,"138":0.4370260536670685,"139":-1.212963581085205,"140":0.3961949050426483,"141":0.20773637294769287,"142":-0.09064380824565887,"143":-0.521897554397583,"144":-0.16886354982852936,"145":0.037087634205818176,"146":0.20762044191360474,"147":-0.555596113204956,"148":-1.1770827770233154,"149":-0.9662518501281738,"150":-0.5403978228569031,"151":-0.15621785819530487,"152":-0.8316362500190735,"153":0.2672688961029053,"154":-0.20871511101722717,"155":-1.6216803789138794,"156":0.7374995946884155,"157":0.8651288747787476,"158":1.7157485485076904,"159":-0.19861635565757751,"160":2.335860013961792,"161":1.1767946481704712,"162":-0.8710222840309143,"163":-1.2258291244506836,"164":-0.11491517722606659,"165":-1.3280802965164185,"166":-0.5038654208183289,"167":0.41577383875846863,"168":0.09166611731052399,"169":-1.5665870904922485,"170":-0.40051308274269104,"171":0.20927712321281433,"172":0.8558566570281982,"173":0.5801759362220764,"174":-0.34474441409111023,"175":0.5158559083938599,"176":2.1601006984710693,"177":-1.840409755706787,"178":-2.3021507263183594,"179":-1.239794135093689,"180":1.2657365798950195,"181":-0.2938227355480194,"182":0.17090333998203278,"183":0.8879506587982178,"184":0.4717082977294922,"185":0.34643319249153137,"186":0.9258373975753784,"187":-0.6080352067947388,"188":1.6974793672561646,"189":1.2070746421813965,"190":0.8602428436279297,"191":0.7155560851097107,"192":2.766099452972412,"193":1.4778578281402588,"194":2.194003105163574,"195":-1.2893376350402832,"196":-0.15150456130504608,"197":-0.07144297659397125,"198":0.7294051051139832,"199":0.05539720132946968,"200":-0.3496297001838684,"201":0.1852961778640747,"202":0.5221698880195618,"203":-1.5917435884475708,"204":-1.9781696796417236,"205":0.7698187232017517,"206":0.14733818173408508,"207":0.17805767059326172,"208":-2.4904630184173584,"209":0.030664201825857162,"210":-0.8320924639701843,"211":0.46843084692955017,"212":-0.7162072658538818,"213":0.08514901250600815,"214":0.6324695348739624,"215":1.349073886871338,"216":-2.1530120372772217,"217":-0.858827531337738,"218":2.142819404602051,"219":1.3037140369415283,"220":0.595456600189209,"221":-3.3049798011779785,"222":0.17469073832035065,"223":-0.2106706202030182,"224":1.4179785251617432,"225":-0.2388794720172882,"226":-0.6683188080787659,"227":-0.013432735577225685,"228":1.6081680059432983,"229":-2.1749649047851562,"230":-3.0400867462158203,"231":-0.10503534227609634,"232":2.1231157779693604,"233":-0.4323425590991974,"234":-0.026131292805075645,"235":-0.4955315887928009,"236":0.9299486875534058,"237":0.5896714329719543,"238":-0.05721819028258324,"239":0.6178311109542847,"240":-1.7492517232894897,"241":-1.2993574142456055,"242":-1.517125129699707,"243":-1.316543459892273,"244":1.072534441947937,"245":-1.2114657163619995,"246":-0.10025656223297119,"247":-0.8296911120414734,"248":-0.2969525456428528,"249":-0.602916419506073,"250":0.29418203234672546,"251":-0.7727612853050232,"252":-0.45395198464393616,"253":0.072621650993824,"254":1.3129396438598633,"255":-0.23250886797904968,"256":-1.6384084224700928,"257":1.0520668029785156,"258":0.8518251776695251,"259":1.4155076742172241}},"outputHidden":{"rows":20,"columns":20,"weights":{"0":0.21148048341274261,"1":0.37621065974235535,"2":1.7015068531036377,"3":-0.885365903377533,"4":2.740067481994629,"5":-1.791620135307312,"6":-0.9167829155921936,"7":-0.7557936310768127,"8":1.6836118698120117,"9":-1.1486895084381104,"10":-0.5099061131477356,"11":1.0070761442184448,"12":2.1341114044189453,"13":-0.24741582572460175,"14":-0.5034887194633484,"15":2.558448076248169,"16":-3.2938177585601807,"17":1.9279617071151733,"18":-0.05623101815581322,"19":-0.33615750074386597,"20":-2.8308260440826416,"21":-0.8607631921768188,"22":-0.6169936060905457,"23":0.1738395243883133,"24":-1.811980128288269,"25":2.2236478328704834,"26":-4.052394866943359,"27":-0.5475045442581177,"28":-1.558340311050415,"29":0.7533794045448303,"30":-1.9339544773101807,"31":-4.3426408767700195,"32":0.40770605206489563,"33":1.3918319940567017,"34":2.1223156452178955,"35":0.7228808403015137,"36":0.0632140189409256,"37":2.619743824005127,"38":-1.173265814781189,"39":-2.7163240909576416,"40":-0.08149521797895432,"41":0.56419438123703,"42":0.8873865604400635,"43":0.6495376825332642,"44":2.6463565826416016,"45":-0.43134385347366333,"46":0.9253047108650208,"47":0.15044349431991577,"48":0.3827623724937439,"49":-0.38895857334136963,"50":0.41540056467056274,"51":5.675964832305908,"52":-0.33392268419265747,"53":-0.46970754861831665,"54":-1.803670048713684,"55":1.326404094696045,"56":1.6495035886764526,"57":2.1946942806243896,"58":-0.5132400989532471,"59":0.2503209710121155,"60":0.8633274435997009,"61":-0.7994816303253174,"62":-1.7191191911697388,"63":1.6208609342575073,"64":2.3242530822753906,"65":2.7234272956848145,"66":-0.6416481733322144,"67":1.7689456939697266,"68":2.1017260551452637,"69":-0.2031553089618683,"70":2.5909042358398438,"71":-1.0161212682724,"72":-0.07207293063402176,"73":-0.8076058626174927,"74":0.10826312005519867,"75":-3.280472993850708,"76":2.2792000770568848,"77":0.8028750419616699,"78":-1.1310218572616577,"79":-0.46288439631462097,"80":-0.5925318598747253,"81":-0.09280721098184586,"82":-1.0263956785202026,"83":-0.6806521415710449,"84":1.8903229236602783,"85":-3.4336891174316406,"86":0.07492347806692123,"87":1.4589868783950806,"88":-0.5125164985656738,"89":-0.40022844076156616,"90":-2.07738995552063,"91":4.61059045791626,"92":0.9168789386749268,"93":1.07534658908844,"94":0.06750427931547165,"95":-0.159633070230484,"96":-2.226158618927002,"97":1.8392081260681152,"98":2.6875200271606445,"99":1.2486952543258667,"100":1.3589762449264526,"101":0.8068572282791138,"102":0.03927464783191681,"103":0.7857258319854736,"104":1.1291230916976929,"105":-0.1384948194026947,"106":-0.1754286289215088,"107":-0.44035378098487854,"108":1.0520665645599365,"109":-0.08047273010015488,"110":2.5843143463134766,"111":-2.190084934234619,"112":2.782151699066162,"113":-0.3282274305820465,"114":0.8305912613868713,"115":-3.297071695327759,"116":-0.11362498253583908,"117":-0.01427452638745308,"118":-3.076061248779297,"119":-0.023276088759303093,"120":-0.0493585430085659,"121":-1.5482984781265259,"122":-1.1054728031158447,"123":-0.6981936097145081,"124":2.6781346797943115,"125":0.04485878348350525,"126":2.0685267448425293,"127":-0.49598175287246704,"128":-0.9114488959312439,"129":1.2321038246154785,"130":-1.4655810594558716,"131":0.09684097766876221,"132":1.6123905181884766,"133":2.139066219329834,"134":-0.19257774949073792,"135":2.2813377380371094,"136":1.104663372039795,"137":1.0260083675384521,"138":1.299710750579834,"139":-1.6835929155349731,"140":1.3593631982803345,"141":2.4160287380218506,"142":-0.6847667694091797,"143":1.0948024988174438,"144":-0.7637268900871277,"145":-2.556856155395508,"146":-0.28166574239730835,"147":-0.4943307638168335,"148":1.1180205345153809,"149":-0.8238837718963623,"150":0.2016562819480896,"151":-5.722248077392578,"152":1.520419955253601,"153":-0.2881712019443512,"154":-0.29274898767471313,"155":-2.7348320484161377,"156":-3.806554079055786,"157":0.8948351740837097,"158":-5.199235439300537,"159":0.7667468786239624,"160":-1.5446494817733765,"161":2.3857481479644775,"162":2.0506813526153564,"163":0.10643962025642395,"164":1.4485455751419067,"165":0.9479451775550842,"166":-1.776110053062439,"167":-0.4600776433944702,"168":1.66437566280365,"169":1.2122151851654053,"170":-1.6344190835952759,"171":3.3453385829925537,"172":1.558423399925232,"173":-2.5260300636291504,"174":0.2728199064731598,"175":0.8631024360656738,"176":1.667294979095459,"177":-2.9378058910369873,"178":2.400559425354004,"179":0.18761011958122253,"180":1.687942624092102,"181":0.4821877181529999,"182":-6.100442886352539,"183":-3.0975139141082764,"184":-1.353495717048645,"185":-1.3048781156539917,"186":0.6643667817115784,"187":-1.388084888458252,"188":0.786055326461792,"189":-1.5358965396881104,"190":0.5841612815856934,"191":-1.7460719347000122,"192":0.4988688826560974,"193":0.4635242223739624,"194":-1.9633647203445435,"195":-2.364652156829834,"196":-0.05779992416501045,"197":4.882901668548584,"198":-3.263413190841675,"199":4.491615295410156,"200":-0.5457703471183777,"201":1.416650414466858,"202":-0.7471243739128113,"203":0.13899387419223785,"204":3.3017516136169434,"205":-0.6406046748161316,"206":0.9947157502174377,"207":-0.3156563639640808,"208":0.8921133875846863,"209":2.0081841945648193,"210":-2.5756642818450928,"211":-3.901060104370117,"212":1.5704505443572998,"213":0.9202744364738464,"214":2.3905014991760254,"215":0.051047828048467636,"216":-1.4796212911605835,"217":0.6151725053787231,"218":1.0507758855819702,"219":-4.0026326179504395,"220":2.3110768795013428,"221":1.241864562034607,"222":-0.3796454071998596,"223":3.0267093181610107,"224":-3.0626840591430664,"225":-0.9187074303627014,"226":-0.7086808681488037,"227":2.48087477684021,"228":2.0871167182922363,"229":-1.3656164407730103,"230":2.262028694152832,"231":-3.8663218021392822,"232":0.9448022842407227,"233":-1.1642708778381348,"234":-2.999238967895508,"235":-2.975346088409424,"236":-2.236912727355957,"237":-0.005996288266032934,"238":-5.265824794769287,"239":3.9832849502563477,"240":-1.7596979141235352,"241":4.612327575683594,"242":2.201411008834839,"243":1.615251898765564,"244":-1.2984787225723267,"245":4.797618865966797,"246":-1.603101372718811,"247":3.469949960708618,"248":2.4273810386657715,"249":-1.154246211051941,"250":-2.1174418926239014,"251":-0.12288226932287216,"252":-0.2860040068626404,"253":-1.7324204444885254,"254":0.6043165922164917,"255":2.8019237518310547,"256":0.40974342823028564,"257":-0.3754750192165375,"258":-1.095526099205017,"259":-0.6128136515617371,"260":1.4913767576217651,"261":0.5445600152015686,"262":-3.748660087585449,"263":-2.983213424682617,"264":-0.388773113489151,"265":-1.5486500263214111,"266":3.035003900527954,"267":-2.479632616043091,"268":2.207921028137207,"269":-1.2152831554412842,"270":0.45088446140289307,"271":-0.9322885870933533,"272":-0.1453653872013092,"273":-1.3181341886520386,"274":-0.12288675457239151,"275":-0.3257766366004944,"276":2.0546443462371826,"277":2.5757157802581787,"278":-3.2203738689422607,"279":1.9323629140853882,"280":0.8311219811439514,"281":-0.5699111819267273,"282":0.630217432975769,"283":-0.10810352861881256,"284":1.5929596424102783,"285":1.5928181409835815,"286":1.0434691905975342,"287":0.01746954582631588,"288":-0.9225983619689941,"289":0.15190385282039642,"290":0.44507095217704773,"291":3.1819992065429688,"292":-0.4634990394115448,"293":0.7982473373413086,"294":-1.0953750610351562,"295":0.9484676718711853,"296":-0.3934614658355713,"297":0.6978276371955872,"298":0.6536789536476135,"299":1.2888026237487793,"300":0.9291790723800659,"301":1.665400505065918,"302":-0.5722306966781616,"303":-2.1109728813171387,"304":1.2472071647644043,"305":2.4884839057922363,"306":0.2830653786659241,"307":-1.0229071378707886,"308":2.137532949447632,"309":-1.1011821031570435,"310":4.977843284606934,"311":-3.3261759281158447,"312":2.968264579772949,"313":0.9372756481170654,"314":1.409165859222412,"315":-1.7573038339614868,"316":1.1275876760482788,"317":1.123773455619812,"318":-0.694977343082428,"319":1.1733509302139282,"320":0.9503125548362732,"321":-0.11230289191007614,"322":0.9542838335037231,"323":1.6163421869277954,"324":2.1004230976104736,"325":1.0720728635787964,"326":-1.1307464838027954,"327":-2.0197250843048096,"328":1.40805184841156,"329":-0.026682892814278603,"330":1.2042920589447021,"331":-0.9856974482536316,"332":2.2258224487304688,"333":-0.8330516815185547,"334":-0.6645352840423584,"335":-1.0199815034866333,"336":-0.6197949647903442,"337":-1.1959562301635742,"338":1.340470552444458,"339":1.0899550914764404,"340":-2.136470079421997,"341":2.624436855316162,"342":0.11479528993368149,"343":-0.7402284741401672,"344":-0.7801541686058044,"345":1.0884360074996948,"346":0.6036072969436646,"347":-1.5623295307159424,"348":1.6494277715682983,"349":0.35124513506889343,"350":0.30563512444496155,"351":2.473510265350342,"352":1.3739347457885742,"353":-0.34359675645828247,"354":-0.8495450615882874,"355":-1.7111830711364746,"356":-0.44472745060920715,"357":1.4246618747711182,"358":0.3674672842025757,"359":6.600701332092285,"360":1.9635980129241943,"361":1.6485973596572876,"362":-0.02617853879928589,"363":0.889305830001831,"364":0.03762562572956085,"365":-1.6914010047912598,"366":-0.08230265974998474,"367":1.738602638244629,"368":1.3512377738952637,"369":-1.0799579620361328,"370":0.5788304805755615,"371":-4.323515892028809,"372":1.5475294589996338,"373":-0.4252732992172241,"374":-0.9648410677909851,"375":-1.8613126277923584,"376":-1.9277125597000122,"377":-0.16588838398456573,"378":-0.8195134401321411,"379":5.464892864227295,"380":2.892122268676758,"381":1.9035032987594604,"382":0.36027729511260986,"383":1.6596928834915161,"384":1.266632080078125,"385":0.7389147281646729,"386":-1.1095402240753174,"387":1.3536347150802612,"388":2.8618810176849365,"389":0.22627291083335876,"390":5.194261074066162,"391":-0.21035824716091156,"392":2.1869144439697266,"393":-1.6316384077072144,"394":-3.866884231567383,"395":-2.3525142669677734,"396":1.4807640314102173,"397":0.004345917142927647,"398":-0.7285830974578857,"399":5.300300121307373}},"outputBias":{"rows":20,"columns":1,"weights":{"0":2.1611573696136475,"1":-0.6129382252693176,"2":1.4116657972335815,"3":-1.9831775426864624,"4":-0.055678755044937134,"5":3.208620071411133,"6":0.5084855556488037,"7":-0.5508368611335754,"8":-1.2366276979446411,"9":1.7591023445129395,"10":1.2794039249420166,"11":0.34599804878234863,"12":-1.9117337465286255,"13":-0.28668609261512756,"14":1.4953343868255615,"15":0.2805793285369873,"16":0.06255225092172623,"17":0.6919457316398621,"18":0.07383062690496445,"19":0.3821030557155609}},"cellActivationMatrix":{"rows":20,"columns":13,"weights":{"0":0.28261080384254456,"1":0.30703553557395935,"2":0.014395813457667828,"3":-0.381097674369812,"4":-0.0919312909245491,"5":0.911917507648468,"6":-0.40622714161872864,"7":0.3316187560558319,"8":0.027613818645477295,"9":-0.4962903559207916,"10":-0.20853054523468018,"11":0.30335733294487,"12":-0.5745087265968323,"13":0.34847214818000793,"14":-0.5186163187026978,"15":0.4528636932373047,"16":-0.7479106783866882,"17":0.07317212224006653,"18":0.43458423018455505,"19":0.08866257220506668,"20":0.52193683385849,"21":1.1304184198379517,"22":1.8393398523330688,"23":-0.6317166686058044,"24":0.0025124023668468,"25":-0.6250569224357605,"26":-2.149564504623413,"27":0.602621853351593,"28":0.14572696387767792,"29":1.3175500631332397,"30":0.543103039264679,"31":-0.2224106341600418,"32":-0.2545701861381531,"33":0.22647595405578613,"34":-1.3522050380706787,"35":-1.9878480434417725,"36":-0.257537305355072,"37":0.8991144299507141,"38":0.1809210181236267,"39":-0.16630566120147705,"40":-0.1306460052728653,"41":-0.5406602621078491,"42":0.712070643901825,"43":0.8841441869735718,"44":0.249207004904747,"45":0.6727393269538879,"46":0.2633015215396881,"47":1.183647871017456,"48":-0.26401469111442566,"49":-0.39374861121177673,"50":1.4418343305587769,"51":-0.9424048066139221,"52":-0.39656856656074524,"53":0.8217270970344543,"54":0.1647338718175888,"55":-0.44203609228134155,"56":1.0512170791625977,"57":0.5899678468704224,"58":-0.12211061269044876,"59":0.5157632231712341,"60":0.7178489565849304,"61":0.026201270520687103,"62":0.19536663591861725,"63":-0.2811295688152313,"64":0.17526213824748993,"65":-0.8068251609802246,"66":-0.4129728376865387,"67":-0.7583163380622864,"68":0.7615202069282532,"69":-0.5762783288955688,"70":-0.06005549058318138,"71":-0.22140870988368988,"72":1.0754364728927612,"73":-0.5150853991508484,"74":-1.3954511880874634,"75":-2.7511322498321533,"76":0.9839009642601013,"77":-0.2666585445404053,"78":-0.36169350147247314,"79":0.49505195021629333,"80":-0.05473652854561806,"81":0.42652130126953125,"82":-0.12101248651742935,"83":1.1747314929962158,"84":-0.7272394299507141,"85":-0.9562599062919617,"86":0.455925315618515,"87":0.12522290647029877,"88":0.7786889672279358,"89":-2.063969373703003,"90":2.2347915172576904,"91":-0.6808344125747681,"92":-0.5753051042556763,"93":0.7374666929244995,"94":-0.5938312411308289,"95":-0.5982871651649475,"96":-0.4556049406528473,"97":1.5438055992126465,"98":0.007372820749878883,"99":-0.2742849290370941,"100":-0.27797189354896545,"101":-0.7208589315414429,"102":0.09383824467658997,"103":0.29018640518188477,"104":-0.09828200191259384,"105":-0.5053533911705017,"106":1.1483091115951538,"107":0.767021894454956,"108":0.4209585189819336,"109":1.3279244899749756,"110":0.8231937289237976,"111":1.1491343975067139,"112":-0.02970607951283455,"113":0.14668451249599457,"114":-1.9620412588119507,"115":1.9351041316986084,"116":-0.20314253866672516,"117":0.41449862718582153,"118":-0.2644273340702057,"119":0.7235075831413269,"120":0.37448540329933167,"121":0.4647085964679718,"122":-1.4843164682388306,"123":0.7195197939872742,"124":-1.0928053855895996,"125":-0.1226162314414978,"126":-0.18411137163639069,"127":0.5336139798164368,"128":0.49995189905166626,"129":2.0250179767608643,"130":0.22579416632652283,"131":-0.0012562965275719762,"132":0.2290380895137787,"133":-0.3639659881591797,"134":-0.10997721552848816,"135":0.2123716175556183,"136":-0.1691673994064331,"137":-0.19343192875385284,"138":0.1474807858467102,"139":0.29776501655578613,"140":-0.3565885126590729,"141":0.5338529348373413,"142":-0.24980473518371582,"143":0.5420525074005127,"144":0.4835391640663147,"145":-0.18850533664226532,"146":0.00033183899358846247,"147":0.42206645011901855,"148":-0.40503883361816406,"149":0.5295396447181702,"150":0.5452155470848083,"151":-0.08013651520013809,"152":0.0775902047753334,"153":1.4392305612564087,"154":-0.9334820508956909,"155":1.6116653680801392,"156":-0.5722741484642029,"157":0.3915233314037323,"158":-0.6882464289665222,"159":-0.07729081809520721,"160":-0.34251150488853455,"161":0.010837064124643803,"162":-0.558074414730072,"163":-1.120206356048584,"164":0.15554115176200867,"165":-0.6177929043769836,"166":-0.4825517535209656,"167":0.3321242928504944,"168":-0.5664451122283936,"169":0.5665720701217651,"170":0.2400633543729782,"171":-0.19419485330581665,"172":-1.1747928857803345,"173":-0.36605435609817505,"174":0.03174383565783501,"175":0.12766416370868683,"176":0.16173116862773895,"177":0.8438116312026978,"178":0.3162088394165039,"179":-0.16457484662532806,"180":-1.4194796085357666,"181":0.332777738571167,"182":-0.6610180139541626,"183":0.03349268436431885,"184":0.3137414753437042,"185":-0.017578506842255592,"186":-0.5744449496269226,"187":2.8610482215881348,"188":-1.911099910736084,"189":-0.8617136478424072,"190":-0.3969407081604004,"191":1.1210050582885742,"192":-1.5158783197402954,"193":-2.109571695327759,"194":-0.3435721695423126,"195":-0.7933892607688904,"196":0.28722086548805237,"197":0.3608449399471283,"198":0.43049877882003784,"199":-0.46281513571739197,"200":0.48605287075042725,"201":-0.3916013538837433,"202":0.5376679301261902,"203":-0.24833033978939056,"204":-0.5601917505264282,"205":0.2201075553894043,"206":-0.34219229221343994,"207":0.2423190176486969,"208":-1.4535410404205322,"209":0.5451875925064087,"210":0.3255266547203064,"211":0.31292271614074707,"212":-0.09316852688789368,"213":-0.1857336461544037,"214":-0.2677125930786133,"215":-0.25616705417633057,"216":-1.105255365371704,"217":-0.9655330777168274,"218":-0.46404340863227844,"219":0.3028332591056824,"220":0.19867576658725739,"221":0.7826125025749207,"222":0.30542269349098206,"223":-1.2654204368591309,"224":-0.5366185307502747,"225":-0.9266266226768494,"226":0.051306676119565964,"227":0.15471796691417694,"228":-0.08391072601079941,"229":2.05598783493042,"230":2.9275383949279785,"231":-0.12387426942586899,"232":-1.0339667797088623,"233":0.6840404868125916,"234":-1.173458218574524,"235":-1.2164461612701416,"236":-0.6247789859771729,"237":1.1129366159439087,"238":-1.2248311042785645,"239":1.09529447555542,"240":-1.283915400505066,"241":0.4580860733985901,"242":-1.598023772239685,"243":-2.6892683506011963,"244":1.3484902381896973,"245":-0.2441871464252472,"246":0.9092807769775391,"247":0.1881050020456314,"248":-0.595798671245575,"249":-0.20573870837688446,"250":0.7906835079193115,"251":0.07955113798379898,"252":-1.4439104795455933,"253":-0.7768182158470154,"254":0.1779712736606598,"255":0.4986565113067627,"256":0.09349755197763443,"257":-0.006747230887413025,"258":0.6546719074249268,"259":-0.8865442872047424}},"cellActivationHidden":{"rows":20,"columns":20,"weights":{"0":1.6978152990341187,"1":0.12885814905166626,"2":2.4997119903564453,"3":-0.8436858057975769,"4":2.70367169380188,"5":3.443254232406616,"6":-1.1220792531967163,"7":-2.731142044067383,"8":-1.119752287864685,"9":-1.6062202453613281,"10":0.3373340964317322,"11":-3.2373595237731934,"12":3.7689640522003174,"13":-1.9468122720718384,"14":-0.22551435232162476,"15":-1.1364989280700684,"16":1.4735288619995117,"17":-3.226322650909424,"18":0.04845452308654785,"19":-0.5124362707138062,"20":0.329293429851532,"21":-1.7225077152252197,"22":1.173425316810608,"23":2.5900163650512695,"24":1.3743494749069214,"25":0.24772387742996216,"26":-2.272683620452881,"27":-0.787189245223999,"28":-1.777239441871643,"29":-0.07620979845523834,"30":0.5498949289321899,"31":1.2389788627624512,"32":0.1564076840877533,"33":-1.653433084487915,"34":-0.27081653475761414,"35":-0.0007163379341363907,"36":0.6167314052581787,"37":-0.6686450242996216,"38":1.008283019065857,"39":1.446847915649414,"40":0.4781864881515503,"41":2.7292368412017822,"42":-1.695774793624878,"43":0.6441683173179626,"44":-0.4044397175312042,"45":-2.08042049407959,"46":-0.09197965264320374,"47":0.8752015829086304,"48":1.2549161911010742,"49":1.914245367050171,"50":-0.8247288465499878,"51":2.8404436111450195,"52":0.3482455909252167,"53":0.28012362122535706,"54":0.2864796221256256,"55":0.6421319842338562,"56":-0.8736071586608887,"57":0.5732253789901733,"58":-1.4306626319885254,"59":1.7443621158599854,"60":-0.29796290397644043,"61":0.8168045878410339,"62":0.6970841288566589,"63":2.748746156692505,"64":0.7542706727981567,"65":2.070828437805176,"66":-1.0375432968139648,"67":2.6906566619873047,"68":1.272952914237976,"69":0.3194817304611206,"70":0.8851960897445679,"71":0.0339791476726532,"72":-0.1153130754828453,"73":-0.9008731842041016,"74":0.2737564444541931,"75":-1.2082241773605347,"76":2.1746370792388916,"77":-1.2333850860595703,"78":-0.41774722933769226,"79":0.5678372979164124,"80":3.1437244415283203,"81":0.9891444444656372,"82":-0.3101590573787689,"83":1.3250486850738525,"84":-3.8174424171447754,"85":1.467347264289856,"86":-1.4594414234161377,"87":-0.38371822237968445,"88":1.6550865173339844,"89":-1.3895360231399536,"90":2.2346551418304443,"91":-2.5504138469696045,"92":1.8428874015808105,"93":0.23366950452327728,"94":-2.8349945545196533,"95":-1.0149188041687012,"96":0.5399624705314636,"97":1.037543773651123,"98":-1.1189165115356445,"99":1.1835254430770874,"100":0.25260186195373535,"101":1.0975474119186401,"102":-0.3144204914569855,"103":-4.002896785736084,"104":0.16566313803195953,"105":0.012374503538012505,"106":1.522009253501892,"107":1.024061918258667,"108":1.6895915269851685,"109":0.5312042236328125,"110":-0.12890569865703583,"111":0.3752877116203308,"112":-0.9642525911331177,"113":0.8771269917488098,"114":-0.23807507753372192,"115":1.5145244598388672,"116":-0.9780917763710022,"117":0.3857143521308899,"118":-0.7691905498504639,"119":-2.0758328437805176,"120":1.2891900539398193,"121":0.019807118922472,"122":-1.407496452331543,"123":0.1947723925113678,"124":-2.011038303375244,"125":-0.8387550711631775,"126":0.9566648602485657,"127":-0.6798954606056213,"128":0.23853324353694916,"129":-0.9734330177307129,"130":0.525640606880188,"131":-2.9488754272460938,"132":0.3549024760723114,"133":1.0983631610870361,"134":-0.6871751546859741,"135":0.16637654602527618,"136":-1.7542883157730103,"137":0.016091251745820045,"138":-0.0028710037004202604,"139":0.07225906103849411,"140":0.8125092387199402,"141":0.34645384550094604,"142":-2.793654680252075,"143":-1.182636022567749,"144":-0.17847684025764465,"145":3.3028135299682617,"146":0.10753408074378967,"147":-0.4688543677330017,"148":2.7213356494903564,"149":-1.4183695316314697,"150":3.9112119674682617,"151":-4.3429388999938965,"152":1.0577257871627808,"153":-0.3904901146888733,"154":-0.6155494451522827,"155":-0.8627335429191589,"156":1.2252699136734009,"157":-0.13988161087036133,"158":-1.9550703763961792,"159":-0.8958337306976318,"160":-0.03620811551809311,"161":-1.4791637659072876,"162":0.6765786409378052,"163":2.571385383605957,"164":-0.7021294832229614,"165":2.340822696685791,"166":-1.7478930950164795,"167":0.9382897019386292,"168":-1.4190696477890015,"169":-1.1841548681259155,"170":0.7911513447761536,"171":-1.77306067943573,"172":-2.157437562942505,"173":-1.354575753211975,"174":1.0541856288909912,"175":-2.9739840030670166,"176":0.6546307802200317,"177":-1.5213887691497803,"178":-2.196023941040039,"179":-0.6328791379928589,"180":3.683928966522217,"181":-1.2988792657852173,"182":0.3211968243122101,"183":0.7569031119346619,"184":-1.1782760620117188,"185":-1.9902453422546387,"186":-1.1019439697265625,"187":1.3001025915145874,"188":-0.5267570614814758,"189":-1.0742924213409424,"190":1.3047574758529663,"191":1.3873088359832764,"192":-1.99313485622406,"193":-1.3988771438598633,"194":-2.154649257659912,"195":-2.247213840484619,"196":-1.3337769508361816,"197":0.40373748540878296,"198":0.27937719225883484,"199":3.078441858291626,"200":1.9403231143951416,"201":-0.45989954471588135,"202":3.0328826904296875,"203":1.9282939434051514,"204":-3.7145800590515137,"205":2.919940233230591,"206":-2.0055105686187744,"207":-0.2559591829776764,"208":1.6223961114883423,"209":-3.942793369293213,"210":1.8987706899642944,"211":-2.915666341781616,"212":2.3587374687194824,"213":-1.5007048845291138,"214":-3.5618324279785156,"215":0.22649070620536804,"216":3.1718711853027344,"217":-1.116003155708313,"218":-1.6707948446273804,"219":-0.2563934624195099,"220":3.5331404209136963,"221":-0.1360517293214798,"222":-1.96193528175354,"223":0.30612531304359436,"224":-0.15048865973949432,"225":-0.7744230031967163,"226":-0.9881585240364075,"227":1.6101452112197876,"228":-0.8442255258560181,"229":-0.05052964389324188,"230":2.616569995880127,"231":1.9239439964294434,"232":1.5358622074127197,"233":-0.8053009510040283,"234":-2.5821659564971924,"235":-1.1004551649093628,"236":-1.3932982683181763,"237":-0.2399265170097351,"238":1.4504709243774414,"239":2.164450168609619,"240":-0.31963545083999634,"241":1.7140402793884277,"242":1.7797973155975342,"243":0.27699029445648193,"244":-2.1864020824432373,"245":4.9900336265563965,"246":-1.0658787488937378,"247":-1.4316704273223877,"248":0.2922142446041107,"249":-1.007081151008606,"250":-0.15486310422420502,"251":-1.8104631900787354,"252":1.8385052680969238,"253":-0.46354058384895325,"254":-0.610950231552124,"255":-0.5406534075737,"256":2.4116899967193604,"257":-3.0336766242980957,"258":-0.7568218111991882,"259":-1.9434001445770264,"260":1.7731361389160156,"261":-1.4623008966445923,"262":-0.10132558643817902,"263":-0.7524945139884949,"264":0.35205718874931335,"265":1.3846378326416016,"266":1.0055692195892334,"267":-0.6129603981971741,"268":-1.81929349899292,"269":-0.9969042539596558,"270":1.202215313911438,"271":-0.33143460750579834,"272":-0.41718876361846924,"273":1.1613523960113525,"274":-1.203467845916748,"275":-0.04712003469467163,"276":0.31010353565216064,"277":-0.10285783559083939,"278":0.9334651827812195,"279":-1.7053149938583374,"280":-0.3721238672733307,"281":-0.14273327589035034,"282":-1.9889748096466064,"283":0.11785633862018585,"284":-1.6942049264907837,"285":-0.7065139412879944,"286":1.1599897146224976,"287":0.18478256464004517,"288":0.25809445977211,"289":-0.7724409699440002,"290":-0.7500928640365601,"291":-1.092995524406433,"292":-1.8276585340499878,"293":1.4312583208084106,"294":-0.08533988147974014,"295":1.2893203496932983,"296":-0.2780531942844391,"297":0.448614239692688,"298":-0.9414621591567993,"299":0.05690833181142807,"300":0.6244099736213684,"301":-3.8947412967681885,"302":4.014952659606934,"303":2.781186819076538,"304":0.23882956802845,"305":0.4659692943096161,"306":-0.05168858543038368,"307":0.18039606511592865,"308":-2.4817190170288086,"309":0.3419005870819092,"310":-0.9872951507568359,"311":3.113159418106079,"312":-1.8748024702072144,"313":0.8544298410415649,"314":-0.5968332886695862,"315":0.8674514889717102,"316":1.0353811979293823,"317":-0.7373824119567871,"318":3.336693525314331,"319":-1.6027235984802246,"320":-0.8460157513618469,"321":2.355297565460205,"322":-1.5519452095031738,"323":-4.631937026977539,"324":-3.5922935009002686,"325":-1.2252919673919678,"326":0.1962946504354477,"327":-0.3941834270954132,"328":2.1790225505828857,"329":-0.651278555393219,"330":0.7136279344558716,"331":-1.8983712196350098,"332":0.27453720569610596,"333":-0.504745602607727,"334":0.1775459200143814,"335":-1.917078971862793,"336":0.10698097199201584,"337":0.7521505951881409,"338":-2.4478018283843994,"339":3.090373992919922,"340":-0.15621154010295868,"341":-2.0323522090911865,"342":0.8307390213012695,"343":-1.140946388244629,"344":1.1346765756607056,"345":2.4990735054016113,"346":-1.2380491495132446,"347":-3.172609329223633,"348":-1.7658302783966064,"349":-0.4815213978290558,"350":2.511012077331543,"351":-2.137800693511963,"352":-0.20439717173576355,"353":-0.9219875931739807,"354":-0.5240114331245422,"355":-0.19932512938976288,"356":0.022195124998688698,"357":-2.401153802871704,"358":-1.008159875869751,"359":0.3699449598789215,"360":-0.2814383804798126,"361":2.6651599407196045,"362":-0.39769741892814636,"363":-1.3035091161727905,"364":-1.4665696620941162,"365":1.4675824642181396,"366":-2.2541797161102295,"367":1.7799665927886963,"368":3.21034836769104,"369":1.4911657571792603,"370":0.3999060392379761,"371":-0.6849138140678406,"372":1.0437299013137817,"373":-0.17210042476654053,"374":-0.2416199892759323,"375":0.41341304779052734,"376":0.10888127982616425,"377":1.510609745979309,"378":-2.549678087234497,"379":0.9548158645629883,"380":-0.4825635552406311,"381":1.2573148012161255,"382":0.7273358702659607,"383":3.7191171646118164,"384":-1.4469860792160034,"385":-0.47534164786338806,"386":-2.136826753616333,"387":0.6140777468681335,"388":2.177487850189209,"389":-1.3336806297302246,"390":2.546152353286743,"391":-2.1125173568725586,"392":2.161114454269409,"393":-1.9360246658325195,"394":-3.1757051944732666,"395":-1.1753684282302856,"396":0.5947127938270569,"397":0.44006797671318054,"398":-0.8860231637954712,"399":3.1899774074554443}},"cellActivationBias":{"rows":20,"columns":1,"weights":{"0":-1.339179515838623,"1":1.0204229354858398,"2":0.222890704870224,"3":0.4441036880016327,"4":1.9715009927749634,"5":-0.14008112251758575,"6":-2.6837284564971924,"7":-0.33049389719963074,"8":0.31336408853530884,"9":1.422221064567566,"10":-0.5733752250671387,"11":-0.4826660752296448,"12":-0.25473231077194214,"13":-0.5836964249610901,"14":1.535860300064087,"15":0.7786213159561157,"16":0.5334088206291199,"17":-0.06437694281339645,"18":-0.24273966252803802,"19":-0.5095144510269165}}}],"outputConnector":{"rows":14,"columns":20,"weights":{"0":-3.072341203689575,"1":-3.3288931846618652,"2":3.7194340229034424,"3":0.885201096534729,"4":2.0688679218292236,"5":3.0202033519744873,"6":3.6407644748687744,"7":-2.375612258911133,"8":-3.187105178833008,"9":4.054385662078857,"10":2.3538246154785156,"11":3.2779674530029297,"12":-2.155255079269409,"13":-2.1741297245025635,"14":1.2497849464416504,"15":0.6730147004127502,"16":0.553800106048584,"17":-3.187678575515747,"18":1.1115353107452393,"19":7.61557149887085,"20":0.09263445436954498,"21":-0.8474428653717041,"22":-4.722479343414307,"23":-6.037642002105713,"24":0.9307453036308289,"25":2.289501905441284,"26":0.9081317186355591,"27":0.7794244885444641,"28":0.28411877155303955,"29":1.0938236713409424,"30":-0.026416465640068054,"31":0.4997399151325226,"32":-0.9357472658157349,"33":2.3945112228393555,"34":0.5805772542953491,"35":-0.5289288759231567,"36":4.538719177246094,"37":-3.7947707176208496,"38":-1.0970685482025146,"39":-2.9131994247436523,"40":-5.404196262359619,"41":-6.155557155609131,"42":4.603033065795898,"43":5.167449474334717,"44":-3.6060335636138916,"45":-1.6844849586486816,"46":-3.478847026824951,"47":-4.160272121429443,"48":-3.848944902420044,"49":-3.4636073112487793,"50":-7.217599868774414,"51":-4.09379243850708,"52":-7.162049770355225,"53":-3.7619752883911133,"54":2.161893129348755,"55":-0.893622875213623,"56":1.4038593769073486,"57":-3.8774962425231934,"58":3.9079649448394775,"59":-3.6090798377990723,"60":1.260457158088684,"61":-10.958365440368652,"62":0.9170088171958923,"63":-1.8827444314956665,"64":4.564803123474121,"65":6.467984676361084,"66":-3.9096758365631104,"67":-2.217559814453125,"68":-4.0470991134643555,"69":-1.4272202253341675,"70":1.841554880142212,"71":-2.4972102642059326,"72":5.026916980743408,"73":-2.9597585201263428,"74":-0.2546359896659851,"75":-3.8134515285491943,"76":3.7633280754089355,"77":-2.740070343017578,"78":4.321297645568848,"79":-1.1305365562438965,"80":0.028428353369235992,"81":0.9089982509613037,"82":-6.033847808837891,"83":-10.23286247253418,"84":-1.2935786247253418,"85":-0.7460676431655884,"86":-2.9535837173461914,"87":-0.0034258407540619373,"88":-0.19536884129047394,"89":0.6543208956718445,"90":-0.1628875583410263,"91":0.24561122059822083,"92":0.23066158592700958,"93":13.037089347839355,"94":0.2335319221019745,"95":-1.8759249448776245,"96":-0.06805320829153061,"97":-7.725359916687012,"98":-0.558024525642395,"99":-0.84104323387146,"100":0.32505425810813904,"101":0.9995690584182739,"102":2.230649709701538,"103":-13.829996109008789,"104":-0.75666344165802,"105":-0.9258105158805847,"106":3.4526355266571045,"107":0.556370735168457,"108":-0.19727085530757904,"109":4.848703861236572,"110":-0.22347204387187958,"111":0.07506918162107468,"112":0.06453990936279297,"113":3.563293933868408,"114":0.421831876039505,"115":-3.083101511001587,"116":3.205866575241089,"117":3.990762948989868,"118":-0.9639203548431396,"119":0.20560520887374878,"120":0.6960176229476929,"121":0.20049874484539032,"122":-1.670088529586792,"123":-6.481998443603516,"124":0.07689204812049866,"125":-0.10875451564788818,"126":5.965512752532959,"127":0.9426133036613464,"128":0.2320258617401123,"129":-5.009342670440674,"130":-0.19528093934059143,"131":0.3104240596294403,"132":-0.7473393678665161,"133":1.8576966524124146,"134":0.18880335986614227,"135":-2.3792872428894043,"136":-3.8693132400512695,"137":2.962625503540039,"138":-1.259031891822815,"139":-2.0327019691467285,"140":0.3448668420314789,"141":-0.17343682050704956,"142":-2.794438123703003,"143":3.2193408012390137,"144":0.30380094051361084,"145":0.6499365568161011,"146":7.251448631286621,"147":1.3575918674468994,"148":0.32446351647377014,"149":-4.495791912078857,"150":0.0955977812409401,"151":0.25654539465904236,"152":-0.9886582493782043,"153":6.627256870269775,"154":0.12812218070030212,"155":-1.0502722263336182,"156":0.9070190191268921,"157":-0.1849793642759323,"158":-1.3959875106811523,"159":-4.1584696769714355,"160":0.32509857416152954,"161":0.09665431827306747,"162":-0.720146119594574,"163":1.1935980319976807,"164":-0.6347801685333252,"165":-0.2984052896499634,"166":9.297882080078125,"167":0.35696640610694885,"168":-0.2384679764509201,"169":2.869931697845459,"170":-0.3658338487148285,"171":0.14775122702121735,"172":0.3033415973186493,"173":8.165143013000488,"174":0.42110326886177063,"175":4.848432540893555,"176":3.4558770656585693,"177":3.988903522491455,"178":-0.7755005359649658,"179":0.6188428997993469,"180":1.412369728088379,"181":-0.7706719636917114,"182":-0.8135018348693848,"183":2.13734769821167,"184":-1.349138855934143,"185":-2.823113203048706,"186":6.310497283935547,"187":-5.093307018280029,"188":2.2995429039001465,"189":-1.0182603597640991,"190":-1.6563247442245483,"191":4.032373428344727,"192":-1.9666343927383423,"193":5.571595668792725,"194":-3.557912826538086,"195":2.7744174003601074,"196":-3.420433521270752,"197":1.5142253637313843,"198":2.644211530685425,"199":1.745766520500183,"200":3.323413848876953,"201":-3.7948882579803467,"202":-3.4197285175323486,"203":0.7002056241035461,"204":4.38877010345459,"205":-2.465514898300171,"206":3.8329784870147705,"207":-0.9350064396858215,"208":0.7574015855789185,"209":-3.0167012214660645,"210":1.7248399257659912,"211":-4.082891941070557,"212":-4.632564544677734,"213":6.323704242706299,"214":-3.2810914516448975,"215":3.4122684001922607,"216":-3.514699697494507,"217":0.5700715780258179,"218":2.423748254776001,"219":1.9979766607284546,"220":3.8835394382476807,"221":-7.542313098907471,"222":1.7701115608215332,"223":-0.4773094058036804,"224":-1.8092530965805054,"225":-1.6994225978851318,"226":4.638887882232666,"227":-0.6284703016281128,"228":-3.790757179260254,"229":-2.4049153327941895,"230":6.297506332397461,"231":-1.5350744724273682,"232":-6.3411030769348145,"233":4.838993549346924,"234":-3.0797977447509766,"235":3.275412082672119,"236":-2.9569644927978516,"237":3.051370143890381,"238":-3.3230679035186768,"239":-1.4572640657424927,"240":4.169253349304199,"241":-6.975013256072998,"242":-0.4669128954410553,"243":-1.194726824760437,"244":-2.874934673309326,"245":-1.0789891481399536,"246":3.8274757862091064,"247":-1.0136220455169678,"248":-2.724597454071045,"249":-1.7976638078689575,"250":0.14146025478839874,"251":-0.9387731552124023,"252":-5.192227363586426,"253":7.778585433959961,"254":-3.8402297496795654,"255":-2.062134027481079,"256":-3.274799108505249,"257":-0.8315624594688416,"258":-4.142730712890625,"259":-4.566059112548828,"260":1.6625593900680542,"261":-8.288982391357422,"262":-1.9236400127410889,"263":-4.164409160614014,"264":0.5781040191650391,"265":6.082498550415039,"266":3.7353756427764893,"267":2.274291515350342,"268":-1.1780973672866821,"269":-1.2000460624694824,"270":3.4765076637268066,"271":0.22110864520072937,"272":-5.4043288230896,"273":4.4253034591674805,"274":-1.6716176271438599,"275":1.7865561246871948,"276":0.41323110461235046,"277":1.1905686855316162,"278":-0.9506848454475403,"279":-4.413209438323975}},"output":{"rows":14,"columns":1,"weights":{"0":-11.669136047363281,"1":0.8999029397964478,"2":-20.711931228637695,"3":-5.256936073303223,"4":-1.1099599599838257,"5":-1.0700175762176514,"6":0.06071958690881729,"7":0.4998769164085388,"8":-0.33605650067329407,"9":-10.30090045928955,"10":-8.62546157836914,"11":-6.566556930541992,"12":-6.3836236000061035,"13":-4.461106777191162}}}