{"type":"LSTM","options":{"inputSize":13,"inputRange":13,"hiddenLayers":[20],"outputSize":13,"decayRate":0.999,"smoothEps":1e-8,"regc":0.000001,"clipval":5,"maxPredictionLength":100,"dataFormatter":{"values":["0+0=0","0+1=1","0+2=2","0+3=3","0+4=4","0+5=5","1+0=1","1+1=2","1+2=3","1+3=4","1+4=5","1+5=6","2+0=2","2+1=3","2+2=4","2+3=5","2+4=6","2+5=7","3+0=3","3+1=4","3+2=5","3+3=6","3+4=7","3+5=8","4+0=4","4+1=5","4+2=6","4+3=7","4+4=8","4+5=9","5+0=5","5+1=6","5+2=7","5+3=8","5+4=9","5+5=10"],"indexTable":{"0":0,"1":3,"2":4,"3":5,"4":6,"5":7,"6":8,"7":9,"8":10,"9":11,"+":1,"=":2,"unrecognized":12},"characterTable":{"0":"0","1":"+","2":"=","3":"1","4":"2","5":"3","6":"4","7":"5","8":"6","9":"7","10":"8","11":"9","12":null},"characters":["0","+","=","1","2","3","4","5","6","7","8","9","unrecognized"],"specialIndexes":[12]}},"input":{"rows":14,"columns":13,"weights":{"0":-1.010582685470581,"1":-1.0332632064819336,"2":0.6850727200508118,"3":-0.7071823477745056,"4":0.44298890233039856,"5":-0.8551631569862366,"6":0.15457068383693695,"7":0.2353505790233612,"8":0.2140834778547287,"9":0.668424665927887,"10":0.08889438211917877,"11":0.45453858375549316,"12":0.7045097947120667,"13":0.9712061285972595,"14":0.4354507029056549,"15":-0.4258062243461609,"16":2.4874520301818848,"17":-0.377148300409317,"18":-1.1923041343688965,"19":1.5983346700668335,"20":-0.4445289075374603,"21":-0.1222517341375351,"22":-2.4468390941619873,"23":0.6035102605819702,"24":-0.31713834404945374,"25":0.05523061752319336,"26":-0.02809971012175083,"27":-0.14349429309368134,"28":-0.6118101477622986,"29":-1.4174413681030273,"30":0.20909850299358368,"31":-1.2804970741271973,"32":-0.3535814881324768,"33":0.15694917738437653,"34":0.1020602136850357,"35":1.3390531539916992,"36":-0.1927868127822876,"37":0.0005491796182468534,"38":0.4463523030281067,"39":0.1834271401166916,"40":0.0924144759774208,"41":-0.07361889630556107,"42":-0.09964492172002792,"43":0.07192188501358032,"44":0.12743490934371948,"45":-0.06434737145900726,"46":-0.20469078421592712,"47":0.37037521600723267,"48":-0.04289352893829346,"49":-0.035405922681093216,"50":-0.09054400771856308,"51":-0.18303640186786652,"52":0.4287455379962921,"53":1.093793511390686,"54":-0.36516764760017395,"55":2.144559383392334,"56":-1.4104485511779785,"57":-1.060853362083435,"58":0.46007081866264343,"59":0.9359102249145508,"60":0.2023472934961319,"61":-1.8797695636749268,"62":1.6072942018508911,"63":0.27334052324295044,"64":-1.497973918914795,"65":-0.41713330149650574,"66":1.4967726469039917,"67":-2.6837258338928223,"68":0.6333761215209961,"69":0.16266319155693054,"70":0.20808324217796326,"71":0.5432240962982178,"72":-0.14235100150108337,"73":0.08130114525556564,"74":-0.5091884136199951,"75":0.8258146047592163,"76":0.0466083362698555,"77":0.11622583866119385,"78":1.3097904920578003,"79":0.9238362908363342,"80":-1.4761804342269897,"81":1.8514769077301025,"82":0.7906331419944763,"83":0.30817365646362305,"84":-0.0546192042529583,"85":0.13093487918376923,"86":-0.036221884191036224,"87":1.2209359407424927,"88":-0.7543730139732361,"89":-0.499911367893219,"90":0.37340956926345825,"91":1.4762414693832397,"92":1.261620044708252,"93":-2.4875919818878174,"94":0.6500073075294495,"95":1.1118969917297363,"96":-0.2079601287841797,"97":-1.7321231365203857,"98":-0.58478844165802,"99":-0.3000546395778656,"100":1.4595451354980469,"101":-1.2751381397247314,"102":1.4136812686920166,"103":-0.8153733611106873,"104":2.6771240234375,"105":0.27515798807144165,"106":-2.290743350982666,"107":0.004589391872286797,"108":1.39583158493042,"109":0.6688729524612427,"110":-1.039918303489685,"111":-0.047537293285131454,"112":0.3180916905403137,"113":0.9439485669136047,"114":-0.854341983795166,"115":0.9122167229652405,"116":-0.08350197970867157,"117":1.710412859916687,"118":2.7572181224823,"119":-2.2947371006011963,"120":0.29000213742256165,"121":-0.312447190284729,"122":0.40720319747924805,"123":-0.8859211206436157,"124":-2.186511516571045,"125":-0.006622660905122757,"126":1.3355672359466553,"127":-0.8765704035758972,"128":0.04007738456130028,"129":-2.061234474182129,"130":2.5902717113494873,"131":1.3366167545318604,"132":-3.140307664871216,"133":1.0410236120224,"134":-1.4415463209152222,"135":0.7218225598335266,"136":0.10160999745130539,"137":-3.7329273223876953,"138":-0.532402753829956,"139":0.27749103307724,"140":-0.7073469161987305,"141":-1.8371164798736572,"142":-0.8138455748558044,"143":2.2087817192077637,"144":1.804383397102356,"145":-2.7665698528289795,"146":1.291876196861267,"147":-0.8230894207954407,"148":0.4669416844844818,"149":-0.035899918526411057,"150":-5.157349109649658,"151":-0.5778508186340332,"152":0.881544828414917,"153":-1.0176995992660522,"154":-3.3628287315368652,"155":-0.05925300717353821,"156":1.5784955024719238,"157":1.5799905061721802,"158":-1.5180307626724243,"159":2.627824068069458,"160":-1.3489630222320557,"161":0.35621872544288635,"162":-1.0233076810836792,"163":-4.421097278594971,"164":-0.6166086196899414,"165":1.7246346473693848,"166":-2.0011720657348633,"167":-2.6639864444732666,"168":-0.09643996506929398,"169":-0.07225684076547623,"170":-0.048378169536590576,"171":-0.04052899777889252,"172":-0.015284096822142601,"173":-0.007158506195992231,"174":0.016067108139395714,"175":-0.06160638853907585,"176":-0.00332656130194664,"177":-0.03431137651205063,"178":-0.031233247369527817,"179":0.05694122239947319,"180":0.017675139009952545,"181":-0.0533912256360054}},"hiddenLayers":[{"inputMatrix":{"rows":20,"columns":13,"weights":{"0":0.8618132472038269,"1":0.8395471572875977,"2":-1.0574402809143066,"3":-0.17559929192066193,"4":-0.04766671359539032,"5":-0.9306064248085022,"6":-1.1126325130462646,"7":0.02347170189023018,"8":0.13973775506019592,"9":1.090732455253601,"10":-1.3525824546813965,"11":-0.1116117313504219,"12":0.1430121660232544,"13":0.019870173186063766,"14":0.3715129494667053,"15":-0.23804880678653717,"16":-0.4094606339931488,"17":-0.39628416299819946,"18":0.285230815410614,"19":0.12134132534265518,"20":0.6264400482177734,"21":-0.2638821005821228,"22":-0.2554659843444824,"23":-0.2738562226295471,"24":-0.936068058013916,"25":0.1720801442861557,"26":0.09529648721218109,"27":-0.3987511098384857,"28":0.17332762479782104,"29":-0.3143634796142578,"30":1.379284143447876,"31":-0.7509695887565613,"32":0.23014964163303375,"33":-0.7918508648872375,"34":0.8416798710823059,"35":0.4518377482891083,"36":0.11865212023258209,"37":-0.3299988806247711,"38":1.1531511545181274,"39":0.41076797246932983,"40":0.7109423875808716,"41":-0.883040189743042,"42":1.0537681579589844,"43":0.14355464279651642,"44":0.7722963094711304,"45":0.27670565247535706,"46":-0.1910533905029297,"47":0.025272004306316376,"48":-0.5493821501731873,"49":-0.18798668682575226,"50":-0.8197019696235657,"51":-0.3528166115283966,"52":0.8762295246124268,"53":-0.24400804936885834,"54":0.4909878075122833,"55":-1.6172537803649902,"56":-1.337268590927124,"57":0.5215761065483093,"58":-1.9311583042144775,"59":1.050757884979248,"60":-1.2212234735488892,"61":0.3390815556049347,"62":-0.8330531716346741,"63":0.27936097979545593,"64":-0.9579126238822937,"65":0.2263319194316864,"66":-1.3247487545013428,"67":0.4219636917114258,"68":-1.3597185611724854,"69":0.10542968660593033,"70":0.9914777278900146,"71":0.050929345190525055,"72":0.4146977365016937,"73":0.7499024271965027,"74":0.0348234586417675,"75":-0.546430230140686,"76":-0.11963018029928207,"77":1.8532503843307495,"78":1.2022712230682373,"79":0.8232758045196533,"80":-1.0782833099365234,"81":-0.10631832480430603,"82":0.025065790861845016,"83":0.15308058261871338,"84":-0.4584427773952484,"85":0.056958574801683426,"86":-0.2958866357803345,"87":0.4750743508338928,"88":-0.5761345624923706,"89":0.17114169895648956,"90":0.06873369961977005,"91":-1.6120659112930298,"92":0.5568393468856812,"93":-1.3973987102508545,"94":-0.4645167291164398,"95":-1.212837815284729,"96":0.40363940596580505,"97":2.440182685852051,"98":0.6811347007751465,"99":0.2854045033454895,"100":-1.7642323970794678,"101":1.8852062225341797,"102":-0.6791293025016785,"103":0.16837455332279205,"104":-0.4696076810359955,"105":0.5158059000968933,"106":-0.03696532920002937,"107":1.4353104829788208,"108":-0.3144751787185669,"109":0.6752402186393738,"110":-0.1368100345134735,"111":0.13899876177310944,"112":-0.6492701172828674,"113":-0.13977161049842834,"114":0.016152415424585342,"115":-0.21167844533920288,"116":-0.4837300181388855,"117":-0.6982806921005249,"118":0.8065219521522522,"119":-1.4191999435424805,"120":-0.6894640326499939,"121":1.0234681367874146,"122":0.08858077228069305,"123":-0.693746030330658,"124":-0.37063679099082947,"125":0.21869619190692902,"126":1.851381778717041,"127":-0.6884390711784363,"128":0.1415340155363083,"129":0.5732513070106506,"130":0.9061151146888733,"131":-0.07618489861488342,"132":-0.19500593841075897,"133":-0.880005955696106,"134":-0.4769233465194702,"135":1.0647457838058472,"136":-1.8012919425964355,"137":0.42321324348449707,"138":-0.05517040938138962,"139":0.3373674750328064,"140":-0.46546080708503723,"141":1.1064293384552002,"142":-0.6857835054397583,"143":-0.42515137791633606,"144":-0.9603989720344543,"145":0.7632216215133667,"146":0.8007373213768005,"147":0.4008273780345917,"148":-0.3705887198448181,"149":0.9593120217323303,"150":-1.3643511533737183,"151":0.709770679473877,"152":-1.562036395072937,"153":0.5201609134674072,"154":-1.0513023138046265,"155":0.26992878317832947,"156":0.38922634720802307,"157":1.058790683746338,"158":-0.7834702730178833,"159":2.093954086303711,"160":0.9123350381851196,"161":-0.09009864926338196,"162":0.008837318979203701,"163":-0.6045626401901245,"164":0.5618016719818115,"165":-0.1444893181324005,"166":0.3998214900493622,"167":-0.09968659281730652,"168":-1.8849880695343018,"169":1.246119737625122,"170":-0.027272609993815422,"171":-0.7423664331436157,"172":-0.5499237179756165,"173":-0.019191602244973183,"174":0.667589008808136,"175":-0.5446299314498901,"176":0.14282113313674927,"177":0.021807944402098656,"178":-0.08362472057342529,"179":-0.35542306303977966,"180":-0.21068359911441803,"181":0.2272634655237198,"182":0.22384069859981537,"183":-0.7392408847808838,"184":0.5130377411842346,"185":-0.8260509371757507,"186":0.346164345741272,"187":0.8026787042617798,"188":0.41172337532043457,"189":-0.9210128784179688,"190":0.7321256995201111,"191":-0.17689716815948486,"192":-0.10440937429666519,"193":0.3836100399494171,"194":0.6169515252113342,"195":0.9161933660507202,"196":1.8327277898788452,"197":-0.5595417022705078,"198":1.4928219318389893,"199":-0.5552412271499634,"200":-0.09864229708909988,"201":-0.47265124320983887,"202":-0.3136560320854187,"203":0.5450942516326904,"204":-0.08189019560813904,"205":-0.32255926728248596,"206":-0.6692420244216919,"207":-1.8629647493362427,"208":0.4944123923778534,"209":1.4638400077819824,"210":-0.8301370143890381,"211":1.2443989515304565,"212":1.101108193397522,"213":-0.5629156827926636,"214":-0.06679936498403549,"215":-1.5293225049972534,"216":1.5626493692398071,"217":-0.1446276605129242,"218":-0.22954359650611877,"219":-0.26094192266464233,"220":-1.0277023315429688,"221":-0.07359404116868973,"222":-0.17863456904888153,"223":0.1116756871342659,"224":0.9937861561775208,"225":-0.22273796796798706,"226":0.27875572443008423,"227":0.4867249131202698,"228":-1.236991286277771,"229":-0.36488762497901917,"230":-0.014897443354129791,"231":0.3980165123939514,"232":-0.1526944637298584,"233":-0.20252227783203125,"234":0.20270800590515137,"235":0.02764197252690792,"236":-0.22229696810245514,"237":0.03825971856713295,"238":0.035639867186546326,"239":0.26029565930366516,"240":-0.6035634279251099,"241":0.6561927199363708,"242":0.37386617064476013,"243":0.5139395594596863,"244":-0.18993346393108368,"245":-0.3566415011882782,"246":-0.21537303924560547,"247":-0.2671593427658081,"248":1.6422498226165771,"249":-0.894561231136322,"250":1.6534528732299805,"251":-0.21921704709529877,"252":-1.77671480178833,"253":0.7452148795127869,"254":0.012012692168354988,"255":-1.1247886419296265,"256":-0.15020975470542908,"257":0.5749927759170532,"258":-0.9524913430213928,"259":-0.8705196380615234}},"inputHidden":{"rows":20,"columns":20,"weights":{"0":-0.5929867029190063,"1":3.434427499771118,"2":-1.4520089626312256,"3":0.9877421855926514,"4":0.1322944611310959,"5":0.037460725754499435,"6":1.3283312320709229,"7":-1.7502444982528687,"8":-3.5579304695129395,"9":2.010011672973633,"10":-0.32674646377563477,"11":2.8953869342803955,"12":-1.132415771484375,"13":1.3048608303070068,"14":0.6301438212394714,"15":1.259556531906128,"16":0.8076534271240234,"17":1.604116678237915,"18":-0.14640077948570251,"19":-0.8329727649688721,"20":-0.4169081747531891,"21":1.5610567331314087,"22":0.9770606756210327,"23":0.9569977521896362,"24":-1.0107409954071045,"25":-3.414616107940674,"26":0.9055050015449524,"27":-1.5109010934829712,"28":-1.657433032989502,"29":4.4684624671936035,"30":1.266039490699768,"31":-1.0677164793014526,"32":-1.4483234882354736,"33":1.139952301979065,"34":-0.9775404930114746,"35":1.326380729675293,"36":1.1532303094863892,"37":1.290741205215454,"38":-0.2095406949520111,"39":-1.4347294569015503,"40":0.40552395582199097,"41":-0.5740295052528381,"42":0.025437040254473686,"43":-0.3331380784511566,"44":0.9270413517951965,"45":-2.4842023849487305,"46":4.003102779388428,"47":-0.6273221969604492,"48":-0.9847227931022644,"49":-1.2424911260604858,"50":0.07338867336511612,"51":2.225512742996216,"52":0.07547836750745773,"53":-0.11818742007017136,"54":0.4443151354789734,"55":0.09327864646911621,"56":0.382047176361084,"57":1.0178946256637573,"58":-0.15566577017307281,"59":-1.0305639505386353,"60":-1.3438985347747803,"61":3.217538833618164,"62":-1.6698329448699951,"63":-1.9769153594970703,"64":0.5611933469772339,"65":-0.7823919653892517,"66":2.6828954219818115,"67":-0.05388368293642998,"68":-1.6086082458496094,"69":0.7659374475479126,"70":0.7204963564872742,"71":0.6409856677055359,"72":0.4186292588710785,"73":-0.0691189095377922,"74":0.16589343547821045,"75":1.209458827972412,"76":-1.4130226373672485,"77":1.4199059009552002,"78":0.581587553024292,"79":0.03275686874985695,"80":2.601752758026123,"81":-1.668731451034546,"82":0.4595909118652344,"83":0.11291249096393585,"84":0.6423497200012207,"85":-4.477206230163574,"86":1.2191766500473022,"87":-0.9959304928779602,"88":-1.1371333599090576,"89":-0.42464131116867065,"90":-0.06638389080762863,"91":0.040398970246315,"92":-1.7447928190231323,"93":3.3952977657318115,"94":1.3214129209518433,"95":2.874084711074829,"96":2.4497549533843994,"97":1.9219191074371338,"98":1.8736106157302856,"99":-0.842437744140625,"100":3.137200117111206,"101":-1.7102673053741455,"102":0.9537451267242432,"103":-1.1610479354858398,"104":3.1183040142059326,"105":-2.6534810066223145,"106":0.16460029780864716,"107":2.2109568119049072,"108":1.2090927362442017,"109":-1.9240113496780396,"110":-0.7924006581306458,"111":1.4689267873764038,"112":0.2298639416694641,"113":-1.601815104484558,"114":1.1817749738693237,"115":-0.04060553386807442,"116":-1.0293577909469604,"117":0.09881425648927689,"118":-0.8143644332885742,"119":-0.015073503367602825,"120":-2.8948371410369873,"121":2.2255172729492188,"122":-1.0864050388336182,"123":-2.0062034130096436,"124":0.7573036551475525,"125":1.9376033544540405,"126":0.8142963647842407,"127":1.0987735986709595,"128":0.24767807126045227,"129":-2.2081339359283447,"130":-0.536923885345459,"131":-0.8886232376098633,"132":-0.36989447474479675,"133":-1.3425213098526,"134":-0.8987237215042114,"135":0.6300632357597351,"136":-6.700992107391357,"137":0.8847896456718445,"138":0.10972383618354797,"139":0.3041858375072479,"140":2.2968523502349854,"141":-2.7670109272003174,"142":-2.0077714920043945,"143":-1.198085069656372,"144":-0.7750110626220703,"145":0.6436983346939087,"146":0.3633714020252228,"147":0.47871556878089905,"148":1.5465861558914185,"149":-3.8023104667663574,"150":-2.216593027114868,"151":1.4534962177276611,"152":0.11515988409519196,"153":-2.830406904220581,"154":0.7214491963386536,"155":-1.6301010847091675,"156":-1.4437867403030396,"157":-2.1583926677703857,"158":-0.694647490978241,"159":0.8829305768013,"160":-0.6314348578453064,"161":1.8357720375061035,"162":-0.4111858308315277,"163":-0.5547235608100891,"164":1.059494972229004,"165":-2.077277898788452,"166":0.9145113229751587,"167":0.8255869150161743,"168":-0.2200155258178711,"169":3.604048490524292,"170":1.6882586479187012,"171":-0.058487024158239365,"172":-0.6515744924545288,"173":1.0818372964859009,"174":1.2358299493789673,"175":0.7596755623817444,"176":-0.15364816784858704,"177":0.6700009703636169,"178":1.497755527496338,"179":-1.1631200313568115,"180":-0.7695006132125854,"181":1.2559709548950195,"182":-0.7476542592048645,"183":0.850346565246582,"184":-1.7119908332824707,"185":2.5585777759552,"186":2.4622304439544678,"187":-1.3382399082183838,"188":-2.2370641231536865,"189":2.455467462539673,"190":1.472487211227417,"191":-0.14510586857795715,"192":-0.17807890474796295,"193":1.0981371402740479,"194":0.6528668999671936,"195":0.4134509563446045,"196":0.5318112969398499,"197":1.052725911140442,"198":-0.173048198223114,"199":-0.768840491771698,"200":-1.4974346160888672,"201":-1.2164664268493652,"202":-0.7781462669372559,"203":-0.5786691308021545,"204":-1.2519235610961914,"205":4.6460113525390625,"206":-0.19318102300167084,"207":-1.9576923847198486,"208":0.6418042182922363,"209":-2.8934850692749023,"210":0.09260910749435425,"211":0.2276163399219513,"212":0.5544544458389282,"213":-2.766500234603882,"214":-1.2323558330535889,"215":-1.509172797203064,"216":-0.5799953937530518,"217":-1.8255083560943604,"218":-0.8853201270103455,"219":-0.916408360004425,"220":0.4026339054107666,"221":-1.8587756156921387,"222":-0.5067679286003113,"223":0.2473471760749817,"224":-0.17584459483623505,"225":1.0107686519622803,"226":-1.0385199785232544,"227":0.3504182696342468,"228":1.1300655603408813,"229":-2.250521659851074,"230":0.7485690116882324,"231":-0.058981895446777344,"232":1.4362882375717163,"233":0.6108641624450684,"234":0.05488113313913345,"235":-1.0090044736862183,"236":-0.04467986896634102,"237":-1.0065665245056152,"238":0.8523246049880981,"239":1.1699914932250977,"240":-2.0914723873138428,"241":0.31044018268585205,"242":-0.5309869050979614,"243":-0.2882160246372223,"244":-0.6178216934204102,"245":0.29414403438568115,"246":1.945361614227295,"247":-0.8122349381446838,"248":-0.14674702286720276,"249":1.7950024604797363,"250":1.2350823879241943,"251":2.2740135192871094,"252":1.1774232387542725,"253":0.45680806040763855,"254":0.14452879130840302,"255":-0.614340603351593,"256":0.06241584196686745,"257":-0.5025784373283386,"258":1.0462225675582886,"259":0.031447749584913254,"260":0.5231905579566956,"261":-1.9360977411270142,"262":-1.6173985004425049,"263":-2.7159924507141113,"264":0.47072526812553406,"265":2.2952730655670166,"266":2.1485304832458496,"267":-2.26196026802063,"268":0.8973665833473206,"269":-5.13934326171875,"270":-1.0230451822280884,"271":1.76407790184021,"272":0.57969731092453,"273":-3.79460072517395,"274":0.7153482437133789,"275":0.6151043176651001,"276":-2.7351229190826416,"277":0.2596234083175659,"278":-3.3927760124206543,"279":0.10799209773540497,"280":0.3887811601161957,"281":-3.100531816482544,"282":-0.25596728920936584,"283":-0.7020899653434753,"284":0.43945589661598206,"285":1.0611544847488403,"286":-0.6265053153038025,"287":1.4470652341842651,"288":2.623574733734131,"289":-0.7804223895072937,"290":0.130034402012825,"291":-0.5244733095169067,"292":-0.1296640783548355,"293":-1.3281008005142212,"294":-1.6257359981536865,"295":-2.408207654953003,"296":-0.1343337744474411,"297":-2.2192070484161377,"298":-0.4285339117050171,"299":0.6307257413864136,"300":-2.6611123085021973,"301":1.4801042079925537,"302":-0.7396901249885559,"303":-0.9353545308113098,"304":-0.737747848033905,"305":0.09197573363780975,"306":-1.34034264087677,"307":2.657254219055176,"308":-0.19843830168247223,"309":3.337993621826172,"310":0.13935881853103638,"311":-1.6777236461639404,"312":1.6749218702316284,"313":0.38315898180007935,"314":0.5935537815093994,"315":-0.5536983013153076,"316":0.11175832897424698,"317":-0.35989341139793396,"318":5.498917579650879,"319":0.9091114401817322,"320":-2.175492525100708,"321":0.6444647908210754,"322":-2.9771807193756104,"323":-2.3445541858673096,"324":-1.2321213483810425,"325":1.5202369689941406,"326":1.3398076295852661,"327":0.1647990345954895,"328":0.1641756147146225,"329":1.486383080482483,"330":0.06004184111952782,"331":0.5239567160606384,"332":-0.017306530848145485,"333":-1.211415410041809,"334":-2.7296628952026367,"335":-0.7500765323638916,"336":-0.36688414216041565,"337":-0.7590078115463257,"338":0.3456386923789978,"339":-0.6669127941131592,"340":-2.2386722564697266,"341":1.4977158308029175,"342":-1.1032482385635376,"343":0.41044726967811584,"344":0.9388116002082825,"345":0.23142939805984497,"346":1.2013704776763916,"347":-1.636077880859375,"348":0.17847035825252533,"349":2.769625663757324,"350":-1.8401732444763184,"351":1.6181645393371582,"352":0.42548447847366333,"353":-1.1619733572006226,"354":0.35766834020614624,"355":-0.8268362879753113,"356":0.7710233926773071,"357":-1.5406086444854736,"358":0.9140920042991638,"359":1.117833137512207,"360":-1.2360535860061646,"361":0.5265500545501709,"362":-2.36702561378479,"363":-1.0223463773727417,"364":-3.1744446754455566,"365":4.925539493560791,"366":-1.0679970979690552,"367":-1.9847357273101807,"368":2.0482678413391113,"369":-1.074010968208313,"370":1.8962775468826294,"371":0.39081043004989624,"372":0.4216375946998596,"373":-3.668118715286255,"374":-0.40734952688217163,"375":-0.71088707447052,"376":-5.893118858337402,"377":-0.2989676296710968,"378":-2.6389472484588623,"379":0.10263905674219131,"380":-0.5520268082618713,"381":-0.7457640767097473,"382":-0.04426705837249756,"383":1.7938836812973022,"384":-0.39026522636413574,"385":-1.9310369491577148,"386":2.116907835006714,"387":0.4859427511692047,"388":0.14257563650608063,"389":0.9056478142738342,"390":-1.175891399383545,"391":0.06981364637613297,"392":0.22424344718456268,"393":1.3523296117782593,"394":0.19275692105293274,"395":-1.6684833765029907,"396":1.9151982069015503,"397":-1.980541706085205,"398":1.486559271812439,"399":-0.7165842652320862}},"inputBias":{"rows":20,"columns":1,"weights":{"0":-1.5997614860534668,"1":-1.6877881288528442,"2":0.8136204481124878,"3":0.7423883080482483,"4":-0.7114400863647461,"5":-0.9072794914245605,"6":-0.6320732235908508,"7":-1.4579863548278809,"8":-0.2567290961742401,"9":-0.8879056572914124,"10":-0.8748501539230347,"11":-0.20314325392246246,"12":-0.15472790598869324,"13":-0.6062383055686951,"14":-0.3810989558696747,"15":-0.8177993893623352,"16":-0.7632861137390137,"17":0.05170642212033272,"18":-0.594681441783905,"19":-0.6976990103721619}},"forgetMatrix":{"rows":20,"columns":13,"weights":{"0":-1.0499173402786255,"1":-0.9917191863059998,"2":1.381540060043335,"3":0.2609642744064331,"4":0.2007528841495514,"5":0.9992537498474121,"6":0.6482297778129578,"7":-0.6973187923431396,"8":-0.11039469391107559,"9":-1.0579060316085815,"10":0.762762725353241,"11":0.06053781509399414,"12":-0.05746738240122795,"13":-0.5252931714057922,"14":0.24979551136493683,"15":-0.1991194188594818,"16":1.3505607843399048,"17":1.1032836437225342,"18":-0.39061835408210754,"19":0.8309344053268433,"20":-0.9804200530052185,"21":0.131730854511261,"22":-0.5378533005714417,"23":0.2580729126930237,"24":-0.4204542338848114,"25":-0.37451642751693726,"26":0.5139389634132385,"27":-0.36883628368377686,"28":0.037879519164562225,"29":-0.9480889439582825,"30":-0.3522425591945648,"31":0.3006289303302765,"32":-1.4183505773544312,"33":0.45697346329689026,"34":-0.4310251474380493,"35":0.9955194592475891,"36":-0.7872836589813232,"37":1.2371702194213867,"38":0.2922830581665039,"39":-0.9504111409187317,"40":-0.3727719187736511,"41":1.0328197479248047,"42":0.024599891155958176,"43":0.18898320198059082,"44":0.4250508248806,"45":0.6884405016899109,"46":0.34319671988487244,"47":0.7956302165985107,"48":-0.7631782293319702,"49":0.9058662056922913,"50":-0.4285305142402649,"51":-0.5812942385673523,"52":-0.8173638582229614,"53":0.2599334120750427,"54":-0.3451610505580902,"55":0.9345590472221375,"56":0.16601985692977905,"57":-0.12374191731214523,"58":1.742038607597351,"59":-0.3137809932231903,"60":0.883322536945343,"61":-1.3591545820236206,"62":1.7015130519866943,"63":-0.8039458394050598,"64":-0.695975124835968,"65":1.8941090106964111,"66":-1.5138781070709229,"67":0.7170038819313049,"68":-0.2318182736635208,"69":0.692743718624115,"70":-0.9062340259552002,"71":0.3220480680465698,"72":-0.9077863097190857,"73":2.6915690898895264,"74":-2.2271111011505127,"75":0.8139514327049255,"76":2.015664577484131,"77":0.1740119457244873,"78":0.7987518310546875,"79":1.3058079481124878,"80":-0.28117015957832336,"81":0.8662325143814087,"82":0.8773347735404968,"83":0.3523857891559601,"84":2.173649549484253,"85":-0.7359721660614014,"86":0.8830164670944214,"87":-1.1388649940490723,"88":0.828553318977356,"89":-0.007028830237686634,"90":-0.4364628195762634,"91":0.5798348784446716,"92":0.5106443166732788,"93":-0.5898136496543884,"94":-0.4913177788257599,"95":0.8996237516403198,"96":0.06776740401983261,"97":-0.8122793436050415,"98":-0.9602702856063843,"99":-0.4305680990219116,"100":0.44552701711654663,"101":-1.399653434753418,"102":0.8951643705368042,"103":0.2261503040790558,"104":0.3962366580963135,"105":0.015024075284600258,"106":0.2092461735010147,"107":0.16178393363952637,"108":-0.826649010181427,"109":0.8777396082878113,"110":-0.09564093500375748,"111":0.00982642825692892,"112":0.2739527225494385,"113":-0.24411596357822418,"114":-0.15798020362854004,"115":0.34094926714897156,"116":0.3078835606575012,"117":1.3946396112442017,"118":1.6768763065338135,"119":-2.8097944259643555,"120":-0.1251799315214157,"121":-0.061367008835077286,"122":-2.006294012069702,"123":0.2813560664653778,"124":0.4495387375354767,"125":-0.33519068360328674,"126":-0.3943089544773102,"127":0.6419160962104797,"128":-0.8509477972984314,"129":-0.8569422364234924,"130":-1.3103889226913452,"131":-1.8548280000686646,"132":1.48766028881073,"133":-0.13252268731594086,"134":-0.5473052263259888,"135":0.8946027159690857,"136":0.6271605491638184,"137":-0.38957932591438293,"138":0.23252612352371216,"139":-1.455600380897522,"140":0.3121534287929535,"141":1.979885220527649,"142":0.19448056817054749,"143":0.2890782356262207,"144":-0.3825119435787201,"145":0.42635399103164673,"146":-0.6847753524780273,"147":-0.6885706186294556,"148":0.7376008629798889,"149":-0.9813238382339478,"150":0.3828325569629669,"151":-0.375859797000885,"152":0.8302871584892273,"153":-1.079978108406067,"154":0.9627996683120728,"155":0.5335695743560791,"156":-0.7313273549079895,"157":-1.041386365890503,"158":0.7504829168319702,"159":0.19140814244747162,"160":-0.044364139437675476,"161":-0.1056428775191307,"162":1.264133334159851,"163":-0.18501563370227814,"164":0.5270360112190247,"165":-0.17158307135105133,"166":0.7561635971069336,"167":-0.4181581735610962,"168":1.5270627737045288,"169":0.16441906988620758,"170":0.30549144744873047,"171":0.447183758020401,"172":1.1699551343917847,"173":0.3851497173309326,"174":-0.4460771381855011,"175":1.2091888189315796,"176":-0.4891420304775238,"177":0.7556947469711304,"178":-1.3502967357635498,"179":0.9562068581581116,"180":-0.30481913685798645,"181":-0.703363835811615,"182":-0.7745084762573242,"183":0.9458123445510864,"184":-0.1686563342809677,"185":-0.7152673602104187,"186":-0.45558199286460876,"187":-0.06333675235509872,"188":-1.223175287246704,"189":1.7101025581359863,"190":-1.5748755931854248,"191":1.5252344608306885,"192":-1.2725718021392822,"193":0.4180283546447754,"194":-0.6185786724090576,"195":-0.3144010305404663,"196":-0.22159220278263092,"197":0.7071332335472107,"198":0.49658092856407166,"199":-0.6803548336029053,"200":0.849790096282959,"201":0.4407823085784912,"202":0.169122576713562,"203":0.20939326286315918,"204":-0.7866420745849609,"205":0.7824476957321167,"206":-0.15353378653526306,"207":-0.1598353534936905,"208":-0.7797272801399231,"209":0.8707187175750732,"210":-0.020673267543315887,"211":0.2153407633304596,"212":1.4518049955368042,"213":1.1331086158752441,"214":0.6597780585289001,"215":-1.047589898109436,"216":-0.5053297877311707,"217":0.5093079209327698,"218":-1.0097525119781494,"219":-0.3547990620136261,"220":1.5172237157821655,"221":-0.20351791381835938,"222":0.019935864955186844,"223":0.5534170866012573,"224":0.7109472751617432,"225":0.1646067351102829,"226":-0.21844831109046936,"227":0.3180825710296631,"228":-0.03532459959387779,"229":0.356253981590271,"230":0.2332196980714798,"231":-0.12947507202625275,"232":-0.5206326842308044,"233":0.33476585149765015,"234":0.5351786017417908,"235":1.1026158332824707,"236":-0.4975084364414215,"237":1.2099529504776,"238":-0.0957631915807724,"239":-0.007793839555233717,"240":0.4309191405773163,"241":-1.5193341970443726,"242":1.720754623413086,"243":-0.48761141300201416,"244":0.8770803809165955,"245":-0.603458821773529,"246":-2.5210275650024414,"247":0.29734739661216736,"248":-1.9403043985366821,"249":0.6962243318557739,"250":-0.14392928779125214,"251":-1.8174360990524292,"252":-0.17477715015411377,"253":-0.2338310331106186,"254":-0.517902135848999,"255":-0.3901510536670685,"256":-0.6698083877563477,"257":-0.05446561053395271,"258":-0.20909546315670013,"259":0.24716892838478088}},"forgetHidden":{"rows":20,"columns":20,"weights":{"0":-0.05853626877069473,"1":-3.807046890258789,"2":1.979099988937378,"3":-1.5337474346160889,"4":-0.6430190801620483,"5":1.5500390529632568,"6":-0.78812175989151,"7":0.04952964931726456,"8":3.5271143913269043,"9":-1.8677624464035034,"10":0.01671549119055271,"11":-0.3203783333301544,"12":0.8581531047821045,"13":-1.4109917879104614,"14":-0.9780661463737488,"15":-1.0300896167755127,"16":-1.576008677482605,"17":-1.251220941543579,"18":0.22478848695755005,"19":0.5172457098960876,"20":-2.2844672203063965,"21":1.8803839683532715,"22":1.440729022026062,"23":-0.24532194435596466,"24":0.819187343120575,"25":-2.2480156421661377,"26":1.252075433731079,"27":0.35531654953956604,"28":-1.561150312423706,"29":3.2945187091827393,"30":2.8137669563293457,"31":0.6619192957878113,"32":-0.4722779393196106,"33":0.39146897196769714,"34":-0.47224727272987366,"35":1.0778813362121582,"36":0.5112294554710388,"37":1.2147034406661987,"38":0.7344995737075806,"39":-0.746085524559021,"40":0.9419010281562805,"41":-1.4271761178970337,"42":0.5257881879806519,"43":0.35961273312568665,"44":0.20819976925849915,"45":1.4903465509414673,"46":-4.172605514526367,"47":-0.000509479723405093,"48":0.27836430072784424,"49":-1.3424116373062134,"50":-0.03644079715013504,"51":-0.7397448420524597,"52":1.1884552240371704,"53":0.7990108132362366,"54":-0.6159228682518005,"55":-0.226418137550354,"56":1.5209846496582031,"57":-0.3857260048389435,"58":-0.02777407504618168,"59":0.55572509765625,"60":0.3144434094429016,"61":-3.274000406265259,"62":0.4349997341632843,"63":0.42781224846839905,"64":-0.8677769899368286,"65":2.334247589111328,"66":-2.5797691345214844,"67":2.0726664066314697,"68":3.746530294418335,"69":-0.5611810088157654,"70":-0.11780674755573273,"71":0.18332496285438538,"72":0.5126858353614807,"73":-0.46762052178382874,"74":0.0992521196603775,"75":-1.0649296045303345,"76":0.5832156538963318,"77":-1.913196325302124,"78":0.2949976325035095,"79":0.9051105976104736,"80":-0.802017867565155,"81":-1.2370439767837524,"82":0.5433956980705261,"83":0.708932101726532,"84":-0.045650236308574677,"85":-0.4380650818347931,"86":-1.3299130201339722,"87":0.14617317914962769,"88":-0.2004869133234024,"89":0.11949022859334946,"90":1.0532805919647217,"91":0.03263194113969803,"92":1.152733325958252,"93":-0.2477424293756485,"94":-0.8118343353271484,"95":-0.6081719398498535,"96":0.8044481873512268,"97":-0.6900529861450195,"98":1.104508638381958,"99":0.3204059302806854,"100":-0.4816933572292328,"101":-1.9438815116882324,"102":0.18247467279434204,"103":-0.8314315676689148,"104":-2.4942755699157715,"105":-0.027428802102804184,"106":-2.0176563262939453,"107":-0.33500564098358154,"108":1.4424424171447754,"109":0.011845789849758148,"110":1.1383668184280396,"111":-0.31957152485847473,"112":1.259515643119812,"113":-0.6288008093833923,"114":-0.24228228628635406,"115":-1.0425293445587158,"116":-0.5898739695549011,"117":-1.1486140489578247,"118":1.0315911769866943,"119":2.289139747619629,"120":2.3445777893066406,"121":-0.3577646017074585,"122":-1.2968708276748657,"123":-0.24456754326820374,"124":2.015573263168335,"125":-0.3660540282726288,"126":0.5600100159645081,"127":-2.4733693599700928,"128":-0.49110206961631775,"129":-6.443743705749512,"130":-0.8957810401916504,"131":2.0276434421539307,"132":-0.5580004453659058,"133":-0.875963032245636,"134":-0.49525704979896545,"135":0.41506776213645935,"136":-0.5401065349578857,"137":0.5548383593559265,"138":-1.2072246074676514,"139":0.31541720032691956,"140":-1.607680082321167,"141":3.6229207515716553,"142":-0.44811582565307617,"143":0.41840627789497375,"144":0.02697659656405449,"145":0.4922964572906494,"146":1.2089563608169556,"147":-0.43905556201934814,"148":-1.3501852750778198,"149":3.2649848461151123,"150":1.6863694190979004,"151":-1.5718798637390137,"152":-0.30842623114585876,"153":0.7454302310943604,"154":-0.758627712726593,"155":-0.06324825435876846,"156":0.2526610791683197,"157":-0.14246515929698944,"158":-0.1267538070678711,"159":0.10998731106519699,"160":-1.9668421745300293,"161":2.230698347091675,"162":1.4553080797195435,"163":-0.7751728892326355,"164":1.3209558725357056,"165":-1.12563955783844,"166":0.01632693223655224,"167":0.048423849046230316,"168":-1.1881070137023926,"169":3.6945691108703613,"170":1.8050079345703125,"171":-3.2159183025360107,"172":-0.07083139568567276,"173":1.8503774404525757,"174":-0.19041801989078522,"175":0.4748830199241638,"176":-0.390766978263855,"177":0.7404183745384216,"178":1.1415860652923584,"179":-0.5611773729324341,"180":-0.586334764957428,"181":2.5764009952545166,"182":-0.22018009424209595,"183":0.26112738251686096,"184":1.657302975654602,"185":-1.4976365566253662,"186":1.3920551538467407,"187":-1.5667388439178467,"188":-2.044565200805664,"189":0.6280432343482971,"190":-1.7221530675888062,"191":-0.9595968127250671,"192":-2.4874367713928223,"193":0.9872375726699829,"194":0.7298036813735962,"195":2.1565306186676025,"196":-0.766294538974762,"197":2.398799180984497,"198":-0.8040480017662048,"199":-1.8164643049240112,"200":-0.3191849887371063,"201":5.332207679748535,"202":1.1422148942947388,"203":-1.041731357574463,"204":0.5223214626312256,"205":-2.1783223152160645,"206":1.20967698097229,"207":-1.1973254680633545,"208":-2.7099132537841797,"209":0.8622021079063416,"210":0.5382338166236877,"211":0.25738659501075745,"212":0.1770976483821869,"213":0.6260767579078674,"214":1.6359089612960815,"215":0.9765733480453491,"216":-1.00690758228302,"217":1.4724067449569702,"218":0.5355782508850098,"219":-0.8637365102767944,"220":-0.13326717913150787,"221":-0.061986614018678665,"222":1.1304192543029785,"223":-0.48753267526626587,"224":-0.42812350392341614,"225":0.025773143395781517,"226":-0.23806346952915192,"227":-0.694113552570343,"228":-0.24076013267040253,"229":0.6633663177490234,"230":-0.34473732113838196,"231":-0.8336447477340698,"232":0.6183232069015503,"233":0.22253717482089996,"234":-1.0512953996658325,"235":0.13177618384361267,"236":0.6677881479263306,"237":0.123395174741745,"238":-0.29890114068984985,"239":-0.1382945030927658,"240":-2.689446449279785,"241":-0.004655614960938692,"242":0.11598293483257294,"243":0.24285024404525757,"244":-0.916073739528656,"245":0.6922651529312134,"246":2.357896566390991,"247":-0.4243743419647217,"248":-1.3679263591766357,"249":2.157630205154419,"250":-0.011442851275205612,"251":3.2256476879119873,"252":-0.48946529626846313,"253":0.733363151550293,"254":0.009769506752490997,"255":-0.6518115997314453,"256":0.7359119653701782,"257":-0.9367883801460266,"258":0.08193892985582352,"259":-0.5848090052604675,"260":-0.33865422010421753,"261":0.10963023453950882,"262":-0.9620214104652405,"263":0.5792627334594727,"264":-0.8139086365699768,"265":0.7054611444473267,"266":-4.193723678588867,"267":0.09886914491653442,"268":0.8681387305259705,"269":-0.17338842153549194,"270":0.3772149682044983,"271":-0.8584528565406799,"272":0.6991459727287292,"273":0.07348453253507614,"274":-1.9071564674377441,"275":-1.6194096803665161,"276":-0.253167062997818,"277":-2.195451259613037,"278":1.2137137651443481,"279":2.931771755218506,"280":-0.7803023457527161,"281":0.10613500326871872,"282":0.4331527352333069,"283":1.016555905342102,"284":0.3154301047325134,"285":-0.7403518557548523,"286":-0.48945945501327515,"287":-0.33387884497642517,"288":-0.585441529750824,"289":0.6427370309829712,"290":-0.07416720688343048,"291":-0.7418652772903442,"292":0.7092586159706116,"293":1.1296817064285278,"294":-0.47063812613487244,"295":0.01592981070280075,"296":1.8142046928405762,"297":0.021838534623384476,"298":0.3850478529930115,"299":-0.10740441828966141,"300":-3.0220320224761963,"301":0.06066746264696121,"302":1.4168003797531128,"303":0.1701386421918869,"304":-0.9220441579818726,"305":-1.0799009799957275,"306":-3.865553379058838,"307":3.952355146408081,"308":-0.9346341490745544,"309":2.2328484058380127,"310":1.4268174171447754,"311":-2.3116037845611572,"312":0.29364803433418274,"313":1.127529501914978,"314":-0.24544107913970947,"315":0.08806505799293518,"316":-1.0530742406845093,"317":0.28299832344055176,"318":4.703277587890625,"319":-0.09687270224094391,"320":-3.4827702045440674,"321":-1.4140472412109375,"322":2.978360414505005,"323":0.514312207698822,"324":-3.361593008041382,"325":1.2067674398422241,"326":-3.0667777061462402,"327":0.09679064154624939,"328":-0.8450090885162354,"329":4.754549980163574,"330":2.15008807182312,"331":-5.426072597503662,"332":1.2544015645980835,"333":0.5766130089759827,"334":-0.9175018668174744,"335":-0.4520402252674103,"336":0.9183225631713867,"337":-0.4457429349422455,"338":2.9266979694366455,"339":0.6598304510116577,"340":-1.4208391904830933,"341":0.36001649498939514,"342":1.1562131643295288,"343":1.0375001430511475,"344":0.25881049036979675,"345":-1.1755282878875732,"346":-0.3476133346557617,"347":0.3526427447795868,"348":-0.7636820077896118,"349":1.8036738634109497,"350":0.30329883098602295,"351":-1.3365304470062256,"352":0.3882136642932892,"353":1.5085976123809814,"354":-0.7218640446662903,"355":0.026737743988633156,"356":0.30402278900146484,"357":0.3150847554206848,"358":2.3967788219451904,"359":0.30958595871925354,"360":-2.390170097351074,"361":2.5311851501464844,"362":0.061441805213689804,"363":0.44394877552986145,"364":0.25604021549224854,"365":-1.6989296674728394,"366":0.08263052254915237,"367":0.24942359328269958,"368":-1.6332907676696777,"369":2.871886968612671,"370":3.6310007572174072,"371":0.13135695457458496,"372":0.12087246775627136,"373":3.223552703857422,"374":0.5897218585014343,"375":1.2328287363052368,"376":0.41386356949806213,"377":0.8711804151535034,"378":1.5830472707748413,"379":-1.790215253829956,"380":0.7700163722038269,"381":0.27884188294410706,"382":1.2537826299667358,"383":-0.44518667459487915,"384":0.5240218639373779,"385":1.4715616703033447,"386":4.464802265167236,"387":-4.602502346038818,"388":-0.3524255156517029,"389":-2.7761318683624268,"390":0.7473357319831848,"391":3.308624267578125,"392":-0.5153391361236572,"393":-0.825437068939209,"394":-0.01869657263159752,"395":0.6158357858657837,"396":-0.5520547032356262,"397":0.7463706135749817,"398":-5.5711212158203125,"399":1.071889877319336}},"forgetBias":{"rows":20,"columns":1,"weights":{"0":0,"1":0,"2":0,"3":0,"4":0,"5":0,"6":0,"7":0,"8":0,"9":0,"10":0,"11":0,"12":0,"13":0,"14":0,"15":0,"16":0,"17":0,"18":0,"19":0}},"outputMatrix":{"rows":20,"columns":13,"weights":{"0":2.0912797451019287,"1":0.35177940130233765,"2":-0.03157660737633705,"3":-0.5811191201210022,"4":0.31496044993400574,"5":-0.29499536752700806,"6":-1.3224977254867554,"7":-0.7948277592658997,"8":-0.2506904900074005,"9":2.0638036727905273,"10":-2.065062999725342,"11":0.2237161099910736,"12":-0.05421909689903259,"13":0.08470678329467773,"14":0.6083623170852661,"15":-0.6731982827186584,"16":0.2577595114707947,"17":-0.5533469319343567,"18":-0.3138676583766937,"19":0.6676822900772095,"20":-0.16248546540737152,"21":-0.3562890291213989,"22":-0.28440558910369873,"23":0.20488159358501434,"24":-0.6703046560287476,"25":-0.04079738259315491,"26":0.10378927737474442,"27":-0.3839047849178314,"28":0.938355028629303,"29":-0.2469998449087143,"30":0.8540652394294739,"31":0.38115495443344116,"32":0.07329872995615005,"33":-0.34237176179885864,"34":0.4076439142227173,"35":-0.3968293368816376,"36":-0.20920328795909882,"37":0.6608750224113464,"38":0.5038648843765259,"39":0.6826311349868774,"40":0.8993866443634033,"41":-0.8145949840545654,"42":0.9358266592025757,"43":0.05688079446554184,"44":1.3095242977142334,"45":0.15956848859786987,"46":-0.4097782373428345,"47":-0.05570605397224426,"48":-0.4947949945926666,"49":-0.031793542206287384,"50":-0.21148386597633362,"51":-0.9223693013191223,"52":0.7249267101287842,"53":0.6714333891868591,"54":-0.08540190756320953,"55":1.2146979570388794,"56":0.2282002866268158,"57":1.3056058883666992,"58":-0.6237824559211731,"59":-1.8402652740478516,"60":1.1235284805297852,"61":-0.8505821228027344,"62":-0.3529869318008423,"63":0.5398656725883484,"64":-1.881110668182373,"65":1.804605484008789,"66":1.6059563159942627,"67":-1.0519251823425293,"68":-0.6770744919776917,"69":-0.8237029314041138,"70":0.7514089941978455,"71":-0.20438675582408905,"72":1.167037010192871,"73":-0.2881068289279938,"74":-0.5264018774032593,"75":0.356090784072876,"76":0.1374405175447464,"77":-0.9579184055328369,"78":2.191457509994507,"79":-0.17403410375118256,"80":-0.6503589153289795,"81":-0.3048851788043976,"82":0.37136438488960266,"83":-0.27869361639022827,"84":1.3127185106277466,"85":-0.5416258573532104,"86":0.8471134901046753,"87":-1.4949902296066284,"88":0.48136231303215027,"89":0.6372678875923157,"90":0.4821927845478058,"91":0.7619988322257996,"92":2.1656529903411865,"93":-1.071134328842163,"94":0.09079007804393768,"95":-0.5203423500061035,"96":0.6790676116943359,"97":0.7519511580467224,"98":-0.6881231069564819,"99":-0.9033988118171692,"100":-1.2485915422439575,"101":0.4243393540382385,"102":-0.2655070722103119,"103":-0.9161346554756165,"104":-0.6460039615631104,"105":0.5526090264320374,"106":0.11531861871480942,"107":1.41360604763031,"108":-0.15524105727672577,"109":0.7768402099609375,"110":0.21710659563541412,"111":0.17127129435539246,"112":-0.6372774243354797,"113":-0.36884984374046326,"114":-0.11004077643156052,"115":-0.07223755121231079,"116":-0.6538361310958862,"117":1.7512433528900146,"118":2.1564345359802246,"119":-2.2326579093933105,"120":-0.40960440039634705,"121":0.16021470725536346,"122":-0.7633886337280273,"123":-0.22585012018680573,"124":0.7148921489715576,"125":-0.23573315143585205,"126":0.5980417132377625,"127":-0.20206871628761292,"128":-0.8824076652526855,"129":-0.6473949551582336,"130":0.7118788361549377,"131":1.229933261871338,"132":-1.4547364711761475,"133":-0.14971736073493958,"134":-0.2821153998374939,"135":0.7735837697982788,"136":-0.6149941086769104,"137":0.323508620262146,"138":-0.39219486713409424,"139":0.5094648599624634,"140":-0.34671181440353394,"141":0.934191882610321,"142":-0.45634302496910095,"143":0.3764581084251404,"144":-0.5876746773719788,"145":0.7449533343315125,"146":0.25370702147483826,"147":-0.21420948207378387,"148":0.36444753408432007,"149":0.6919273734092712,"150":-1.0042184591293335,"151":0.629199206829071,"152":-1.6409425735473633,"153":1.1096900701522827,"154":-1.2066820859909058,"155":0.6625851988792419,"156":0.29402410984039307,"157":0.8513286113739014,"158":-0.34877127408981323,"159":2.027937889099121,"160":0.5748878717422485,"161":0.9103502631187439,"162":0.014005357399582863,"163":-0.3503688871860504,"164":0.16113266348838806,"165":-1.0840336084365845,"166":0.18984317779541016,"167":0.3033472001552582,"168":-1.8134889602661133,"169":1.3483737707138062,"170":0.8972336649894714,"171":-1.0184438228607178,"172":0.6402817964553833,"173":0.12661032378673553,"174":1.3512159585952759,"175":-0.28165578842163086,"176":0.725864052772522,"177":-0.9581249952316284,"178":-1.082339882850647,"179":0.08263756334781647,"180":0.41119587421417236,"181":-0.7581855058670044,"182":0.30855751037597656,"183":-0.047661419957876205,"184":0.22118358314037323,"185":-0.9203856587409973,"186":-0.1355498880147934,"187":0.8318581581115723,"188":-0.38227397203445435,"189":0.3173753023147583,"190":-0.5054519772529602,"191":0.06774437427520752,"192":-0.6414210200309753,"193":0.42401161789894104,"194":-0.17767730355262756,"195":-0.8930623531341553,"196":0.8368241786956787,"197":0.15973681211471558,"198":1.463006615638733,"199":-0.813837468624115,"200":-0.4825730621814728,"201":0.4851497709751129,"202":-0.060950327664613724,"203":0.05230317264795303,"204":0.04582739248871803,"205":0.1408999115228653,"206":-1.2803596258163452,"207":-0.2722203731536865,"208":2.000845193862915,"209":1.4616190195083618,"210":-2.522348403930664,"211":0.34110498428344727,"212":-0.05939597263932228,"213":-2.069260835647583,"214":-0.15484942495822906,"215":0.04315915331244469,"216":0.18436114490032196,"217":-0.07373694330453873,"218":-0.39361414313316345,"219":-0.7686137557029724,"220":-0.7642688751220703,"221":-0.7370047569274902,"222":1.1144280433654785,"223":0.00944566074758768,"224":2.1132540702819824,"225":-0.9462947845458984,"226":-0.2289469689130783,"227":0.5543274283409119,"228":-0.4204498529434204,"229":-1.1676284074783325,"230":-0.007429091725498438,"231":0.0776459351181984,"232":-1.0761241912841797,"233":-0.9838881492614746,"234":1.2768077850341797,"235":1.893775463104248,"236":-0.5567455887794495,"237":1.1583507061004639,"238":-0.018981436267495155,"239":0.857301652431488,"240":0.476978600025177,"241":-0.2620670795440674,"242":0.08347983658313751,"243":-0.931934654712677,"244":0.44000935554504395,"245":0.6432062387466431,"246":-1.5835330486297607,"247":0.20211897790431976,"248":1.5041627883911133,"249":-0.656110405921936,"250":2.431424856185913,"251":0.18154217302799225,"252":0.8621858954429626,"253":0.4350704550743103,"254":-0.5483442544937134,"255":-0.7135030031204224,"256":-1.0821974277496338,"257":0.2961811423301697,"258":-0.16073675453662872,"259":-1.5375803709030151}},"outputHidden":{"rows":20,"columns":20,"weights":{"0":0.6802570819854736,"1":0.3437782824039459,"2":-1.3720711469650269,"3":0.8324066996574402,"4":0.1823342740535736,"5":0.7935191988945007,"6":2.7428624629974365,"7":-2.1904873847961426,"8":-0.45531949400901794,"9":-2.7113919258117676,"10":-2.2707436084747314,"11":1.7155760526657104,"12":-0.7388667464256287,"13":-0.4376663267612457,"14":-0.7279273271560669,"15":0.7795450091362,"16":-2.3995628356933594,"17":0.8516162037849426,"18":-0.21564099192619324,"19":0.46902361512184143,"20":-2.5471456050872803,"21":2.3432555198669434,"22":0.6747302412986755,"23":1.1501432657241821,"24":-1.4217649698257446,"25":-1.6664124727249146,"26":2.1146583557128906,"27":-1.405150055885315,"28":-2.1511268615722656,"29":2.649564266204834,"30":1.5440551042556763,"31":-0.7521517276763916,"32":-0.977521538734436,"33":0.8549153208732605,"34":-1.9868452548980713,"35":1.1521881818771362,"36":0.9566452503204346,"37":1.1689643859863281,"38":0.7675526738166809,"39":-0.7965410351753235,"40":1.6374366283416748,"41":0.016454525291919708,"42":0.4407343864440918,"43":-0.8515626788139343,"44":2.3217248916625977,"45":-0.48481619358062744,"46":0.9264665842056274,"47":1.3864810466766357,"48":0.6995872855186462,"49":-2.1074681282043457,"50":-1.1625624895095825,"51":1.4582579135894775,"52":0.2668030858039856,"53":-0.753113329410553,"54":-1.1674433946609497,"55":-0.36425960063934326,"56":-0.4307074546813965,"57":-0.37857791781425476,"58":-0.36339181661605835,"59":-0.3199716806411743,"60":-0.692705512046814,"61":1.4857007265090942,"62":-1.8049596548080444,"63":-2.9460084438323975,"64":-0.2647468149662018,"65":1.6574872732162476,"66":1.8155194520950317,"67":0.6067094206809998,"68":0.10835432261228561,"69":-0.015623279847204685,"70":0.32183533906936646,"71":0.7254207134246826,"72":0.5349772572517395,"73":-1.2252265214920044,"74":0.07148820161819458,"75":0.6702940464019775,"76":-2.180255889892578,"77":0.31155839562416077,"78":0.3458419740200043,"79":0.6775885224342346,"80":0.529339075088501,"81":0.786241888999939,"82":0.0104394955560565,"83":-1.092783808708191,"84":-0.08076262474060059,"85":-2.990826368331909,"86":1.6664246320724487,"87":0.07124863564968109,"88":-0.7674907445907593,"89":1.7241817712783813,"90":0.8970903158187866,"91":-0.1999458372592926,"92":0.47474271059036255,"93":1.2683892250061035,"94":2.133660078048706,"95":0.07958085834980011,"96":-0.5404031276702881,"97":-0.002442724071443081,"98":0.9986235499382019,"99":0.31869739294052124,"100":2.9431560039520264,"101":-1.5132211446762085,"102":-1.0275077819824219,"103":-0.9353680610656738,"104":3.088986873626709,"105":0.49902772903442383,"106":-0.7265593409538269,"107":2.7116055488586426,"108":0.676013708114624,"109":-2.8856382369995117,"110":-1.417116403579712,"111":1.1129721403121948,"112":0.021908221766352654,"113":-0.43662142753601074,"114":0.18837592005729675,"115":0.11085139214992523,"116":-1.3889365196228027,"117":0.2025378942489624,"118":-0.42255720496177673,"119":-0.26548975706100464,"120":-1.3025574684143066,"121":3.137542724609375,"122":0.7920506596565247,"123":-1.6425291299819946,"124":1.1781542301177979,"125":-0.8343433141708374,"126":0.3664378225803375,"127":2.157578468322754,"128":-0.8837383985519409,"129":1.865493655204773,"130":-1.8313038349151611,"131":-0.3167194128036499,"132":-1.4602367877960205,"133":-2.2107014656066895,"134":0.06620646268129349,"135":0.5965474843978882,"136":-2.2726919651031494,"137":1.1361154317855835,"138":-1.2609095573425293,"139":0.32676130533218384,"140":0.787164568901062,"141":-2.518916130065918,"142":-1.9902896881103516,"143":-2.0957741737365723,"144":-1.2433642148971558,"145":1.5667401552200317,"146":1.4888572692871094,"147":-0.3493623733520508,"148":0.8554996848106384,"149":-3.5546884536743164,"150":-0.7306277751922607,"151":1.943740725517273,"152":0.06266333907842636,"153":-3.4720959663391113,"154":1.043875813484192,"155":-0.45505401492118835,"156":-2.0220940113067627,"157":-1.1636847257614136,"158":-1.1741293668746948,"159":-0.09520294517278671,"160":-0.49264901876449585,"161":1.6281601190567017,"162":-0.32412654161453247,"163":-0.5409227609634399,"164":0.5479705929756165,"165":-2.5519204139709473,"166":0.912481963634491,"167":0.10653184354305267,"168":-0.6676454544067383,"169":4.856091022491455,"170":2.244157314300537,"171":-0.02937636710703373,"172":-0.604968249797821,"173":1.346445918083191,"174":1.3499462604522705,"175":1.0666122436523438,"176":-0.776030421257019,"177":1.0558580160140991,"178":1.7336628437042236,"179":-1.1321780681610107,"180":-1.617177963256836,"181":4.457652568817139,"182":-0.5341199040412903,"183":-0.22967463731765747,"184":-0.025071440264582634,"185":-1.6409857273101807,"186":1.4100313186645508,"187":-0.4584982395172119,"188":-1.9869508743286133,"189":1.7449073791503906,"190":-0.884127140045166,"191":-1.0321940183639526,"192":-2.187657594680786,"193":1.7364025115966797,"194":0.3371191620826721,"195":1.705808401107788,"196":-0.8027784824371338,"197":2.0243051052093506,"198":-1.1407524347305298,"199":-0.32489320635795593,"200":-0.47763845324516296,"201":-0.29550662636756897,"202":-1.3905298709869385,"203":-2.273871898651123,"204":-0.48275667428970337,"205":3.1052169799804688,"206":0.1295291781425476,"207":0.5593166351318359,"208":0.26326826214790344,"209":-2.1643600463867188,"210":-1.2601858377456665,"211":1.3446934223175049,"212":0.03693614900112152,"213":-3.371110677719116,"214":-0.65998774766922,"215":-1.1952658891677856,"216":-1.6549537181854248,"217":-1.300046682357788,"218":-1.0681828260421753,"219":0.37654754519462585,"220":0.2320324033498764,"221":-1.4451013803482056,"222":-0.050999779254198074,"223":-0.13306760787963867,"224":-0.45536547899246216,"225":0.11770805716514587,"226":-2.0590593814849854,"227":0.48962637782096863,"228":0.06740152835845947,"229":-1.2769027948379517,"230":0.27208957076072693,"231":0.8221715092658997,"232":0.9928684234619141,"233":1.0493782758712769,"234":-0.20848964154720306,"235":-1.0963375568389893,"236":0.11530840396881104,"237":-1.5192526578903198,"238":0.7350127696990967,"239":1.006604790687561,"240":-2.4407026767730713,"241":0.39072367548942566,"242":-0.6851640343666077,"243":-0.3108144700527191,"244":-1.437400221824646,"245":0.2939040958881378,"246":2.804877519607544,"247":0.4362563192844391,"248":-0.882391095161438,"249":1.255130648612976,"250":0.6043404340744019,"251":3.5822010040283203,"252":0.4442645013332367,"253":-0.05679229646921158,"254":0.6586839556694031,"255":-0.30163830518722534,"256":-0.3585614562034607,"257":-0.8004210591316223,"258":-0.26614972949028015,"259":-0.10594586282968521,"260":0.3753884434700012,"261":0.8615577816963196,"262":-1.552331566810608,"263":-2.9296975135803223,"264":0.13885395228862762,"265":2.330988883972168,"266":0.66122967004776,"267":0.3411489725112915,"268":0.5918914675712585,"269":-1.9304819107055664,"270":0.22699281573295593,"271":0.22848829627037048,"272":0.2613331973552704,"273":-1.0256003141403198,"274":0.41949784755706787,"275":0.6581588983535767,"276":-3.291030168533325,"277":0.6470162868499756,"278":-0.6568347811698914,"279":-1.130835771560669,"280":0.5026174187660217,"281":-3.2527997493743896,"282":0.001874809036962688,"283":-1.0842251777648926,"284":0.04271591827273369,"285":1.521985650062561,"286":-0.8427693247795105,"287":0.9019656777381897,"288":2.62302565574646,"289":-0.812492311000824,"290":-0.13656678795814514,"291":-0.3245667815208435,"292":-0.07144871354103088,"293":-1.5127499103546143,"294":-0.6572268009185791,"295":-2.2782630920410156,"296":-0.30317339301109314,"297":-2.0508229732513428,"298":-0.2830691933631897,"299":0.23739826679229736,"300":-0.9936423897743225,"301":0.7201366424560547,"302":-0.20337793231010437,"303":-0.38874897360801697,"304":-0.5158702731132507,"305":-0.6786178946495056,"306":-0.20439361035823822,"307":1.7057948112487793,"308":-0.8902324438095093,"309":3.6400368213653564,"310":-1.723336100578308,"311":-0.8055972456932068,"312":0.4377794861793518,"313":1.6490380764007568,"314":0.12937892973423004,"315":0.8640478253364563,"316":1.014113187789917,"317":0.6228656768798828,"318":4.827488899230957,"319":-1.018890619277954,"320":-1.5542657375335693,"321":0.08711865544319153,"322":-1.3868205547332764,"323":-1.5712974071502686,"324":-0.35634082555770874,"325":1.2296154499053955,"326":2.6959125995635986,"327":-1.261824607849121,"328":-1.5788551568984985,"329":-0.6166473031044006,"330":-1.1239186525344849,"331":-1.318166732788086,"332":-1.3967785835266113,"333":-0.524469256401062,"334":0.2189910113811493,"335":1.7079637050628662,"336":-0.5234009623527527,"337":1.014832854270935,"338":-1.6247978210449219,"339":-2.2142562866210938,"340":-1.1211668252944946,"341":0.641204833984375,"342":-0.08939780294895172,"343":1.488101840019226,"344":0.38268500566482544,"345":-1.3734060525894165,"346":1.2602506875991821,"347":0.21591410040855408,"348":0.23552392423152924,"349":2.40844464302063,"350":-1.6092073917388916,"351":0.7504100203514099,"352":0.20720331370830536,"353":1.3825187683105469,"354":0.3994247019290924,"355":-1.009292483329773,"356":1.1084694862365723,"357":-1.0255377292633057,"358":3.1354775428771973,"359":-0.19187700748443604,"360":0.23126918077468872,"361":2.685062885284424,"362":-2.1894352436065674,"363":-2.012322187423706,"364":-0.7500777840614319,"365":0.6250896453857422,"366":0.021127602085471153,"367":-0.36192819476127625,"368":0.40995892882347107,"369":0.6242203712463379,"370":0.08143143355846405,"371":1.671373724937439,"372":-0.3925962448120117,"373":-0.017793944105505943,"374":-0.1798725724220276,"375":0.7778628468513489,"376":-2.5226666927337646,"377":1.2946325540542603,"378":-0.4659510850906372,"379":0.13104745745658875,"380":-1.1684035062789917,"381":0.2835540473461151,"382":0.3491736352443695,"383":-1.6464170217514038,"384":1.284561276435852,"385":-1.7389321327209473,"386":5.3887128829956055,"387":-0.3979880213737488,"388":-0.15984179079532623,"389":0.5115522146224976,"390":-0.10481546074151993,"391":2.4497451782226562,"392":-0.07614908367395401,"393":-0.8008617758750916,"394":0.6316376328468323,"395":-0.17667542397975922,"396":0.08654714375734329,"397":-0.5262656211853027,"398":-0.2750963270664215,"399":-0.27134376764297485}},"outputBias":{"rows":20,"columns":1,"weights":{"0":-1.7244846820831299,"1":-0.8540722131729126,"2":1.1045955419540405,"3":0.9897238612174988,"4":-0.0674431324005127,"5":-1.4361810684204102,"6":-0.6188902258872986,"7":-1.3307262659072876,"8":-0.14308422803878784,"9":-1.068358063697815,"10":-0.9529712200164795,"11":-0.5362247228622437,"12":-0.02522202581167221,"13":-0.7018012404441833,"14":-0.8159093856811523,"15":-0.5795552134513855,"16":-0.9972683787345886,"17":0.03763445094227791,"18":-0.2897907495498657,"19":-0.6608629822731018}},"cellActivationMatrix":{"rows":20,"columns":13,"weights":{"0":0.6041825413703918,"1":0.6066886186599731,"2":-0.4363443851470947,"3":1.2698403596878052,"4":-0.04779377952218056,"5":1.4305193424224854,"6":-0.3829866647720337,"7":-0.3472514748573303,"8":-0.4005937874317169,"9":-0.27370744943618774,"10":-0.20686332881450653,"11":0.5494927763938904,"12":-0.8024265766143799,"13":0.3354419767856598,"14":0.36847805976867676,"15":-1.1436151266098022,"16":-0.5596408247947693,"17":-0.7434216737747192,"18":-0.6079623699188232,"19":-0.5711430907249451,"20":0.5325193405151367,"21":-0.15828801691532135,"22":0.7026114463806152,"23":-0.05337719991803169,"24":-0.3697258234024048,"25":-0.5160301923751831,"26":0.2631196975708008,"27":0.2150583118200302,"28":-0.3039708733558655,"29":0.5788412690162659,"30":0.1291504204273224,"31":0.17272184789180756,"32":-0.04670175909996033,"33":0.04263170063495636,"34":-0.21717648208141327,"35":-0.08442973345518112,"36":-0.04601871594786644,"37":0.07963676005601883,"38":-0.054305221885442734,"39":0.014305238611996174,"40":0.2909642159938812,"41":-0.12418822944164276,"42":0.2459660917520523,"43":0.028164902701973915,"44":-0.2712758481502533,"45":-0.002462532604113221,"46":-0.074611134827137,"47":-0.3683020770549774,"48":0.05888407677412033,"49":-0.15436390042304993,"50":0.10888658463954926,"51":-0.315132200717926,"52":0.7757467031478882,"53":0.7774415612220764,"54":-0.864542543888092,"55":0.6957712173461914,"56":0.1448790431022644,"57":0.658284604549408,"58":-0.5556004643440247,"59":0.17684774100780487,"60":-0.4196684956550598,"61":-0.22366207838058472,"62":0.08422673493623734,"63":0.18885011970996857,"64":-0.9858365058898926,"65":-1.0080257654190063,"66":-0.8128250241279602,"67":0.8540633320808411,"68":-0.13798530399799347,"69":0.021746302023530006,"70":-1.701583743095398,"71":-0.03450300917029381,"72":-0.009311391040682793,"73":-0.14513516426086426,"74":0.7366340160369873,"75":0.12781211733818054,"76":-1.3326539993286133,"77":0.5206785798072815,"78":-0.249647319316864,"79":0.5041991472244263,"80":-0.23799632489681244,"81":0.917932391166687,"82":0.3688034117221832,"83":-0.038515355437994,"84":1.0134514570236206,"85":-0.11951490491628647,"86":-0.5835471749305725,"87":-0.09431173652410507,"88":0.3716614842414856,"89":-0.4952755570411682,"90":-0.1569354385137558,"91":0.9904736280441284,"92":-0.30853569507598877,"93":0.5283955931663513,"94":-0.5758392810821533,"95":-0.2706981897354126,"96":0.09046687185764313,"97":0.030592894181609154,"98":-0.787997841835022,"99":0.3789885640144348,"100":0.4298457205295563,"101":-0.9496008157730103,"102":0.6293985247612,"103":0.1374352127313614,"104":-0.5080873966217041,"105":-0.6213515400886536,"106":0.9103824496269226,"107":-1.4449914693832397,"108":1.192914366722107,"109":-0.8903759717941284,"110":0.06451696902513504,"111":0.12870869040489197,"112":0.47331690788269043,"113":0.6215196251869202,"114":0.10453549772500992,"115":-0.09920507669448853,"116":1.43949556350708,"117":-0.23740962147712708,"118":-1.2941710948944092,"119":0.8544120788574219,"120":-2.2506837844848633,"121":-1.3552088737487793,"122":-0.019132129848003387,"123":0.362427294254303,"124":0.026219045743346214,"125":0.04863661900162697,"126":-0.3513721227645874,"127":0.08276226371526718,"128":-0.8534849286079407,"129":0.40399688482284546,"130":0.013585248030722141,"131":-0.30546239018440247,"132":0.050456173717975616,"133":-1.0975427627563477,"134":-0.4138997495174408,"135":-0.05127233639359474,"136":0.015313743613660336,"137":0.06295923888683319,"138":-0.4720192849636078,"139":0.6150724291801453,"140":-0.0359966866672039,"141":-0.8501911163330078,"142":1.1193349361419678,"143":-2.087780714035034,"144":1.2970777750015259,"145":-0.2495555728673935,"146":-0.45418161153793335,"147":-0.3321070373058319,"148":0.21846500039100647,"149":0.23920570313930511,"150":1.8770506381988525,"151":-0.601928174495697,"152":0.34075862169265747,"153":0.7380057573318481,"154":0.7588444948196411,"155":0.06373677402734756,"156":-0.8599374294281006,"157":-1.1626533269882202,"158":0.6510791778564453,"159":-0.7093910574913025,"160":0.7087630033493042,"161":1.556593418121338,"162":-0.056924980133771896,"163":-0.08923029899597168,"164":-0.37722334265708923,"165":-0.06929982453584671,"166":0.03516097366809845,"167":0.1606031060218811,"168":1.5072715282440186,"169":0.006600741762667894,"170":-0.03918929770588875,"171":0.005084835924208164,"172":-0.09401768445968628,"173":-0.2030857503414154,"174":0.10498064756393433,"175":0.009414751082658768,"176":0.38023436069488525,"177":-0.48010385036468506,"178":0.01219098549336195,"179":-0.14761419594287872,"180":0.031467050313949585,"181":-0.20526856184005737,"182":-1.1301147937774658,"183":-0.343605101108551,"184":0.8064156174659729,"185":-0.09977276623249054,"186":-0.04598575085401535,"187":0.9992566704750061,"188":-0.002190718660131097,"189":-0.42058178782463074,"190":-0.4363839030265808,"191":0.3573906421661377,"192":-0.3598346412181854,"193":0.19227607548236847,"194":0.2903594970703125,"195":-0.21869529783725739,"196":0.121341772377491,"197":-0.5601488947868347,"198":0.8897190093994141,"199":0.3223296105861664,"200":-0.415220707654953,"201":0.18761305510997772,"202":-0.21528902649879456,"203":-0.09680422395467758,"204":0.3327842950820923,"205":0.43447285890579224,"206":-0.42270800471305847,"207":-1.0600218772888184,"208":-0.21569646894931793,"209":0.18403878808021545,"210":-0.077329620718956,"211":0.2851639986038208,"212":0.17331254482269287,"213":0.008743228390812874,"214":-0.05287713184952736,"215":-0.2142568677663803,"216":-0.19918054342269897,"217":-0.18455053865909576,"218":-0.024491766467690468,"219":0.2935459613800049,"220":-0.025937331840395927,"221":0.5944402813911438,"222":0.26754334568977356,"223":-0.778998851776123,"224":0.8220856785774231,"225":-0.10226694494485855,"226":-0.3868527114391327,"227":0.20702727138996124,"228":-0.08381680399179459,"229":0.1636209487915039,"230":0.02431560680270195,"231":0.40364474058151245,"232":-0.39616233110427856,"233":-1.1565234661102295,"234":-0.29327094554901123,"235":-1.0571366548538208,"236":0.6611758470535278,"237":-1.7892556190490723,"238":-0.6466495394706726,"239":0.15178078413009644,"240":-0.11877307295799255,"241":0.2820984125137329,"242":-0.557457685470581,"243":-0.07336591929197311,"244":-0.4713001549243927,"245":-0.32119569182395935,"246":1.1929843425750732,"247":0.3796423375606537,"248":-0.5973691344261169,"249":0.030398719012737274,"250":-0.6912114024162292,"251":-0.1353263556957245,"252":-0.02460912987589836,"253":-0.3587736189365387,"254":-0.04026492312550545,"255":0.4803098440170288,"256":-0.024651721119880676,"257":0.1646062731742859,"258":-0.10601476579904556,"259":0.2557513415813446}},"cellActivationHidden":{"rows":20,"columns":20,"weights":{"0":-2.4829211235046387,"1":1.9042644500732422,"2":-0.6483351588249207,"3":-1.2118767499923706,"4":-2.0357956886291504,"5":-0.992586612701416,"6":0.18323566019535065,"7":1.228635549545288,"8":-0.073992058634758,"9":2.8771402835845947,"10":2.594550371170044,"11":-1.1627179384231567,"12":0.6465017199516296,"13":1.3155100345611572,"14":-0.09241775423288345,"15":0.2993496358394623,"16":0.3268944323062897,"17":-0.3187335729598999,"18":3.1906254291534424,"19":-0.9407365918159485,"20":-0.9302199482917786,"21":2.125666618347168,"22":0.15126702189445496,"23":-0.14855459332466125,"24":-0.7722511887550354,"25":1.3244271278381348,"26":2.0582449436187744,"27":-0.6030368804931641,"28":-1.3421399593353271,"29":1.4874223470687866,"30":-0.3754521310329437,"31":-0.0941602885723114,"32":-1.128519892692566,"33":-0.6182383298873901,"34":-0.5818477272987366,"35":1.0115805864334106,"36":-0.24450591206550598,"37":0.9657077789306641,"38":-0.6122301816940308,"39":-1.1088014841079712,"40":1.25384521484375,"41":-2.3960838317871094,"42":-0.5742635130882263,"43":-1.044450044631958,"44":-1.6760327816009521,"45":-0.9774885177612305,"46":-0.5598610043525696,"47":0.9198552966117859,"48":1.456060528755188,"49":-1.2525084018707275,"50":-0.5912572145462036,"51":0.37240153551101685,"52":-0.09563695639371872,"53":-2.3951871395111084,"54":1.365967869758606,"55":-1.0031731128692627,"56":-0.252964586019516,"57":-1.3009541034698486,"58":-1.2125815153121948,"59":1.4467413425445557,"60":3.1981565952301025,"61":-2.169142484664917,"62":-1.4560024738311768,"63":-0.8864545226097107,"64":-0.9626340866088867,"65":-1.009131908416748,"66":0.30547216534614563,"67":-1.4648393392562866,"68":1.5647540092468262,"69":-2.682152271270752,"70":-1.753390908241272,"71":1.5161806344985962,"72":-0.1466597020626068,"73":-2.7110941410064697,"74":2.2983124256134033,"75":-0.7946050763130188,"76":-0.7780593037605286,"77":-1.1672618389129639,"78":-1.6149226427078247,"79":0.637140691280365,"80":-1.6150239706039429,"81":0.8090556263923645,"82":-0.6966830492019653,"83":-0.06547620892524719,"84":-2.1092424392700195,"85":-2.4672160148620605,"86":-1.141842007637024,"87":-0.5921399593353271,"88":0.24401304125785828,"89":2.2979445457458496,"90":1.9490649700164795,"91":-0.8256409168243408,"92":-0.14424654841423035,"93":4.01470422744751,"94":1.126015305519104,"95":0.695459246635437,"96":0.8049642443656921,"97":0.8270850777626038,"98":3.1546387672424316,"99":-2.319566488265991,"100":-0.07590992748737335,"101":-1.0016895532608032,"102":0.34393250942230225,"103":0.9145432710647583,"104":0.34071359038352966,"105":-0.423309326171875,"106":-0.47598835825920105,"107":-0.02458130195736885,"108":-0.3511342704296112,"109":-0.5353856086730957,"110":-0.48298341035842896,"111":-0.5847401022911072,"112":0.8503004908561707,"113":1.017947793006897,"114":-0.23814304172992706,"115":-0.2909453213214874,"116":1.5172861814498901,"117":-0.4874747395515442,"118":0.3906842768192291,"119":-0.635618269443512,"120":-2.2231996059417725,"121":2.392690420150757,"122":1.0099363327026367,"123":-0.5738695859909058,"124":1.7918212413787842,"125":-0.9487364292144775,"126":1.0302388668060303,"127":-2.1271510124206543,"128":-2.9855668544769287,"129":3.1940784454345703,"130":0.5635342001914978,"131":-0.5335036516189575,"132":-0.871953547000885,"133":1.402785301208496,"134":-0.8904123902320862,"135":0.8543235659599304,"136":0.0943087711930275,"137":1.3154881000518799,"138":-0.19142620265483856,"139":-0.27864816784858704,"140":0.5155351161956787,"141":1.3806889057159424,"142":1.6555005311965942,"143":-1.8392038345336914,"144":1.7862532138824463,"145":-0.4908980131149292,"146":0.2593855857849121,"147":-1.723844051361084,"148":-1.7442026138305664,"149":0.8306442499160767,"150":-1.5994840860366821,"151":-1.0295103788375854,"152":-1.290229320526123,"153":-0.14657023549079895,"154":-0.7840793132781982,"155":0.9462959170341492,"156":0.46233102679252625,"157":0.8755048513412476,"158":-0.11423125863075256,"159":0.35317322611808777,"160":0.9766894578933716,"161":-1.463464617729187,"162":0.8198758363723755,"163":0.8625454306602478,"164":-0.9257620573043823,"165":0.04265131056308746,"166":-0.3134009838104248,"167":0.19500140845775604,"168":0.18014021217823029,"169":-1.8207340240478516,"170":-0.8394652605056763,"171":-0.5214382410049438,"172":1.1845855712890625,"173":-0.004413461312651634,"174":0.013548463582992554,"175":-0.2873704731464386,"176":0.45092225074768066,"177":-0.10775672644376755,"178":-0.7900850176811218,"179":1.0614241361618042,"180":0.907222330570221,"181":0.2107108235359192,"182":2.037144660949707,"183":0.2697441577911377,"184":0.0479649156332016,"185":-1.5874719619750977,"186":-0.19106191396713257,"187":-0.5582778453826904,"188":-1.5715482234954834,"189":0.9124274253845215,"190":-0.22891765832901,"191":-0.6201827526092529,"192":-1.341369867324829,"193":0.20257137715816498,"194":-1.1747421026229858,"195":0.8684878945350647,"196":0.8457366824150085,"197":1.0306588411331177,"198":-1.0321896076202393,"199":-0.9878783822059631,"200":1.3537286520004272,"201":-2.3774704933166504,"202":1.2808966636657715,"203":0.8484055399894714,"204":0.033803701400756836,"205":-0.020424729213118553,"206":-1.0665141344070435,"207":0.9772027730941772,"208":1.61487877368927,"209":-0.5975412130355835,"210":-1.3234875202178955,"211":-1.5508953332901,"212":-0.7151005864143372,"213":0.4094221889972687,"214":-1.1533011198043823,"215":-0.3028191030025482,"216":0.9052988886833191,"217":-1.317416787147522,"218":-0.178275465965271,"219":0.8934013843536377,"220":0.378933846950531,"221":-1.151797890663147,"222":0.2534436881542206,"223":0.5261791348457336,"224":0.20083339512348175,"225":0.09984615445137024,"226":-0.6106427907943726,"227":0.8403680920600891,"228":0.21191664040088654,"229":-1.7553894519805908,"230":-0.4433923661708832,"231":-0.5827417969703674,"232":0.47390016913414,"233":0.6899802684783936,"234":-0.17994478344917297,"235":0.2741340696811676,"236":-1.6131638288497925,"237":0.020653918385505676,"238":0.04244963452219963,"239":-1.1942062377929688,"240":0.7739710211753845,"241":-1.1131408214569092,"242":1.0597659349441528,"243":0.4860379099845886,"244":-0.005370947066694498,"245":-0.5905982851982117,"246":-1.395872950553894,"247":-0.0058081443421542645,"248":0.2701081335544586,"249":-0.8490967154502869,"250":0.44832175970077515,"251":-1.0243444442749023,"252":0.9063501358032227,"253":1.1937499046325684,"254":-0.46994152665138245,"255":-0.6245702505111694,"256":-0.15334482491016388,"257":-0.4970279037952423,"258":0.5742073655128479,"259":0.08959019184112549,"260":4.26983118057251,"261":-2.5329644680023193,"262":-2.0424551963806152,"263":-1.196216344833374,"264":1.1129388809204102,"265":-1.6627531051635742,"266":1.5566247701644897,"267":-1.5756341218948364,"268":1.87781822681427,"269":-1.9443340301513672,"270":-0.9659798741340637,"271":2.205798387527466,"272":-0.762299120426178,"273":-3.4475932121276855,"274":3.4870731830596924,"275":0.07606782019138336,"276":-1.2626649141311646,"277":0.12808619439601898,"278":-2.717593193054199,"279":0.6036903858184814,"280":-0.0306643508374691,"281":-0.14381922781467438,"282":1.0337268114089966,"283":-0.33327776193618774,"284":-0.05623992159962654,"285":0.7519843578338623,"286":0.24906441569328308,"287":0.019880030304193497,"288":-0.8644940853118896,"289":-0.17981134355068207,"290":-0.22103698551654816,"291":-0.24764230847358704,"292":-0.19519327580928802,"293":-0.90665602684021,"294":-0.6090991497039795,"295":0.7212229371070862,"296":-1.4971154928207397,"297":0.6613008379936218,"298":-0.8408711552619934,"299":-0.4153295159339905,"300":-0.6489743590354919,"301":1.1333849430084229,"302":-0.692965030670166,"303":0.5512420535087585,"304":-0.6633415818214417,"305":-0.5578697919845581,"306":-0.3700558543205261,"307":-0.49465835094451904,"308":-0.028194472193717957,"309":0.9755703210830688,"310":0.0386371873319149,"311":-0.30555886030197144,"312":-0.3578316271305084,"313":0.4101519286632538,"314":0.895115852355957,"315":0.46452486515045166,"316":0.07666192203760147,"317":0.2814537286758423,"318":0.10786797106266022,"319":0.0799538642168045,"320":2.7096049785614014,"321":-1.0603611469268799,"322":-1.0724031925201416,"323":-0.40547800064086914,"324":-0.5155062675476074,"325":-2.7693896293640137,"326":3.6912944316864014,"327":-0.36640530824661255,"328":0.022792041301727295,"329":-0.7140870094299316,"330":-0.06282028555870056,"331":1.8074367046356201,"332":0.4510785937309265,"333":2.018954277038574,"334":3.51117205619812,"335":0.6689721941947937,"336":-0.6023690104484558,"337":0.6459380388259888,"338":1.5531409978866577,"339":0.016099316999316216,"340":-0.5577865242958069,"341":1.6917426586151123,"342":-0.5328884124755859,"343":0.46880555152893066,"344":-0.21205618977546692,"345":-0.5529873371124268,"346":-0.14135949313640594,"347":-0.3333703577518463,"348":0.20524510741233826,"349":0.6221598982810974,"350":-0.06463959813117981,"351":0.4510399401187897,"352":-0.7464736104011536,"353":0.28308194875717163,"354":0.5561620593070984,"355":0.5294793844223022,"356":-0.39957675337791443,"357":0.47594165802001953,"358":-0.18240408599376678,"359":0.3378285765647888,"360":1.1152161359786987,"361":-0.5114362239837646,"362":1.7320959568023682,"363":-1.11716890335083,"364":0.410203754901886,"365":-0.6178537607192993,"366":0.72245854139328,"367":-0.6991719603538513,"368":-0.9221748113632202,"369":-0.6522089838981628,"370":-0.3821084499359131,"371":0.09031878411769867,"372":-0.32969895005226135,"373":-0.18544334173202515,"374":-1.081866979598999,"375":0.1725882887840271,"376":-1.6762348413467407,"377":0.796172559261322,"378":-0.522089421749115,"379":-0.18080274760723114,"380":1.5428403615951538,"381":0.33613139390945435,"382":0.43512222170829773,"383":-0.9069569110870361,"384":1.861724615097046,"385":-2.3639726638793945,"386":0.4786730110645294,"387":1.1601548194885254,"388":-2.369130849838257,"389":0.057703569531440735,"390":-0.4071604907512665,"391":-0.30632248520851135,"392":-1.2514190673828125,"393":3.5960283279418945,"394":-0.05646902695298195,"395":0.9951438903808594,"396":-3.0094451904296875,"397":0.552207887172699,"398":1.8968594074249268,"399":0.862944483757019}},"cellActivationBias":{"rows":20,"columns":1,"weights":{"0":0.36145609617233276,"1":1.5264636278152466,"2":-1.1542754173278809,"3":-1.1364712715148926,"4":0.09404607117176056,"5":0.23121477663516998,"6":1.4393125772476196,"7":0.34326469898223877,"8":0.27767834067344666,"9":-0.12568701803684235,"10":0.3464222848415375,"11":1.5731600522994995,"12":0.17165401577949524,"13":-0.5679934620857239,"14":0.8518075346946716,"15":0.7486569881439209,"16":-0.08517470210790634,"17":0.8397077918052673,"18":0.09821070730686188,"19":-0.08957529067993164}}}],"outputConnector":{"rows":14,"columns":20,"weights":{"0":2.8012397289276123,"1":-0.9948882460594177,"2":1.8152401447296143,"3":-1.3382641077041626,"4":2.7609469890594482,"5":2.8535194396972656,"6":0.5508607625961304,"7":3.2977652549743652,"8":-0.9515823721885681,"9":-2.720897674560547,"10":1.0657814741134644,"11":-1.5548710823059082,"12":-0.9114188551902771,"13":-1.9958674907684326,"14":-0.8719231486320496,"15":1.7032992839813232,"16":3.91019868850708,"17":3.4848532676696777,"18":-0.3156696557998657,"19":5.696035861968994,"20":-0.6049841046333313,"21":-0.8406202793121338,"22":0.3604269325733185,"23":-1.7204173803329468,"24":1.9823050498962402,"25":0.36741766333580017,"26":-0.899857759475708,"27":-3.9344305992126465,"28":0.1504363864660263,"29":0.25412002205848694,"30":0.9583390951156616,"31":0.15136873722076416,"32":3.40679669380188,"33":-0.7452497482299805,"34":-0.09114681929349899,"35":0.703881025314331,"36":-1.1394455432891846,"37":-0.9437626004219055,"38":0.23908564448356628,"39":6.297849655151367,"40":2.69620418548584,"41":-2.9810636043548584,"42":2.762078285217285,"43":3.4943222999572754,"44":1.9128379821777344,"45":-0.07040614634752274,"46":-1.1747444868087769,"47":-3.475506067276001,"48":-1.6602487564086914,"49":-2.5051398277282715,"50":-1.9963233470916748,"51":-0.888768196105957,"52":-1.6972938776016235,"53":1.6491094827651978,"54":-2.387470006942749,"55":1.0642300844192505,"56":3.5223684310913086,"57":1.154345989227295,"58":-3.5649311542510986,"59":-3.4981627464294434,"60":1.9504367113113403,"61":0.27096790075302124,"62":1.559130311012268,"63":-2.9524309635162354,"64":-0.2650420069694519,"65":0.9244227409362793,"66":-0.3646262288093567,"67":-0.018757039681077003,"68":-0.4881565272808075,"69":-2.6764347553253174,"70":-2.3685719966888428,"71":-0.8348885178565979,"72":-2.937685489654541,"73":-1.9671258926391602,"74":-0.8062406182289124,"75":1.7741507291793823,"76":-4.450482368469238,"77":3.4054479598999023,"78":-5.955807209014893,"79":-2.9895455837249756,"80":0.047370363026857376,"81":-0.10766105353832245,"82":-0.028370503336191177,"83":-1.9615687131881714,"84":0.5232898592948914,"85":0.8774132132530212,"86":-2.3772573471069336,"87":1.7786791324615479,"88":0.49044644832611084,"89":0.25425949692726135,"90":2.5765271186828613,"91":0.17131662368774414,"92":0.06402700394392014,"93":-2.003495216369629,"94":-0.10947419703006744,"95":0.13238300383090973,"96":-0.220294788479805,"97":-0.7626743912696838,"98":1.7060177326202393,"99":1.249599814414978,"100":-0.01058486383408308,"101":-0.014791143126785755,"102":-0.14104261994361877,"103":-1.797896146774292,"104":0.6649399995803833,"105":0.8137407898902893,"106":-0.4079670011997223,"107":0.5843423008918762,"108":0.9884344339370728,"109":-0.0023796786554157734,"110":2.368114471435547,"111":0.1928812712430954,"112":-0.33726072311401367,"113":-5.177501201629639,"114":0.01041475124657154,"115":-5.131337642669678,"116":0.5136741995811462,"117":-0.9399017691612244,"118":0.04319491982460022,"119":-1.3881447315216064,"120":0.17447012662887573,"121":0.1659523993730545,"122":-0.07590486854314804,"123":-2.3932101726531982,"124":2.524381637573242,"125":0.9643537998199463,"126":-0.3045273721218109,"127":-1.7624568939208984,"128":0.8753595948219299,"129":0.016650667414069176,"130":4.894680023193359,"131":0.16216929256916046,"132":0.5297746658325195,"133":0.7208883166313171,"134":-0.09544046968221664,"135":-8.395931243896484,"136":0.21678344905376434,"137":-1.717298150062561,"138":-1.0366648435592651,"139":-0.9386348724365234,"140":-1.1123857498168945,"141":-0.5225574374198914,"142":-0.23183470964431763,"143":-0.9206146597862244,"144":-1.7825664281845093,"145":-0.2836781442165375,"146":0.020095761865377426,"147":-4.76048469543457,"148":0.2384398728609085,"149":-0.3161677122116089,"150":1.6704916954040527,"151":0.19007542729377747,"152":1.2063530683517456,"153":1.4709315299987793,"154":-0.04364994168281555,"155":-4.358907699584961,"156":-0.21521133184432983,"157":-1.217901587486267,"158":-1.3686892986297607,"159":-0.8990463018417358,"160":-0.8935161232948303,"161":-0.48270100355148315,"162":-0.5564541220664978,"163":3.888096332550049,"164":-2.7837326526641846,"165":0.05979164317250252,"166":-0.02956467866897583,"167":-2.608170747756958,"168":1.8961225748062134,"169":0.02732986956834793,"170":-0.21892331540584564,"171":0.18303585052490234,"172":1.084942102432251,"173":0.42209377884864807,"174":-0.02388625033199787,"175":-1.890464425086975,"176":-0.0016037101158872247,"177":-0.7839470505714417,"178":0.14469005167484283,"179":-0.5056704878807068,"180":-2.314659833908081,"181":-3.0224201679229736,"182":0.0025686852168291807,"183":2.5848944187164307,"184":-0.47426465153694153,"185":-2.097679376602173,"186":1.7389984130859375,"187":2.6996288299560547,"188":4.972044944763184,"189":-0.7433024048805237,"190":-2.3272862434387207,"191":-0.4006592929363251,"192":0.7730905413627625,"193":1.8276951313018799,"194":-4.143922805786133,"195":-1.6228172779083252,"196":1.2932711839675903,"197":-2.5619685649871826,"198":3.1659460067749023,"199":-0.7433730363845825,"200":-1.8321330547332764,"201":-3.2689223289489746,"202":6.080368518829346,"203":1.7823681831359863,"204":0.3923639953136444,"205":-0.9513332843780518,"206":1.724539875984192,"207":1.4798521995544434,"208":7.062734603881836,"209":-3.483577013015747,"210":-2.199601888656616,"211":-1.3862864971160889,"212":3.552720546722412,"213":1.142464518547058,"214":-6.255887508392334,"215":-1.3729270696640015,"216":2.1435046195983887,"217":-1.4814215898513794,"218":1.6737713813781738,"219":-0.8004627227783203,"220":1.603978157043457,"221":-2.1895840167999268,"222":6.1738715171813965,"223":1.5485100746154785,"224":0.00596057390794158,"225":-0.7089277505874634,"226":-2.1402714252471924,"227":1.29853355884552,"228":5.716922760009766,"229":-3.234630584716797,"230":-1.4513413906097412,"231":-2.383253812789917,"232":5.220670700073242,"233":1.3771857023239136,"234":-3.689764976501465,"235":-1.6006003618240356,"236":3.571460247039795,"237":-1.3738651275634766,"238":1.39987051486969,"239":-0.5591882467269897,"240":2.617893934249878,"241":-2.1953125,"242":5.325416088104248,"243":0.07808748632669449,"244":-0.32901906967163086,"245":-0.9793018102645874,"246":-2.8782291412353516,"247":1.721156358718872,"248":2.0853378772735596,"249":-1.9409395456314087,"250":1.5949360132217407,"251":-2.0342142581939697,"252":2.3657517433166504,"253":1.3064186573028564,"254":-0.26134681701660156,"255":-1.8149325847625732,"256":-1.3423364162445068,"257":-1.2677685022354126,"258":1.1966842412948608,"259":2.3497307300567627,"260":2.0516014099121094,"261":-4.457200050354004,"262":6.904412269592285,"263":-0.30467715859413147,"264":-0.4770338237285614,"265":-0.014853371307253838,"266":0.12924541532993317,"267":-1.1731382608413696,"268":0.7252815961837769,"269":-1.28675377368927,"270":0.7502498626708984,"271":-3.494771957397461,"272":2.1603851318359375,"273":-2.801875591278076,"274":-2.650740385055542,"275":-1.7644448280334473,"276":0.49836069345474243,"277":-1.2934134006500244,"278":-1.4226057529449463,"279":0.7345527410507202}},"output":{"rows":14,"columns":1,"weights":{"0":-7.144006252288818,"1":-0.00712209939956665,"2":-6.848198413848877,"3":-7.64948034286499,"4":-0.24008195102214813,"5":-0.2940016984939575,"6":-0.19927771389484406,"7":-0.26643723249435425,"8":-0.40840768814086914,"9":-8.139718055725098,"10":-4.754919528961182,"11":-4.4289422035217285,"12":-5.525564670562744,"13":-4.229726791381836}}}