{"type":"LSTM","options":{"inputSize":13,"inputRange":13,"hiddenLayers":[20],"outputSize":13,"decayRate":0.999,"smoothEps":1e-8,"regc":0.000001,"clipval":5,"maxPredictionLength":100,"dataFormatter":{"values":["0+0=0","0+1=1","0+2=2","0+3=3","0+4=4","0+5=5","1+0=1","1+1=2","1+2=3","1+3=4","1+4=5","1+5=6","2+0=2","2+1=3","2+2=4","2+3=5","2+4=6","2+5=7","3+0=3","3+1=4","3+2=5","3+3=6","3+4=7","3+5=8","4+0=4","4+1=5","4+2=6","4+3=7","4+4=8","4+5=9","5+0=5","5+1=6","5+2=7","5+3=8","5+4=9","5+5=10"],"indexTable":{"0":0,"1":3,"2":4,"3":5,"4":6,"5":7,"6":8,"7":9,"8":10,"9":11,"+":1,"=":2,"unrecognized":12},"characterTable":{"0":"0","1":"+","2":"=","3":"1","4":"2","5":"3","6":"4","7":"5","8":"6","9":"7","10":"8","11":"9","12":null},"characters":["0","+","=","1","2","3","4","5","6","7","8","9","unrecognized"],"specialIndexes":[12]}},"input":{"rows":14,"columns":13,"weights":{"0":0.4844909906387329,"1":-0.3013947606086731,"2":0.4450222849845886,"3":-0.2215040773153305,"4":-0.6524896621704102,"5":0.656563401222229,"6":-0.29470980167388916,"7":-0.593700110912323,"8":-0.02391774021089077,"9":-0.007836551405489445,"10":0.5927134156227112,"11":0.073799267411232,"12":0.1193864643573761,"13":0.6630470752716064,"14":1.610627293586731,"15":1.8200244903564453,"16":-2.827256917953491,"17":-0.8561862111091614,"18":-2.212811231613159,"19":-2.221461534500122,"20":2.551468849182129,"21":1.760250449180603,"22":0.3305014967918396,"23":-3.1852285861968994,"24":1.654323697090149,"25":-1.5797429084777832,"26":0.3804568946361542,"27":-0.17222489416599274,"28":0.17813001573085785,"29":0.48139849305152893,"30":-0.5923355221748352,"31":1.5271849632263184,"32":-0.3991600275039673,"33":-0.9891990423202515,"34":0.18025819957256317,"35":-0.30895206332206726,"36":1.5270098447799683,"37":0.2826968729496002,"38":-0.930242657661438,"39":-0.7666052579879761,"40":-0.13734358549118042,"41":-1.0701043605804443,"42":0.44504913687705994,"43":0.46439018845558167,"44":-0.10204778611660004,"45":0.26278409361839294,"46":0.08116517215967178,"47":0.11598627269268036,"48":0.348354697227478,"49":-0.13685452938079834,"50":0.17911139130592346,"51":0.048948660492897034,"52":0.3050169050693512,"53":1.7383686304092407,"54":-0.5463384389877319,"55":-4.468851566314697,"56":0.18995130062103271,"57":-0.7186647653579712,"58":-2.6800167560577393,"59":0.6775131821632385,"60":1.1594312191009521,"61":-0.2989838421344757,"62":-2.216583251953125,"63":1.041322946548462,"64":-0.6713359355926514,"65":-0.3634401857852936,"66":2.651984214782715,"67":-0.10955459624528885,"68":0.31469395756721497,"69":0.1611948311328888,"70":-0.5400848388671875,"71":-1.3186285495758057,"72":0.6312896609306335,"73":4.75478982925415,"74":0.06529028713703156,"75":-0.40831267833709717,"76":-0.45336800813674927,"77":-1.3492838144302368,"78":-0.3941017985343933,"79":-1.1876273155212402,"80":-1.4407023191452026,"81":1.0554091930389404,"82":0.29813316464424133,"83":0.38642773032188416,"84":0.99051433801651,"85":-0.15512992441654205,"86":0.7918310761451721,"87":0.1760181039571762,"88":1.0212218761444092,"89":-2.1233901977539062,"90":1.1847034692764282,"91":-0.2714698910713196,"92":2.6075615882873535,"93":0.08528367429971695,"94":0.21369965374469757,"95":2.9170403480529785,"96":-1.1176137924194336,"97":0.04785517603158951,"98":1.188607096672058,"99":0.07214633375406265,"100":0.10213559120893478,"101":0.5372868180274963,"102":-1.1892576217651367,"103":-2.7683558464050293,"104":-0.1468537449836731,"105":-0.7818029522895813,"106":-1.9510595798492432,"107":3.0774850845336914,"108":-0.9094105362892151,"109":-1.4361156225204468,"110":2.8162119388580322,"111":1.7087314128875732,"112":2.0926835536956787,"113":0.5268721580505371,"114":0.6818749308586121,"115":-1.4541279077529907,"116":0.5281761884689331,"117":0.1308213621377945,"118":-0.7813608050346375,"119":-0.9989888668060303,"120":1.4534580707550049,"121":0.2143537700176239,"122":-2.7987945079803467,"123":1.3146531581878662,"124":3.967921257019043,"125":-0.20166677236557007,"126":0.23131661117076874,"127":-1.6935638189315796,"128":0.39081504940986633,"129":0.30118489265441895,"130":2.2214038372039795,"131":-0.7281984090805054,"132":-0.5228537321090698,"133":-0.06531289219856262,"134":0.5419855117797852,"135":-2.965250253677368,"136":1.6188702583312988,"137":3.3395438194274902,"138":1.4986417293548584,"139":-0.34293103218078613,"140":-2.9182121753692627,"141":-1.0311118364334106,"142":1.3453388214111328,"143":0.5253227353096008,"144":-0.2744668424129486,"145":-1.6782493591308594,"146":1.963480830192566,"147":-0.07068397849798203,"148":-3.4467155933380127,"149":3.6390275955200195,"150":4.362635612487793,"151":-0.9527029395103455,"152":-0.2002253532409668,"153":-2.504443883895874,"154":2.4808242321014404,"155":-0.33816906809806824,"156":1.8400523662567139,"157":0.3940911591053009,"158":-2.3699440956115723,"159":3.0309152603149414,"160":-0.7550138831138611,"161":-3.985334873199463,"162":4.791176795959473,"163":4.572115898132324,"164":-1.4478331804275513,"165":-0.63616544008255,"166":-3.432722806930542,"167":1.203810453414917,"168":-0.142410546541214,"169":0.07411523908376694,"170":-0.04617650434374809,"171":0.06703708320856094,"172":0.07385218143463135,"173":0.032722119241952896,"174":-0.07139939069747925,"175":-0.03475330397486687,"176":0.033456336706876755,"177":-0.052865851670503616,"178":-0.06725825369358063,"179":-0.04978402704000473,"180":-0.05641522631049156,"181":0.05620046332478523}},"hiddenLayers":[{"inputMatrix":{"rows":20,"columns":13,"weights":{"0":-1.0251665115356445,"1":0.32007187604904175,"2":-0.7395910024642944,"3":0.7949520945549011,"4":0.8846316933631897,"5":-0.218448668718338,"6":0.24739393591880798,"7":0.10015617311000824,"8":0.8038556575775146,"9":0.32116439938545227,"10":0.16314175724983215,"11":-0.13203363120555878,"12":-0.9911487698554993,"13":-0.6840516924858093,"14":2.836421251296997,"15":1.1636991500854492,"16":-1.86470627784729,"17":1.7739561796188354,"18":-2.308075428009033,"19":-0.981798529624939,"20":1.8494715690612793,"21":-0.277846097946167,"22":0.2518302798271179,"23":-2.873537540435791,"24":-0.36681485176086426,"25":0.4694209098815918,"26":0.12441973388195038,"27":1.5787250995635986,"28":0.40561890602111816,"29":-0.3215329647064209,"30":1.0288288593292236,"31":-0.9049318432807922,"32":-0.35891300439834595,"33":0.6569313406944275,"34":0.40981027483940125,"35":0.2154959887266159,"36":-1.2273695468902588,"37":1.1833609342575073,"38":-2.3132102489471436,"39":0.10718410462141037,"40":-1.2889699935913086,"41":-0.5859538912773132,"42":0.8864601850509644,"43":-0.4201238751411438,"44":0.14104928076267242,"45":1.3374953269958496,"46":0.0248137004673481,"47":0.28287577629089355,"48":0.4057968556880951,"49":0.3908231556415558,"50":0.08278562873601913,"51":0.8415934443473816,"52":-0.36828821897506714,"53":0.11075328290462494,"54":-0.9384207725524902,"55":-0.1764512062072754,"56":0.5953854322433472,"57":-0.13513502478599548,"58":-0.05785726383328438,"59":0.016795970499515533,"60":-0.15549640357494354,"61":-0.019732356071472168,"62":0.002366006374359131,"63":-0.4292772710323334,"64":-0.10307122021913528,"65":-1.22099769115448,"66":0.5407646298408508,"67":-0.6598255634307861,"68":0.0007609415915794671,"69":2.713857412338257,"70":-0.6655449271202087,"71":0.049624789506196976,"72":0.36703649163246155,"73":-0.7415955066680908,"74":1.0088902711868286,"75":-1.0338891744613647,"76":-0.3288193643093109,"77":-2.6642472743988037,"78":-0.8978219032287598,"79":0.2805599868297577,"80":-1.3626197576522827,"81":1.8418694734573364,"82":0.774917483329773,"83":0.023039529100060463,"84":0.7713996767997742,"85":0.46375882625579834,"86":-0.7491658329963684,"87":0.28091537952423096,"88":0.8228509426116943,"89":0.3178917169570923,"90":-0.06580886244773865,"91":1.0052580833435059,"92":-1.2899129390716553,"93":1.274684190750122,"94":-0.05391816049814224,"95":-0.5130026340484619,"96":0.4442291557788849,"97":0.838901162147522,"98":-0.3365475833415985,"99":-0.8634724617004395,"100":-0.924653172492981,"101":0.3061370849609375,"102":0.622182309627533,"103":0.09122176468372345,"104":-0.16421419382095337,"105":-2.4747536182403564,"106":-1.1714905500411987,"107":0.8953564167022705,"108":-0.5558812022209167,"109":0.27705660462379456,"110":1.8695100545883179,"111":-0.19083599746227264,"112":-0.04797127842903137,"113":-0.5019823908805847,"114":0.9161460995674133,"115":0.790359377861023,"116":0.9042484760284424,"117":-0.33213090896606445,"118":0.20607712864875793,"119":0.19127234816551208,"120":0.32728901505470276,"121":0.985535204410553,"122":-0.9321121573448181,"123":0.22662600874900818,"124":0.6236768364906311,"125":0.2929493486881256,"126":0.476956844329834,"127":-0.8395867347717285,"128":0.43152904510498047,"129":-0.6733331680297852,"130":-0.8274492025375366,"131":0.03246920183300972,"132":-1.067388653755188,"133":0.8599323034286499,"134":1.308901071548462,"135":-0.7237952351570129,"136":0.6198936700820923,"137":0.5244688391685486,"138":-0.08364369720220566,"139":0.9651574492454529,"140":0.7263703942298889,"141":-1.793566107749939,"142":-0.2883794605731964,"143":0.5346500277519226,"144":-0.15623262524604797,"145":-0.49455246329307556,"146":0.1939113289117813,"147":-1.0287232398986816,"148":0.3675641417503357,"149":0.03136051818728447,"150":0.09932991862297058,"151":1.5695043802261353,"152":-0.2132224440574646,"153":-0.13598234951496124,"154":0.37680312991142273,"155":0.6042030453681946,"156":-0.8264709115028381,"157":-0.7033321857452393,"158":-1.3624683618545532,"159":1.7356853485107422,"160":1.7487670183181763,"161":0.8260764479637146,"162":1.2443832159042358,"163":-1.0381990671157837,"164":0.5145363807678223,"165":1.7109782695770264,"166":1.7587388753890991,"167":-1.105271816253662,"168":-0.734889030456543,"169":-0.48658591508865356,"170":1.422567367553711,"171":0.3917968273162842,"172":-1.1550270318984985,"173":1.2506152391433716,"174":-1.9707742929458618,"175":-0.7673285603523254,"176":1.3770763874053955,"177":0.22426345944404602,"178":0.5133840441703796,"179":-2.9049460887908936,"180":1.1166797876358032,"181":0.3544195890426636,"182":-0.7808272838592529,"183":1.0939013957977295,"184":-0.978635311126709,"185":0.46517571806907654,"186":0.4637211859226227,"187":-1.735375165939331,"188":-1.0417145490646362,"189":1.8590961694717407,"190":0.627636730670929,"191":0.6895157694816589,"192":-1.833238124847412,"193":1.3612656593322754,"194":-2.1178958415985107,"195":-0.20936782658100128,"196":0.15439793467521667,"197":0.10721570998430252,"198":0.09866809099912643,"199":-0.4742007851600647,"200":-0.06768818944692612,"201":-0.3570965826511383,"202":0.3575352430343628,"203":0.5675751566886902,"204":-0.08211542665958405,"205":-0.2775203287601471,"206":1.2853732109069824,"207":-0.7455417513847351,"208":0.0219977218657732,"209":-0.0011959669645875692,"210":0.6572341918945312,"211":-0.5458918213844299,"212":0.9509071707725525,"213":-0.5294753909111023,"214":0.40529710054397583,"215":0.24183455109596252,"216":-0.0994081199169159,"217":0.7509428262710571,"218":-0.723911702632904,"219":1.0467146635055542,"220":-0.8429316282272339,"221":-1.6113168001174927,"222":0.8832923173904419,"223":-1.6237026453018188,"224":0.5610607266426086,"225":1.3166608810424805,"226":0.091696597635746,"227":-0.7768830060958862,"228":-0.13547790050506592,"229":0.7501398921012878,"230":0.5327886343002319,"231":-0.029354028403759003,"232":-0.9846591353416443,"233":0.3945096433162689,"234":0.36815181374549866,"235":0.10265281051397324,"236":0.18328852951526642,"237":-0.17796145379543304,"238":-1.1957132816314697,"239":0.6979056000709534,"240":-0.4719139337539673,"241":-0.4044858515262604,"242":2.1127305030822754,"243":-0.03811926394701004,"244":0.4178363084793091,"245":0.6019349098205566,"246":-0.7258257865905762,"247":-1.0101104974746704,"248":-0.5499866008758545,"249":-1.1871225833892822,"250":0.24047012627124786,"251":0.6132522821426392,"252":-1.1911569833755493,"253":1.1117337942123413,"254":1.0540356636047363,"255":0.09947985410690308,"256":1.2611913681030273,"257":-0.8577039837837219,"258":0.3781258165836334,"259":0.4855429530143738}},"inputHidden":{"rows":20,"columns":20,"weights":{"0":3.6628100872039795,"1":-0.6020510196685791,"2":-0.3778722584247589,"3":-1.6470661163330078,"4":3.374441385269165,"5":1.6337684392929077,"6":1.1735491752624512,"7":-1.8217018842697144,"8":-1.6888072490692139,"9":-3.205972671508789,"10":1.4955552816390991,"11":-0.7815311551094055,"12":-0.9513971209526062,"13":-3.2803542613983154,"14":-1.6366885900497437,"15":-0.16301633417606354,"16":1.8261820077896118,"17":4.148552417755127,"18":-0.9844487905502319,"19":-2.469261884689331,"20":-2.1838557720184326,"21":2.451921224594116,"22":-0.06626836955547333,"23":-1.011494755744934,"24":1.331592321395874,"25":0.5004592537879944,"26":0.5776404738426208,"27":1.279797911643982,"28":1.513393521308899,"29":0.6540030837059021,"30":-1.9594320058822632,"31":0.3242153227329254,"32":0.14878879487514496,"33":0.14958415925502777,"34":-0.9966346025466919,"35":-0.13497225940227509,"36":-0.18460345268249512,"37":-1.318703293800354,"38":-0.09627041965723038,"39":3.2347779273986816,"40":2.204420328140259,"41":-1.5151920318603516,"42":-2.863375425338745,"43":0.9926299452781677,"44":0.22214604914188385,"45":-1.9956270456314087,"46":2.1802802085876465,"47":-0.16546449065208435,"48":-1.7842463254928589,"49":2.693443775177002,"50":2.250342845916748,"51":0.5413916707038879,"52":-0.6122509241104126,"53":-0.8723567724227905,"54":0.7245112657546997,"55":-5.9657087326049805,"56":-4.083250999450684,"57":-0.21867822110652924,"58":-0.1403663605451584,"59":-1.6485625505447388,"60":1.0185669660568237,"61":-3.568895101547241,"62":-2.0329506397247314,"63":-3.206745147705078,"64":2.589946746826172,"65":-2.613797664642334,"66":0.6764551401138306,"67":-0.02810429409146309,"68":-1.2204219102859497,"69":1.6647822856903076,"70":1.9478631019592285,"71":-3.1808021068573,"72":-0.4242062568664551,"73":0.6296175122261047,"74":-0.8547587990760803,"75":-2.674687385559082,"76":-1.303046703338623,"77":0.015922438353300095,"78":0.2697884440422058,"79":-2.4055306911468506,"80":0.22413863241672516,"81":0.6057519316673279,"82":-1.0709487199783325,"83":1.994826078414917,"84":-3.3082642555236816,"85":1.0312349796295166,"86":-0.18725331127643585,"87":0.682610034942627,"88":-0.1274053007364273,"89":1.743911623954773,"90":-2.2846248149871826,"91":2.0955004692077637,"92":-1.3232380151748657,"93":-4.746840476989746,"94":-3.156120538711548,"95":1.4666961431503296,"96":1.3589493036270142,"97":8.059847831726074,"98":-1.0492056608200073,"99":-2.893214464187622,"100":-0.7784152030944824,"101":0.2077089250087738,"102":-0.9268373250961304,"103":0.13026763498783112,"104":0.731726348400116,"105":-0.887163519859314,"106":-0.20640164613723755,"107":3.1056957244873047,"108":-1.3475754261016846,"109":-0.7664299011230469,"110":0.4577040672302246,"111":-2.5887186527252197,"112":0.2747064232826233,"113":0.3704013228416443,"114":1.1291532516479492,"115":-1.2113968133926392,"116":-0.4919777512550354,"117":-1.3941473960876465,"118":3.1464133262634277,"119":0.8462263345718384,"120":-0.978324830532074,"121":-0.037660203874111176,"122":-0.6670297980308533,"123":-3.281385660171509,"124":-8.743470191955566,"125":0.5672863721847534,"126":-2.3421273231506348,"127":0.07477930933237076,"128":3.815356969833374,"129":-1.3848352432250977,"130":-2.5229811668395996,"131":4.016106605529785,"132":1.8825411796569824,"133":-1.0872979164123535,"134":0.23753859102725983,"135":0.33493879437446594,"136":0.156236931681633,"137":1.657630443572998,"138":-0.69001704454422,"139":-0.34555870294570923,"140":-0.8080308437347412,"141":-0.6146323084831238,"142":0.7693668007850647,"143":0.77693772315979,"144":-1.9701244831085205,"145":1.9691959619522095,"146":-0.09069089591503143,"147":-3.324810266494751,"148":0.3370104134082794,"149":-2.6855292320251465,"150":0.13306249678134918,"151":1.171136736869812,"152":0.6661657094955444,"153":-0.39798736572265625,"154":-1.271751880645752,"155":1.7657502889633179,"156":0.8947626352310181,"157":1.6852487325668335,"158":-2.94049334526062,"159":-1.2792731523513794,"160":-3.2545831203460693,"161":1.8471466302871704,"162":1.0223146677017212,"163":-0.6323186755180359,"164":-0.8790033459663391,"165":2.363391876220703,"166":0.012125718407332897,"167":0.7618992924690247,"168":-0.07445885241031647,"169":-2.5786831378936768,"170":-1.9401222467422485,"171":-0.08283603936433792,"172":0.7414805293083191,"173":-0.5317639708518982,"174":-0.11989951133728027,"175":1.6055855751037598,"176":1.829085111618042,"177":-1.0001895427703857,"178":0.9824069142341614,"179":-1.3080112934112549,"180":3.5751430988311768,"181":0.18169495463371277,"182":2.372986078262329,"183":-3.622994899749756,"184":-1.1963770389556885,"185":2.9093682765960693,"186":-0.09812004864215851,"187":-0.5896795392036438,"188":-2.7652039527893066,"189":-0.6309077143669128,"190":0.10996405780315399,"191":0.14635635912418365,"192":-0.9908443689346313,"193":3.895643949508667,"194":3.207967758178711,"195":-0.6422774195671082,"196":-0.8235771656036377,"197":-3.7130746841430664,"198":1.1313858032226562,"199":-0.5227197408676147,"200":3.0453455448150635,"201":-0.9329152703285217,"202":-1.3001995086669922,"203":-0.6150609254837036,"204":6.0634660720825195,"205":-0.17446409165859222,"206":3.113901138305664,"207":-0.17334870994091034,"208":1.6879024505615234,"209":2.5168001651763916,"210":2.4521472454071045,"211":-2.976684808731079,"212":-2.7090768814086914,"213":-0.26231545209884644,"214":0.4052242934703827,"215":-3.020909070968628,"216":-1.6566221714019775,"217":0.7526972889900208,"218":0.41168665885925293,"219":-0.4309770464897156,"220":-2.014533758163452,"221":-2.447054147720337,"222":-1.4729965925216675,"223":-3.6609089374542236,"224":2.5456125736236572,"225":-1.230161190032959,"226":1.0275291204452515,"227":-0.317699670791626,"228":0.25174275040626526,"229":0.7994375824928284,"230":0.7458007335662842,"231":-3.012571096420288,"232":-0.2694024443626404,"233":0.1571696251630783,"234":-2.0015480518341064,"235":-3.4926624298095703,"236":-2.8309826850891113,"237":-1.1852922439575195,"238":-0.6160576343536377,"239":-0.0964311882853508,"240":3.6274003982543945,"241":0.7708283066749573,"242":0.0490599162876606,"243":-0.882712185382843,"244":1.2310523986816406,"245":1.7161976099014282,"246":0.5781682729721069,"247":0.6790615320205688,"248":-1.0396634340286255,"249":-0.3102961778640747,"250":2.192525863647461,"251":1.4719529151916504,"252":2.5256447792053223,"253":2.0599281787872314,"254":-1.0524616241455078,"255":-0.04618573188781738,"256":1.0512089729309082,"257":2.3428003787994385,"258":0.7828885316848755,"259":-1.1667605638504028,"260":-2.5940027236938477,"261":1.1554620265960693,"262":1.463497519493103,"263":-0.00977462437003851,"264":-3.5745108127593994,"265":0.9838742017745972,"266":-0.15823668241500854,"267":0.3754696846008301,"268":0.7611281275749207,"269":-0.5415818691253662,"270":-2.1459734439849854,"271":-0.40790078043937683,"272":-0.0037977767642587423,"273":0.690095067024231,"274":0.17279529571533203,"275":2.4290316104888916,"276":0.9990239143371582,"277":-1.763543725013733,"278":0.12296593189239502,"279":2.125176429748535,"280":-0.5091443061828613,"281":2.960763692855835,"282":2.747175693511963,"283":1.7133315801620483,"284":-1.7095428705215454,"285":4.970547199249268,"286":1.2859525680541992,"287":0.4654994606971741,"288":-3.159627914428711,"289":-3.3906362056732178,"290":-0.4905904233455658,"291":-0.03223666921257973,"292":1.3478610515594482,"293":-1.0234780311584473,"294":-0.1727542132139206,"295":4.094078540802002,"296":0.37321019172668457,"297":-0.6237239241600037,"298":3.0887198448181152,"299":-0.679829478263855,"300":0.7087503671646118,"301":0.8454667925834656,"302":4.607288837432861,"303":-1.111992597579956,"304":-2.1119308471679688,"305":0.629073977470398,"306":1.2712634801864624,"307":2.2767586708068848,"308":-1.5689610242843628,"309":0.3923819363117218,"310":0.33455735445022583,"311":0.7282848358154297,"312":-2.057610034942627,"313":3.967102527618408,"314":1.5414081811904907,"315":2.403719663619995,"316":0.9926815032958984,"317":-5.578061580657959,"318":2.418724775314331,"319":-3.309943675994873,"320":3.7454798221588135,"321":-0.8902626633644104,"322":1.8505598306655884,"323":-5.035278797149658,"324":-0.5942131280899048,"325":-0.872115433216095,"326":-3.04231858253479,"327":0.3142710328102112,"328":-0.20128929615020752,"329":0.688258171081543,"330":1.287216067314148,"331":-2.026475429534912,"332":-0.9771711826324463,"333":4.255066871643066,"334":1.0988870859146118,"335":-0.9125491380691528,"336":-1.0609594583511353,"337":-5.1900200843811035,"338":1.9491913318634033,"339":2.021096706390381,"340":3.7659080028533936,"341":-0.31052517890930176,"342":-0.605933427810669,"343":0.316555380821228,"344":0.956807017326355,"345":-0.79236900806427,"346":1.2988574504852295,"347":0.43688341975212097,"348":-3.0638034343719482,"349":0.26249369978904724,"350":0.4071047604084015,"351":-2.421917200088501,"352":3.212264060974121,"353":-0.7810903787612915,"354":0.206717848777771,"355":-2.467397928237915,"356":-0.18523579835891724,"357":2.2936296463012695,"358":0.620503842830658,"359":-2.0385496616363525,"360":-2.3094303607940674,"361":2.470916271209717,"362":0.947207510471344,"363":1.275970220565796,"364":1.9351400136947632,"365":2.957000732421875,"366":-1.318149209022522,"367":0.00936805084347725,"368":1.0587400197982788,"369":0.43721288442611694,"370":-1.8109471797943115,"371":1.0201998949050903,"372":2.933061361312866,"373":2.05959153175354,"374":-1.175201416015625,"375":-0.6078623533248901,"376":-1.2091593742370605,"377":1.630186915397644,"378":-0.5300766229629517,"379":1.2782094478607178,"380":6.965181827545166,"381":1.0528613328933716,"382":0.09815651178359985,"383":-3.6362521648406982,"384":3.364370584487915,"385":-0.140786275267601,"386":-1.8803374767303467,"387":0.8891695141792297,"388":1.8189924955368042,"389":2.9934322834014893,"390":0.5964323878288269,"391":-0.5894420146942139,"392":-2.9486894607543945,"393":1.206101417541504,"394":-0.3018656075000763,"395":-0.7793422341346741,"396":-1.5340006351470947,"397":-3.411437749862671,"398":1.0107890367507935,"399":2.602736711502075}},"inputBias":{"rows":20,"columns":1,"weights":{"0":-0.6077243089675903,"1":0.8016148209571838,"2":-0.5792130827903748,"3":0.6810312271118164,"4":-0.2610306739807129,"5":-0.3438521921634674,"6":-0.6312690377235413,"7":0.13709837198257446,"8":-1.499203085899353,"9":-2.019740104675293,"10":-0.5471647381782532,"11":-0.15848273038864136,"12":-1.5783802270889282,"13":-1.327940583229065,"14":-0.5023607611656189,"15":-1.4341756105422974,"16":-0.7207041382789612,"17":-0.8465268015861511,"18":-1.0173850059509277,"19":0.3146643042564392}},"forgetMatrix":{"rows":20,"columns":13,"weights":{"0":0.3750717341899872,"1":-0.41582411527633667,"2":0.4170176684856415,"3":2.14613938331604,"4":-0.3373892903327942,"5":-1.0401861667633057,"6":0.9651381969451904,"7":0.850860059261322,"8":0.5434738397598267,"9":0.7598875164985657,"10":-0.026155436411499977,"11":-0.8684564232826233,"12":-1.298334002494812,"13":-0.841881513595581,"14":0.11061731725931168,"15":-0.8943323493003845,"16":-0.08511731773614883,"17":0.39091992378234863,"18":-1.232054591178894,"19":0.01905713975429535,"20":1.3791818618774414,"21":2.2199113368988037,"22":0.9579004049301147,"23":-0.9505752325057983,"24":-0.9947866797447205,"25":-0.4520227611064911,"26":-1.6547064781188965,"27":0.29401424527168274,"28":0.44361695647239685,"29":0.9477503895759583,"30":1.355626106262207,"31":-0.448340505361557,"32":0.2132246494293213,"33":0.6022493839263916,"34":1.4188110828399658,"35":2.192608594894409,"36":0.180129274725914,"37":-1.29083251953125,"38":-0.8204919695854187,"39":1.0920426845550537,"40":0.30849185585975647,"41":1.615757703781128,"42":-0.7637650370597839,"43":-1.016502857208252,"44":0.5571942925453186,"45":-1.1759220361709595,"46":-0.6147967576980591,"47":-1.7746349573135376,"48":-1.3445448875427246,"49":0.47477397322654724,"50":1.210878849029541,"51":-0.45522540807724,"52":-0.03406247869133949,"53":-0.7056874632835388,"54":-0.3723018765449524,"55":0.16877250373363495,"56":-0.34736722707748413,"57":-0.6393263936042786,"58":2.0352213382720947,"59":0.8259982466697693,"60":0.5074459314346313,"61":0.03110646642744541,"62":0.30926448106765747,"63":-1.4953840970993042,"64":1.3426694869995117,"65":-1.945677638053894,"66":0.503571093082428,"67":-0.9231347441673279,"68":-0.363712340593338,"69":1.1987497806549072,"70":-1.5148730278015137,"71":-0.01867142878472805,"72":1.2458685636520386,"73":0.5739852786064148,"74":1.5071109533309937,"75":-1.5188719034194946,"76":-1.1440774202346802,"77":1.3616949319839478,"78":1.062481164932251,"79":-1.4966322183609009,"80":0.24456654489040375,"81":-0.3064078688621521,"82":-0.7755845785140991,"83":-0.5022704601287842,"84":1.2561918497085571,"85":0.20674073696136475,"86":-1.1752610206604004,"87":-1.0507643222808838,"88":-0.2179536372423172,"89":-1.0028361082077026,"90":2.0566720962524414,"91":0.1297701895236969,"92":0.9824055433273315,"93":0.1751667857170105,"94":0.2980574071407318,"95":-0.5705662965774536,"96":-0.9631240367889404,"97":-1.508296012878418,"98":0.8057764172554016,"99":2.0839593410491943,"100":0.0892966240644455,"101":-0.1757308542728424,"102":-2.402921676635742,"103":0.5486322641372681,"104":0.42282405495643616,"105":-1.2541747093200684,"106":-0.2782363295555115,"107":0.29791006445884705,"108":-1.2936930656433105,"109":0.8165833353996277,"110":0.9450652599334717,"111":-0.7993189096450806,"112":-2.2301583290100098,"113":-0.8140822052955627,"114":0.7012571692466736,"115":-0.34416675567626953,"116":2.1986677646636963,"117":-1.2390975952148438,"118":0.7260857820510864,"119":0.38666510581970215,"120":-0.02736547775566578,"121":0.5713242888450623,"122":-0.4429453909397125,"123":-0.9870163798332214,"124":0.6177001595497131,"125":2.110753059387207,"126":1.1197923421859741,"127":0.5062263011932373,"128":-2.0108978748321533,"129":-1.1641942262649536,"130":-0.5794333815574646,"131":0.0014720557956025004,"132":-0.8698483109474182,"133":0.5903570055961609,"134":0.412601113319397,"135":-0.5962468981742859,"136":0.13391603529453278,"137":0.8721925616264343,"138":-0.46679601073265076,"139":0.9013788104057312,"140":-0.12314416468143463,"141":-2.4505856037139893,"142":0.4690246880054474,"143":0.035499170422554016,"144":-0.213544100522995,"145":0.6140396595001221,"146":-0.5678853392601013,"147":-0.049874261021614075,"148":0.16063125431537628,"149":0.05649935454130173,"150":-0.2875925302505493,"151":-2.485927104949951,"152":-0.6262931227684021,"153":0.8805955648422241,"154":0.4986206591129303,"155":0.588316798210144,"156":0.5244463682174683,"157":-0.4707675576210022,"158":1.556915283203125,"159":-2.066946029663086,"160":-0.8565855622291565,"161":-0.6244198083877563,"162":-0.03762321546673775,"163":0.47976821660995483,"164":-1.405565857887268,"165":-0.9171074032783508,"166":-0.8810602426528931,"167":0.7182440161705017,"168":1.1803985834121704,"169":0.07269523292779922,"170":-0.9828000068664551,"171":-0.6458398103713989,"172":0.48883166909217834,"173":-0.26239463686943054,"174":0.3096289038658142,"175":1.2889589071273804,"176":-0.023390648886561394,"177":-0.5922507047653198,"178":-0.10473909974098206,"179":1.4399529695510864,"180":-0.9124598503112793,"181":0.1991530805826187,"182":-0.6652483940124512,"183":-0.6412138938903809,"184":-0.9379518628120422,"185":1.076780915260315,"186":0.5701448321342468,"187":0.13593418896198273,"188":0.5841716527938843,"189":-0.5387520790100098,"190":1.1186906099319458,"191":0.9069399833679199,"192":0.1697450429201126,"193":-1.368100643157959,"194":0.2648691236972809,"195":-0.8339281678199768,"196":1.0294772386550903,"197":0.88312166929245,"198":-0.4835110008716583,"199":-0.01198666263371706,"200":0.20203900337219238,"201":-1.686456561088562,"202":-0.1255050003528595,"203":0.6321902871131897,"204":0.4267219007015228,"205":-0.4366511106491089,"206":0.9596346616744995,"207":-1.2370742559432983,"208":-1.0718170404434204,"209":1.3165843486785889,"210":-0.1405467838048935,"211":-0.2364932745695114,"212":0.6713730096817017,"213":-0.7400063276290894,"214":-0.8024076819419861,"215":0.7552335262298584,"216":0.3047778308391571,"217":0.7716895341873169,"218":-1.1048287153244019,"219":0.19310051202774048,"220":-0.2286216765642166,"221":1.6460260152816772,"222":-1.3202155828475952,"223":-0.9336940050125122,"224":1.7167946100234985,"225":-2.6207549571990967,"226":0.42496028542518616,"227":0.4293819069862366,"228":-0.6478829383850098,"229":-0.8342652916908264,"230":-1.5392948389053345,"231":1.1143087148666382,"232":-0.819118857383728,"233":-0.09447775781154633,"234":0.1128266379237175,"235":1.1952975988388062,"236":1.1666901111602783,"237":-0.8132990002632141,"238":0.23865069448947906,"239":0.07107343524694443,"240":-2.209200859069824,"241":-0.5095908045768738,"242":0.3404831290245056,"243":-0.2214183360338211,"244":-0.9124157428741455,"245":-0.23061838746070862,"246":-0.8172309994697571,"247":0.2993394136428833,"248":0.9922381639480591,"249":0.930178165435791,"250":-1.0737987756729126,"251":-0.6367136836051941,"252":-1.3768781423568726,"253":-0.8540968298912048,"254":0.9926864504814148,"255":-0.3633600175380707,"256":-0.49680832028388977,"257":-1.2545580863952637,"258":-0.46374228596687317,"259":1.549686074256897}},"forgetHidden":{"rows":20,"columns":20,"weights":{"0":-2.1429336071014404,"1":0.5047205090522766,"2":1.4547359943389893,"3":0.5491575002670288,"4":-2.0135905742645264,"5":2.3640553951263428,"6":-0.3130902945995331,"7":2.813364028930664,"8":0.2669422924518585,"9":-3.3347344398498535,"10":1.0235252380371094,"11":0.9120087027549744,"12":2.936201333999634,"13":1.8265928030014038,"14":0.4129714369773865,"15":1.5353951454162598,"16":0.9123308658599854,"17":-3.4004335403442383,"18":3.211552143096924,"19":-1.8322263956069946,"20":-0.3223688304424286,"21":-0.5922127366065979,"22":-0.7124755382537842,"23":-0.36421194672584534,"24":0.7183904647827148,"25":-0.410296231508255,"26":0.34509968757629395,"27":0.9835295677185059,"28":-1.3384934663772583,"29":1.1105194091796875,"30":0.6910310983657837,"31":-1.8709653615951538,"32":-0.6763588786125183,"33":-0.4176831841468811,"34":-0.30998530983924866,"35":1.3416776657104492,"36":0.5387434363365173,"37":0.16134293377399445,"38":2.9120755195617676,"39":1.2056835889816284,"40":-0.3319396376609802,"41":2.227508068084717,"42":1.0454957485198975,"43":1.3404241800308228,"44":-0.32855424284935,"45":1.2360190153121948,"46":0.2661606967449188,"47":1.4581669569015503,"48":-0.904985785484314,"49":-0.9899687767028809,"50":-1.7967370748519897,"51":0.9372894167900085,"52":-1.6831631660461426,"53":0.6783953309059143,"54":-0.29702243208885193,"55":0.947663426399231,"56":0.30758383870124817,"57":-0.5813735723495483,"58":1.6357791423797607,"59":-0.2394287884235382,"60":-0.43773049116134644,"61":0.904146671295166,"62":1.147275686264038,"63":0.16637559235095978,"64":1.0667093992233276,"65":-0.0830891951918602,"66":-1.3781174421310425,"67":-0.8659224510192871,"68":1.4971755743026733,"69":-0.6981614232063293,"70":0.07391247153282166,"71":0.760934054851532,"72":1.3646138906478882,"73":1.0746532678604126,"74":-1.4337399005889893,"75":0.6115027666091919,"76":0.9003597497940063,"77":0.2736683487892151,"78":-1.7789602279663086,"79":1.1808468103408813,"80":0.4369182288646698,"81":-2.7118637561798096,"82":-3.618778705596924,"83":2.8773789405822754,"84":0.5261603593826294,"85":-2.972501039505005,"86":1.9677966833114624,"87":1.1459271907806396,"88":-1.0411195755004883,"89":1.934004306793213,"90":1.6783618927001953,"91":0.11622275412082672,"92":-1.548832893371582,"93":-0.23136398196220398,"94":0.008035168051719666,"95":-4.263744831085205,"96":-3.8296310901641846,"97":-0.16975681483745575,"98":-0.25683867931365967,"99":-0.302347868680954,"100":-1.2132140398025513,"101":0.5800908803939819,"102":0.4997519552707672,"103":0.06951011717319489,"104":-2.6070632934570312,"105":0.7484003901481628,"106":0.048000674694776535,"107":1.6193394660949707,"108":-0.85858154296875,"109":-0.41549474000930786,"110":-0.646651029586792,"111":0.8451390266418457,"112":1.3489652872085571,"113":0.244157075881958,"114":-0.22289060056209564,"115":0.6719841361045837,"116":0.6165565848350525,"117":-0.44722577929496765,"118":2.0069077014923096,"119":0.49850940704345703,"120":-1.139994502067566,"121":0.5194313526153564,"122":-0.4776715338230133,"123":-3.1550955772399902,"124":1.8382654190063477,"125":0.8131869435310364,"126":-0.6840476393699646,"127":0.014285767450928688,"128":1.0853049755096436,"129":-1.0717490911483765,"130":-0.5642184615135193,"131":-0.8115400671958923,"132":0.4215987026691437,"133":-0.3029118478298187,"134":-1.9265285730361938,"135":-1.429511547088623,"136":-0.5607466101646423,"137":2.5474486351013184,"138":-0.053889233618974686,"139":2.235635995864868,"140":0.6076416373252869,"141":-2.1289663314819336,"142":-0.615549623966217,"143":-1.1717257499694824,"144":-2.606001138687134,"145":-2.957073450088501,"146":0.31149521470069885,"147":0.6649258136749268,"148":2.0801756381988525,"149":1.1538041830062866,"150":-2.801713228225708,"151":-0.9357946515083313,"152":2.582505702972412,"153":-2.684904098510742,"154":0.8019503951072693,"155":0.7922205328941345,"156":-0.20770670473575592,"157":1.3454679250717163,"158":0.6892604231834412,"159":-1.3100855350494385,"160":-1.951224684715271,"161":1.8709993362426758,"162":1.7269221544265747,"163":-0.373263418674469,"164":-0.6392214894294739,"165":1.1154426336288452,"166":-2.5066635608673096,"167":0.47387826442718506,"168":1.6976743936538696,"169":-0.7622464299201965,"170":0.06423938274383545,"171":-0.740827739238739,"172":0.4125284254550934,"173":0.8850110173225403,"174":-0.8134132027626038,"175":0.6122188568115234,"176":1.1308789253234863,"177":0.10447926074266434,"178":0.4530353546142578,"179":2.8111844062805176,"180":0.2945708632469177,"181":-1.0853242874145508,"182":-1.2512975931167603,"183":1.841363787651062,"184":1.488096833229065,"185":-0.4248634874820709,"186":1.2256144285202026,"187":0.2502261996269226,"188":-1.67640221118927,"189":0.32744547724723816,"190":0.6693994402885437,"191":1.1668740510940552,"192":-1.0280907154083252,"193":0.16431577503681183,"194":0.6333714723587036,"195":-3.2274770736694336,"196":-1.022295355796814,"197":0.5828465223312378,"198":-0.8954431414604187,"199":0.11893396079540253,"200":1.8666936159133911,"201":-0.21119694411754608,"202":0.8606321215629578,"203":-1.3503351211547852,"204":0.09942708164453506,"205":-1.5603995323181152,"206":2.164377450942993,"207":0.9180111885070801,"208":0.9228190779685974,"209":-0.3606046736240387,"210":0.5720159411430359,"211":-0.7209377884864807,"212":0.2618415355682373,"213":0.09931649267673492,"214":0.15315920114517212,"215":-0.11787016689777374,"216":0.49880531430244446,"217":-0.6269900798797607,"218":0.7269073724746704,"219":0.49960726499557495,"220":0.5276550650596619,"221":2.2728538513183594,"222":0.6735098361968994,"223":0.8807827234268188,"224":2.2065017223358154,"225":-0.7143636345863342,"226":-0.5068619847297668,"227":1.445596694946289,"228":1.8402748107910156,"229":1.12021803855896,"230":0.15149058401584625,"231":1.6897457838058472,"232":-1.1609132289886475,"233":1.0691897869110107,"234":-1.5896553993225098,"235":1.2501671314239502,"236":-1.8759558200836182,"237":-0.902329683303833,"238":-0.8916926383972168,"239":3.6424753665924072,"240":-1.7058112621307373,"241":-0.9499799013137817,"242":0.7332925200462341,"243":-0.8312038779258728,"244":-0.8043190836906433,"245":-0.5366238355636597,"246":-1.1344892978668213,"247":-1.3034826517105103,"248":1.111895203590393,"249":0.5578789114952087,"250":-1.8902404308319092,"251":-0.3166165053844452,"252":-0.8290857672691345,"253":-1.6854153871536255,"254":0.017183396965265274,"255":0.6798583269119263,"256":-0.9722940325737,"257":-0.8048679828643799,"258":-1.1388429403305054,"259":-0.2621874511241913,"260":-3.4996747970581055,"261":1.9570956230163574,"262":1.0018131732940674,"263":2.992151975631714,"264":-3.365408182144165,"265":0.9423208236694336,"266":-0.5713298916816711,"267":1.0905605554580688,"268":-0.24768173694610596,"269":-2.0058059692382812,"270":-2.4584832191467285,"271":3.1165452003479004,"272":1.5817713737487793,"273":0.991046667098999,"274":0.6362671256065369,"275":2.8540287017822266,"276":1.8002396821975708,"277":-0.2581700086593628,"278":0.953921377658844,"279":3.163665294647217,"280":-1.7006630897521973,"281":0.2584938704967499,"282":-0.04003481939435005,"283":0.0682159960269928,"284":-10.322890281677246,"285":1.525536060333252,"286":1.3088009357452393,"287":1.482179045677185,"288":-0.9346915483474731,"289":0.43529102206230164,"290":-2.838730812072754,"291":3.2008190155029297,"292":5.932793140411377,"293":-1.1469322443008423,"294":1.0836745500564575,"295":0.11177050322294235,"296":1.3691505193710327,"297":1.0144658088684082,"298":-0.8894361257553101,"299":0.3613468408584595,"300":-2.5797042846679688,"301":2.206580400466919,"302":0.5894996523857117,"303":0.35954737663269043,"304":-1.368096947669983,"305":2.0111453533172607,"306":0.29635855555534363,"307":0.3168066740036011,"308":-1.9477150440216064,"309":-0.9209796786308289,"310":-3.2272160053253174,"311":1.259564995765686,"312":-0.6544445753097534,"313":-0.3818477392196655,"314":-0.8136965036392212,"315":0.7718353271484375,"316":0.05913039669394493,"317":-0.4460200071334839,"318":1.0288324356079102,"319":-1.7288497686386108,"320":0.16264507174491882,"321":-0.303789883852005,"322":0.9199179410934448,"323":0.17531347274780273,"324":-1.547225832939148,"325":0.09663523733615875,"326":1.8676109313964844,"327":1.8487656116485596,"328":-1.1284184455871582,"329":0.2687528133392334,"330":-1.0313786268234253,"331":-0.7693867683410645,"332":-0.8893128037452698,"333":0.045979227870702744,"334":-0.3055945634841919,"335":4.023639678955078,"336":0.1281615048646927,"337":0.3703784644603729,"338":3.8533387184143066,"339":-0.8740661144256592,"340":3.5179009437561035,"341":-2.2456374168395996,"342":-0.9109851717948914,"343":0.8890365362167358,"344":-1.349387288093567,"345":-0.805938720703125,"346":1.8376007080078125,"347":-0.8768341541290283,"348":-2.05926775932312,"349":-0.3631637692451477,"350":1.2426362037658691,"351":1.2191309928894043,"352":2.146456718444824,"353":-2.3496780395507812,"354":0.925870418548584,"355":-1.1738344430923462,"356":-0.27884918451309204,"357":0.3506339192390442,"358":-0.41656172275543213,"359":-2.2258875370025635,"360":0.002122258534654975,"361":1.2718853950500488,"362":0.9910731315612793,"363":0.28853440284729004,"364":1.8442790508270264,"365":1.6075849533081055,"366":-0.833149790763855,"367":-0.21303518116474152,"368":0.7625420689582825,"369":0.4450312852859497,"370":-2.151662826538086,"371":1.886441946029663,"372":2.1580395698547363,"373":0.06042041629552841,"374":-0.21151579916477203,"375":-0.24563464522361755,"376":0.4490809142589569,"377":0.6516072750091553,"378":0.8337627649307251,"379":0.8333194851875305,"380":-0.7358441352844238,"381":-1.0811935663223267,"382":-0.2327195107936859,"383":-0.7598117589950562,"384":-0.9091647863388062,"385":-0.1660533845424652,"386":-0.1512642651796341,"387":-0.47690966725349426,"388":0.7507232427597046,"389":0.5639667510986328,"390":-1.4938328266143799,"391":0.04664411023259163,"392":-0.5384745001792908,"393":-1.2416807413101196,"394":0.4050624668598175,"395":0.4725883901119232,"396":-0.28914493322372437,"397":0.22671571373939514,"398":-0.7863010764122009,"399":0.17636816203594208}},"forgetBias":{"rows":20,"columns":1,"weights":{"0":0,"1":0,"2":0,"3":0,"4":0,"5":0,"6":0,"7":0,"8":0,"9":0,"10":0,"11":0,"12":0,"13":0,"14":0,"15":0,"16":0,"17":0,"18":0,"19":0}},"outputMatrix":{"rows":20,"columns":13,"weights":{"0":-0.21943122148513794,"1":-0.1733388751745224,"2":-0.1857052445411682,"3":-0.30311334133148193,"4":0.1568886935710907,"5":-0.7104760408401489,"6":-0.13357849419116974,"7":0.7863391041755676,"8":0.22046586871147156,"9":0.37102773785591125,"10":-0.5491474866867065,"11":-1.4978784322738647,"12":0.44731688499450684,"13":0.2988964915275574,"14":-0.06342454254627228,"15":-0.09161845594644547,"16":-0.18474295735359192,"17":-0.9549131393432617,"18":-0.35077106952667236,"19":-0.25297725200653076,"20":0.46392324566841125,"21":0.5664952397346497,"22":-0.48869869112968445,"23":-0.30996692180633545,"24":0.7429264187812805,"25":0.443942129611969,"26":0.45091763138771057,"27":0.6778014898300171,"28":0.8440223336219788,"29":-0.2970341444015503,"30":0.007287282031029463,"31":-0.5667740702629089,"32":-0.0703214555978775,"33":1.0076414346694946,"34":0.9725005030632019,"35":-0.021050728857517242,"36":-0.9275891780853271,"37":1.3899258375167847,"38":-0.4814566969871521,"39":-0.3987382650375366,"40":-0.8738176226615906,"41":-0.4023253917694092,"42":0.28308796882629395,"43":0.20842690765857697,"44":0.20245662331581116,"45":1.6023015975952148,"46":-0.5766568779945374,"47":-0.13301478326320648,"48":0.23777832090854645,"49":0.40286996960639954,"50":-0.3472384214401245,"51":0.8505142331123352,"52":-2.019883155822754,"53":0.3859005272388458,"54":-0.06211930140852928,"55":-0.775791347026825,"56":2.84625244140625,"57":-1.2208424806594849,"58":-0.6339118480682373,"59":0.8223065733909607,"60":0.19219514727592468,"61":1.4306049346923828,"62":-2.084778070449829,"63":-0.11841098964214325,"64":0.12092140316963196,"65":0.5840403437614441,"66":0.21167346835136414,"67":-0.13586929440498352,"68":-0.6590174436569214,"69":-0.7628769874572754,"70":0.5905998349189758,"71":-0.7276419997215271,"72":-0.35366612672805786,"73":0.32962262630462646,"74":-1.1036388874053955,"75":-0.4166910946369171,"76":0.7919254302978516,"77":-0.2293376624584198,"78":-1.3692498207092285,"79":-0.40930184721946716,"80":-1.9444853067398071,"81":0.8762884140014648,"82":0.851116955280304,"83":-1.4375674724578857,"84":1.3625847101211548,"85":1.56102454662323,"86":-1.3127344846725464,"87":0.5177200436592102,"88":-1.093700647354126,"89":0.3577808737754822,"90":0.7332977056503296,"91":0.21865612268447876,"92":0.9648074507713318,"93":0.48175108432769775,"94":0.5012843012809753,"95":-0.3872377872467041,"96":0.22608858346939087,"97":-1.5159050226211548,"98":-0.1471577286720276,"99":1.6047345399856567,"100":0.06798185408115387,"101":0.4962627589702606,"102":-0.18713586032390594,"103":-1.4359030723571777,"104":-0.5840475559234619,"105":-0.8767293095588684,"106":-0.7836949229240417,"107":-0.10927341133356094,"108":0.5115706324577332,"109":-1.7712271213531494,"110":2.1055638790130615,"111":1.4967938661575317,"112":-1.213231086730957,"113":0.721598207950592,"114":-1.6339561939239502,"115":1.674391746520996,"116":1.756575584411621,"117":1.260118842124939,"118":-0.506807267665863,"119":2.0742909908294678,"120":-0.6926113963127136,"121":-0.6897740364074707,"122":-1.1930270195007324,"123":1.5489908456802368,"124":0.6384097337722778,"125":0.9715213179588318,"126":-0.43115413188934326,"127":-0.9931079745292664,"128":0.8293731808662415,"129":0.591465175151825,"130":-1.6593977212905884,"131":-0.3248201310634613,"132":-1.9858381748199463,"133":1.4358426332473755,"134":2.25464129447937,"135":-1.5209099054336548,"136":1.4226280450820923,"137":0.8292513489723206,"138":-0.4388696551322937,"139":1.5121610164642334,"140":-0.891216516494751,"141":-2.519096851348877,"142":0.7935304045677185,"143":-0.7532333731651306,"144":0.09800739586353302,"145":-1.0089186429977417,"146":0.29229554533958435,"147":0.6793044805526733,"148":-0.20386014878749847,"149":0.13047733902931213,"150":0.08252467215061188,"151":0.6883248090744019,"152":0.5056291222572327,"153":-0.027186594903469086,"154":-0.35727107524871826,"155":-0.11714232712984085,"156":-1.2962926626205444,"157":-0.16421082615852356,"158":-2.4728167057037354,"159":1.1608753204345703,"160":1.923689603805542,"161":1.2333086729049683,"162":0.48461243510246277,"163":-1.126556634902954,"164":1.4455127716064453,"165":2.0302224159240723,"166":1.9142279624938965,"167":-1.490036129951477,"168":-1.4765396118164062,"169":-0.804270327091217,"170":-0.3654625713825226,"171":-0.616844892501831,"172":0.24159088730812073,"173":-0.2560111880302429,"174":0.20026710629463196,"175":-1.0237706899642944,"176":-0.11742235720157623,"177":3.394449234008789,"178":0.46228882670402527,"179":-0.439696341753006,"180":0.9232912659645081,"181":-0.6248800754547119,"182":-1.6439744234085083,"183":0.934026300907135,"184":-0.9928320646286011,"185":0.1328900158405304,"186":1.6214977502822876,"187":-1.2876330614089966,"188":-0.4977421760559082,"189":1.4192906618118286,"190":1.6125876903533936,"191":2.0434324741363525,"192":-1.1128034591674805,"193":-0.29645439982414246,"194":-0.7549100518226624,"195":-1.1187914609909058,"196":1.441531777381897,"197":0.1050909236073494,"198":-0.6842707395553589,"199":1.1927016973495483,"200":-0.3569961488246918,"201":-0.44386255741119385,"202":0.6748781204223633,"203":0.39984026551246643,"204":1.2892736196517944,"205":-0.8435832858085632,"206":0.9987449645996094,"207":-0.7257643938064575,"208":-0.30143871903419495,"209":0.008388797752559185,"210":0.747691810131073,"211":-0.6335351467132568,"212":0.4821021258831024,"213":-1.3279424905776978,"214":1.3462806940078735,"215":1.0167860984802246,"216":0.5444787740707397,"217":0.46935397386550903,"218":-1.2767400741577148,"219":0.5200001001358032,"220":0.07497815787792206,"221":-0.4229828417301178,"222":0.49351581931114197,"223":-1.2548198699951172,"224":0.9064081311225891,"225":0.3437395989894867,"226":0.24891628324985504,"227":-0.28125548362731934,"228":0.03381672501564026,"229":1.7453131675720215,"230":0.004366321489214897,"231":0.31300172209739685,"232":-0.2887934744358063,"233":-0.7526376247406006,"234":-0.21346105635166168,"235":1.0968941450119019,"236":-0.8176892995834351,"237":0.5870108604431152,"238":0.07797055691480637,"239":-0.31080010533332825,"240":-0.40652912855148315,"241":0.3742794394493103,"242":2.6435446739196777,"243":0.5885365605354309,"244":0.011165068484842777,"245":0.8026260137557983,"246":-1.6353665590286255,"247":-1.3075323104858398,"248":-2.183258295059204,"249":-1.733837604522705,"250":0.19115780293941498,"251":0.21264655888080597,"252":-0.05905197188258171,"253":2.085664987564087,"254":0.011149195954203606,"255":-1.1596739292144775,"256":0.8799612522125244,"257":0.2609900236129761,"258":-0.46747252345085144,"259":2.456578493118286}},"outputHidden":{"rows":20,"columns":20,"weights":{"0":-0.13939863443374634,"1":1.1363615989685059,"2":1.9440288543701172,"3":0.39146363735198975,"4":-1.5537604093551636,"5":-0.0030202975030988455,"6":-1.507786750793457,"7":0.8109135031700134,"8":0.9484792351722717,"9":-5.21205472946167,"10":-1.9150280952453613,"11":-0.5240118503570557,"12":1.7353228330612183,"13":1.1632585525512695,"14":3.2417497634887695,"15":2.3383445739746094,"16":2.944645643234253,"17":-1.5343120098114014,"18":2.1105480194091797,"19":-0.41629132628440857,"20":-3.545828104019165,"21":1.988449215888977,"22":0.06726129353046417,"23":0.7260692715644836,"24":-3.136890411376953,"25":2.061648368835449,"26":-1.0190019607543945,"27":1.6806764602661133,"28":-1.0495222806930542,"29":-1.5869896411895752,"30":-1.7043421268463135,"31":2.5707688331604004,"32":3.904618740081787,"33":1.5971343517303467,"34":0.6637197732925415,"35":0.4415147006511688,"36":1.6553224325180054,"37":-2.0419209003448486,"38":1.1274009943008423,"39":1.736876130104065,"40":2.712082624435425,"41":-3.1736271381378174,"42":0.48396018147468567,"43":-1.7054985761642456,"44":1.6632463932037354,"45":-2.411393880844116,"46":1.390150547027588,"47":1.095976710319519,"48":-2.404083490371704,"49":3.098125696182251,"50":1.8706142902374268,"51":0.06572066247463226,"52":-0.942489743232727,"53":2.7542381286621094,"54":1.546330451965332,"55":-2.4777050018310547,"56":-4.233245372772217,"57":-3.796064615249634,"58":1.1553617715835571,"59":-2.901512384414673,"60":1.1316291093826294,"61":-2.0821774005889893,"62":-0.11374405026435852,"63":-2.8437156677246094,"64":1.9844669103622437,"65":-1.9485713243484497,"66":0.20123696327209473,"67":0.3617042005062103,"68":0.38829147815704346,"69":0.25941646099090576,"70":2.622889995574951,"71":-2.817148208618164,"72":-0.12915948033332825,"73":2.120933771133423,"74":-1.3702263832092285,"75":-4.231069087982178,"76":-0.4788615107536316,"77":-1.1673483848571777,"78":0.7709482908248901,"79":-0.8408944606781006,"80":1.7726843357086182,"81":0.37428730726242065,"82":1.4784529209136963,"83":0.0719919353723526,"84":-1.0108367204666138,"85":-0.1357646882534027,"86":0.5352570414543152,"87":2.1156580448150635,"88":-0.855690598487854,"89":0.004665472079068422,"90":0.03157474473118782,"91":-0.4703373312950134,"92":-0.7186703681945801,"93":2.2220427989959717,"94":-0.3642733693122864,"95":0.79176926612854,"96":-0.06299450993537903,"97":-0.7510071396827698,"98":2.143155097961426,"99":0.5511745810508728,"100":-4.531327724456787,"101":-0.1908496618270874,"102":2.1163108348846436,"103":-0.3994852602481842,"104":-5.236392498016357,"105":1.0668740272521973,"106":-2.6969797611236572,"107":0.48585832118988037,"108":0.33418482542037964,"109":-3.007202625274658,"110":-3.1063287258148193,"111":3.4337637424468994,"112":2.517519235610962,"113":0.4456736743450165,"114":0.5712742805480957,"115":1.8546009063720703,"116":1.1341913938522339,"117":-0.16368944942951202,"118":0.5964813232421875,"119":1.7955769300460815,"120":-1.6948680877685547,"121":0.801222026348114,"122":-0.5454114675521851,"123":-3.0255517959594727,"124":-2.9580576419830322,"125":0.8175657391548157,"126":0.6710280776023865,"127":1.7054424285888672,"128":1.100846529006958,"129":-1.586670160293579,"130":-1.2989698648452759,"131":0.7004509568214417,"132":2.4678308963775635,"133":-0.7348973155021667,"134":-0.13686031103134155,"135":0.000720590353012085,"136":0.643810510635376,"137":1.7400000095367432,"138":-0.03651019558310509,"139":0.6593077778816223,"140":1.05300772190094,"141":0.8442644476890564,"142":0.006990499794483185,"143":1.022600531578064,"144":0.4173278510570526,"145":1.4456169605255127,"146":0.5854676365852356,"147":1.1886917352676392,"148":0.3695620000362396,"149":-1.4841127395629883,"150":0.8786715865135193,"151":0.9131273031234741,"152":3.0130422115325928,"153":1.4620652198791504,"154":-0.35033106803894043,"155":-0.28883516788482666,"156":0.6042680740356445,"157":1.0813897848129272,"158":2.1273837089538574,"159":-0.21266025304794312,"160":-3.8735644817352295,"161":1.6353678703308105,"162":0.16688886284828186,"163":-1.2671490907669067,"164":-1.292089819908142,"165":1.8898203372955322,"166":-0.8537541627883911,"167":1.9920594692230225,"168":-0.9708204865455627,"169":-1.3717865943908691,"170":-2.4312002658843994,"171":-0.8729100823402405,"172":0.12648065388202667,"173":-0.8271267414093018,"174":-1.244762659072876,"175":1.4015520811080933,"176":1.2266017198562622,"177":0.8241719007492065,"178":1.2699000835418701,"179":-2.4467382431030273,"180":-0.37487339973449707,"181":1.5599989891052246,"182":1.2201656103134155,"183":2.395596981048584,"184":0.3630741238594055,"185":0.6027656197547913,"186":-1.200140118598938,"187":0.4622053802013397,"188":-1.0071221590042114,"189":-2.1486012935638428,"190":-1.9071896076202393,"191":1.5317775011062622,"192":1.7083324193954468,"193":2.6030354499816895,"194":1.5001205205917358,"195":-2.6506099700927734,"196":-1.414579153060913,"197":-2.947866916656494,"198":1.0558366775512695,"199":-3.420260429382324,"200":1.9468270540237427,"201":-0.46887052059173584,"202":-0.5997292995452881,"203":-0.5552195310592651,"204":3.4866228103637695,"205":-0.07492610812187195,"206":-0.48661008477211,"207":1.1260099411010742,"208":0.6527135372161865,"209":0.7520974278450012,"210":2.0343198776245117,"211":-1.2426530122756958,"212":-0.9352608323097229,"213":0.01544981449842453,"214":0.039865776896476746,"215":-1.7927724123001099,"216":-0.7469489574432373,"217":-0.3511424660682678,"218":0.5367772579193115,"219":0.16027681529521942,"220":-2.9749598503112793,"221":-3.446287155151367,"222":-1.6875766515731812,"223":-6.083805084228516,"224":1.4332852363586426,"225":-2.3358266353607178,"226":0.7908780574798584,"227":-0.31182733178138733,"228":0.7059582471847534,"229":0.4779883027076721,"230":1.92118239402771,"231":-2.626739263534546,"232":-1.1566941738128662,"233":-0.559373676776886,"234":-1.1998332738876343,"235":-2.8456015586853027,"236":-2.3001275062561035,"237":-4.375034332275391,"238":-0.2614688277244568,"239":1.692379355430603,"240":1.631083607673645,"241":0.2880944013595581,"242":0.4958144426345825,"243":-0.4623313844203949,"244":0.8540442585945129,"245":1.3682861328125,"246":0.41837161779403687,"247":0.6641181111335754,"248":-0.5853468775749207,"249":-0.15918973088264465,"250":1.4952867031097412,"251":1.3915857076644897,"252":1.630406141281128,"253":2.2222440242767334,"254":-1.2357985973358154,"255":0.4497312307357788,"256":0.7659046649932861,"257":1.502607822418213,"258":1.609734296798706,"259":-1.621082067489624,"260":-1.7837797403335571,"261":0.204550638794899,"262":1.8738059997558594,"263":3.1740264892578125,"264":-2.4889376163482666,"265":1.6243360042572021,"266":0.48851442337036133,"267":1.1321731805801392,"268":-0.3146294057369232,"269":-3.034365177154541,"270":-2.2630832195281982,"271":3.046823740005493,"272":2.0608837604522705,"273":0.6649721264839172,"274":0.0007651757914572954,"275":3.567018985748291,"276":2.7370805740356445,"277":0.29401788115501404,"278":1.0484331846237183,"279":1.8458513021469116,"280":-0.3202149271965027,"281":2.1337363719940186,"282":0.3571602702140808,"283":1.12576162815094,"284":0.36190614104270935,"285":1.335918664932251,"286":0.3787802755832672,"287":2.6305391788482666,"288":-0.8634135723114014,"289":-0.8918219804763794,"290":0.5671994686126709,"291":-0.07963725179433823,"292":1.6543025970458984,"293":0.08007659018039703,"294":2.162449836730957,"295":0.1931391805410385,"296":0.9228535890579224,"297":-2.021547555923462,"298":2.3043315410614014,"299":0.05883200094103813,"300":2.334160804748535,"301":0.8797439336776733,"302":-0.3228151202201843,"303":0.4921601116657257,"304":-0.7614340782165527,"305":0.008627420291304588,"306":2.2441563606262207,"307":1.5084434747695923,"308":-2.4250199794769287,"309":-0.04523688182234764,"310":0.5894683003425598,"311":0.624193012714386,"312":-1.3878282308578491,"313":-0.1354723572731018,"314":-0.248012974858284,"315":-0.46317359805107117,"316":-0.5991834998130798,"317":-1.1285609006881714,"318":1.8489043712615967,"319":-1.933598279953003,"320":0.2680851221084595,"321":2.6930549144744873,"322":1.0506902933120728,"323":2.267274856567383,"324":2.26196026802063,"325":0.9427940249443054,"326":-3.7244131565093994,"327":2.7320802211761475,"328":-1.2440745830535889,"329":-0.03708384186029434,"330":-1.896068811416626,"331":1.7387964725494385,"332":2.254103183746338,"333":1.416745901107788,"334":0.3346845209598541,"335":-0.009587915614247322,"336":2.071506977081299,"337":-2.4695794582366943,"338":1.8987618684768677,"339":-1.4235789775848389,"340":5.649669170379639,"341":-0.463826984167099,"342":0.0876055657863617,"343":0.5005313158035278,"344":0.3903840184211731,"345":0.05352238565683365,"346":0.9515824913978577,"347":0.46653154492378235,"348":-2.3361988067626953,"349":-0.1506531983613968,"350":0.9119572043418884,"351":-0.24530628323554993,"352":4.886911869049072,"353":-0.1744457334280014,"354":-0.13555729389190674,"355":-1.0132695436477661,"356":0.11905995011329651,"357":0.23288528621196747,"358":0.8911669254302979,"359":-0.5389153957366943,"360":-1.272739052772522,"361":2.08601975440979,"362":0.79325932264328,"363":2.4735076427459717,"364":-0.4576064646244049,"365":1.5702996253967285,"366":-1.135998010635376,"367":1.4910223484039307,"368":0.8607791662216187,"369":-0.5919964909553528,"370":-1.6276659965515137,"371":1.9660271406173706,"372":1.6125408411026,"373":0.6563234329223633,"374":0.15208306908607483,"375":2.111841917037964,"376":0.03795861452817917,"377":0.024229135364294052,"378":0.5986332297325134,"379":2.134091854095459,"380":2.29294753074646,"381":1.160258173942566,"382":-0.06909918785095215,"383":-2.1992480754852295,"384":2.14426589012146,"385":0.4468705654144287,"386":-0.6529726386070251,"387":1.232975959777832,"388":0.20422935485839844,"389":1.6102442741394043,"390":0.28151261806488037,"391":-1.178501844406128,"392":-2.353463888168335,"393":0.8678288459777832,"394":-0.9580763578414917,"395":-0.6021741628646851,"396":-0.3880113363265991,"397":-2.487236976623535,"398":0.8766384124755859,"399":1.0917799472808838}},"outputBias":{"rows":20,"columns":1,"weights":{"0":1.6650267839431763,"1":-0.28485265374183655,"2":-0.2839736044406891,"3":0.3751072883605957,"4":-0.42380693554878235,"5":-0.2516573965549469,"6":-0.6607661843299866,"7":1.1635780334472656,"8":-0.9990738034248352,"9":-1.6318955421447754,"10":-0.6567185521125793,"11":-0.28885582089424133,"12":-1.444732904434204,"13":-0.49940240383148193,"14":-0.551146388053894,"15":-1.4430454969406128,"16":-1.1278276443481445,"17":-1.090114951133728,"18":-0.6531603932380676,"19":0.4302842915058136}},"cellActivationMatrix":{"rows":20,"columns":13,"weights":{"0":0.26925143599510193,"1":1.1202789545059204,"2":-0.6882938146591187,"3":0.39030781388282776,"4":0.5897074341773987,"5":0.6931375861167908,"6":-0.2660004794597626,"7":-0.5931748151779175,"8":0.6671279668807983,"9":0.42432862520217896,"10":0.8269614577293396,"11":-1.06361722946167,"12":-0.18194028735160828,"13":-0.6414461731910706,"14":0.5278410315513611,"15":-0.3267330527305603,"16":-0.0027991519309580326,"17":0.14482775330543518,"18":-1.1398279666900635,"19":-0.29076674580574036,"20":1.0217522382736206,"21":0.7453792691230774,"22":0.7313953042030334,"23":-1.1017200946807861,"24":-0.07227733731269836,"25":0.056896038353443146,"26":0.36067625880241394,"27":0.7557724118232727,"28":0.9097294211387634,"29":-0.5796459317207336,"30":-0.09584072232246399,"31":-2.918787956237793,"32":-0.6844916343688965,"33":2.19655704498291,"34":0.45439404249191284,"35":-0.1454881876707077,"36":-1.8077163696289062,"37":-1.1015557050704956,"38":-0.33785873651504517,"39":-1.3331928253173828,"40":0.18895645439624786,"41":-0.9523130059242249,"42":0.8231196403503418,"43":1.103999137878418,"44":0.27560216188430786,"45":-0.5554550290107727,"46":-0.18517610430717468,"47":0.5676590204238892,"48":1.2670869827270508,"49":0.47085174918174744,"50":-0.2596311867237091,"51":-1.0734856128692627,"52":0.204869344830513,"53":1.5451219081878662,"54":0.4155357778072357,"55":0.14060615003108978,"56":0.10190470516681671,"57":-1.2576265335083008,"58":-0.9815945029258728,"59":0.7151137590408325,"60":0.4274664521217346,"61":0.495900958776474,"62":-0.8029659986495972,"63":-0.0603911392390728,"64":-1.511873483657837,"65":-0.31452444195747375,"66":-0.0837692841887474,"67":-0.7882351279258728,"68":0.961361825466156,"69":0.7556964159011841,"70":-0.32940858602523804,"71":-0.2039174884557724,"72":0.16412802040576935,"73":2.0593008995056152,"74":0.953288733959198,"75":-2.0831220149993896,"76":-0.26298952102661133,"77":0.09093545377254486,"78":-0.23552805185317993,"79":0.5415937900543213,"80":-1.44510817527771,"81":0.445719450712204,"82":-0.04625570774078369,"83":-1.4086096286773682,"84":0.10701089352369308,"85":1.282642126083374,"86":0.8678833246231079,"87":0.5313036441802979,"88":-0.6958965063095093,"89":-0.7901231646537781,"90":-0.8352436423301697,"91":-0.9346030354499817,"92":-0.20472027361392975,"93":-1.8576250076293945,"94":1.8249003887176514,"95":1.3132553100585938,"96":0.9534955620765686,"97":0.4286802411079407,"98":-0.7966228723526001,"99":0.07705474644899368,"100":0.22817054390907288,"101":0.7697213888168335,"102":0.0323469378054142,"103":-0.9501863121986389,"104":0.6444587111473083,"105":-0.0537615567445755,"106":1.0600031614303589,"107":-1.055875539779663,"108":-0.5567408800125122,"109":-0.4459798038005829,"110":0.08338797837495804,"111":0.28021055459976196,"112":-0.4666072428226471,"113":-0.8988676071166992,"114":-0.4164767265319824,"115":0.666633129119873,"116":-0.15462090075016022,"117":0.5487531423568726,"118":0.3870070278644562,"119":0.33292466402053833,"120":0.24900434911251068,"121":-0.4632587134838104,"122":0.9484058022499084,"123":-0.4858197569847107,"124":-1.1247822046279907,"125":-0.6832973957061768,"126":-0.8743934035301208,"127":0.373477041721344,"128":0.7547396421432495,"129":0.7211712002754211,"130":-0.9463514089584351,"131":0.5103601217269897,"132":-0.9661405682563782,"133":0.9478834271430969,"134":1.1915807723999023,"135":-0.471181720495224,"136":0.04982059448957443,"137":-0.14615097641944885,"138":-0.20230616629123688,"139":1.3178348541259766,"140":-0.06971427798271179,"141":-1.3072195053100586,"142":-0.011650283820927143,"143":-1.3558762073516846,"144":0.10609781742095947,"145":-1.292592167854309,"146":0.15262584388256073,"147":1.6042587757110596,"148":0.15873709321022034,"149":-0.5122290849685669,"150":0.03021913953125477,"151":2.8391988277435303,"152":1.6948580741882324,"153":-0.20871226489543915,"154":0.0775998905301094,"155":-0.8427461981773376,"156":0.24666538834571838,"157":0.18665729463100433,"158":0.5041011571884155,"159":-0.10797987133264542,"160":0.6741125583648682,"161":0.2674447298049927,"162":0.060176197439432144,"163":-0.45477914810180664,"164":-0.24758681654930115,"165":-0.06535275280475616,"166":-1.1275619268417358,"167":1.3353118896484375,"168":-0.5995854735374451,"169":-0.6602391600608826,"170":1.1934130191802979,"171":-0.32030004262924194,"172":0.9218531847000122,"173":0.584246039390564,"174":-1.3543758392333984,"175":-0.8596066236495972,"176":1.501064419746399,"177":1.3247101306915283,"178":0.5110926628112793,"179":-1.7902604341506958,"180":1.0422388315200806,"181":-2.216372489929199,"182":-0.07005656510591507,"183":-0.2934207320213318,"184":0.11650894582271576,"185":0.2716876268386841,"186":-0.4951607286930084,"187":0.15038713812828064,"188":0.0010786911007016897,"189":-0.141408309340477,"190":-0.8682518005371094,"191":0.05859442800283432,"192":0.3282685875892639,"193":0.15341892838478088,"194":0.34222230315208435,"195":1.1595360040664673,"196":2.003779411315918,"197":1.6739094257354736,"198":-1.6327615976333618,"199":-0.6270727515220642,"200":-1.795333743095398,"201":-2.3326759338378906,"202":1.2646127939224243,"203":0.35224393010139465,"204":-0.44481611251831055,"205":-1.7807849645614624,"206":-1.4058427810668945,"207":-0.673093855381012,"208":0.5400043725967407,"209":0.29222801327705383,"210":0.6325815916061401,"211":-0.5318653583526611,"212":0.14686648547649384,"213":-1.1693665981292725,"214":0.06103016436100006,"215":1.406678318977356,"216":0.33750221133232117,"217":0.1349232792854309,"218":-0.3783803880214691,"219":-1.2746256589889526,"220":-0.3613990247249603,"221":0.5986911654472351,"222":0.22463513910770416,"223":0.5489217042922974,"224":0.10947372019290924,"225":-0.08226563036441803,"226":0.044423121958971024,"227":0.43370580673217773,"228":0.05232716724276543,"229":-0.2384175807237625,"230":-0.34677305817604065,"231":0.7637331485748291,"232":-0.5348895192146301,"233":-0.5182735919952393,"234":-1.5452711582183838,"235":0.33904629945755005,"236":-1.822775959968567,"237":1.5231438875198364,"238":0.98162841796875,"239":1.0344126224517822,"240":0.15063132345676422,"241":-0.6964380145072937,"242":1.1120787858963013,"243":0.7190560102462769,"244":0.7843896150588989,"245":-0.020075324922800064,"246":-1.109246850013733,"247":-1.0683135986328125,"248":0.2176792323589325,"249":-0.346996933221817,"250":-0.10948298126459122,"251":2.0669782161712646,"252":1.8611270189285278,"253":-0.2146567702293396,"254":-1.9531059265136719,"255":0.5794892311096191,"256":0.7326687574386597,"257":0.911493182182312,"258":-0.047500353306531906,"259":0.07533317804336548}},"cellActivationHidden":{"rows":20,"columns":20,"weights":{"0":1.9956440925598145,"1":-1.3279454708099365,"2":-0.21558545529842377,"3":-0.23623126745224,"4":0.7649109363555908,"5":-0.7882412672042847,"6":-0.07996488362550735,"7":1.0731959342956543,"8":-0.2943672239780426,"9":3.1461706161499023,"10":0.3034040331840515,"11":-0.6105261445045471,"12":0.22869126498699188,"13":-0.3292600214481354,"14":1.1379508972167969,"15":-1.9646036624908447,"16":-1.425739049911499,"17":1.1368889808654785,"18":0.6218615174293518,"19":-1.108433485031128,"20":0.7975679039955139,"21":0.6019449234008789,"22":0.46816200017929077,"23":0.983014702796936,"24":-2.7573719024658203,"25":-0.18473312258720398,"26":1.212786078453064,"27":1.2951804399490356,"28":-1.937220573425293,"29":-0.814239501953125,"30":0.4871816337108612,"31":0.740217924118042,"32":0.19323290884494781,"33":1.2652695178985596,"34":0.41329225897789,"35":2.3639607429504395,"36":2.16019868850708,"37":0.0864318385720253,"38":1.7093201875686646,"39":1.2349456548690796,"40":0.3113917112350464,"41":-0.5234413743019104,"42":-0.6390298008918762,"43":0.16685478389263153,"44":-1.1862717866897583,"45":1.3037132024765015,"46":-0.7845607995986938,"47":0.041190288960933685,"48":-0.019583063200116158,"49":-0.0784551352262497,"50":-0.22988124191761017,"51":-0.5922539234161377,"52":0.8922505974769592,"53":-0.5422102808952332,"54":1.2585643529891968,"55":-2.054241180419922,"56":0.7058549523353577,"57":-0.1411643624305725,"58":0.005910308100283146,"59":0.8403626680374146,"60":1.1694717407226562,"61":-0.5032449960708618,"62":-0.1938321590423584,"63":-1.9060109853744507,"64":0.8560327291488647,"65":-0.6506395936012268,"66":-1.051234483718872,"67":0.4183761775493622,"68":2.3041908740997314,"69":-0.7109212875366211,"70":-2.07743501663208,"71":-2.9813742637634277,"72":-0.6627627611160278,"73":-0.16695843636989594,"74":-3.3578078746795654,"75":2.0798470973968506,"76":0.9201415777206421,"77":2.2230288982391357,"78":0.3385825455188751,"79":-1.0235486030578613,"80":3.2085864543914795,"81":0.24477121233940125,"82":2.4736931324005127,"83":0.9660746455192566,"84":-1.377210259437561,"85":0.12936662137508392,"86":0.48703238368034363,"87":0.6256792545318604,"88":-0.5451116561889648,"89":0.14371302723884583,"90":-0.17968198657035828,"91":0.9862974286079407,"92":-1.3572131395339966,"93":1.3985661268234253,"94":0.20188932120800018,"95":1.650607705116272,"96":-0.48903611302375793,"97":-0.14615990221500397,"98":2.0924534797668457,"99":-0.7391103506088257,"100":0.6655014753341675,"101":-0.20732586085796356,"102":-0.018534231930971146,"103":-0.19344134628772736,"104":0.386456161737442,"105":0.3732534348964691,"106":-0.015741130337119102,"107":1.292834758758545,"108":-0.3770626187324524,"109":-0.3665566146373749,"110":0.3817969560623169,"111":-0.9270612597465515,"112":0.6188048124313354,"113":1.0598567724227905,"114":-0.34232088923454285,"115":0.07195640355348587,"116":0.4162975251674652,"117":0.21416126191616058,"118":1.4135597944259644,"119":0.526328444480896,"120":4.359842300415039,"121":-1.1064342260360718,"122":-1.348395586013794,"123":-1.8758796453475952,"124":1.2481962442398071,"125":-0.8302843570709229,"126":0.38294991850852966,"127":0.9369815587997437,"128":-1.1185600757598877,"129":1.2099552154541016,"130":0.24798046052455902,"131":-2.3699512481689453,"132":-1.6598517894744873,"133":-0.8762063980102539,"134":1.668381690979004,"135":-1.6826268434524536,"136":-0.9430651664733887,"137":-2.975961685180664,"138":0.9962841868400574,"139":0.41025716066360474,"140":0.6477887630462646,"141":0.0252577792853117,"142":0.6241363286972046,"143":0.29259535670280457,"144":0.5409489274024963,"145":0.4956502914428711,"146":0.37935617566108704,"147":-0.1746571660041809,"148":-0.6127100586891174,"149":-0.2149188220500946,"150":1.0973622798919678,"151":0.38033145666122437,"152":-0.35954156517982483,"153":0.540279746055603,"154":-0.5764731764793396,"155":0.5056825876235962,"156":0.4148865044116974,"157":0.04426306113600731,"158":-0.5460984110832214,"159":-0.206215038895607,"160":1.251303791999817,"161":-0.007561165373772383,"162":-0.8464750051498413,"163":1.375783085823059,"164":3.652984380722046,"165":-0.5915471315383911,"166":1.7314116954803467,"167":-0.5985674262046814,"168":-0.7111529111862183,"169":0.16931840777397156,"170":3.315786361694336,"171":1.3755377531051636,"172":-1.3655483722686768,"173":0.8254759907722473,"174":0.21327845752239227,"175":-2.3062374591827393,"176":-1.8020962476730347,"177":-1.7655810117721558,"178":-0.9604703187942505,"179":-1.5334546566009521,"180":-0.7022549510002136,"181":-1.0653923749923706,"182":0.7813624143600464,"183":-0.11916476488113403,"184":-1.7400579452514648,"185":-0.8177071213722229,"186":0.3344573974609375,"187":-2.2237026691436768,"188":-0.23366662859916687,"189":0.32404229044914246,"190":-1.0080997943878174,"191":-0.2863868474960327,"192":-0.03688960522413254,"193":-2.1721010208129883,"194":-0.6623951196670532,"195":1.9433799982070923,"196":0.03634776175022125,"197":2.2517411708831787,"198":-1.4249881505966187,"199":-0.7919743657112122,"200":0.7584565281867981,"201":1.0407127141952515,"202":-0.7176188230514526,"203":-0.9070286750793457,"204":0.03895578905940056,"205":0.08800837397575378,"206":0.45160266757011414,"207":1.8491421937942505,"208":0.4496798813343048,"209":-0.5899050831794739,"210":0.11520960181951523,"211":-0.32525864243507385,"212":0.2659609019756317,"213":0.7732709050178528,"214":0.5105836391448975,"215":0.24124549329280853,"216":0.40726813673973083,"217":-0.7937622666358948,"218":0.9117487668991089,"219":0.43371161818504333,"220":1.2787517309188843,"221":-2.6342554092407227,"222":-0.895926833152771,"223":-2.4798126220703125,"224":-0.6002268195152283,"225":-3.2656326293945312,"226":2.3939225673675537,"227":1.0764628648757935,"228":0.9302878379821777,"229":2.217827558517456,"230":-0.5919738411903381,"231":-3.716705322265625,"232":-0.5606909394264221,"233":-1.1201211214065552,"234":-1.8034108877182007,"235":0.54669588804245,"236":-0.9559101462364197,"237":0.6062118411064148,"238":1.438172459602356,"239":-0.5146936178207397,"240":1.4725817441940308,"241":-0.09428881853818893,"242":1.8774183988571167,"243":-0.2191542088985443,"244":0.7391906976699829,"245":1.287721037864685,"246":1.066168189048767,"247":-1.5958305597305298,"248":-0.9772009253501892,"249":0.5445431470870972,"250":0.50911545753479,"251":0.16405130922794342,"252":-3.2781546115875244,"253":0.29286086559295654,"254":-1.6037801504135132,"255":0.8407362699508667,"256":0.24020133912563324,"257":-0.6822472214698792,"258":-1.2128965854644775,"259":-2.032763719558716,"260":0.5339783430099487,"261":0.5584577918052673,"262":0.08358104526996613,"263":-0.5583820343017578,"264":0.7786317467689514,"265":0.5769962072372437,"266":1.4381500482559204,"267":0.9381651878356934,"268":-0.512286901473999,"269":-0.7266914248466492,"270":0.3801777958869934,"271":0.4830935597419739,"272":-1.1476072072982788,"273":0.7944138050079346,"274":-0.2331801801919937,"275":0.9528872966766357,"276":1.4832432270050049,"277":0.38085827231407166,"278":1.1775110960006714,"279":-0.3566131591796875,"280":0.9423440098762512,"281":3.098027229309082,"282":0.579680323600769,"283":0.5340670347213745,"284":0.6066052913665771,"285":3.01938533782959,"286":-1.5342463254928589,"287":-1.6545934677124023,"288":0.7620306611061096,"289":-1.5708400011062622,"290":2.3233413696289062,"291":0.621341347694397,"292":0.15560129284858704,"293":3.2468879222869873,"294":-0.1941463053226471,"295":-1.4949533939361572,"296":0.8172526955604553,"297":-3.9291398525238037,"298":-1.3800227642059326,"299":1.4521865844726562,"300":0.08273956179618835,"301":0.7169744968414307,"302":-0.14076921343803406,"303":-0.33484315872192383,"304":0.9693298935890198,"305":0.05202377960085869,"306":-0.2866221070289612,"307":-0.4355372190475464,"308":0.012125147506594658,"309":-0.10151287913322449,"310":-1.5026471614837646,"311":-2.4734506607055664,"312":1.3103268146514893,"313":-0.037772197276353836,"314":1.1336313486099243,"315":0.27102863788604736,"316":0.2548776865005493,"317":0.2931240200996399,"318":-0.38979536294937134,"319":0.33884069323539734,"320":1.6900728940963745,"321":-0.1857508271932602,"322":-2.0908734798431396,"323":0.8861639499664307,"324":1.832037329673767,"325":-0.924300491809845,"326":0.058591317385435104,"327":1.0206491947174072,"328":-1.3305518627166748,"329":2.6183969974517822,"330":3.2129228115081787,"331":-0.45209720730781555,"332":-1.0519546270370483,"333":0.5416750907897949,"334":1.7752089500427246,"335":-4.849991798400879,"336":-3.0899152755737305,"337":0.15686701238155365,"338":0.020988384261727333,"339":0.6087639331817627,"340":-0.2632405757904053,"341":-2.900513172149658,"342":0.568709135055542,"343":-1.774606704711914,"344":0.16495005786418915,"345":-0.9937309622764587,"346":-0.14357778429985046,"347":-2.608513116836548,"348":0.0045358906500041485,"349":-0.1936241239309311,"350":-0.23734185099601746,"351":-1.324702501296997,"352":-1.59391450881958,"353":-3.3070805072784424,"354":-0.9530852437019348,"355":0.04377523437142372,"356":0.06684903055429459,"357":1.965072512626648,"358":-2.417114496231079,"359":-1.3262609243392944,"360":0.6591538786888123,"361":-0.3620772063732147,"362":1.8077036142349243,"363":0.7887306213378906,"364":0.5449060201644897,"365":0.41990405321121216,"366":0.6634859442710876,"367":-0.07559917867183685,"368":-0.4062555134296417,"369":-0.2547513544559479,"370":0.8925749659538269,"371":0.03488610312342644,"372":0.34029287099838257,"373":1.7607537508010864,"374":-0.8305665254592896,"375":1.180460810661316,"376":0.3986726701259613,"377":-0.37509992718696594,"378":1.0579081773757935,"379":0.1431622952222824,"380":-0.7729535102844238,"381":0.9440663456916809,"382":2.2651925086975098,"383":1.2892919778823853,"384":2.3749821186065674,"385":1.632388949394226,"386":-0.03226248547434807,"387":0.010995051823556423,"388":-0.3764854073524475,"389":-1.4223060607910156,"390":-0.11584998667240143,"391":0.7683807611465454,"392":-0.5912107825279236,"393":-1.6000713109970093,"394":-2.5704336166381836,"395":1.7576559782028198,"396":0.3262932300567627,"397":0.35724037885665894,"398":-0.31311190128326416,"399":-2.218839645385742}},"cellActivationBias":{"rows":20,"columns":1,"weights":{"0":1.2145732641220093,"1":-0.6798451542854309,"2":0.6695547699928284,"3":0.0033476254902780056,"4":0.13216227293014526,"5":0.7493122220039368,"6":-0.1970428228378296,"7":-1.011454463005066,"8":-0.03902454301714897,"9":0.868679404258728,"10":0.8451176285743713,"11":0.4495086669921875,"12":0.520965576171875,"13":-0.9220305681228638,"14":0.9557368755340576,"15":1.7598940134048462,"16":0.9997650384902954,"17":-0.001325923134572804,"18":-0.8366012573242188,"19":0.653959333896637}}}],"outputConnector":{"rows":14,"columns":20,"weights":{"0":0.1602398157119751,"1":3.0580623149871826,"2":2.590395927429199,"3":-2.0178513526916504,"4":0.08608179539442062,"5":2.733828544616699,"6":1.365402102470398,"7":-1.095582127571106,"8":2.218507766723633,"9":-3.991576671600342,"10":2.18448543548584,"11":-2.539175271987915,"12":-5.835556507110596,"13":1.3433998823165894,"14":4.115238189697266,"15":5.159242153167725,"16":2.9914207458496094,"17":-1.8376257419586182,"18":0.586393415927887,"19":-2.6056811809539795,"20":-0.8082141876220703,"21":0.3756612241268158,"22":0.634139895439148,"23":-0.3269975483417511,"24":-0.3907232880592346,"25":0.5406758189201355,"26":-3.133530616760254,"27":0.25982436537742615,"28":0.5412026047706604,"29":2.277836322784424,"30":-6.176286697387695,"31":0.06864512711763382,"32":-0.7179980278015137,"33":-0.4677724540233612,"34":0.2486160695552826,"35":-0.004273671191185713,"36":2.9627230167388916,"37":1.0064113140106201,"38":-0.2271910011768341,"39":-9.901519775390625,"40":3.2028369903564453,"41":-0.37668561935424805,"42":2.960880756378174,"43":5.457315921783447,"44":2.2620670795440674,"45":2.2504632472991943,"46":3.8704471588134766,"47":-7.088962554931641,"48":-2.762563467025757,"49":-0.5069612264633179,"50":2.4884886741638184,"51":6.475439548492432,"52":-0.6736381649971008,"53":2.61749267578125,"54":-4.841429233551025,"55":4.598893642425537,"56":1.398146629333496,"57":5.7218337059021,"58":-3.2017483711242676,"59":-2.045177698135376,"60":1.0239415168762207,"61":1.7473814487457275,"62":2.158172130584717,"63":3.9866206645965576,"64":2.387951135635376,"65":1.2913249731063843,"66":2.0402095317840576,"67":5.3149189949035645,"68":-2.007046937942505,"69":-0.18273654580116272,"70":0.772039532661438,"71":-0.026414373889565468,"72":-6.0458574295043945,"73":1.329551339149475,"74":-6.912778377532959,"75":1.8051742315292358,"76":1.1016449928283691,"77":-2.061018943786621,"78":-0.6093584299087524,"79":-2.6740310192108154,"80":-0.8447422385215759,"81":-0.7880393862724304,"82":0.4592430293560028,"83":-0.6263059973716736,"84":2.8387317657470703,"85":-0.3354099988937378,"86":-1.8374114036560059,"87":0.26677206158638,"88":-0.03658587858080864,"89":3.512784719467163,"90":-3.0818166732788086,"91":-0.35214492678642273,"92":-0.0699331983923912,"93":-1.0533725023269653,"94":-4.059114933013916,"95":0.4204024374485016,"96":1.2159165143966675,"97":0.8029666543006897,"98":-0.1629641056060791,"99":-0.94186931848526,"100":-0.6895714998245239,"101":-0.8301629424095154,"102":0.2199247032403946,"103":-0.4015447795391083,"104":-3.5204367637634277,"105":1.1154106855392456,"106":-2.710982084274292,"107":0.24726398289203644,"108":-0.39955347776412964,"109":2.0834426879882812,"110":-5.40777587890625,"111":-0.12886762619018555,"112":-0.13504238426685333,"113":-0.9936541318893433,"114":-3.2440834045410156,"115":0.2709215581417084,"116":-3.91528058052063,"117":0.47856783866882324,"118":0.024993842467665672,"119":-0.26403525471687317,"120":-0.7353151440620422,"121":-0.21116548776626587,"122":-0.42520639300346375,"123":-0.2351020723581314,"124":-4.289914131164551,"125":1.237298846244812,"126":3.544004440307617,"127":0.03211353346705437,"128":-0.3122454881668091,"129":1.2871694564819336,"130":-4.725578784942627,"131":-1.169100284576416,"132":-0.042450468987226486,"133":-0.6750577092170715,"134":0.8371564149856567,"135":1.1374828815460205,"136":0.8682288527488708,"137":0.8332943916320801,"138":-0.0687963142991066,"139":-0.1506754457950592,"140":-0.9884546995162964,"141":1.52739679813385,"142":-0.7053459882736206,"143":-0.544209361076355,"144":-4.7221808433532715,"145":-5.272946834564209,"146":1.89695405960083,"147":-0.5166069269180298,"148":-0.158015176653862,"149":3.8582122325897217,"150":-0.5583986639976501,"151":0.8172401189804077,"152":0.40568113327026367,"153":-0.19925366342067719,"154":0.5970603227615356,"155":1.8463033437728882,"156":-1.4682369232177734,"157":1.635303020477295,"158":-0.28214895725250244,"159":0.44398340582847595,"160":-0.7834701538085938,"161":-2.0146453380584717,"162":0.18852174282073975,"163":-0.6943361759185791,"164":-8.738773345947266,"165":-5.065093994140625,"166":-0.7986788153648376,"167":-0.5101999640464783,"168":4.622473239898682,"169":1.2003295421600342,"170":0.33131712675094604,"171":-1.6274653673171997,"172":0.9925686120986938,"173":-0.4308145046234131,"174":0.5602994561195374,"175":0.5728000402450562,"176":-4.070509910583496,"177":1.1681137084960938,"178":-0.22748422622680664,"179":-0.6610984802246094,"180":1.7175735235214233,"181":-2.1922965049743652,"182":1.0998677015304565,"183":-0.10317878425121307,"184":-9.16927433013916,"185":-1.4344388246536255,"186":-0.4443190097808838,"187":-0.7721633315086365,"188":3.8148841857910156,"189":-0.8982667922973633,"190":2.598423719406128,"191":-1.8049039840698242,"192":2.0588440895080566,"193":-5.066438674926758,"194":2.7370779514312744,"195":-3.545745372772217,"196":-0.3326893746852875,"197":-2.497628688812256,"198":1.4142417907714844,"199":2.103842258453369,"200":1.653194785118103,"201":2.0804266929626465,"202":-0.680230438709259,"203":2.984815835952759,"204":-3.1654975414276123,"205":-0.41605669260025024,"206":-2.9449517726898193,"207":-1.4360783100128174,"208":2.478760004043579,"209":-1.3740828037261963,"210":1.0757362842559814,"211":-0.15364839136600494,"212":0.6706705689430237,"213":-11.667215347290039,"214":2.158051013946533,"215":-2.876438617706299,"216":3.0770263671875,"217":-0.5698383450508118,"218":0.431308388710022,"219":1.758525013923645,"220":-3.7227394580841064,"221":-1.322644591331482,"222":-3.938500165939331,"223":2.4932873249053955,"224":1.206299066543579,"225":-1.3358246088027954,"226":-2.8889055252075195,"227":-2.27506685256958,"228":-0.39641985297203064,"229":0.5332324504852295,"230":1.257582664489746,"231":1.845271110534668,"232":0.431474506855011,"233":-10.648496627807617,"234":2.5524682998657227,"235":-3.1623475551605225,"236":-1.3570709228515625,"237":-0.5597898364067078,"238":-3.1289267539978027,"239":2.2095885276794434,"240":-9.436333656311035,"241":-0.26055389642715454,"242":-3.4475173950195312,"243":5.3000922203063965,"244":1.473144292831421,"245":-1.3036062717437744,"246":1.1202857494354248,"247":-3.2575483322143555,"248":1.6969126462936401,"249":4.11891508102417,"250":0.7295050621032715,"251":3.549929141998291,"252":0.13204117119312286,"253":-8.199117660522461,"254":-3.1132779121398926,"255":-1.4699690341949463,"256":-4.809452056884766,"257":-0.4467904269695282,"258":-3.0686862468719482,"259":2.4329798221588135,"260":-3.067906618118286,"261":2.8250131607055664,"262":-1.379336953163147,"263":3.2123913764953613,"264":-1.2400015592575073,"265":-1.8175801038742065,"266":-0.9193035960197449,"267":-0.06348852068185806,"268":1.2415491342544556,"269":1.3517688512802124,"270":-2.1606431007385254,"271":1.0496938228607178,"272":-4.289918422698975,"273":-1.6500532627105713,"274":-1.6838974952697754,"275":1.3721286058425903,"276":-1.7638053894042969,"277":0.920479416847229,"278":-3.0267558097839355,"279":-0.5313323736190796}},"output":{"rows":14,"columns":1,"weights":{"0":-11.461402893066406,"1":-0.10964853316545486,"2":-11.040091514587402,"3":-6.574357032775879,"4":-0.2456342577934265,"5":-0.12232767045497894,"6":-0.22712358832359314,"7":-0.5491995811462402,"8":-0.6996025443077087,"9":-11.202049255371094,"10":-10.139164924621582,"11":-10.474190711975098,"12":-9.649237632751465,"13":-9.160441398620605}}}